~o
<STREAMINFO> 1 25
<VECSIZE> 25<NULLD><MFCC_D_N_Z_0><DIAGC>
~h "b"
<BEGINHMM>
<NUMSTATES> 5
<STATE> 2
<MEAN> 25
 4.958423e+000 2.018034e+000 1.088949e+000 1.183645e+000 3.965200e-002 3.574516e+000 -2.812558e-001 -1.545560e+000 -2.098797e+000 -1.245205e+000 -1.324303e+000 1.006272e+000 5.782691e-001 7.307045e-001 3.119287e-001 6.489898e-002 1.338149e-001 6.995794e-001 -1.733264e-001 -3.067856e-001 -2.354722e-001 2.604008e-001 -4.834494e-001 8.451058e-002 -6.489592e-001
<VARIANCE> 25
 8.593816e+001 4.174212e+001 3.635868e+001 4.392766e+001 2.294702e+001 5.744047e+001 3.565780e+001 3.120646e+001 3.366687e+001 5.089058e+001 5.988251e+001 2.642163e+001 1.972869e+000 2.923693e+000 2.712332e+000 3.695077e+000 2.252006e+000 4.419405e+000 2.913728e+000 2.517862e+000 2.909095e+000 4.410522e+000 6.538453e+000 2.381977e+000 9.047994e+000
<GCONST> 1.063672e+002
<STATE> 3
<MEAN> 25
 6.342555e+000 3.644599e+000 1.568865e+000 1.387553e+000 4.819482e-001 4.751373e+000 -7.413294e-001 -2.030944e+000 -3.026371e+000 -5.055331e-001 -1.505540e+000 1.143368e+000 3.666186e-001 1.811484e-001 8.856361e-002 -1.002051e-001 1.378884e-001 9.559716e-002 -6.793189e-002 -1.536874e-001 -3.298590e-001 6.413061e-002 1.522028e-001 1.196200e-001 6.771631e-002
<VARIANCE> 25
 6.283773e+001 5.494249e+001 3.469683e+001 4.059056e+001 2.492402e+001 5.426841e+001 3.451635e+001 3.077521e+001 3.567989e+001 4.552262e+001 6.530276e+001 2.457002e+001 2.371583e+000 4.213749e+000 2.568006e+000 3.733312e+000 2.479226e+000 4.857769e+000 3.001816e+000 2.753912e+000 3.254298e+000 4.715789e+000 7.114984e+000 2.788689e+000 1.076193e+001
<GCONST> 1.075530e+002
<STATE> 4
<MEAN> 25
 6.900158e+000 2.726099e+000 1.244860e+000 3.413177e-001 5.302293e-001 3.872741e+000 -7.239383e-001 -2.105702e+000 -3.504070e+000 -6.970361e-001 3.650346e-002 2.076420e+000 1.264264e-001 -9.487862e-001 -2.207484e-001 -6.603155e-001 -9.914216e-002 -8.055366e-001 2.381561e-001 -1.132873e-002 1.869668e-001 -5.175504e-001 1.021651e+000 3.467803e-001 1.700136e+000
<VARIANCE> 25
 4.316291e+001 6.451489e+001 3.215031e+001 4.308893e+001 2.989245e+001 6.215459e+001 3.340795e+001 2.967633e+001 3.853278e+001 4.193613e+001 7.061975e+001 2.995158e+001 3.216601e+000 6.235390e+000 2.983683e+000 3.919621e+000 3.247096e+000 6.823610e+000 3.121112e+000 3.236472e+000 4.288703e+000 5.203629e+000 8.728164e+000 3.436789e+000 1.458879e+001
<GCONST> 1.106386e+002
<TRANSP> 5
 0.000000e+000 1.000000e+000 0.000000e+000 0.000000e+000 0.000000e+000
 0.000000e+000 5.644603e-001 4.355398e-001 0.000000e+000 0.000000e+000
 0.000000e+000 0.000000e+000 5.623926e-001 4.376075e-001 0.000000e+000
 0.000000e+000 0.000000e+000 0.000000e+000 6.830150e-001 3.169850e-001
 0.000000e+000 0.000000e+000 0.000000e+000 0.000000e+000 0.000000e+000
<ENDHMM>
~h "d"
<BEGINHMM>
<NUMSTATES> 5
<STATE> 2
<MEAN> 25
 3.587253e+000 -1.587250e+000 4.570637e+000 2.939440e+000 -1.850676e+000 -5.654342e+000 -3.955278e+000 -1.329229e+000 -1.752589e+000 -3.012141e-001 3.563186e-001 -6.622698e-001 3.799599e-001 4.617392e-001 3.793778e-001 2.852485e-001 -1.963610e-001 1.331224e-001 -4.936207e-001 -3.862411e-001 -4.113739e-001 7.961547e-002 -1.900233e-002 -2.689243e-001 -4.788495e-001
<VARIANCE> 25
 4.800003e+001 3.745865e+001 8.157091e+001 3.158214e+001 5.821338e+001 1.348288e+002 4.555645e+001 5.306541e+001 3.537648e+001 3.958387e+001 7.733822e+001 2.672886e+001 2.065586e+000 2.439950e+000 2.076727e+000 1.757338e+000 2.875913e+000 5.343839e+000 3.318549e+000 3.163568e+000 3.147815e+000 3.052090e+000 3.498382e+000 2.531984e+000 4.952092e+000
<GCONST> 1.069716e+002
<STATE> 3
<MEAN> 25
 4.833504e+000 -1.387467e-002 3.629839e+000 3.178966e+000 -1.095705e+000 -3.743865e+000 -4.917347e+000 -2.066031e+000 -2.611360e+000 6.634431e-001 -4.572082e-001 -1.219240e+000 5.521525e-001 3.872111e-001 1.252330e-001 2.810724e-001 -7.046074e-002 2.171530e-001 -2.407779e-001 -3.394549e-001 -3.085169e-001 2.777400e-001 -3.986235e-002 -3.197616e-001 -2.243317e-001
<VARIANCE> 25
 4.979804e+001 4.247422e+001 5.873577e+001 3.605902e+001 5.371590e+001 1.192749e+002 4.424387e+001 4.820834e+001 3.705585e+001 4.173655e+001 6.867124e+001 2.585361e+001 2.841640e+000 2.952868e+000 2.123782e+000 2.198118e+000 2.918128e+000 6.221654e+000 3.067305e+000 3.289715e+000 3.339021e+000 2.983239e+000 3.619451e+000 3.089088e+000 5.520832e+000
<GCONST> 1.078179e+002
<STATE> 4
<MEAN> 25
 5.886176e+000 6.517179e-001 3.767534e+000 3.333788e+000 -1.150331e+000 -2.727672e+000 -5.765626e+000 -2.727792e+000 -3.008016e+000 1.741548e+000 -1.030731e+000 -2.238419e+000 3.020544e-001 -2.917914e-002 2.399666e-002 7.325601e-003 -6.687798e-002 6.494974e-002 8.687739e-003 -9.654058e-002 8.955289e-002 2.788368e-001 2.636660e-002 -2.807245e-001 3.187418e-001
<VARIANCE> 25
 4.907950e+001 5.074434e+001 4.841191e+001 4.696275e+001 4.514059e+001 9.855837e+001 4.292067e+001 5.060014e+001 3.692910e+001 4.469111e+001 5.981069e+001 2.787584e+001 3.322174e+000 3.731604e+000 2.756999e+000 2.411583e+000 3.684690e+000 6.488521e+000 3.490609e+000 4.452734e+000 3.918924e+000 4.003095e+000 3.765583e+000 3.405314e+000 5.634586e+000
<GCONST> 1.097705e+002
<TRANSP> 5
 0.000000e+000 1.000000e+000 0.000000e+000 0.000000e+000 0.000000e+000
 0.000000e+000 5.136619e-001 4.863381e-001 0.000000e+000 0.000000e+000
 0.000000e+000 0.000000e+000 4.702463e-001 5.297537e-001 0.000000e+000
 0.000000e+000 0.000000e+000 0.000000e+000 5.590762e-001 4.409239e-001
 0.000000e+000 0.000000e+000 0.000000e+000 0.000000e+000 0.000000e+000
<ENDHMM>
~h "f"
<BEGINHMM>
<NUMSTATES> 5
<STATE> 2
<MEAN> 25
 -2.166117e+000 -3.011263e+000 -3.027302e-001 1.868877e+000 2.628322e+000 -1.346357e+000 8.237873e-001 2.495914e+000 1.847887e+000 7.512918e-001 -4.401306e-001 1.559428e+000 -1.714129e+000 -4.097514e-001 1.414408e-001 -9.692634e-002 9.640449e-001 1.885728e-001 1.125736e-001 6.672673e-001 4.539498e-001 4.210479e-001 2.913905e-001 1.509096e-001 7.569111e-002
<VARIANCE> 25
 1.189541e+002 3.206528e+001 2.791142e+001 5.395460e+001 4.823330e+001 3.769791e+001 4.326477e+001 4.698784e+001 3.541752e+001 5.033094e+001 4.698528e+001 1.863906e+001 5.331176e+000 2.514850e+000 1.689508e+000 3.954747e+000 3.530876e+000 3.180099e+000 3.206212e+000 3.717412e+000 3.361219e+000 4.076926e+000 3.820264e+000 1.402844e+000 2.741707e+000
<GCONST> 1.055912e+002
<STATE> 3
<MEAN> 25
 -5.802330e+000 -3.973656e+000 -5.155843e-001 1.194386e+000 4.582433e+000 -8.021171e-001 1.820535e+000 3.423812e+000 2.483478e+000 9.031454e-001 3.408773e-002 1.642721e+000 -1.019154e+000 -3.611948e-001 -2.326466e-002 -3.424008e-001 4.491391e-001 2.668262e-001 2.181759e-001 3.180120e-001 -9.024370e-002 -7.091885e-002 1.357591e-001 8.417950e-003 1.517337e-001
<VARIANCE> 25
 1.034056e+002 3.050121e+001 2.591984e+001 5.053960e+001 4.161568e+001 3.142672e+001 4.362291e+001 3.679416e+001 3.447434e+001 4.567833e+001 4.231451e+001 1.800396e+001 7.337131e+000 2.520957e+000 1.420209e+000 3.559498e+000 2.977972e+000 2.485101e+000 3.369623e+000 3.525470e+000 3.198432e+000 4.192694e+000 3.709212e+000 1.454704e+000 2.602655e+000
<GCONST> 1.039883e+002
<STATE> 4
<MEAN> 25
 -6.623973e+000 -5.036032e+000 -1.196194e+000 -8.906338e-001 4.721041e+000 7.306365e-002 3.164783e+000 4.233778e+000 2.220509e+000 7.264844e-001 1.105111e+000 1.613061e+000 9.668037e-001 7.064351e-002 -1.700426e-001 -8.618379e-001 -5.584051e-001 4.158169e-001 5.966709e-001 -1.703327e-001 -4.247557e-001 -3.516637e-001 2.931015e-001 -4.992442e-002 3.024973e-001
<VARIANCE> 25
 9.766467e+001 2.798521e+001 2.465333e+001 4.699232e+001 4.265630e+001 2.811837e+001 4.082852e+001 3.448021e+001 4.173234e+001 3.882996e+001 4.029099e+001 1.455947e+001 1.091979e+001 3.215525e+000 1.330860e+000 3.162307e+000 2.912594e+000 2.267367e+000 3.591994e+000 4.085793e+000 2.945593e+000 4.205473e+000 3.928634e+000 1.715168e+000 2.831145e+000
<GCONST> 1.040540e+002
<TRANSP> 5
 0.000000e+000 1.000000e+000 0.000000e+000 0.000000e+000 0.000000e+000
 0.000000e+000 5.439124e-001 4.560877e-001 0.000000e+000 0.000000e+000
 0.000000e+000 0.000000e+000 5.546454e-001 4.453546e-001 0.000000e+000
 0.000000e+000 0.000000e+000 0.000000e+000 7.216944e-001 2.783056e-001
 0.000000e+000 0.000000e+000 0.000000e+000 0.000000e+000 0.000000e+000
<ENDHMM>
~h "g"
<BEGINHMM>
<NUMSTATES> 5
<STATE> 2
<MEAN> 25
 1.575536e+000 -3.577742e+000 -1.862497e+000 1.362865e+000 3.515894e+000 -1.694722e+000 3.320168e-001 2.911539e+000 6.316569e-001 1.814587e+000 -2.738556e+000 -2.493603e+000 -3.100147e-002 5.434284e-002 -1.798987e-001 -1.851367e-001 2.398177e-001 8.033536e-001 2.643645e-001 4.599673e-002 1.947317e-001 1.437205e-001 -1.836400e-001 -1.933319e-001 -3.201598e-001
<VARIANCE> 25
 6.317368e+001 3.704140e+001 2.418213e+001 3.248466e+001 3.336971e+001 1.037874e+002 4.218769e+001 2.753482e+001 4.966998e+001 8.871656e+001 7.795987e+001 2.951070e+001 1.229913e+000 3.972657e+000 1.383339e+000 1.917723e+000 2.884515e+000 4.247698e+000 2.869147e+000 4.112001e+000 3.669989e+000 3.114851e+000 5.958151e+000 3.660661e+000 3.964483e+000
<GCONST> 1.061424e+002
<STATE> 3
<MEAN> 25
 1.580160e+000 -1.305834e+000 -2.068216e+000 9.997082e-001 4.203511e+000 1.671476e+000 3.348616e-001 2.267432e+000 1.385013e+000 3.241657e+000 -4.255607e+000 -1.988909e+000 1.315125e-001 6.770634e-001 1.262759e-001 -5.689216e-002 2.579691e-001 6.544291e-001 -6.448807e-002 -7.918142e-002 2.422225e-001 -5.953785e-002 2.695863e-002 3.551231e-001 -4.159426e-001
<VARIANCE> 25
 6.463618e+001 5.947378e+001 3.089271e+001 3.360168e+001 4.423867e+001 8.961234e+001 4.300315e+001 2.583701e+001 5.582844e+001 6.737469e+001 6.940903e+001 2.454331e+001 3.203824e+000 3.449129e+000 2.222120e+000 2.871922e+000 3.524796e+000 5.139387e+000 3.659192e+000 3.445457e+000 4.113952e+000 4.153093e+000 5.432693e+000 3.343131e+000 5.127791e+000
<GCONST> 1.091767e+002
<STATE> 4
<MEAN> 25
 2.746166e+000 6.944305e-001 -5.945564e-001 2.793520e-001 4.787737e+000 2.428772e+000 6.876764e-001 7.878099e-001 -1.376103e-002 3.698806e+000 -2.949306e+000 -1.224242e+000 -6.191988e-002 -5.389321e-002 5.573964e-001 7.039225e-002 -3.289478e-001 -6.037323e-001 -1.070726e-001 -1.334931e-001 -5.669444e-001 -6.115557e-001 7.334983e-001 -1.910319e-001 9.381634e-001
<VARIANCE> 25
 5.502253e+001 5.597939e+001 4.531594e+001 4.518586e+001 5.008152e+001 7.620914e+001 5.841394e+001 3.558397e+001 6.896782e+001 5.189397e+001 7.077740e+001 2.564392e+001 6.359945e+000 7.423452e+000 2.747619e+000 4.116230e+000 3.924279e+000 6.498488e+000 6.630391e+000 5.191459e+000 5.055641e+000 4.704101e+000 6.358798e+000 3.520849e+000 1.026289e+001
<GCONST> 1.148411e+002
<TRANSP> 5
 0.000000e+000 1.000000e+000 0.000000e+000 0.000000e+000 0.000000e+000
 0.000000e+000 5.935121e-001 4.064879e-001 0.000000e+000 0.000000e+000
 0.000000e+000 0.000000e+000 6.154193e-001 3.845807e-001 0.000000e+000
 0.000000e+000 0.000000e+000 0.000000e+000 8.285721e-001 1.714279e-001
 0.000000e+000 0.000000e+000 0.000000e+000 0.000000e+000 0.000000e+000
<ENDHMM>
~h "k"
<BEGINHMM>
<NUMSTATES> 5
<STATE> 2
<MEAN> 25
 1.557630e+000 -2.928085e+000 -2.304886e+000 -1.143148e+000 3.664182e+000 -4.000508e+000 4.891710e-001 2.900567e+000 -1.493780e+000 1.528032e-001 9.813449e-001 -3.262730e-001 -4.270167e-001 -2.850379e-001 1.486151e-001 -1.339492e-001 1.697928e-001 1.863218e-001 -4.640966e-001 5.351483e-001 1.451838e-001 4.159903e-001 1.299544e-001 -1.170979e-001 -5.490163e-002
<VARIANCE> 25
 7.878625e+001 3.464046e+001 4.203183e+001 5.136777e+001 5.396629e+001 1.129231e+002 8.064145e+001 3.759835e+001 3.306978e+001 4.032919e+001 7.522893e+001 3.100380e+001 2.924587e+000 3.630475e+000 3.270772e+000 4.636877e+000 3.884107e+000 6.243888e+000 4.296763e+000 3.672219e+000 3.405190e+000 4.315237e+000 7.179459e+000 3.123676e+000 1.170530e+001
<GCONST> 1.125050e+002
<STATE> 3
<MEAN> 25
 1.571524e-001 -3.341005e+000 -1.328875e+000 -1.143560e+000 3.010964e+000 -3.014987e+000 -1.066204e+000 3.783807e+000 -9.407153e-001 7.036467e-001 1.808677e+000 -1.719943e-001 -4.777233e-001 -3.350885e-001 2.362366e-001 -1.701064e-001 9.448167e-002 3.645854e-002 -1.452812e-001 4.314700e-001 5.130513e-002 2.013566e-001 4.616932e-001 -9.226490e-002 3.373528e-001
<VARIANCE> 25
 7.666696e+001 3.203869e+001 3.957134e+001 5.159195e+001 5.097680e+001 1.006194e+002 5.515817e+001 3.992919e+001 3.459756e+001 4.559480e+001 8.028522e+001 3.113489e+001 3.648556e+000 3.657724e+000 3.652300e+000 4.812300e+000 3.802209e+000 7.065012e+000 4.516656e+000 4.128833e+000 3.698924e+000 4.469532e+000 7.409729e+000 3.157225e+000 1.334789e+001
<GCONST> 1.130257e+002
<STATE> 4
<MEAN> 25
 -8.093206e-001 -4.394107e+000 -3.653931e-001 -8.903021e-001 2.571731e+000 -3.275034e+000 -1.341503e+000 4.954819e+000 -8.716015e-001 3.499515e-001 3.239136e+000 -5.500026e-001 -1.302670e-001 -1.702800e-001 1.525304e-001 -9.053124e-002 7.194132e-002 -2.184612e-001 2.764888e-001 1.953373e-001 -7.740969e-002 -1.652435e-001 4.411229e-001 1.696617e-002 5.650469e-001
<VARIANCE> 25
 7.340177e+001 3.226731e+001 3.794583e+001 5.480497e+001 4.576619e+001 9.081535e+001 4.814944e+001 3.986063e+001 3.703559e+001 4.986236e+001 8.389266e+001 2.810203e+001 5.053853e+000 3.358701e+000 3.449172e+000 4.748076e+000 3.629396e+000 5.992049e+000 3.953717e+000 4.084884e+000 4.316193e+000 4.267223e+000 8.018365e+000 2.924327e+000 1.155712e+001
<GCONST> 1.125399e+002
<TRANSP> 5
 0.000000e+000 1.000000e+000 0.000000e+000 0.000000e+000 0.000000e+000
 0.000000e+000 4.771134e-001 5.228866e-001 0.000000e+000 0.000000e+000
 0.000000e+000 0.000000e+000 4.428836e-001 5.571164e-001 0.000000e+000
 0.000000e+000 0.000000e+000 0.000000e+000 5.796456e-001 4.203544e-001
 0.000000e+000 0.000000e+000 0.000000e+000 0.000000e+000 0.000000e+000
<ENDHMM>
~h "l"
<BEGINHMM>
<NUMSTATES> 5
<STATE> 2
<MEAN> 25
 6.677962e+000 -5.264553e+000 -2.200733e+000 -7.300592e+000 1.783384e+000 -6.136003e+000 4.347003e+000 -3.412503e+000 -3.007791e+000 1.743358e+000 5.629574e+000 -1.479577e+000 1.685704e-001 6.648040e-002 -7.831354e-002 -2.666595e-001 3.221184e-001 -1.898779e-002 -5.119764e-002 -2.756278e-001 -2.454247e-001 9.971665e-002 9.341047e-002 -7.980206e-002 1.047188e-001
<VARIANCE> 25
 2.675058e+001 3.421470e+001 2.941527e+001 6.020177e+001 3.811536e+001 5.460388e+001 6.975851e+001 6.616192e+001 5.176241e+001 3.151445e+001 4.148752e+001 4.404395e+001 1.627937e+000 1.276002e+000 1.661832e+000 2.705574e+000 2.590449e+000 3.495906e+000 3.659137e+000 4.824632e+000 3.199003e+000 2.390045e+000 2.930684e+000 2.469929e+000 3.951248e+000
<GCONST> 1.039272e+002
<STATE> 3
<MEAN> 25
 7.065746e+000 -4.836297e+000 -2.389299e+000 -7.617776e+000 2.799638e+000 -5.888400e+000 4.180731e+000 -3.533738e+000 -3.682572e+000 1.938128e+000 5.573664e+000 -1.643632e+000 -1.426135e-002 1.837807e-001 2.230467e-002 1.284374e-001 2.854176e-001 3.829935e-002 -1.549800e-001 1.294097e-001 -1.290632e-001 -4.814372e-003 -1.002154e-001 -2.034745e-002 -3.003784e-001
<VARIANCE> 25
 2.012528e+001 3.300068e+001 2.986446e+001 5.608057e+001 3.763206e+001 6.617755e+001 6.917073e+001 6.739286e+001 5.146819e+001 3.166918e+001 3.886723e+001 4.275802e+001 1.265026e+000 1.067490e+000 1.419178e+000 2.425589e+000 2.311449e+000 3.792840e+000 3.344978e+000 4.320395e+000 3.204977e+000 2.317881e+000 2.729910e+000 2.460635e+000 2.939987e+000
<GCONST> 1.023150e+002
<STATE> 4
<MEAN> 25
 7.015021e+000 -3.934034e+000 -2.361116e+000 -6.258858e+000 3.619730e+000 -4.886708e+000 3.958181e+000 -2.723686e+000 -4.311107e+000 1.724265e+000 4.085510e+000 -1.228297e+000 -1.573507e-001 2.717121e-001 2.194044e-001 5.152372e-001 -5.212159e-002 1.913231e-001 -3.530163e-001 2.318040e-001 4.826090e-002 -1.534586e-001 -3.536332e-001 1.022406e-001 -7.078831e-001
<VARIANCE> 25
 2.122794e+001 2.908845e+001 2.958552e+001 6.048398e+001 3.602422e+001 9.667025e+001 5.984192e+001 6.480966e+001 5.071421e+001 3.343087e+001 4.438821e+001 3.851416e+001 1.242971e+000 1.056596e+000 1.385303e+000 2.524696e+000 2.306896e+000 3.813791e+000 3.572291e+000 3.519881e+000 2.963831e+000 2.298303e+000 2.804990e+000 2.480849e+000 2.868594e+000
<GCONST> 1.023038e+002
<TRANSP> 5
 0.000000e+000 1.000000e+000 0.000000e+000 0.000000e+000 0.000000e+000
 0.000000e+000 6.140445e-001 3.859555e-001 0.000000e+000 0.000000e+000
 0.000000e+000 0.000000e+000 6.321810e-001 3.678190e-001 0.000000e+000
 0.000000e+000 0.000000e+000 0.000000e+000 7.829276e-001 2.170724e-001
 0.000000e+000 0.000000e+000 0.000000e+000 0.000000e+000 0.000000e+000
<ENDHMM>
~h "m"
<BEGINHMM>
<NUMSTATES> 5
<STATE> 2
<MEAN> 25
 5.652197e+000 -2.455190e+000 3.618836e-001 4.371116e+000 -3.463162e-001 -1.753105e+000 3.241952e-001 4.861265e-001 -3.530124e+000 -4.262403e+000 -3.341049e+000 2.852141e+000 4.846036e-001 -2.631978e-002 -4.327849e-002 7.031277e-001 9.898311e-002 -2.244696e-002 -2.657687e-001 1.008980e-001 -2.115384e-001 -1.555486e-001 -8.733212e-001 4.931003e-001 -6.970498e-001
<VARIANCE> 25
 9.731402e+001 3.377338e+001 2.182494e+001 3.943097e+001 2.055947e+001 7.846210e+001 3.534944e+001 3.620016e+001 3.930419e+001 6.155409e+001 3.483042e+001 2.684578e+001 2.979359e+000 1.813527e+000 2.092974e+000 4.699446e+000 1.653304e+000 4.353756e+000 2.238929e+000 2.585524e+000 3.258025e+000 4.985848e+000 3.815953e+000 2.184126e+000 4.254074e+000
<GCONST> 1.040330e+002
<STATE> 3
<MEAN> 25
 6.273183e+000 -2.369432e+000 1.918129e-001 5.378495e+000 -8.691370e-002 -1.858856e+000 -3.690064e-001 3.578484e-001 -3.704458e+000 -4.034044e+000 -4.233449e+000 3.855651e+000 3.765535e-001 -1.298043e-001 -5.821277e-002 2.073706e-001 1.436133e-001 -4.036982e-001 -2.300097e-001 -3.777214e-002 9.765749e-002 1.407179e-001 -5.375443e-003 5.174579e-001 1.081814e-001
<VARIANCE> 25
 9.768933e+001 3.544374e+001 2.170320e+001 4.160010e+001 1.832764e+001 7.479883e+001 3.676389e+001 3.439311e+001 3.735962e+001 6.123023e+001 3.305103e+001 2.688346e+001 4.572370e+000 2.516714e+000 2.052027e+000 5.947807e+000 2.041251e+000 6.091322e+000 2.277879e+000 3.269536e+000 3.711808e+000 5.366779e+000 4.343904e+000 2.701710e+000 7.165134e+000
<GCONST> 1.066894e+002
<STATE> 4
<MEAN> 25
 8.002566e+000 -3.481231e+000 -2.783459e-001 5.791373e+000 4.769101e-001 -3.972735e+000 -1.748039e+000 1.078994e+000 -3.162863e+000 -3.605637e+000 -2.635958e+000 5.433432e+000 1.028552e-001 -2.539258e-001 -1.805423e-001 -9.811169e-001 2.209201e-001 -7.060824e-001 7.596654e-002 6.634487e-002 3.023182e-001 4.382977e-001 8.796904e-001 -1.396949e-001 1.336031e+000
<VARIANCE> 25
 8.387006e+001 3.601722e+001 2.867417e+001 5.444567e+001 1.880502e+001 7.148431e+001 4.577781e+001 4.640521e+001 3.394344e+001 6.020119e+001 4.020825e+001 2.774068e+001 6.564980e+000 2.811298e+000 2.422448e+000 5.769001e+000 2.270884e+000 6.259554e+000 2.653042e+000 4.277557e+000 3.624072e+000 4.716265e+000 4.821567e+000 3.614910e+000 9.617293e+000
<GCONST> 1.094139e+002
<TRANSP> 5
 0.000000e+000 1.000000e+000 0.000000e+000 0.000000e+000 0.000000e+000
 0.000000e+000 4.039154e-001 5.960847e-001 0.000000e+000 0.000000e+000
 0.000000e+000 0.000000e+000 4.193907e-001 5.806093e-001 0.000000e+000
 0.000000e+000 0.000000e+000 0.000000e+000 5.989299e-001 4.010701e-001
 0.000000e+000 0.000000e+000 0.000000e+000 0.000000e+000 0.000000e+000
<ENDHMM>
~h "n"
<BEGINHMM>
<NUMSTATES> 5
<STATE> 2
<MEAN> 25
 8.621861e+000 -5.510591e+000 -4.026564e-002 1.888462e+000 -1.393350e+000 -8.448018e+000 1.770844e+000 1.128228e+000 -1.695778e+000 -8.396451e-001 -1.609716e-002 -7.559215e-002 9.215425e-002 -7.433552e-002 1.096295e-001 3.127646e-002 -1.545745e-001 -1.063213e-001 1.212355e-002 2.828398e-001 -2.012813e-001 -6.998546e-002 1.680705e-001 -1.755129e-001 1.438017e-001
<VARIANCE> 25
 5.274687e+001 3.479018e+001 2.831051e+001 5.579705e+001 3.992534e+001 8.242018e+001 4.049005e+001 3.020859e+001 3.869136e+001 3.249121e+001 5.516334e+001 2.644107e+001 3.239280e+000 2.385472e+000 2.610686e+000 5.512677e+000 3.210076e+000 4.547397e+000 4.253458e+000 3.128938e+000 3.160235e+000 3.254622e+000 5.671192e+000 2.869777e+000 5.175725e+000
<GCONST> 1.072016e+002
<STATE> 3
<MEAN> 25
 8.454532e+000 -5.585704e+000 3.015182e-001 1.709654e+000 -1.535375e+000 -8.377855e+000 1.629970e+000 1.479934e+000 -2.261901e+000 -1.160719e+000 7.487236e-001 -3.563380e-001 -1.060144e-001 6.916557e-002 1.201068e-001 -4.835528e-002 -9.926915e-003 -1.497752e-002 -3.363653e-002 7.008749e-002 -1.492287e-001 -1.069554e-001 2.685313e-001 -1.738822e-001 1.681349e-001
<VARIANCE> 25
 5.667422e+001 3.288655e+001 3.478858e+001 6.111048e+001 4.681470e+001 8.156227e+001 3.923767e+001 2.859089e+001 3.659624e+001 3.497681e+001 6.266151e+001 2.972805e+001 3.695239e+000 2.587930e+000 2.759185e+000 5.598210e+000 3.235788e+000 4.272285e+000 3.736994e+000 2.910902e+000 3.098791e+000 3.435427e+000 5.984302e+000 2.906725e+000 5.770925e+000
<GCONST> 1.080766e+002
<STATE> 4
<MEAN> 25
 8.144320e+000 -5.411103e+000 6.474970e-001 1.278693e+000 -1.336449e+000 -8.448584e+000 1.574960e+000 1.427049e+000 -2.630714e+000 -1.584265e+000 1.806414e+000 -6.356797e-001 -3.690113e-001 3.992319e-001 8.843228e-002 -1.202067e-001 1.979464e-001 2.296450e-001 -1.957730e-003 1.230505e-002 7.428401e-002 6.027308e-002 2.011849e-001 -1.034099e-001 -6.580889e-002
<VARIANCE> 25
 5.857539e+001 3.328022e+001 4.274847e+001 6.466355e+001 4.931414e+001 6.964507e+001 3.772338e+001 2.795892e+001 3.610381e+001 3.783585e+001 7.311429e+001 3.145360e+001 3.934540e+000 2.416998e+000 2.666520e+000 4.838675e+000 3.046624e+000 4.020483e+000 3.613181e+000 2.747116e+000 2.916703e+000 3.778332e+000 5.417380e+000 2.710912e+000 4.669727e+000
<GCONST> 1.077476e+002
<TRANSP> 5
 0.000000e+000 1.000000e+000 0.000000e+000 0.000000e+000 0.000000e+000
 0.000000e+000 5.730088e-001 4.269912e-001 0.000000e+000 0.000000e+000
 0.000000e+000 0.000000e+000 5.775875e-001 4.224125e-001 0.000000e+000
 0.000000e+000 0.000000e+000 0.000000e+000 6.809156e-001 3.190843e-001
 0.000000e+000 0.000000e+000 0.000000e+000 0.000000e+000 0.000000e+000
<ENDHMM>
~h "p"
<BEGINHMM>
<NUMSTATES> 5
<STATE> 2
<MEAN> 25
 1.761893e+000 2.884930e-002 -2.608210e+000 -3.049733e+000 1.188774e+000 5.237365e+000 -1.988035e+000 -9.594915e-001 -1.279388e+000 2.381768e+000 -1.135280e+000 5.442800e-001 2.465292e-001 -8.801789e-001 3.810032e-002 -1.859096e-001 -4.197803e-001 -9.328411e-001 1.038997e-001 3.871807e-001 -6.289563e-002 -2.329952e-001 1.259856e+000 -2.145637e-001 1.674223e+000
<VARIANCE> 25
 4.388886e+001 3.982957e+001 2.443161e+001 3.676764e+001 3.326657e+001 8.300669e+001 5.060816e+001 4.320334e+001 3.699067e+001 6.171805e+001 7.925317e+001 3.051244e+001 3.656102e+000 5.261187e+000 2.828344e+000 4.095631e+000 3.465534e+000 7.723165e+000 4.996926e+000 4.132370e+000 4.205143e+000 4.354038e+000 1.047632e+001 3.721120e+000 1.714964e+001
<GCONST> 1.124849e+002
<STATE> 3
<MEAN> 25
 3.548987e+000 -2.917645e+000 -2.350819e+000 -3.902568e+000 3.764049e-001 1.072011e+000 -2.868301e-001 1.480646e-001 -2.112360e+000 7.202511e-001 3.217293e+000 6.973486e-002 7.171274e-001 -9.595700e-001 1.920589e-001 -7.386618e-003 -3.289876e-001 -1.255484e+000 5.562212e-001 4.627801e-002 -3.164755e-001 -5.712863e-001 1.371563e+000 -1.743745e-001 2.386705e+000
<VARIANCE> 25
 4.309579e+001 4.071623e+001 2.924931e+001 4.461118e+001 4.229846e+001 1.053903e+002 5.582547e+001 5.088815e+001 3.763017e+001 5.806698e+001 8.608307e+001 3.542986e+001 4.703289e+000 4.752384e+000 3.393599e+000 4.261765e+000 3.545071e+000 6.892244e+000 5.786029e+000 4.431099e+000 4.416687e+000 4.264967e+000 9.100254e+000 3.085857e+000 1.480802e+001
<GCONST> 1.138420e+002
<STATE> 4
<MEAN> 25
 5.982810e+000 -4.995304e+000 -2.035740e+000 -3.272066e+000 1.599336e+000 -2.238491e+000 1.521337e+000 -7.395830e-001 -2.346311e+000 9.177225e-001 3.392161e+000 -1.053927e+000 3.629718e-001 -2.843516e-001 1.820911e-001 1.087284e-001 -1.105332e-001 -6.635578e-001 1.217446e-001 -7.520495e-002 -3.340015e-003 -3.266172e-001 2.060024e-001 -8.104125e-002 9.389977e-001
<VARIANCE> 25
 3.431410e+001 3.195056e+001 3.942559e+001 4.926585e+001 4.255965e+001 9.506026e+001 6.192120e+001 5.052031e+001 4.362717e+001 4.876952e+001 7.130225e+001 3.512526e+001 3.772293e+000 3.371636e+000 3.389230e+000 4.572965e+000 3.100308e+000 6.860610e+000 5.395682e+000 3.633866e+000 4.147471e+000 3.890723e+000 5.430461e+000 2.594443e+000 8.939736e+000
<GCONST> 1.112946e+002
<TRANSP> 5
 0.000000e+000 1.000000e+000 0.000000e+000 0.000000e+000 0.000000e+000
 0.000000e+000 6.843195e-001 3.156804e-001 0.000000e+000 0.000000e+000
 0.000000e+000 0.000000e+000 6.453685e-001 3.546315e-001 0.000000e+000
 0.000000e+000 0.000000e+000 0.000000e+000 8.458490e-001 1.541510e-001
 0.000000e+000 0.000000e+000 0.000000e+000 0.000000e+000 0.000000e+000
<ENDHMM>
~h "r"
<BEGINHMM>
<NUMSTATES> 5
<STATE> 2
<MEAN> 25
 5.773196e+000 -3.872694e+000 -3.234943e+000 -1.869429e+000 2.780010e+000 -7.376054e+000 2.860734e+000 8.719426e-001 -9.117409e-001 -3.923256e+000 5.199670e+000 8.715559e-001 1.207001e-001 1.005993e-001 8.141442e-003 3.776836e-001 1.219574e-001 -7.537210e-002 -2.011808e-001 1.446983e-002 7.468130e-002 -3.190206e-002 -1.375623e-001 1.257002e-001 -1.276515e-001
<VARIANCE> 25
 3.160083e+001 2.734776e+001 5.075803e+001 5.468006e+001 4.847544e+001 1.046031e+002 5.959608e+001 3.300794e+001 3.224866e+001 6.249757e+001 5.843732e+001 3.028503e+001 2.777251e+000 1.882981e+000 2.651681e+000 3.161070e+000 3.003632e+000 5.130865e+000 3.625546e+000 2.612541e+000 2.505039e+000 3.830422e+000 3.537284e+000 2.115815e+000 4.584284e+000
<GCONST> 1.064007e+002
<STATE> 3
<MEAN> 25
 5.901102e+000 -3.659497e+000 -2.799832e+000 -9.053893e-001 2.631871e+000 -7.337943e+000 2.546624e+000 8.844861e-001 -8.340301e-001 -3.786207e+000 4.550035e+000 1.418277e+000 4.150690e-002 7.818691e-002 2.720234e-001 4.884546e-001 -5.322337e-002 1.070125e-001 -2.822628e-001 7.006029e-002 -4.775866e-002 9.994923e-002 -3.550960e-001 1.855407e-001 -3.928142e-001
<VARIANCE> 25
 3.518708e+001 2.862231e+001 5.158078e+001 5.412614e+001 4.865800e+001 1.163014e+002 6.172314e+001 3.298993e+001 3.549360e+001 5.826319e+001 5.916167e+001 2.941210e+001 2.549095e+000 1.764680e+000 2.365160e+000 2.909165e+000 3.072834e+000 5.416498e+000 3.565419e+000 2.595293e+000 2.294898e+000 3.590515e+000 3.624375e+000 2.110745e+000 4.086387e+000
<GCONST> 1.061729e+002
<STATE> 4
<MEAN> 25
 6.264625e+000 -3.531198e+000 -2.054559e+000 3.784102e-001 2.692668e+000 -6.735144e+000 2.281349e+000 1.236605e+000 -7.786936e-001 -3.477360e+000 2.936386e+000 2.324375e+000 -9.567650e-002 6.525858e-002 4.934648e-001 5.352970e-001 -1.309264e-001 4.673799e-001 -3.273135e-001 8.558535e-002 -1.476485e-001 2.598307e-001 -5.512167e-001 3.241779e-002 -7.842426e-001
<VARIANCE> 25
 4.258881e+001 3.503088e+001 4.790640e+001 5.135378e+001 4.361184e+001 1.253657e+002 5.846684e+001 3.466586e+001 3.269973e+001 5.702594e+001 6.298222e+001 3.438973e+001 2.279279e+000 1.744539e+000 2.276234e+000 2.826512e+000 3.132969e+000 5.982753e+000 3.234730e+000 2.547989e+000 2.428069e+000 3.555778e+000 3.905444e+000 2.480718e+000 3.710296e+000
<GCONST> 1.065147e+002
<TRANSP> 5
 0.000000e+000 1.000000e+000 0.000000e+000 0.000000e+000 0.000000e+000
 0.000000e+000 5.096290e-001 4.903710e-001 0.000000e+000 0.000000e+000
 0.000000e+000 0.000000e+000 5.026874e-001 4.973126e-001 0.000000e+000
 0.000000e+000 0.000000e+000 0.000000e+000 6.290884e-001 3.709116e-001
 0.000000e+000 0.000000e+000 0.000000e+000 0.000000e+000 0.000000e+000
<ENDHMM>
~h "s"
<BEGINHMM>
<NUMSTATES> 5
<STATE> 2
<MEAN> 25
 -1.076012e+001 3.300890e+000 2.893214e+000 -2.128479e+000 8.743773e+000 -3.563811e+000 1.944308e+000 6.310709e+000 7.021996e-001 -4.377525e-001 2.505603e+000 1.397042e+000 -2.241806e+000 7.563047e-001 3.314087e-001 -2.078525e-001 5.784315e-001 6.378842e-001 -2.095983e-001 1.003888e+000 6.681191e-001 -1.417115e-001 3.143145e-001 5.634143e-001 7.872087e-002
<VARIANCE> 25
 1.249375e+002 3.073662e+001 3.132188e+001 3.492705e+001 4.328865e+001 4.674721e+001 4.660394e+001 6.270576e+001 3.729510e+001 3.181962e+001 3.033337e+001 3.031504e+001 8.084603e+000 3.077959e+000 2.447067e+000 3.209382e+000 4.090771e+000 4.044203e+000 5.075929e+000 5.295968e+000 3.611918e+000 3.582529e+000 3.108828e+000 3.142412e+000 2.626954e+000
<GCONST> 1.078714e+002
<STATE> 3
<MEAN> 25
 -1.544592e+001 4.101388e+000 3.390316e+000 -2.661289e+000 9.127930e+000 -2.013126e+000 1.836552e+000 7.991333e+000 2.590727e+000 -1.807459e-001 2.774475e+000 2.842335e+000 1.488605e-002 -1.997443e-001 -4.787439e-002 -8.407909e-002 -2.532298e-001 1.848074e-001 -1.978336e-002 -8.976451e-002 1.452658e-001 1.154151e-001 -1.223062e-001 8.076699e-003 -2.495395e-001
<VARIANCE> 25
 7.276111e+001 2.820142e+001 2.540680e+001 2.577676e+001 4.323146e+001 4.917910e+001 4.832588e+001 4.974175e+001 4.016010e+001 3.229698e+001 3.095210e+001 2.540309e+001 1.087911e+001 3.056784e+000 2.167660e+000 2.347901e+000 4.154751e+000 3.942521e+000 4.066946e+000 4.711505e+000 3.757694e+000 3.444129e+000 3.029603e+000 3.293916e+000 4.105891e+000
<GCONST> 1.064937e+002
<STATE> 4
<MEAN> 25
 -1.072990e+001 2.028613e+000 2.537945e+000 -2.659879e+000 6.748505e+000 -2.120381e+000 1.595881e+000 5.430464e+000 1.964761e+000 1.917954e-001 1.594051e+000 1.608921e+000 1.764970e+000 -5.770587e-001 -4.533478e-001 -2.488311e-002 -8.092269e-001 -2.060022e-001 7.819110e-003 -9.106653e-001 -3.175622e-001 1.056191e-001 -3.645577e-001 -5.115568e-001 -1.784201e-001
<VARIANCE> 25
 1.125270e+002 3.425871e+001 3.068642e+001 3.037366e+001 5.014044e+001 6.350959e+001 5.086642e+001 5.499572e+001 4.118877e+001 3.422096e+001 3.884583e+001 3.070583e+001 9.088099e+000 2.959920e+000 2.579874e+000 3.052646e+000 4.154932e+000 4.615404e+000 4.181227e+000 4.932110e+000 3.813019e+000 3.331486e+000 3.928743e+000 3.117024e+000 7.239325e+000
<GCONST> 1.097415e+002
<TRANSP> 5
 0.000000e+000 1.000000e+000 0.000000e+000 0.000000e+000 0.000000e+000
 0.000000e+000 7.920729e-001 2.079272e-001 0.000000e+000 0.000000e+000
 0.000000e+000 0.000000e+000 7.497601e-001 2.502399e-001 0.000000e+000
 0.000000e+000 0.000000e+000 0.000000e+000 7.707582e-001 2.292419e-001
 0.000000e+000 0.000000e+000 0.000000e+000 0.000000e+000 0.000000e+000
<ENDHMM>
~h "t"
<BEGINHMM>
<NUMSTATES> 5
<STATE> 2
<MEAN> 25
 2.488358e+000 -1.922143e+000 4.352103e-001 -2.247910e+000 1.449313e+000 -4.421760e+000 -1.274759e+000 -9.403473e-001 -1.809507e+000 1.850544e-001 1.727240e+000 3.358004e-001 6.335211e-002 -3.025365e-001 -2.577037e-001 -3.609318e-001 2.009572e-001 -3.775735e-001 1.888972e-001 -1.745451e-002 1.898902e-001 1.025536e-001 2.087013e-001 -1.137379e-001 3.707237e-001
<VARIANCE> 25
 5.363948e+001 3.532433e+001 4.451560e+001 5.931936e+001 4.423341e+001 9.428086e+001 5.289159e+001 4.703222e+001 4.483479e+001 4.459543e+001 5.426155e+001 3.953448e+001 4.560048e+000 3.395541e+000 2.985161e+000 5.002079e+000 3.417889e+000 7.596328e+000 4.201235e+000 4.842791e+000 5.149387e+000 4.392263e+000 6.248388e+000 3.234082e+000 1.111296e+001
<GCONST> 1.130448e+002
<STATE> 3
<MEAN> 25
 2.809054e+000 -2.495866e+000 -3.612644e-002 -2.500232e+000 2.139158e+000 -5.644620e+000 -5.907612e-001 -8.625946e-001 -1.148013e+000 5.486485e-001 2.042928e+000 1.890931e-001 1.397194e-001 -1.346419e-001 -1.221900e-001 -3.816193e-002 9.246573e-002 -4.240899e-001 3.253906e-001 -1.081101e-002 7.359699e-002 7.050735e-002 1.147219e-001 -7.289335e-002 4.106375e-001
<VARIANCE> 25
 4.942677e+001 3.265884e+001 4.423407e+001 6.070221e+001 4.424292e+001 9.669498e+001 5.349421e+001 5.174441e+001 4.714949e+001 4.302652e+001 5.280906e+001 3.676696e+001 4.248831e+000 2.806733e+000 3.004616e+000 5.115604e+000 3.502274e+000 8.024139e+000 4.431612e+000 5.025486e+000 5.024503e+000 4.102489e+000 5.787531e+000 3.050379e+000 1.058636e+001
<GCONST> 1.126093e+002
<STATE> 4
<MEAN> 25
 3.580479e+000 -2.566396e+000 -4.374361e-001 -1.965442e+000 2.170993e+000 -6.140452e+000 3.135580e-001 -8.400958e-001 -1.123079e+000 7.868225e-001 1.618357e+000 2.504925e-001 1.734150e-001 1.376025e-002 2.098976e-002 1.620466e-001 -1.693521e-001 -1.792893e-001 3.442106e-001 -2.057388e-002 -1.331861e-001 -3.009215e-002 -7.201032e-002 -9.741969e-002 2.126446e-001
<VARIANCE> 25
 4.787261e+001 3.149064e+001 4.342761e+001 6.364766e+001 4.149340e+001 1.100688e+002 5.430802e+001 4.872808e+001 5.494633e+001 4.700446e+001 5.320096e+001 3.095567e+001 3.876416e+000 2.198809e+000 2.805977e+000 4.926986e+000 3.234415e+000 7.074618e+000 4.367391e+000 4.535278e+000 4.951952e+000 3.665406e+000 4.616879e+000 2.664759e+000 8.527186e+000
<GCONST> 1.111980e+002
<TRANSP> 5
 0.000000e+000 1.000000e+000 0.000000e+000 0.000000e+000 0.000000e+000
 0.000000e+000 5.937508e-001 4.062492e-001 0.000000e+000 0.000000e+000
 0.000000e+000 0.000000e+000 5.861599e-001 4.138401e-001 0.000000e+000
 0.000000e+000 0.000000e+000 0.000000e+000 6.865966e-001 3.134033e-001
 0.000000e+000 0.000000e+000 0.000000e+000 0.000000e+000 0.000000e+000
<ENDHMM>
~h "v"
<BEGINHMM>
<NUMSTATES> 5
<STATE> 2
<MEAN> 25
 3.763457e+000 -3.864248e+000 3.447340e-001 -4.649141e-002 8.510911e-001 -4.298532e+000 2.935880e+000 -7.239642e-001 -2.330818e+000 -1.153413e+000 1.812284e+000 1.564419e-001 2.223880e-001 -5.840211e-002 -6.644201e-001 -1.442739e-001 -2.646578e-002 9.184507e-002 6.732991e-002 2.433649e-001 3.010891e-001 3.571310e-002 -4.019830e-001 2.676153e-001 -9.452161e-002
<VARIANCE> 25
 7.247031e+001 2.912743e+001 8.752496e+001 5.926906e+001 6.674963e+001 6.499506e+001 8.368430e+001 4.510693e+001 3.264482e+001 4.983424e+001 4.128674e+001 1.990493e+001 4.089186e+000 2.302195e+000 2.561225e+000 4.264011e+000 3.694293e+000 4.211954e+000 3.646737e+000 3.826279e+000 3.341560e+000 2.991268e+000 3.291531e+000 1.948846e+000 3.318290e+000
<GCONST> 1.082466e+002
<STATE> 3
<MEAN> 25
 4.828086e+000 -3.873899e+000 -1.107235e+000 -4.656517e-001 6.586571e-001 -4.129667e+000 2.740441e+000 -5.176656e-001 -1.919205e+000 -1.082742e+000 1.243343e+000 5.077393e-001 3.139783e-001 -4.930132e-002 -5.621117e-001 -1.674023e-001 -1.578386e-001 1.845177e-001 -2.502439e-001 1.293258e-001 2.028188e-001 -2.507657e-002 -1.889939e-001 1.305868e-001 -3.097325e-001
<VARIANCE> 25
 7.152989e+001 2.870347e+001 7.615819e+001 6.222677e+001 6.498355e+001 6.640376e+001 7.979152e+001 4.753598e+001 3.417518e+001 4.744211e+001 3.895779e+001 1.994545e+001 3.383118e+000 2.239609e+000 2.782923e+000 5.373055e+000 3.840822e+000 4.110126e+000 3.416654e+000 3.710902e+000 3.168793e+000 2.784376e+000 3.447685e+000 1.834859e+000 3.405504e+000
<GCONST> 1.079715e+002
<STATE> 4
<MEAN> 25
 6.959715e+000 -3.708695e+000 -2.912745e+000 -1.508907e+000 -6.057330e-001 -3.408035e+000 3.020113e+000 -1.241024e+000 -1.575774e+000 -1.991500e+000 1.202463e+000 6.269075e-001 1.237995e-001 1.053912e-002 -2.300982e-001 1.181518e-001 -1.371043e-001 2.311403e-001 -3.984452e-001 2.443760e-002 2.929666e-001 2.564921e-002 -1.711255e-001 9.641394e-003 -4.475920e-001
<VARIANCE> 25
 6.564860e+001 3.185209e+001 5.306168e+001 8.149578e+001 6.583582e+001 6.707434e+001 7.235735e+001 5.245928e+001 3.509109e+001 5.150294e+001 4.537013e+001 2.031529e+001 2.884056e+000 2.022979e+000 2.792897e+000 5.986939e+000 3.788401e+000 3.311442e+000 3.272274e+000 3.490097e+000 2.969758e+000 2.909793e+000 4.285586e+000 1.669136e+000 3.212972e+000
<GCONST> 1.077613e+002
<TRANSP> 5
 0.000000e+000 1.000000e+000 0.000000e+000 0.000000e+000 0.000000e+000
 0.000000e+000 5.478079e-001 4.521920e-001 0.000000e+000 0.000000e+000
 0.000000e+000 0.000000e+000 5.367050e-001 4.632950e-001 0.000000e+000
 0.000000e+000 0.000000e+000 0.000000e+000 6.428506e-001 3.571494e-001
 0.000000e+000 0.000000e+000 0.000000e+000 0.000000e+000 0.000000e+000
<ENDHMM>
~h "w"
<BEGINHMM>
<NUMSTATES> 5
<STATE> 2
<MEAN> 25
 1.114705e+001 -1.265204e+000 -2.951246e+000 -9.413053e+000 -6.133980e+000 7.506962e-001 4.222817e+000 -5.426515e+000 -1.234688e+000 -5.302063e+000 6.729103e+000 3.993927e-001 1.995417e-001 2.692126e-001 -6.689034e-002 -5.514710e-001 -3.284359e-001 3.144958e-001 3.374489e-001 -8.117509e-002 2.386827e-002 -2.598501e-001 2.839582e-001 2.636568e-001 5.660895e-002
<VARIANCE> 25
 1.338030e+001 5.044136e+001 2.092336e+001 7.015375e+001 7.218173e+001 6.740442e+001 4.447778e+001 3.417625e+001 4.157900e+001 4.915157e+001 8.453854e+001 3.488152e+001 1.167893e+000 1.830255e+000 1.912327e+000 2.754254e+000 3.170338e+000 3.226695e+000 3.165557e+000 2.976061e+000 3.572612e+000 4.108908e+000 6.598896e+000 3.494694e+000 2.261294e+000
<GCONST> 1.048111e+002
<STATE> 3
<MEAN> 25
 1.099263e+001 -4.032504e-001 -3.424573e+000 -1.148531e+001 -5.286940e+000 8.987080e-001 6.380662e+000 -6.188449e+000 -1.319565e+000 -4.955098e+000 7.398452e+000 9.331852e-001 -1.892902e-001 -1.964729e-001 -2.715366e-001 -1.663185e-001 5.017810e-001 -2.138487e-001 3.194938e-001 -6.818892e-002 -7.875216e-002 3.838338e-001 2.770191e-001 -2.709568e-002 3.082572e-001
<VARIANCE> 25
 1.262402e+001 4.043096e+001 2.078588e+001 7.541476e+001 1.030908e+002 7.829837e+001 5.183348e+001 4.606752e+001 4.275256e+001 6.618232e+001 8.225079e+001 2.804706e+001 1.065477e+000 2.294296e+000 1.620025e+000 2.592965e+000 3.995647e+000 3.395674e+000 3.394864e+000 3.243082e+000 3.944721e+000 4.876498e+000 7.650241e+000 3.011337e+000 3.024982e+000
<GCONST> 1.065416e+002
<STATE> 4
<MEAN> 25
 9.881954e+000 -2.258647e+000 -4.041722e+000 -8.912721e+000 -1.618585e+000 -1.019530e+000 6.328998e+000 -6.498910e+000 -1.751369e+000 -1.886223e+000 5.468276e+000 3.805583e-001 -2.787642e-001 -2.646840e-001 -5.699427e-004 4.594221e-001 5.085183e-001 -4.324332e-001 -4.460392e-001 1.802878e-001 1.290326e-001 7.299734e-001 -4.224625e-001 -3.242632e-001 -2.468229e-001
<VARIANCE> 25
 1.141350e+001 3.070143e+001 2.476744e+001 9.387514e+001 8.432076e+001 7.135227e+001 6.509940e+001 4.574796e+001 3.558929e+001 8.070211e+001 9.755556e+001 2.767200e+001 9.154187e-001 1.769485e+000 1.213156e+000 3.056995e+000 3.335083e+000 3.940592e+000 3.420937e+000 2.432526e+000 2.905003e+000 4.592076e+000 5.985944e+000 2.629479e+000 3.572114e+000
<GCONST> 1.052303e+002
<TRANSP> 5
 0.000000e+000 1.000000e+000 0.000000e+000 0.000000e+000 0.000000e+000
 0.000000e+000 8.360115e-001 1.639885e-001 0.000000e+000 0.000000e+000
 0.000000e+000 0.000000e+000 7.990260e-001 2.009740e-001 0.000000e+000
 0.000000e+000 0.000000e+000 0.000000e+000 8.616475e-001 1.383525e-001
 0.000000e+000 0.000000e+000 0.000000e+000 0.000000e+000 0.000000e+000
<ENDHMM>
~h "y"
<BEGINHMM>
<NUMSTATES> 5
<STATE> 2
<MEAN> 25
 4.360833e+000 -4.212188e+000 4.545763e+000 1.561245e+000 -1.205341e+000 -4.715812e+000 -2.596892e-001 1.811235e-001 -2.090362e+000 -6.399848e-001 2.600986e-001 1.696650e+000 -3.018965e-001 -1.489303e-001 6.713355e-001 1.575393e-001 -1.398669e-001 2.809254e-002 -3.555267e-001 1.628065e-002 -1.623674e-001 2.449325e-001 -6.441248e-001 4.250281e-001 3.579365e-001
<VARIANCE> 25
 8.853114e+001 3.077327e+001 4.611748e+001 5.942682e+001 2.603900e+001 8.801732e+001 4.140688e+001 4.080501e+001 5.376712e+001 5.112550e+001 4.322668e+001 3.273122e+001 2.552800e+000 2.101088e+000 3.181217e+000 4.550236e+000 3.468009e+000 5.603705e+000 3.286348e+000 4.206192e+000 5.211167e+000 3.146604e+000 3.828532e+000 2.705506e+000 1.089470e+001
<GCONST> 1.095846e+002
<STATE> 3
<MEAN> 25
 3.102800e+000 -4.800032e+000 5.687215e+000 1.320676e+000 -1.710058e+000 -5.203412e+000 -2.553561e-001 4.290007e-001 -2.572356e+000 -9.300224e-002 -4.535881e-001 2.451740e+000 -3.088493e-001 -1.053207e-001 4.442182e-001 -3.613170e-003 -7.740159e-002 -2.704330e-001 3.485344e-002 2.093807e-001 -2.434320e-001 1.349916e-001 -6.907046e-002 1.164953e-001 5.222223e-001
<VARIANCE> 25
 1.059912e+002 2.777376e+001 4.335549e+001 6.687380e+001 2.893703e+001 7.874297e+001 3.801634e+001 3.706863e+001 5.898942e+001 4.660815e+001 4.707637e+001 2.978598e+001 2.934060e+000 2.405987e+000 3.173831e+000 4.736084e+000 3.254413e+000 5.217429e+000 3.738333e+000 3.865854e+000 4.573159e+000 3.320867e+000 4.516147e+000 2.742112e+000 1.010381e+001
<GCONST> 1.097707e+002
<STATE> 4
<MEAN> 25
 3.112432e+000 -4.955870e+000 6.884804e+000 1.660542e+000 -1.882388e+000 -6.914652e+000 6.612699e-001 1.368613e+000 -3.677095e+000 -5.858766e-001 4.932093e-001 2.240859e+000 1.792402e-001 5.090742e-002 1.697376e-001 1.634866e-001 1.576249e-001 -2.898401e-001 1.732984e-001 9.917372e-002 -5.522864e-002 -2.542520e-001 3.147044e-001 -2.655957e-001 2.005417e-001
<VARIANCE> 25
 1.039634e+002 2.031214e+001 4.433941e+001 6.019623e+001 3.263874e+001 7.815211e+001 4.359168e+001 3.057197e+001 6.606337e+001 4.601081e+001 5.628784e+001 2.562705e+001 4.349352e+000 1.734259e+000 3.388122e+000 3.809260e+000 2.900235e+000 5.339111e+000 3.360899e+000 4.019803e+000 4.165409e+000 4.541859e+000 4.012702e+000 2.545307e+000 5.402930e+000
<GCONST> 1.086968e+002
<TRANSP> 5
 0.000000e+000 1.000000e+000 0.000000e+000 0.000000e+000 0.000000e+000
 0.000000e+000 4.800590e-001 5.199410e-001 0.000000e+000 0.000000e+000
 0.000000e+000 0.000000e+000 5.025501e-001 4.974499e-001 0.000000e+000
 0.000000e+000 0.000000e+000 0.000000e+000 6.034613e-001 3.965387e-001
 0.000000e+000 0.000000e+000 0.000000e+000 0.000000e+000 0.000000e+000
<ENDHMM>
~h "z"
<BEGINHMM>
<NUMSTATES> 5
<STATE> 2
<MEAN> 25
 1.623627e+000 8.935685e-001 1.551266e+000 -5.586104e-001 4.318008e+000 -8.244572e+000 -1.488552e+000 4.334382e-001 -2.442747e+000 -2.238828e+000 2.934406e+000 -2.970873e+000 -2.294505e+000 1.680501e+000 8.778791e-001 6.187784e-002 1.448070e+000 6.807127e-001 -5.185555e-001 5.810887e-001 3.703505e-001 2.474158e-001 -6.763357e-001 2.128911e-001 -4.858646e-001
<VARIANCE> 25
 7.640460e+001 4.520867e+001 3.503284e+001 3.819077e+001 4.119677e+001 7.589096e+001 3.885409e+001 4.954589e+001 3.611401e+001 2.866154e+001 5.321914e+001 3.513211e+001 5.590477e+000 3.428748e+000 2.394466e+000 3.105489e+000 2.688165e+000 4.177055e+000 3.460054e+000 2.808404e+000 3.121131e+000 2.874769e+000 5.193413e+000 2.811795e+000 1.266578e+000
<GCONST> 1.061429e+002
<STATE> 3
<MEAN> 25
 -7.140302e+000 6.152277e+000 4.006775e+000 -8.228963e-001 8.545316e+000 -5.820314e+000 -1.339100e+000 2.988244e+000 -1.406671e+000 -1.556474e+000 1.038370e+000 -9.859017e-001 -2.633804e+000 1.278079e+000 6.919275e-001 -1.550016e-001 1.209585e+000 8.200582e-001 7.900287e-002 7.435743e-001 3.648911e-001 1.939578e-001 -3.865938e-001 6.571984e-001 -2.701897e-001
<VARIANCE> 25
 1.079282e+002 4.454092e+001 3.146764e+001 2.622945e+001 4.378607e+001 5.712788e+001 4.217849e+001 4.407068e+001 3.501178e+001 2.745461e+001 3.848172e+001 3.444999e+001 6.290558e+000 3.863359e+000 1.653363e+000 2.722001e+000 3.234963e+000 3.947536e+000 2.939538e+000 2.259988e+000 3.215455e+000 2.907820e+000 4.159413e+000 2.534851e+000 1.315781e+000
<GCONST> 1.045517e+002
<STATE> 4
<MEAN> 25
 -1.336171e+001 6.621913e+000 5.710344e+000 -9.007826e-001 9.454335e+000 -3.640400e+000 -7.295460e-001 5.490028e+000 3.998642e-001 -7.451259e-001 -2.398040e-001 1.441333e+000 -5.398937e-002 -4.603764e-001 4.915751e-002 1.798137e-001 -3.813025e-001 -9.603683e-003 1.451395e-002 1.226616e-001 2.636611e-002 1.770945e-001 -1.109171e-001 2.022891e-001 -5.755466e-001
<VARIANCE> 25
 6.425652e+001 3.005643e+001 2.746684e+001 2.012691e+001 3.938309e+001 5.651502e+001 3.650761e+001 4.605146e+001 3.362612e+001 3.217499e+001 3.654159e+001 2.502567e+001 6.584207e+000 3.964581e+000 1.508979e+000 1.691448e+000 3.763835e+000 5.768708e+000 3.306575e+000 2.477650e+000 3.102591e+000 3.438326e+000 3.941607e+000 2.817541e+000 3.707252e+000
<GCONST> 1.042331e+002
<TRANSP> 5
 0.000000e+000 1.000000e+000 0.000000e+000 0.000000e+000 0.000000e+000
 0.000000e+000 5.902850e-001 4.097150e-001 0.000000e+000 0.000000e+000
 0.000000e+000 0.000000e+000 6.595722e-001 3.404278e-001 0.000000e+000
 0.000000e+000 0.000000e+000 0.000000e+000 8.515377e-001 1.484622e-001
 0.000000e+000 0.000000e+000 0.000000e+000 0.000000e+000 0.000000e+000
<ENDHMM>
~h "aa"
<BEGINHMM>
<NUMSTATES> 5
<STATE> 2
<MEAN> 25
 3.785437e+000 -7.683190e-001 -4.513221e+000 -7.314252e+000 1.948704e+000 1.635594e+000 6.423637e+000 -2.636755e+000 -2.140727e+000 4.526930e-001 4.232555e+000 -1.764768e+000 4.016202e-001 -5.382747e-001 -5.792034e-001 -7.404702e-001 -8.723737e-002 -6.119608e-001 7.970703e-001 -2.020517e-001 -3.695187e-001 -4.629746e-001 7.574028e-001 -4.237521e-001 1.649619e+000
<VARIANCE> 25
 4.767455e+001 3.203337e+001 4.524821e+001 7.234180e+001 5.483788e+001 7.698124e+001 6.751152e+001 6.764147e+001 3.198852e+001 5.433006e+001 7.941838e+001 4.381260e+001 5.981509e+000 3.635869e+000 3.617037e+000 6.275277e+000 4.470576e+000 7.235569e+000 6.339191e+000 6.012403e+000 2.702950e+000 4.788470e+000 5.965185e+000 3.315714e+000 9.821881e+000
<GCONST> 1.149099e+002
<STATE> 3
<MEAN> 25
 4.734485e+000 -2.235099e+000 -5.727922e+000 -7.783585e+000 1.459068e+000 2.778035e-001 8.037452e+000 -3.206633e+000 -2.953417e+000 -7.553496e-001 4.962158e+000 -2.559985e+000 2.156973e-001 -3.063878e-001 -6.198117e-003 1.106657e-001 1.136104e-001 -3.316035e-001 -8.569257e-003 -8.065080e-002 -1.427807e-001 -2.173901e-001 1.315192e-002 -2.048703e-002 4.599291e-001
<VARIANCE> 25
 4.331208e+001 2.731207e+001 4.228960e+001 7.514424e+001 5.570509e+001 8.843329e+001 4.894862e+001 7.281227e+001 3.251545e+001 5.457069e+001 6.553660e+001 4.089384e+001 4.236618e+000 2.450320e+000 2.975801e+000 5.436777e+000 3.775932e+000 6.042986e+000 4.922769e+000 5.607400e+000 2.390189e+000 4.529532e+000 4.374073e+000 2.921335e+000 7.002007e+000
<GCONST> 1.115875e+002
<STATE> 4
<MEAN> 25
 4.862159e+000 -2.475727e+000 -4.711959e+000 -6.398576e+000 1.847464e+000 -1.045402e+000 7.257369e+000 -3.556107e+000 -3.838947e+000 -8.764749e-001 3.948189e+000 -1.914721e+000 -9.830303e-002 -5.912750e-002 4.276077e-001 3.469848e-001 2.296128e-001 -1.441776e-001 -6.349115e-001 1.617018e-001 -1.811193e-002 -1.210553e-001 -2.672004e-001 3.442639e-001 -2.649130e-001
<VARIANCE> 25
 4.225715e+001 2.071553e+001 4.375505e+001 8.125636e+001 5.888650e+001 9.594355e+001 5.465854e+001 7.645340e+001 3.994324e+001 6.299685e+001 4.756764e+001 3.650040e+001 4.937405e+000 1.884070e+000 2.835001e+000 6.613499e+000 4.473126e+000 6.233740e+000 4.123122e+000 6.768095e+000 3.005079e+000 3.962976e+000 3.841876e+000 2.636905e+000 4.725907e+000
<GCONST> 1.113292e+002
<TRANSP> 5
 0.000000e+000 1.000000e+000 0.000000e+000 0.000000e+000 0.000000e+000
 0.000000e+000 7.334557e-001 2.665444e-001 0.000000e+000 0.000000e+000
 0.000000e+000 0.000000e+000 6.866795e-001 3.133205e-001 0.000000e+000
 0.000000e+000 0.000000e+000 0.000000e+000 7.613323e-001 2.386677e-001
 0.000000e+000 0.000000e+000 0.000000e+000 0.000000e+000 0.000000e+000
<ENDHMM>
~h "ae"
<BEGINHMM>
<NUMSTATES> 5
<STATE> 2
<MEAN> 25
 2.829216e+000 -5.931147e-001 -1.099075e+000 3.650205e-001 1.502935e+000 -2.688382e+000 -2.310386e+000 1.279294e+000 1.425713e+000 1.663951e+000 -1.615436e-001 -2.118678e+000 1.959718e-001 -2.672214e-002 -2.812060e-001 1.364675e-001 2.260893e-001 2.220606e-001 -2.191686e-001 9.244734e-002 4.316874e-001 7.807674e-002 1.538032e-001 3.032962e-001 -1.015423e-001
<VARIANCE> 25
 6.736462e+001 4.187526e+001 5.308254e+001 4.053873e+001 3.487604e+001 9.621043e+001 4.782631e+001 4.482434e+001 4.504216e+001 3.610061e+001 5.794865e+001 3.089583e+001 3.632050e+000 2.541490e+000 2.394764e+000 2.329715e+000 2.353710e+000 6.773621e+000 2.979602e+000 3.582954e+000 4.001709e+000 2.647215e+000 4.486127e+000 2.728785e+000 6.548897e+000
<GCONST> 1.080616e+002
<STATE> 3
<MEAN> 25
 3.227819e+000 -4.594624e-002 -8.072446e-001 5.846194e-001 1.758362e+000 -2.099553e+000 -2.697375e+000 1.076012e+000 1.827072e+000 1.752309e+000 1.157218e-002 -1.126311e+000 4.696365e-001 -5.159135e-001 -1.666373e-001 -1.355045e-001 1.561142e-001 -3.094338e-001 7.853644e-002 1.154895e-001 -3.007649e-002 -5.123244e-001 5.410140e-001 2.858845e-001 7.439455e-001
<VARIANCE> 25
 5.891459e+001 4.904159e+001 4.629416e+001 3.564475e+001 3.311452e+001 9.447393e+001 4.401564e+001 4.490370e+001 3.533695e+001 3.517157e+001 4.383583e+001 3.351925e+001 4.945071e+000 3.490157e+000 2.910706e+000 2.899794e+000 2.436864e+000 8.369047e+000 3.981699e+000 3.457878e+000 5.228549e+000 3.224716e+000 5.033090e+000 3.427849e+000 1.045821e+001
<GCONST> 1.100187e+002
<STATE> 4
<MEAN> 25
 4.132635e+000 -2.249464e+000 -1.243597e+000 8.324195e-001 1.716748e+000 -3.691382e+000 -1.992087e+000 2.009917e+000 1.978658e+000 -3.961530e-001 1.268596e+000 -4.880934e-001 5.277580e-001 -1.474153e+000 -5.126348e-001 -6.277017e-001 -5.285807e-002 -1.638716e+000 5.553804e-001 3.321492e-001 -2.896493e-001 -8.010436e-001 1.007713e+000 -3.573616e-002 2.301170e+000
<VARIANCE> 25
 5.606725e+001 4.577306e+001 4.225066e+001 3.526099e+001 2.917463e+001 9.264461e+001 4.929128e+001 4.188396e+001 3.545626e+001 3.148341e+001 3.909730e+001 3.376241e+001 5.969147e+000 5.171430e+000 3.265008e+000 3.125943e+000 2.608425e+000 1.123385e+001 4.544881e+000 3.847408e+000 5.163944e+000 3.457144e+000 5.015795e+000 3.997971e+000 1.338358e+001
<GCONST> 1.113078e+002
<TRANSP> 5
 0.000000e+000 1.000000e+000 0.000000e+000 0.000000e+000 0.000000e+000
 0.000000e+000 3.982513e-001 6.017487e-001 0.000000e+000 0.000000e+000
 0.000000e+000 0.000000e+000 4.052166e-001 5.947834e-001 0.000000e+000
 0.000000e+000 0.000000e+000 0.000000e+000 5.663474e-001 4.336525e-001
 0.000000e+000 0.000000e+000 0.000000e+000 0.000000e+000 0.000000e+000
<ENDHMM>
~h "ah"
<BEGINHMM>
<NUMSTATES> 5
<STATE> 2
<MEAN> 25
 6.573243e+000 -4.893013e+000 -1.846992e+000 -1.521530e+000 1.804693e+000 -6.917832e+000 2.060658e+000 -9.248582e-001 -1.512813e+000 6.577444e-001 1.387514e+000 -1.748089e+000 2.421605e-001 2.465705e-002 -3.052905e-001 9.426145e-002 -3.741653e-002 2.106324e-001 1.396555e-001 -2.244472e-001 -1.831953e-002 2.951436e-001 -2.235031e-001 -3.535661e-002 -4.740590e-001
<VARIANCE> 25
 3.751321e+001 3.246663e+001 3.874748e+001 5.676192e+001 3.308651e+001 9.064309e+001 6.458046e+001 4.086648e+001 5.140894e+001 4.628476e+001 6.781166e+001 3.809740e+001 1.760773e+000 1.515922e+000 1.801888e+000 3.056003e+000 2.399610e+000 3.591300e+000 3.418258e+000 2.918322e+000 3.267487e+000 3.104291e+000 4.342512e+000 2.411729e+000 4.200007e+000
<GCONST> 1.055059e+002
<STATE> 3
<MEAN> 25
 6.721319e+000 -4.504602e+000 -2.329410e+000 -1.397747e+000 1.707258e+000 -6.050214e+000 2.298966e+000 -1.216741e+000 -1.586145e+000 1.103694e+000 9.975480e-001 -1.428626e+000 1.158248e-001 1.519119e-001 -1.722309e-001 6.443785e-002 -6.049781e-002 3.878188e-001 1.124435e-001 -1.645472e-001 -4.356940e-002 1.270101e-001 -1.535121e-001 2.220905e-001 -6.515117e-001
<VARIANCE> 25
 3.847008e+001 3.404504e+001 3.284613e+001 6.031059e+001 3.101647e+001 9.025488e+001 6.700296e+001 4.099976e+001 5.173958e+001 4.700193e+001 7.027807e+001 4.122250e+001 1.383149e+000 1.721618e+000 1.709612e+000 3.094303e+000 2.391528e+000 3.466063e+000 3.458222e+000 2.852832e+000 2.913070e+000 2.827990e+000 4.216466e+000 2.464311e+000 3.941406e+000
<GCONST> 1.050978e+002
<STATE> 4
<MEAN> 25
 6.327177e+000 -3.754097e+000 -2.671515e+000 -1.303018e+000 1.644699e+000 -4.427085e+000 2.329836e+000 -1.798254e+000 -1.543067e+000 1.347844e+000 6.349273e-001 -8.461941e-001 -2.528305e-002 2.150751e-001 6.329644e-002 1.286437e-001 -8.485963e-002 5.008237e-001 -1.199471e-002 -3.580296e-002 -2.364227e-002 -1.569442e-003 -1.171707e-001 2.792571e-001 -6.128035e-001
<VARIANCE> 25
 4.423950e+001 3.684448e+001 2.710018e+001 6.192227e+001 2.982902e+001 9.137439e+001 6.996075e+001 4.088838e+001 5.037558e+001 5.071106e+001 7.499947e+001 4.205496e+001 1.540659e+000 2.362405e+000 1.765366e+000 3.116346e+000 2.587529e+000 3.611444e+000 3.829261e+000 3.240931e+000 2.857047e+000 2.853243e+000 4.243968e+000 2.718915e+000 4.461072e+000
<GCONST> 1.063296e+002
<TRANSP> 5
 0.000000e+000 1.000000e+000 0.000000e+000 0.000000e+000 0.000000e+000
 0.000000e+000 4.842595e-001 5.157405e-001 0.000000e+000 0.000000e+000
 0.000000e+000 0.000000e+000 4.871571e-001 5.128428e-001 0.000000e+000
 0.000000e+000 0.000000e+000 0.000000e+000 6.049368e-001 3.950632e-001
 0.000000e+000 0.000000e+000 0.000000e+000 0.000000e+000 0.000000e+000
<ENDHMM>
~h "ao"
<BEGINHMM>
<NUMSTATES> 5
<STATE> 2
<MEAN> 25
 6.949330e+000 -9.163761e-001 -6.773314e+000 -1.453979e+001 -1.128763e+000 1.535823e+000 9.475877e+000 -8.601210e-001 -3.115870e+000 -3.254908e+000 8.524245e+000 -3.732888e-001 6.491987e-001 2.559464e-002 -4.184446e-002 -6.841272e-001 -5.496733e-001 -3.145865e-001 7.807330e-001 -5.034100e-001 -2.815431e-001 -6.666428e-001 5.492077e-001 -1.369647e-001 1.142397e+000
<VARIANCE> 25
 4.237654e+001 1.851063e+001 2.421589e+001 6.644350e+001 9.246896e+001 6.647366e+001 7.327408e+001 3.970744e+001 3.248883e+001 5.506958e+001 6.367847e+001 3.364518e+001 5.364891e+000 2.170139e+000 2.378099e+000 5.171578e+000 5.775096e+000 2.986145e+000 5.569192e+000 3.136396e+000 2.679179e+000 4.613358e+000 7.231037e+000 3.003066e+000 3.635510e+000
<GCONST> 1.094091e+002
<STATE> 3
<MEAN> 25
 8.288215e+000 -2.366659e+000 -4.979146e+000 -1.294286e+001 -3.895766e+000 -1.254465e+000 9.726831e+000 -2.124300e+000 -3.073716e+000 -5.418557e+000 8.761893e+000 8.857967e-001 3.950872e-001 -2.827830e-001 2.034354e-001 9.843786e-002 -2.686619e-001 -4.705389e-001 1.331615e-001 -3.418616e-001 -6.385180e-002 -1.949191e-001 -8.234588e-002 1.863911e-001 5.854366e-001
<VARIANCE> 25
 2.670134e+001 2.117697e+001 3.470279e+001 7.319112e+001 8.654396e+001 8.348914e+001 7.168304e+001 3.723017e+001 3.813700e+001 6.212209e+001 4.916018e+001 2.741419e+001 3.146896e+000 1.563262e+000 1.764860e+000 3.543895e+000 5.201315e+000 2.279852e+000 6.014770e+000 2.262573e+000 2.025305e+000 3.602302e+000 3.618855e+000 2.160970e+000 3.402026e+000
<GCONST> 1.056542e+002
<STATE> 4
<MEAN> 25
 8.445047e+000 -4.879262e+000 -2.366409e+000 -9.450861e+000 -3.427395e+000 -5.791384e+000 7.479833e+000 -1.136674e+000 -2.683104e+000 -5.035296e+000 7.924292e+000 1.582711e+000 2.052001e-001 -1.437111e-001 -5.128380e-002 2.954372e-001 4.158934e-001 -3.385248e-001 -2.134367e-001 -1.060074e-001 2.419185e-001 1.607248e-001 -3.686944e-001 1.513972e-001 6.663894e-002
<VARIANCE> 25
 2.210286e+001 2.621621e+001 5.550149e+001 8.929178e+001 6.424465e+001 9.868887e+001 8.418783e+001 5.102088e+001 4.075430e+001 5.698531e+001 3.817097e+001 1.787565e+001 2.328490e+000 1.506841e+000 2.367985e+000 3.889391e+000 5.027505e+000 1.902694e+000 4.762988e+000 2.139645e+000 2.572652e+000 2.826736e+000 2.418910e+000 1.655862e+000 3.566423e+000
<GCONST> 1.049117e+002
<TRANSP> 5
 0.000000e+000 1.000000e+000 0.000000e+000 0.000000e+000 0.000000e+000
 0.000000e+000 8.271210e-001 1.728791e-001 0.000000e+000 0.000000e+000
 0.000000e+000 0.000000e+000 6.821194e-001 3.178806e-001 0.000000e+000
 0.000000e+000 0.000000e+000 0.000000e+000 7.621484e-001 2.378515e-001
 0.000000e+000 0.000000e+000 0.000000e+000 0.000000e+000 0.000000e+000
<ENDHMM>
~h "aw"
<BEGINHMM>
<NUMSTATES> 5
<STATE> 2
<MEAN> 25
 7.650237e+000 1.347819e-001 -3.252465e+000 -7.985838e+000 -3.163511e+000 7.324595e-001 6.859738e+000 -8.162177e+000 2.394472e-001 -3.330888e+000 5.859258e+000 -2.040754e-001 5.504427e-003 1.830964e-001 -4.715638e-001 -7.786933e-001 -4.977809e-001 1.654852e-001 3.153245e-001 -4.022681e-001 2.970557e-001 -4.015947e-002 1.013802e-001 6.940214e-002 3.809170e-001
<VARIANCE> 25
 3.252858e+001 7.143095e+001 2.761943e+001 6.189336e+001 4.859821e+001 2.940853e+001 5.021517e+001 5.732984e+001 4.127512e+001 6.503590e+001 8.460526e+001 3.129147e+001 2.065369e+000 2.770118e+000 2.475769e+000 3.608294e+000 2.237569e+000 2.769500e+000 3.362377e+000 3.298947e+000 4.294954e+000 2.676863e+000 8.241644e+000 2.597713e+000 5.508638e+000
<GCONST> 1.075248e+002
<STATE> 3
<MEAN> 25
 6.627813e+000 3.208984e-001 -4.104895e+000 -7.859239e+000 -2.256216e+000 1.948214e+000 5.200985e+000 -7.696787e+000 -5.083606e-001 -5.909646e-001 3.550286e+000 1.466652e+000 -6.061780e-002 1.308123e-001 2.896612e-002 1.163820e-001 9.332146e-002 9.763626e-002 -2.278114e-001 -1.274545e-001 -3.873767e-002 1.360011e-001 -1.829082e-001 1.180789e-001 -4.564344e-001
<VARIANCE> 25
 4.706544e+001 5.666822e+001 2.371896e+001 4.409519e+001 4.103034e+001 3.615745e+001 6.015069e+001 5.612956e+001 4.848802e+001 5.051886e+001 8.983363e+001 3.226558e+001 2.065773e+000 2.342599e+000 2.234616e+000 2.726952e+000 2.182920e+000 3.941265e+000 4.316778e+000 3.537131e+000 4.583325e+000 2.688731e+000 7.125758e+000 2.831902e+000 4.836013e+000
<GCONST> 1.073449e+002
<STATE> 4
<MEAN> 25
 6.236550e+000 -1.554251e+000 -3.791096e+000 -5.827134e+000 -8.178728e-002 1.486211e+000 2.741842e+000 -5.142369e+000 -6.476384e-001 1.832873e-001 5.045639e+000 -4.153004e-001 2.612005e-002 -1.844731e-001 1.171854e-001 1.479812e-001 1.329386e-001 -1.927116e-001 -2.372848e-001 1.895072e-001 -7.650521e-002 1.198496e-001 1.347483e-001 -2.364432e-001 1.072998e-001
<VARIANCE> 25
 4.191094e+001 5.518193e+001 2.918287e+001 4.936862e+001 3.289793e+001 4.463208e+001 6.529266e+001 9.183111e+001 6.394310e+001 3.969900e+001 7.751184e+001 3.226377e+001 2.572253e+000 3.068473e+000 2.761872e+000 3.529683e+000 2.438537e+000 5.065747e+000 5.223425e+000 4.841847e+000 4.897035e+000 3.767763e+000 7.742418e+000 2.546335e+000 7.547211e+000
<GCONST> 1.106255e+002
<TRANSP> 5
 0.000000e+000 1.000000e+000 0.000000e+000 0.000000e+000 0.000000e+000
 0.000000e+000 8.648505e-001 1.351495e-001 0.000000e+000 0.000000e+000
 0.000000e+000 0.000000e+000 7.891174e-001 2.108826e-001 0.000000e+000
 0.000000e+000 0.000000e+000 0.000000e+000 9.281340e-001 7.186607e-002
 0.000000e+000 0.000000e+000 0.000000e+000 0.000000e+000 0.000000e+000
<ENDHMM>
~h "ay"
<BEGINHMM>
<NUMSTATES> 5
<STATE> 2
<MEAN> 25
 5.188546e+000 -2.697139e+000 2.176533e-001 2.442137e+000 1.069102e+000 -3.980737e+000 -1.472567e+000 -5.156909e-001 -3.688492e-001 3.623184e+000 -3.101196e+000 -2.154770e+000 3.370887e-001 7.682698e-002 8.949255e-002 -2.081218e-001 9.209225e-002 2.235298e-001 -2.432459e-001 -5.152540e-001 7.781016e-002 2.886656e-001 -2.424296e-001 -2.550974e-001 2.059499e-001
<VARIANCE> 25
 4.376533e+001 7.250437e+001 3.953149e+001 8.384544e+001 4.758388e+001 9.817853e+001 9.982748e+001 2.906298e+001 2.784444e+001 4.606549e+001 4.864217e+001 2.848961e+001 4.380445e+000 2.173175e+000 1.779291e+000 3.577079e+000 3.476909e+000 4.503224e+000 3.098677e+000 2.359452e+000 2.168749e+000 2.865006e+000 3.795321e+000 2.155808e+000 5.499175e+000
<GCONST> 1.074061e+002
<STATE> 3
<MEAN> 25
 5.355586e+000 -2.446637e+000 5.557804e-001 1.497451e+000 1.527414e+000 -3.462361e+000 -2.032331e+000 -1.235783e+000 1.865713e-002 3.941793e+000 -2.854242e+000 -2.414635e+000 -1.714892e-001 -4.743593e-002 -1.795463e-003 -7.119113e-001 3.358996e-002 2.431061e-001 2.198335e-001 -6.372221e-003 1.236603e-001 -3.668633e-001 2.388777e-001 -4.889518e-002 3.507709e-001
<VARIANCE> 25
 3.801108e+001 7.420793e+001 4.301178e+001 6.875252e+001 3.899535e+001 9.976704e+001 1.165116e+002 2.838876e+001 2.748977e+001 5.216629e+001 4.127334e+001 2.709174e+001 3.873772e+000 3.307828e+000 1.809115e+000 5.427266e+000 3.480445e+000 3.769683e+000 3.546645e+000 2.692813e+000 2.231190e+000 3.989557e+000 3.301084e+000 1.836764e+000 7.565564e+000
<GCONST> 1.082192e+002
<STATE> 4
<MEAN> 25
 4.579801e+000 -3.752485e+000 4.212008e-001 -1.089501e+000 1.693669e+000 -4.074639e+000 -7.332063e-001 -2.787538e-001 4.492317e-001 2.503781e+000 -1.091038e+000 -3.132588e+000 -1.224398e-001 -5.676803e-001 -3.766380e-001 -8.157542e-001 -5.012131e-001 -4.874451e-001 7.150156e-001 4.269017e-001 1.430995e-001 -5.696536e-001 7.321416e-001 -8.977736e-002 1.060451e+000
<VARIANCE> 25
 2.765110e+001 6.764991e+001 3.738720e+001 4.164967e+001 3.081567e+001 1.028209e+002 8.569730e+001 2.781219e+001 2.446191e+001 4.689495e+001 3.783221e+001 2.643855e+001 3.336465e+000 4.511676e+000 2.559709e+000 5.232669e+000 3.228416e+000 4.444937e+000 5.107876e+000 3.111272e+000 2.093079e+000 4.121703e+000 2.990875e+000 1.635658e+000 1.147009e+001
<GCONST> 1.075401e+002
<TRANSP> 5
 0.000000e+000 1.000000e+000 0.000000e+000 0.000000e+000 0.000000e+000
 0.000000e+000 4.490968e-001 5.509032e-001 0.000000e+000 0.000000e+000
 0.000000e+000 0.000000e+000 4.716190e-001 5.283809e-001 0.000000e+000
 0.000000e+000 0.000000e+000 0.000000e+000 6.452408e-001 3.547591e-001
 0.000000e+000 0.000000e+000 0.000000e+000 0.000000e+000 0.000000e+000
<ENDHMM>
~h "ch"
<BEGINHMM>
<NUMSTATES> 5
<STATE> 2
<MEAN> 25
 -5.577779e+000 5.532545e-001 2.114990e+000 2.211130e+000 1.898062e+000 2.821809e-002 -1.150138e+000 2.480549e+000 1.638128e+000 2.929907e-001 -4.541847e-001 1.263777e+000 1.715398e+000 -9.248721e-001 -7.607122e-001 2.797565e-001 1.017363e+000 -7.631059e-001 1.952221e+000 2.023695e-001 3.584575e-001 -5.888824e-002 2.951385e-001 -2.274777e-001 9.197336e-002
<VARIANCE> 25
 5.932969e+001 2.310272e+001 3.711374e+001 1.336415e+001 4.415533e+001 8.142502e+001 4.738160e+001 2.349634e+001 9.204008e+000 1.518312e+001 6.003681e+001 1.958374e+001 4.081763e+000 3.581688e+000 3.783420e+000 2.103974e+000 3.860961e+000 4.728406e+000 5.302364e+000 1.789144e+000 1.622460e+000 2.922356e+000 4.039769e+000 3.572575e+000 1.476591e+001
<GCONST> 1.034178e+002
<STATE> 3
<MEAN> 25
 -1.916832e+000 -1.066325e+000 2.236364e-001 2.629179e+000 3.148224e+000 -1.582084e+000 2.916238e+000 3.330080e+000 1.968258e+000 1.708731e-001 -5.440880e-002 4.073526e-001 2.035919e+000 -1.985700e+000 -1.140822e+000 -7.492354e-001 5.284882e-001 -2.882656e+000 2.808837e+000 -1.969198e-001 -3.936991e-002 8.965236e-002 1.034266e+000 -5.266569e-001 2.462235e+000
<VARIANCE> 25
 8.166763e+001 3.159050e+001 2.769692e+001 1.683784e+001 2.820154e+001 9.330823e+001 4.288254e+001 3.931976e+001 1.095922e+001 1.837041e+001 6.833321e+001 2.777242e+001 3.851603e+000 4.683331e+000 3.527702e+000 3.585829e+000 3.875613e+000 1.123712e+001 9.777145e+000 1.561651e+000 1.951417e+000 2.243613e+000 5.894600e+000 4.257951e+000 2.510104e+001
<GCONST> 1.079585e+002
<STATE> 4
<MEAN> 25
 -3.730488e-001 -5.677286e+000 2.700431e-001 -2.737704e+000 2.483279e+000 -7.036595e+000 7.088180e+000 2.548767e+000 8.862308e-001 -3.005682e-001 2.384315e+000 -1.402575e+000 8.779770e-002 -2.923517e-001 9.074803e-002 -2.656967e-001 4.936654e-002 -4.289178e-001 -1.036371e-001 -7.193213e-004 -5.556361e-002 -1.525119e-001 6.211486e-001 -8.444673e-002 1.364129e+000
<VARIANCE> 25
 8.255552e+001 2.279782e+001 3.364403e+001 2.467369e+001 2.500308e+001 8.277079e+001 8.240246e+001 2.786437e+001 1.323868e+001 1.748604e+001 4.485594e+001 3.028231e+001 6.291649e+000 4.247637e+000 2.923984e+000 3.842508e+000 2.770187e+000 1.152813e+001 7.837040e+000 3.255805e+000 1.620499e+000 1.722011e+000 4.016637e+000 2.899047e+000 1.757811e+001
<GCONST> 1.069966e+002
<TRANSP> 5
 0.000000e+000 1.000000e+000 0.000000e+000 0.000000e+000 0.000000e+000
 0.000000e+000 2.932077e-001 7.067924e-001 0.000000e+000 0.000000e+000
 0.000000e+000 0.000000e+000 3.092405e-001 6.907595e-001 0.000000e+000
 0.000000e+000 0.000000e+000 0.000000e+000 8.930702e-001 1.069299e-001
 0.000000e+000 0.000000e+000 0.000000e+000 0.000000e+000 0.000000e+000
<ENDHMM>
~h "dh"
<BEGINHMM>
<NUMSTATES> 5
<STATE> 2
<MEAN> 25
 1.995690e+000 -2.373310e+000 -2.936322e+000 -2.892450e+000 3.458327e+000 -6.561776e+000 2.979310e+000 -4.730126e+000 -2.501288e+000 5.158525e-001 6.108962e+000 -4.278519e+000 4.140709e-002 1.623238e-001 1.911865e-002 1.639065e-001 -2.735240e-002 1.860019e-001 9.885614e-002 -1.842099e-001 -6.407350e-002 9.098984e-002 -2.706856e-001 -9.539367e-002 -2.234216e-001
<VARIANCE> 25
 2.066773e+001 2.102962e+001 9.377389e+000 2.985446e+001 1.171956e+001 5.098206e+001 2.316596e+001 3.076217e+001 3.950770e+001 1.350813e+001 5.013866e+001 2.349885e+001 1.926671e+000 1.830820e+000 9.573306e-001 1.277758e+000 1.563057e+000 2.778538e+000 2.406872e+000 3.136241e+000 2.203230e+000 1.628745e+000 2.338097e+000 1.458149e+000 2.346798e+000
<GCONST> 9.227857e+001
<STATE> 3
<MEAN> 25
 2.153693e+000 -1.769384e+000 -3.370568e+000 -1.442138e+000 3.004185e+000 -7.153124e+000 3.435938e+000 -3.808137e+000 -9.349655e-001 7.532237e-001 3.931782e+000 -6.013314e+000 2.704541e-001 4.013679e-002 -7.244266e-002 5.938442e-002 -1.419431e-001 4.949417e-002 2.507713e-001 -1.253932e-002 -4.842156e-003 -1.297003e-001 -1.276898e-001 -9.657098e-002 -3.075856e-001
<VARIANCE> 25
 2.385950e+001 1.410276e+001 8.386928e+000 2.942321e+001 1.120774e+001 4.131863e+001 2.785657e+001 2.999820e+001 3.790622e+001 1.675202e+001 3.429270e+001 2.232400e+001 1.689119e+000 1.525737e+000 7.707048e-001 1.278470e+000 1.320103e+000 3.411888e+000 2.202455e+000 2.614756e+000 2.605524e+000 1.957426e+000 2.326617e+000 1.388597e+000 2.841156e+000
<GCONST> 9.126810e+001
<STATE> 4
<MEAN> 25
 4.466788e+000 -9.988528e-001 -4.332493e+000 -1.782445e+000 1.872535e+000 -6.676593e+000 5.257865e+000 -3.831715e+000 -8.789641e-001 -1.038168e+000 3.086561e+000 -5.907376e+000 3.012839e-001 5.066309e-002 -4.684450e-003 6.299333e-002 -3.644067e-002 2.618199e-001 6.060621e-002 -1.480134e-001 2.212192e-001 -3.339078e-001 -3.400761e-001 1.360213e-001 -7.718223e-001
<VARIANCE> 25
 1.935653e+001 1.752004e+001 1.203676e+001 7.090321e+001 1.183652e+001 4.471606e+001 2.598721e+001 2.660410e+001 5.234978e+001 2.931520e+001 2.617370e+001 2.259234e+001 1.116584e+000 1.152090e+000 8.502365e-001 1.707987e+000 1.123515e+000 2.925908e+000 1.725870e+000 2.052007e+000 2.676900e+000 2.374933e+000 2.338804e+000 1.627279e+000 2.978989e+000
<GCONST> 9.240850e+001
<TRANSP> 5
 0.000000e+000 1.000000e+000 0.000000e+000 0.000000e+000 0.000000e+000
 0.000000e+000 8.538125e-001 1.461875e-001 0.000000e+000 0.000000e+000
 0.000000e+000 0.000000e+000 8.276309e-001 1.723692e-001 0.000000e+000
 0.000000e+000 0.000000e+000 0.000000e+000 8.800562e-001 1.199438e-001
 0.000000e+000 0.000000e+000 0.000000e+000 0.000000e+000 0.000000e+000
<ENDHMM>
~h "eh"
<BEGINHMM>
<NUMSTATES> 5
<STATE> 2
<MEAN> 25
 7.412155e+000 -6.501572e+000 -1.783424e+000 -7.713276e-001 1.323564e+000 -9.914190e+000 2.471686e+000 2.733021e+000 3.292814e-001 -4.884884e-001 3.057976e+000 -1.051747e+000 -2.008868e-001 -4.553536e-001 -1.080641e-001 -2.115536e-002 -1.380451e-002 -6.610993e-001 3.768880e-001 3.047697e-001 4.066299e-001 1.274098e-001 -8.855334e-002 -2.371267e-001 7.922720e-001
<VARIANCE> 25
 3.714546e+001 3.685972e+001 3.037063e+001 3.165967e+001 2.697346e+001 7.285619e+001 3.801021e+001 3.300764e+001 3.781207e+001 4.984974e+001 4.880504e+001 3.120218e+001 3.025640e+000 2.686441e+000 1.422825e+000 3.598514e+000 2.246215e+000 3.840473e+000 3.185397e+000 3.001963e+000 2.768345e+000 3.602338e+000 3.338637e+000 3.580560e+000 5.279741e+000
<GCONST> 1.042113e+002
<STATE> 3
<MEAN> 25
 6.382840e+000 -6.923403e+000 -1.818124e+000 -1.158364e+000 1.420551e+000 -1.074144e+001 3.019174e+000 3.059081e+000 7.749772e-001 -7.259486e-001 2.791243e+000 -1.118920e+000 -4.023990e-001 9.505789e-003 -5.426998e-002 -1.482123e-001 9.249097e-002 -2.874180e-001 2.666696e-001 -8.865598e-003 -2.754136e-002 7.346265e-003 -2.011151e-001 -1.069326e-001 4.096093e-001
<VARIANCE> 25
 3.815495e+001 3.600648e+001 3.109373e+001 2.930733e+001 2.544955e+001 7.490057e+001 4.128351e+001 2.999617e+001 3.527166e+001 3.986391e+001 4.198521e+001 2.475024e+001 2.403332e+000 2.264094e+000 1.263663e+000 2.894081e+000 1.981892e+000 3.496663e+000 3.004566e+000 2.556448e+000 2.454032e+000 3.225588e+000 2.876678e+000 3.137614e+000 4.346401e+000
<GCONST> 1.015598e+002
<STATE> 4
<MEAN> 25
 5.490805e+000 -6.901628e+000 -2.113070e+000 -1.894238e+000 2.169842e+000 -1.176729e+001 3.882658e+000 2.995135e+000 4.982146e-002 -4.659555e-001 2.417354e+000 -1.527540e+000 -2.106433e-001 3.520432e-001 -1.639759e-002 -1.519319e-001 2.062086e-001 1.277066e-001 4.140390e-002 -3.990158e-001 -5.021691e-001 1.376004e-001 -9.463515e-002 -1.442838e-001 -3.917162e-003
<VARIANCE> 25
 3.207176e+001 3.057806e+001 3.021512e+001 2.958255e+001 2.365598e+001 8.355932e+001 4.296912e+001 3.268287e+001 3.292286e+001 3.121789e+001 3.701572e+001 2.338203e+001 2.558639e+000 2.227679e+000 1.331721e+000 2.517452e+000 1.716398e+000 3.145096e+000 2.797769e+000 2.721197e+000 2.075628e+000 2.653530e+000 2.658125e+000 2.258381e+000 3.878405e+000
<GCONST> 9.968565e+001
<TRANSP> 5
 0.000000e+000 1.000000e+000 0.000000e+000 0.000000e+000 0.000000e+000
 0.000000e+000 4.829331e-001 5.170670e-001 0.000000e+000 0.000000e+000
 0.000000e+000 0.000000e+000 4.986117e-001 5.013883e-001 0.000000e+000
 0.000000e+000 0.000000e+000 0.000000e+000 6.421842e-001 3.578158e-001
 0.000000e+000 0.000000e+000 0.000000e+000 0.000000e+000 0.000000e+000
<ENDHMM>
~h "er"
<BEGINHMM>
<NUMSTATES> 5
<STATE> 2
<MEAN> 25
 6.429129e+000 -5.032945e+000 -2.320810e+000 -1.276368e+000 3.131124e+000 -7.768493e+000 2.740910e+000 -1.565405e+000 1.191663e+000 1.397999e+000 3.467747e+000 -2.632020e+000 -1.456942e-001 1.627371e-001 -5.766964e-003 2.088013e-001 3.182371e-001 5.097733e-001 -2.265285e-002 5.960181e-002 1.759698e-001 9.484749e-002 -3.558405e-001 2.811240e-002 -7.216384e-001
<VARIANCE> 25
 2.660505e+001 1.356978e+001 2.440019e+001 4.429218e+001 2.107152e+001 8.490028e+001 4.549947e+001 3.475816e+001 4.502795e+001 3.286828e+001 5.827903e+001 3.968041e+001 2.076750e+000 9.897742e-001 1.496095e+000 1.814240e+000 1.688555e+000 3.379854e+000 2.590390e+000 2.360404e+000 2.578566e+000 2.200611e+000 3.135989e+000 2.141243e+000 3.502946e+000
<GCONST> 9.888798e+001
<STATE> 3
<MEAN> 25
 5.819067e+000 -4.349994e+000 -2.419404e+000 -8.031372e-001 3.657241e+000 -6.386767e+000 2.354809e+000 -1.330537e+000 1.512693e+000 1.255101e+000 2.115813e+000 -2.348372e+000 -2.442746e-001 3.851888e-001 7.778739e-002 2.057486e-001 1.322259e-001 5.627549e-001 -2.793519e-001 4.150508e-002 8.230007e-002 -6.164601e-002 -6.235495e-001 6.816819e-002 -1.012999e+000
<VARIANCE> 25
 3.222490e+001 1.707015e+001 2.179205e+001 3.960505e+001 1.960039e+001 9.543918e+001 4.686101e+001 3.301958e+001 4.374338e+001 3.373597e+001 6.238850e+001 4.148168e+001 1.713336e+000 1.261282e+000 1.324125e+000 1.803827e+000 1.539677e+000 3.306897e+000 2.488099e+000 2.570598e+000 2.541984e+000 2.104296e+000 2.792981e+000 2.317435e+000 3.021653e+000
<GCONST> 9.882613e+001
<STATE> 4
<MEAN> 25
 4.719801e+000 -2.881015e+000 -1.837834e+000 1.893338e-001 3.272155e+000 -4.101495e+000 7.279222e-001 -1.020010e+000 2.101219e+000 9.889761e-001 -4.119799e-002 -1.482902e+000 -4.700883e-001 5.830840e-001 2.027237e-001 1.920175e-001 -1.657886e-001 7.297581e-001 -3.423015e-001 1.195309e-001 -3.275106e-002 -1.493990e-001 -5.449889e-001 1.970680e-001 -1.129005e+000
<VARIANCE> 25
 3.780009e+001 2.441690e+001 2.095002e+001 3.560985e+001 2.528503e+001 1.085162e+002 4.783011e+001 3.298319e+001 3.534703e+001 3.696952e+001 6.295501e+001 4.332019e+001 1.947011e+000 1.893393e+000 1.380946e+000 1.815417e+000 1.651940e+000 2.839028e+000 2.851904e+000 3.040444e+000 2.114642e+000 2.018437e+000 2.491731e+000 2.711706e+000 2.709909e+000
<GCONST> 1.000442e+002
<TRANSP> 5
 0.000000e+000 1.000000e+000 0.000000e+000 0.000000e+000 0.000000e+000
 0.000000e+000 5.680652e-001 4.319348e-001 0.000000e+000 0.000000e+000
 0.000000e+000 0.000000e+000 5.911541e-001 4.088459e-001 0.000000e+000
 0.000000e+000 0.000000e+000 0.000000e+000 7.420988e-001 2.579012e-001
 0.000000e+000 0.000000e+000 0.000000e+000 0.000000e+000 0.000000e+000
<ENDHMM>
~h "ey"
<BEGINHMM>
<NUMSTATES> 5
<STATE> 2
<MEAN> 25
 3.774429e+000 -5.658879e+000 9.616021e+000 4.294703e+000 -8.304610e+000 -1.344947e+001 1.227754e+000 9.828834e-001 -4.149532e+000 -5.756316e+000 6.773307e+000 2.600432e+000 -1.268735e-001 3.300740e-001 7.338058e-001 2.351611e-001 -6.226736e-001 7.460619e-002 -8.506489e-002 -2.720766e-001 -6.002131e-001 -1.159818e-001 1.634700e-001 1.358373e-001 -6.368347e-002
<VARIANCE> 25
 2.513486e+001 2.404939e+001 3.908368e+001 1.996852e+001 3.654781e+001 6.158702e+001 3.175049e+001 3.583713e+001 3.699018e+001 3.310598e+001 3.979592e+001 1.958828e+001 1.514417e+000 1.837903e+000 2.235065e+000 1.554052e+000 2.848168e+000 3.985120e+000 2.747854e+000 2.629964e+000 3.222540e+000 2.998057e+000 3.310755e+000 1.783275e+000 3.649745e+000
<GCONST> 9.955043e+001
<STATE> 3
<MEAN> 25
 3.685350e+000 -3.610301e+000 9.858213e+000 4.971893e+000 -8.409415e+000 -1.121938e+001 1.105569e-001 -3.520814e-001 -5.442171e+000 -4.969170e+000 5.632721e+000 2.467158e+000 -1.417386e-002 4.636060e-001 3.951585e-002 2.058845e-001 6.373657e-002 5.180079e-001 -2.751641e-001 -1.674913e-001 -1.371505e-001 2.239629e-001 -4.324495e-001 -1.205431e-001 -7.352288e-001
<VARIANCE> 25
 2.424562e+001 2.867474e+001 3.953801e+001 2.552832e+001 3.811824e+001 5.973199e+001 3.250486e+001 4.247469e+001 3.254837e+001 3.675002e+001 4.729681e+001 2.324947e+001 1.541284e+000 1.516057e+000 2.364712e+000 2.005472e+000 3.029852e+000 3.598720e+000 2.800730e+000 2.720213e+000 3.628031e+000 2.974418e+000 3.596940e+000 1.828293e+000 3.701956e+000
<GCONST> 1.008547e+002
<STATE> 4
<MEAN> 25
 3.730279e+000 -2.143380e+000 8.507936e+000 5.221182e+000 -7.379625e+000 -8.889230e+000 -8.968175e-001 -7.424560e-001 -5.085430e+000 -3.827636e+000 3.419823e+000 1.931047e+000 -1.074189e-001 3.213822e-001 -3.677665e-001 -1.525804e-001 5.951176e-001 7.284237e-001 -1.635163e-001 1.922989e-003 3.089345e-001 4.535420e-001 -6.753381e-001 -3.340868e-001 -7.965238e-001
<VARIANCE> 25
 2.672893e+001 3.636880e+001 4.179772e+001 3.294217e+001 4.304056e+001 6.641839e+001 4.025249e+001 4.567669e+001 3.473857e+001 3.827618e+001 5.950183e+001 2.957592e+001 1.967070e+000 1.620461e+000 2.663233e+000 2.875979e+000 3.412078e+000 3.818546e+000 2.876103e+000 3.028330e+000 3.821245e+000 2.828357e+000 3.982503e+000 2.311288e+000 3.810577e+000
<GCONST> 1.040591e+002
<TRANSP> 5
 0.000000e+000 1.000000e+000 0.000000e+000 0.000000e+000 0.000000e+000
 0.000000e+000 7.885878e-001 2.114122e-001 0.000000e+000 0.000000e+000
 0.000000e+000 0.000000e+000 7.101091e-001 2.898910e-001 0.000000e+000
 0.000000e+000 0.000000e+000 0.000000e+000 7.495794e-001 2.504206e-001
 0.000000e+000 0.000000e+000 0.000000e+000 0.000000e+000 0.000000e+000
<ENDHMM>
~h "hh"
<BEGINHMM>
<NUMSTATES> 5
<STATE> 2
<MEAN> 25
 5.885002e+000 -2.700679e+000 -3.088474e-001 -4.925802e+000 -4.573043e+000 1.067058e-001 3.613027e+000 -2.069782e+000 -6.343628e-001 -5.051405e+000 4.735990e+000 3.544451e+000 6.390649e-002 -2.290437e-001 3.448470e-001 -2.967245e-001 -5.019117e-001 -2.947824e-001 5.689618e-001 -3.932656e-001 3.703184e-002 -3.566889e-001 -9.616972e-002 2.037865e-001 4.796854e-001
<VARIANCE> 25
 4.871087e+001 4.893229e+001 3.112212e+001 7.089915e+001 8.544405e+001 5.350502e+001 5.260607e+001 1.237524e+002 4.644425e+001 6.930099e+001 6.625944e+001 4.564005e+001 2.563917e+000 2.230047e+000 1.717648e+000 2.591584e+000 5.795291e+000 4.034614e+000 2.957761e+000 5.551464e+000 2.881130e+000 3.724238e+000 3.133368e+000 2.754848e+000 4.225794e+000
<GCONST> 1.098792e+002
<STATE> 3
<MEAN> 25
 5.259869e+000 -3.431355e+000 4.099801e-001 -3.800373e+000 -3.550518e+000 -1.936580e+000 4.145236e+000 -1.689189e+000 -2.161633e-001 -5.203469e+000 4.055543e+000 3.030409e+000 -6.922921e-002 -2.993870e-001 2.534916e-001 -7.781705e-003 6.966963e-002 -5.999571e-001 5.068822e-001 4.828848e-002 1.041491e-001 -9.382471e-002 -1.177130e-002 -2.064877e-002 3.269597e-001
<VARIANCE> 25
 5.064596e+001 5.695433e+001 2.779857e+001 6.669415e+001 7.784671e+001 8.516696e+001 4.134951e+001 1.147328e+002 5.062260e+001 8.903282e+001 5.317731e+001 4.659859e+001 1.632635e+000 2.438923e+000 1.215006e+000 1.611365e+000 4.315815e+000 3.331527e+000 3.450324e+000 7.736000e+000 2.833796e+000 3.297588e+000 3.245499e+000 2.114160e+000 2.736984e+000
<GCONST> 1.081030e+002
<STATE> 4
<MEAN> 25
 5.800803e+000 -4.377135e+000 5.036311e-001 -3.854013e+000 -3.709844e+000 -4.987649e+000 3.762841e+000 2.244567e-002 6.248056e-001 -6.623830e+000 3.121358e+000 2.653075e+000 3.770083e-002 -3.887050e-001 1.787557e-001 1.394393e-001 3.020751e-001 -5.684714e-001 1.526724e-001 2.036986e-001 -1.188474e-002 8.971079e-002 -2.390510e-001 -1.432981e-001 3.637041e-001
<VARIANCE> 25
 4.982240e+001 5.859712e+001 2.280998e+001 5.158164e+001 8.474831e+001 1.275916e+002 3.431718e+001 8.036060e+001 4.961013e+001 7.648862e+001 5.033897e+001 4.158636e+001 1.264502e+000 2.493121e+000 9.257672e-001 2.260405e+000 3.623369e+000 3.568018e+000 3.508024e+000 6.342067e+000 2.367867e+000 3.102198e+000 2.960517e+000 2.101021e+000 3.906654e+000
<GCONST> 1.068279e+002
<TRANSP> 5
 0.000000e+000 1.000000e+000 0.000000e+000 0.000000e+000 0.000000e+000
 0.000000e+000 6.734337e-001 3.265662e-001 0.000000e+000 0.000000e+000
 0.000000e+000 0.000000e+000 6.372929e-001 3.627071e-001 0.000000e+000
 0.000000e+000 0.000000e+000 0.000000e+000 7.622433e-001 2.377566e-001
 0.000000e+000 0.000000e+000 0.000000e+000 0.000000e+000 0.000000e+000
<ENDHMM>
~h "ih"
<BEGINHMM>
<NUMSTATES> 5
<STATE> 2
<MEAN> 25
 3.141774e+000 -3.033888e+000 2.635020e+000 9.533266e-001 1.059691e+000 -8.205369e+000 -1.228810e+000 2.300139e+000 -2.297317e-001 -1.651462e+000 2.291904e+000 3.764741e-001 -2.887245e-001 -3.631141e-001 1.337478e-001 4.252690e-001 4.790978e-002 -7.689670e-001 -4.709332e-002 4.922019e-002 4.661036e-001 -1.943948e-001 1.887521e-001 1.532020e-001 5.182652e-001
<VARIANCE> 25
 7.659924e+001 3.872006e+001 3.590805e+001 3.147100e+001 2.577843e+001 1.004240e+002 3.870179e+001 3.199108e+001 3.215755e+001 3.722547e+001 4.897377e+001 2.791664e+001 3.619025e+000 3.769712e+000 2.333451e+000 2.693902e+000 2.704679e+000 6.750068e+000 3.069293e+000 2.654939e+000 2.937786e+000 3.217166e+000 4.406193e+000 3.108017e+000 6.750256e+000
<GCONST> 1.064870e+002
<STATE> 3
<MEAN> 25
 2.568526e+000 -3.941069e+000 2.822096e+000 1.800498e+000 1.273899e+000 -9.537718e+000 -1.295575e+000 2.421780e+000 5.620232e-001 -1.779323e+000 2.308772e+000 6.939261e-001 -2.880644e-001 -2.515109e-001 1.373154e-001 3.786444e-001 1.391468e-001 -5.967405e-001 -1.636346e-001 6.777224e-002 2.934904e-001 -2.276921e-002 2.310054e-001 1.383036e-001 1.303961e-001
<VARIANCE> 25
 6.773013e+001 3.532009e+001 3.898558e+001 2.828643e+001 2.849809e+001 8.919971e+001 3.431208e+001 2.715424e+001 2.871318e+001 3.776321e+001 4.748010e+001 2.839380e+001 3.473871e+000 3.565971e+000 3.002120e+000 2.614963e+000 2.845670e+000 8.415412e+000 3.104239e+000 2.290804e+000 3.090510e+000 3.312343e+000 4.780059e+000 2.834297e+000 7.486330e+000
<GCONST> 1.062655e+002
<STATE> 4
<MEAN> 25
 1.914731e+000 -4.774048e+000 3.136658e+000 2.258282e+000 1.600911e+000 -1.019026e+001 -1.322121e+000 2.685702e+000 3.892307e-001 -1.545889e+000 2.552427e+000 7.902304e-001 -2.989093e-001 -2.192909e-002 8.529888e-002 1.727064e-002 1.541748e-001 -9.775564e-002 -1.748134e-001 6.192062e-002 -1.924985e-003 2.082171e-002 1.133410e-001 7.165650e-002 -1.152334e-001
<VARIANCE> 25
 5.673313e+001 2.797570e+001 3.900467e+001 3.316715e+001 3.302699e+001 7.793292e+001 3.279133e+001 2.579166e+001 2.956710e+001 3.519646e+001 4.445100e+001 2.534950e+001 3.697855e+000 3.172743e+000 3.461317e+000 2.953296e+000 2.777364e+000 9.236943e+000 3.029326e+000 2.477709e+000 3.180057e+000 3.262623e+000 4.643379e+000 2.678411e+000 8.808065e+000
<GCONST> 1.061331e+002
<TRANSP> 5
 0.000000e+000 1.000000e+000 0.000000e+000 0.000000e+000 0.000000e+000
 0.000000e+000 4.844288e-001 5.155712e-001 0.000000e+000 0.000000e+000
 0.000000e+000 0.000000e+000 5.041902e-001 4.958097e-001 0.000000e+000
 0.000000e+000 0.000000e+000 0.000000e+000 6.594114e-001 3.405886e-001
 0.000000e+000 0.000000e+000 0.000000e+000 0.000000e+000 0.000000e+000
<ENDHMM>
~h "iy"
<BEGINHMM>
<NUMSTATES> 5
<STATE> 2
<MEAN> 25
 1.869769e-001 -8.897079e-001 1.098778e+001 2.952809e+000 -2.969554e+000 -8.669823e+000 7.303154e-001 9.632342e-001 -5.944928e+000 -5.388754e+000 4.241057e+000 8.490129e-002 4.283435e-002 -5.799758e-002 1.466735e+000 5.985689e-001 -1.173225e+000 -3.332579e-001 -6.240552e-002 -2.885825e-001 -8.311897e-001 -5.222036e-001 4.342964e-001 -8.193320e-002 8.152698e-001
<VARIANCE> 25
 6.606893e+001 2.440092e+001 5.632745e+001 4.405949e+001 7.041009e+001 5.730836e+001 5.168981e+001 4.240276e+001 4.703887e+001 3.018026e+001 4.477972e+001 1.966711e+001 5.049807e+000 2.859011e+000 4.954276e+000 4.519789e+000 4.373854e+000 6.578323e+000 3.048312e+000 3.923862e+000 4.473117e+000 4.168471e+000 3.364953e+000 2.184541e+000 3.971141e+000
<GCONST> 1.091022e+002
<STATE> 3
<MEAN> 25
 -5.182922e-003 -1.088265e+000 1.332933e+001 4.030981e+000 -5.459855e+000 -8.852509e+000 5.672183e-001 -6.336256e-001 -6.821574e+000 -5.506213e+000 5.088834e+000 -4.031710e-002 6.553457e-002 -1.094021e-001 1.494455e-001 1.189727e-001 -3.969274e-001 1.431116e-001 -9.059457e-002 -4.012029e-001 4.004664e-002 2.207923e-001 3.803510e-002 -7.647396e-002 1.022581e-001
<VARIANCE> 25
 5.518260e+001 1.842039e+001 5.625783e+001 4.058542e+001 7.076067e+001 4.711174e+001 4.702124e+001 4.071200e+001 4.487592e+001 2.799540e+001 4.096317e+001 2.104638e+001 4.086598e+000 2.273005e+000 3.681983e+000 2.755291e+000 4.602195e+000 4.679297e+000 2.913729e+000 3.212327e+000 4.458881e+000 3.067097e+000 3.359195e+000 1.939453e+000 2.909659e+000
<GCONST> 1.055784e+002
<STATE> 4
<MEAN> 25
 -7.852921e-001 -2.265874e+000 1.231442e+001 5.183465e+000 -4.763173e+000 -8.662650e+000 1.362902e-001 -1.696361e+000 -5.247172e+000 -4.616004e+000 4.169961e+000 4.054663e-001 2.000407e-001 -2.996081e-001 -8.818277e-001 -2.273226e-001 4.411738e-001 1.690995e-001 -7.001866e-002 -2.019656e-002 4.520330e-001 2.670994e-001 -4.118789e-001 -4.693919e-002 -3.477442e-001
<VARIANCE> 25
 5.769533e+001 1.835474e+001 6.136783e+001 4.044549e+001 8.259783e+001 3.912952e+001 3.538774e+001 4.160963e+001 4.239325e+001 2.951653e+001 4.068638e+001 2.102868e+001 4.222234e+000 1.471285e+000 2.633984e+000 2.428826e+000 4.965245e+000 3.797868e+000 3.189621e+000 3.065008e+000 4.246708e+000 3.190012e+000 3.304109e+000 2.227576e+000 2.121488e+000
<GCONST> 1.042417e+002
<TRANSP> 5
 0.000000e+000 1.000000e+000 0.000000e+000 0.000000e+000 0.000000e+000
 0.000000e+000 6.482722e-001 3.517278e-001 0.000000e+000 0.000000e+000
 0.000000e+000 0.000000e+000 6.537427e-001 3.462573e-001 0.000000e+000
 0.000000e+000 0.000000e+000 0.000000e+000 8.261561e-001 1.738439e-001
 0.000000e+000 0.000000e+000 0.000000e+000 0.000000e+000 0.000000e+000
<ENDHMM>
~h "jh"
<BEGINHMM>
<NUMSTATES> 5
<STATE> 2
<MEAN> 25
 -2.151759e+000 -3.282037e+000 3.561016e+000 -1.628538e+000 3.485638e+000 -4.244002e+000 -3.304510e+000 1.245144e+000 2.987015e+000 -4.795485e-001 1.081450e+000 1.804782e+000 -5.536629e-001 -1.076462e+000 2.692668e-001 -1.198482e+000 2.393007e-001 -3.702313e-002 -6.406921e-001 4.859297e-001 -2.978701e-001 -4.610173e-001 2.267305e-001 -4.044815e-003 1.305078e+000
<VARIANCE> 25
 7.712378e+001 7.405535e+001 2.301894e+001 3.833022e+001 2.635059e+001 1.135791e+002 5.639594e+001 9.520241e+000 2.569262e+001 3.185532e+001 1.868333e+001 2.994624e+001 5.867764e+000 7.625098e+000 2.451420e+000 5.736935e+000 4.330244e+000 1.305663e+001 3.701840e+000 1.457766e+000 3.096854e+000 5.516514e+000 2.471105e+000 2.543319e+000 1.315387e+001
<GCONST> 1.081221e+002
<STATE> 3
<MEAN> 25
 -1.512959e+000 -5.235198e+000 3.490236e+000 -3.680998e+000 2.862844e+000 -4.792717e+000 -5.048525e+000 2.015422e+000 2.218518e+000 -1.466372e+000 1.288676e+000 9.580609e-001 4.913726e-001 -7.126290e-001 -6.708752e-002 -1.327085e-001 -4.906751e-001 -4.790485e-001 -2.862041e-001 1.064462e-001 -4.312762e-002 -2.043121e-001 2.403227e-002 -4.822384e-002 9.523095e-001
<VARIANCE> 25
 6.481262e+001 5.911990e+001 2.239820e+001 3.483537e+001 2.553789e+001 9.551711e+001 3.873146e+001 1.554012e+001 4.189594e+001 3.103053e+001 1.837038e+001 2.325995e+001 7.617961e+000 7.892342e+000 1.944134e+000 3.733902e+000 2.840816e+000 1.218369e+001 3.366055e+000 1.462919e+000 3.855187e+000 3.772031e+000 2.447047e+000 1.492555e+000 1.017322e+001
<GCONST> 1.057940e+002
<STATE> 4
<MEAN> 25
 3.712989e-001 -3.651812e+000 3.279169e+000 -1.892898e+000 6.986509e-001 -7.032829e+000 -2.958042e+000 3.971195e+000 1.885201e+000 -3.749366e+000 -3.176578e-001 2.475180e+000 5.976337e-001 -1.530133e-002 -2.722123e-001 2.840995e-002 -2.876359e-001 -4.411571e-001 3.680246e-001 -6.680503e-002 -1.749208e-001 -5.145725e-002 1.967115e-001 2.586067e-001 4.159353e-001
<VARIANCE> 25
 7.387605e+001 8.907331e+001 2.881483e+001 2.694573e+001 4.863459e+001 8.080869e+001 3.912677e+001 2.591777e+001 4.982140e+001 2.090941e+001 2.633429e+001 2.756926e+001 7.587906e+000 7.237092e+000 2.356679e+000 2.569673e+000 4.451224e+000 5.117335e+000 2.888070e+000 2.482680e+000 2.761348e+000 2.562549e+000 2.794209e+000 2.607816e+000 4.365438e+000
<GCONST> 1.064469e+002
<TRANSP> 5
 0.000000e+000 1.000000e+000 0.000000e+000 0.000000e+000 0.000000e+000
 0.000000e+000 6.839519e-001 3.160481e-001 0.000000e+000 0.000000e+000
 0.000000e+000 0.000000e+000 7.151399e-001 2.848601e-001 0.000000e+000
 0.000000e+000 0.000000e+000 0.000000e+000 9.146680e-001 8.533202e-002
 0.000000e+000 0.000000e+000 0.000000e+000 0.000000e+000 0.000000e+000
<ENDHMM>
~h "ng"
<BEGINHMM>
<NUMSTATES> 5
<STATE> 2
<MEAN> 25
 7.921719e+000 -3.288289e+000 2.764324e-001 5.546251e+000 1.368645e+000 -3.329231e+000 -8.173801e-002 9.688202e-001 1.734339e+000 1.499775e+000 -4.227975e+000 -5.029576e-001 -5.580978e-001 8.885799e-001 -5.795001e-001 -4.059780e-002 3.575364e-001 1.736803e+000 -3.286979e-001 -1.351866e-001 -1.209234e-001 5.304362e-001 -3.943774e-002 3.384996e-001 -1.775757e+000
<VARIANCE> 25
 4.454991e+001 3.166452e+001 3.365308e+001 3.882418e+001 1.621226e+001 8.347575e+001 7.292368e+001 1.831348e+001 2.124846e+001 4.535621e+001 4.515423e+001 2.675764e+001 1.633121e+000 2.224939e+000 2.199776e+000 1.527079e+000 1.469074e+000 2.413297e+000 2.008098e+000 4.178074e+000 1.832014e+000 1.599418e+000 2.733289e+000 3.168956e+000 1.967164e+000
<GCONST> 9.855415e+001
<STATE> 3
<MEAN> 25
 6.754784e+000 -1.723275e+000 -2.819303e-001 5.218719e+000 1.731722e+000 -4.764242e-001 -1.113729e+000 5.624935e-001 1.510095e+000 2.361714e+000 -3.987576e+000 2.127877e-001 -6.967834e-001 8.383396e-001 -4.521053e-001 -2.665355e-001 -1.059246e-002 1.349657e+000 -2.967411e-001 1.154310e-001 -1.324298e-001 4.425110e-003 1.796487e-001 2.845598e-001 -1.605681e+000
<VARIANCE> 25
 5.762953e+001 3.315829e+001 3.139210e+001 3.323020e+001 1.916792e+001 7.688790e+001 7.330128e+001 1.601480e+001 2.645775e+001 4.668477e+001 3.571452e+001 1.914595e+001 1.059104e+000 1.718282e+000 1.993875e+000 1.136990e+000 1.141186e+000 2.957007e+000 1.931564e+000 3.176407e+000 2.005948e+000 2.342275e+000 2.809595e+000 2.949862e+000 1.845495e+000
<GCONST> 9.718489e+001
<STATE> 4
<MEAN> 25
 4.800045e+000 -1.360308e-001 -4.275964e-001 5.256962e+000 1.659504e+000 2.187703e+000 -2.176842e+000 8.309550e-001 1.965782e+000 2.308074e+000 -3.555951e+000 4.186311e-001 -8.296877e-001 4.940819e-001 -2.686374e-001 -3.694081e-001 -4.442779e-001 6.747110e-001 -2.854603e-001 3.505932e-001 2.810785e-001 2.779173e-002 1.272338e-001 8.558168e-002 -1.292257e+000
<VARIANCE> 25
 6.641971e+001 3.219774e+001 2.918552e+001 3.168270e+001 1.981535e+001 6.701145e+001 5.615134e+001 2.042479e+001 3.070972e+001 4.714305e+001 3.873028e+001 1.589596e+001 9.029747e-001 1.818575e+000 1.599626e+000 1.468648e+000 1.156043e+000 2.970361e+000 2.084735e+000 2.000757e+000 1.560420e+000 2.645035e+000 2.784103e+000 1.954911e+000 1.866928e+000
<GCONST> 9.612900e+001
<TRANSP> 5
 0.000000e+000 1.000000e+000 0.000000e+000 0.000000e+000 0.000000e+000
 0.000000e+000 3.199470e-001 6.800530e-001 0.000000e+000 0.000000e+000
 0.000000e+000 0.000000e+000 3.247292e-001 6.752708e-001 0.000000e+000
 0.000000e+000 0.000000e+000 0.000000e+000 4.079205e-001 5.920794e-001
 0.000000e+000 0.000000e+000 0.000000e+000 0.000000e+000 0.000000e+000
<ENDHMM>
~h "ow"
<BEGINHMM>
<NUMSTATES> 5
<STATE> 2
<MEAN> 25
 6.170322e+000 3.519185e-001 -4.744839e+000 -4.241617e+000 -2.758532e+000 2.624194e+000 3.212028e+000 -2.956439e+000 -4.010607e-001 -4.590373e+000 4.381214e+000 1.482900e+000 -3.697074e-003 1.831395e-001 -1.026267e-001 -1.668932e-001 -2.924545e-001 2.293127e-001 1.733846e-001 -2.075388e-001 -2.089356e-002 -3.162274e-001 6.872982e-002 1.726831e-001 -9.591533e-002
<VARIANCE> 25
 5.497675e+001 3.426795e+001 3.488332e+001 9.893188e+001 5.752393e+001 7.382894e+001 6.305392e+001 3.631668e+001 2.277871e+001 5.496679e+001 1.094040e+002 1.309597e+001 1.018833e+000 1.200235e+000 8.876588e-001 1.979368e+000 2.068791e+000 1.674042e+000 1.765660e+000 1.914724e+000 1.646968e+000 2.016259e+000 2.165773e+000 1.147023e+000 1.950827e+000
<GCONST> 9.812808e+001
<STATE> 3
<MEAN> 25
 6.976598e+000 4.514999e-001 -5.207798e+000 -6.052509e+000 -3.613155e+000 2.584535e+000 4.367523e+000 -3.223652e+000 -1.315719e-001 -5.898492e+000 5.930873e+000 1.759788e+000 -1.738775e-002 1.170475e-001 1.401923e-001 -7.236550e-002 -2.274913e-001 2.592746e-001 2.299557e-002 7.431501e-002 -3.318983e-002 -1.214215e-002 -1.618036e-001 9.440390e-002 -4.020621e-001
<VARIANCE> 25
 4.431756e+001 4.143705e+001 3.731082e+001 1.090010e+002 6.082678e+001 6.046652e+001 5.796042e+001 4.333986e+001 2.313254e+001 5.408041e+001 1.107190e+002 1.628177e+001 7.072482e-001 1.283877e+000 8.431181e-001 1.863504e+000 1.815720e+000 1.886853e+000 1.921402e+000 1.916877e+000 1.739406e+000 2.382002e+000 1.844790e+000 1.125200e+000 1.613380e+000
<GCONST> 9.796144e+001
<STATE> 4
<MEAN> 25
 6.582628e+000 1.490674e+000 -4.614273e+000 -6.811430e+000 -4.299659e+000 4.439642e+000 4.481761e+000 -3.796913e+000 7.536190e-001 -5.364264e+000 5.551723e+000 8.361413e-001 -1.925949e-001 -3.871382e-003 4.231128e-001 5.599991e-001 1.085968e-001 1.140088e-001 -3.898266e-001 4.677960e-002 -1.394074e-001 2.068691e-001 -3.295959e-001 -1.445410e-001 -6.065567e-001
<VARIANCE> 25
 3.632961e+001 4.764330e+001 5.051652e+001 1.189593e+002 6.213777e+001 4.945474e+001 9.913865e+001 5.859884e+001 2.590525e+001 6.871731e+001 1.229100e+002 1.869344e+001 1.521427e+000 3.179142e+000 1.705281e+000 3.252140e+000 2.806155e+000 3.104132e+000 4.226941e+000 2.968829e+000 2.117835e+000 3.034381e+000 5.429009e+000 1.711049e+000 5.991873e+000
<GCONST> 1.078893e+002
<TRANSP> 5
 0.000000e+000 1.000000e+000 0.000000e+000 0.000000e+000 0.000000e+000
 0.000000e+000 6.708566e-001 3.291434e-001 0.000000e+000 0.000000e+000
 0.000000e+000 0.000000e+000 6.111780e-001 3.888220e-001 0.000000e+000
 0.000000e+000 0.000000e+000 0.000000e+000 7.820117e-001 2.179882e-001
 0.000000e+000 0.000000e+000 0.000000e+000 0.000000e+000 0.000000e+000
<ENDHMM>
~h "oy"
<BEGINHMM>
<NUMSTATES> 5
<STATE> 2
<MEAN> 25
 5.593207e+000 -4.298742e+000 -4.816731e+000 -7.995236e+000 1.158619e+000 -1.486154e+000 3.425364e+000 -4.203481e-002 -2.546749e+000 -6.910501e+000 9.935052e+000 1.615882e+000 9.048036e-001 -4.629900e-001 -5.341646e-001 -3.478659e-001 -6.594627e-001 -5.124298e-001 5.993839e-001 -1.304901e-001 -1.686819e-001 -8.928099e-001 8.654649e-001 -2.558230e-002 1.367677e+000
<VARIANCE> 25
 7.453659e+001 2.399672e+001 4.604632e+001 7.154372e+001 7.623030e+001 6.146056e+001 1.002026e+002 4.690115e+001 2.187538e+001 9.850681e+001 1.432831e+002 2.555522e+001 3.682989e+000 2.941587e+000 4.936697e+000 6.147681e+000 6.751667e+000 3.965790e+000 9.471068e+000 4.859610e+000 3.359268e+000 7.439474e+000 1.504006e+001 3.028744e+000 1.179918e+001
<GCONST> 1.167422e+002
<STATE> 3
<MEAN> 25
 8.606493e+000 -7.012399e+000 -4.537759e+000 -4.626488e+000 2.217491e+000 -8.897517e+000 5.555495e+000 -7.981564e-001 -2.145441e+000 -7.453553e+000 1.034479e+001 1.094006e+000 -1.439491e-001 -4.144887e-002 4.224541e-001 6.891726e-001 2.235714e-001 -8.332915e-001 -4.487323e-001 -3.312631e-002 -1.045605e-002 5.800918e-001 -7.550241e-001 3.632345e-002 -1.510180e-001
<VARIANCE> 25
 6.706615e+001 2.664666e+001 5.264808e+001 6.232174e+001 4.927575e+001 7.016640e+001 8.892658e+001 2.041125e+001 2.915694e+001 4.284803e+001 7.520522e+001 1.847376e+001 3.802758e+000 2.575588e+000 2.091954e+000 2.425678e+000 6.207473e+000 3.798064e+000 5.923400e+000 2.022709e+000 3.205226e+000 2.417541e+000 4.266802e+000 2.063474e+000 2.194018e+000
<GCONST> 1.061085e+002
<STATE> 4
<MEAN> 25
 3.934471e+000 -6.109468e+000 -3.991103e-001 -1.405355e+000 3.525979e+000 -8.657909e+000 4.482074e+000 -5.376644e-001 -9.179351e-001 -4.396558e+000 6.577386e+000 3.410540e+000 -3.196794e-001 1.492123e-001 3.763433e-001 3.790242e-001 1.256567e-002 7.868228e-002 -2.441884e-001 1.755850e-002 1.197565e-001 1.046748e-001 -2.383825e-001 1.700765e-001 -3.650680e-001
<VARIANCE> 25
 1.396208e+002 4.081232e+001 5.469136e+001 4.660886e+001 5.751239e+001 6.981758e+001 6.345871e+001 2.503291e+001 4.401055e+001 3.038479e+001 4.771770e+001 2.853527e+001 6.667477e+000 3.021361e+000 3.245228e+000 2.472634e+000 6.347179e+000 4.411878e+000 4.114980e+000 2.556368e+000 4.448533e+000 3.168078e+000 2.929015e+000 2.862043e+000 2.455681e+000
<GCONST> 1.089629e+002
<TRANSP> 5
 0.000000e+000 1.000000e+000 0.000000e+000 0.000000e+000 0.000000e+000
 0.000000e+000 9.175514e-001 8.244858e-002 0.000000e+000 0.000000e+000
 0.000000e+000 0.000000e+000 8.208421e-001 1.791580e-001 0.000000e+000
 0.000000e+000 0.000000e+000 0.000000e+000 9.135129e-001 8.648712e-002
 0.000000e+000 0.000000e+000 0.000000e+000 0.000000e+000 0.000000e+000
<ENDHMM>
~h "sh"
<BEGINHMM>
<NUMSTATES> 5
<STATE> 2
<MEAN> 25
 -6.457707e+000 -1.409101e+000 1.276616e+001 2.221548e+000 -1.905316e+000 -6.772780e+000 1.945685e+000 2.702439e+000 3.095699e-001 -3.345332e+000 2.280707e+000 -1.774834e-001 -1.811846e+000 -1.223351e-002 6.318136e-001 -5.281543e-001 2.461451e-001 6.206260e-001 2.043958e-001 2.931759e-001 4.262827e-001 2.134272e-002 1.928410e-001 4.688069e-002 4.590468e-001
<VARIANCE> 25
 1.109127e+002 3.934151e+001 5.098013e+001 3.936074e+001 4.324974e+001 8.713053e+001 3.884140e+001 2.598142e+001 3.645068e+001 2.610008e+001 5.756854e+001 1.872392e+001 7.314912e+000 2.039853e+000 4.081936e+000 2.601898e+000 2.934837e+000 8.070339e+000 2.783379e+000 2.097431e+000 1.855052e+000 2.873253e+000 4.681714e+000 1.617290e+000 5.316649e+000
<GCONST> 1.062875e+002
<STATE> 3
<MEAN> 25
 -1.056325e+001 -1.955254e+000 1.359927e+001 1.062003e+000 -2.476290e+000 -4.544324e+000 2.098485e+000 3.373170e+000 1.663550e+000 -2.589293e+000 2.168226e+000 5.868102e-001 -3.630295e-001 -3.873560e-001 -1.771524e-001 -3.913173e-001 -4.030791e-002 2.693701e-002 3.084075e-002 1.078377e-001 2.942974e-001 1.841043e-001 -8.588807e-002 1.479478e-001 2.607548e-001
<VARIANCE> 25
 1.136682e+002 2.585008e+001 4.229480e+001 3.365689e+001 4.270906e+001 7.587046e+001 3.877830e+001 2.261144e+001 3.487156e+001 2.619115e+001 5.128474e+001 1.748792e+001 1.106451e+001 2.079959e+000 3.276958e+000 2.844686e+000 2.756483e+000 8.316607e+000 2.800794e+000 2.319890e+000 2.210638e+000 2.496552e+000 3.980811e+000 1.652308e+000 4.445529e+000
<GCONST> 1.051250e+002
<STATE> 4
<MEAN> 25
 -7.354118e+000 -4.063110e+000 1.105827e+001 2.876774e+000 -2.395602e+000 -4.746708e+000 1.373604e+000 3.118350e+000 2.764251e+000 -2.247436e+000 -2.178679e-001 1.702641e+000 1.329461e+000 -1.917515e-001 -8.391854e-001 1.509002e-001 1.324441e-001 -2.112649e-001 -1.181230e-002 -3.020062e-001 -6.006461e-002 -6.111098e-002 -4.506908e-001 2.047540e-002 -3.756509e-001
<VARIANCE> 25
 1.680801e+002 1.752533e+001 4.265800e+001 3.980030e+001 2.384723e+001 6.417979e+001 4.560667e+001 2.522400e+001 4.311443e+001 2.974438e+001 7.821050e+001 1.883835e+001 1.013917e+001 1.684231e+000 3.155072e+000 2.314617e+000 1.697167e+000 6.113368e+000 4.014482e+000 2.619353e+000 3.081577e+000 3.555907e+000 3.235478e+000 1.739659e+000 2.972069e+000
<GCONST> 1.049345e+002
<TRANSP> 5
 0.000000e+000 1.000000e+000 0.000000e+000 0.000000e+000 0.000000e+000
 0.000000e+000 7.545410e-001 2.454590e-001 0.000000e+000 0.000000e+000
 0.000000e+000 0.000000e+000 7.708625e-001 2.291374e-001 0.000000e+000
 0.000000e+000 0.000000e+000 0.000000e+000 8.954490e-001 1.045510e-001
 0.000000e+000 0.000000e+000 0.000000e+000 0.000000e+000 0.000000e+000
<ENDHMM>
~h "th"
<BEGINHMM>
<NUMSTATES> 5
<STATE> 2
<MEAN> 25
 1.834741e+000 -3.068185e+000 -3.270189e+000 -5.003751e+000 1.830160e+000 -3.002705e+000 7.813967e+000 -1.008771e+000 9.333629e-001 -4.293632e-001 2.277807e+000 1.016110e+000 8.661479e-001 6.234381e-002 -3.740944e-002 6.956384e-002 -9.327971e-002 -7.302158e-002 7.902599e-001 9.179396e-002 3.470234e-001 -3.040277e-001 -1.588988e-001 4.036595e-001 2.453874e-001
<VARIANCE> 25
 7.675439e+001 3.548633e+001 4.371661e+001 4.813222e+001 7.104627e+001 7.183251e+001 6.013634e+001 3.635748e+001 3.055946e+001 3.318328e+001 2.181503e+001 3.994676e+001 7.959569e+000 3.006835e+000 2.533330e+000 3.292640e+000 4.363209e+000 4.818112e+000 5.371727e+000 3.745201e+000 2.396856e+000 3.304496e+000 1.675384e+000 1.882786e+000 2.609419e+000
<GCONST> 1.069490e+002
<STATE> 3
<MEAN> 25
 1.507100e+000 -3.209146e+000 -1.990641e+000 -2.915658e+000 2.871267e+000 -3.276461e+000 7.495625e+000 5.518185e-001 1.685103e+000 -9.268229e-001 2.823314e+000 2.935379e+000 -1.046257e-002 -1.748696e-002 1.671609e-001 4.544745e-001 -1.165262e-001 -4.680930e-002 1.377292e-002 1.895399e-001 9.212076e-002 -2.078158e-001 1.173086e-001 2.575331e-001 -1.815271e-001
<VARIANCE> 25
 7.906354e+001 3.136783e+001 3.425446e+001 6.201347e+001 8.234848e+001 1.194357e+002 4.496677e+001 5.078286e+001 3.737590e+001 6.484404e+001 2.403627e+001 3.138168e+001 4.946224e+000 2.694507e+000 2.230412e+000 3.037538e+000 3.928968e+000 4.710251e+000 3.378441e+000 3.939607e+000 3.944597e+000 3.880596e+000 2.311752e+000 2.404975e+000 2.268325e+000
<GCONST> 1.080428e+002
<STATE> 4
<MEAN> 25
 1.209721e+000 -2.924839e+000 5.591209e-001 -9.832842e-001 3.245889e-001 -7.056260e+000 7.524304e+000 2.648605e-001 1.610320e+000 -5.435599e+000 3.753116e+000 1.848535e+000 3.016261e-002 -1.284766e-003 2.173574e-001 1.936614e-001 -1.678953e-001 -1.247615e-001 -6.464549e-002 -3.505420e-003 -1.506553e-001 -2.085875e-001 -6.771417e-002 -8.203346e-002 -5.729722e-002
<VARIANCE> 25
 8.747858e+001 3.212402e+001 6.975457e+001 5.957441e+001 9.780643e+001 1.020308e+002 3.727788e+001 4.179747e+001 3.326220e+001 7.466625e+001 2.421339e+001 2.236818e+001 4.889264e+000 1.990186e+000 2.404597e+000 2.143466e+000 5.035704e+000 3.459384e+000 3.302500e+000 3.733248e+000 2.864007e+000 4.393788e+000 2.568777e+000 2.353278e+000 1.825182e+000
<GCONST> 1.071096e+002
<TRANSP> 5
 0.000000e+000 1.000000e+000 0.000000e+000 0.000000e+000 0.000000e+000
 0.000000e+000 8.055639e-001 1.944361e-001 0.000000e+000 0.000000e+000
 0.000000e+000 0.000000e+000 7.806378e-001 2.193622e-001 0.000000e+000
 0.000000e+000 0.000000e+000 0.000000e+000 9.413520e-001 5.864799e-002
 0.000000e+000 0.000000e+000 0.000000e+000 0.000000e+000 0.000000e+000
<ENDHMM>
~h "uh"
<BEGINHMM>
<NUMSTATES> 5
<STATE> 2
<MEAN> 25
 7.557345e+000 -1.278491e+000 -1.250218e+000 -8.410028e+000 -2.456028e+000 -1.937386e+000 4.660665e+000 -6.935616e+000 -1.551752e+000 -7.064631e+000 1.203143e+001 3.362811e+000 3.909128e-001 -4.024608e-002 -3.916177e-001 -1.040002e+000 -3.035082e-001 4.808926e-001 1.402020e-001 -1.080960e+000 9.210148e-001 -2.067671e-001 3.362345e-001 -2.535743e-001 1.350609e+000
<VARIANCE> 25
 7.977017e+000 1.559520e+001 1.988214e+001 2.547560e+001 3.025611e+001 7.638309e+001 5.595630e+001 3.443802e+001 3.028687e+001 6.015557e+001 2.241759e+001 4.520512e+001 1.660726e+000 1.468911e+000 2.855895e+000 2.613761e+000 3.266134e+000 3.358156e+000 3.387602e+000 4.351692e+000 4.553702e+000 5.833037e+000 5.218569e+000 1.017467e+000 4.374361e+000
<GCONST> 1.011483e+002
<STATE> 3
<MEAN> 25
 7.668497e+000 -9.405573e-001 -2.051678e+000 -9.822942e+000 -1.974464e+000 2.680712e-002 5.429368e+000 -7.802117e+000 -1.688672e+000 -7.457145e+000 1.255147e+001 2.897273e+000 1.302251e-002 2.874932e-003 -5.928368e-001 -4.052959e-001 5.794417e-001 6.218367e-001 6.367753e-002 -2.942071e-001 -1.570784e-001 4.519762e-001 -3.714007e-001 -1.576089e-001 4.373977e-002
<VARIANCE> 25
 4.848365e+000 1.966940e+001 1.433793e+001 2.534465e+001 3.820127e+001 6.376134e+001 5.203959e+001 3.019012e+001 4.653051e+001 8.572183e+001 3.046648e+001 4.557134e+001 6.691185e-001 8.457189e-001 1.339607e+000 9.900569e-001 1.721792e+000 3.429213e+000 3.278787e+000 3.856629e+000 3.772289e+000 2.361445e+000 4.153041e+000 1.301563e+000 3.771349e+000
<GCONST> 9.631255e+001
<STATE> 4
<MEAN> 25
