~o
<STREAMINFO> 1 25
<VECSIZE> 25<NULLD><MFCC_D_N_Z_0><DIAGC>
~s "silst"
<MEAN> 25
 -7.201522e+000 4.114445e+000 -7.684437e-001 4.075030e+000 -2.505024e-001 1.211212e+001 -4.414899e+000 4.217527e-001 2.203782e+000 3.796209e+000 -7.389333e+000 -4.310741e-001 -1.734824e-001 -1.156688e-001 -2.899199e-001 -2.209475e-001 -1.362695e-001 -4.646666e-002 7.701233e-002 9.763876e-002 1.656909e-001 9.820587e-002 1.559204e-001 1.051186e-001 -1.609738e-001
<VARIANCE> 25
 8.122880e+000 1.899611e+001 1.663680e+001 2.093517e+001 1.778807e+001 3.692404e+001 2.576281e+001 2.966410e+001 3.407343e+001 2.276589e+001 2.360316e+001 1.864342e+001 6.593493e-001 1.983962e+000 1.230141e+000 1.306879e+000 1.370400e+000 1.906304e+000 1.668394e+000 2.026279e+000 2.751295e+000 2.040651e+000 1.997647e+000 1.368141e+000 1.180309e+000
<GCONST> 8.852405e+001
~h "b"
<BEGINHMM>
<NUMSTATES> 5
<STATE> 2
<MEAN> 25
 5.626122e+000 1.206456e+000 1.337227e+000 8.457712e-001 2.782595e+000 6.190458e+000 -1.993806e+000 -2.163748e+000 -1.310854e+000 1.411682e+000 -3.117277e+000 1.831693e+000 3.131014e-001 1.433033e+000 5.043685e-001 8.868916e-001 8.712644e-001 1.760681e+000 -6.233055e-001 -3.629425e-001 -1.336276e-001 1.014556e+000 -1.675253e+000 1.359344e-001 -2.342944e+000
<VARIANCE> 25
 9.324834e+001 2.330118e+001 2.912785e+001 2.446893e+001 2.608844e+001 3.429771e+001 2.981655e+001 2.464877e+001 3.250269e+001 4.315074e+001 3.875249e+001 1.943001e+001 1.242459e+000 8.137847e-001 2.221870e+000 2.680668e+000 1.382468e+000 2.752581e+000 2.412740e+000 2.922727e+000 2.655241e+000 2.476650e+000 4.939926e+000 2.022413e+000 2.362465e+000
<GCONST> 9.759612e+001
<STATE> 3
<MEAN> 25
 6.408895e+000 8.421084e+000 3.473779e+000 4.631668e+000 6.977870e-001 9.011218e+000 -2.647349e+000 -3.740085e+000 -4.118622e+000 1.778957e+000 -5.038383e+000 1.680163e+000 5.343943e-001 4.093782e-001 2.484499e-001 -1.534705e-001 -1.153338e-001 -2.683367e-001 1.463270e-001 -3.637058e-001 -5.563715e-001 -2.918318e-001 5.834852e-001 1.545426e-001 5.504848e-001
<VARIANCE> 25
 4.989346e+001 3.373961e+001 2.152431e+001 2.304688e+001 2.983492e+001 2.582069e+001 2.130935e+001 3.196378e+001 3.758604e+001 2.812614e+001 4.045801e+001 2.176317e+001 4.650759e+000 2.403507e+000 2.102266e+000 2.463180e+000 2.169624e+000 3.028906e+000 2.368255e+000 2.230705e+000 3.037817e+000 3.647786e+000 3.611946e+000 1.920995e+000 2.530139e+000
<GCONST> 9.937290e+001
<STATE> 4
<MEAN> 25
 7.038017e+000 6.855986e-001 1.595363e+000 -1.212253e+000 9.275987e-001 1.778748e+000 3.234883e-002 -2.051770e+000 -3.552477e+000 -2.048628e+000 3.358305e+000 3.284767e+000 1.242521e-001 -3.110713e+000 -1.525710e+000 -2.307637e+000 -1.148137e+000 -2.848511e+000 9.208261e-001 1.993100e-001 1.102880e+000 -1.628653e+000 3.931028e+000 1.533222e-001 5.327744e+000
<VARIANCE> 25
 3.745687e+001 6.250628e+001 3.163333e+001 3.814006e+001 3.065348e+001 6.066900e+001 3.442442e+001 3.368450e+001 4.088250e+001 3.063074e+001 7.835756e+001 2.451343e+001 4.473819e+000 4.814583e+000 3.913655e+000 3.637896e+000 5.484357e+000 6.695831e+000 4.994051e+000 5.838586e+000 6.964496e+000 5.443456e+000 5.247104e+000 6.816034e+000 6.334904e+000
<GCONST> 1.118382e+002
<TRANSP> 5
 0.000000e+000 1.000000e+000 0.000000e+000 0.000000e+000 0.000000e+000
 0.000000e+000 6.309424e-001 3.690576e-001 0.000000e+000 0.000000e+000
 0.000000e+000 0.000000e+000 6.985015e-001 3.014985e-001 0.000000e+000
 0.000000e+000 0.000000e+000 0.000000e+000 6.785460e-001 3.214540e-001
 0.000000e+000 0.000000e+000 0.000000e+000 0.000000e+000 0.000000e+000
<ENDHMM>
~h "d"
<BEGINHMM>
<NUMSTATES> 5
<STATE> 2
<MEAN> 25
 2.594811e+000 -2.685798e+000 8.204955e+000 4.707306e+000 -6.154418e+000 -6.874620e+000 -3.282388e+000 -2.618700e+000 -1.628747e+000 -6.092111e-001 -6.226146e-001 5.640745e-001 2.942629e-002 8.832107e-001 1.079065e-001 1.088582e-001 1.200867e-001 5.306998e-001 -8.668246e-001 -3.848709e-001 -2.599096e-001 2.828270e-001 -5.642238e-001 -3.576613e-001 -1.422398e+000
<VARIANCE> 25
 3.862160e+001 3.839058e+001 9.203197e+001 3.048052e+001 5.935315e+001 1.122734e+002 4.032121e+001 6.876910e+001 4.862349e+001 2.463314e+001 7.084013e+001 2.533714e+001 2.034777e+000 2.365608e+000 2.202588e+000 2.437104e+000 3.229361e+000 4.537920e+000 3.831113e+000 3.782706e+000 3.842086e+000 3.285098e+000 3.874782e+000 2.619791e+000 4.346265e+000
<GCONST> 1.074333e+002
<STATE> 3
<MEAN> 25
 6.215878e+000 5.038081e+000 3.148228e+000 2.476102e+000 -1.127832e+000 2.846599e+000 -7.025269e+000 -3.468301e+000 -3.279502e+000 3.698027e+000 -4.969947e+000 -1.759760e+000 6.558168e-001 8.341101e-001 3.227474e-001 1.156048e-001 2.133482e-001 8.477948e-001 -3.730115e-002 1.783234e-002 -5.278360e-002 6.181647e-001 -1.531853e-001 -5.879999e-001 -2.894244e-001
<VARIANCE> 25
 5.202448e+001 3.883363e+001 4.185168e+001 2.434470e+001 4.747924e+001 6.184777e+001 2.976312e+001 4.075588e+001 2.805260e+001 2.656427e+001 4.314484e+001 1.699431e+001 3.221114e+000 1.875198e+000 1.612562e+000 1.841084e+000 4.085799e+000 4.544833e+000 2.630747e+000 2.515426e+000 3.723279e+000 2.584682e+000 2.794836e+000 2.552910e+000 2.619788e+000
<GCONST> 1.016714e+002
<STATE> 4
<MEAN> 25
 5.413856e+000 -2.712862e-001 5.398820e+000 1.092232e+000 1.915443e-002 -1.434161e+000 -5.895182e+000 6.550289e-002 3.213520e-001 1.819197e+000 -1.229867e+000 -1.596715e+000 -2.173362e-001 -1.914490e+000 -9.365880e-002 -4.789073e-001 -2.642877e-001 -2.515279e+000 -2.843411e-002 9.341955e-001 7.079775e-001 -8.939391e-001 1.364811e+000 -3.081905e-001 3.388789e+000
<VARIANCE> 25
 3.511261e+001 6.723856e+001 3.801123e+001 4.392208e+001 2.272764e+001 1.059122e+002 3.918201e+001 4.178370e+001 3.015977e+001 3.946914e+001 4.087350e+001 2.600051e+001 5.604132e+000 5.390087e+000 4.561244e+000 3.824374e+000 4.348499e+000 1.033139e+001 4.698627e+000 4.055657e+000 3.153025e+000 6.163530e+000 5.300590e+000 4.464908e+000 7.003210e+000
<GCONST> 1.114685e+002
<TRANSP> 5
 0.000000e+000 1.000000e+000 0.000000e+000 0.000000e+000 0.000000e+000
 0.000000e+000 6.058531e-001 3.941469e-001 0.000000e+000 0.000000e+000
 0.000000e+000 0.000000e+000 6.107904e-001 3.892095e-001 0.000000e+000
 0.000000e+000 0.000000e+000 0.000000e+000 5.817961e-001 4.182039e-001
 0.000000e+000 0.000000e+000 0.000000e+000 0.000000e+000 0.000000e+000
<ENDHMM>
~h "f"
<BEGINHMM>
<NUMSTATES> 5
<STATE> 2
<MEAN> 25
 -3.942353e+000 -1.847308e+000 3.365839e-001 2.927659e+000 5.044066e+000 2.234871e-001 -4.759638e-001 4.785536e+000 1.233768e+000 1.171628e+000 -4.796973e-001 1.534093e+000 -3.696578e+000 -7.966030e-001 5.515993e-001 2.482270e-001 2.039239e+000 1.299354e-001 6.407863e-003 1.818727e+000 4.816289e-001 1.854189e-001 1.116203e+000 6.301042e-001 2.136259e-001
<VARIANCE> 25
 7.431660e+001 1.790140e+001 1.478343e+001 3.047961e+001 2.632392e+001 2.713742e+001 3.219568e+001 3.542331e+001 2.228000e+001 3.383326e+001 2.823721e+001 1.182193e+001 3.582251e+000 2.706153e+000 2.608696e+000 4.776557e+000 3.003329e+000 4.277864e+000 3.991187e+000 2.819263e+000 3.819582e+000 6.310675e+000 3.154083e+000 1.343890e+000 2.700876e+000
<GCONST> 1.006851e+002
<STATE> 3
<MEAN> 25
 -1.286609e+001 -6.286626e+000 5.935096e-001 1.710659e+000 7.980492e+000 -8.827684e-001 8.603443e-001 5.900678e+000 2.407833e+000 1.138470e+000 1.513945e+000 2.326900e+000 -1.833625e-001 -6.978747e-001 -5.258432e-001 -7.965591e-001 -8.536942e-002 3.433558e-001 3.233311e-001 -1.815835e-001 -1.054259e-001 1.093239e-001 1.104123e-002 -1.129595e-001 -1.818451e-002
<VARIANCE> 25
 1.420453e+001 1.958322e+001 1.780230e+001 2.773958e+001 1.459634e+001 2.376442e+001 2.696499e+001 2.565424e+001 4.285418e+001 3.302744e+001 2.561401e+001 1.917000e+001 2.434286e+000 1.552235e+000 1.013792e+000 2.429656e+000 1.283448e+000 2.216237e+000 2.109297e+000 2.978943e+000 2.346410e+000 3.067402e+000 2.859583e+000 1.866516e+000 2.375067e+000
<GCONST> 9.324476e+001
<STATE> 4
<MEAN> 25
 -3.853168e+000 -4.899672e+000 -2.336092e+000 -5.582053e+000 1.775060e+000 4.223924e+000 5.610410e+000 2.492812e+000 -1.838916e+000 -2.745661e-001 3.218871e+000 2.906744e+000 4.682265e+000 1.761375e+000 -5.835072e-001 -1.909397e+000 -2.408638e+000 7.330607e-001 2.051567e+000 -1.215680e+000 -5.258435e-001 -1.047365e+000 5.419453e-001 8.203854e-002 1.098237e+000
<VARIANCE> 25
 7.870812e+001 3.058127e+001 2.380184e+001 2.643353e+001 5.083095e+001 1.977770e+001 4.337035e+001 2.730762e+001 3.734505e+001 3.652842e+001 4.342262e+001 2.075836e+001 5.532504e+000 2.865592e+000 3.733753e+000 2.430320e+000 4.111962e+000 2.472109e+000 6.443395e+000 3.400193e+000 4.166408e+000 5.982925e+000 4.321486e+000 2.191914e+000 6.648929e+000
<GCONST> 1.059232e+002
<TRANSP> 5
 0.000000e+000 1.000000e+000 0.000000e+000 0.000000e+000 0.000000e+000
 0.000000e+000 5.876176e-001 4.123825e-001 0.000000e+000 0.000000e+000
 0.000000e+000 0.000000e+000 8.028317e-001 1.971683e-001 0.000000e+000
 0.000000e+000 0.000000e+000 0.000000e+000 6.767848e-001 3.232152e-001
 0.000000e+000 0.000000e+000 0.000000e+000 0.000000e+000 0.000000e+000
<ENDHMM>
~h "g"
<BEGINHMM>
<NUMSTATES> 5
<STATE> 2
<MEAN> 25
 1.574503e+000 -4.404589e+000 -2.414700e+000 -2.813946e-001 4.567819e+000 -1.565903e+000 5.782819e-001 2.227855e+000 3.471734e+000 3.374330e+000 -5.058020e+000 -3.920402e+000 1.715180e-001 -1.710019e-001 -5.645450e-001 2.243605e-001 3.151648e-001 1.465899e+000 -8.074867e-002 4.296475e-002 1.159486e-002 7.161161e-001 -8.897499e-001 1.887960e-001 -1.149240e+000
<VARIANCE> 25
 6.147878e+001 3.112691e+001 3.478024e+001 2.271645e+001 2.545565e+001 9.145889e+001 5.130468e+001 3.478945e+001 2.847365e+001 8.221751e+001 6.334073e+001 1.973919e+001 5.478792e-001 3.519487e+000 1.092401e+000 2.030305e+000 3.911414e+000 3.519850e+000 5.214705e+000 3.601757e+000 2.431082e+000 3.575554e+000 4.967725e+000 3.994508e+000 3.355752e+000
<GCONST> 1.036747e+002
<STATE> 3
<MEAN> 25
 -5.948071e-002 1.526699e+000 -2.280381e+000 4.333482e+000 6.716072e+000 5.405180e+000 -2.122775e+000 2.288264e+000 3.129827e+000 3.834764e+000 -5.851606e+000 -1.502204e+000 2.694440e-001 1.946611e+000 7.967091e-001 6.359102e-001 1.142027e-001 7.563724e-001 -9.208524e-001 -4.757429e-001 -4.739189e-001 2.200364e-001 -7.285893e-001 5.080278e-001 -1.277949e+000
<VARIANCE> 25
 7.229810e+001 3.615751e+001 3.507911e+001 3.111998e+001 5.776749e+001 7.875021e+001 4.744426e+001 2.923171e+001 5.534091e+001 4.615921e+001 4.979293e+001 2.160607e+001 3.924079e+000 3.375097e+000 2.766262e+000 3.050694e+000 3.772958e+000 3.460207e+000 2.582213e+000 3.662821e+000 6.098456e+000 2.316073e+000 4.886366e+000 4.587234e+000 3.133403e+000
<GCONST> 1.077273e+002
<STATE> 4
<MEAN> 25
 2.776671e+000 4.015345e+000 6.230011e+000 1.586241e+000 7.568691e-001 3.193003e+000 -2.470104e+000 -1.257892e+000 -3.434622e+000 2.385940e+000 -2.383550e+000 -1.365696e+000 -5.058356e-001 -1.212310e+000 3.057063e-001 -8.524294e-001 -1.029981e+000 -1.276696e+000 8.795117e-001 -1.162210e-001 -9.119989e-001 -6.715589e-001 1.887031e+000 -6.565008e-002 2.662644e+000
<VARIANCE> 25
 6.975372e+001 4.546175e+001 4.328639e+001 3.541270e+001 4.528072e+001 4.602100e+001 7.076262e+001 3.744663e+001 3.767874e+001 2.625655e+001 1.005025e+002 2.650376e+001 9.104676e+000 3.570329e+000 2.511351e+000 3.225026e+000 4.042568e+000 8.373822e+000 8.851364e+000 4.991840e+000 3.738816e+000 4.499333e+000 4.852363e+000 2.734364e+000 4.263484e+000
<GCONST> 1.113941e+002
<TRANSP> 5
 0.000000e+000 1.000000e+000 0.000000e+000 0.000000e+000 0.000000e+000
 0.000000e+000 6.097807e-001 3.902192e-001 0.000000e+000 0.000000e+000
 0.000000e+000 0.000000e+000 7.029433e-001 2.970567e-001 0.000000e+000
 0.000000e+000 0.000000e+000 0.000000e+000 8.345461e-001 1.654539e-001
 0.000000e+000 0.000000e+000 0.000000e+000 0.000000e+000 0.000000e+000
<ENDHMM>
~h "k"
<BEGINHMM>
<NUMSTATES> 5
<STATE> 2
<MEAN> 25
 -2.381639e-002 -6.496809e-001 -3.933117e-001 1.676512e+000 4.650411e+000 -9.640720e-001 -2.940702e+000 1.096542e+000 3.731769e-001 1.839414e+000 -2.572804e+000 -9.986053e-001 -6.134056e-001 3.634371e-001 3.679796e-001 -2.185299e-001 1.865858e-001 1.828425e+000 -9.510953e-001 3.541261e-001 3.186340e-001 8.441206e-001 -7.100185e-001 -3.144036e-002 -1.933886e+000
<VARIANCE> 25
 3.684639e+001 2.517473e+001 4.632249e+001 3.459304e+001 4.942475e+001 1.108298e+002 4.518686e+001 3.562772e+001 3.057493e+001 2.875735e+001 5.309763e+001 2.602301e+001 1.750524e+000 2.091328e+000 3.511666e+000 2.768919e+000 3.806297e+000 6.231519e+000 2.881790e+000 3.915673e+000 3.446946e+000 4.677828e+000 5.374270e+000 3.734023e+000 5.249272e+000
<GCONST> 1.067608e+002
<STATE> 3
<MEAN> 25
 -1.900368e+000 -2.204244e+000 -1.465315e+000 -4.329481e+000 2.278079e+000 3.572176e+000 -5.100821e+000 3.397568e+000 -1.123783e+000 3.885959e+000 2.781425e+000 -1.792746e+000 -1.226513e+000 -2.459646e+000 -1.113865e+000 -2.884279e+000 3.296812e-001 -1.299710e+000 3.468296e-001 1.772385e+000 -1.165277e+000 -3.381741e-001 4.247815e+000 -1.362735e+000 5.119010e+000
<VARIANCE> 25
 3.371130e+001 4.025024e+001 4.023507e+001 6.361847e+001 4.447846e+001 5.547593e+001 3.714059e+001 5.137456e+001 4.361967e+001 2.488590e+001 9.450214e+001 3.202756e+001 4.350135e+000 3.990149e+000 6.412470e+000 6.371809e+000 7.563043e+000 5.869253e+000 5.498035e+000 5.742435e+000 4.911434e+000 4.043232e+000 9.008752e+000 4.667356e+000 1.168696e+001
<GCONST> 1.143727e+002
<STATE> 4
<MEAN> 25
 -4.754141e+000 -6.348149e+000 -2.732919e+000 -7.430434e+000 4.373483e+000 -3.119619e-001 -1.913079e+000 7.332448e+000 -1.455951e+000 2.197582e+000 1.231202e+001 -4.539853e+000 8.020077e-001 4.451849e-001 7.285671e-001 6.528811e-001 5.547974e-001 -9.660540e-001 1.602907e+000 -1.920072e-001 3.472493e-001 -1.207884e+000 1.725021e-002 6.589646e-001 1.341091e+000
<VARIANCE> 25
 3.365183e+001 2.631685e+001 5.327920e+001 5.685096e+001 4.638212e+001 5.542023e+001 5.575347e+001 3.358997e+001 4.526212e+001 4.068722e+001 6.682127e+001 3.135331e+001 7.637112e+000 2.491076e+000 2.718576e+000 3.686402e+000 2.756284e+000 5.181893e+000 4.257174e+000 3.774561e+000 3.786101e+000 4.761491e+000 5.743768e+000 2.695361e+000 7.012488e+000
<GCONST> 1.095676e+002
<TRANSP> 5
 0.000000e+000 1.000000e+000 0.000000e+000 0.000000e+000 0.000000e+000
 0.000000e+000 5.698706e-001 4.301294e-001 0.000000e+000 0.000000e+000
 0.000000e+000 0.000000e+000 5.665390e-001 4.334610e-001 0.000000e+000
 0.000000e+000 0.000000e+000 0.000000e+000 6.501999e-001 3.498001e-001
 0.000000e+000 0.000000e+000 0.000000e+000 0.000000e+000 0.000000e+000
<ENDHMM>
~h "l"
<BEGINHMM>
<NUMSTATES> 5
<STATE> 2
<MEAN> 25
 7.678038e+000 -7.266482e+000 -2.065258e+000 -7.257363e+000 1.176271e+000 -7.596468e+000 1.712910e+000 -3.086486e+000 -2.785518e+000 2.466537e+000 7.613689e+000 -4.106980e+000 2.924566e-003 7.770330e-002 -1.121058e-001 -8.641835e-001 8.124348e-001 -1.770147e-001 2.369212e-001 -8.708133e-003 -4.018007e-001 4.788026e-001 -8.073279e-002 -3.042157e-001 3.298596e-001
<VARIANCE> 25
 1.714903e+001 2.842613e+001 2.213288e+001 3.289908e+001 3.580410e+001 3.613758e+001 5.432083e+001 4.914286e+001 6.346701e+001 2.713062e+001 3.806080e+001 3.389963e+001 9.551648e-001 1.126807e+000 1.953933e+000 2.801870e+000 2.888889e+000 3.148555e+000 3.990903e+000 5.054562e+000 3.761496e+000 2.190649e+000 2.497104e+000 2.090634e+000 1.552232e+000
<GCONST> 9.958257e+001
<STATE> 3
<MEAN> 25
 7.462629e+000 -4.732207e+000 -4.125879e+000 -1.235827e+001 3.895799e+000 -7.179006e+000 8.540638e+000 -5.556769e+000 -6.595654e+000 2.915604e+000 7.105742e+000 -2.210455e+000 1.002090e-001 4.027661e-001 2.284585e-001 -7.111602e-003 5.064865e-002 1.780511e-001 2.177728e-001 -4.419927e-001 -2.644956e-001 -1.417189e-001 -3.221927e-001 3.889375e-001 -5.104440e-001
<VARIANCE> 25
 9.769945e+000 1.618188e+001 2.559615e+001 2.400250e+001 3.375470e+001 3.125176e+001 5.668378e+001 4.475064e+001 5.234900e+001 2.353309e+001 2.410762e+001 4.084577e+001 3.775684e-001 5.478091e-001 7.699977e-001 1.230077e+000 1.339860e+000 1.474038e+000 2.408641e+000 2.151743e+000 2.764639e+000 1.839489e+000 1.672169e+000 1.602512e+000 6.335621e-001
<GCONST> 8.909068e+001
<STATE> 4
<MEAN> 25
 7.192317e+000 -7.899658e-002 -2.675595e+000 -7.505418e+000 4.837218e+000 -7.325882e-001 5.638106e+000 -5.233953e+000 -5.227913e+000 4.160985e+000 2.116286e+000 7.780595e-001 -4.253697e-001 4.278101e-001 2.813336e-001 1.316021e+000 -1.213766e-001 1.199002e+000 -1.422879e+000 5.984130e-001 6.860745e-001 -2.765686e-001 -7.956739e-001 1.644057e-001 -1.876390e+000
<VARIANCE> 25
 1.137158e+001 3.163785e+001 2.510132e+001 5.284848e+001 3.203306e+001 1.054764e+002 7.042848e+001 5.256552e+001 4.615905e+001 4.603028e+001 4.571592e+001 3.720654e+001 1.163548e+000 1.325223e+000 1.506710e+000 2.153750e+000 2.587717e+000 4.897674e+000 3.979075e+000 3.591192e+000 3.357182e+000 2.866698e+000 3.055212e+000 2.503217e+000 2.487926e+000
<GCONST> 1.024844e+002
<TRANSP> 5
 0.000000e+000 1.000000e+000 0.000000e+000 0.000000e+000 0.000000e+000
 0.000000e+000 5.876930e-001 4.123071e-001 0.000000e+000 0.000000e+000
 0.000000e+000 0.000000e+000 7.442366e-001 2.557634e-001 0.000000e+000
 0.000000e+000 0.000000e+000 0.000000e+000 6.985869e-001 3.014131e-001
 0.000000e+000 0.000000e+000 0.000000e+000 0.000000e+000 0.000000e+000
<ENDHMM>
~h "m"
<BEGINHMM>
<NUMSTATES> 5
<STATE> 2
<MEAN> 25
 1.264519e+001 -5.855313e+000 -9.787626e-001 7.115663e+000 7.095593e-001 -8.031728e+000 1.874663e+000 2.040661e+000 -6.344620e+000 -9.462717e+000 -4.633682e+000 3.430994e+000 6.505294e-001 -2.215910e-001 2.916126e-001 1.828756e+000 1.319333e-001 1.106409e-002 -1.906144e-001 -7.851001e-002 -9.319938e-001 -4.667867e-001 -1.374307e+000 6.724075e-001 -9.729092e-001
<VARIANCE> 25
 2.305198e+001 1.536036e+001 1.242980e+001 2.505029e+001 2.443056e+001 4.020402e+001 3.359241e+001 4.130418e+001 4.256129e+001 4.551262e+001 2.910796e+001 2.029380e+001 7.070812e-001 7.031081e-001 1.002578e+000 2.737942e+000 1.286281e+000 2.515121e+000 1.758365e+000 2.150387e+000 2.781853e+000 2.311935e+000 3.039895e+000 1.469787e+000 1.368482e+000
<GCONST> 9.211966e+001
<STATE> 3
<MEAN> 25
 9.706761e+000 -2.260088e+000 1.218780e+000 9.630542e+000 8.249669e-001 -1.906332e+000 -1.282135e+000 -2.032622e-001 -6.197013e+000 -6.751389e+000 -6.141239e+000 5.304147e+000 1.979456e-001 1.057009e-001 -4.290803e-001 -5.396602e-001 -2.950591e-001 1.145879e-001 -2.328742e-001 -4.303386e-001 5.726404e-001 1.059369e+000 8.101870e-001 7.290028e-001 -1.583713e-001
<VARIANCE> 25
 5.823891e+001 3.356637e+001 1.547968e+001 1.783462e+001 1.703763e+001 6.111744e+001 2.681017e+001 3.005192e+001 4.200920e+001 5.246574e+001 2.598986e+001 1.999541e+001 3.509837e+000 2.330790e+000 1.227392e+000 3.384531e+000 1.733899e+000 6.256163e+000 2.079222e+000 3.802219e+000 2.580093e+000 3.547433e+000 2.804288e+000 1.479940e+000 5.046256e+000
<GCONST> 9.997012e+001
<STATE> 4
<MEAN> 25
 1.320466e+001 -7.006165e+000 -1.970692e+000 5.510944e+000 1.434315e-001 -9.018578e+000 -6.407969e-001 1.863085e+000 -4.362036e+000 -4.309585e+000 -1.356378e-001 7.327013e+000 -5.415856e-001 -5.346315e-001 1.717845e-001 -2.310882e+000 2.428464e-001 -1.239943e+000 3.311769e-001 5.548352e-001 1.044260e+000 1.247295e+000 1.420811e+000 -9.718820e-001 2.393541e+000
<VARIANCE> 25
 2.182233e+001 2.757504e+001 3.030237e+001 5.278847e+001 2.006582e+001 4.077784e+001 3.730743e+001 4.958146e+001 2.945271e+001 3.703418e+001 2.815038e+001 2.177528e+001 7.199097e+000 2.065224e+000 2.333187e+000 5.168710e+000 2.397704e+000 5.769966e+000 2.814380e+000 4.303175e+000 5.069737e+000 4.972188e+000 4.586172e+000 3.267439e+000 5.255106e+000
<GCONST> 1.052710e+002
<TRANSP> 5
 0.000000e+000 1.000000e+000 0.000000e+000 0.000000e+000 0.000000e+000
 0.000000e+000 7.779614e-001 2.220386e-001 0.000000e+000 0.000000e+000
 0.000000e+000 0.000000e+000 5.633625e-001 4.366376e-001 0.000000e+000
 0.000000e+000 0.000000e+000 0.000000e+000 6.664194e-001 3.335806e-001
 0.000000e+000 0.000000e+000 0.000000e+000 0.000000e+000 0.000000e+000
<ENDHMM>
~h "n"
<BEGINHMM>
<NUMSTATES> 5
<STATE> 2
<MEAN> 25
 1.203447e+001 -7.057732e+000 5.908118e-001 3.875059e+000 -1.165286e+000 -1.153076e+001 1.647028e+000 -2.377139e-001 -3.105184e+000 -1.458797e+000 -3.355317e+000 7.368891e-001 7.918062e-001 4.971651e-001 3.418937e-001 1.895171e+000 -6.648712e-001 2.209836e-001 -3.599005e-001 -4.316803e-002 -6.974822e-001 -5.054209e-001 -1.479741e+000 6.072977e-001 -1.404621e+000
<VARIANCE> 25
 1.252013e+001 1.161600e+001 1.646793e+001 3.644802e+001 2.691356e+001 3.142328e+001 2.777875e+001 2.613766e+001 3.712169e+001 2.055345e+001 4.676077e+001 2.225084e+001 4.413675e-001 7.304072e-001 1.181361e+000 1.989808e+000 1.658263e+000 2.471333e+000 2.457205e+000 2.058339e+000 2.461582e+000 2.566945e+000 3.042278e+000 1.786650e+000 9.155995e-001
<GCONST> 9.043885e+001
<STATE> 3
<MEAN> 25
 1.406424e+001 -4.390069e+000 1.865495e+000 9.527304e+000 -2.618423e+000 -8.360980e+000 4.985702e-001 8.839462e-001 -6.118616e+000 -2.526298e+000 -6.055173e+000 3.059780e+000 -3.432438e-001 5.459728e-001 2.742413e-001 -3.713391e-001 1.300005e-001 7.569547e-001 -3.157212e-001 4.709673e-001 7.871386e-002 9.976681e-002 5.276158e-001 -2.158069e-001 -5.603817e-001
<VARIANCE> 25
 7.534023e+000 1.476112e+001 1.399366e+001 2.013223e+001 3.659898e+001 3.068123e+001 3.027745e+001 3.461105e+001 2.884016e+001 2.991387e+001 3.246797e+001 2.799308e+001 5.772853e-001 1.370170e+000 1.464208e+000 2.249423e+000 2.092256e+000 2.888533e+000 2.581149e+000 3.192887e+000 2.626666e+000 2.458747e+000 2.547545e+000 2.571834e+000 1.113323e+000
<GCONST> 9.256795e+001
<STATE> 4
<MEAN> 25
 6.787727e+000 -1.962825e+000 3.505863e+000 5.020235e+000 -2.178971e-001 -1.814917e+000 -2.968008e+000 1.706124e+000 -1.668103e+000 1.270900e+000 -2.635384e+000 9.764365e-001 -1.558491e+000 4.849755e-001 6.603958e-002 -1.487317e+000 3.929034e-001 1.241794e+000 3.696294e-001 -7.881956e-002 9.765952e-001 4.117917e-001 9.145244e-001 -5.171837e-001 -2.513818e-001
<VARIANCE> 25
 4.100661e+001 4.352508e+001 4.050943e+001 4.615853e+001 3.059061e+001 6.035009e+001 5.834563e+001 4.238512e+001 4.186855e+001 3.524150e+001 3.955210e+001 3.215113e+001 2.789783e+000 3.590186e+000 3.677627e+000 4.437851e+000 4.331960e+000 5.100302e+000 6.406329e+000 3.266752e+000 3.097887e+000 3.888582e+000 5.721841e+000 3.592616e+000 6.586754e+000
<GCONST> 1.093765e+002
<TRANSP> 5
 0.000000e+000 1.000000e+000 0.000000e+000 0.000000e+000 0.000000e+000
 0.000000e+000 7.091199e-001 2.908801e-001 0.000000e+000 0.000000e+000
 0.000000e+000 0.000000e+000 7.044439e-001 2.955561e-001 0.000000e+000
 0.000000e+000 0.000000e+000 0.000000e+000 6.717343e-001 3.282657e-001
 0.000000e+000 0.000000e+000 0.000000e+000 0.000000e+000 0.000000e+000
<ENDHMM>
~h "p"
<BEGINHMM>
<NUMSTATES> 5
<STATE> 2
<MEAN> 25
 3.167234e+000 2.800604e+000 -4.193286e+000 -4.037583e-001 1.840256e+000 9.721572e+000 -3.191391e+000 -2.516274e+000 -3.269142e-001 3.488247e+000 -6.975324e+000 2.340589e+000 -1.440205e+000 -1.425743e-001 8.539968e-001 1.224651e-001 -5.843175e-001 -6.671671e-001 9.751312e-002 3.897445e-001 9.653713e-002 -6.824617e-001 9.862347e-001 -4.012518e-001 -1.506559e-001
<VARIANCE> 25
 2.937593e+001 1.876756e+001 2.059007e+001 2.228281e+001 2.417888e+001 4.663529e+001 2.448729e+001 1.911783e+001 2.708171e+001 4.457417e+001 2.324651e+001 3.090152e+001 1.412328e+000 3.216467e+000 2.432032e+000 2.379766e+000 3.762168e+000 4.021884e+000 3.340508e+000 4.074631e+000 2.613741e+000 3.230700e+000 5.420285e+000 2.884740e+000 6.070302e+000
<GCONST> 1.005208e+002
<STATE> 3
<MEAN> 25
 -7.956190e-001 -4.054702e+000 -6.852120e-001 -1.964925e+000 -7.899389e-001 2.000299e+000 -7.023423e-001 9.399362e-001 -7.171158e-001 1.495324e+000 2.838010e+000 1.696179e+000 -1.751133e-001 -3.007038e+000 8.366057e-001 -4.921879e-001 -8.234194e-001 -3.207379e+000 8.631713e-001 4.569523e-001 -7.252485e-001 -5.627261e-001 4.422961e+000 -2.704453e-002 5.748257e+000
<VARIANCE> 25
 2.624450e+001 2.907400e+001 1.949739e+001 2.407945e+001 2.813445e+001 5.055983e+001 2.610029e+001 3.191108e+001 3.789919e+001 3.894231e+001 5.356356e+001 2.652962e+001 6.971431e+000 2.666842e+000 6.355463e+000 3.956562e+000 3.205861e+000 8.208456e+000 5.771958e+000 5.277965e+000 4.551976e+000 4.290442e+000 4.307189e+000 2.327020e+000 7.766867e+000
<GCONST> 1.074379e+002
<STATE> 4
<MEAN> 25
 3.260616e+000 -5.601410e+000 4.920645e-001 -1.559043e+000 -7.056310e-001 -3.639998e+000 3.916681e+000 -3.350709e+000 -2.559176e+000 -2.100572e+000 7.461197e+000 2.794867e+000 1.036110e+000 -5.179972e-001 4.791328e-001 1.982313e-001 -1.121202e-001 -9.016660e-001 3.602776e-001 -4.734673e-001 -8.307337e-001 -5.072194e-001 7.595988e-001 -2.927901e-001 1.890593e+000
<VARIANCE> 25
 1.059180e+002 2.005187e+001 6.803930e+001 4.590104e+001 5.389686e+001 5.147992e+001 7.591077e+001 6.912619e+001 4.414573e+001 3.846606e+001 3.896518e+001 1.881524e+001 1.088618e+001 3.603331e+000 5.611168e+000 6.075224e+000 4.873647e+000 4.602459e+000 6.904394e+000 5.699595e+000 6.114892e+000 2.649037e+000 4.377473e+000 2.595251e+000 5.452903e+000
<GCONST> 1.130754e+002
<TRANSP> 5
 0.000000e+000 1.000000e+000 0.000000e+000 0.000000e+000 0.000000e+000
 0.000000e+000 6.835592e-001 3.164407e-001 0.000000e+000 0.000000e+000
 0.000000e+000 0.000000e+000 4.299616e-001 5.700384e-001 0.000000e+000
 0.000000e+000 0.000000e+000 0.000000e+000 6.538622e-001 3.461377e-001
 0.000000e+000 0.000000e+000 0.000000e+000 0.000000e+000 0.000000e+000
<ENDHMM>
~h "r"
<BEGINHMM>
<NUMSTATES> 5
<STATE> 2
<MEAN> 25
 5.651346e+000 -2.405140e+000 -5.924186e+000 -5.049855e+000 6.255991e+000 -5.005540e+000 8.904583e-001 4.314977e-001 -8.473990e-001 -3.736324e+000 8.369112e+000 1.197817e+000 5.209402e-001 -3.965382e-001 -7.263995e-001 2.654022e-001 1.238460e-001 -1.156939e+000 4.898081e-001 -1.686352e-001 1.054094e-001 -5.452902e-001 -7.507739e-003 -2.013797e-001 6.151517e-001
<VARIANCE> 25
 2.750230e+001 2.651465e+001 2.321696e+001 2.920354e+001 4.093495e+001 7.258151e+001 7.615004e+001 3.485282e+001 2.688943e+001 3.585668e+001 4.983751e+001 3.546997e+001 3.416175e+000 2.423452e+000 2.203640e+000 2.336595e+000 4.263068e+000 8.418900e+000 5.816642e+000 3.407353e+000 2.033764e+000 3.860610e+000 3.571168e+000 2.116688e+000 2.808181e+000
<GCONST> 1.047230e+002
<STATE> 3
<MEAN> 25
 6.646769e+000 -5.500648e+000 -5.312695e+000 -1.240339e+000 3.845803e+000 -1.369422e+001 4.313121e+000 1.693936e+000 9.458329e-001 -5.747239e+000 4.594633e+000 -9.181186e-002 1.458655e-001 -1.091924e-001 7.475885e-001 1.006990e+000 -5.803352e-001 -7.685726e-001 -1.812350e-001 1.949835e-001 2.282415e-001 -3.473451e-001 -4.421558e-001 2.608602e-001 -1.338955e-001
<VARIANCE> 25
 1.083434e+001 2.610659e+001 2.408584e+001 3.585414e+001 2.446095e+001 8.442126e+001 7.334037e+001 2.351290e+001 2.595522e+001 3.411343e+001 3.443325e+001 1.876535e+001 6.927042e-001 1.193716e+000 1.076635e+000 2.010283e+000 1.603516e+000 2.333323e+000 3.309412e+000 1.663322e+000 2.007663e+000 2.252457e+000 1.898191e+000 1.171332e+000 1.358091e+000
<GCONST> 9.291681e+001
<STATE> 4
<MEAN> 25
 7.349074e+000 -2.331721e+000 -3.028941e+000 1.591090e+000 2.947818e+000 -6.374118e+000 1.269690e+000 -5.593695e-002 1.491589e+000 -1.182394e+000 1.824602e+000 3.791843e+000 -5.050034e-001 2.898587e-001 9.572456e-001 8.246767e-001 1.534095e-001 1.618089e+000 -8.635099e-001 1.239460e-001 -1.782409e-001 1.087432e+000 -9.948921e-001 2.462060e-001 -2.055147e+000
<VARIANCE> 25
 1.256470e+001 3.357031e+001 3.493565e+001 5.959674e+001 2.954412e+001 1.726374e+002 4.841434e+001 2.699390e+001 4.049527e+001 6.050923e+001 6.136728e+001 4.128804e+001 1.258776e+000 1.319428e+000 1.505623e+000 3.116445e+000 3.081500e+000 5.745282e+000 3.028907e+000 3.460793e+000 3.300249e+000 3.857674e+000 3.365030e+000 3.092950e+000 4.121092e+000
<GCONST> 1.045660e+002
<TRANSP> 5
 0.000000e+000 1.000000e+000 0.000000e+000 0.000000e+000 0.000000e+000
 0.000000e+000 6.158166e-001 3.841835e-001 0.000000e+000 0.000000e+000
 0.000000e+000 0.000000e+000 6.679546e-001 3.320454e-001 0.000000e+000
 0.000000e+000 0.000000e+000 0.000000e+000 5.749956e-001 4.250044e-001
 0.000000e+000 0.000000e+000 0.000000e+000 0.000000e+000 0.000000e+000
<ENDHMM>
~h "s"
<BEGINHMM>
<NUMSTATES> 5
<STATE> 2
<MEAN> 25
 -7.658027e+000 3.460005e+000 2.345100e+000 -2.056467e+000 8.683949e+000 -4.704651e+000 -6.940959e-001 4.635637e+000 -1.339632e-001 -1.259042e+000 1.881961e+000 4.086004e-001 -4.192090e+000 1.271630e+000 5.340021e-001 -3.986153e-001 1.177168e+000 1.063411e+000 -2.114851e-001 1.667545e+000 1.201102e+000 -2.127026e-001 6.628272e-001 1.265478e+000 5.993851e-001
<VARIANCE> 25
 7.802793e+001 2.650162e+001 2.974122e+001 3.479077e+001 3.344922e+001 4.207690e+001 3.942575e+001 5.004318e+001 3.082852e+001 3.303130e+001 2.822979e+001 2.948947e+001 3.432734e+000 2.499779e+000 2.083999e+000 3.521719e+000 2.801596e+000 4.346697e+000 6.219922e+000 5.619792e+000 3.350411e+000 4.445315e+000 2.724135e+000 3.267383e+000 2.380525e+000
<GCONST> 1.049611e+002
<STATE> 3
<MEAN> 25
 -2.037040e+001 5.580395e+000 4.579201e+000 -2.480204e+000 1.090940e+001 -1.288721e+000 3.134660e+000 1.012118e+001 4.081736e+000 -1.959107e-001 3.479703e+000 4.367977e+000 -4.268200e-001 -3.878927e-001 2.371515e-001 -3.714144e-002 -8.071758e-002 3.435263e-001 3.525162e-001 2.402157e-001 3.781705e-001 1.487856e-001 -7.540822e-002 1.402025e-001 -3.389775e-001
<VARIANCE> 25
 1.344209e+001 2.128165e+001 1.795735e+001 1.670076e+001 2.629692e+001 3.944651e+001 4.028728e+001 3.471497e+001 3.805048e+001 2.599076e+001 2.408948e+001 1.985435e+001 1.867198e+000 2.128952e+000 1.274149e+000 1.517187e+000 2.204108e+000 1.898923e+000 2.465055e+000 2.820264e+000 2.152450e+000 2.374433e+000 2.059482e+000 2.157752e+000 8.769817e-001
<GCONST> 9.296255e+001
<STATE> 4
<MEAN> 25
 -1.337054e+001 1.684321e+000 3.132630e+000 -2.711703e+000 8.052909e+000 -1.406343e+000 9.364453e-001 5.145610e+000 3.109656e+000 1.065567e+000 4.816174e-001 2.643418e+000 2.954962e+000 -6.522843e-001 -6.644615e-001 2.368293e-001 -1.186724e+000 -1.068692e-001 -7.344437e-001 -1.795980e+000 -1.010709e+000 3.385075e-001 -1.147988e+000 -9.933074e-001 -1.817427e+000
<VARIANCE> 25
 3.730970e+001 2.747771e+001 2.685243e+001 2.833659e+001 2.734931e+001 5.566604e+001 4.436116e+001 6.804567e+001 3.113830e+001 2.805001e+001 2.925802e+001 2.253560e+001 5.650431e+000 2.561830e+000 1.684671e+000 1.924391e+000 3.797842e+000 4.629745e+000 3.421589e+000 2.887909e+000 3.406958e+000 3.009085e+000 2.830908e+000 2.990980e+000 6.794503e+000
<GCONST> 1.035043e+002
<TRANSP> 5
 0.000000e+000 1.000000e+000 0.000000e+000 0.000000e+000 0.000000e+000
 0.000000e+000 7.178666e-001 2.821334e-001 0.000000e+000 0.000000e+000
 0.000000e+000 0.000000e+000 8.093970e-001 1.906029e-001 0.000000e+000
 0.000000e+000 0.000000e+000 0.000000e+000 6.959884e-001 3.040116e-001
 0.000000e+000 0.000000e+000 0.000000e+000 0.000000e+000 0.000000e+000
<ENDHMM>
~h "t"
<BEGINHMM>
<NUMSTATES> 5
<STATE> 2
<MEAN> 25
 4.314435e-001 1.131818e+000 2.769017e+000 1.326536e+000 1.350572e+000 2.155784e+000 -5.235790e+000 -2.115888e+000 -1.983693e+000 3.034880e+000 -5.472666e+000 2.009828e+000 -1.494094e+000 -1.174308e+000 -3.064063e-001 -1.542481e+000 -7.907604e-002 -9.086883e-001 9.783732e-001 8.929086e-001 7.930866e-001 -4.705318e-001 7.740157e-001 5.669928e-002 1.284561e+000
<VARIANCE> 25
 2.892871e+001 3.760781e+001 3.398993e+001 3.369652e+001 3.352936e+001 7.433614e+001 4.181317e+001 4.011976e+001 4.396787e+001 3.413528e+001 2.996496e+001 2.162392e+001 5.238142e+000 4.817315e+000 3.247165e+000 5.494452e+000 5.196246e+000 6.564062e+000 4.484380e+000 5.383780e+000 7.450802e+000 4.690621e+000 5.158317e+000 2.883649e+000 9.709396e+000
<GCONST> 1.103660e+002
<STATE> 3
<MEAN> 25
 -4.032000e+000 -4.912673e+000 -4.092881e-001 -5.712727e+000 6.264840e-001 -5.623119e+000 9.122059e-001 1.977376e+000 1.762551e+000 7.139561e-002 1.191354e+000 1.014698e+000 -2.110169e-002 -9.369528e-001 -4.955945e-001 -1.454204e+000 -5.686852e-001 -2.637255e+000 9.120405e-001 6.608074e-001 5.339100e-001 -3.648630e-001 2.168039e+000 -3.848252e-001 4.140312e+000
<VARIANCE> 25
 4.581641e+001 2.788693e+001 1.950929e+001 4.809635e+001 4.726250e+001 6.796069e+001 3.462132e+001 4.030957e+001 4.551989e+001 3.586408e+001 3.303918e+001 3.590170e+001 5.289550e+000 2.787177e+000 3.812904e+000 3.689175e+000 3.720563e+000 7.587710e+000 5.283823e+000 5.972283e+000 4.987581e+000 4.338790e+000 4.460266e+000 4.343015e+000 7.679546e+000
<GCONST> 1.099395e+002
<STATE> 4
<MEAN> 25
 -4.268418e-001 -2.818305e+000 3.522513e-001 -3.892896e+000 1.256544e-001 -8.235772e+000 -1.904230e-001 8.641509e-001 1.605039e+000 1.023295e+000 2.376091e+000 1.875345e-001 2.126501e+000 5.830705e-001 -8.061019e-002 1.112494e+000 7.006310e-002 -1.100485e+000 2.488379e-001 -1.031980e+000 -9.177641e-001 2.288168e-003 5.738560e-001 -7.969855e-001 1.383228e+000
<VARIANCE> 25
 4.669814e+001 1.765130e+001 1.720881e+001 4.556308e+001 3.847238e+001 8.208807e+001 3.147981e+001 3.868103e+001 3.461299e+001 3.050689e+001 3.247800e+001 3.403659e+001 4.551553e+000 3.114351e+000 3.466808e+000 5.084134e+000 2.637985e+000 7.415578e+000 3.411795e+000 4.664883e+000 4.882624e+000 3.514925e+000 4.409165e+000 2.223972e+000 8.121243e+000
<GCONST> 1.069405e+002
<TRANSP> 5
 0.000000e+000 1.000000e+000 0.000000e+000 0.000000e+000 0.000000e+000
 0.000000e+000 5.288939e-001 4.711061e-001 0.000000e+000 0.000000e+000
 0.000000e+000 0.000000e+000 3.655806e-001 6.344193e-001 0.000000e+000
 0.000000e+000 0.000000e+000 0.000000e+000 3.554642e-001 6.445358e-001
 0.000000e+000 0.000000e+000 0.000000e+000 0.000000e+000 0.000000e+000
<ENDHMM>
~h "v"
<BEGINHMM>
<NUMSTATES> 5
<STATE> 2
<MEAN> 25
 -3.181253e+000 -2.565683e+000 1.392985e+000 5.467385e+000 5.646518e+000 -2.374936e+000 -2.207978e-001 5.725349e-001 -1.692674e+000 -6.522627e-001 -9.302221e-001 8.984206e-001 -1.137029e+000 -1.091000e-001 -4.971522e-002 -2.345456e-001 3.128147e-002 2.499699e-001 9.383545e-002 2.294834e-001 1.392548e-001 -3.072647e-001 1.226655e-002 3.104941e-002 -4.415267e-001
<VARIANCE> 25
 7.913809e+001 2.924482e+001 4.273432e+001 3.927725e+001 2.370204e+001 6.045997e+001 5.357097e+001 2.985602e+001 2.251732e+001 2.803397e+001 2.277937e+001 2.118811e+001 2.162331e+000 1.100279e+000 1.598049e+000 1.553893e+000 1.231504e+000 2.269821e+000 2.608147e+000 2.217366e+000 1.933899e+000 1.418480e+000 2.105676e+000 1.400767e+000 8.516973e-001
<GCONST> 9.488086e+001
<STATE> 3
<MEAN> 25
 3.000679e-001 -2.413765e+000 -1.378433e+000 2.973482e-001 3.485051e+000 -2.364731e-001 2.337327e-001 -7.894133e-001 -3.169188e+000 -2.260298e+000 6.587277e-001 1.783332e+000 9.235526e-001 -1.013235e+000 -1.179704e+000 -1.719229e+000 -1.081251e+000 -1.246062e-001 -1.400325e-001 -2.534925e-002 6.264200e-001 2.101608e-001 9.932696e-001 3.131794e-001 2.555808e-001
<VARIANCE> 25
 5.653364e+001 3.296518e+001 5.061974e+001 5.581039e+001 2.944784e+001 6.175607e+001 6.355924e+001 3.674099e+001 3.770035e+001 3.475964e+001 3.146724e+001 2.667613e+001 3.707969e+000 1.271936e+000 3.588562e+000 5.095432e+000 3.870013e+000 2.983526e+000 2.172544e+000 4.153894e+000 2.471108e+000 1.775741e+000 2.095748e+000 1.899056e+000 2.643559e+000
<GCONST> 1.035317e+002
<STATE> 4
<MEAN> 25
 6.051944e+000 -5.361245e+000 -5.377147e+000 -1.084645e+000 1.546433e+000 -4.059306e+000 4.020855e+000 -1.604516e+000 2.305947e+000 -1.140298e+000 1.360401e+000 4.173693e-001 1.252195e-002 2.444454e-002 6.224435e-001 6.694706e-001 -8.836672e-002 -3.196314e-001 -9.663069e-001 2.761360e-001 6.953532e-001 -1.790805e-001 3.329929e-001 1.160197e-001 -4.637201e-001
<VARIANCE> 25
 4.602445e+001 3.089158e+001 3.324109e+001 4.157136e+001 2.113890e+001 6.530092e+001 6.229411e+001 4.248589e+001 3.471826e+001 3.162456e+001 3.819329e+001 2.008737e+001 1.776809e+000 3.400533e+000 1.637109e+000 2.025255e+000 1.992844e+000 3.799289e+000 2.352617e+000 2.581036e+000 2.183424e+000 2.463231e+000 2.877189e+000 1.434786e+000 5.150655e+000
<GCONST> 1.007577e+002
<TRANSP> 5
 0.000000e+000 1.000000e+000 0.000000e+000 0.000000e+000 0.000000e+000
 0.000000e+000 5.315086e-001 4.684915e-001 0.000000e+000 0.000000e+000
 0.000000e+000 0.000000e+000 3.975237e-001 6.024764e-001 0.000000e+000
 0.000000e+000 0.000000e+000 0.000000e+000 5.530325e-001 4.469675e-001
 0.000000e+000 0.000000e+000 0.000000e+000 0.000000e+000 0.000000e+000
<ENDHMM>
~h "w"
<BEGINHMM>
<NUMSTATES> 5
<STATE> 2
<MEAN> 25
 1.318820e+001 2.879071e+000 -1.937253e+000 -9.517108e+000 -9.197336e+000 5.034327e+000 2.086425e+000 -6.218247e+000 -1.267559e+000 -6.643482e+000 3.285421e+000 7.227253e-001 5.787445e-001 7.308413e-001 5.326666e-002 -1.217562e+000 -8.828593e-001 6.643515e-001 6.132250e-001 1.452437e-001 1.362168e-001 -8.229043e-001 -6.063873e-002 4.366762e-001 -1.287684e-001
<VARIANCE> 25
 5.789633e+000 4.027422e+001 1.335405e+001 4.617831e+001 4.943761e+001 2.875221e+001 2.368375e+001 4.060305e+001 3.747421e+001 1.856017e+001 7.541301e+001 2.383304e+001 5.493897e-001 1.575703e+000 1.914895e+000 2.016684e+000 1.484345e+000 2.481629e+000 3.257387e+000 3.451890e+000 3.655081e+000 2.974379e+000 6.595017e+000 2.902518e+000 1.590995e+000
<GCONST> 9.672283e+001
<STATE> 3
<MEAN> 25
 1.330813e+001 1.751195e+000 -5.203754e+000 -1.431055e+001 -8.183864e+000 3.613743e+000 8.526300e+000 -6.778205e+000 -3.355957e+000 -1.164025e+001 1.119325e+001 3.817443e+000 -9.124959e-001 -1.791341e+000 -1.461467e+000 -5.773004e-002 2.410220e+000 -1.212366e+000 8.986501e-001 -1.078563e+000 -7.624573e-001 7.994903e-001 3.141692e+000 -3.683728e-001 2.193451e+000
<VARIANCE> 25
 6.324315e+000 2.632631e+001 1.107353e+001 1.919444e+001 6.619816e+001 3.843435e+001 4.727039e+001 4.658246e+001 5.260946e+001 2.486591e+001 6.500443e+001 2.099066e+001 7.282609e-001 1.690690e+000 1.723178e+000 2.514405e+000 2.811664e+000 2.263042e+000 4.342692e+000 4.991470e+000 3.924556e+000 6.038889e+000 5.870918e+000 3.465436e+000 1.071294e+000
<GCONST> 9.920287e+001
<STATE> 4
<MEAN> 25
 9.171673e+000 -5.854375e+000 -7.757365e+000 -1.116497e+001 3.608049e+000 -3.832786e+000 8.415904e+000 -7.366094e+000 -1.619047e+000 -2.025748e+000 1.285279e+001 -1.939341e+000 -1.002045e+000 -1.161990e+000 2.320346e-001 1.198706e+000 1.662166e+000 -2.685741e+000 -8.067494e-001 9.076154e-001 1.239436e+000 1.814641e+000 -1.378614e+000 -1.750418e+000 1.095007e+000
<VARIANCE> 25
 5.363381e+000 9.843802e+000 8.040621e+000 1.558833e+001 3.675881e+001 4.208979e+001 9.726389e+001 3.161530e+001 2.888932e+001 3.592733e+001 4.829147e+001 1.427824e+001 9.140469e-001 1.264253e+000 1.009026e+000 1.494162e+000 2.705256e+000 2.290040e+000 2.231856e+000 1.893258e+000 3.101671e+000 2.682441e+000 2.982056e+000 1.742855e+000 1.347952e+000
<GCONST> 9.148605e+001
<TRANSP> 5
 0.000000e+000 1.000000e+000 0.000000e+000 0.000000e+000 0.000000e+000
 0.000000e+000 8.127029e-001 1.872971e-001 0.000000e+000 0.000000e+000
 0.000000e+000 0.000000e+000 6.786614e-001 3.213386e-001 0.000000e+000
 0.000000e+000 0.000000e+000 0.000000e+000 6.850312e-001 3.149688e-001
 0.000000e+000 0.000000e+000 0.000000e+000 0.000000e+000 0.000000e+000
<ENDHMM>
~h "y"
<BEGINHMM>
<NUMSTATES> 5
<STATE> 2
<MEAN> 25
 -2.147625e-002 -7.132448e+000 7.831101e+000 1.121410e-001 -1.165941e+000 -6.842649e+000 -2.212182e+000 -2.379833e+000 -2.923440e+000 -1.439043e-001 4.117137e+000 -1.934395e+000 -1.019743e+000 -6.153696e-001 2.069393e+000 6.074059e-001 -2.667488e+000 -1.382699e+000 6.398214e-001 1.036427e+000 -1.410476e+000 -1.042006e+000 7.527543e-001 5.813729e-001 2.357186e+000
<VARIANCE> 25
 8.123592e+001 1.940498e+001 3.014570e+001 4.570174e+001 2.505736e+001 4.941153e+001 4.316918e+001 6.182166e+001 4.273674e+001 5.178251e+001 5.392569e+001 6.249211e+001 2.020031e+000 1.553730e+000 2.644060e+000 3.886143e+000 2.832770e+000 4.921061e+000 2.827952e+000 7.636556e+000 6.204974e+000 3.912796e+000 2.547617e+000 3.719740e+000 8.822388e+000
<GCONST> 1.081700e+002
<STATE> 3
<MEAN> 25
 -7.116799e+000 -6.439881e+000 1.140859e+001 -2.355549e+000 -5.364609e+000 -5.720371e+000 3.670130e+000 -1.178516e+000 -3.519492e+000 1.845573e+000 2.381217e+000 2.048175e+000 1.740832e-001 3.889994e-001 1.157605e+000 6.078534e-001 -1.303556e+000 -5.737311e-001 7.699550e-001 6.064122e-001 -1.930549e-001 -1.802269e-001 7.433815e-001 -1.372588e-002 4.757716e-001
<VARIANCE> 25
 8.674769e+001 1.623429e+001 3.308643e+001 5.590005e+001 2.549189e+001 4.152609e+001 3.496657e+001 3.864135e+001 3.512955e+001 3.974324e+001 3.604995e+001 2.813850e+001 3.006995e+000 2.206663e+000 1.473944e+000 2.761061e+000 3.440732e+000 3.711572e+000 2.877003e+000 3.033011e+000 3.112524e+000 2.908944e+000 3.340040e+000 2.845341e+000 1.759926e+000
<GCONST> 1.020863e+002
<STATE> 4
<MEAN> 25
 3.085964e+000 -5.890038e+000 1.292996e+001 4.386249e+000 -1.034978e+001 -1.384578e+001 -5.409783e-001 2.676851e+000 -6.890669e+000 -7.257600e+000 8.681090e+000 1.504439e+000 1.012408e+000 -1.036487e-001 -9.236573e-001 -3.070753e-002 -5.278261e-002 -8.918564e-001 -3.600575e-001 2.673062e-001 3.557105e-001 -7.143376e-001 3.408004e-001 -4.818094e-002 7.373828e-001
<VARIANCE> 25
 2.812670e+001 1.130755e+001 2.859126e+001 2.363231e+001 2.542489e+001 3.067176e+001 4.216020e+001 2.553298e+001 3.416435e+001 4.021049e+001 2.156436e+001 1.007634e+001 2.926717e+000 1.796880e+000 2.496428e+000 2.535274e+000 4.062628e+000 3.433738e+000 2.096284e+000 2.649256e+000 5.593234e+000 5.089411e+000 2.235804e+000 1.446354e+000 1.108057e+000
<GCONST> 9.695189e+001
<TRANSP> 5
 0.000000e+000 1.000000e+000 0.000000e+000 0.000000e+000 0.000000e+000
 0.000000e+000 3.437586e-001 6.562415e-001 0.000000e+000 0.000000e+000
 0.000000e+000 0.000000e+000 5.468562e-001 4.531439e-001 0.000000e+000
 0.000000e+000 0.000000e+000 0.000000e+000 7.320350e-001 2.679650e-001
 0.000000e+000 0.000000e+000 0.000000e+000 0.000000e+000 0.000000e+000
<ENDHMM>
~h "z"
<BEGINHMM>
<NUMSTATES> 5
<STATE> 2
<MEAN> 25
 1.248055e+000 3.636659e+000 4.227564e+000 -1.194935e+000 5.431916e+000 -7.738651e+000 -3.867631e+000 -1.472078e+000 -3.990293e+000 -1.225325e+000 -6.776569e-001 -3.867523e+000 -3.823615e+000 2.816782e+000 1.145075e+000 -1.346648e-001 2.370883e+000 1.153207e+000 -3.915318e-001 1.430147e+000 7.013524e-001 8.040960e-002 -1.219633e+000 3.298008e-001 -3.481392e-001
<VARIANCE> 25
 2.944015e+001 2.585143e+001 3.971770e+001 5.630803e+001 2.503082e+001 3.469080e+001 4.120179e+001 3.234120e+001 4.772157e+001 1.973035e+001 2.199908e+001 1.929321e+001 2.753039e+000 1.477472e+000 2.511650e+000 2.053794e+000 1.939189e+000 6.322011e+000 2.607916e+000 3.586827e+000 2.603023e+000 3.902617e+000 4.578279e+000 2.476012e+000 3.299344e-001
<GCONST> 9.857721e+001
<STATE> 3
<MEAN> 25
 -1.274748e+001 1.036640e+001 5.146008e+000 -2.944922e+000 1.197478e+001 -3.702193e+000 7.064415e-002 4.310789e+000 -6.830532e-001 -1.505649e+000 -2.524426e-001 -2.907020e-001 -3.403144e+000 6.631598e-001 5.553818e-001 -5.236834e-001 1.113519e+000 1.218311e+000 1.060568e+000 1.234906e+000 6.220870e-001 -1.788387e-001 7.256902e-001 1.672143e+000 1.035947e-001
<VARIANCE> 25
 2.544427e+001 1.852152e+001 3.508424e+001 1.971118e+001 2.617406e+001 2.852546e+001 5.115965e+001 2.693823e+001 2.525838e+001 2.278084e+001 2.908299e+001 2.672335e+001 3.583031e+000 2.179464e+000 1.060678e+000 3.107838e+000 2.188784e+000 3.127049e+000 1.366296e+000 2.104343e+000 2.981746e+000 2.684556e+000 2.388143e+000 2.092274e+000 9.141597e-001
<GCONST> 9.532283e+001
<STATE> 4
<MEAN> 25
 -1.632521e+001 4.825861e+000 4.390334e+000 -2.028501e+000 9.823143e+000 -1.836811e+000 2.060599e+000 5.161406e+000 1.106248e+000 -9.434508e-001 7.063220e-001 3.838131e+000 1.080912e+000 -8.090265e-001 9.862507e-002 4.606682e-001 -7.834012e-001 -3.340487e-001 -5.383657e-001 -6.377319e-001 -2.330049e-001 8.587954e-002 -7.074401e-001 -9.415419e-002 -1.398975e+000
<VARIANCE> 25
 2.636134e+001 1.976446e+001 3.121674e+001 2.278163e+001 3.366289e+001 5.153737e+001 5.143978e+001 6.694991e+001 3.327917e+001 3.618340e+001 3.258025e+001 2.012487e+001 2.625959e+000 2.327209e+000 1.131142e+000 1.505555e+000 2.747315e+000 4.865182e+000 3.849666e+000 3.443663e+000 3.331095e+000 3.284918e+000 2.835964e+000 2.108198e+000 3.126701e+000
<GCONST> 1.007925e+002
<TRANSP> 5
 0.000000e+000 1.000000e+000 0.000000e+000 0.000000e+000 0.000000e+000
 0.000000e+000 5.677095e-001 4.322905e-001 0.000000e+000 0.000000e+000
 0.000000e+000 0.000000e+000 7.223696e-001 2.776304e-001 0.000000e+000
 0.000000e+000 0.000000e+000 0.000000e+000 8.568115e-001 1.431884e-001
 0.000000e+000 0.000000e+000 0.000000e+000 0.000000e+000 0.000000e+000
<ENDHMM>
~h "aa"
<BEGINHMM>
<NUMSTATES> 5
<STATE> 2
<MEAN> 25
 -6.248544e-001 -1.236058e-001 -1.485496e+000 -2.772385e+000 1.020078e+000 2.767627e+000 4.526079e+000 1.957819e+000 4.611274e-001 -2.383593e+000 3.035924e+000 7.751873e-001 2.039409e+000 -7.191057e-001 -1.871909e+000 -2.548477e+000 -1.118360e+000 -1.266637e+000 1.732786e+000 -1.835434e+000 -6.658539e-001 -7.000904e-001 1.084332e+000 -9.142974e-001 3.310259e+000
<VARIANCE> 25
 7.361332e+001 2.239853e+001 4.444559e+001 9.097005e+001 6.181106e+001 6.336052e+001 6.665680e+001 7.127361e+001 2.523855e+001 6.822713e+001 5.391386e+001 2.949413e+001 1.319079e+001 4.225409e+000 4.704650e+000 6.892993e+000 6.767773e+000 8.737785e+000 6.531647e+000 1.074642e+001 5.008873e+000 5.323986e+000 4.581426e+000 4.417612e+000 5.881734e+000
<GCONST> 1.171150e+002
<STATE> 3
<MEAN> 25
 7.600949e+000 -3.061980e+000 -8.478045e+000 -1.406897e+001 -1.481233e+000 -5.927622e-001 1.036453e+001 -6.050843e+000 -2.481891e+000 -3.130132e+000 9.497299e+000 -4.005825e+000 5.287214e-002 -3.017561e-001 -4.051106e-001 -8.606744e-002 5.250870e-001 -2.149529e-001 3.421382e-001 -1.548299e-001 -6.102129e-001 2.160936e-001 1.599501e-001 -2.974569e-001 4.940694e-001
<VARIANCE> 25
 5.088037e+000 1.496624e+001 1.809542e+001 2.625482e+001 6.494604e+001 5.874850e+001 2.352063e+001 3.309976e+001 2.901607e+001 5.819726e+001 2.801088e+001 4.501928e+001 7.044523e-001 9.326764e-001 1.032116e+000 1.336619e+000 1.499425e+000 1.812687e+000 2.504901e+000 2.403116e+000 2.408484e+000 2.691956e+000 2.240762e+000 1.513028e+000 1.506189e+000
<GCONST> 9.211513e+001
<STATE> 4
<MEAN> 25
 7.773044e+000 -3.440752e+000 -8.775285e+000 -1.021614e+001 3.556936e+000 7.239593e-001 6.892166e+000 -2.601223e+000 -5.886116e+000 1.038230e+000 2.830861e+000 -3.979426e+000 -1.389027e-001 3.413482e-002 6.524777e-001 9.848177e-001 4.730655e-001 1.236442e+000 -1.172574e+000 6.476143e-002 1.758336e-001 4.244986e-001 -1.365997e+000 6.117212e-001 -1.889367e+000
<VARIANCE> 25
 1.372900e+001 1.635625e+001 2.286753e+001 2.174165e+001 5.602060e+001 1.087034e+002 3.202550e+001 3.033032e+001 2.458963e+001 6.380261e+001 6.964532e+001 3.161653e+001 1.377630e+000 1.121373e+000 1.732090e+000 2.798295e+000 3.307172e+000 7.012923e+000 2.249321e+000 2.305486e+000 1.266711e+000 5.264369e+000 3.967675e+000 1.852460e+000 2.274480e+000
<GCONST> 9.973509e+001
<TRANSP> 5
 0.000000e+000 1.000000e+000 0.000000e+000 0.000000e+000 0.000000e+000
 0.000000e+000 7.017755e-001 2.982245e-001 0.000000e+000 0.000000e+000
 0.000000e+000 0.000000e+000 7.603779e-001 2.396221e-001 0.000000e+000
 0.000000e+000 0.000000e+000 0.000000e+000 6.825954e-001 3.174047e-001
 0.000000e+000 0.000000e+000 0.000000e+000 0.000000e+000 0.000000e+000
<ENDHMM>
~h "ae"
<BEGINHMM>
<NUMSTATES> 5
<STATE> 2
<MEAN> 25
 3.643046e+000 -6.294154e+000 -4.590514e+000 -3.192686e+000 3.462268e+000 -9.234420e+000 4.111125e+000 2.743623e+000 3.663254e+000 1.362933e+000 -3.552848e-001 -2.462329e+000 -2.487627e-001 4.966075e-001 1.048531e-001 3.406316e-001 5.325480e-001 -4.835256e-002 6.404099e-001 5.840677e-002 3.227466e-002 1.643915e-001 -7.414424e-001 -5.654999e-002 -3.740917e-001
<VARIANCE> 25
 3.218088e+001 3.668292e+001 2.098695e+001 2.619132e+001 2.596442e+001 7.127234e+001 6.239087e+001 2.549078e+001 3.514873e+001 4.194911e+001 4.769524e+001 1.915154e+001 1.395536e+000 1.436604e+000 1.422187e+000 1.441305e+000 1.075240e+000 2.688537e+000 3.248170e+000 1.766974e+000 2.245173e+000 2.388449e+000 2.435631e+000 1.347287e+000 3.399227e+000
<GCONST> 9.665165e+001
<STATE> 3
<MEAN> 25
 1.437675e+000 1.218867e+000 -1.760990e+000 1.536946e+000 4.175095e+000 -2.008402e+000 1.335478e+000 5.307103e-001 2.918318e+000 2.498870e+000 -3.675885e+000 -7.017249e-002 2.521286e-001 -1.097676e+000 -3.402673e-001 -5.374550e-002 8.404753e-002 -1.177347e+000 6.882277e-001 7.449679e-001 -1.526465e-002 -6.226491e-001 1.416686e+000 -8.134254e-001 1.682223e+000
<VARIANCE> 25
 5.131292e+001 5.819522e+001 2.669205e+001 5.239116e+001 3.842357e+001 1.219890e+002 7.570200e+001 3.843643e+001 3.537876e+001 2.745013e+001 3.632120e+001 2.810057e+001 4.635995e+000 4.090855e+000 2.596475e+000 2.356876e+000 1.562618e+000 6.539791e+000 4.081973e+000 4.790966e+000 4.917598e+000 2.356056e+000 2.830842e+000 3.282984e+000 8.785576e+000
<GCONST> 1.083308e+002
<STATE> 4
<MEAN> 25
 2.377096e+000 -6.262922e+000 -3.809761e+000 -1.116854e+000 1.425448e+000 -9.370092e+000 3.976744e+000 4.354875e+000 2.373159e+000 -5.032075e-002 2.942436e+000 -2.724829e+000 1.013973e+000 -1.644056e+000 -1.170654e-001 -8.940712e-001 -5.767719e-002 -1.609140e+000 9.035669e-002 1.081651e-001 -3.924929e-001 -5.576291e-001 1.389971e+000 -1.265453e-001 3.467416e+000
<VARIANCE> 25
 4.130874e+001 1.867481e+001 2.399511e+001 3.430505e+001 3.007369e+001 8.543276e+001 6.008650e+001 1.492880e+001 4.640384e+001 3.112200e+001 3.214521e+001 3.610690e+001 6.517821e+000 3.691723e+000 3.057944e+000 2.517618e+000 2.834438e+000 9.018697e+000 5.207686e+000 3.160061e+000 5.924550e+000 2.844906e+000 2.503104e+000 4.152620e+000 1.344538e+001
<GCONST> 1.073189e+002
<TRANSP> 5
 0.000000e+000 1.000000e+000 0.000000e+000 0.000000e+000 0.000000e+000
 0.000000e+000 7.087762e-001 2.912238e-001 0.000000e+000 0.000000e+000
 0.000000e+000 0.000000e+000 1.865750e-001 8.134250e-001 0.000000e+000
 0.000000e+000 0.000000e+000 0.000000e+000 6.656488e-001 3.343512e-001
 0.000000e+000 0.000000e+000 0.000000e+000 0.000000e+000 0.000000e+000
<ENDHMM>
~h "ah"
<BEGINHMM>
<NUMSTATES> 5
<STATE> 2
<MEAN> 25
 6.546689e+000 -7.352348e+000 -2.792716e+000 -4.376617e+000 6.713089e-001 -1.141075e+001 2.944079e+000 -9.559901e-001 1.376208e+000 -6.358676e-001 6.251925e+000 -3.472078e+000 9.075534e-001 -3.938580e-001 -1.027273e+000 -7.148209e-001 7.187771e-001 -4.702117e-001 5.150568e-001 -5.075551e-001 2.399773e-001 4.719927e-001 4.334211e-001 -7.013212e-001 8.621347e-001
<VARIANCE> 25
 1.803676e+001 2.044041e+001 3.466360e+001 3.211320e+001 4.426629e+001 5.935559e+001 4.348460e+001 4.114492e+001 4.175955e+001 3.914201e+001 4.115747e+001 3.104301e+001 2.042861e+000 1.543586e+000 2.255862e+000 2.264908e+000 3.403101e+000 4.193869e+000 3.077208e+000 3.007885e+000 3.125260e+000 3.353753e+000 4.657308e+000 2.731871e+000 5.888371e+000
<GCONST> 1.031161e+002
<STATE> 3
<MEAN> 25
 8.980366e+000 -6.799180e+000 -4.843473e+000 -5.867936e+000 4.487295e+000 -9.815941e+000 4.743839e+000 -2.163042e+000 -1.105322e+000 7.443695e-002 5.423624e+000 -3.371803e+000 5.745870e-001 4.622309e-001 2.076420e-001 8.834334e-001 1.895486e-002 8.932822e-001 -2.172248e-001 -6.716238e-002 -4.066415e-001 1.870116e-001 -9.929060e-001 5.144090e-001 -1.397035e+000
<VARIANCE> 25
 1.481035e+001 1.577320e+001 2.757114e+001 2.859866e+001 2.782240e+001 4.317079e+001 5.453258e+001 4.418520e+001 3.977793e+001 4.698189e+001 5.579884e+001 5.061010e+001 8.792832e-001 8.590681e-001 1.283317e+000 2.536695e+000 2.324160e+000 2.448561e+000 2.988927e+000 2.900817e+000 2.653822e+000 2.967559e+000 2.923896e+000 2.015319e+000 1.895814e+000
<GCONST> 9.770347e+001
<STATE> 4
<MEAN> 25
 7.854352e+000 -4.260351e+000 -3.406705e+000 -1.551470e+000 3.373009e+000 -4.269767e+000 1.571616e+000 -1.646112e+000 -8.502644e-001 2.250346e+000 1.072740e+000 -1.219665e+000 9.709573e-003 5.794392e-001 4.824860e-001 1.169724e+000 -4.622218e-001 1.162253e+000 -7.627630e-001 2.902176e-001 -4.861799e-001 2.186492e-001 -1.256941e+000 7.753938e-001 -1.902287e+000
<VARIANCE> 25
 2.121728e+001 2.036355e+001 3.340555e+001 3.891982e+001 4.063507e+001 9.879517e+001 4.978671e+001 4.818808e+001 4.000085e+001 6.938942e+001 6.072415e+001 3.476437e+001 1.473794e+000 1.848583e+000 1.672947e+000 3.781905e+000 3.543182e+000 3.426857e+000 4.298761e+000 3.890056e+000 3.074160e+000 4.121337e+000 4.718723e+000 2.968767e+000 3.077115e+000
<GCONST> 1.053132e+002
<TRANSP> 5
 0.000000e+000 1.000000e+000 0.000000e+000 0.000000e+000 0.000000e+000
 0.000000e+000 5.245925e-001 4.754076e-001 0.000000e+000 0.000000e+000
 0.000000e+000 0.000000e+000 5.101309e-001 4.898690e-001 0.000000e+000
 0.000000e+000 0.000000e+000 0.000000e+000 4.176280e-001 5.823720e-001
 0.000000e+000 0.000000e+000 0.000000e+000 0.000000e+000 0.000000e+000
<ENDHMM>
~h "ao"
<BEGINHMM>
<NUMSTATES> 5
<STATE> 2
<MEAN> 25
 8.190429e+000 1.846634e+000 -6.721565e+000 -1.293338e+001 -2.332267e+000 3.680269e+000 1.169907e+001 -6.645513e-001 -2.875379e+000 -3.297568e+000 6.696192e+000 -2.963759e-001 2.535980e+000 -1.346689e-001 -7.773966e-001 -1.821033e+000 -2.591912e+000 -1.032896e+000 2.464459e+000 -1.330202e+000 -3.393565e-001 -1.952643e+000 1.298298e+000 3.153791e-001 3.167156e+000
<VARIANCE> 25
 3.207596e+001 1.776798e+001 1.393782e+001 3.375533e+001 5.527493e+001 3.160088e+001 3.736252e+001 2.190500e+001 3.349960e+001 5.934185e+001 6.110976e+001 3.800971e+001 4.306912e+000 4.794206e+000 1.664458e+000 2.123348e+000 5.118425e+000 1.420460e+000 4.150363e+000 2.705950e+000 5.180485e+000 6.274698e+000 8.024227e+000 3.053879e+000 3.980202e+000
<GCONST> 1.047187e+002
<STATE> 3
<MEAN> 25
 1.008331e+001 -5.398957e-001 -7.260198e+000 -1.749292e+001 -9.578946e+000 2.341076e+000 1.462339e+001 -4.381314e+000 -1.898198e+000 -7.352025e+000 8.207806e+000 2.934556e+000 -1.582090e-001 -3.378608e-001 6.671620e-002 -4.014530e-001 -1.632495e-001 -2.708819e-001 1.334523e-001 -6.373669e-001 1.540678e-001 2.629165e-001 -3.097182e-001 2.926379e-001 4.816485e-001
<VARIANCE> 25
 9.121705e+000 1.383003e+001 5.765903e+000 2.581982e+001 4.666777e+001 1.905607e+001 7.225093e+000 1.980688e+001 3.265038e+001 6.205210e+001 2.275429e+001 1.659230e+001 3.101174e-001 6.039116e-001 5.269198e-001 6.120296e-001 1.661695e+000 9.707965e-001 9.707550e-001 8.367829e-001 1.140889e+000 1.793187e+000 1.503218e+000 1.219686e+000 4.044944e-001
<GCONST> 7.896948e+001
<STATE> 4
<MEAN> 25
 9.978133e+000 -2.760445e+000 -6.359689e+000 -1.554854e+001 -4.390028e+000 -8.432866e-001 1.327196e+001 -6.161714e+000 -3.672616e+000 -4.752903e+000 9.090550e+000 2.481629e+000 5.167801e-002 -1.180788e-002 6.714714e-002 1.191479e+000 1.430970e+000 -6.842698e-001 -1.223272e+000 2.108106e-001 -5.587946e-001 2.809450e-001 4.685611e-001 -5.139297e-002 -4.770772e-001
<VARIANCE> 25
 4.665957e+000 2.034943e+001 6.968174e+000 3.469851e+001 5.304486e+001 4.381353e+001 8.155709e+001 4.916934e+001 3.684929e+001 1.091296e+002 3.802975e+001 1.431792e+001 4.402137e-001 6.750222e-001 7.383519e-001 1.278960e+000 1.820894e+000 3.207075e+000 6.768371e+000 2.918307e+000 1.215108e+000 2.893027e+000 2.321768e+000 1.168300e+000 4.825769e-001
<GCONST> 9.163879e+001
<TRANSP> 5
 0.000000e+000 1.000000e+000 0.000000e+000 0.000000e+000 0.000000e+000
 0.000000e+000 6.455907e-001 3.544093e-001 0.000000e+000 0.000000e+000
 0.000000e+000 0.000000e+000 8.318093e-001 1.681907e-001 0.000000e+000
 0.000000e+000 0.000000e+000 0.000000e+000 6.705241e-001 3.294759e-001
 0.000000e+000 0.000000e+000 0.000000e+000 0.000000e+000 0.000000e+000
<ENDHMM>
~h "aw"
<BEGINHMM>
<NUMSTATES> 5
<STATE> 2
<MEAN> 25
 5.665625e+000 -6.144550e+000 -8.564592e+000 -1.156476e+001 1.725180e+000 -1.515970e+000 1.088879e+001 -2.444143e+000 -1.284317e+000 -1.687732e+000 1.139961e+001 -3.959078e+000 2.632639e-001 3.706418e-001 -6.211299e-001 -4.880272e-001 8.771960e-002 4.784501e-003 4.532070e-001 -1.619377e-001 -5.655804e-001 -1.435891e-001 -2.727393e-002 7.489756e-001 9.099808e-002
<VARIANCE> 25
 3.335367e+000 9.359400e+000 9.076630e+000 1.155286e+001 4.534573e+001 1.776828e+001 2.371104e+001 4.797426e+001 3.259841e+001 2.823773e+001 4.417840e+001 1.568611e+001 6.253294e-001 2.985473e-001 1.109465e+000 9.218219e-001 9.981396e-001 1.145075e+000 1.276761e+000 2.023885e+000 2.157749e+000 1.402992e+000 2.189385e+000 1.631500e+000 8.709813e-001
<GCONST> 8.280458e+001
<STATE> 3
<MEAN> 25
 9.471745e+000 -3.152909e+000 -8.656480e+000 -1.050595e+001 3.203127e-001 -7.600141e-001 6.716843e+000 -6.316741e+000 -3.664726e+000 1.481480e+000 7.069751e+000 3.205301e+000 5.280896e-001 1.303159e-002 3.684645e-001 1.010721e+000 -3.830238e-001 1.975127e-001 -1.510272e+000 -1.708207e-001 -3.109262e-001 8.099599e-001 -1.191407e+000 8.192731e-001 -1.586237e+000
<VARIANCE> 25
 4.104906e+000 7.308319e+000 8.368778e+000 1.634168e+001 2.045577e+001 5.211630e+001 4.974536e+001 3.775211e+001 3.026176e+001 5.277875e+001 3.943295e+001 3.453310e+001 5.369503e-001 5.644704e-001 1.148136e+000 1.678558e+000 1.835825e+000 4.385971e+000 3.987407e+000 2.514121e+000 1.374422e+000 2.626267e+000 2.709836e+000 2.212551e+000 9.988558e-001
<GCONST> 9.029538e+001
<STATE> 4
<MEAN> 25
 8.673285e+000 -5.351509e+000 -6.824677e+000 -5.641526e+000 1.565803e+000 5.628374e-001 -1.870462e+000 -2.780977e+000 -6.113410e+000 6.057700e+000 1.160613e+000 2.272687e+000 -5.669775e-001 1.092321e-001 1.024167e+000 1.290863e+000 5.326979e-001 1.794663e-001 -1.311191e+000 4.395259e-001 5.846662e-001 -3.526591e-001 -1.027807e+000 -4.997154e-001 -1.390218e+000
<VARIANCE> 25
 1.827160e+001 1.115405e+001 2.330603e+001 3.891055e+001 1.927884e+001 7.656697e+001 4.422182e+001 3.213720e+001 3.850128e+001 2.850495e+001 3.508447e+001 2.641513e+001 1.618999e+000 7.284204e-001 2.236580e+000 3.766173e+000 1.953006e+000 7.640569e+000 5.147636e+000 5.536216e+000 3.362282e+000 3.863831e+000 3.052589e+000 1.214244e+000 2.215469e+000
<GCONST> 9.948141e+001
<TRANSP> 5
 0.000000e+000 1.000000e+000 0.000000e+000 0.000000e+000 0.000000e+000
 0.000000e+000 8.609273e-001 1.390728e-001 0.000000e+000 0.000000e+000
 0.000000e+000 0.000000e+000 8.447452e-001 1.552548e-001 0.000000e+000
 0.000000e+000 0.000000e+000 0.000000e+000 7.101444e-001 2.898556e-001
 0.000000e+000 0.000000e+000 0.000000e+000 0.000000e+000 0.000000e+000
<ENDHMM>
~h "ay"
<BEGINHMM>
<NUMSTATES> 5
<STATE> 2
<MEAN> 25
 7.516269e+000 -3.742862e+000 -2.931399e+000 -5.845854e-001 3.352906e+000 -4.328786e+000 4.444417e+000 -3.064114e+000 -6.735605e-001 5.529852e+000 -2.408849e+000 -5.057452e+000 9.992180e-001 -1.741270e-001 -1.209308e+000 -7.884917e-001 1.292115e-001 -6.005201e-001 6.788374e-001 -1.358379e+000 5.284109e-001 1.005064e+000 -8.486128e-001 -7.729578e-001 1.221386e+000
<VARIANCE> 25
 1.629180e+001 5.506905e+001 5.102979e+001 1.007434e+002 2.744491e+001 5.870826e+001 1.262445e+002 2.652143e+001 3.690451e+001 1.484250e+001 4.248614e+001 1.790939e+001 6.611728e+000 2.006422e+000 3.482415e+000 5.263700e+000 4.610300e+000 4.361507e+000 6.999202e+000 3.647683e+000 3.980178e+000 1.719582e+000 2.888343e+000 2.716787e+000 7.261224e+000
<GCONST> 1.074333e+002
<STATE> 3
<MEAN> 25
 7.574401e+000 1.678069e-001 1.163042e+000 2.955765e+000 1.919430e+000 -1.908107e+000 -3.662913e+000 -4.390244e+000 -4.206688e-001 9.458563e+000 -5.236796e+000 -3.312017e+000 -6.183082e-001 -4.213783e-001 -2.039189e-001 -6.269802e-001 1.791682e-001 5.303411e-001 1.475922e-001 2.331873e-001 4.856600e-001 -5.534893e-001 2.355358e-001 2.687967e-001 1.501980e-002
<VARIANCE> 25
 1.596174e+001 7.618312e+001 7.360000e+001 8.299051e+001 2.353434e+001 5.836940e+001 1.920841e+002 2.425103e+001 3.795746e+001 3.705062e+001 2.635065e+001 1.869191e+001 1.433409e+000 3.105360e+000 1.350331e+000 5.722349e+000 4.781665e+000 3.777682e+000 2.070506e+000 2.852896e+000 2.183222e+000 3.043304e+000 2.313288e+000 1.771786e+000 8.140843e+000
<GCONST> 1.044968e+002
<STATE> 4
<MEAN> 25
 5.158453e+000 -7.445097e+000 -3.606963e+000 -3.642608e+000 2.123802e+000 -6.478715e+000 4.159313e+000 -1.860961e+000 2.304226e+000 1.702266e+000 -5.495497e-001 -4.565845e+000 -4.987411e-001 -1.286725e+000 8.006842e-002 -5.424310e-001 -8.446753e-001 -1.130033e+000 1.267103e-001 8.735305e-001 3.872498e-001 -1.833913e+000 1.001076e+000 2.375492e-001 1.896399e+000
<VARIANCE> 25
 1.308996e+001 4.853400e+001 4.278261e+001 4.258945e+001 1.829414e+001 7.689124e+001 9.215327e+001 2.577553e+001 2.919748e+001 3.012560e+001 3.127003e+001 1.702384e+001 1.404729e+000 3.895167e+000 2.250688e+000 6.423498e+000 2.919444e+000 2.476234e+000 4.617658e+000 1.949454e+000 2.267848e+000 2.614950e+000 1.795530e+000 1.630096e+000 1.142587e+001
<GCONST> 1.018236e+002
<TRANSP> 5
 0.000000e+000 1.000000e+000 0.000000e+000 0.000000e+000 0.000000e+000
 0.000000e+000 4.013634e-001 5.986365e-001 0.000000e+000 0.000000e+000
 0.000000e+000 0.000000e+000 4.619521e-001 5.380479e-001 0.000000e+000
 0.000000e+000 0.000000e+000 0.000000e+000 5.975199e-001 4.024801e-001
 0.000000e+000 0.000000e+000 0.000000e+000 0.000000e+000 0.000000e+000
<ENDHMM>
~h "ch"
<BEGINHMM>
<NUMSTATES> 5
<STATE> 2
<MEAN> 25
 -9.057899e+000 -2.485251e+000 9.229566e+000 -3.097916e+000 -5.496722e-001 -1.327199e+000 5.925670e-001 1.925331e+000 1.840821e+000 -1.171480e+000 3.053897e+000 3.971458e+000 7.864096e-001 -1.128684e+000 -9.006863e-001 7.960731e-001 -1.243106e+000 -1.512290e+000 1.792277e+000 3.312881e-001 9.473960e-001 1.321975e-001 4.116174e-001 8.777699e-001 1.223483e+000
<VARIANCE> 25
 4.707460e+001 2.606349e+001 5.462547e+001 3.293933e+001 8.461558e+001 4.958329e+001 3.045153e+001 1.608977e+001 1.628448e+001 3.152107e+001 4.450873e+001 3.565305e+001 9.135004e+000 2.676842e+000 7.860924e+000 3.341432e+000 1.055661e+001 1.451297e+000 3.540771e+000 2.924778e+000 1.439987e+000 6.884033e+000 2.822622e+000 4.268190e+000 4.311088e+000
<GCONST> 1.064766e+002
<STATE> 3
<MEAN> 25
 1.055965e+000 -5.208046e+000 -2.813917e+000 -1.187099e-001 2.228891e+000 -7.104270e+000 9.927358e+000 1.549558e+000 2.870037e+000 2.568041e+000 -4.660141e-001 -1.356226e+000 2.502775e+000 -3.798303e+000 -1.008584e+000 -2.651381e+000 4.854104e-001 -5.626269e+000 4.080045e+000 -6.369017e-001 -3.242504e-001 4.696361e-001 2.652881e+000 -1.941133e+000 7.569640e+000
<VARIANCE> 25
 3.437556e+001 4.002810e+001 1.359704e+001 3.448074e+001 1.345685e+001 1.151104e+002 6.751466e+001 2.763352e+001 2.864993e+001 1.838598e+001 5.198958e+001 3.610131e+001 1.290186e+000 1.745481e+000 2.128933e+000 3.825931e+000 3.356659e+000 9.985376e+000 1.053056e+001 6.323910e-001 1.391563e+000 9.854257e-001 4.681161e+000 1.793731e+000 1.863252e+001
<GCONST> 1.016908e+002
<STATE> 4
<MEAN> 25
 -4.130584e+000 -4.823808e+000 3.267158e+000 -3.718792e+000 1.675989e+000 -3.486824e+000 5.218700e+000 3.020401e+000 2.519378e-001 -7.782678e-001 4.099830e+000 -2.413599e-001 -8.602352e-002 2.321135e-001 3.946368e-001 1.020600e-001 -2.033921e-001 5.594526e-001 -4.703217e-001 -7.000642e-002 -2.126422e-001 -3.524128e-001 3.215109e-001 1.000182e-001 3.056749e-001
<VARIANCE> 25
 1.161351e+002 2.483428e+001 5.113754e+001 2.443487e+001 2.787277e+001 9.692790e+001 7.048998e+001 2.023206e+001 1.510935e+001 1.517167e+001 4.056317e+001 3.413769e+001 8.473385e+000 1.584771e+000 2.898721e+000 2.327990e+000 2.863826e+000 5.239325e+000 3.781069e+000 2.973325e+000 2.304228e+000 1.981973e+000 2.552354e+000 2.464653e+000 6.033549e+000
<GCONST> 1.036667e+002
<TRANSP> 5
 0.000000e+000 1.000000e+000 0.000000e+000 0.000000e+000 0.000000e+000
 0.000000e+000 7.388299e-001 2.611701e-001 0.000000e+000 0.000000e+000
 0.000000e+000 0.000000e+000 5.496667e-001 4.503333e-001 0.000000e+000
 0.000000e+000 0.000000e+000 0.000000e+000 9.010683e-001 9.893174e-002
 0.000000e+000 0.000000e+000 0.000000e+000 0.000000e+000 0.000000e+000
<ENDHMM>
~h "dh"
<BEGINHMM>
<NUMSTATES> 5
<STATE> 2
<MEAN> 25
 -9.521518e-001 2.006559e-002 4.048727e-002 -7.242898e-001 5.495405e+000 -3.670578e+000 1.301792e+000 -9.221559e-001 -2.505304e+000 6.131300e-001 7.045131e+000 -2.118696e+000 4.897809e-002 -2.491993e-001 1.621322e-001 -3.065621e-001 -6.459008e-001 -8.978383e-002 2.950000e-001 -6.234660e-001 1.469362e-001 3.584601e-001 2.444187e-001 -5.073240e-001 5.492415e-001
<VARIANCE> 25
 2.875093e+001 3.150170e+001 1.162633e+001 2.739729e+001 1.883696e+001 2.582392e+001 1.189413e+001 5.280757e+001 2.588263e+001 1.318305e+001 4.174128e+001 1.695720e+001 5.281005e+000 4.076066e+000 1.850048e+000 1.593451e+000 2.571236e+000 1.369786e+000 1.496382e+000 5.775549e+000 1.757740e+000 1.636762e+000 1.564884e+000 2.401152e+000 1.796755e+000
<GCONST> 9.407645e+001
<STATE> 3
<MEAN> 25
 5.738912e-002 -1.721473e+000 -2.551584e+000 -5.303311e-001 3.402606e+000 -7.283477e+000 8.225641e-001 -4.983038e+000 -4.012477e-001 1.220814e+000 1.766030e+000 -6.953247e+000 2.775458e-001 -1.169224e-001 -9.839069e-002 -1.868736e-001 -1.590737e-001 -1.739937e-001 3.562288e-001 -3.936425e-004 1.468424e-001 2.743334e-001 1.281234e-001 -1.581270e-001 1.189137e-001
<VARIANCE> 25
 1.899958e+001 1.108450e+001 4.821027e+000 9.404076e+000 9.572044e+000 4.333162e+001 2.125496e+001 3.596061e+001 2.046138e+001 1.319676e+001 2.541702e+001 1.119148e+001 2.400483e+000 1.775561e+000 6.884053e-001 9.026114e-001 1.206160e+000 5.859361e+000 3.454824e+000 4.046135e+000 3.347928e+000 2.074544e+000 2.792802e+000 1.412182e+000 3.784611e+000
<GCONST> 8.923502e+001
<STATE> 4
<MEAN> 25
 3.966988e+000 -2.501040e+000 -5.102840e+000 -1.135616e+000 2.129613e+000 -8.969700e+000 6.984021e+000 -3.913751e+000 -1.343529e-001 1.362540e+000 3.855838e+000 -8.419906e+000 4.030146e-001 3.452700e-001 -4.025176e-002 2.776612e-001 2.118786e-001 6.694824e-001 -1.566522e-001 -1.753365e-001 -2.643607e-001 -5.709597e-001 -7.077772e-001 9.390056e-002 -1.284454e+000
<VARIANCE> 25
 8.253564e+000 5.026041e+000 3.026505e+000 3.533367e+001 4.915569e+000 2.399856e+001 1.273663e+001 1.762039e+001 5.421424e+001 1.917561e+001 2.161713e+001 1.915599e+001 2.820289e-001 4.702495e-001 5.388830e-001 1.177201e+000 3.987352e-001 1.647807e+000 9.480179e-001 1.378818e+000 1.953849e+000 1.698066e+000 1.034743e+000 1.340221e+000 4.215002e-001
<GCONST> 7.553590e+001
<TRANSP> 5
 0.000000e+000 1.000000e+000 0.000000e+000 0.000000e+000 0.000000e+000
 0.000000e+000 8.182768e-001 1.817232e-001 0.000000e+000 0.000000e+000
 0.000000e+000 0.000000e+000 8.522101e-001 1.477899e-001 0.000000e+000
 0.000000e+000 0.000000e+000 0.000000e+000 8.429667e-001 1.570334e-001
 0.000000e+000 0.000000e+000 0.000000e+000 0.000000e+000 0.000000e+000
<ENDHMM>
~h "eh"
<BEGINHMM>
<NUMSTATES> 5
<STATE> 2
<MEAN> 25
 6.976318e+000 -6.511831e+000 -9.250339e-002 -1.672547e+000 1.068200e+000 -1.143204e+001 2.819353e+000 3.366791e+000 -9.837242e-001 -2.290174e+000 6.508090e+000 -2.537218e+000 1.270441e+000 -9.967574e-001 -1.110213e+000 4.841110e-003 -1.978013e-001 -2.586413e+000 1.467897e+000 3.758237e-001 9.302731e-001 -3.621756e-001 -4.367300e-001 -8.545094e-001 2.295165e+000
<VARIANCE> 25
 1.236727e+001 1.535691e+001 4.299197e+001 2.045491e+001 3.224854e+001 3.649240e+001 2.795953e+001 3.846606e+001 3.480292e+001 3.739020e+001 2.086729e+001 3.487121e+001 8.706088e+000 3.099408e+000 2.707885e+000 4.433432e+000 2.542788e+000 2.292409e+000 2.502183e+000 5.081322e+000 3.451047e+000 5.199419e+000 3.379810e+000 4.251225e+000 1.894952e+000
<GCONST> 1.020625e+002
<STATE> 3
<MEAN> 25
 5.058284e+000 -9.857764e+000 -2.038008e-001 -2.168400e+000 -4.238519e-001 -1.564838e+001 5.451921e+000 3.472211e+000 4.534740e+000 -3.463007e+000 5.033930e+000 -1.129985e-001 -1.348767e-001 -2.573246e-001 -2.735399e-001 -2.153528e-001 1.203414e-001 -6.126114e-001 7.973194e-001 4.738669e-002 1.278078e-002 4.293450e-001 -6.035327e-001 -1.264970e-001 6.872634e-001
<VARIANCE> 25
 1.148069e+001 9.386418e+000 3.495331e+001 1.379938e+001 2.535193e+001 4.414581e+001 2.332291e+001 2.259295e+001 3.225725e+001 2.452735e+001 1.382854e+001 2.381328e+001 1.573443e+000 1.008469e+000 1.956498e+000 1.153324e+000 1.720567e+000 2.414775e+000 1.592454e+000 2.018928e+000 1.597208e+000 1.709140e+000 1.509916e+000 1.617482e+000 1.148973e+000
<GCONST> 8.846708e+001
<STATE> 4
<MEAN> 25
 7.509850e+000 -7.862862e+000 -4.116213e+000 -2.995346e+000 3.778949e+000 -1.529902e+001 7.456848e+000 3.182163e+000 -1.411192e+000 1.111670e+000 2.137565e+000 -2.410874e+000 -8.586152e-002 7.902819e-001 4.249274e-002 1.014822e-001 5.540522e-001 8.419253e-001 -3.844211e-001 -5.532537e-001 -7.881525e-001 4.904937e-002 -3.353248e-001 1.480540e-001 -9.793126e-001
<VARIANCE> 25
 1.231508e+001 1.288852e+001 1.766909e+001 1.670187e+001 2.024285e+001 4.850583e+001 2.561863e+001 3.075132e+001 2.426578e+001 2.702717e+001 2.402856e+001 1.889457e+001 9.159994e-001 1.167297e+000 1.099504e+000 1.237218e+000 1.399479e+000 1.926435e+000 1.509353e+000 1.877946e+000 1.633618e+000 2.570512e+000 1.541849e+000 1.867977e+000 1.400072e+000
<GCONST> 8.810176e+001
<TRANSP> 5
 0.000000e+000 1.000000e+000 0.000000e+000 0.000000e+000 0.000000e+000
 0.000000e+000 3.917648e-001 6.082352e-001 0.000000e+000 0.000000e+000
 0.000000e+000 0.000000e+000 6.434256e-001 3.565744e-001 0.000000e+000
 0.000000e+000 0.000000e+000 0.000000e+000 7.337236e-001 2.662764e-001
 0.000000e+000 0.000000e+000 0.000000e+000 0.000000e+000 0.000000e+000
<ENDHMM>
~h "er"
<BEGINHMM>
<NUMSTATES> 5
<STATE> 2
<MEAN> 25
 7.115891e+000 -6.322248e+000 -4.333426e+000 -4.793412e+000 3.915125e+000 -1.216865e+001 3.139612e+000 -2.319177e+000 1.220323e+000 1.366539e+000 6.987287e+000 -5.508646e+000 7.662629e-002 -2.891908e-002 -2.387451e-001 2.016061e-001 2.487139e-001 -2.140220e-001 2.478717e-001 3.533942e-001 1.927546e-001 -2.573993e-001 -1.877275e-001 -1.425046e-001 -2.101666e-001
<VARIANCE> 25
 1.115655e+001 9.288873e+000 1.634946e+001 1.762306e+001 2.651501e+001 4.196482e+001 5.337114e+001 1.828758e+001 2.662378e+001 2.500041e+001 4.006423e+001 2.073136e+001 7.413979e-001 5.067697e-001 1.051304e+000 1.178496e+000 7.789885e-001 1.748333e+000 2.161190e+000 1.309384e+000 1.507512e+000 1.122696e+000 1.847640e+000 1.359373e+000 1.121257e+000
<GCONST> 8.551809e+001
<STATE> 3
<MEAN> 25
 7.996166e+000 -4.155017e+000 -3.251136e+000 1.486148e-001 3.527650e+000 -8.483268e+000 4.612882e+000 -2.095699e+000 3.592731e+000 9.730167e-001 9.443637e-001 -2.509396e+000 2.622188e-003 4.202096e-001 6.193225e-002 7.865304e-001 4.722890e-001 1.671089e+000 -6.725837e-001 1.166170e-001 -3.547450e-002 1.158001e-001 -1.157123e+000 9.474413e-001 -2.023326e+000
<VARIANCE> 25
 8.701585e+000 1.368286e+001 1.308020e+001 3.375753e+001 1.949841e+001 3.982393e+001 3.952212e+001 1.918748e+001 4.611870e+001 4.404263e+001 5.512741e+001 3.396106e+001 7.752301e-001 5.253686e-001 1.166269e+000 8.253621e-001 1.286254e+000 1.954996e+000 2.193033e+000 2.938861e+000 2.890816e+000 2.076577e+000 2.356484e+000 1.722063e+000 1.347037e+000
<GCONST> 9.059396e+001
<STATE> 4
<MEAN> 25
 5.257039e+000 -2.168303e+000 -2.270002e+000 3.031726e+000 3.776411e+000 2.496343e+000 -5.818307e-001 1.164680e-001 3.531178e+000 3.353872e+000 -2.535118e+000 8.142647e-001 -1.128593e+000 9.432182e-001 5.254787e-001 8.561056e-002 -1.741720e-001 1.468759e+000 -8.281496e-001 5.215651e-001 -2.497185e-001 2.448227e-001 -5.956756e-001 2.597435e-001 -2.050637e+000
<VARIANCE> 25
 2.343331e+001 2.254045e+001 2.526281e+001 3.714019e+001 2.486819e+001 8.749925e+001 4.001155e+001 5.407775e+001 3.523284e+001 4.068529e+001 5.058915e+001 3.562123e+001 1.899619e+000 2.301286e+000 1.711880e+000 2.530943e+000 2.770908e+000 3.572877e+000 3.607416e+000 3.426228e+000 2.512367e+000 3.614954e+000 3.566693e+000 3.340985e+000 3.621624e+000
<GCONST> 1.029092e+002
<TRANSP> 5
 0.000000e+000 1.000000e+000 0.000000e+000 0.000000e+000 0.000000e+000
 0.000000e+000 7.829487e-001 2.170513e-001 0.000000e+000 0.000000e+000
 0.000000e+000 0.000000e+000 6.572850e-001 3.427150e-001 0.000000e+000
 0.000000e+000 0.000000e+000 0.000000e+000 6.429176e-001 3.570824e-001
 0.000000e+000 0.000000e+000 0.000000e+000 0.000000e+000 0.000000e+000
<ENDHMM>
~h "ey"
<BEGINHMM>
<NUMSTATES> 5
<STATE> 2
<MEAN> 25
 4.272601e+000 -7.663112e+000 6.452213e+000 1.609245e+000 -7.940254e+000 -1.709186e+001 2.782120e+000 4.443130e+000 -1.663464e+000 -6.156199e+000 8.664073e+000 2.364762e+000 -6.564951e-001 5.454509e-001 1.502846e+000 4.297440e-001 -1.211296e+000 -8.674845e-002 4.766952e-001 -5.955462e-001 -1.187315e+000 -3.410794e-001 6.222523e-001 1.125093e-001 4.167061e-001
<VARIANCE> 25
 9.091459e+000 1.135982e+001 2.192366e+001 1.384375e+001 2.433997e+001 1.935698e+001 2.460010e+001 1.836766e+001 2.717319e+001 1.988050e+001 2.144054e+001 1.705915e+001 5.778329e-001 7.904438e-001 9.425889e-001 9.397199e-001 1.026508e+000 1.880517e+000 1.711501e+000 1.506399e+000 1.771321e+000 1.476137e+000 1.336504e+000 1.370932e+000 1.029884e+000
<GCONST> 8.305822e+001
<STATE> 3
<MEAN> 25
 1.365125e+000 -3.294176e+000 1.325925e+001 3.579953e+000 -1.191575e+001 -1.095915e+001 2.854545e+000 -3.266556e+000 -8.039074e+000 -6.123516e+000 8.865970e+000 7.671574e-001 1.514726e-001 4.419249e-001 3.526134e-001 5.052741e-001 3.210546e-001 7.010553e-001 -5.037556e-001 -3.291314e-001 -2.444295e-002 1.847213e-001 -7.614871e-001 -1.740072e-001 -1.011355e+000
<VARIANCE> 25
 9.366660e+000 1.762688e+001 1.816175e+001 1.843110e+001 1.616504e+001 4.361173e+001 2.153592e+001 3.295813e+001 2.296626e+001 3.195930e+001 2.414858e+001 1.183569e+001 9.437431e-001 9.528725e-001 1.622702e+000 9.910545e-001 1.961395e+000 1.928661e+000 2.559549e+000 2.149310e+000 2.558412e+000 2.022454e+000 2.783705e+000 1.253461e+000 2.380968e+000
<GCONST> 8.940913e+001
<STATE> 4
<MEAN> 25
 3.355328e+000 -1.749717e+000 9.887747e+000 7.472968e+000 -7.372196e+000 -9.262340e+000 -8.820493e-001 2.143044e-002 -4.099380e+000 -2.781859e+000 1.727988e+000 4.873952e-001 -2.156557e-001 6.313599e-001 -1.072194e+000 -2.061637e-001 1.457883e+000 1.689120e+000 -7.401254e-001 1.886533e-001 8.799685e-001 1.079049e+000 -1.516824e+000 -2.398827e-001 -2.273415e+000
<VARIANCE> 25
 1.159161e+001 2.454514e+001 4.457480e+001 2.377826e+001 2.793090e+001 5.052178e+001 4.926001e+001 4.893618e+001 2.957200e+001 4.354707e+001 3.098772e+001 3.268799e+001 1.412936e+000 1.406585e+000 2.372521e+000 3.051035e+000 3.312107e+000 2.597046e+000 2.738451e+000 3.042136e+000 2.921260e+000 3.556907e+000 3.403100e+000 2.197113e+000 1.934722e+000
<GCONST> 9.963558e+001
<TRANSP> 5
 0.000000e+000 1.000000e+000 0.000000e+000 0.000000e+000 0.000000e+000
 0.000000e+000 8.182905e-001 1.817095e-001 0.000000e+000 0.000000e+000
 0.000000e+000 0.000000e+000 7.677193e-001 2.322807e-001 0.000000e+000
 0.000000e+000 0.000000e+000 0.000000e+000 6.696711e-001 3.303289e-001
 0.000000e+000 0.000000e+000 0.000000e+000 0.000000e+000 0.000000e+000
<ENDHMM>
~h "hh"
<BEGINHMM>
<NUMSTATES> 5
<STATE> 2
<MEAN> 25
 1.100447e+000 -1.901895e-001 -1.546296e-002 -2.059106e+000 -1.202098e+000 4.280845e+000 -1.006809e+000 1.253743e+000 -3.329296e+000 -2.572350e+000 5.755292e-001 9.134942e-001 1.161165e+000 -8.256416e-001 3.050542e-001 -1.736986e+000 -8.377655e-001 -1.180800e+000 9.898819e-001 5.624776e-001 2.224141e-001 -1.280449e+000 2.002490e+000 1.154906e+000 2.861604e+000
<VARIANCE> 25
 4.685095e+001 5.176195e+001 1.186520e+001 5.405151e+001 6.245478e+001 3.489011e+001 2.690837e+001 6.474255e+001 2.748803e+001 7.025755e+001 6.965788e+001 5.280453e+001 4.096450e+000 1.989976e+000 3.015923e+000 4.541452e+000 6.244686e+000 3.697164e+000 4.166410e+000 3.847680e+000 5.008041e+000 4.576751e+000 4.913120e+000 5.198238e+000 8.184117e+000
<GCONST> 1.102334e+002
<STATE> 3
<MEAN> 25
 5.162390e+000 -5.021190e+000 1.906596e+000 -5.332748e+000 -3.829103e+000 6.012956e-001 3.455498e+000 -5.605266e+000 -1.308745e-001 -2.276677e+000 3.686995e+000 5.294902e+000 -1.657075e-001 -1.185918e+000 1.515480e-001 5.547284e-001 1.207019e+000 -1.252184e+000 1.783414e-001 1.290513e+000 6.656665e-002 1.342429e-001 2.440602e-001 6.217511e-001 5.442091e-001
<VARIANCE> 25
 3.737321e+001 4.160832e+001 1.373645e+001 7.946754e+001 1.021608e+002 3.415422e+001 5.446237e+001 1.644806e+002 2.080976e+001 7.493338e+001 5.308140e+001 5.678136e+001 1.971888e+000 1.954561e+000 1.494418e+000 2.612698e+000 2.993910e+000 3.190192e+000 3.351613e+000 1.080616e+001 3.430637e+000 4.002543e+000 3.135265e+000 1.810111e+000 2.061360e+000
<GCONST> 1.065490e+002
<STATE> 4
<MEAN> 25
 -2.180859e+000 -1.036035e+001 7.846104e-001 -5.622036e-001 6.997116e+000 1.077473e+000 3.826659e+000 8.723535e+000 -2.984041e+000 -3.048078e+000 2.243784e+000 5.862778e-001 9.123495e-001 2.584413e-001 -4.446718e-001 -8.349256e-001 3.708419e-001 -1.328509e+000 1.311776e+000 -3.779822e-002 8.520743e-002 -9.387033e-002 5.477715e-001 -4.900554e-001 2.321657e+000
<VARIANCE> 25
 4.663647e+001 4.449025e+001 1.670803e+001 4.380114e+001 4.858076e+001 5.563620e+001 4.080767e+001 2.528074e+001 2.706978e+001 3.593558e+001 3.338782e+001 4.127563e+001 4.467391e+000 6.903904e+000 2.156527e+000 4.223063e+000 4.658786e+000 3.669776e+000 3.242574e+000 4.568542e+000 2.006378e+000 2.719629e+000 2.613486e+000 3.283069e+000 5.935689e+000
<GCONST> 1.059294e+002
<TRANSP> 5
 0.000000e+000 1.000000e+000 0.000000e+000 0.000000e+000 0.000000e+000
 0.000000e+000 4.988908e-001 5.011091e-001 0.000000e+000 0.000000e+000
 0.000000e+000 0.000000e+000 5.246213e-001 4.753786e-001 0.000000e+000
 0.000000e+000 0.000000e+000 0.000000e+000 7.503286e-001 2.496714e-001
 0.000000e+000 0.000000e+000 0.000000e+000 0.000000e+000 0.000000e+000
<ENDHMM>
~h "ih"
<BEGINHMM>
<NUMSTATES> 5
<STATE> 2
<MEAN> 25
 3.508043e+000 -3.677264e+000 5.361301e+000 1.780920e+000 -3.745907e-001 -1.136153e+001 -1.659803e+000 3.237363e+000 -2.435680e+000 -3.596561e+000 4.004225e+000 7.122346e-001 1.653986e+000 -1.548289e+000 2.282882e-001 9.088026e-001 -8.915000e-001 -3.581077e+000 -7.012848e-001 5.925246e-001 3.429127e-001 -1.143428e+000 1.593746e+000 -3.623761e-002 2.838006e+000
<VARIANCE> 25
 3.164602e+001 2.465675e+001 3.602288e+001 2.781989e+001 3.298108e+001 1.006446e+002 3.962715e+001 1.950783e+001 4.084964e+001 2.621809e+001 3.217175e+001 2.570904e+001 6.449937e+000 2.461825e+000 4.128529e+000 2.984632e+000 3.670357e+000 8.624295e+000 4.128920e+000 4.673813e+000 4.308455e+000 4.129315e+000 5.706285e+000 5.404005e+000 7.589282e+000
<GCONST> 1.079940e+002
<STATE> 3
<MEAN> 25
 5.957418e+000 -7.586189e+000 3.834522e+000 2.162369e+000 -2.221877e+000 -1.743266e+001 -1.235234e+000 4.728013e+000 3.724513e-002 -4.802349e+000 6.346575e+000 2.847553e-001 2.149786e-001 -2.882048e-001 -3.173256e-001 5.094944e-001 -4.769373e-001 -6.404130e-001 1.982740e-001 8.986029e-002 4.212809e-001 -1.111147e-001 2.240394e-001 -1.353410e-001 4.126619e-001
<VARIANCE> 25
 1.305082e+001 9.148646e+000 2.757860e+001 1.900703e+001 1.891899e+001 2.509484e+001 4.127256e+001 1.735785e+001 3.001959e+001 2.707037e+001 2.077679e+001 2.741678e+001 1.948005e+000 1.267519e+000 2.363101e+000 1.389057e+000 2.260983e+000 2.717053e+000 2.790058e+000 1.824854e+000 2.894511e+000 2.485137e+000 3.592455e+000 1.742128e+000 1.937673e+000
<GCONST> 9.277753e+001
<STATE> 4
<MEAN> 25
 5.086652e+000 -5.595235e+000 3.437997e+000 4.649677e+000 5.185231e-002 -1.399845e+001 -1.537972e+000 3.600710e+000 -1.350252e+000 -3.707113e+000 2.624600e+000 7.540684e-001 -3.273951e-001 7.436804e-001 -4.753379e-001 3.996758e-001 9.488959e-001 1.412449e+000 -4.240633e-001 -2.662910e-001 1.311456e-001 5.327224e-001 -1.142243e+000 3.058961e-002 -1.930098e+000
<VARIANCE> 25
 1.941080e+001 1.456599e+001 3.563571e+001 1.778575e+001 2.727957e+001 3.035971e+001 3.533862e+001 2.651713e+001 2.486512e+001 3.525591e+001 4.065811e+001 2.323756e+001 2.770357e+000 1.397711e+000 2.018505e+000 1.945229e+000 2.137544e+000 2.425954e+000 1.474728e+000 1.743619e+000 1.947502e+000 2.390328e+000 2.878861e+000 2.438679e+000 2.054182e+000
<GCONST> 9.475085e+001
<TRANSP> 5
 0.000000e+000 1.000000e+000 0.000000e+000 0.000000e+000 0.000000e+000
 0.000000e+000 3.651132e-001 6.348869e-001 0.000000e+000 0.000000e+000
 0.000000e+000 0.000000e+000 5.753283e-001 4.246717e-001 0.000000e+000
 0.000000e+000 0.000000e+000 0.000000e+000 7.119936e-001 2.880064e-001
 0.000000e+000 0.000000e+000 0.000000e+000 0.000000e+000 0.000000e+000
<ENDHMM>
~h "iy"
<BEGINHMM>
<NUMSTATES> 5
<STATE> 2
<MEAN> 25
 1.358602e-001 -2.572119e+000 1.053556e+001 3.889979e+000 -3.382631e+000 -1.206715e+001 -4.177774e-001 2.359251e+000 -4.793856e+000 -7.890576e+000 5.593323e+000 2.110216e+000 1.353029e+000 -2.443852e-001 2.259095e+000 1.852886e+000 -2.583541e+000 -1.582493e+000 2.486120e-001 -9.589223e-001 -2.095140e+000 -1.132506e+000 9.498250e-001 -3.030926e-001 1.859969e+000
<VARIANCE> 25
 4.339034e+001 2.168209e+001 5.180698e+001 4.314714e+001 4.218738e+001 4.604577e+001 5.339535e+001 3.990364e+001 4.780566e+001 3.201104e+001 3.771131e+001 2.244520e+001 6.914394e+000 4.603672e+000 5.445915e+000 5.657123e+000 2.049398e+000 6.717843e+000 4.041851e+000 3.192088e+000 3.947375e+000 4.740266e+000 3.279390e+000 2.899857e+000 3.066353e+000
<GCONST> 1.081859e+002
<STATE> 3
<MEAN> 25
 2.067408e+000 -2.403309e+000 1.643264e+001 6.085248e+000 -1.028788e+001 -1.150816e+001 2.605611e+000 -3.683614e+000 -9.529113e+000 -8.004894e+000 7.902905e+000 -1.002786e+000 1.003866e-002 1.647533e-001 2.861034e-001 -1.109832e-001 -4.989207e-001 3.471640e-001 3.431190e-001 -4.743217e-001 -1.820646e-001 3.500171e-001 1.546063e-001 -1.811055e-001 -1.598560e-001
<VARIANCE> 25
 7.421177e+000 1.155967e+001 2.986712e+001 1.958542e+001 2.467523e+001 2.795723e+001 4.325406e+001 3.603643e+001 3.122765e+001 3.137964e+001 2.513224e+001 2.045843e+001 9.295805e-001 1.005438e+000 1.721881e+000 1.135019e+000 1.524323e+000 2.487324e+000 1.371882e+000 2.246029e+000 2.485895e+000 2.243379e+000 1.658205e+000 1.415474e+000 8.382618e-001
<GCONST> 8.924440e+001
<STATE> 4
<MEAN> 25
 2.534636e+000 -2.115916e+000 1.142118e+001 5.841357e+000 -4.198563e+000 -1.114476e+001 3.211859e-001 -1.249124e+000 -5.152388e+000 -5.098803e+000 3.228923e+000 1.762927e-001 -2.961982e-001 -1.192538e-001 -1.673797e+000 -3.479389e-001 1.989533e+000 7.720208e-001 -8.485460e-001 3.209336e-001 1.057098e+000 8.580600e-001 -1.226841e+000 -8.317007e-002 -9.653685e-001
<VARIANCE> 25
 2.535556e+001 1.495675e+001 3.967355e+001 2.596412e+001 6.265167e+001 3.573991e+001 3.659635e+001 3.285794e+001 3.316688e+001 3.343996e+001 2.330195e+001 1.705609e+001 3.652242e+000 1.231204e+000 1.015715e+000 2.559103e+000 2.983056e+000 3.529529e+000 3.007194e+000 2.960610e+000 3.655374e+000 3.248441e+000 2.396437e+000 2.202124e+000 1.469366e+000
<GCONST> 9.814655e+001
<TRANSP> 5
 0.000000e+000 1.000000e+000 0.000000e+000 0.000000e+000 0.000000e+000
 0.000000e+000 5.866026e-001 4.133974e-001 0.000000e+000 0.000000e+000
 0.000000e+000 0.000000e+000 7.698363e-001 2.301637e-001 0.000000e+000
 0.000000e+000 0.000000e+000 0.000000e+000 7.553849e-001 2.446151e-001
 0.000000e+000 0.000000e+000 0.000000e+000 0.000000e+000 0.000000e+000
<ENDHMM>
~h "jh"
<BEGINHMM>
<NUMSTATES> 5
<STATE> 2
<MEAN> 25
 -7.616606e+000 -4.588432e+000 5.083821e+000 -2.984769e+000 5.394209e+000 -5.911892e+000 -2.226596e+000 1.236354e+000 4.730973e+000 -1.334732e+000 1.590063e+000 5.203914e+000 -1.662422e+000 -3.210087e-002 8.563820e-001 -7.546074e-001 4.187558e-001 1.454481e+000 4.999578e-001 2.170594e-001 1.075954e-001 2.798274e-001 1.181612e-001 5.232609e-002 -3.776069e-001
<VARIANCE> 25
 4.720452e+001 6.652749e+001 2.227119e+001 3.583229e+001 1.580992e+001 3.184347e+001 5.512074e+001 8.437281e+000 1.935412e+001 5.951308e+001 1.036722e+001 2.937972e+001 5.869884e+000 4.514780e+000 3.358356e+000 5.085350e+000 1.996673e+000 7.050766e+000 3.773933e+000 1.100700e+000 3.553446e+000 5.739317e+000 1.765226e+000 2.840058e+000 6.335665e+000
<GCONST> 1.024701e+002
<STATE> 3
<MEAN> 25
 -5.886771e+000 -2.287673e+000 8.277590e+000 -6.900600e+000 1.724465e+000 -5.458477e+000 -6.427661e+000 -1.124744e+000 -1.130976e+000 -2.147259e+000 2.670122e+000 3.193779e+000 3.527939e+000 -2.440557e+000 -1.171200e+000 1.649671e+000 -1.729736e+000 -3.707966e+000 -1.441828e+000 -5.952886e-001 -9.897166e-001 -1.118494e+000 4.070260e-001 -1.614604e-001 1.296238e+000
<VARIANCE> 25
 5.616943e+001 2.380679e+001 1.276932e+001 3.151184e+001 1.253306e+001 9.937262e+001 3.533453e+001 1.046119e+001 1.341112e+001 8.219713e+000 1.496545e+001 1.410134e+001 4.320103e+000 4.891350e+000 5.735637e-001 8.136972e-001 1.155795e+000 9.419040e+000 3.244881e+000 7.952092e-001 5.276119e+000 6.653196e-001 2.062516e+000 7.395936e-001 4.953678e+000
<GCONST> 9.113934e+001
<STATE> 4
<MEAN> 25
 2.197538e+000 -5.365500e+000 4.736709e+000 -3.176140e-001 -1.791125e-001 -1.060488e+001 -4.418252e+000 4.476300e+000 4.725415e+000 -4.898077e+000 -1.462916e-001 2.026448e+000 2.265864e-001 8.012564e-002 -2.588238e-002 2.947356e-001 -8.083404e-002 -3.463842e-001 -7.234561e-003 -3.191459e-002 -5.057336e-002 -2.227510e-002 -7.765838e-002 3.392895e-001 1.429194e-001
<VARIANCE> 25
 6.689720e+001 1.245683e+002 1.499227e+001 2.182336e+001 5.598777e+001 4.521084e+001 1.686397e+001 2.557915e+001 2.222418e+001 9.773530e+000 2.992541e+001 3.883084e+001 7.010749e+000 1.017824e+001 2.340714e+000 2.728179e+000 5.582597e+000 2.229738e+000 2.747116e+000 2.998165e+000 1.886809e+000 9.338984e-001 3.445632e+000 3.123288e+000 2.174034e+000
<GCONST> 1.015786e+002
<TRANSP> 5
 0.000000e+000 1.000000e+000 0.000000e+000 0.000000e+000 0.000000e+000
 0.000000e+000 8.503638e-001 1.496363e-001 0.000000e+000 0.000000e+000
 0.000000e+000 0.000000e+000 5.996825e-001 4.003175e-001 0.000000e+000
 0.000000e+000 0.000000e+000 0.000000e+000 8.489577e-001 1.510423e-001
 0.000000e+000 0.000000e+000 0.000000e+000 0.000000e+000 0.000000e+000
<ENDHMM>
~h "ng"
<BEGINHMM>
<NUMSTATES> 5
<STATE> 2
<MEAN> 25
 1.473339e+001 -6.308189e+000 1.114493e+000 8.510631e+000 -4.194536e-001 -8.987411e+000 2.338730e+000 6.253851e+000 7.834555e-001 -1.887143e-001 -4.545222e+000 1.772954e+000 -5.851408e-001 3.299575e-001 9.806446e-001 3.648485e-001 -3.391816e-002 9.164675e-001 -1.144299e+000 4.153595e-001 2.328316e-001 1.090027e+000 -4.380549e-001 -1.878448e-001 -1.196105e+000
<VARIANCE> 25
 1.816281e+001 9.234522e+000 1.354796e+001 1.857263e+001 1.812825e+001 2.621494e+001 4.152615e+001 2.519346e+001 1.587582e+001 3.041548e+001 1.596223e+001 2.016184e+001 1.157614e+000 1.014693e+000 9.760236e-001 1.540372e+000 1.286549e+000 1.277614e+000 1.645533e+000 4.152181e+000 1.878300e+000 2.032858e+000 2.136077e+000 1.904373e+000 9.937232e-001
<GCONST> 8.739165e+001
<STATE> 3
<MEAN> 25
 7.262115e+000 -2.229946e+000 5.513135e+000 8.528931e+000 1.955833e+000 -6.410529e-001 -4.456861e+000 1.685077e+000 2.349370e+000 5.012143e+000 -4.681713e+000 -4.795790e-001 -1.474672e+000 1.654026e+000 -3.150246e-001 -5.508198e-001 4.787550e-001 2.590042e+000 -7.751526e-001 -6.062245e-001 1.028539e-001 4.550807e-001 2.145801e-001 -5.493274e-001 -2.343172e+000
<VARIANCE> 25
 2.009926e+001 2.386684e+001 2.671861e+001 2.364050e+001 1.575943e+001 4.791073e+001 3.379273e+001 2.174716e+001 3.149542e+001 6.838745e+001 5.374290e+001 4.814482e+001 4.174466e-001 2.838848e+000 1.482553e+000 1.182565e+000 1.503972e+000 1.556843e+000 2.331582e+000 5.126341e+000 1.809076e+000 3.011361e+000 2.691174e+000 3.213355e+000 2.695106e+000
<GCONST> 9.623528e+001
<STATE> 4
<MEAN> 25
 5.479869e-001 7.526143e-001 -1.287391e+000 4.300931e+000 2.450279e+000 7.189868e+000 -4.916559e+000 2.555462e+000 3.068225e+000 7.134251e+000 -5.328564e+000 -1.742865e+000 -1.000907e+000 2.189312e-001 -8.539834e-001 -5.334370e-001 -1.524701e-001 4.913327e-001 -3.349383e-001 -5.293214e-001 -1.483919e-001 -5.820435e-001 -2.457316e-001 2.518792e-001 -1.114738e+000
<VARIANCE> 25
 2.527282e+001 4.989579e+001 2.722873e+001 2.015476e+001 1.947663e+001 4.036674e+001 2.167326e+001 1.735662e+001 2.312686e+001 3.961002e+001 2.822866e+001 2.168443e+001 8.456527e-001 7.440735e+000 1.386042e+000 9.595944e-001 2.118327e+000 3.402888e+000 3.076934e+000 3.057841e+000 1.991533e+000 2.192171e+000 2.901554e+000 3.105762e+000 3.874511e+000
<GCONST> 9.659673e+001
<TRANSP> 5
 0.000000e+000 1.000000e+000 0.000000e+000 0.000000e+000 0.000000e+000
 0.000000e+000 8.353062e-001 1.646938e-001 0.000000e+000 0.000000e+000
 0.000000e+000 0.000000e+000 6.236982e-001 3.763018e-001 0.000000e+000
 0.000000e+000 0.000000e+000 0.000000e+000 6.594073e-001 3.405927e-001
 0.000000e+000 0.000000e+000 0.000000e+000 0.000000e+000 0.000000e+000
<ENDHMM>
~h "ow"
<BEGINHMM>
<NUMSTATES> 5
<STATE> 2
<MEAN> 25
 4.801021e+000 -9.281444e-001 -4.634189e+000 -5.113698e+000 -2.496391e+000 2.521533e+000 3.304041e+000 -3.996816e+000 5.403010e-002 -1.747458e+000 7.276908e+000 1.727191e+000 2.282724e-001 1.817273e-002 -2.687842e-001 -8.457077e-001 -7.880013e-001 1.312396e-001 4.156873e-001 -5.208840e-001 -7.438135e-002 -7.093489e-001 7.230313e-001 2.850868e-001 4.717782e-001
<VARIANCE> 25
 6.481167e+001 2.960878e+001 1.813288e+001 6.083916e+001 2.380289e+001 6.742120e+001 7.547312e+001 2.775358e+001 2.353097e+001 5.772707e+001 1.231577e+002 1.418108e+001 8.247126e-001 5.581434e-001 4.561551e-001 1.352631e+000 1.932270e+000 1.717344e+000 1.214872e+000 1.398970e+000 2.095130e+000 1.444933e+000 2.070192e+000 8.876905e-001 2.162361e+000
<GCONST> 9.317828e+001
<STATE> 3
<MEAN> 25
 1.019193e+001 3.035904e+000 -6.742044e+000 -1.428535e+001 -1.071517e+001 4.479799e+000 1.005024e+001 -7.031809e+000 9.748142e-001 -1.165816e+001 9.211233e+000 1.601389e+000 4.100499e-002 7.156227e-001 2.789858e-001 -1.521793e-001 -2.691391e-001 2.210343e-001 -2.830490e-001 -1.814892e-002 7.678753e-003 -4.441358e-001 -8.649358e-001 -1.795021e-001 -3.901283e-001
<VARIANCE> 25
 7.919425e+000 3.212309e+001 1.014636e+001 2.363716e+001 2.723051e+001 3.018069e+001 3.063471e+001 3.973903e+001 2.359723e+001 2.676142e+001 5.180100e+001 1.640889e+001 3.153566e-001 9.197462e-001 3.535928e-001 9.067698e-001 1.361116e+000 8.364026e-001 1.345943e+000 1.351066e+000 1.330893e+000 2.242179e+000 1.889508e+000 1.002644e+000 6.658508e-001
<GCONST> 8.365311e+001
<STATE> 4
<MEAN> 25
 8.292601e+000 2.549026e+000 -4.109054e+000 -7.321523e+000 -4.374903e+000 4.873558e+000 3.434584e+000 -6.007562e+000 -9.939170e-001 -4.802556e+000 3.456641e+000 1.143209e-001 -3.930852e-001 -6.426086e-001 6.291338e-001 1.941506e+000 9.579238e-001 -3.325299e-001 -1.117772e+000 2.714339e-001 9.968156e-002 1.276483e+000 -6.907541e-001 -5.892813e-001 -9.664640e-001
<VARIANCE> 25
 1.984228e+001 4.095304e+001 3.436935e+001 6.990295e+001 4.437528e+001 5.179998e+001 5.864690e+001 6.437767e+001 4.166193e+001 5.505454e+001 9.374146e+001 2.936277e+001 1.118338e+000 3.418226e+000 2.261054e+000 3.906965e+000 2.542384e+000 5.743392e+000 4.070309e+000 4.210078e+000 2.733121e+000 3.714653e+000 8.699649e+000 2.494784e+000 6.340428e+000
<GCONST> 1.083501e+002
<TRANSP> 5
 0.000000e+000 1.000000e+000 0.000000e+000 0.000000e+000 0.000000e+000
 0.000000e+000 5.596852e-001 4.403149e-001 0.000000e+000 0.000000e+000
 0.000000e+000 0.000000e+000 8.413122e-001 1.586878e-001 0.000000e+000
 0.000000e+000 0.000000e+000 0.000000e+000 8.088595e-001 1.911405e-001
 0.000000e+000 0.000000e+000 0.000000e+000 0.000000e+000 0.000000e+000
<ENDHMM>
~h "oy"
<BEGINHMM>
<NUMSTATES> 5
<STATE> 2
<MEAN> 25
 9.754964e+000 -5.118007e+000 -8.964200e+000 -1.218301e+001 -3.791419e+000 2.931446e+000 9.389171e+000 1.886884e+000 -3.098932e+000 -1.143771e+001 1.443533e+001 2.952050e+000 2.189354e+000 4.959270e-002 -4.385135e-001 4.304083e-001 -8.660926e-001 -1.304244e+000 3.358421e+000 -1.031544e+000 2.963855e-001 -1.598640e+000 9.106584e-001 -1.003868e+000 2.500211e+000
<VARIANCE> 25
 3.630315e+001 1.156023e+001 1.909414e+001 2.455350e+001 1.836748e+001 2.883193e+001 7.553382e+001 3.467026e+001 1.187540e+001 4.862951e+001 5.622665e+001 2.625123e+001 5.806203e+000 2.686150e+000 4.928588e+000 5.520125e+000 3.180710e+000 1.946291e+000 5.320974e+000 5.569452e+000 3.171705e+000 3.092593e+000 1.765874e+001 2.301866e+000 4.046773e+000
<GCONST> 1.045836e+002
<STATE> 3
<MEAN> 25
 1.290703e+001 -8.136686e+000 -7.856131e+000 -7.573380e+000 6.067510e-001 -8.312802e+000 7.195447e+000 -2.429323e+000 -1.221550e-001 -1.185240e+001 1.643427e+001 1.472364e+000 -2.753106e-001 -6.549184e-001 2.862538e-001 7.871012e-001 6.297123e-001 -1.889391e+000 -1.861705e+000 2.998100e-001 6.305327e-001 6.597424e-001 -4.605535e-001 -4.193354e-001 1.348922e-001
<VARIANCE> 25
 4.129056e+000 9.680597e+000 6.293295e+000 2.465336e+001 4.530347e+001 3.902810e+001 6.129658e+001 1.845271e+001 1.590633e+001 2.441475e+001 4.268076e+001 1.249359e+001 4.172076e-001 4.983811e-001 1.039899e+000 1.376855e+000 4.011491e+000 2.044745e+000 1.871089e+000 1.083718e+000 1.421933e+000 1.033579e+000 3.543175e+000 1.385377e+000 9.052839e-001
<GCONST> 8.490522e+001
<STATE> 4
<MEAN> 25
 1.117610e+001 -9.405144e+000 -8.151164e-002 3.485029e+000 -1.035573e+000 -2.198917e+001 -1.345176e+000 2.697066e-001 3.018285e-001 -9.264606e+000 6.249284e+000 -5.373581e-001 -1.190668e+000 1.354450e+000 1.493656e+000 1.036837e+000 3.621925e-002 4.321908e-001 1.419697e+000 -1.203028e-001 -1.954183e+000 8.399580e-001 -9.940512e-001 9.851578e-001 -9.822883e-001
<VARIANCE> 25
 1.100062e+001 1.776887e+001 2.866554e+001 3.097730e+001 7.384351e+000 9.297880e+000 3.932275e+001 9.824746e+000 1.404948e+001 7.724822e+000 2.885841e+001 1.218511e+001 1.908063e+000 1.778813e+000 6.952171e-001 1.374790e+000 4.224748e+000 1.214578e+000 1.911703e+000 1.414588e+000 7.955162e-001 2.706860e+000 1.759776e+000 3.596513e-001 1.106860e-001
<GCONST> 8.066230e+001
<TRANSP> 5
 0.000000e+000 1.000000e+000 0.000000e+000 0.000000e+000 0.000000e+000
 0.000000e+000 7.575777e-001 2.424224e-001 0.000000e+000 0.000000e+000
 0.000000e+000 0.000000e+000 8.897204e-001 1.102795e-001 0.000000e+000
 0.000000e+000 0.000000e+000 0.000000e+000 7.455417e-001 2.544583e-001
 0.000000e+000 0.000000e+000 0.000000e+000 0.000000e+000 0.000000e+000
<ENDHMM>
~h "sh"
<BEGINHMM>
<NUMSTATES> 5
<STATE> 2
<MEAN> 25
 -6.727117e+000 5.816947e-001 1.502107e+001 1.781292e+000 -1.613872e+000 -5.170115e+000 1.907164e+000 2.561299e+000 -1.591849e+000 -3.803097e+000 2.838989e+000 -1.077883e+000 -4.559618e+000 5.502964e-001 1.440693e+000 -1.292562e+000 1.194932e+000 2.486816e+000 -3.871533e-001 9.918873e-001 1.548740e+000 4.762169e-001 1.116302e-001 7.210259e-001 3.531722e-001
<VARIANCE> 25
 4.852312e+001 1.950975e+001 3.217216e+001 3.563328e+001 4.740345e+001 2.388403e+001 3.075745e+001 3.411873e+001 4.184858e+001 2.377078e+001 1.305231e+001 1.379363e+001 3.062393e+000 1.140522e+000 2.358226e+000 1.370856e+000 3.371092e+000 3.039428e+000 2.517738e+000 2.948435e+000 1.709387e+000 1.369789e+000 3.894833e+000 8.373962e-001 1.174466e+000
<GCONST> 9.487720e+001
<STATE> 3
<MEAN> 25
 -2.074805e+001 -2.053108e+000 1.695785e+001 2.448255e-001 -2.239886e+000 -1.900971e+000 3.321395e+000 4.132749e+000 4.271209e+000 -1.975286e+000 6.075523e+000 2.466489e+000 -4.715278e-001 -5.923972e-001 -3.401851e-001 7.260084e-002 -4.441158e-001 -1.521293e-001 4.350273e-001 8.538385e-002 4.499420e-001 3.847583e-001 1.488719e-001 3.963664e-001 -2.496418e-001
<VARIANCE> 25
 8.771037e+000 1.448171e+001 1.507584e+001 2.763709e+001 4.131847e+001 3.250009e+001 3.775910e+001 2.172221e+001 2.372930e+001 2.602801e+001 2.199335e+001 1.632242e+001 3.559065e+000 6.342134e-001 1.307121e+000 2.087611e+000 1.678718e+000 2.280352e+000 1.985403e+000 2.651762e+000 2.076410e+000 2.859884e+000 2.159338e+000 1.259495e+000 7.330405e-001
<GCONST> 9.033756e+001
<STATE> 4
<MEAN> 25
 -8.370584e+000 -4.776988e+000 9.597244e+000 9.545585e-001 -2.667858e+000 -6.045092e+000 3.263959e+000 4.525812e+000 3.333819e+000 -1.298679e+000 5.919735e-001 1.158161e+000 4.993014e+000 -6.191798e-001 -2.539297e+000 5.809671e-002 1.909703e-001 -2.015070e+000 -6.315445e-001 -8.503409e-001 -9.187991e-001 -1.607392e-001 -1.772141e+000 -1.010492e+000 -4.505612e-002
<VARIANCE> 25
 9.248508e+001 1.067717e+001 2.383474e+001 2.756170e+001 2.025890e+001 5.614368e+001 3.719500e+001 2.406122e+001 2.511544e+001 2.121173e+001 4.693967e+001 1.580553e+001 4.472711e+000 1.380827e+000 1.679876e+000 1.947594e+000 1.421420e+000 3.994202e+000 4.393937e+000 2.825204e+000 2.265842e+000 4.747721e+000 2.354342e+000 2.122452e+000 3.216139e+000
<GCONST> 9.846412e+001
<TRANSP> 5
 0.000000e+000 1.000000e+000 0.000000e+000 0.000000e+000 0.000000e+000
 0.000000e+000 6.704304e-001 3.295696e-001 0.000000e+000 0.000000e+000
 0.000000e+000 0.000000e+000 8.465598e-001 1.534403e-001 0.000000e+000
 0.000000e+000 0.000000e+000 0.000000e+000 7.455448e-001 2.544552e-001
 0.000000e+000 0.000000e+000 0.000000e+000 0.000000e+000 0.000000e+000
<ENDHMM>
~h "sp"
<BEGINHMM>
<NUMSTATES> 3
<STATE> 2
~s "silst"
<TRANSP> 3
 0.000000e+000 6.240481e-002 9.375952e-001
 0.000000e+000 7.724746e-001 2.275254e-001
 0.000000e+000 0.000000e+000 0.000000e+000
<ENDHMM>
~h "th"
<BEGINHMM>
<NUMSTATES> 5
<STATE> 2
<MEAN> 25
 -4.718979e+000 3.009929e+000 8.797189e-001 -1.482807e+000 8.051293e+000 -1.873743e+000 1.044760e+000 -9.607573e-001 3.360794e-001 3.202176e-001 3.411484e+000 -1.700101e+000 -3.283817e+000 -2.483152e-002 7.396410e-001 -5.921574e-001 7.451530e-001 3.744812e-001 -3.231941e-001 1.581391e+000 6.015432e-001 5.624002e-001 -2.559660e-002 4.808854e-001 -1.132092e-001
<VARIANCE> 25
 6.553368e+001 2.323701e+001 3.436864e+001 2.147379e+001 2.339691e+001 1.851350e+001 5.433517e+001 4.712325e+001 3.686030e+001 1.307998e+001 1.962330e+001 3.096104e+001 2.896721e+000 3.110002e+000 2.876316e+000 1.270780e+000 2.388827e+000 3.469906e+000 5.803668e+000 2.353549e+000 4.107670e+000 1.351969e+000 2.631131e+000 1.568432e+000 1.142146e+000
<GCONST> 9.787443e+001
<STATE> 3
<MEAN> 25
 -9.273664e+000 -2.587073e-001 -2.028283e+000 -4.205404e+000 6.357820e+000 2.431349e+000 5.103150e+000 2.278131e+000 2.115940e+000 4.164829e+000 4.632345e+000 3.441211e+000 -7.361859e-001 -1.254951e-001 -2.910904e-001 -2.483133e-004 3.995278e-001 6.163698e-002 -3.305854e-001 1.771528e-001 2.427293e-001 2.247922e-001 1.201403e-001 -8.139955e-002 -3.192323e-001
<VARIANCE> 25
 7.943853e+001 2.648817e+001 1.258947e+001 5.557686e+001 2.478191e+001 5.047908e+001 3.496613e+001 4.214535e+001 5.140030e+001 3.676141e+001 2.008059e+001 2.839133e+001 3.890748e+000 1.654668e+000 1.166735e+000 1.919670e+000 2.091933e+000 2.248167e+000 1.656080e+000 2.694487e+000 4.472353e+000 2.689562e+000 2.901110e+000 2.949601e+000 6.659122e-001
<GCONST> 9.840623e+001
<STATE> 4
<MEAN> 25
 -8.268484e+000 2.754539e-001 7.837387e-001 -2.122066e+000 9.143046e+000 -4.266294e+000 -1.074422e-001 1.615307e+000 3.351178e+000 1.836883e+000 4.908652e+000 -1.677629e+000 1.736854e+000 -3.185486e-001 -1.604931e-001 2.503202e-001 -1.297497e-001 -9.092236e-001 -2.044113e-001 -3.238080e-001 -6.556072e-001 -6.126598e-001 -1.530786e-001 -1.827725e-001 2.675855e-001
<VARIANCE> 25
 5.546192e+001 1.856890e+001 1.897458e+001 8.950887e+000 2.483719e+001 3.919815e+001 2.302853e+001 1.946103e+001 2.601952e+001 2.403809e+001 2.511017e+001 1.295823e+001 6.206938e+000 3.026656e+000 1.745671e+000 1.350859e+000 3.220211e+000 3.819562e+000 2.099497e+000 2.220066e+000 1.945407e+000 3.917642e+000 1.808842e+000 1.826992e+000 1.172218e+000
<GCONST> 9.445361e+001
<TRANSP> 5
 0.000000e+000 1.000000e+000 0.000000e+000 0.000000e+000 0.000000e+000
 0.000000e+000 7.052178e-001 2.947822e-001 0.000000e+000 0.000000e+000
 0.000000e+000 0.000000e+000 8.102529e-001 1.897471e-001 0.000000e+000
 0.000000e+000 0.000000e+000 0.000000e+000 8.049070e-001 1.950930e-001
 0.000000e+000 0.000000e+000 0.000000e+000 0.000000e+000 0.000000e+000
<ENDHMM>
~h "uh"
<BEGINHMM>
<NUMSTATES> 5
<STATE> 2
<MEAN> 25
 7.775093e+000 -3.370609e+000 -1.656704e+000 -9.502048e+000 -1.589941e+000 2.494470e-001 4.502471e+000 -7.483703e+000 2.022549e+000 -8.981952e+000 1.572562e+001 5.206409e+000 4.641253e-001 6.009207e-001 -8.819199e-001 -1.685992e+000 -6.197425e-001 5.358045e-001 1.696319e+000 -1.790700e+000 1.248274e+000 5.521729e-002 4.565300e-001 -3.507940e-001 2.187031e+000
<VARIANCE> 25
 1.040854e+001 1.730884e+001 1.102798e+001 1.729298e+001 1.768559e+001 5.621795e+001 4.363894e+001 3.448598e+001 1.311293e+001 5.331668e+001 1.179946e+001 4.737196e+001 1.581822e+000 1.258491e+000 2.893151e+000 2.342350e+000 5.274330e+000 2.679270e+000 4.138030e+000 5.585755e+000 3.232187e+000 6.407304e+000 2.915952e+000 4.791384e-001 2.277655e+000
<GCONST> 9.606493e+001
<STATE> 3
<MEAN> 25
