~o
<STREAMINFO> 1 25
<VECSIZE> 25<NULLD><MFCC_D_N_Z_0><DIAGC>
~s "silst"
<MEAN> 25
 -5.140546e+000 -5.057142e-001 -3.515143e+000 2.256165e+000 2.805634e+000 3.213053e+000 3.226289e+000 1.984888e+000 4.811368e+000 3.323757e+000 2.002465e+000 4.011561e+000 -1.148516e-001 1.486097e-001 -8.519252e-002 1.003840e-001 -6.348304e-002 1.090278e-001 -1.060281e-001 1.107850e-001 -1.062522e-001 1.486331e-002 -9.002161e-004 -5.004503e-002 9.876823e-002
<VARIANCE> 25
 1.122404e+001 9.729271e+000 1.254661e+001 1.419159e+001 1.092146e+001 1.625440e+001 1.639087e+001 1.524749e+001 1.867218e+001 1.579344e+001 1.690052e+001 1.493547e+001 1.098253e+000 1.083460e+000 9.581059e-001 1.318829e+000 1.417817e+000 1.525704e+000 1.714348e+000 1.720801e+000 1.820193e+000 1.622238e+000 1.385893e+000 1.451394e+000 4.299271e-001
<GCONST> 8.093887e+001
~h "b"
<BEGINHMM>
<NUMSTATES> 5
<STATE> 2
<MEAN> 25
 2.801934e+000 5.448018e+000 4.111423e+000 6.505215e+000 5.304086e+000 1.424903e+000 -3.789632e-003 -3.080604e+000 -1.356687e+000 -3.719900e+000 -3.344882e+000 -1.746609e+000 3.762399e-001 6.064395e-001 5.575122e-001 4.088342e-001 3.329753e-001 -7.916681e-002 -4.358728e-001 -3.448594e-001 -4.970306e-001 -6.596490e-001 -3.669261e-001 -2.566839e-001 3.618308e-001
<VARIANCE> 25
 1.886552e+001 2.125492e+001 2.178528e+001 1.256696e+001 1.160086e+001 1.566165e+001 1.845646e+001 2.120953e+001 2.937155e+001 2.187270e+001 1.821054e+001 1.555065e+001 2.055731e+000 2.726702e+000 1.873386e+000 1.603158e+000 1.451140e+000 1.634975e+000 2.329505e+000 3.427194e+000 3.114140e+000 2.690605e+000 2.231688e+000 1.788457e+000 2.327675e+000
<GCONST> 9.095621e+001
<STATE> 3
<MEAN> 25
 2.947609e+000 4.607144e+000 3.483581e+000 4.766044e+000 4.934623e+000 1.521093e+000 -3.034559e-001 -2.464792e+000 -1.107280e+000 -2.756557e+000 -2.116039e+000 -2.464148e+000 7.239868e-001 -7.736569e-001 -5.885422e-001 -1.741835e+000 -1.612269e+000 -3.341139e-001 -8.082474e-001 5.478185e-001 1.628422e-001 9.601660e-001 6.629044e-001 -5.267895e-002 2.493833e+000
<VARIANCE> 25
 1.951803e+001 1.903001e+001 2.387833e+001 4.724015e+001 2.470198e+001 2.461551e+001 3.069643e+001 2.034809e+001 2.187090e+001 2.340154e+001 2.111008e+001 3.357766e+001 3.062036e+000 2.829504e+000 2.895151e+000 6.598534e+000 4.871738e+000 5.007469e+000 3.202661e+000 4.194375e+000 4.089965e+000 3.358867e+000 3.335288e+000 5.511556e+000 6.371142e+000
<GCONST> 1.028260e+002
<STATE> 4
<MEAN> 25
 7.762866e+000 6.145416e-001 2.269577e+000 -5.138968e+000 -5.526160e+000 -1.832490e+000 -7.632179e+000 -3.426528e-002 -5.434686e+000 -8.238769e-001 -9.777938e-001 -3.794356e+000 7.952533e-001 -1.049161e+000 -1.981088e-001 -1.761047e+000 -1.607640e+000 -1.654550e-002 -1.135656e+000 5.270581e-001 -7.044398e-001 4.808632e-001 1.685563e-001 -4.654959e-001 1.929229e+000
<VARIANCE> 25
 3.663104e+001 3.834239e+001 5.772555e+001 5.555854e+001 7.432942e+001 1.029518e+002 5.168079e+001 3.463289e+001 4.246938e+001 3.378724e+001 4.476462e+001 3.765590e+001 1.957139e+000 3.336791e+000 4.420441e+000 8.536174e+000 8.877391e+000 7.216682e+000 3.423699e+000 4.750518e+000 6.314770e+000 3.950755e+000 4.076745e+000 2.782683e+000 6.143565e+000
<GCONST> 1.123158e+002
<TRANSP> 5
 0.000000e+000 1.000000e+000 0.000000e+000 0.000000e+000 0.000000e+000
 0.000000e+000 7.736250e-001 2.263750e-001 0.000000e+000 0.000000e+000
 0.000000e+000 0.000000e+000 6.823877e-001 3.176123e-001 0.000000e+000
 0.000000e+000 0.000000e+000 0.000000e+000 6.267613e-001 3.732388e-001
 0.000000e+000 0.000000e+000 0.000000e+000 0.000000e+000 0.000000e+000
<ENDHMM>
~h "d"
<BEGINHMM>
<NUMSTATES> 5
<STATE> 2
<MEAN> 25
 4.101608e-001 5.251035e+000 5.961602e+000 5.923940e+000 4.011827e+000 -3.549906e+000 6.811931e-002 -2.209395e+000 -2.717601e+000 -3.248440e+000 -3.897096e+000 -1.034342e+000 2.325780e-001 4.526592e-001 2.890003e-001 5.321704e-001 1.709165e-001 -1.955103e-001 -8.972628e-002 -3.029921e-001 -2.929040e-001 -3.893431e-001 -3.156506e-001 7.018644e-002 3.547709e-001
<VARIANCE> 25
 2.767002e+001 2.976738e+001 2.892315e+001 3.302074e+001 4.629819e+001 4.185544e+001 2.664607e+001 3.284950e+001 2.517167e+001 2.972256e+001 2.061770e+001 1.528690e+001 2.767591e+000 2.136672e+000 3.120448e+000 3.486060e+000 3.882066e+000 3.830555e+000 3.071397e+000 3.325795e+000 3.226952e+000 2.779555e+000 3.060452e+000 1.556880e+000 3.702808e+000
<GCONST> 1.004885e+002
<STATE> 3
<MEAN> 25
 4.667963e-001 1.795506e+000 5.230022e+000 2.765054e+000 -2.911654e-001 -4.113392e+000 -1.692616e-001 -8.497813e-001 -2.540978e+000 -1.271184e+000 -1.737827e+000 -3.953936e-001 3.942200e-001 -8.556563e-001 -4.020771e-001 -1.119961e+000 -1.642539e+000 -1.109157e+000 -4.900695e-001 7.489464e-001 -2.534303e-002 6.172812e-001 3.852414e-001 1.350189e-001 2.296077e+000
<VARIANCE> 25
 2.147772e+001 2.369374e+001 2.607695e+001 4.135050e+001 7.513570e+001 4.651320e+001 3.784662e+001 4.262352e+001 2.693799e+001 2.643486e+001 1.672776e+001 1.831892e+001 4.254830e+000 2.424620e+000 3.495129e+000 4.977513e+000 8.653016e+000 5.029801e+000 3.798450e+000 6.061269e+000 3.500207e+000 2.942606e+000 2.405068e+000 2.567343e+000 8.025332e+000
<GCONST> 1.053355e+002
<STATE> 4
<MEAN> 25
 1.512302e+000 -8.004367e-001 2.526196e+000 1.863258e+000 -1.140559e+000 -4.887103e+000 -2.797287e+000 9.616991e-001 1.315088e+000 4.856911e-001 -1.112661e+000 1.150083e+000 2.948042e-001 -4.664019e-001 -6.646760e-001 -4.516926e-001 8.813225e-003 4.793818e-001 -2.941171e-001 -9.218412e-003 4.142832e-001 4.980044e-001 2.858891e-001 -3.612151e-001 3.648096e-001
<VARIANCE> 25
 4.621524e+001 2.656893e+001 2.768334e+001 2.907224e+001 5.934976e+001 4.685207e+001 7.312170e+001 4.431896e+001 3.863456e+001 2.772848e+001 2.193339e+001 3.223718e+001 3.130544e+000 1.789555e+000 2.602915e+000 2.985639e+000 5.883384e+000 4.501992e+000 2.829779e+000 4.601097e+000 3.230645e+000 2.487579e+000 2.099547e+000 3.100614e+000 3.025631e+000
<GCONST> 1.039835e+002
<TRANSP> 5
 0.000000e+000 1.000000e+000 0.000000e+000 0.000000e+000 0.000000e+000
 0.000000e+000 7.169275e-001 2.830725e-001 0.000000e+000 0.000000e+000
 0.000000e+000 0.000000e+000 5.527068e-001 4.472932e-001 0.000000e+000
 0.000000e+000 0.000000e+000 0.000000e+000 5.104420e-001 4.895580e-001
 0.000000e+000 0.000000e+000 0.000000e+000 0.000000e+000 0.000000e+000
<ENDHMM>
~h "f"
<BEGINHMM>
<NUMSTATES> 5
<STATE> 2
<MEAN> 25
 -4.736597e+000 -3.112396e+000 -2.069569e+000 1.115704e+000 2.418978e+000 1.516132e+000 3.718792e+000 2.761051e+000 4.287767e+000 2.790057e+000 1.869421e+000 3.914893e+000 -1.098149e-001 4.601249e-003 -6.974100e-002 -5.458687e-002 -9.277157e-002 3.318086e-002 -7.854152e-002 -4.540034e-002 -3.920489e-002 4.281708e-002 2.237182e-003 -8.231195e-003 -1.309391e-002
<VARIANCE> 25
 8.444490e+000 5.668331e+000 6.828604e+000 1.032670e+001 1.049088e+001 1.321651e+001 1.302570e+001 1.410433e+001 1.228221e+001 1.567424e+001 1.442472e+001 1.476942e+001 4.430626e-001 3.627832e-001 4.710135e-001 8.292251e-001 8.261586e-001 1.144297e+000 1.288541e+000 1.496606e+000 1.159374e+000 1.497703e+000 1.342700e+000 1.433184e+000 2.272111e-001
<GCONST> 7.239516e+001
<STATE> 3
<MEAN> 25
 -7.827069e+000 -4.008091e-001 -5.634865e+000 1.946473e+000 -2.022991e-001 1.804297e+000 2.160050e-001 5.623340e-001 2.842151e+000 2.433887e+000 -1.963317e-001 2.284528e+000 8.254225e-001 1.418937e-001 -9.056407e-002 -5.235397e-001 -3.057161e-001 2.039522e-001 -1.916546e-001 -3.251900e-001 -3.610492e-001 -1.686826e-001 -1.650888e-002 -2.540572e-001 4.801040e-001
<VARIANCE> 25
 3.004996e+001 1.166585e+001 1.233018e+001 2.556243e+001 1.229312e+001 1.625039e+001 1.466637e+001 1.320211e+001 1.667456e+001 1.461113e+001 1.153550e+001 1.540758e+001 4.775043e+000 1.282943e+000 1.269528e+000 3.006312e+000 1.440736e+000 2.090731e+000 1.621898e+000 1.349505e+000 2.055204e+000 1.877172e+000 1.404210e+000 1.608591e+000 2.827159e+000
<GCONST> 8.704084e+001
<STATE> 4
<MEAN> 25
 8.878203e+000 -2.918518e+000 -6.839537e+000 -1.115114e+001 -4.944042e+000 5.898709e+000 2.011791e-001 -3.632844e+000 2.095772e+000 -1.368854e+000 9.602959e-001 -6.733877e+000 7.236302e-001 -1.213482e-001 -5.906869e-002 -3.036108e-001 -9.422743e-002 8.885065e-003 -2.183841e-001 -8.742405e-003 -2.709663e-001 -3.555896e-001 -1.284874e-001 -2.663808e-001 2.823300e-001
<VARIANCE> 25
 6.174890e+001 5.478289e+001 1.401052e+001 4.820899e+001 4.660837e+001 5.758773e+001 1.078157e+001 3.271791e+001 2.529139e+001 1.222815e+001 1.702230e+001 5.853369e+001 2.754740e+000 1.391605e+000 9.625943e-001 4.483243e+000 2.505994e+000 2.932159e+000 8.951609e-001 1.719329e+000 1.597150e+000 9.246385e-001 1.357759e+000 1.418674e+000 6.985669e-001
<GCONST> 9.290623e+001
<TRANSP> 5
 0.000000e+000 1.000000e+000 0.000000e+000 0.000000e+000 0.000000e+000
 0.000000e+000 9.559617e-001 4.403833e-002 0.000000e+000 0.000000e+000
 0.000000e+000 0.000000e+000 8.800811e-001 1.199189e-001 0.000000e+000
 0.000000e+000 0.000000e+000 0.000000e+000 8.054676e-001 1.945324e-001
 0.000000e+000 0.000000e+000 0.000000e+000 0.000000e+000 0.000000e+000
<ENDHMM>
~h "g"
<BEGINHMM>
<NUMSTATES> 5
<STATE> 2
<MEAN> 25
 -1.247198e+000 -2.453668e+000 -2.420849e-001 -3.588552e-001 2.543470e+000 -1.185891e+000 2.187191e+000 -1.190839e+000 2.212676e+000 -1.388439e+000 -3.857220e+000 -6.150417e-001 -1.525314e-001 -9.395930e-001 2.612861e-001 -1.376296e+000 -1.437305e+000 -1.506434e+000 -1.360159e-001 -1.277078e+000 -4.976476e-001 -3.003533e-001 -6.287925e-001 -1.732066e-001 2.899224e+000
<VARIANCE> 25
 2.248718e+001 4.124541e+001 4.341357e+001 3.530760e+001 3.246823e+001 5.050341e+001 1.461281e+001 5.482193e+001 2.065497e+001 7.447240e+000 4.292182e+001 2.584308e+001 3.156836e+000 5.797928e+000 4.793229e+000 8.443979e+000 7.579070e+000 5.437368e+000 2.071448e+000 4.650650e+000 3.482388e+000 2.032095e+000 3.767237e+000 2.207064e+000 5.997956e+000
<GCONST> 1.047077e+002
<STATE> 3
<MEAN> 25
 -4.121443e-001 3.094572e-001 3.164313e+000 5.852497e-001 1.755092e-001 -3.659506e+000 5.880161e-001 -4.049891e+000 -1.151400e+000 -2.584241e+000 -2.610774e+000 -3.802295e-001 -1.412905e-001 6.128994e-001 1.016501e+000 -2.488194e-001 -7.325524e-001 -4.682529e-001 -6.969483e-001 -5.955107e-001 -6.825269e-001 9.060293e-002 5.558870e-001 7.437561e-002 8.982373e-001
<VARIANCE> 25
 3.658265e+001 2.721582e+001 3.305004e+001 5.851993e+001 4.019116e+001 4.514543e+001 2.078112e+001 4.758806e+001 2.892878e+001 1.034025e+001 3.591601e+001 2.333626e+001 3.237954e+000 5.209786e+000 6.303285e+000 6.726718e+000 7.308721e+000 5.383328e+000 3.074764e+000 3.477504e+000 4.867564e+000 1.772390e+000 3.986482e+000 2.490495e+000 8.093149e+000
<GCONST> 1.064058e+002
<STATE> 4
<MEAN> 25
 2.487295e+000 3.423665e+000 6.623090e+000 -4.144176e-001 -4.360657e+000 -7.172745e+000 -1.689703e+000 -2.929465e+000 -4.178544e+000 6.493308e-001 1.136315e-001 -2.393768e+000 3.900807e-001 7.352266e-002 -3.907184e-001 1.532862e-002 -5.028898e-001 -6.461919e-001 1.802099e-001 8.950490e-001 8.498684e-003 -1.351098e-001 5.775174e-001 -2.298599e-001 8.018989e-001
<VARIANCE> 25
 3.707702e+001 2.121856e+001 8.030293e+001 2.598978e+001 9.498609e+001 3.687738e+001 3.281543e+001 4.178061e+001 5.288563e+001 1.577809e+001 2.409878e+001 1.550717e+001 3.842699e+000 3.239025e+000 8.020521e+000 9.789653e-001 5.566830e+000 3.442746e+000 4.915421e+000 5.872293e+000 6.137091e+000 2.347463e+000 2.937485e+000 2.537159e+000 1.742645e+000
<GCONST> 1.044228e+002
<TRANSP> 5
 0.000000e+000 1.000000e+000 0.000000e+000 0.000000e+000 0.000000e+000
 0.000000e+000 5.226409e-001 4.773591e-001 0.000000e+000 0.000000e+000
 0.000000e+000 0.000000e+000 6.467236e-001 3.532764e-001 0.000000e+000
 0.000000e+000 0.000000e+000 0.000000e+000 7.665010e-001 2.334990e-001
 0.000000e+000 0.000000e+000 0.000000e+000 0.000000e+000 0.000000e+000
<ENDHMM>
~h "k"
<BEGINHMM>
<NUMSTATES> 5
<STATE> 2
<MEAN> 25
 -4.969580e+000 -3.086266e+000 -1.871026e+000 2.465668e+000 2.538732e+000 1.508870e-002 3.600177e+000 1.803224e+000 4.427426e+000 2.499379e+000 9.585225e-001 4.326375e+000 -7.592754e-002 -5.026206e-001 -3.333158e-001 -3.838930e-001 2.328909e-001 -9.108849e-001 -3.371709e-001 -1.881160e-001 -3.621885e-001 1.460472e-001 -5.450421e-001 7.064675e-002 1.581021e+000
<VARIANCE> 25
 1.411458e+001 2.318777e+001 2.266880e+001 3.162075e+001 1.804782e+001 3.859695e+001 2.097215e+001 2.438688e+001 2.811148e+001 1.465189e+001 1.961159e+001 2.106222e+001 1.979437e+000 3.332949e+000 3.989453e+000 3.664732e+000 2.308778e+000 4.624247e+000 3.188613e+000 3.323500e+000 3.702978e+000 1.697169e+000 3.055580e+000 2.268275e+000 6.863684e+000
<GCONST> 9.813840e+001
<STATE> 3
<MEAN> 25
 -2.737490e+000 -5.126960e+000 -5.579793e+000 -7.014220e-001 5.653931e+000 -6.908453e+000 -1.803132e-001 -8.834946e-001 1.976836e+000 2.997346e+000 -2.612267e+000 1.815606e+000 1.236979e-001 4.946597e-001 2.481433e-001 -6.494133e-001 2.222145e-002 4.819708e-001 -2.848176e-001 -7.432340e-001 -3.127445e-001 -6.263136e-001 -2.348557e-002 -8.200676e-001 1.562447e+000
<VARIANCE> 25
 2.847300e+001 2.141239e+001 7.319900e+001 4.692310e+001 5.699993e+001 6.343582e+001 3.589483e+001 5.434538e+001 5.150082e+001 2.164647e+001 3.101503e+001 2.567158e+001 4.026881e+000 2.851045e+000 4.758122e+000 4.453407e+000 2.699825e+000 1.297838e+001 4.210117e+000 3.417801e+000 4.945699e+000 3.008044e+000 4.724422e+000 3.865101e+000 7.889372e+000
<GCONST> 1.093541e+002
<STATE> 4
<MEAN> 25
 -1.395897e+000 -1.389182e-001 -4.222529e-001 -4.816153e+000 -7.993980e-002 1.255173e+000 9.579508e-001 -2.276420e+000 8.083839e-001 -1.763823e+000 1.396467e-002 -8.296646e-001 7.115004e-001 5.625763e-001 3.306312e-001 3.641050e-001 -7.427481e-001 5.172323e-001 1.399892e-001 -6.583663e-002 -3.855686e-001 -6.762674e-001 2.191934e-001 -6.944659e-001 2.317874e-001
<VARIANCE> 25
 9.851280e+001 3.644289e+001 8.645769e+001 5.741574e+001 6.948997e+001 8.258051e+001 4.751687e+001 5.562423e+001 4.680441e+001 3.099453e+001 2.985148e+001 3.508059e+001 6.177052e+000 3.623290e+000 3.905285e+000 4.859084e+000 4.224931e+000 5.738247e+000 3.991256e+000 4.625340e+000 5.347526e+000 4.256679e+000 2.716657e+000 2.745255e+000 3.230433e+000
<GCONST> 1.118734e+002
<TRANSP> 5
 0.000000e+000 1.000000e+000 0.000000e+000 0.000000e+000 0.000000e+000
 0.000000e+000 8.068892e-001 1.931108e-001 0.000000e+000 0.000000e+000
 0.000000e+000 0.000000e+000 6.410100e-001 3.589900e-001 0.000000e+000
 0.000000e+000 0.000000e+000 0.000000e+000 7.581567e-001 2.418433e-001
 0.000000e+000 0.000000e+000 0.000000e+000 0.000000e+000 0.000000e+000
<ENDHMM>
~h "l"
<BEGINHMM>
<NUMSTATES> 5
<STATE> 2
<MEAN> 25
 1.098057e+001 4.323466e+000 -5.277768e+000 -1.343464e+001 -5.078238e+000 5.452681e+000 -4.889134e+000 -2.769386e+000 -7.594279e+000 1.012346e+000 5.709277e-001 -4.839283e+000 4.996611e-002 6.414149e-001 8.983517e-002 -1.924821e-001 -1.541885e-001 -1.711904e-002 1.325011e-001 1.257649e-002 -3.949410e-001 -2.126133e-001 1.450992e-001 4.146648e-001 -5.112616e-001
<VARIANCE> 25
 1.296772e+001 2.857121e+001 2.409725e+001 7.368562e+001 3.063492e+001 4.214937e+001 3.856908e+001 4.037877e+001 5.011472e+001 3.594537e+001 2.468496e+001 3.638374e+001 7.948010e-001 1.587865e+000 1.098693e+000 4.455996e+000 2.006440e+000 3.150663e+000 1.899636e+000 2.618980e+000 3.247063e+000 2.707165e+000 1.993913e+000 1.932774e+000 9.050714e-001
<GCONST> 9.684693e+001
<STATE> 3
<MEAN> 25
 6.968002e+000 6.411525e+000 -3.599488e+000 -6.054056e+000 -2.139790e+000 2.872807e+000 -2.660923e+000 -2.387031e+000 -3.786026e+000 7.886772e-001 -2.725889e-001 -1.955931e+000 -8.381894e-001 -4.686371e-001 7.716542e-001 1.714676e+000 7.735935e-001 -4.855552e-001 2.302732e-001 1.205342e-001 1.076059e+000 -2.072524e-001 -4.881800e-001 6.259532e-002 -5.908452e-001
<VARIANCE> 25
 1.687824e+001 2.810189e+001 2.502179e+001 4.881160e+001 3.165064e+001 3.236670e+001 3.942152e+001 4.076394e+001 4.724969e+001 3.780226e+001 3.385345e+001 3.898535e+001 1.256775e+000 2.035265e+000 1.519086e+000 3.778850e+000 2.701189e+000 3.001130e+000 2.748995e+000 3.972487e+000 3.466603e+000 3.327597e+000 2.769875e+000 3.015622e+000 1.670000e+000
<GCONST> 1.004544e+002
<STATE> 4
<MEAN> 25
 -5.248988e-001 1.214218e+000 -1.213573e+000 1.885921e+000 2.745327e+000 3.116927e+000 2.371539e+000 6.810466e-001 2.587957e+000 4.460048e-001 -2.280832e-001 9.763429e-001 -4.073311e-001 -3.496449e-001 1.094454e-001 3.428373e-001 9.630242e-002 -1.942139e-001 8.997945e-002 5.054365e-002 2.969503e-001 -1.236661e-002 2.029660e-002 1.879874e-001 -1.810648e-001
<VARIANCE> 25
 3.540254e+001 2.728749e+001 1.802863e+001 2.779087e+001 2.189620e+001 2.770506e+001 2.736050e+001 3.361867e+001 3.669981e+001 2.327690e+001 2.699531e+001 3.336131e+001 7.794257e-001 8.852845e-001 9.882854e-001 2.007814e+000 1.504760e+000 1.884868e+000 1.612801e+000 1.952650e+000 2.114790e+000 2.253615e+000 2.009630e+000 1.755371e+000 4.046129e-001
<GCONST> 9.024338e+001
<TRANSP> 5
 0.000000e+000 1.000000e+000 0.000000e+000 0.000000e+000 0.000000e+000
 0.000000e+000 8.557013e-001 1.442987e-001 0.000000e+000 0.000000e+000
 0.000000e+000 0.000000e+000 6.873940e-001 3.126061e-001 0.000000e+000
 0.000000e+000 0.000000e+000 0.000000e+000 8.499837e-001 1.500163e-001
 0.000000e+000 0.000000e+000 0.000000e+000 0.000000e+000 0.000000e+000
<ENDHMM>
~h "m"
<BEGINHMM>
<NUMSTATES> 5
<STATE> 2
<MEAN> 25
 1.390062e+000 1.731065e+000 3.252948e+000 2.115799e+000 4.668230e-001 7.119670e-001 -5.198628e-001 -5.004613e+000 -4.201024e+000 -2.354603e-002 1.229657e-001 -2.748952e+000 8.857480e-001 1.108563e+000 1.604928e+000 1.134334e+000 2.086491e-001 -6.329950e-001 -6.557384e-001 -2.119706e+000 -1.927397e+000 8.087764e-002 1.288609e-002 -7.019091e-001 4.313884e-001
<VARIANCE> 25
 6.158847e+001 2.585051e+001 2.955758e+001 6.239162e+001 1.830077e+001 2.355120e+001 2.142529e+001 3.777455e+001 4.005015e+001 2.357850e+001 3.264867e+001 3.895224e+001 3.385748e+000 2.577410e+000 3.282275e+000 5.208161e+000 2.224288e+000 3.463715e+000 2.786593e+000 4.129587e+000 3.924006e+000 3.384649e+000 3.946768e+000 3.867832e+000 3.580562e+000
<GCONST> 1.036778e+002
<STATE> 3
<MEAN> 25
 7.483088e+000 4.502727e+000 7.101887e+000 7.303763e+000 1.288050e+000 -2.555043e+000 -2.465449e+000 -1.271206e+001 -1.011956e+001 7.522686e-002 5.746945e-001 -6.784252e+000 1.924879e-001 1.104319e-001 2.510644e-001 2.403295e-001 2.025853e-002 -3.295427e-001 -6.216695e-002 -3.607174e-001 -1.712411e-001 1.387621e-001 1.143363e-001 -2.536473e-001 1.034094e-001
<VARIANCE> 25
 1.620461e+001 1.049152e+001 2.526490e+001 2.345600e+001 1.347906e+001 4.707273e+001 3.303461e+001 5.145249e+001 4.312545e+001 2.500517e+001 4.756452e+001 3.140178e+001 1.161123e+000 1.106687e+000 2.422592e+000 3.612723e+000 1.722265e+000 2.678277e+000 1.660025e+000 3.303915e+000 2.913674e+000 2.777159e+000 2.475702e+000 2.029510e+000 1.301245e+000
<GCONST> 9.526982e+001
<STATE> 4
<MEAN> 25
 1.899387e+000 2.250593e+000 1.044137e+001 1.729969e+000 -3.953517e+000 -3.273932e+000 -1.274773e+000 -5.782431e+000 -6.060652e+000 -3.883137e+000 2.695756e-001 -5.041523e+000 -2.615127e-001 -2.443521e-001 -2.074934e-001 -3.706850e-001 -1.821045e-001 7.100168e-002 2.999911e-001 8.137464e-001 4.457475e-001 -2.854407e-001 -2.690313e-001 2.710376e-001 7.193158e-002
<VARIANCE> 25
 8.005143e+001 5.146254e+001 6.227414e+001 5.961165e+001 5.388583e+001 4.949039e+001 5.867862e+001 1.001326e+002 4.830239e+001 2.836691e+001 4.438140e+001 3.393201e+001 3.849904e+000 2.503495e+000 2.893526e+000 3.593638e+000 4.897956e+000 3.443035e+000 3.011458e+000 5.804413e+000 3.686360e+000 2.822549e+000 2.241408e+000 2.874237e+000 2.054271e+000
<GCONST> 1.088156e+002
<TRANSP> 5
 0.000000e+000 1.000000e+000 0.000000e+000 0.000000e+000 0.000000e+000
 0.000000e+000 5.280784e-001 4.719216e-001 0.000000e+000 0.000000e+000
 0.000000e+000 0.000000e+000 8.131891e-001 1.868109e-001 0.000000e+000
 0.000000e+000 0.000000e+000 0.000000e+000 8.816822e-001 1.183178e-001
 0.000000e+000 0.000000e+000 0.000000e+000 0.000000e+000 0.000000e+000
<ENDHMM>
~h "n"
<BEGINHMM>
<NUMSTATES> 5
<STATE> 2
<MEAN> 25
 7.661617e+000 2.478073e+000 6.825949e+000 4.633913e+000 -2.558170e+000 -4.810101e+000 -2.875080e+000 -8.733933e+000 -1.057694e+001 -7.947620e-001 -4.946680e+000 -5.463872e+000 -1.925966e-001 2.249236e-001 6.662079e-002 3.026938e-001 1.688175e-001 -1.649764e-002 -9.723299e-002 -3.095913e-001 1.724759e-001 -9.571593e-002 -1.556869e-001 2.046594e-001 -4.716917e-001
<VARIANCE> 25
 1.108215e+001 1.664985e+001 2.155973e+001 2.731892e+001 2.206870e+001 2.412812e+001 2.071767e+001 5.570927e+001 3.711942e+001 2.578481e+001 1.976058e+001 1.585172e+001 3.849114e-001 8.155710e-001 1.011531e+000 1.945687e+000 1.452183e+000 1.520168e+000 1.148799e+000 3.991858e+000 2.079021e+000 2.021286e+000 1.234443e+000 1.040031e+000 5.933725e-001
<GCONST> 8.647954e+001
<STATE> 3
<MEAN> 25
 1.375246e+000 2.898777e+000 2.716485e+000 3.552026e+000 1.926037e+000 -2.000933e+000 -1.786274e+000 -2.165119e+000 -2.418692e+000 -4.061935e+000 -4.666714e+000 -1.435809e+000 -1.261626e+000 -7.528856e-001 -9.696288e-001 -3.708973e-001 6.613247e-001 9.831480e-001 9.677798e-001 1.355528e+000 1.476028e+000 6.851211e-001 8.921379e-001 9.710063e-001 -6.989281e-001
<VARIANCE> 25
 2.584662e+001 1.976765e+001 2.544313e+001 2.309258e+001 2.290830e+001 4.338472e+001 2.805170e+001 4.657265e+001 3.754448e+001 3.103268e+001 2.942805e+001 2.370315e+001 1.881508e+000 1.637631e+000 1.616496e+000 1.974729e+000 1.830187e+000 3.657872e+000 3.083017e+000 4.112223e+000 3.399986e+000 3.604132e+000 3.055103e+000 2.455993e+000 1.574257e+000
<GCONST> 9.794608e+001
<STATE> 4
<MEAN> 25
 -4.034981e+000 -2.114211e+000 -2.270701e+000 1.381293e+000 3.295142e+000 2.756475e+000 3.556936e+000 2.655987e+000 4.707201e+000 2.797567e+000 2.270825e+000 3.797100e+000 -4.485496e-002 -5.119131e-002 -6.168821e-002 -4.728166e-002 -7.464538e-004 3.053001e-002 4.069338e-002 2.106814e-002 5.248037e-002 8.717117e-002 9.619626e-002 4.801906e-002 -3.599360e-002
<VARIANCE> 25
 8.092864e+000 6.984043e+000 1.207933e+001 1.245241e+001 1.058116e+001 1.250476e+001 1.561864e+001 1.753469e+001 1.978962e+001 1.505825e+001 1.772376e+001 1.452538e+001 3.758404e-001 4.768151e-001 6.976714e-001 8.800507e-001 9.980851e-001 1.135327e+000 1.382296e+000 1.600512e+000 1.767956e+000 1.619619e+000 1.535789e+000 1.239982e+000 2.288702e-001
<GCONST> 7.567429e+001
<TRANSP> 5
 0.000000e+000 1.000000e+000 0.000000e+000 0.000000e+000 0.000000e+000
 0.000000e+000 8.984013e-001 1.015987e-001 0.000000e+000 0.000000e+000
 0.000000e+000 0.000000e+000 7.403215e-001 2.596785e-001 0.000000e+000
 0.000000e+000 0.000000e+000 0.000000e+000 9.412423e-001 5.875776e-002
 0.000000e+000 0.000000e+000 0.000000e+000 0.000000e+000 0.000000e+000
<ENDHMM>
~h "p"
<BEGINHMM>
<NUMSTATES> 5
<STATE> 2
<MEAN> 25
 -1.565136e+000 9.215586e-001 -8.802032e-001 3.225345e-001 4.291000e+000 2.252360e+000 1.953699e+000 3.869390e-001 4.158050e+000 1.528009e+000 1.106088e+000 7.008625e-001 -8.390323e-001 -1.350495e-001 2.484643e-001 -1.528576e-001 2.347027e-001 -2.567703e-001 2.176522e-001 -8.154850e-003 4.905086e-001 5.062165e-001 4.247547e-001 4.604175e-001 1.121415e+000
<VARIANCE> 25
 2.248132e+001 1.709105e+001 3.645782e+001 2.479127e+001 3.026368e+001 2.741322e+001 3.396880e+001 2.300125e+001 2.643324e+001 2.312409e+001 2.239139e+001 2.025149e+001 3.930558e+000 2.362688e+000 4.691031e+000 3.880206e+000 3.364831e+000 3.552823e+000 4.643776e+000 3.636962e+000 3.848108e+000 2.776400e+000 3.195233e+000 2.951681e+000 6.907300e+000
<GCONST> 1.016024e+002
<STATE> 3
<MEAN> 25
 -1.324706e+000 4.103059e-001 -8.551970e-001 -1.214011e+000 2.562979e+000 1.339286e+000 8.321733e-001 -2.200004e+000 1.643293e+000 2.301691e+000 2.931312e-001 -1.597952e-001 9.266245e-001 -4.752462e-001 -2.524688e-001 -6.851607e-002 -6.368011e-001 2.383442e-001 -1.304125e+000 1.328856e-001 -3.502038e-001 -2.325616e-001 -8.884705e-001 -2.714364e-001 7.215436e-001
<VARIANCE> 25
 9.733759e+001 3.049721e+001 1.280832e+002 4.722906e+001 4.402735e+001 3.939692e+001 9.570752e+001 4.093546e+001 3.251661e+001 4.052975e+001 3.527814e+001 2.759967e+001 8.996559e+000 4.226906e+000 4.756433e+000 4.449937e+000 3.938543e+000 4.504436e+000 5.808064e+000 5.045848e+000 4.823071e+000 3.917381e+000 4.290191e+000 3.781805e+000 3.272483e+000
<GCONST> 1.123024e+002
<STATE> 4
<MEAN> 25
 2.394728e+000 -2.022928e+000 -1.975333e+000 -3.151146e-001 1.003763e-001 -2.301902e+000 -4.567955e+000 -6.066374e-001 8.006744e-001 -1.000786e+000 -2.495853e+000 1.413341e+000 -4.127691e-002 -4.734005e-002 2.223216e-001 8.065431e-002 -3.766616e-001 -2.234926e-001 1.728224e-001 1.991668e-001 -1.796018e-001 -2.550971e-001 7.955595e-002 1.700525e-001 3.690252e-002
<VARIANCE> 25
 3.674945e+001 1.690035e+001 2.877783e+001 2.882378e+001 1.980253e+001 5.704142e+001 4.967386e+001 3.820393e+001 2.501053e+001 3.328506e+001 3.503283e+001 2.121743e+001 1.911758e+000 1.438552e+000 3.333824e+000 1.884852e+000 2.941894e+000 1.923182e+000 4.587495e+000 2.886290e+000 3.043617e+000 2.564187e+000 2.211372e+000 2.249541e+000 9.524686e-001
<GCONST> 9.778901e+001
<TRANSP> 5
 0.000000e+000 1.000000e+000 0.000000e+000 0.000000e+000 0.000000e+000
 0.000000e+000 7.773612e-001 2.226388e-001 0.000000e+000 0.000000e+000
 0.000000e+000 0.000000e+000 6.460677e-001 3.539323e-001 0.000000e+000
 0.000000e+000 0.000000e+000 0.000000e+000 7.722157e-001 2.277843e-001
 0.000000e+000 0.000000e+000 0.000000e+000 0.000000e+000 0.000000e+000
<ENDHMM>
~h "r"
<BEGINHMM>
<NUMSTATES> 5
<STATE> 2
<MEAN> 25
 8.316155e+000 -1.117226e+000 -3.925426e+000 4.698150e+000 -3.157361e-001 -6.003348e+000 -9.206773e+000 5.848401e-001 -2.124029e-001 -5.522157e+000 1.392033e+000 2.348309e+000 9.611461e-001 -3.351797e-001 -4.578113e-001 8.712991e-001 1.929693e-001 -1.137420e+000 -1.914752e+000 4.097678e-001 6.813072e-001 -6.225131e-001 -5.932153e-001 -1.918520e-001 3.387460e-001
<VARIANCE> 25
 7.299483e+001 1.997253e+001 7.499413e+001 4.191514e+001 3.796352e+001 8.974545e+001 8.667518e+001 5.479846e+001 5.056742e+001 5.514893e+001 3.941266e+001 2.875457e+001 4.085595e+000 2.015063e+000 4.690288e+000 2.538631e+000 5.392663e+000 3.748051e+000 4.857230e+000 4.362693e+000 6.822333e+000 5.003298e+000 2.753796e+000 2.707280e+000 3.182556e+000
<GCONST> 1.101924e+002
<STATE> 3
<MEAN> 25
 8.786644e+000 -2.208495e+000 -2.946297e+000 5.678660e+000 -1.823799e+000 -8.364459e+000 -1.061862e+001 1.834565e+000 6.644146e-001 -6.613774e+000 -7.340307e-001 1.049072e+000 -3.890440e-001 -2.639764e-001 1.068513e+000 -2.832883e-001 -8.457067e-001 3.583125e-001 1.020432e+000 2.384168e-001 -6.826541e-001 3.054024e-001 2.133787e-001 -1.397210e-001 -8.226831e-002
<VARIANCE> 25
 5.766341e+001 2.602071e+001 8.043387e+001 3.533421e+001 5.643418e+001 5.396098e+001 6.510539e+001 4.134013e+001 5.432661e+001 5.442291e+001 3.002978e+001 3.299212e+001 3.081362e+000 1.886438e+000 5.272952e+000 2.792140e+000 5.527195e+000 4.338349e+000 5.690012e+000 5.033982e+000 5.521890e+000 4.220960e+000 3.086629e+000 2.755942e+000 2.282786e+000
<GCONST> 1.091187e+002
<STATE> 4
<MEAN> 25
 4.219570e-001 -2.665107e+000 -2.691651e+000 1.678641e+000 1.390981e+000 8.594874e-002 -6.440311e-001 2.366345e+000 3.768461e+000 1.118489e+000 -2.684678e-001 1.766574e+000 -1.659532e-001 -5.028745e-002 2.459335e-001 -1.155641e-001 -1.983402e-001 3.377954e-001 4.052418e-001 -1.343870e-001 -8.834034e-002 1.081833e-001 -8.866799e-003 -1.444026e-001 -6.341127e-002
<VARIANCE> 25
 4.630126e+001 8.086534e+000 2.961442e+001 1.572447e+001 2.719596e+001 3.135274e+001 5.335340e+001 1.974425e+001 3.166648e+001 3.083559e+001 2.239537e+001 1.623006e+001 4.896251e-001 5.780426e-001 1.216880e+000 1.180569e+000 1.202798e+000 1.425848e+000 2.138429e+000 2.043436e+000 1.893849e+000 1.573969e+000 1.403419e+000 1.795373e+000 3.157485e-001
<GCONST> 8.648131e+001
<TRANSP> 5
 0.000000e+000 1.000000e+000 0.000000e+000 0.000000e+000 0.000000e+000
 0.000000e+000 7.557184e-001 2.442816e-001 0.000000e+000 0.000000e+000
 0.000000e+000 0.000000e+000 7.512427e-001 2.487573e-001 0.000000e+000
 0.000000e+000 0.000000e+000 0.000000e+000 8.278046e-001 1.721954e-001
 0.000000e+000 0.000000e+000 0.000000e+000 0.000000e+000 0.000000e+000
<ENDHMM>
~h "s"
<BEGINHMM>
<NUMSTATES> 5
<STATE> 2
<MEAN> 25
 -1.533494e+001 6.813562e+000 -3.423034e+000 -2.960512e+000 8.306493e+000 -8.748351e+000 5.672634e+000 6.900977e-001 8.060886e-001 -1.239067e+000 -1.714506e+000 4.032342e+000 -2.043651e+000 9.127645e-001 -6.924127e-001 -5.312339e-001 8.696419e-001 -3.245146e-001 6.460755e-001 2.818183e-001 2.649796e-001 -2.314298e-001 2.428684e-001 3.260185e-001 1.019404e+000
<VARIANCE> 25
 6.562258e+001 2.312217e+001 3.215779e+001 2.076259e+001 2.644572e+001 2.977745e+001 2.710098e+001 3.538702e+001 2.168381e+001 1.754760e+001 1.862225e+001 1.881400e+001 5.124645e+000 2.150327e+000 2.114642e+000 1.964576e+000 2.289986e+000 3.574435e+000 2.893769e+000 2.307161e+000 2.335688e+000 1.744600e+000 1.928254e+000 1.566205e+000 1.807517e+000
<GCONST> 9.603748e+001
<STATE> 3
<MEAN> 25
 -1.725631e+001 7.194845e+000 -6.607192e+000 -3.794451e+000 8.902109e+000 -7.595746e+000 6.384644e+000 1.205154e+000 2.324090e+000 -6.172131e-001 -1.001121e+000 4.035019e+000 1.033737e+000 -5.153946e-001 2.244971e-001 1.299948e-001 -5.535967e-001 1.216618e-001 -2.651052e-001 -2.798507e-001 1.015444e-002 2.823352e-001 1.131364e-002 -2.765465e-001 -5.364744e-001
<VARIANCE> 25
 3.206927e+001 1.325721e+001 3.140528e+001 2.034784e+001 2.096012e+001 1.978848e+001 2.076647e+001 3.192229e+001 1.965532e+001 2.283088e+001 1.822012e+001 1.814804e+001 3.052554e+000 9.223000e-001 1.527737e+000 1.361975e+000 1.338940e+000 1.853236e+000 1.782348e+000 1.867573e+000 1.624357e+000 2.103925e+000 1.416394e+000 1.786365e+000 2.613141e+000
<GCONST> 8.988820e+001
<STATE> 4
<MEAN> 25
 -5.789557e+000 1.034565e+000 -2.257239e+000 -1.476812e+000 2.388182e+000 -3.790845e+000 1.733846e+000 -7.239132e-001 2.395556e+000 3.427517e-001 -1.059345e+000 8.819098e-001 1.551771e+000 -6.738832e-001 7.089717e-001 3.335566e-001 -9.765646e-001 2.059266e-001 -6.452759e-001 -9.809515e-002 -3.516650e-001 8.706724e-002 -1.647952e-001 -5.733474e-001 -4.640577e-002
<VARIANCE> 25
 4.407858e+001 2.279869e+001 3.024660e+001 2.346999e+001 2.384456e+001 3.939289e+001 2.960412e+001 2.632283e+001 2.967744e+001 2.793746e+001 1.778865e+001 2.926365e+001 5.103706e+000 2.060757e+000 3.774612e+000 2.023545e+000 2.527125e+000 3.290274e+000 3.732436e+000 3.392743e+000 3.337724e+000 2.589846e+000 2.181747e+000 2.025148e+000 3.344246e+000
<GCONST> 9.979630e+001
<TRANSP> 5
 0.000000e+000 1.000000e+000 0.000000e+000 0.000000e+000 0.000000e+000
 0.000000e+000 8.629413e-001 1.370587e-001 0.000000e+000 0.000000e+000
 0.000000e+000 0.000000e+000 8.688388e-001 1.311612e-001 0.000000e+000
 0.000000e+000 0.000000e+000 0.000000e+000 7.523013e-001 2.476987e-001
 0.000000e+000 0.000000e+000 0.000000e+000 0.000000e+000 0.000000e+000
<ENDHMM>
~h "t"
<BEGINHMM>
<NUMSTATES> 5
<STATE> 2
<MEAN> 25
 -5.422698e+000 -6.149707e-001 3.988519e+000 -2.086966e+000 -9.091469e-001 -6.513827e-001 8.823369e-001 -1.580819e+000 -7.534164e-001 -5.702804e-001 -7.284447e-002 1.031798e+000 -1.297672e+000 -1.045451e-001 3.202859e-001 -4.576620e-001 -2.049718e-001 -5.143572e-001 4.865352e-001 2.240865e-001 -1.150126e-001 -1.430329e-002 2.086369e-001 3.492374e-001 1.546401e+000
<VARIANCE> 25
 5.377122e+001 3.170909e+001 6.018215e+001 4.379699e+001 3.710402e+001 3.367393e+001 3.943711e+001 3.676192e+001 5.956254e+001 3.645861e+001 2.546455e+001 2.987826e+001 5.942674e+000 2.949321e+000 5.701038e+000 5.984065e+000 4.734810e+000 4.186378e+000 4.776408e+000 3.818652e+000 6.419456e+000 4.027633e+000 3.343857e+000 3.405558e+000 1.215649e+001
<GCONST> 1.104592e+002
<STATE> 3
<MEAN> 25
 -6.868401e+000 1.588697e-002 5.128739e+000 -7.319003e-001 -4.329973e-001 -4.454448e+000 3.938929e+000 1.722801e+000 -1.333743e+000 3.305677e-001 1.167540e-002 2.633804e+000 1.605974e+000 3.330597e-001 3.421176e-001 1.179256e+000 2.840639e-001 2.220612e-001 -2.234436e-001 3.782644e-001 1.604326e-001 5.247508e-002 6.081292e-002 -1.082330e-001 -1.239520e+000
<VARIANCE> 25
 7.642315e+001 3.389645e+001 5.456398e+001 4.426843e+001 4.636460e+001 4.808075e+001 4.160791e+001 4.112493e+001 2.983280e+001 2.541249e+001 2.395586e+001 2.412515e+001 6.341375e+000 2.991703e+000 3.594320e+000 2.738005e+000 3.740914e+000 6.326291e+000 4.371125e+000 3.557108e+000 3.676669e+000 2.846787e+000 2.757732e+000 2.652750e+000 4.713418e+000
<GCONST> 1.067670e+002
<STATE> 4
<MEAN> 25
 -4.067251e+000 -6.226980e-001 -7.241132e-002 2.208370e+000 3.347460e+000 2.758615e+000 4.125514e+000 1.959278e+000 3.643395e+000 2.594943e+000 2.380842e+000 3.394578e+000 1.643395e-001 -1.642728e-002 -1.208642e-001 2.924971e-002 -7.460396e-002 4.510477e-002 -1.644621e-001 -6.716246e-002 -3.569325e-003 -1.131723e-001 7.691932e-002 -4.884652e-002 -9.310420e-002
<VARIANCE> 25
 1.571002e+001 9.802275e+000 2.070466e+001 1.329772e+001 2.152308e+001 2.329504e+001 2.436082e+001 1.760804e+001 2.255725e+001 1.690704e+001 1.626930e+001 1.590505e+001 1.066926e+000 6.242565e-001 1.444834e+000 9.670251e-001 1.540077e+000 1.642452e+000 2.047033e+000 1.703119e+000 1.822782e+000 1.379366e+000 1.473407e+000 1.687289e+000 4.884843e-001
<GCONST> 8.360136e+001
<TRANSP> 5
 0.000000e+000 1.000000e+000 0.000000e+000 0.000000e+000 0.000000e+000
 0.000000e+000 7.948184e-001 2.051816e-001 0.000000e+000 0.000000e+000
 0.000000e+000 0.000000e+000 7.394176e-001 2.605824e-001 0.000000e+000
 0.000000e+000 0.000000e+000 0.000000e+000 8.862512e-001 1.137488e-001
 0.000000e+000 0.000000e+000 0.000000e+000 0.000000e+000 0.000000e+000
<ENDHMM>
~h "v"
<BEGINHMM>
<NUMSTATES> 5
<STATE> 2
<MEAN> 25
 -1.568401e+000 3.638122e-001 -5.292361e-001 4.760479e+000 6.623263e-001 -2.388381e+000 -4.163320e-001 9.352335e-001 2.563042e+000 2.394635e-001 -2.592697e-001 7.161399e-001 -7.090332e-001 -2.167488e-001 -6.797127e-001 -2.982030e-001 5.331304e-001 4.013212e-001 5.090376e-001 3.776187e-001 1.084224e+000 7.832400e-001 3.754838e-001 6.127929e-001 -7.199274e-001
<VARIANCE> 25
 5.337522e+001 1.552653e+001 2.413513e+001 3.086671e+001 2.871579e+001 3.330295e+001 2.994886e+001 1.625673e+001 2.372042e+001 2.382087e+001 2.226814e+001 3.131591e+001 4.314714e+000 1.549006e+000 2.748898e+000 2.017356e+000 4.047710e+000 4.555534e+000 3.982571e+000 1.407522e+000 3.395815e+000 2.769218e+000 2.726307e+000 2.475141e+000 2.230213e+000
<GCONST> 9.841878e+001
<STATE> 3
<MEAN> 25
 -1.056353e+000 2.901075e-001 -1.513447e+000 4.093334e+000 2.341975e+000 1.662764e-001 6.518044e-001 6.889548e-001 3.044696e+000 7.546519e-001 6.743225e-001 1.178936e+000 -9.257474e-001 -3.817048e-001 -4.117867e-001 -1.468950e-001 3.538808e-001 3.764515e-001 5.857421e-001 4.471258e-001 4.066459e-001 3.456689e-001 1.018909e-001 2.221210e-001 -3.045922e-001
<VARIANCE> 25
 4.872141e+001 1.581793e+001 2.751351e+001 2.294866e+001 2.593636e+001 1.949654e+001 2.401697e+001 2.173716e+001 2.513971e+001 2.282082e+001 1.769462e+001 3.649710e+001 2.029156e+000 9.854828e-001 1.094615e+000 1.779559e+000 2.896456e+000 2.676180e+000 1.628380e+000 1.474643e+000 2.083354e+000 2.435184e+000 2.145800e+000 1.291324e+000 1.318177e+000
<GCONST> 9.155148e+001
<STATE> 4
<MEAN> 25
 -3.705317e+000 -3.107816e+000 -2.149536e+000 1.699390e+000 2.803034e+000 8.857202e-001 2.981381e+000 2.243306e+000 4.487784e+000 2.581768e+000 1.034706e+000 3.391171e+000 3.799383e-002 8.528535e-003 3.699119e-002 -2.089105e-002 2.938302e-002 -2.356742e-003 2.597875e-002 -5.532281e-002 -7.247484e-002 4.854027e-003 -1.496418e-002 7.754549e-004 -2.011362e-002
<VARIANCE> 25
 8.512187e+000 6.624662e+000 8.086916e+000 1.279039e+001 1.050920e+001 1.140878e+001 1.549319e+001 1.181679e+001 1.722364e+001 1.328389e+001 1.711658e+001 1.713442e+001 4.578491e-001 4.108822e-001 5.704474e-001 6.700228e-001 8.560581e-001 1.115407e+000 1.199497e+000 1.313602e+000 1.637272e+000 1.439538e+000 1.498193e+000 1.402756e+000 3.222097e-001
<GCONST> 7.397223e+001
<TRANSP> 5
 0.000000e+000 1.000000e+000 0.000000e+000 0.000000e+000 0.000000e+000
 0.000000e+000 6.426768e-001 3.573232e-001 0.000000e+000 0.000000e+000
 0.000000e+000 0.000000e+000 4.391493e-001 5.608507e-001 0.000000e+000
 0.000000e+000 0.000000e+000 0.000000e+000 9.407237e-001 5.927629e-002
 0.000000e+000 0.000000e+000 0.000000e+000 0.000000e+000 0.000000e+000
<ENDHMM>
~h "w"
<BEGINHMM>
<NUMSTATES> 5
<STATE> 2
<MEAN> 25
 8.440236e+000 4.615840e+000 -8.920196e-001 -2.031857e+000 7.491664e-003 2.192131e+000 -2.775330e+000 -1.689476e+000 -3.565970e+000 -1.788225e+000 1.117423e+000 -2.933912e+000 3.530694e-001 -3.777080e-001 1.518579e-001 9.549177e-002 -3.384754e-001 -2.174018e-001 -2.633719e-001 4.842494e-001 6.306016e-002 6.687107e-002 -6.401278e-002 -6.732103e-001 8.444227e-001
<VARIANCE> 25
 1.955723e+001 2.955233e+001 2.752642e+001 3.788629e+001 2.426355e+001 5.572631e+001 4.021071e+001 3.847734e+001 6.628252e+001 4.361110e+001 4.214973e+001 4.240778e+001 2.272793e+000 3.419898e+000 3.341866e+000 3.563073e+000 3.589671e+000 8.525971e+000 5.031773e+000 6.786671e+000 6.417608e+000 5.361585e+000 6.076379e+000 4.314080e+000 1.839584e+000
<GCONST> 1.081614e+002
<STATE> 3
<MEAN> 25
 9.077137e+000 -2.077606e+000 -9.525993e-002 4.802806e+000 -4.909479e+000 -5.620896e+000 -6.237940e+000 7.350518e+000 -2.204332e+000 -3.515074e+000 1.886118e+000 -1.276506e+000 -4.177583e-002 -9.753171e-002 3.961979e-001 4.738563e-002 -9.528540e-001 -9.440780e-001 1.122852e-001 3.133503e-001 -5.858616e-001 1.245611e-002 6.764438e-002 6.935077e-001 -1.281316e-001
<VARIANCE> 25
 1.388253e+001 1.947602e+001 3.427501e+001 2.226898e+001 4.401932e+001 2.954594e+001 6.387257e+001 1.337451e+002 4.537398e+001 2.874581e+001 3.347960e+001 4.051766e+001 7.027381e-001 1.161585e+000 2.045236e+000 1.446492e+000 2.217312e+000 3.148260e+000 2.980012e+000 3.855471e+000 3.716919e+000 3.022386e+000 3.368620e+000 2.444900e+000 5.161519e-001
<GCONST> 9.792619e+001
<STATE> 4
<MEAN> 25
 9.249433e+000 4.007635e-001 2.686989e+000 1.867401e+000 -5.908907e+000 -3.788253e+000 -2.547269e+000 -2.090793e+000 -8.994703e+000 7.831181e-002 -5.626457e-001 -6.604663e+000 -1.193017e-001 8.290774e-004 1.092988e-001 -3.077246e-001 -1.603211e-001 1.315067e-001 1.888002e-001 8.573635e-002 -1.263369e-001 -9.277821e-002 2.919346e-002 1.990856e-001 -9.100848e-002
<VARIANCE> 25
 1.414041e+001 3.505415e+001 3.013561e+001 2.768459e+001 4.214472e+001 3.364366e+001 3.158129e+001 7.497419e+001 8.079671e+001 5.039144e+001 2.466808e+001 4.648086e+001 1.973552e-001 9.569781e-001 1.216526e+000 1.081226e+000 1.445226e+000 1.224763e+000 2.035392e+000 2.056898e+000 1.867851e+000 2.128655e+000 1.837290e+000 1.178226e+000 3.562161e-001
<GCONST> 9.099303e+001
<TRANSP> 5
 0.000000e+000 1.000000e+000 0.000000e+000 0.000000e+000 0.000000e+000
 0.000000e+000 8.648342e-001 1.351658e-001 0.000000e+000 0.000000e+000
 0.000000e+000 0.000000e+000 7.504480e-001 2.495520e-001 0.000000e+000
 0.000000e+000 0.000000e+000 0.000000e+000 7.808499e-001 2.191501e-001
 0.000000e+000 0.000000e+000 0.000000e+000 0.000000e+000 0.000000e+000
<ENDHMM>
~h "y"
<BEGINHMM>
<NUMSTATES> 5
<STATE> 2
<MEAN> 25
 5.640907e-001 5.065850e+000 1.216182e+001 3.135194e+000 -4.112705e+000 -3.053767e+000 -3.039667e+000 -4.055143e+000 -7.312209e+000 -5.852931e-001 6.397846e-001 -1.525858e+000 1.066003e+000 5.682006e-001 1.181852e+000 8.976740e-001 -1.868406e+000 -1.031803e+000 -9.113811e-001 7.415819e-001 -2.113173e+000 -1.191105e+000 8.313693e-001 -8.876159e-001 7.138995e-001
<VARIANCE> 25
 2.468237e+001 2.289857e+001 7.087228e+001 2.708914e+001 7.005731e+001 3.830452e+001 5.442208e+001 5.629733e+001 7.819255e+001 2.511852e+001 3.886808e+001 2.961343e+001 4.044772e+000 3.515242e+000 5.836604e+000 4.349266e+000 4.589581e+000 2.793589e+000 6.285262e+000 4.876115e+000 7.718500e+000 3.027217e+000 4.365032e+000 3.611314e+000 1.427595e+000
<GCONST> 1.085249e+002
<STATE> 3
<MEAN> 25
 6.668794e+000 2.331553e+000 4.401227e+000 3.270190e+000 -5.481909e+000 -3.072257e+000 -7.939833e+000 1.853562e-001 -8.549304e+000 -5.218808e+000 1.228018e+000 -6.129483e+000 2.788630e-001 -1.736459e-001 -6.984305e-001 1.986255e-002 5.991621e-001 2.474962e-001 1.716344e-001 -2.588809e-001 7.375622e-001 1.620278e-001 -6.014217e-001 -1.779130e-001 -2.440383e-001
<VARIANCE> 25
 1.881310e+001 5.266803e+001 9.128305e+001 3.365144e+001 7.090066e+001 6.874764e+001 5.207453e+001 6.750043e+001 8.109021e+001 2.846312e+001 4.130769e+001 3.946130e+001 9.469298e-001 1.794070e+000 4.616787e+000 2.572773e+000 4.927618e+000 4.977423e+000 5.531321e+000 5.049723e+000 5.058732e+000 3.618290e+000 3.684984e+000 3.015974e+000 1.278909e+000
<GCONST> 1.077681e+002
<STATE> 4
<MEAN> 25
 6.906168e+000 3.343774e+000 5.027312e+000 4.726047e+000 -6.608483e-001 -3.564310e-001 -2.547295e+000 -6.371582e+000 -5.882101e+000 -3.746461e-001 -1.686303e+000 -6.012036e+000 -1.076010e-001 5.139838e-002 -7.297291e-002 1.198261e-002 2.376104e-001 7.095409e-003 8.780855e-002 6.252149e-002 2.245845e-001 -2.622238e-002 -1.537498e-001 2.500941e-001 -2.024024e-001
<VARIANCE> 25
 1.594171e+001 2.300712e+001 7.470345e+001 2.464162e+001 4.297272e+001 3.785194e+001 2.982256e+001 4.932714e+001 4.155621e+001 2.199768e+001 2.821317e+001 2.059734e+001 5.754473e-001 6.354964e-001 2.285549e+000 1.520921e+000 2.368668e+000 2.129291e+000 2.049514e+000 3.082747e+000 2.724386e+000 1.620945e+000 1.880246e+000 1.061261e+000 7.475568e-001
<GCONST> 9.282723e+001
<TRANSP> 5
 0.000000e+000 1.000000e+000 0.000000e+000 0.000000e+000 0.000000e+000
 0.000000e+000 7.960558e-001 2.039442e-001 0.000000e+000 0.000000e+000
 0.000000e+000 0.000000e+000 8.126420e-001 1.873580e-001 0.000000e+000
 0.000000e+000 0.000000e+000 0.000000e+000 8.845892e-001 1.154108e-001
 0.000000e+000 0.000000e+000 0.000000e+000 0.000000e+000 0.000000e+000
<ENDHMM>
~h "z"
<BEGINHMM>
<NUMSTATES> 5
<STATE> 2
<MEAN> 25
 -1.129850e+001 1.090891e+001 3.055660e+000 -3.161917e+000 9.309431e+000 -7.144984e+000 6.942375e-001 -1.113107e+000 -2.114144e+000 -2.047863e+000 -2.798614e+000 2.429735e+000 -2.378470e+000 5.105147e-001 -5.139970e-001 -5.609315e-001 1.351986e+000 -4.686365e-001 3.665206e-001 7.867827e-001 6.477129e-001 1.277036e-001 -1.765245e-001 1.295607e-001 4.862350e-001
<VARIANCE> 25
 1.041141e+002 2.766395e+001 5.978310e+001 3.711544e+001 5.084405e+001 5.149353e+001 3.069590e+001 2.471244e+001 3.928302e+001 1.667472e+001 1.990280e+001 1.919246e+001 4.937803e+000 2.373366e+000 2.642092e+000 2.425189e+000 4.730015e+000 3.906847e+000 2.556725e+000 2.590750e+000 2.903877e+000 2.774963e+000 1.526532e+000 1.668209e+000 4.959402e-001
<GCONST> 9.999519e+001
<STATE> 3
<MEAN> 25
 -1.631715e+001 7.331721e+000 -2.502812e+000 -5.468904e+000 1.006275e+001 -9.798526e+000 3.833171e+000 2.508175e+000 5.172566e-001 7.192967e-001 -3.240060e+000 3.731624e+000 1.286877e+000 -7.793787e-001 1.051788e-001 3.091510e-001 -7.211183e-001 2.669457e-002 6.072275e-005 -2.143759e-001 -3.191500e-001 2.366536e-001 3.799861e-002 -2.078571e-001 -7.356954e-001
<VARIANCE> 25
 5.606086e+001 3.221996e+001 2.769180e+001 3.500517e+001 1.442382e+001 3.152259e+001 3.576580e+001 2.590171e+001 2.294952e+001 2.250420e+001 1.867546e+001 1.829182e+001 3.087106e+000 1.170497e+000 1.776804e+000 1.323678e+000 1.849292e+000 2.546660e+000 2.208132e+000 2.119359e+000 2.079705e+000 1.577271e+000 1.928112e+000 1.446658e+000 1.693583e+000
<GCONST> 9.332744e+001
<STATE> 4
<MEAN> 25
 -3.886595e+000 -2.235421e+000 -2.270701e+000 3.797973e-001 3.253330e+000 1.479527e-002 2.961298e+000 1.534985e+000 2.940212e+000 2.138945e+000 4.530170e-001 2.116739e+000 1.703543e-001 -9.913480e-002 8.640626e-002 1.274262e-001 -2.715347e-001 2.513566e-001 -4.077278e-002 -2.339812e-002 9.498969e-002 -1.459413e-003 8.935036e-002 -4.373717e-002 -5.504693e-002
<VARIANCE> 25
 9.172091e+000 1.454616e+001 1.424625e+001 1.627430e+001 1.132003e+001 2.542545e+001 2.206697e+001 1.847135e+001 2.050578e+001 1.763801e+001 1.445814e+001 1.799899e+001 1.361010e+000 9.820835e-001 1.007739e+000 1.140854e+000 1.673843e+000 2.303067e+000 2.380792e+000 2.137273e+000 1.777263e+000 1.649208e+000 1.215755e+000 1.570349e+000 5.643828e-001
<GCONST> 8.396744e+001
<TRANSP> 5
 0.000000e+000 1.000000e+000 0.000000e+000 0.000000e+000 0.000000e+000
 0.000000e+000 8.605910e-001 1.394090e-001 0.000000e+000 0.000000e+000
 0.000000e+000 0.000000e+000 8.857574e-001 1.142426e-001 0.000000e+000
 0.000000e+000 0.000000e+000 0.000000e+000 9.403716e-001 5.962842e-002
 0.000000e+000 0.000000e+000 0.000000e+000 0.000000e+000 0.000000e+000
<ENDHMM>
~h "aa"
<BEGINHMM>
<NUMSTATES> 5
<STATE> 2
<MEAN> 25
 7.011905e+000 -4.764582e+000 -3.836447e+000 -6.595170e+000 -7.899809e-001 9.551188e+000 -3.343551e-001 -6.399165e-002 1.287276e+000 -5.363420e-002 -1.682256e-001 -9.720513e+000 6.059394e-001 -5.576228e-001 -7.406052e-001 -7.686349e-001 -1.816810e-001 1.474209e+000 -5.381897e-002 -2.558048e-001 -8.630224e-002 -2.066045e-001 3.585363e-001 -8.720305e-001 6.864245e-001
<VARIANCE> 25
 2.435170e+001 3.275547e+001 2.249096e+001 5.450137e+001 1.999669e+001 8.054934e+001 4.310218e+001 3.777671e+001 3.237340e+001 4.450684e+001 2.544078e+001 5.972362e+001 2.346434e+000 1.655803e+000 1.270517e+000 3.199792e+000 2.130716e+000 4.580040e+000 2.302614e+000 2.326388e+000 2.411452e+000 2.819177e+000 2.417744e+000 3.436458e+000 1.721874e+000
<GCONST> 1.004123e+002
<STATE> 3
<MEAN> 25
 8.402927e+000 -3.869570e+000 -6.538131e+000 -9.379323e+000 5.578394e-001 1.643227e+001 3.455198e-001 -3.166706e+000 1.628716e+000 -6.212808e-001 2.302991e+000 -1.062723e+001 6.443804e-002 5.605609e-001 -1.358760e-001 2.492312e-001 -2.451639e-001 -1.879635e-001 -2.796497e-001 8.151720e-002 -4.020241e-001 4.879486e-001 -2.041579e-001 4.338129e-001 -5.409256e-001
<VARIANCE> 25
 1.191774e+001 1.781795e+001 1.258341e+001 2.765731e+001 1.730602e+001 5.624933e+001 4.535915e+001 4.147398e+001 5.368237e+001 4.810484e+001 3.408131e+001 3.561084e+001 3.388322e-001 1.242761e+000 7.899234e-001 1.095392e+000 1.109515e+000 2.044397e+000 2.013273e+000 3.383972e+000 1.770108e+000 1.968978e+000 1.756896e+000 1.981900e+000 9.327661e-001
<GCONST> 9.069060e+001
<STATE> 4
<MEAN> 25
 4.892253e+000 -3.341537e-001 -4.042446e+000 -4.299260e+000 -7.511885e-001 8.184267e+000 -1.142439e+000 -1.074394e+000 -1.653490e+000 2.880586e+000 -2.431359e+000 -4.980489e+000 -1.340617e+000 8.234061e-001 9.888469e-001 7.752107e-001 2.837015e-001 -1.718318e+000 2.903845e-001 7.587446e-002 1.258000e-001 -7.530228e-002 2.136561e-001 1.629500e+000 -1.415320e+000
<VARIANCE> 25
 5.057069e+001 2.443009e+001 2.421019e+001 2.896251e+001 2.369233e+001 7.545645e+001 5.198922e+001 5.407483e+001 2.957325e+001 5.023008e+001 4.589069e+001 2.812267e+001 3.140676e+000 2.245377e+000 2.698927e+000 1.498710e+000 2.661587e+000 5.949657e+000 3.360054e+000 6.417688e+000 3.321237e+000 3.047239e+000 4.361251e+000 2.158461e+000 2.118248e+000
<GCONST> 1.040067e+002
<TRANSP> 5
 0.000000e+000 1.000000e+000 0.000000e+000 0.000000e+000 0.000000e+000
 0.000000e+000 8.229429e-001 1.770571e-001 0.000000e+000 0.000000e+000
 0.000000e+000 0.000000e+000 7.743255e-001 2.256745e-001 0.000000e+000
 0.000000e+000 0.000000e+000 0.000000e+000 6.842005e-001 3.157996e-001
 0.000000e+000 0.000000e+000 0.000000e+000 0.000000e+000 0.000000e+000
<ENDHMM>
~h "ae"
<BEGINHMM>
<NUMSTATES> 5
<STATE> 2
<MEAN> 25
 -3.056282e+000 -9.963446e-001 2.046655e-001 -1.218038e-001 -9.198975e-001 -6.695858e-001 3.557174e+000 -9.292027e-002 1.918521e+000 -1.539050e+000 1.794646e+000 -2.661014e-001 6.705320e-001 -1.253313e+000 3.476464e-001 -5.193331e-001 -7.847057e-001 -4.530140e-001 2.298219e-001 7.432637e-001 -7.624034e-001 -1.056388e+000 -8.744721e-001 -1.206962e+000 2.350773e+000
<VARIANCE> 25
 8.350024e+001 3.107981e+001 4.656833e+001 2.129290e+001 3.076228e+001 4.134516e+001 2.784914e+001 4.072989e+001 3.968510e+001 2.854913e+001 3.100395e+001 4.152205e+001 4.943758e+000 2.877920e+000 3.002305e+000 1.496965e+000 3.869451e+000 2.953722e+000 2.559848e+000 3.519803e+000 6.254709e+000 3.573951e+000 4.351247e+000 5.868855e+000 5.564834e+000
<GCONST> 1.059387e+002
<STATE> 3
<MEAN> 25
 5.592683e+000 -9.177519e+000 -2.321814e+000 -1.845503e+000 -2.580163e+000 -8.154892e-001 4.201032e+000 5.093976e+000 -1.986337e+000 -7.657452e+000 -6.824604e+000 -8.783369e+000 6.417326e-001 -4.364130e-001 -3.133698e-001 -4.874025e-002 -1.100950e-002 7.673825e-002 -2.216081e-001 1.865369e-001 4.343387e-002 -5.015922e-001 -5.339357e-001 -4.982953e-001 7.880395e-001
<VARIANCE> 25
 1.145251e+001 3.368103e+001 3.250718e+001 1.549677e+001 3.018861e+001 2.937993e+001 2.429807e+001 3.268068e+001 2.964937e+001 2.338861e+001 3.418246e+001 3.687641e+001 9.363925e-001 1.574327e+000 1.191958e+000 1.329838e+000 2.155575e+000 1.756290e+000 1.247044e+000 2.030923e+000 1.738723e+000 1.758137e+000 2.003848e+000 2.879610e+000 3.276047e+000
<GCONST> 9.243615e+001
<STATE> 4
<MEAN> 25
 6.634060e+000 -6.968147e+000 -2.926252e+000 1.285367e+000 -2.587540e+000 -1.969487e+000 2.701754e+000 2.712664e+000 -1.136386e+000 -5.608925e+000 -4.980999e+000 -6.924115e+000 -2.897289e-001 1.113856e+000 3.661944e-001 5.782998e-001 3.134459e-001 -2.137954e-001 -1.366468e-001 -1.047170e+000 -1.248710e-001 1.043048e+000 3.244997e-001 6.700889e-001 -1.569310e+000
<VARIANCE> 25
 2.176089e+001 3.292490e+001 5.592583e+001 2.907547e+001 3.272077e+001 4.019391e+001 3.630524e+001 5.411504e+001 5.891346e+001 3.640047e+001 3.880508e+001 4.081906e+001 2.211959e+000 2.109940e+000 1.994665e+000 2.639647e+000 2.872694e+000 2.775135e+000 2.299275e+000 4.743083e+000 3.761822e+000 3.663416e+000 1.776145e+000 3.573451e+000 2.878678e+000
<GCONST> 1.029138e+002
<TRANSP> 5
 0.000000e+000 1.000000e+000 0.000000e+000 0.000000e+000 0.000000e+000
 0.000000e+000 7.304623e-001 2.695377e-001 0.000000e+000 0.000000e+000
 0.000000e+000 0.000000e+000 8.125548e-001 1.874452e-001 0.000000e+000
 0.000000e+000 0.000000e+000 0.000000e+000 7.963036e-001 2.036964e-001
 0.000000e+000 0.000000e+000 0.000000e+000 0.000000e+000 0.000000e+000
<ENDHMM>
~h "ah"
<BEGINHMM>
<NUMSTATES> 5
<STATE> 2
<MEAN> 25
 2.736104e+000 -2.285660e+000 -1.301968e+000 -1.645407e+000 -1.674665e+000 -2.295048e+000 -8.704920e-001 1.351141e+000 4.417807e-001 -7.379533e-001 -3.076655e+000 -4.426015e+000 1.007330e+000 6.814597e-003 -2.646681e-001 -3.640020e-001 -1.858976e-002 3.620645e-005 -3.579890e-001 -2.486096e-001 -3.846252e-001 1.191194e-001 -4.221461e-001 -7.389940e-001 5.773458e-001
<VARIANCE> 25
 6.305186e+001 4.775013e+001 5.900286e+001 4.031933e+001 3.140345e+001 5.666338e+001 4.423540e+001 4.948354e+001 4.230426e+001 2.453008e+001 3.661571e+001 5.862199e+001 4.965567e+000 3.357108e+000 2.815902e+000 3.268252e+000 3.122006e+000 4.330016e+000 3.384416e+000 4.087163e+000 4.110974e+000 2.860654e+000 3.193773e+000 3.835756e+000 4.995696e+000
<GCONST> 1.083660e+002
<STATE> 3
<MEAN> 25
 5.598173e+000 -5.650328e-001 -3.336292e-001 -8.968351e-001 -1.070461e+000 -1.232863e+000 -2.174931e+000 -1.348382e+000 -8.988658e-001 -6.536207e-002 -3.247568e+000 -4.794817e+000 3.432448e-001 8.403162e-001 -4.754330e-002 5.853619e-002 5.352748e-001 4.503624e-001 2.822529e-001 -7.369454e-001 -8.394986e-001 4.528921e-001 2.991119e-001 1.913672e-001 -5.910441e-001
<VARIANCE> 25
 3.773553e+001 3.856353e+001 5.353019e+001 4.844691e+001 2.474920e+001 5.509059e+001 4.082190e+001 4.956572e+001 4.650545e+001 3.071178e+001 3.391502e+001 4.830602e+001 3.459851e+000 2.397444e+000 2.919807e+000 3.973435e+000 2.900244e+000 3.620626e+000 2.721927e+000 5.001970e+000 4.979087e+000 3.117395e+000 2.649867e+000 3.505915e+000 3.623599e+000
<GCONST> 1.063745e+002
<STATE> 4
<MEAN> 25
 2.138365e+000 8.365601e-001 1.322541e-001 2.579164e+000 1.552428e+000 8.271635e-001 9.093593e-001 -5.782079e-001 -1.847027e-001 1.574272e+000 -3.451432e-001 -9.781834e-001 -1.138807e-001 3.181626e-001 -2.562363e-002 -5.774549e-002 2.887906e-001 1.569886e-001 8.776568e-002 -2.669150e-001 -4.214561e-001 9.465193e-002 2.880569e-001 2.537293e-001 -3.619466e-001
<VARIANCE> 25
 4.985540e+001 2.254467e+001 3.257020e+001 5.262360e+001 2.099775e+001 3.734134e+001 3.606731e+001 5.552881e+001 5.572270e+001 3.127736e+001 3.622398e+001 4.195667e+001 1.741312e+000 1.887562e+000 1.532310e+000 2.564812e+000 1.820247e+000 2.492281e+000 2.148936e+000 3.141006e+000 3.238600e+000 2.636203e+000 2.156058e+000 2.348782e+000 1.302832e+000
<GCONST> 9.948603e+001
<TRANSP> 5
 0.000000e+000 1.000000e+000 0.000000e+000 0.000000e+000 0.000000e+000
 0.000000e+000 6.129980e-001 3.870020e-001 0.000000e+000 0.000000e+000
 0.000000e+000 0.000000e+000 3.119697e-001 6.880303e-001 0.000000e+000
 0.000000e+000 0.000000e+000 0.000000e+000 5.982671e-001 4.017329e-001
 0.000000e+000 0.000000e+000 0.000000e+000 0.000000e+000 0.000000e+000
<ENDHMM>
~h "ao"
<BEGINHMM>
<NUMSTATES> 5
<STATE> 2
<MEAN> 25
 2.621335e+000 2.154209e+000 -5.188152e+000 -7.680888e+000 9.044160e-001 7.835393e+000 1.947471e+000 -1.898384e+000 1.145369e+000 -2.575885e+000 5.887405e-001 -8.441279e-001 3.752885e+000 1.039254e+000 -1.483391e-001 -3.917290e+000 -3.073945e+000 1.110079e+000 -2.419838e-001 1.561833e-002 -1.300752e+000 -1.287089e+000 -1.472468e-001 -9.530897e-001 1.060259e+000
<VARIANCE> 25
 5.759849e+001 3.563177e+001 2.773562e+001 8.898536e+001 7.097098e+001 4.396499e+001 2.006055e+001 1.916961e+001 3.594194e+001 1.659002e+001 1.418981e+001 2.324405e+001 4.550854e+000 1.981936e+000 1.309447e+000 4.764294e+000 5.119379e+000 7.075313e+000 2.123927e+000 1.406595e+000 2.484838e+000 1.692447e+000 1.373759e+000 2.044526e+000 3.400910e+000
<GCONST> 9.997925e+001
<STATE> 3
<MEAN> 25
 1.132154e+001 3.095751e+000 -6.616240e+000 -2.167371e+001 -7.462390e+000 1.333642e+001 6.311893e-001 -2.315364e+000 -1.250717e+000 -6.092445e+000 1.030492e+000 -4.471653e+000 3.780326e-001 2.903750e-001 8.757280e-002 -9.004160e-001 -1.125775e+000 -1.749628e-001 3.865284e-002 5.242943e-001 2.338592e-001 -1.618364e-001 -4.655985e-002 -6.067831e-002 1.870914e-001
<VARIANCE> 25
 1.019693e+001 4.238649e+001 1.890396e+001 3.574716e+001 4.055689e+001 4.746475e+001 1.991640e+001 1.308002e+001 2.080109e+001 2.299578e+001 1.477046e+001 1.550387e+001 6.892827e-001 7.682418e-001 6.159107e-001 2.163635e+000 1.768527e+000 1.720265e+000 7.582136e-001 1.428842e+000 1.199188e+000 1.272623e+000 1.276536e+000 1.109218e+000 7.507594e-001
<GCONST> 8.458898e+001
<STATE> 4
<MEAN> 25
 1.102724e+001 5.847183e+000 -6.022371e+000 -1.730137e+001 -9.624285e+000 4.113615e+000 1.336892e+000 2.722929e+000 -1.804873e+000 -4.347140e+000 1.995118e-001 -9.967723e-001 2.333614e-002 -1.583595e-002 -2.080874e-001 4.087035e-001 4.703781e-001 -2.604409e-001 -6.563756e-002 5.451495e-002 -2.328294e-001 8.829458e-002 1.391037e-001 3.839889e-001 -1.251668e-001
<VARIANCE> 25
 8.779579e+000 2.329502e+001 1.726747e+001 7.156122e+001 2.771670e+001 4.730123e+001 2.165938e+001 1.576008e+001 3.554917e+001 2.553607e+001 2.410013e+001 1.901294e+001 1.428869e-001 5.636513e-001 6.374691e-001 9.247561e-001 1.198714e+000 1.459728e+000 1.237475e+000 1.252327e+000 1.460760e+000 1.200452e+000 1.500564e+000 1.135384e+000 1.438100e-001
<GCONST> 8.144209e+001
<TRANSP> 5
 0.000000e+000 1.000000e+000 0.000000e+000 0.000000e+000 0.000000e+000
 0.000000e+000 7.029318e-001 2.970682e-001 0.000000e+000 0.000000e+000
 0.000000e+000 0.000000e+000 7.159066e-001 2.840934e-001 0.000000e+000
 0.000000e+000 0.000000e+000 0.000000e+000 9.349761e-001 6.502391e-002
 0.000000e+000 0.000000e+000 0.000000e+000 0.000000e+000 0.000000e+000
<ENDHMM>
~h "aw"
<BEGINHMM>
<NUMSTATES> 5
<STATE> 2
<MEAN> 25
 7.521608e+000 -3.294852e+000 -4.795497e+000 -2.326581e+000 -2.439841e-001 6.966422e+000 -3.543133e+000 2.814148e+000 2.829135e+000 -2.057593e+000 -3.011567e+000 -9.261305e+000 3.480110e-001 7.156028e-001 -4.738770e-001 8.251341e-002 1.245850e-001 4.698375e-001 -8.595679e-001 -9.635292e-001 -3.273391e-001 -1.231537e-001 9.524571e-001 1.937571e-001 -5.304920e-001
<VARIANCE> 25
 4.905571e+000 1.914846e+001 2.096996e+001 3.217881e+001 2.443449e+001 5.868969e+001 6.719276e+001 4.579681e+001 2.257600e+001 7.487141e+001 5.079721e+001 1.810805e+001 2.559430e-001 8.239732e-001 5.593541e-001 1.027074e+000 1.456833e+000 1.078702e+000 2.075574e+000 2.034991e+000 2.016820e+000 2.559093e+000 3.844919e+000 1.512639e+000 2.775052e-001
<GCONST> 8.846276e+001
<STATE> 3
<MEAN> 25
 9.711480e+000 4.986111e+000 -3.847682e+000 -9.208670e-001 -1.162390e+000 5.048192e+000 -5.486146e+000 -8.530829e+000 -7.054690e+000 -2.666194e+000 4.586623e+000 -5.758464e+000 -3.650502e-001 1.099573e-001 1.149917e+000 1.075578e+000 3.313218e-001 -1.718160e+000 2.981881e-001 -4.996815e-001 -4.796334e-001 3.988640e-004 -1.125681e+000 5.347133e-001 -1.132236e+000
<VARIANCE> 25
 4.719617e+000 1.866732e+001 2.018325e+001 2.021614e+001 1.477520e+001 5.411842e+001 7.863688e+001 3.526247e+001 4.103255e+001 6.045180e+001 5.205771e+001 1.932148e+001 5.779517e-001 6.897246e-001 1.095362e+000 2.653812e+000 1.813621e+000 2.179691e+000 3.434861e+000 2.767784e+000 3.910713e+000 3.975420e+000 4.245280e+000 1.813428e+000 4.211155e-001
<GCONST> 9.347224e+001
<STATE> 4
<MEAN> 25
 2.891922e+000 1.881421e+000 1.047511e+000 3.861642e+000 3.355453e+000 -6.961030e-001 -1.699201e+000 -2.405748e+000 -3.611861e-001 -9.942839e-001 -1.220289e+000 -4.788694e-001 -1.146515e+000 -1.051336e+000 4.901353e-001 1.275308e-001 2.593378e-001 -8.182367e-002 1.294975e+000 1.438776e+000 1.629899e+000 3.790606e-001 -5.246229e-002 1.111125e+000 -6.672276e-001
<VARIANCE> 25
 2.287442e+001 1.353346e+001 1.704446e+001 1.385061e+001 1.111439e+001 1.630307e+001 3.247783e+001 4.266203e+001 3.650867e+001 2.017259e+001 2.749041e+001 2.480047e+001 4.728325e-001 1.269116e+000 3.293594e+000 2.249522e+000 1.365468e+000 2.883787e+000 4.088985e+000 3.690061e+000 2.442762e+000 3.945261e+000 2.061625e+000 1.752487e+000 7.553301e-001
<GCONST> 9.155242e+001
<TRANSP> 5
 0.000000e+000 1.000000e+000 0.000000e+000 0.000000e+000 0.000000e+000
 0.000000e+000 9.113409e-001 8.865913e-002 0.000000e+000 0.000000e+000
 0.000000e+000 0.000000e+000 8.354764e-001 1.645236e-001 0.000000e+000
 0.000000e+000 0.000000e+000 0.000000e+000 6.915077e-001 3.084923e-001
 0.000000e+000 0.000000e+000 0.000000e+000 0.000000e+000 0.000000e+000
<ENDHMM>
~h "ay"
<BEGINHMM>
<NUMSTATES> 5
<STATE> 2
<MEAN> 25
 8.718731e+000 -4.838924e+000 2.270147e+000 -9.948993e-002 -8.205898e+000 -4.255743e+000 -4.707820e+000 4.289965e+000 -1.959450e+000 -3.040208e+000 -3.061928e+000 -4.731974e+000 3.397402e-001 -3.715622e-001 9.586165e-002 -2.199698e-001 -4.825925e-001 1.045561e-001 -1.158313e-001 6.406689e-001 5.329660e-002 -2.457895e-001 -3.905494e-001 -4.783024e-001 4.881803e-001
<VARIANCE> 25
 2.148881e+001 4.026737e+001 6.176075e+001 2.894969e+001 5.651016e+001 4.684089e+001 4.125547e+001 6.490199e+001 6.584995e+001 2.822685e+001 2.371733e+001 4.432079e+001 1.914694e+000 2.439108e+000 5.038370e+000 1.909902e+000 2.586115e+000 3.248025e+000 2.717818e+000 6.443169e+000 5.503760e+000 2.619677e+000 2.115192e+000 2.950635e+000 1.233465e+000
<GCONST> 1.039638e+002
<STATE> 3
<MEAN> 25
 8.257321e+000 -4.210440e+000 8.646849e-001 -1.684537e+000 -8.449059e+000 -4.409801e+000 -3.253723e+000 5.184373e+000 6.128417e-001 -1.299687e+000 -3.288131e+000 -6.310174e+000 -3.916957e-001 8.300397e-001 2.632932e-001 6.213943e-003 7.680030e-001 5.856622e-001 -6.909685e-002 -1.059949e+000 -4.082989e-001 3.046443e-001 2.223834e-001 -2.435117e-002 -1.024795e+000
<VARIANCE> 25
 2.051772e+001 2.883502e+001 5.974108e+001 2.766688e+001 4.192410e+001 6.116647e+001 4.474848e+001 3.775135e+001 5.327800e+001 1.662684e+001 4.290743e+001 6.656480e+001 1.654405e+000 1.974866e+000 2.783616e+000 2.183438e+000 3.904342e+000 3.784331e+000 2.619908e+000 2.534264e+000 2.571996e+000 1.285805e+000 2.730726e+000 3.453227e+000 2.124037e+000
<GCONST> 1.015332e+002
<STATE> 4
<MEAN> 25
 1.036070e+001 -4.058979e+000 -2.419444e+000 -4.255885e+000 -3.604953e+000 2.825020e+000 -4.848022e+000 9.373956e-001 -2.453009e+000 -4.848261e+000 -1.933458e+000 -9.718414e+000 -1.856222e-001 2.372841e-001 5.109301e-001 1.994679e-001 -3.485335e-002 -2.549958e-001 1.761940e-001 -2.376327e-001 -3.954264e-001 5.527134e-002 1.037727e-001 3.342408e-002 -3.211630e-001
<VARIANCE> 25
 1.460640e+001 3.494478e+001 8.302120e+001 3.372566e+001 6.351284e+001 5.973478e+001 3.080144e+001 5.244906e+001 8.414190e+001 3.144953e+001 2.807873e+001 4.632233e+001 4.753554e-001 9.389023e-001 1.525352e+000 1.773643e+000 2.184452e+000 2.180954e+000 1.636068e+000 2.245591e+000 1.803313e+000 1.419546e+000 1.538419e+000 1.827680e+000 3.382887e-001
<GCONST> 9.474043e+001
<TRANSP> 5
 0.000000e+000 1.000000e+000 0.000000e+000 0.000000e+000 0.000000e+000
 0.000000e+000 8.011500e-001 1.988500e-001 0.000000e+000 0.000000e+000
 0.000000e+000 0.000000e+000 7.232075e-001 2.767925e-001 0.000000e+000
 0.000000e+000 0.000000e+000 0.000000e+000 8.851249e-001 1.148751e-001
 0.000000e+000 0.000000e+000 0.000000e+000 0.000000e+000 0.000000e+000
<ENDHMM>
~h "ch"
<BEGINHMM>
<NUMSTATES> 5
<STATE> 2
<MEAN> 25
 -3.255745e+000 -1.772908e+000 -6.633465e-001 4.078343e+000 2.302803e+000 7.355793e-001 3.868756e+000 2.520811e+000 4.731769e+000 1.741917e+000 1.407062e-001 3.388451e+000 -2.372414e-001 1.305321e-003 7.613914e-002 -1.384942e-001 1.807521e-001 4.565879e-001 -8.063193e-002 -2.289042e-002 3.214716e-001 2.820410e-001 3.188912e-001 -3.771684e-002 -5.069941e-001
<VARIANCE> 25
 6.912019e+000 8.796560e+000 1.149324e+001 8.887261e+000 1.196889e+001 1.297763e+001 1.422884e+001 2.150626e+001 9.877690e+000 1.892578e+001 1.602181e+001 1.386448e+001 6.218231e-001 1.073373e+000 7.455522e-001 1.745106e+000 1.380359e+000 2.443666e+000 1.813618e+000 1.928349e+000 1.608958e+000 2.218999e+000 1.480229e+000 1.562470e+000 2.441766e+000
<GCONST> 8.141472e+001
<STATE> 3
<MEAN> 25
 -7.792295e+000 -2.944525e+000 1.926608e+000 -2.205115e+000 2.141573e+000 6.197258e+000 -1.205516e+000 5.598674e-001 4.427783e+000 -2.394141e+000 2.412913e+000 3.605298e+000 -3.229092e+000 6.222579e-001 1.583284e+000 -1.602202e+000 -7.058771e-001 1.279625e+000 -8.272498e-001 -1.739971e+000 9.183254e-001 -8.726958e-001 4.669242e-001 3.596533e-002 2.287196e+000
<VARIANCE> 25
 4.788978e+001 3.114391e+001 1.653104e+001 2.486436e+001 1.930063e+001 2.091216e+001 3.995297e+001 2.694654e+001 2.451187e+001 1.794337e+001 8.108452e+000 4.209604e+000 3.577960e+000 3.177247e+000 1.414858e+000 2.020774e+000 3.110312e+000 2.544475e+000 4.795970e+000 2.208554e+000 1.029565e+000 2.394585e+000 1.182652e+000 1.456480e+000 4.804747e+000
<GCONST> 9.279762e+001
<STATE> 4
<MEAN> 25
 -1.773112e+001 1.653457e+000 9.131823e+000 -3.002516e+000 -5.203628e+000 3.068064e+000 4.787110e+000 -7.329102e+000 5.038200e+000 -2.429977e+000 2.531601e+000 -1.476255e+000 8.568662e-001 1.518035e-001 4.126126e-001 1.024515e+000 -7.819200e-001 -1.696308e+000 3.675092e-001 -1.718570e-001 -7.314405e-001 -3.222758e-001 -3.743064e-001 -6.285654e-001 8.251894e-001
<VARIANCE> 25
 4.096921e+001 9.470686e+000 1.151684e+001 2.204150e+001 1.780904e+001 3.357219e+001 2.126222e+001 1.986133e+001 1.582946e+001 9.435403e+000 1.656969e+001 1.435724e+001 7.871105e+000 1.439412e+000 1.300881e+000 1.549139e+000 2.762875e+000 3.306027e+000 4.038676e+000 3.267431e+000 1.781188e+000 1.572740e+000 1.125842e+000 1.213934e+000 2.774801e+000
<GCONST> 9.064516e+001
<TRANSP> 5
 0.000000e+000 1.000000e+000 0.000000e+000 0.000000e+000 0.000000e+000
 0.000000e+000 9.055814e-001 9.441864e-002 0.000000e+000 0.000000e+000
 0.000000e+000 0.000000e+000 6.741196e-001 3.258804e-001 0.000000e+000
 0.000000e+000 0.000000e+000 0.000000e+000 8.466690e-001 1.533310e-001
 0.000000e+000 0.000000e+000 0.000000e+000 0.000000e+000 0.000000e+000
<ENDHMM>
~h "dh"
<BEGINHMM>
<NUMSTATES> 5
<STATE> 2
<MEAN> 25
 4.063998e+000 2.936716e+000 5.274085e+000 4.805317e+000 -3.490710e+000 -6.887553e+000 -4.152221e+000 -4.214079e-001 -2.240136e+000 -1.151465e+000 -1.187525e+000 -1.559925e+000 7.875786e-001 -1.302907e+000 2.150025e-001 -5.284675e-001 -1.406409e+000 -9.198748e-001 -9.584620e-001 1.227246e+000 8.278700e-001 3.079603e-002 4.507462e-002 -1.349427e-001 1.240717e+000
<VARIANCE> 25
 3.102650e+001 2.926748e+001 3.388859e+001 2.457875e+001 3.165003e+001 3.203637e+001 3.631156e+001 3.525486e+001 1.851266e+001 1.937374e+001 3.428257e+001 2.600208e+001 3.627346e+000 3.713881e+000 3.797283e+000 4.200367e+000 2.718907e+000 3.692756e+000 3.047508e+000 3.832664e+000 1.553560e+000 3.248280e+000 2.133921e+000 2.933664e+000 2.135587e+000
<GCONST> 1.005809e+002
<STATE> 3
<MEAN> 25
 4.739554e+000 8.066805e-001 4.935400e+000 5.253508e+000 -6.473678e+000 -8.745182e+000 -5.437385e+000 2.411982e+000 8.279912e-001 -3.214355e+000 -3.520381e-002 5.281149e-001 5.011234e-001 -3.565918e-001 -1.287190e+000 8.073602e-001 -1.136440e-001 8.438886e-002 -6.109365e-001 1.833316e-001 2.164112e-001 -7.747921e-001 3.126617e-001 3.370705e-001 -5.524309e-002
<VARIANCE> 25
 8.260323e+000 4.091941e+001 2.804808e+001 3.166294e+001 3.342040e+001 3.350192e+001 3.724972e+001 2.096287e+001 1.598490e+001 2.172683e+001 4.043390e+001 4.370822e+001 1.157047e+000 1.326498e+000 1.884984e+000 3.444906e+000 1.941832e+000 1.255732e+000 1.217283e+000 1.695380e+000 8.985060e-001 2.154489e+000 9.270074e-001 2.598737e+000 9.019097e-001
<GCONST> 9.091926e+001
<STATE> 4
<MEAN> 25
 3.751174e+000 -3.681513e-001 1.094625e+000 5.157506e+000 -6.022399e+000 -5.316137e+000 -4.580847e+000 1.016324e+000 2.081640e+000 -1.832967e+000 -1.070559e+000 -1.967252e+000 6.932664e-001 -4.340990e-001 -2.406470e-001 6.536011e-001 -5.976869e-001 -4.288323e-001 -5.857114e-001 -3.666536e-002 -7.483202e-002 -9.723584e-002 5.915862e-001 2.564268e-001 -1.924739e-001
<VARIANCE> 25
 3.286486e+001 3.052883e+001 1.432760e+001 4.378400e+001 4.568856e+001 5.438334e+001 4.956851e+001 2.230984e+001 9.620254e+000 2.167096e+001 2.905302e+001 5.050418e+001 4.411060e+000 2.110950e+000 2.103430e+000 4.127835e+000 3.531284e+000 4.561024e+000 3.940184e+000 2.180392e+000 1.182536e+000 2.422314e+000 1.348767e+000 2.483388e+000 3.301149e+000
<GCONST> 9.953476e+001
<TRANSP> 5
 0.000000e+000 1.000000e+000 0.000000e+000 0.000000e+000 0.000000e+000
 0.000000e+000 7.845985e-001 2.154015e-001 0.000000e+000 0.000000e+000
 0.000000e+000 0.000000e+000 6.029555e-001 3.970445e-001 0.000000e+000
 0.000000e+000 0.000000e+000 0.000000e+000 5.737690e-001 4.262310e-001
 0.000000e+000 0.000000e+000 0.000000e+000 0.000000e+000 0.000000e+000
<ENDHMM>
~h "eh"
<BEGINHMM>
<NUMSTATES> 5
<STATE> 2
<MEAN> 25
 5.195119e+000 -4.579512e+000 3.319440e+000 -1.188605e+000 -6.868733e+000 -7.194698e+000 -1.001121e-001 5.079104e+000 -4.295175e+000 -1.371680e+000 -2.573088e+000 -4.619371e+000 6.837663e-001 -4.040954e-001 1.438067e-001 -2.890095e-001 -2.853558e-001 -3.454883e-001 -3.270747e-001 2.841044e-001 -4.717358e-001 -3.574346e-001 -4.124856e-001 -8.000888e-001 5.696356e-001
<VARIANCE> 25
 2.737413e+001 2.776420e+001 3.710572e+001 3.626583e+001 5.422512e+001 5.062216e+001 5.906503e+001 3.827948e+001 4.439759e+001 3.736625e+001 2.619805e+001 3.448665e+001 2.855064e+000 3.232331e+000 3.639850e+000 2.528832e+000 4.717178e+000 3.736030e+000 4.433440e+000 3.958792e+000 4.404264e+000 2.969214e+000 2.600564e+000 4.224741e+000 4.652156e+000
<GCONST> 1.063275e+002
<STATE> 3
<MEAN> 25
 5.525376e+000 -1.809091e+000 5.425855e+000 -1.775099e+000 -6.451962e+000 -4.953343e+000 -1.482454e+000 2.848865e+000 -5.355994e+000 -3.178163e+000 -3.691606e+000 -6.333109e+000 -1.764875e-001 6.173622e-001 -3.005626e-001 2.549858e-001 8.508947e-001 5.936907e-001 -6.830892e-002 -6.796796e-001 2.208762e-001 4.604554e-002 -2.970024e-001 -1.331495e-002 -7.226347e-001
<VARIANCE> 25
 1.489750e+001 4.030788e+001 7.103166e+001 2.903557e+001 4.493689e+001 4.101941e+001 8.152424e+001 3.704032e+001 4.700255e+001 3.525835e+001 2.451562e+001 2.542712e+001 1.417292e+000 1.868944e+000 1.999783e+000 2.575977e+000 2.958221e+000 2.926920e+000 2.877675e+000 2.481950e+000 3.256111e+000 1.968526e+000 1.646661e+000 2.129412e+000 2.954464e+000
<GCONST> 1.002902e+002
<STATE> 4
<MEAN> 25
 2.200264e+000 1.026286e-001 2.357949e-001 -1.365040e-001 -5.069717e-001 -1.588221e+000 8.537223e-001 2.005531e+000 -7.354816e-001 -9.145081e-001 -3.370967e+000 -4.535055e+000 -1.339942e-001 5.752423e-001 -8.543842e-002 -2.144371e-001 4.617130e-001 7.130455e-001 -2.357603e-001 -1.120581e+000 -1.461527e-001 3.708102e-001 3.090878e-001 2.782759e-001 -4.499502e-001
<VARIANCE> 25
 5.431448e+001 3.452728e+001 3.576073e+001 2.473409e+001 4.843797e+001 4.245216e+001 4.440421e+001 2.547544e+001 3.600754e+001 3.255519e+001 2.635414e+001 4.090385e+001 3.265704e+000 1.460332e+000 2.143997e+000 2.773276e+000 2.925033e+000 4.260460e+000 2.479894e+000 3.993201e+000 3.467489e+000 2.944249e+000 1.714552e+000 2.161343e+000 2.142333e+000
<GCONST> 1.015331e+002
<TRANSP> 5
 0.000000e+000 1.000000e+000 0.000000e+000 0.000000e+000 0.000000e+000
 0.000000e+000 7.526373e-001 2.473627e-001 0.000000e+000 0.000000e+000
 0.000000e+000 0.000000e+000 7.484142e-001 2.515858e-001 0.000000e+000
 0.000000e+000 0.000000e+000 0.000000e+000 5.319541e-001 4.680459e-001
 0.000000e+000 0.000000e+000 0.000000e+000 0.000000e+000 0.000000e+000
<ENDHMM>
~h "er"
<BEGINHMM>
<NUMSTATES> 5
<STATE> 2
<MEAN> 25
 1.163498e+001 -5.943329e-001 -3.787148e+000 8.498488e+000 -1.297815e+000 -1.000154e+001 -1.519670e+001 5.094778e+000 1.513921e+000 -8.037408e+000 1.309981e+000 5.532444e+000 1.356401e-001 -3.793375e-002 -4.340670e-001 3.010705e-001 2.118455e-001 -1.586656e-001 -6.403348e-001 4.457319e-001 3.437522e-001 -2.006812e-001 -2.281721e-001 1.064393e-001 -2.252462e-001
<VARIANCE> 25
 1.415014e+001 1.445017e+001 4.607380e+001 4.442624e+001 4.379810e+001 4.734593e+001 5.570461e+001 4.831995e+001 4.158423e+001 2.685032e+001 3.732085e+001 1.780078e+001 1.389549e+000 7.041199e-001 1.712706e+000 1.115618e+000 1.924076e+000 2.011484e+000 3.538728e+000 1.921450e+000 2.006470e+000 1.522821e+000 1.557517e+000 1.249506e+000 3.746256e-001
<GCONST> 9.263998e+001
<STATE> 3
<MEAN> 25
 5.734323e+000 -2.830056e-001 -1.216541e+000 9.309593e+000 -1.640262e+000 -7.773421e+000 -8.071768e+000 6.160204e+000 1.190046e+000 -7.129332e+000 -2.411908e+000 4.388343e+000 -1.199997e+000 -2.166716e-001 4.480908e-001 -8.548602e-001 5.481238e-002 1.209699e+000 1.929942e+000 -5.032974e-001 -4.676582e-001 6.047466e-001 -4.285573e-001 -7.386011e-001 -6.893778e-001
<VARIANCE> 25
 2.406051e+001 2.135435e+001 2.248765e+001 3.847768e+001 3.017171e+001 5.875695e+001 6.220667e+001 3.978455e+001 3.592194e+001 3.133678e+001 3.122766e+001 2.775810e+001 9.872921e-001 1.008880e+000 1.755316e+000 2.229799e+000 2.720594e+000 3.708894e+000 3.000963e+000 3.034302e+000 2.545545e+000 2.307574e+000 2.710376e+000 1.928796e+000 8.286621e-001
<GCONST> 9.715472e+001
<STATE> 4
<MEAN> 25
 -1.074269e+000 -3.345112e+000 -3.626518e+000 -9.554815e-001 6.118758e-001 1.216516e-001 -3.985148e-001 1.740037e+000 2.196430e+000 8.993061e-001 -2.104333e+000 7.007704e-001 -1.978547e-001 -1.479102e-002 -1.858160e-003 -2.778288e-001 1.076530e-001 2.509484e-001 2.421084e-001 -1.571129e-001 5.744043e-002 3.447826e-001 1.323501e-001 -1.149779e-001 -1.133230e-001
<VARIANCE> 25
 1.093292e+001 5.949818e+000 1.380646e+001 1.632853e+001 1.800162e+001 2.159430e+001 1.903620e+001 2.873345e+001 2.206504e+001 2.455581e+001 1.903681e+001 1.806104e+001 5.709426e-001 5.370481e-001 9.785792e-001 1.395574e+000 1.255536e+000 1.592772e+000 1.957024e+000 1.988876e+000 1.754375e+000 1.635108e+000 1.705463e+000 1.826074e+000 2.554339e-001
<GCONST> 8.194907e+001
<TRANSP> 5
 0.000000e+000 1.000000e+000 0.000000e+000 0.000000e+000 0.000000e+000
 0.000000e+000 9.075906e-001 9.240941e-002 0.000000e+000 0.000000e+000
 0.000000e+000 0.000000e+000 8.123733e-001 1.876267e-001 0.000000e+000
 0.000000e+000 0.000000e+000 0.000000e+000 9.206553e-001 7.934470e-002
 0.000000e+000 0.000000e+000 0.000000e+000 0.000000e+000 0.000000e+000
<ENDHMM>
~h "ey"
<BEGINHMM>
<NUMSTATES> 5
<STATE> 2
<MEAN> 25
 3.228474e+000 1.636074e-001 1.234938e+001 -3.340216e+000 -1.361334e+001 -1.599956e+000 -2.390338e+000 1.201470e+000 -9.148929e+000 2.521875e+000 1.149917e+000 -3.145750e+000 -9.907843e-003 2.494769e-001 1.097402e+000 -4.022131e-001 -8.552126e-001 6.019993e-001 -3.679122e-001 -7.192842e-001 -8.247768e-001 3.536511e-001 -5.219009e-002 -4.232192e-001 2.846906e-001
<VARIANCE> 25
 1.291404e+001 1.732763e+001 2.936850e+001 3.251814e+001 3.751628e+001 4.341740e+001 5.798660e+001 3.421049e+001 4.205685e+001 1.976126e+001 3.268727e+001 2.025720e+001 9.283898e-001 7.941709e-001 1.555089e+000 1.505106e+000 2.916184e+000 1.730086e+000 2.640165e+000 2.252905e+000 2.854285e+000 1.099039e+000 1.542234e+000 1.284092e+000 1.756706e+000
<GCONST> 9.276302e+001
<STATE> 3
<MEAN> 25
 1.942405e+000 3.237156e+000 1.660419e+001 -4.584511e+000 -1.366087e+001 2.790234e+000 -3.384524e+000 -5.791868e+000 -1.055564e+001 2.055450e+000 -1.104049e-001 -5.595338e+000 1.745780e-002 1.728958e-001 1.741778e-001 1.575845e-001 4.688444e-001 -8.025728e-002 -1.136182e-001 -4.372734e-001 3.831192e-002 -3.432279e-001 -4.983748e-002 -1.524593e-001 -4.595321e-001
<VARIANCE> 25
 6.665927e+000 1.180107e+001 2.728912e+001 3.999484e+001 1.983157e+001 4.828174e+001 5.610409e+001 3.360546e+001 3.919059e+001 1.598850e+001 3.819522e+001 2.259080e+001 5.025021e-001 5.149961e-001 9.265452e-001 8.527337e-001 1.190793e+000 1.287246e+000 1.437104e+000 1.840459e+000 1.641638e+000 1.130918e+000 1.167943e+000 9.831588e-001 4.347323e-001
<GCONST> 8.465053e+001
<STATE> 4
<MEAN> 25
 1.918825e+000 9.017444e-001 8.306290e+000 -1.171270e-001 -6.439387e+000 5.184330e-001 6.560370e-001 -2.671118e+000 -5.090214e+000 -1.124599e+000 3.033391e-003 -5.385564e+000 -6.076460e-002 -1.361495e-001 -1.057671e+000 6.755819e-001 1.131575e+000 -3.273076e-001 1.037903e-001 3.228522e-001 6.772584e-001 -3.403447e-001 -1.752104e-001 2.929620e-001 -7.046008e-001
<VARIANCE> 25
 8.740853e+000 2.524680e+001 8.289217e+001 3.830649e+001 4.118456e+001 4.379035e+001 5.539489e+001 6.691539e+001 4.470377e+001 2.628771e+001 2.588746e+001 3.133963e+001 1.560336e+000 6.677780e-001 1.941990e+000 3.133079e+000 2.300323e+000 2.891485e+000 2.971788e+000 1.922115e+000 2.854652e+000 2.474303e+000 2.016720e+000 1.677281e+000 9.697252e-001
<GCONST> 9.751704e+001
<TRANSP> 5
 0.000000e+000 1.000000e+000 0.000000e+000 0.000000e+000 0.000000e+000
 0.000000e+000 8.254048e-001 1.745952e-001 0.000000e+000 0.000000e+000
 0.000000e+000 0.000000e+000 8.128742e-001 1.871258e-001 0.000000e+000
 0.000000e+000 0.000000e+000 0.000000e+000 7.703216e-001 2.296784e-001
 0.000000e+000 0.000000e+000 0.000000e+000 0.000000e+000 0.000000e+000
<ENDHMM>
~h "hh"
<BEGINHMM>
<NUMSTATES> 5
<STATE> 2
<MEAN> 25
 3.913037e+000 -6.665251e+000 -4.806480e+000 -3.257410e+000 1.152324e+000 5.819822e+000 -3.180766e-001 8.425370e-001 1.076946e+000 -9.373658e-001 -1.133274e+000 -8.179214e+000 -9.190802e-003 -4.064414e-001 -1.368279e-001 -7.808594e-003 -4.847821e-002 9.232085e-004 4.179787e-001 2.821963e-001 1.622455e-001 -1.117216e-001 1.574327e-001 -1.791603e-001 1.328848e-001
<VARIANCE> 25
 3.630996e+001 2.659553e+001 2.429216e+001 2.887677e+001 3.109196e+001 4.487462e+001 3.911857e+001 1.990606e+001 1.098289e+001 2.190157e+001 2.746667e+001 1.082495e+002 6.734623e-001 1.101527e+000 1.315155e+000 2.136332e+000 1.801030e+000 2.766043e+000 1.004840e+000 1.491922e+000 6.392335e-001 1.786010e+000 1.403025e+000 2.384592e+000 8.877714e-001
<GCONST> 9.071791e+001
<STATE> 3
<MEAN> 25
 -2.133205e+000 -3.269489e+000 -2.456498e+000 2.022379e+000 3.606232e+000 3.235223e+000 4.049611e+000 1.263627e+000 3.730559e+000 3.298035e-002 1.425776e+000 1.248795e+000 -7.048032e-002 -3.992869e-002 3.954739e-002 3.950582e-002 1.042255e-002 2.075073e-001 -9.158371e-002 4.078874e-002 -1.585372e-002 -8.471477e-002 -1.523300e-001 -1.159406e-001 1.038390e-003
<VARIANCE> 25
 2.307752e+001 2.206783e+001 2.569243e+001 1.665938e+001 4.053422e+001 3.379922e+001 2.009046e+001 3.317109e+001 2.230694e+001 2.851145e+001 2.887033e+001 4.933565e+001 4.650445e-001 9.882364e-001 1.160671e+000 8.374724e-001 8.658106e-001 2.729158e+000 1.433670e+000 1.758422e+000 1.385413e+000 2.578742e+000 1.414266e+000 5.981787e-001 4.141590e-001
<GCONST> 8.688352e+001
<STATE> 4
<MEAN> 25
 -4.842618e+000 -1.372229e+000 -8.506792e-001 2.559175e+000 2.286393e+000 2.505871e+000 3.888628e+000 1.730197e+000 4.220063e+000 1.612483e+000 1.980705e+000 3.220653e+000 8.932788e-002 -7.380926e-002 -4.620972e-002 -7.850183e-002 -1.348699e-001 5.413860e-005 1.026835e-001 6.882021e-002 -1.618770e-001 -3.373514e-002 -1.337496e-001 -1.644356e-001 1.799986e-001
<VARIANCE> 25
 8.784142e+000 1.331949e+001 8.245691e+000 1.019947e+001 1.107589e+001 1.379187e+001 2.036953e+001 1.948330e+001 1.439451e+001 1.659532e+001 1.627921e+001 1.962981e+001 7.253034e-001 1.072519e+000 7.452406e-001 7.937539e-001 1.019467e+000 1.457496e+000 1.843704e+000 1.921416e+000 1.646548e+000 1.662280e+000 1.506249e+000 1.430089e+000 5.695909e-001
<GCONST> 7.949253e+001
<TRANSP> 5
 0.000000e+000 1.000000e+000 0.000000e+000 0.000000e+000 0.000000e+000
 0.000000e+000 6.352808e-001 3.647192e-001 0.000000e+000 0.000000e+000
 0.000000e+000 0.000000e+000 4.186346e-001 5.813654e-001 0.000000e+000
 0.000000e+000 0.000000e+000 0.000000e+000 9.431000e-001 5.690002e-002
 0.000000e+000 0.000000e+000 0.000000e+000 0.000000e+000 0.000000e+000
<ENDHMM>
~h "ih"
<BEGINHMM>
<NUMSTATES> 5
<STATE> 2
<MEAN> 25
 2.328982e+000 9.724215e-001 5.922629e+000 1.029890e+000 -7.377123e+000 -5.896593e+000 -6.777930e-001 -2.249426e+000 -7.661046e+000 -1.780105e+000 9.996670e-002 -2.475906e+000 -2.648492e-001 1.151944e-001 6.732404e-002 3.531659e-001 2.561140e-001 3.402436e-001 1.084562e-001 -3.081889e-001 1.625363e-001 -1.353113e-001 4.352140e-003 -2.393538e-002 -5.637663e-001
<VARIANCE> 25
 3.669466e+001 2.718829e+001 4.371331e+001 3.372418e+001 7.261835e+001 7.529039e+001 4.410721e+001 5.693170e+001 7.683746e+001 2.980782e+001 2.459281e+001 3.536216e+001 3.788827e+000 3.165967e+000 6.054513e+000 3.461178e+000 9.086071e+000 6.839632e+000 4.699093e+000 5.655474e+000 1.032205e+001 3.228749e+000 2.736622e+000 2.228116e+000 8.509239e+000
<GCONST> 1.114796e+002
<STATE> 3
<MEAN> 25
 -2.229695e+000 -2.851802e-002 1.406379e+000 1.409210e+000 -6.393455e-001 -2.267312e+000 2.322556e+000 -8.481230e-001 8.570016e-003 6.957523e-001 -5.128964e-001 4.067481e-001 -3.528275e-001 -4.912871e-001 -4.505803e-001 -1.519450e-001 5.923016e-001 3.797297e-001 2.805052e-001 5.134406e-001 1.100016e+000 4.332028e-001 2.073712e-001 3.362653e-001 -2.865362e-001
<VARIANCE> 25
 3.733144e+001 3.484313e+001 2.541123e+001 2.674627e+001 2.682259e+001 3.169800e+001 5.059383e+001 4.793330e+001 3.598492e+001 3.108875e+001 2.184293e+001 3.346892e+001 2.835766e+000 2.377196e+000 3.084427e+000 2.524170e+000 2.582459e+000 3.499756e+000 2.980471e+000 3.546509e+000 4.160271e+000 3.070478e+000 2.180442e+000 2.123368e+000 3.736477e+000
<GCONST> 1.017109e+002
<STATE> 4
<MEAN> 25
 -1.331120e+000 -2.080128e+000 -9.938484e-001 6.570666e-001 1.502448e-001 -7.839105e-001 1.760033e+000 2.660624e+000 1.678664e+000 9.607811e-001 -3.925189e-001 -1.787127e-002 5.652133e-003 1.266488e-002 -2.170526e-001 1.000714e-001 4.124155e-001 3.711042e-001 -8.666134e-002 -4.053801e-002 2.490065e-001 1.560977e-001 1.219273e-001 1.157333e-001 -3.587967e-001
<VARIANCE> 25
 4.507448e+001 2.924062e+001 2.241014e+001 2.886089e+001 2.599255e+001 4.162404e+001 5.006650e+001 2.835752e+001 3.759742e+001 3.407677e+001 3.341517e+001 5.903153e+001 1.392898e+000 1.807217e+000 1.118211e+000 1.719813e+000 1.621927e+000 2.028680e+000 1.909714e+000 1.901136e+000 1.645626e+000 1.732580e+000 1.741196e+000 1.918226e+000 1.114162e+000
<GCONST> 9.500950e+001
<TRANSP> 5
 0.000000e+000 1.000000e+000 0.000000e+000 0.000000e+000 0.000000e+000
 0.000000e+000 7.698334e-001 2.301666e-001 0.000000e+000 0.000000e+000
 0.000000e+000 0.000000e+000 6.200391e-001 3.799609e-001 0.000000e+000
 0.000000e+000 0.000000e+000 0.000000e+000 7.691956e-001 2.308044e-001
 0.000000e+000 0.000000e+000 0.000000e+000 0.000000e+000 0.000000e+000
<ENDHMM>
~h "iy"
<BEGINHMM>
<NUMSTATES> 5
<STATE> 2
<MEAN> 25
 1.519787e+000 4.207461e+000 2.075011e+001 -3.691315e+000 -1.140188e+001 8.851534e-001 -1.128133e+001 -7.314113e+000 -1.159561e+001 -2.808690e+000 -5.778997e-002 -6.516605e+000 1.590513e-001 1.741302e-001 4.637290e-001 -2.260865e-001 -3.886946e-001 3.113225e-001 -4.096271e-001 -2.790979e-001 -3.322380e-001 -4.290975e-002 6.345907e-002 -4.291248e-001 1.029283e-001
<VARIANCE> 25
 8.783731e+000 1.046080e+001 3.053438e+001 2.836920e+001 2.652963e+001 2.674927e+001 3.888268e+001 2.370817e+001 2.093650e+001 2.467818e+001 1.720461e+001 1.898786e+001 8.238087e-001 1.131459e+000 1.913436e+000 1.619288e+000 2.343030e+000 1.946392e+000 1.550908e+000 1.494705e+000 1.495957e+000 1.343063e+000 9.534111e-001 1.250993e+000 9.272037e-001
<GCONST> 8.687628e+001
<STATE> 3
<MEAN> 25
 3.571366e+000 4.836581e+000 1.368558e+001 -4.423458e-001 -9.663026e+000 -2.073045e+000 -6.992016e+000 -6.541995e+000 -1.062673e+001 -2.863675e+000 6.756323e-001 -5.611295e+000 1.375932e-001 -1.266779e-001 -1.464562e+000 9.425589e-001 9.338297e-001 -4.404678e-001 9.509599e-001 5.834624e-001 7.612875e-001 1.352791e-001 -5.392357e-002 6.797939e-001 -8.020091e-001
<VARIANCE> 25
 1.982922e+001 2.223020e+001 7.670161e+001 6.156489e+001 3.594920e+001 3.317719e+001 3.355283e+001 2.982662e+001 4.342685e+001 2.367691e+001 3.126553e+001 2.705057e+001 1.101284e+000 1.608755e+000 2.335204e+000 2.551347e+000 3.082350e+000 2.567361e+000 2.760594e+000 2.379571e+000 4.091145e+000 2.157807e+000 2.068809e+000 2.641485e+000 1.124875e+000
<GCONST> 9.846534e+001
<STATE> 4
<MEAN> 25
 1.576222e+000 2.368996e+000 5.250108e+000 5.162529e+000 -2.981797e+000 -1.898343e+000 -2.253019e+000 -2.009931e+000 -2.577362e+000 -2.250749e+000 5.121104e-001 -1.001188e+000 -3.919571e-001 -3.163811e-001 -1.214555e+000 2.806900e-001 1.120747e+000 2.742009e-001 5.700089e-001 6.248235e-001 1.217329e+000 2.368970e-001 -1.217637e-001 4.345142e-001 -5.199524e-001
<VARIANCE> 25
 2.575169e+001 2.181606e+001 3.811078e+001 2.884722e+001 5.174302e+001 2.991202e+001 4.617242e+001 3.884233e+001 4.847503e+001 2.409365e+001 2.556121e+001 2.179106e+001 1.269665e+000 1.226358e+000 2.950795e+000 1.382957e+000 3.629488e+000 2.180277e+000 2.644114e+000 2.488009e+000 3.962073e+000 1.970752e+000 2.466668e+000 2.155067e+000 9.507993e-001
<GCONST> 9.697948e+001
<TRANSP> 5
 0.000000e+000 1.000000e+000 0.000000e+000 0.000000e+000 0.000000e+000
 0.000000e+000 9.016140e-001 9.838600e-002 0.000000e+000 0.000000e+000
 0.000000e+000 0.000000e+000 7.400450e-001 2.599550e-001 0.000000e+000
 0.000000e+000 0.000000e+000 0.000000e+000 6.946355e-001 3.053645e-001
 0.000000e+000 0.000000e+000 0.000000e+000 0.000000e+000 0.000000e+000
<ENDHMM>
~h "jh"
<BEGINHMM>
<NUMSTATES> 5
<STATE> 2
<MEAN> 25
 -1.438526e-001 -1.481304e+000 -1.716956e+000 2.409903e+000 -2.661214e+000 -3.088068e+000 7.011880e-001 -2.608768e+000 -3.227180e+000 2.088684e-001 1.340358e+000 1.408901e+000 9.011111e-001 2.703556e-001 1.023248e+000 -1.018409e+000 -1.738546e+000 -2.233620e+000 -1.239379e+000 -1.427692e+000 -2.151479e+000 1.430610e-001 -6.139047e-001 -1.581714e+000 4.647781e+000
<VARIANCE> 25
 2.092311e+001 1.462212e+001 4.290801e+001 2.617443e+001 3.662305e+001 6.676653e+001 1.904059e+001 5.197740e+001 4.264714e+001 2.582243e+001 7.682263e+000 1.297706e+001 1.569796e+000 5.951580e-001 5.048169e+000 7.618687e-001 4.909768e+000 5.249905e+000 1.743172e+000 6.995547e+000 4.412859e+000 2.052130e+000 7.239720e-001 7.107904e-001 1.261197e+001
<GCONST> 9.610287e+001
<STATE> 3
<MEAN> 25
 1.065778e+001 -2.166491e+000 2.557907e+000 -3.454157e+000 -5.731955e+000 -7.398116e+000 -1.018236e+001 -2.221647e+000 -4.257755e+000 2.103657e+000 -1.205671e+000 -6.943651e+000 3.959824e-001 1.167718e-002 1.112988e+000 -4.839804e-001 7.567380e-002 3.376028e-002 -7.598208e-001 3.613854e-001 -6.138429e-001 -5.827602e-003 -1.892115e-001 -2.162105e-001 -2.652967e-001
<VARIANCE> 25
 1.203632e+001 8.826185e+000 4.083422e+001 3.153457e+001 3.702581e+001 3.879357e+001 1.864693e+001 3.847973e+001 6.762225e+001 2.231813e+001 1.464803e+001 2.816335e+001 1.933361e+000 1.274763e+000 4.644877e+000 2.153886e+000 3.581877e+000 4.857348e+000 2.126736e+000 6.277610e+000 7.503968e+000 2.277503e+000 3.255311e+000 2.505570e+000 8.269390e-001
<GCONST> 9.836084e+001
<STATE> 4
<MEAN> 25
 -3.484726e+000 -3.891469e-001 6.720189e+000 -1.903524e+000 -2.556831e+000 1.478700e+000 -1.868330e+000 -1.536291e+000 -2.990240e+000 -4.012322e+000 3.161635e-001 -1.501160e+000 -2.597650e-001 2.408766e-001 -1.685956e-001 -1.642461e-001 1.469756e-001 6.799510e-001 2.526989e-001 -1.576768e-001 5.831287e-001 -1.974797e-001 8.020442e-002 -3.016586e-002 -3.443293e-002
<VARIANCE> 25
 9.320105e+001 4.055728e+001 8.547217e+001 4.462566e+001 3.949131e+001 9.125163e+001 3.610551e+001 3.146873e+001 9.299479e+001 1.806449e+001 2.734281e+001 3.040755e+001 9.877188e+000 4.068591e+000 2.140966e+000 5.715231e+000 3.799721e+000 8.184020e+000 3.494909e+000 3.758201e+000 5.088572e+000 1.986818e+000 2.197283e+000 2.687415e+000 5.602740e+000
<GCONST> 1.098285e+002
<TRANSP> 5
 0.000000e+000 1.000000e+000 0.000000e+000 0.000000e+000 0.000000e+000
 0.000000e+000 6.439984e-001 3.560016e-001 0.000000e+000 0.000000e+000
 0.000000e+000 0.000000e+000 8.248436e-001 1.751564e-001 0.000000e+000
 0.000000e+000 0.000000e+000 0.000000e+000 9.450845e-001 5.491553e-002
 0.000000e+000 0.000000e+000 0.000000e+000 0.000000e+000 0.000000e+000
<ENDHMM>
~h "ng"
<BEGINHMM>
<NUMSTATES> 5
<STATE> 2
<MEAN> 25
 4.423756e+000 5.817546e-001 -2.014712e+000 6.165349e+000 3.464037e+000 6.773322e-001 1.989393e+000 -5.599825e+000 -1.434125e+000 -5.910399e-004 -3.312126e+000 -4.309825e+000 -4.096777e-001 -1.708985e-002 1.024871e-001 6.840738e-002 2.133106e-001 3.242089e-001 1.923038e-001 -3.797372e-002 1.445262e-003 1.416224e-001 1.360939e-001 4.122021e-001 -5.562637e-001
<VARIANCE> 25
 1.541521e+001 1.602917e+001 4.168749e+001 1.529297e+001 1.483101e+001 1.735446e+001 1.843808e+001 2.706334e+001 3.395125e+001 1.175522e+001 1.816831e+001 1.572721e+001 4.645401e-001 6.163808e-001 1.157742e+000 6.825735e-001 7.065820e-001 1.366160e+000 1.205983e+000 1.249216e+000 1.351091e+000 1.025651e+000 1.390637e+000 1.121400e+000 1.512208e-001
<GCONST> 7.909180e+001
<STATE> 3
<MEAN> 25
 -3.490091e+000 -1.239470e+000 -1.130774e+000 5.762248e+000 5.670431e+000 2.326944e+000 4.326438e+000 -6.431041e-001 3.177249e+000 1.314811e+000 -8.150171e-001 3.941533e+000 -7.363560e-001 -8.016265e-001 -7.141284e-001 -6.633258e-001 1.650027e-001 3.542336e-001 9.891642e-001 1.453835e+000 1.144302e+000 7.124043e-001 1.346119e+000 1.320587e+000 -4.890812e-001
<VARIANCE> 25
 6.681894e+000 9.766275e+000 1.435334e+001 1.688353e+001 1.159624e+001 1.633125e+001 1.086548e+001 3.080229e+001 2.208113e+001 1.115357e+001 2.202708e+001 2.013049e+001 6.541466e-001 8.229163e-001 9.756031e-001 8.788623e-001 1.252813e+000 1.543836e+000 1.382716e+000 1.958915e+000 2.653484e+000 2.618409e+000 2.101784e+000 1.582462e+000 1.557352e-001
<GCONST> 8.043708e+001
<STATE> 4
<MEAN> 25
 -5.114857e+000 -2.396299e+000 -2.722606e+000 3.645111e+000 4.994413e+000 1.820524e+000 5.757443e+000 2.990868e+000 6.732669e+000 3.642070e+000 3.253413e+000 6.140447e+000 -1.916881e-002 1.876867e-002 -1.770413e-002 1.740111e-002 -1.118199e-002 -3.372267e-002 -3.606706e-002 3.444853e-003 3.638756e-002 1.939773e-002 4.593297e-002 1.158184e-002 1.982530e-004
<VARIANCE> 25
 3.978785e+000 4.579131e+000 6.641649e+000 8.861633e+000 6.951895e+000 1.168525e+001 1.094798e+001 9.978636e+000 1.449848e+001 1.345093e+001 1.059383e+001 1.182345e+001 1.843060e-001 2.457624e-001 4.357669e-001 7.046759e-001 7.950589e-001 8.299814e-001 1.076990e+000 1.153088e+000 1.393168e+000 1.454934e+000 1.325218e+000 1.244946e+000 5.741171e-002
<GCONST> 6.599431e+001
<TRANSP> 5
 0.000000e+000 1.000000e+000 0.000000e+000 0.000000e+000 0.000000e+000
 0.000000e+000 8.907909e-001 1.092091e-001 0.000000e+000 0.000000e+000
 0.000000e+000 0.000000e+000 6.884331e-001 3.115669e-001 0.000000e+000
 0.000000e+000 0.000000e+000 0.000000e+000 9.697505e-001 3.024948e-002
 0.000000e+000 0.000000e+000 0.000000e+000 0.000000e+000 0.000000e+000
<ENDHMM>
~h "ow"
<BEGINHMM>
<NUMSTATES> 5
<STATE> 2
<MEAN> 25
 1.088812e+001 1.296433e+000 -6.502324e+000 -8.798647e+000 -4.251046e+000 7.587929e+000 -6.387726e+000 -3.593170e+000 -4.912586e+000 4.886619e-001 3.924060e+000 -2.456002e+000 1.849911e-001 4.028419e-001 -1.190064e-002 -2.653476e-001 -2.994267e-001 2.691312e-001 1.985067e-001 -6.571949e-002 -5.332440e-001 -4.694500e-001 -1.294541e-002 1.497596e-001 -1.226525e-001
<VARIANCE> 25
 1.259468e+001 1.662391e+001 1.936134e+001 2.419403e+001 2.587140e+001 3.324659e+001 3.568832e+001 2.413665e+001 4.134297e+001 5.561837e+001 2.561549e+001 3.219630e+001 6.120808e-001 6.576536e-001 6.399711e-001 1.323465e+000 9.659315e-001 1.359569e+000 1.042614e+000 1.152372e+000 1.267822e+000 1.298598e+000 1.483434e+000 1.589238e+000 6.272913e-001
<GCONST> 8.568140e+001
<STATE> 3
<MEAN> 25
 9.080075e+000 5.065108e+000 -2.739608e+000 -4.813026e+000 -6.548940e+000 2.285213e+000 -2.561055e+000 -1.159783e+000 -5.411681e+000 -5.207016e+000 -2.157260e+000 -2.310919e+000 -5.955785e-001 -2.846497e-001 3.514189e-001 7.058013e-001 4.498865e-001 -5.774406e-001 1.857121e-001 1.086660e-001 4.579831e-001 4.102091e-001 -1.969113e-001 -2.202724e-002 -5.276654e-001
<VARIANCE> 25
 2.281357e+001 2.189148e+001 1.308793e+001 2.425931e+001 2.278762e+001 2.273511e+001 2.753669e+001 3.216799e+001 3.324731e+001 3.440225e+001 6.327405e+001 4.726767e+001 1.148880e+000 1.041726e+000 7.417173e-001 1.623672e+000 1.580288e+000 1.387756e+000 1.555908e+000 2.407356e+000 2.983054e+000 2.740013e+000 2.566376e+000 1.706552e+000 3.981121e-001
<GCONST> 9.113120e+001
<STATE> 4
<MEAN> 25
 -3.200011e+000 -1.961714e+000 -1.381187e+000 1.175334e+000 2.031615e+000 2.590255e+000 2.076095e+000 8.069189e-001 2.727488e+000 1.833719e+000 1.981526e+000 2.655157e+000 -9.797327e-002 -8.419143e-002 -1.976406e-002 6.785812e-002 7.194311e-002 7.593101e-003 6.567984e-002 -6.123294e-002 -3.689035e-002 5.951875e-002 3.089258e-002 8.667983e-002 -2.413752e-002
<VARIANCE> 25
 2.580294e+001 1.145592e+001 1.538248e+001 1.156780e+001 1.209758e+001 1.448332e+001 2.445753e+001 2.494179e+001 3.180163e+001 2.017355e+001 2.295882e+001 2.540040e+001 4.221621e-001 5.331540e-001 7.780514e-001 7.749647e-001 1.086519e+000 1.330621e+000 1.899922e+000 1.823636e+000 1.709247e+000 1.806397e+000 1.700396e+000 1.488075e+000 2.547780e-001
<GCONST> 8.153165e+001
<TRANSP> 5
 0.000000e+000 1.000000e+000 0.000000e+000 0.000000e+000 0.000000e+000
 0.000000e+000 9.015924e-001 9.840754e-002 0.000000e+000 0.000000e+000
 0.000000e+000 0.000000e+000 8.944343e-001 1.055657e-001 0.000000e+000
 0.000000e+000 0.000000e+000 0.000000e+000 9.293178e-001 7.068218e-002
 0.000000e+000 0.000000e+000 0.000000e+000 0.000000e+000 0.000000e+000
<ENDHMM>
~h "oy"
<BEGINHMM>
<NUMSTATES> 5
<STATE> 2
<MEAN> 25
 1.212707e+001 -5.669452e+000 4.942525e+000 -5.896977e-001 -1.310649e+001 -5.512205e+000 -9.474231e+000 1.689124e+000 -8.039325e+000 -1.837222e+000 3.259709e-001 -9.382712e+000 -1.590596e-001 -1.431063e-002 7.000138e-001 1.996258e-001 -1.771236e-003 -7.270758e-001 1.460275e-001 1.026338e-001 -5.868216e-001 -3.451568e-001 -2.016870e-001 2.132357e-001 -1.548155e-001
<VARIANCE> 25
 2.529078e+001 3.880406e+001 9.674313e+001 1.238974e+001 3.847755e+001 6.089378e+001 6.257447e+001 4.874261e+001 6.667091e+001 2.408143e+001 3.126088e+001 3.034976e+001 2.981715e+000 2.278769e+000 5.420143e+000 1.536023e+000 3.923844e+000 4.735473e+000 5.539337e+000 5.736408e+000 4.280513e+000 2.352703e+000 3.096387e+000 3.362338e+000 5.386168e-001
<GCONST> 1.043934e+002
<STATE> 3
<MEAN> 25
 -2.935698e+000 3.395275e+000 6.665267e+000 1.729406e+000 -2.129313e+000 -1.152715e+001 4.172658e+000 -1.965133e+000 -9.267755e+000 -5.120606e+000 -1.782265e+000 -1.449745e+000 -4.127161e+000 9.330680e-001 -3.391986e+000 -1.165334e+000 2.527539e+000 1.299821e+000 2.240862e+000 4.409859e-001 2.693677e+000 -8.223467e-002 1.182999e+000 1.230605e+000 1.334284e-001
<VARIANCE> 25
 1.201996e+002 5.997385e+001 3.330910e+001 8.176786e+000 6.723814e+001 6.620499e+001 7.928041e+001 5.327762e+001 3.768779e+001 1.271214e+001 1.674915e+001 4.140588e+001 7.333625e+000 1.332973e+000 6.612085e+000 1.826555e+000 4.942106e+000 4.016223e+000 5.354306e+000 4.397852e+000 3.114094e+000 4.237382e+000 4.773882e+000 4.103008e+000 1.902821e-001
<GCONST> 1.047142e+002
<STATE> 4
<MEAN> 25
 -1.966052e+000 -8.624001e-002 2.278574e+000 -3.321828e+000 -4.202765e+000 -3.818712e+000 8.152637e-001 1.158337e-001 -3.769593e+000 -1.160361e+000 3.065294e-001 -4.877253e+000 -1.004878e+000 9.513138e-001 -1.964098e+000 -2.344073e+000 1.760057e+000 2.021854e+000 7.495858e-002 -1.813020e+000 1.989705e+000 1.907322e+000 -3.762668e-002 -9.208690e-005 -5.209802e-001
<VARIANCE> 25
 2.252442e+002 4.009387e+001 6.607701e+001 9.498238e+000 6.371201e+001 4.509640e+001 1.429297e+002 1.119933e+001 8.099055e+001 1.902656e+001 1.424367e+001 9.027528e+001 9.893880e-001 1.480809e+000 3.920191e+000 2.188009e+000 3.577530e+000 1.623070e+000 7.027371e-001 6.931767e+000 8.572699e-001 2.213743e+000 2.571896e+000 3.023302e+000 1.743849e-001
<GCONST> 9.815656e+001
<TRANSP> 5
 0.000000e+000 1.000000e+000 0.000000e+000 0.000000e+000 0.000000e+000
 0.000000e+000 9.439482e-001 5.605176e-002 0.000000e+000 0.000000e+000
 0.000000e+000 0.000000e+000 5.391446e-001 4.608554e-001 0.000000e+000
 0.000000e+000 0.000000e+000 0.000000e+000 1.548106e-001 8.451894e-001
 0.000000e+000 0.000000e+000 0.000000e+000 0.000000e+000 0.000000e+000
<ENDHMM>
~h "sh"
<BEGINHMM>
<NUMSTATES> 5
<STATE> 2
<MEAN> 25
 -2.070579e+001 -6.313694e-001 1.197942e+001 -2.454132e+000 -4.620155e+000 -6.928404e-001 7.157176e+000 -2.890665e+000 4.508966e+000 -3.254453e+000 2.860312e+000 2.635010e+000 -2.023262e-001 -4.492794e-002 -3.465171e-001 -1.558165e-001 1.401478e-001 5.787867e-002 4.251926e-002 2.197807e-001 6.532377e-001 -2.586132e-001 3.994381e-002 2.611869e-001 -1.482686e-001
<VARIANCE> 25
 5.039780e+001 1.157793e+001 2.023155e+001 1.665517e+001 1.249078e+001 3.278043e+001 3.390002e+001 3.101434e+001 3.002073e+001 1.811185e+001 1.485741e+001 1.200175e+001 9.864779e+000 1.165797e+000 1.193454e+000 1.893490e+000 1.732298e+000 2.232277e+000 2.818001e+000 2.335143e+000 2.854539e+000 1.870354e+000 2.064147e+000 1.184364e+000 7.648277e-001
<GCONST> 9.138571e+001
<STATE> 3
<MEAN> 25
 -6.099290e+000 -1.142016e+000 4.059949e+000 1.122877e+000 -1.648896e+000 -2.141705e+000 3.069373e+000 7.876596e-001 5.864563e+000 -2.746060e+000 1.355832e+000 3.671732e+000 1.926879e+000 -2.298438e-001 -8.836702e-001 1.504896e-001 2.035189e-001 8.989089e-001 -7.836642e-001 6.542027e-001 -2.890660e-001 5.558259e-001 -4.779237e-001 -4.253941e-001 -8.262846e-001
<VARIANCE> 25
 6.662894e+001 5.367655e+000 2.997115e+001 2.029972e+001 2.284394e+001 5.603544e+001 2.510670e+001 2.141151e+001 1.540554e+001 2.489993e+001 2.884357e+001 1.478945e+001 2.806911e+000 9.495103e-001 2.036727e+000 9.677081e-001 1.485521e+000 3.356000e+000 3.065342e+000 2.815419e+000 2.338739e+000 3.024988e+000 1.371330e+000 2.537624e+000 1.360910e+000
<GCONST> 9.261669e+001
<STATE> 4
<MEAN> 25
 -2.345773e+000 -3.119766e+000 -3.589039e+000 -2.183881e+000 7.996381e-001 -2.889152e-001 -1.699927e-001 1.221961e+000 2.867120e+000 2.452494e+000 -2.139281e+000 -1.074024e+000 2.308170e-001 1.974746e-002 -6.349690e-002 1.564823e-002 3.806387e-002 2.911658e-002 -1.706982e-001 -1.079228e-001 -8.243697e-002 9.599514e-002 -4.349779e-002 -1.275567e-001 -7.462341e-002
<VARIANCE> 25
 1.787827e+001 5.229623e+000 2.056594e+001 1.226002e+001 1.444143e+001 2.114550e+001 2.009042e+001 2.186092e+001 2.012344e+001 2.146923e+001 1.736916e+001 2.450430e+001 1.386987e+000 8.311888e-001 1.156202e+000 9.549438e-001 1.548855e+000 1.900726e+000 2.053167e+000 2.629511e+000 1.707622e+000 1.991243e+000 1.779875e+000 1.698546e+000 1.940152e+000
<GCONST> 8.594350e+001
<TRANSP> 5
 0.000000e+000 1.000000e+000 0.000000e+000 0.000000e+000 0.000000e+000
 0.000000e+000 9.101309e-001 8.986910e-002 0.000000e+000 0.000000e+000
 0.000000e+000 0.000000e+000 4.713098e-001 5.286902e-001 0.000000e+000
 0.000000e+000 0.000000e+000 0.000000e+000 9.031620e-001 9.683802e-002
 0.000000e+000 0.000000e+000 0.000000e+000 0.000000e+000 0.000000e+000
<ENDHMM>
~h "sp"
<BEGINHMM>
<NUMSTATES> 3
<STATE> 2
~s "silst"
<TRANSP> 3
 0.000000e+000 7.000000e-001 3.000000e-001
 0.000000e+000 9.000000e-001 9.999999e-002
 0.000000e+000 0.000000e+000 0.000000e+000
<ENDHMM>
~h "th"
<BEGINHMM>
<NUMSTATES> 5
<STATE> 2
<MEAN> 25
 -5.436983e+000 -2.765961e+000 -1.830323e+000 1.804877e+000 3.369788e+000 2.119973e+000 2.676394e+000 9.828275e-001 2.928838e+000 1.400921e+000 1.017836e+000 3.552794e+000 -4.157698e-001 -4.864413e-001 -3.949302e-001 -2.692592e-001 -2.843235e-001 1.679398e-001 1.821758e-001 -2.099806e-001 1.350151e-001 4.665604e-001 8.408020e-001 5.169020e-001 -3.166388e-001
<VARIANCE> 25
 7.486028e+000 9.433628e+000 8.574469e+000 6.204031e+000 1.141865e+001 1.025005e+001 1.426151e+001 1.161131e+001 1.281146e+001 1.900519e+001 2.015420e+001 1.110047e+001 4.699225e-001 1.108563e+000 1.056169e+000 5.259823e-001 7.707717e-001 1.347869e+000 1.327155e+000 9.862919e-001 1.699829e+000 2.561060e+000 1.410912e+000 1.370284e+000 3.978506e-001
<GCONST> 7.523172e+001
<STATE> 3
<MEAN> 25
 -4.919063e+000 -2.418274e+000 -1.997671e+000 1.280808e+000 3.077961e+000 2.500695e+000 3.305470e+000 2.197756e+000 4.630705e+000 2.537006e+000 2.833525e+000 4.191079e+000 3.776207e-002 -3.479154e-003 3.909319e-002 1.407870e-002 5.042136e-002 7.870948e-003 1.291011e-002 7.168422e-002 5.694451e-002 1.149549e-002 -1.355251e-002 -2.494304e-002 -9.396101e-002
<VARIANCE> 25
 6.835911e+000 3.771381e+000 5.330660e+000 5.313311e+000 1.123916e+001 1.112830e+001 1.100917e+001 1.220779e+001 1.226411e+001 1.353778e+001 1.174127e+001 1.007086e+001 1.923880e-001 2.366060e-001 4.072134e-001 4.420432e-001 7.579717e-001 9.741336e-001 1.135847e+000 1.304744e+000 1.318221e+000 1.520565e+000 1.190333e+000 1.074010e+000 3.321275e-001
<GCONST> 6.727933e+001
<STATE> 4
<MEAN> 25
 -5.462718e+000 -5.140259e-001 -2.142049e+000 1.866331e+000 2.832989e+000 2.452852e+000 2.700846e+000 1.866088e+000 4.490545e+000 1.731372e+000 1.575007e+000 2.409605e+000 7.566444e-002 5.381529e-002 7.258449e-002 -1.044656e-001 -5.162176e-002 -1.353440e-002 -3.586144e-002 -2.014733e-001 -1.492822e-001 -1.907801e-001 -1.104988e-001 -1.550772e-001 2.538635e-001
<VARIANCE> 25
 1.223072e+001 7.924251e+000 1.337147e+001 1.365030e+001 1.420044e+001 1.594555e+001 1.561515e+001 1.877326e+001 1.273536e+001 1.483106e+001 1.814854e+001 1.619968e+001 1.766843e+000 1.178686e+000 1.805433e+000 1.462219e+000 1.111108e+000 1.316394e+000 1.541233e+000 2.390873e+000 1.280256e+000 1.636879e+000 1.932910e+000 1.556297e+000 1.739242e+000
<GCONST> 8.353899e+001
<TRANSP> 5
 0.000000e+000 1.000000e+000 0.000000e+000 0.000000e+000 0.000000e+000
 0.000000e+000 7.843130e-001 2.156870e-001 0.000000e+000 0.000000e+000
 0.000000e+000 0.000000e+000 9.635119e-001 3.648805e-002 0.000000e+000
 0.000000e+000 0.000000e+000 0.000000e+000 8.895148e-001 1.104852e-001
 0.000000e+000 0.000000e+000 0.000000e+000 0.000000e+000 0.000000e+000
<ENDHMM>
~h "uh"
<BEGINHMM>
<NUMSTATES> 5
<STATE> 2
<MEAN> 25
 1.105505e+001 1.594426e-001 -3.538209e+000 -5.982954e+000 -4.441706e+000 -2.522107e+000 -1.284926e+001 6.864287e-001 -5.054248e+000 -4.750231e+000 4.838117e+000 -1.433993e+000 -1.202761e-001 -4.915229e-001 7.432066e-001 1.603615e-001 -1.941185e-001 -7.841168e-001 -4.348872e-001 2.665051e-001 -1.911659e-001 -7.759847e-002 -9.200589e-002 -4.741928e-001 6.015491e-001
<VARIANCE> 25
 4.542577e+001 7.059764e+001 2.202835e+001 9.884325e+001 6.107055e+001 1.802112e+002 1.342860e+002 7.224178e+001 4.883952e+001 5.312343e+001 4.091480e+001 2.411779e+001 1.723923e+000 1.702409e+000 3.129068e+000 5.188541e+000 5.876800e+000 4.176205e+000 6.282427e+000 5.155021e+000 5.639333e+000 2.027502e+000 5.340952e+000 3.596551e+000 3.932294e+000
<GCONST> 1.122508e+002
<STATE> 3
<MEAN> 25
