~o
<STREAMINFO> 1 25
<VECSIZE> 25<NULLD><MFCC_D_N_Z_0><DIAGC>
~h "proto"
<BEGINHMM>
<NUMSTATES> 5
<STATE> 2
<MEAN> 25
 -1.647538e-007 -7.408251e-008 -8.950766e-010 -5.873195e-008 8.903029e-008 -1.220885e-007 -8.673292e-008 -2.670312e-008 2.577821e-008 1.248632e-007 5.573344e-008 3.323718e-008 -4.427416e-003 -6.758936e-004 -1.845294e-003 1.952602e-003 1.837976e-003 2.151858e-003 2.271179e-003 -4.390983e-004 -4.949334e-005 6.274260e-004 -9.507960e-004 -2.871294e-003 -2.698754e-003
<VARIANCE> 25
 8.711854e+001 4.555716e+001 4.526032e+001 5.668743e+001 4.556976e+001 1.188176e+002 5.660418e+001 4.348953e+001 4.342705e+001 4.582583e+001 6.761336e+001 2.877755e+001 2.998450e+000 2.013638e+000 1.945034e+000 2.722334e+000 2.624869e+000 3.859730e+000 3.086010e+000 3.044288e+000 2.968773e+000 2.983645e+000 3.680047e+000 2.264054e+000 4.183422e+000
<GCONST> 1.074110e+002
<STATE> 3
<MEAN> 25
 -1.647538e-007 -7.408251e-008 -8.950766e-010 -5.873195e-008 8.903029e-008 -1.220885e-007 -8.673292e-008 -2.670312e-008 2.577821e-008 1.248632e-007 5.573344e-008 3.323718e-008 -4.427416e-003 -6.758936e-004 -1.845294e-003 1.952602e-003 1.837976e-003 2.151858e-003 2.271179e-003 -4.390983e-004 -4.949334e-005 6.274260e-004 -9.507960e-004 -2.871294e-003 -2.698754e-003
<VARIANCE> 25
 8.711854e+001 4.555716e+001 4.526032e+001 5.668743e+001 4.556976e+001 1.188176e+002 5.660418e+001 4.348953e+001 4.342705e+001 4.582583e+001 6.761336e+001 2.877755e+001 2.998450e+000 2.013638e+000 1.945034e+000 2.722334e+000 2.624869e+000 3.859730e+000 3.086010e+000 3.044288e+000 2.968773e+000 2.983645e+000 3.680047e+000 2.264054e+000 4.183422e+000
<GCONST> 1.074110e+002
<STATE> 4
<MEAN> 25
 -1.647538e-007 -7.408251e-008 -8.950766e-010 -5.873195e-008 8.903029e-008 -1.220885e-007 -8.673292e-008 -2.670312e-008 2.577821e-008 1.248632e-007 5.573344e-008 3.323718e-008 -4.427416e-003 -6.758936e-004 -1.845294e-003 1.952602e-003 1.837976e-003 2.151858e-003 2.271179e-003 -4.390983e-004 -4.949334e-005 6.274260e-004 -9.507960e-004 -2.871294e-003 -2.698754e-003
<VARIANCE> 25
 8.711854e+001 4.555716e+001 4.526032e+001 5.668743e+001 4.556976e+001 1.188176e+002 5.660418e+001 4.348953e+001 4.342705e+001 4.582583e+001 6.761336e+001 2.877755e+001 2.998450e+000 2.013638e+000 1.945034e+000 2.722334e+000 2.624869e+000 3.859730e+000 3.086010e+000 3.044288e+000 2.968773e+000 2.983645e+000 3.680047e+000 2.264054e+000 4.183422e+000
<GCONST> 1.074110e+002
<TRANSP> 5
 0.000000e+000 1.000000e+000 0.000000e+000 0.000000e+000 0.000000e+000
 0.000000e+000 6.000000e-001 4.000000e-001 0.000000e+000 0.000000e+000
 0.000000e+000 0.000000e+000 6.000000e-001 4.000000e-001 0.000000e+000
 0.000000e+000 0.000000e+000 0.000000e+000 7.000000e-001 3.000000e-001
 0.000000e+000 0.000000e+000 0.000000e+000 0.000000e+000 0.000000e+000
<ENDHMM>
