~o
<STREAMINFO> 1 25
<VECSIZE> 25<NULLD><MFCC_D_N_Z_0><DIAGC>
~h "b"
<BEGINHMM>
<NUMSTATES> 5
<STATE> 2
<MEAN> 25
 2.917357e-001 7.494528e-001 2.204768e-001 1.173812e-001 -3.607336e-001 1.020006e+000 -5.027574e-002 -5.560737e-001 -4.121260e-001 -4.429834e-001 -3.907209e-001 -2.919882e-001 2.796817e-002 -7.982143e-004 -4.374104e-002 -2.230771e-002 4.758121e-003 4.791095e-002 3.271073e-002 -2.486997e-002 2.256569e-002 2.254848e-002 6.305910e-003 -2.695724e-002 -1.418504e-002
<VARIANCE> 25
 8.825989e+001 4.714407e+001 4.161993e+001 4.825095e+001 3.452132e+001 9.876800e+001 4.391582e+001 3.855199e+001 4.104445e+001 5.171759e+001 7.281702e+001 3.077931e+001 2.141627e+000 2.333285e+000 1.951534e+000 2.472439e+000 2.244796e+000 3.840025e+000 2.905629e+000 2.711317e+000 3.097758e+000 3.235143e+000 4.018489e+000 2.194851e+000 5.125768e+000
<GCONST> 1.063462e+002
<STATE> 3
<MEAN> 25
 3.900840e-001 7.559190e-001 8.862190e-002 4.572159e-002 -3.571553e-001 1.168915e+000 3.839392e-002 -6.421801e-001 -3.375303e-001 -3.718860e-001 -3.490516e-001 -3.515675e-001 3.186521e-002 -4.094385e-005 -3.701472e-002 -2.064652e-002 -2.856502e-003 4.013659e-002 2.229721e-002 -2.833370e-002 2.022545e-002 1.918614e-002 1.761787e-002 -1.264635e-002 -6.584802e-003
<VARIANCE> 25
 8.769452e+001 4.794740e+001 4.100906e+001 4.836558e+001 3.427043e+001 9.944305e+001 4.470720e+001 3.919180e+001 4.164031e+001 5.155185e+001 7.292625e+001 3.088073e+001 2.116498e+000 2.353820e+000 1.942659e+000 2.472308e+000 2.235622e+000 3.839069e+000 2.940366e+000 2.733873e+000 3.080093e+000 3.215763e+000 4.072762e+000 2.154598e+000 5.143566e+000
<GCONST> 1.063889e+002
<STATE> 4
<MEAN> 25
 5.167086e-001 7.273811e-001 1.485391e-002 -5.172940e-002 -3.860121e-001 1.224788e+000 4.572209e-002 -7.476253e-001 -2.839815e-001 -3.535420e-001 -1.587272e-001 -3.503742e-001 2.975438e-002 -8.528868e-003 -2.379585e-002 -2.439330e-002 -4.296278e-003 1.810898e-002 1.168089e-003 -3.059876e-002 6.056597e-003 1.021400e-002 3.800291e-002 1.338105e-003 2.329474e-002
<VARIANCE> 25
 8.555562e+001 4.937980e+001 4.017762e+001 4.758887e+001 3.444388e+001 1.007212e+002 4.478324e+001 3.935188e+001 4.143178e+001 5.091061e+001 7.240785e+001 3.132182e+001 2.131514e+000 2.400878e+000 1.931551e+000 2.435069e+000 2.266587e+000 3.824368e+000 2.923780e+000 2.756449e+000 3.055980e+000 3.180887e+000 4.080513e+000 2.138435e+000 5.178544e+000
<GCONST> 1.063709e+002
<TRANSP> 5
 0.000000e+000 1.000000e+000 0.000000e+000 0.000000e+000 0.000000e+000
 0.000000e+000 7.118318e-001 2.881682e-001 0.000000e+000 0.000000e+000
 0.000000e+000 0.000000e+000 7.118319e-001 2.881681e-001 0.000000e+000
 0.000000e+000 0.000000e+000 0.000000e+000 8.330797e-001 1.669203e-001
 0.000000e+000 0.000000e+000 0.000000e+000 0.000000e+000 0.000000e+000
<ENDHMM>
~h "d"
<BEGINHMM>
<NUMSTATES> 5
<STATE> 2
<MEAN> 25
 4.555207e-001 5.502111e-002 6.758184e-001 4.199931e-001 -1.938763e-001 -9.109062e-001 -5.207353e-001 -1.281791e-001 -2.269680e-001 -3.486710e-001 5.485260e-001 2.591993e-001 -2.171828e-002 2.189834e-002 -2.424501e-002 4.345908e-003 2.161717e-002 1.990888e-002 2.221498e-002 7.347579e-003 -6.430738e-004 3.271127e-002 -4.184614e-003 -6.125224e-003 -3.959907e-002
<VARIANCE> 25
 8.363023e+001 4.436380e+001 4.928495e+001 5.684295e+001 4.374128e+001 1.206502e+002 6.244875e+001 5.277980e+001 4.077486e+001 5.025206e+001 7.280949e+001 3.184931e+001 2.792397e+000 2.094806e+000 1.839762e+000 2.678177e+000 2.541585e+000 3.984437e+000 2.778932e+000 3.408289e+000 2.963390e+000 3.161931e+000 3.507374e+000 2.338181e+000 3.966704e+000
<GCONST> 1.077936e+002
<STATE> 3
<MEAN> 25
 4.175316e-001 1.187905e-001 6.242415e-001 4.448573e-001 -1.293160e-001 -8.417869e-001 -4.427191e-001 -9.693290e-002 -1.981223e-001 -1.865789e-001 5.202397e-001 2.350297e-001 -1.241766e-002 1.990302e-002 -1.065069e-002 8.481853e-003 1.813255e-002 2.643715e-002 1.888808e-002 9.951334e-003 7.798083e-003 5.664762e-002 -1.305396e-002 -6.744939e-003 -4.285065e-002
<VARIANCE> 25
 8.404340e+001 4.481085e+001 4.925671e+001 5.587825e+001 4.315625e+001 1.200457e+002 6.260310e+001 5.245801e+001 4.060040e+001 4.968246e+001 7.259885e+001 3.193622e+001 2.808405e+000 2.087208e+000 1.839781e+000 2.705111e+000 2.533213e+000 3.958911e+000 2.734237e+000 3.387109e+000 2.951020e+000 3.163717e+000 3.504290e+000 2.375808e+000 3.968600e+000
<GCONST> 1.077447e+002
<STATE> 4
<MEAN> 25
 6.552194e-001 9.180467e-002 5.617171e-001 3.313267e-001 -6.097744e-002 -8.332031e-001 -2.340469e-001 -1.827607e-001 -1.735627e-001 8.771816e-002 5.529797e-001 1.679008e-001 5.537158e-003 7.800164e-003 -9.069482e-004 -2.503964e-003 6.462321e-003 2.440823e-002 1.570037e-002 -6.544654e-004 9.167108e-003 6.195155e-002 -1.874329e-002 -1.239306e-002 -2.318841e-002
<VARIANCE> 25
 8.441544e+001 4.646714e+001 4.908528e+001 5.619147e+001 4.288223e+001 1.161998e+002 6.369516e+001 5.259135e+001 4.143922e+001 5.013990e+001 7.237524e+001 3.227539e+001 2.842921e+000 2.139323e+000 1.872441e+000 2.818445e+000 2.570237e+000 3.990205e+000 2.718360e+000 3.355524e+000 2.957359e+000 3.217540e+000 3.554374e+000 2.422814e+000 4.100561e+000
<GCONST> 1.079938e+002
<TRANSP> 5
 0.000000e+000 1.000000e+000 0.000000e+000 0.000000e+000 0.000000e+000
 0.000000e+000 7.021630e-001 2.978370e-001 0.000000e+000 0.000000e+000
 0.000000e+000 0.000000e+000 7.021629e-001 2.978371e-001 0.000000e+000
 0.000000e+000 0.000000e+000 0.000000e+000 8.195109e-001 1.804891e-001
 0.000000e+000 0.000000e+000 0.000000e+000 0.000000e+000 0.000000e+000
<ENDHMM>
~h "f"
<BEGINHMM>
<NUMSTATES> 5
<STATE> 2
<MEAN> 25
 -3.453257e-001 -6.303566e-001 -4.882055e-001 4.844029e-002 -3.535448e-001 1.832643e-001 4.305472e-001 7.473992e-001 8.749537e-001 3.626244e-001 -4.699480e-001 5.067090e-001 -2.824474e-002 -1.468852e-003 -3.871874e-002 -4.967153e-002 3.012020e-002 7.163817e-002 1.904269e-002 7.590550e-003 -7.153252e-003 3.847060e-002 -7.879585e-003 9.962095e-003 -3.457842e-002
<VARIANCE> 25
 9.616609e+001 3.998024e+001 4.525956e+001 6.308396e+001 6.570779e+001 1.033609e+002 6.386115e+001 4.299746e+001 3.610524e+001 5.324019e+001 6.567488e+001 2.297098e+001 4.010968e+000 1.861131e+000 1.836446e+000 2.856941e+000 3.409306e+000 3.458267e+000 2.962733e+000 3.451588e+000 2.946613e+000 3.155730e+000 3.519299e+000 1.946368e+000 2.738103e+000
<GCONST> 1.074012e+002
<STATE> 3
<MEAN> 25
 -4.615400e-001 -6.408873e-001 -6.140332e-001 -9.514314e-002 -2.245905e-001 4.319616e-001 4.865198e-001 7.784292e-001 8.164625e-001 4.849764e-001 -5.086132e-001 5.374440e-001 -3.549853e-002 -7.915337e-004 -3.989860e-002 -4.651954e-002 4.064948e-002 7.686965e-002 2.196135e-002 9.725121e-003 -1.812280e-002 3.537317e-002 -1.242810e-002 9.300855e-003 -4.665530e-002
<VARIANCE> 25
 9.750535e+001 3.913716e+001 4.446537e+001 6.410664e+001 6.519328e+001 1.024421e+002 6.432289e+001 4.255489e+001 3.519394e+001 5.253357e+001 6.540878e+001 2.299940e+001 4.059661e+000 1.842859e+000 1.809783e+000 2.882725e+000 3.372746e+000 3.394963e+000 3.010597e+000 3.383813e+000 2.925102e+000 3.109735e+000 3.526341e+000 1.982896e+000 2.660530e+000
<GCONST> 1.072637e+002
<STATE> 4
<MEAN> 25
 -6.709529e-001 -7.257594e-001 -7.580022e-001 -2.030601e-001 -1.358493e-002 6.666857e-001 5.540914e-001 9.344134e-001 6.928806e-001 6.308557e-001 -5.340559e-001 5.885751e-001 -3.568841e-002 -8.737585e-003 -3.457736e-002 -5.055126e-002 4.469984e-002 6.691188e-002 3.388645e-002 1.951869e-002 -2.358183e-002 3.183702e-002 1.248913e-003 1.155263e-002 -3.362571e-002
<VARIANCE> 25
 9.909240e+001 3.830875e+001 4.376017e+001 6.512288e+001 6.363148e+001 9.987887e+001 6.525283e+001 4.217714e+001 3.418806e+001 5.186851e+001 6.535767e+001 2.299024e+001 4.158965e+000 1.843505e+000 1.814924e+000 2.905535e+000 3.330889e+000 3.322463e+000 3.093448e+000 3.350746e+000 2.928999e+000 3.125956e+000 3.556268e+000 1.997981e+000 2.704509e+000
<GCONST> 1.072286e+002
<TRANSP> 5
 0.000000e+000 1.000000e+000 0.000000e+000 0.000000e+000 0.000000e+000
 0.000000e+000 7.073577e-001 2.926424e-001 0.000000e+000 0.000000e+000
 0.000000e+000 0.000000e+000 7.073576e-001 2.926424e-001 0.000000e+000
 0.000000e+000 0.000000e+000 0.000000e+000 8.254131e-001 1.745869e-001
 0.000000e+000 0.000000e+000 0.000000e+000 0.000000e+000 0.000000e+000
<ENDHMM>
~h "g"
<BEGINHMM>
<NUMSTATES> 5
<STATE> 2
<MEAN> 25
 5.370430e-001 -8.046726e-001 -1.813339e+000 -2.970982e-001 4.437869e-001 8.078998e-002 2.349064e-001 8.545515e-001 1.116964e+000 6.255384e-001 -1.120563e-001 -3.053913e-001 8.071195e-003 1.470285e-002 -7.712579e-003 -3.013114e-002 6.434665e-002 2.180650e-002 8.540414e-002 -3.336724e-002 -7.459772e-002 7.081413e-002 -3.227879e-002 -6.297637e-002 2.539596e-002
<VARIANCE> 25
 6.645409e+001 5.101669e+001 4.739521e+001 5.098462e+001 5.154681e+001 1.448192e+002 4.575471e+001 3.358241e+001 6.167842e+001 4.975028e+001 7.081835e+001 2.715368e+001 2.486523e+000 2.382270e+000 1.799929e+000 2.994462e+000 2.277814e+000 4.064099e+000 3.147952e+000 3.249158e+000 3.745482e+000 3.035734e+000 4.121228e+000 2.323936e+000 4.677785e+000
<GCONST> 1.079587e+002
<STATE> 3
<MEAN> 25
 5.993423e-001 -8.033527e-001 -1.830042e+000 -4.267343e-001 7.207105e-001 1.354761e-001 5.820442e-001 6.967321e-001 7.678016e-001 8.667419e-001 -1.525195e-001 -5.085608e-001 1.184753e-002 7.231082e-003 8.368537e-003 -2.980815e-002 8.573157e-002 2.324160e-002 1.006066e-001 -4.181870e-002 -1.096070e-001 7.288668e-002 -1.661170e-002 -5.658227e-002 5.626756e-002
<VARIANCE> 25
 6.799362e+001 5.198283e+001 4.689160e+001 5.111278e+001 5.276372e+001 1.428087e+002 4.733142e+001 3.373830e+001 5.958874e+001 4.981733e+001 7.065286e+001 2.779385e+001 2.608551e+000 2.532521e+000 1.845558e+000 3.052628e+000 2.297576e+000 4.129808e+000 3.285604e+000 3.272168e+000 3.710109e+000 3.109085e+000 4.174231e+000 2.385684e+000 4.911276e+000
<GCONST> 1.083579e+002
<STATE> 4
<MEAN> 25
 9.091679e-001 -1.056788e+000 -1.720306e+000 -6.561578e-001 1.158712e+000 -1.491871e-001 1.224018e+000 5.229871e-001 3.313458e-002 1.281461e+000 -3.787407e-004 -7.966087e-001 2.901285e-002 -7.258057e-003 3.475776e-002 -2.715789e-002 8.947662e-002 1.759502e-003 9.268481e-002 -2.614945e-002 -1.156886e-001 6.736698e-002 1.309633e-002 -4.298930e-002 1.082954e-001
<VARIANCE> 25
 6.876470e+001 5.240083e+001 4.588102e+001 5.296511e+001 5.453984e+001 1.356814e+002 4.963662e+001 3.437041e+001 5.813777e+001 5.118285e+001 7.000865e+001 2.905000e+001 2.783391e+000 2.736962e+000 1.909221e+000 3.121432e+000 2.429111e+000 4.175967e+000 3.545959e+000 3.349863e+000 3.717242e+000 3.326938e+000 4.276655e+000 2.525426e+000 5.394119e+000
<GCONST> 1.090863e+002
<TRANSP> 5
 0.000000e+000 1.000000e+000 0.000000e+000 0.000000e+000 0.000000e+000
 0.000000e+000 6.887275e-001 3.112725e-001 0.000000e+000 0.000000e+000
 0.000000e+000 0.000000e+000 6.887275e-001 3.112725e-001 0.000000e+000
 0.000000e+000 0.000000e+000 0.000000e+000 8.052156e-001 1.947844e-001
 0.000000e+000 0.000000e+000 0.000000e+000 0.000000e+000 0.000000e+000
<ENDHMM>
~h "k"
<BEGINHMM>
<NUMSTATES> 5
<STATE> 2
<MEAN> 25
 -2.091464e-001 -2.834885e-001 1.374090e-001 -4.248256e-001 5.599856e-001 -7.134628e-001 1.325574e-001 6.972636e-001 -2.529271e-001 -2.908547e-001 6.190723e-001 3.118894e-001 -5.962892e-002 -7.944010e-003 3.745965e-002 3.508392e-002 -2.720187e-002 1.178138e-002 -2.750072e-002 2.524395e-002 3.335064e-002 9.168754e-003 -2.996007e-002 7.371364e-003 -4.230684e-002
<VARIANCE> 25
 9.250058e+001 4.612326e+001 4.810584e+001 5.468042e+001 4.398401e+001 1.281241e+002 6.141331e+001 4.278899e+001 4.282929e+001 4.263120e+001 7.051570e+001 2.842054e+001 3.231846e+000 1.941853e+000 2.180879e+000 2.879281e+000 2.775005e+000 4.181428e+000 3.462958e+000 3.070766e+000 2.913392e+000 3.056526e+000 4.026429e+000 2.286729e+000 4.527703e+000
<GCONST> 1.082100e+002
<STATE> 3
<MEAN> 25
 -3.869402e-001 -3.187316e-001 2.789619e-001 -2.947399e-001 4.643120e-001 -6.912372e-001 2.917324e-002 7.578543e-001 -1.752040e-001 -2.713753e-001 5.178835e-001 3.378713e-001 -4.678944e-002 -1.203163e-002 3.877324e-002 3.446051e-002 -2.815557e-002 5.616885e-003 -2.777918e-002 1.194615e-002 1.673624e-002 4.430947e-003 -2.669035e-002 7.769637e-003 -2.831910e-002
<VARIANCE> 25
 9.263130e+001 4.565319e+001 4.822647e+001 5.356717e+001 4.380373e+001 1.281212e+002 6.027866e+001 4.195143e+001 4.256947e+001 4.267607e+001 6.976134e+001 2.772012e+001 3.242053e+000 1.935476e+000 2.189850e+000 2.848461e+000 2.767109e+000 4.197877e+000 3.450400e+000 3.042265e+000 2.917059e+000 3.033629e+000 3.982458e+000 2.271382e+000 4.545869e+000
<GCONST> 1.080612e+002
<STATE> 4
<MEAN> 25
 -4.268725e-001 -4.818577e-001 5.150976e-001 -1.590607e-001 2.888297e-001 -8.135331e-001 -2.872237e-002 7.130721e-001 -2.374126e-001 -3.292359e-001 4.820194e-001 3.730946e-001 -1.868287e-002 -1.927291e-002 3.458265e-002 2.812900e-002 -2.993817e-002 -3.654634e-003 -2.076409e-002 -1.220555e-002 -7.739341e-003 -2.929519e-003 -1.414950e-002 3.139905e-003 3.414581e-003
<VARIANCE> 25
 9.215258e+001 4.508425e+001 4.843063e+001 5.367918e+001 4.389589e+001 1.251500e+002 6.019806e+001 4.069524e+001 4.264995e+001 4.342792e+001 6.947089e+001 2.679055e+001 3.232415e+000 1.947930e+000 2.222949e+000 2.856251e+000 2.799248e+000 4.166052e+000 3.481538e+000 2.982732e+000 3.003863e+000 3.077195e+000 4.041903e+000 2.243108e+000 4.766833e+000
<GCONST> 1.080854e+002
<TRANSP> 5
 0.000000e+000 1.000000e+000 0.000000e+000 0.000000e+000 0.000000e+000
 0.000000e+000 7.076766e-001 2.923235e-001 0.000000e+000 0.000000e+000
 0.000000e+000 0.000000e+000 7.076768e-001 2.923232e-001 0.000000e+000
 0.000000e+000 0.000000e+000 0.000000e+000 8.269933e-001 1.730066e-001
 0.000000e+000 0.000000e+000 0.000000e+000 0.000000e+000 0.000000e+000
<ENDHMM>
~h "l"
<BEGINHMM>
<NUMSTATES> 5
<STATE> 2
<MEAN> 25
 1.344394e+000 -9.032138e-001 -3.542848e-002 -1.175602e+000 3.941667e-001 -1.157785e+000 2.602736e-001 -5.680506e-001 -4.808570e-001 4.747819e-001 7.723692e-001 -1.881506e-001 4.801791e-003 -1.558010e-002 -1.095406e-002 -1.411801e-002 -9.677400e-004 -1.163766e-002 2.001408e-002 -1.138490e-002 1.624151e-002 1.132159e-002 2.145723e-002 -1.542670e-003 1.413895e-002
<VARIANCE> 25
 8.283710e+001 4.955100e+001 4.284000e+001 6.755991e+001 4.560974e+001 1.149578e+002 6.003112e+001 4.957825e+001 4.849213e+001 4.092100e+001 6.493320e+001 3.149083e+001 2.790653e+000 2.047164e+000 1.947052e+000 2.858123e+000 2.648432e+000 3.843572e+000 3.075025e+000 3.226817e+000 2.977064e+000 2.863259e+000 3.580273e+000 2.423129e+000 4.291132e+000
<GCONST> 1.078508e+002
<STATE> 3
<MEAN> 25
 1.321722e+000 -9.273029e-001 -6.916819e-002 -1.189519e+000 3.963872e-001 -1.173025e+000 3.203555e-001 -5.859197e-001 -4.208707e-001 5.235595e-001 8.100438e-001 -1.825785e-001 -8.168817e-003 -7.018557e-003 -1.021239e-002 -8.145167e-003 9.086892e-004 -3.029478e-003 2.397980e-002 -4.957495e-003 1.496937e-002 1.231161e-002 1.226152e-002 2.584058e-004 -4.476054e-003
<VARIANCE> 25
 8.285397e+001 4.859782e+001 4.260444e+001 6.752124e+001 4.610048e+001 1.153247e+002 5.951907e+001 5.024314e+001 4.858113e+001 4.054928e+001 6.424979e+001 3.152223e+001 2.754415e+000 2.026138e+000 1.916424e+000 2.806123e+000 2.646654e+000 3.841983e+000 3.045662e+000 3.253467e+000 3.010442e+000 2.844556e+000 3.552699e+000 2.416744e+000 4.202659e+000
<GCONST> 1.077406e+002
<STATE> 4
<MEAN> 25
 1.258505e+000 -9.311047e-001 -5.325446e-002 -1.112133e+000 4.384720e-001 -1.230036e+000 4.069656e-001 -5.483027e-001 -3.845130e-001 5.853346e-001 7.636033e-001 -1.330899e-001 -2.789299e-002 8.216932e-003 -4.260248e-003 8.702585e-003 2.212510e-003 1.397966e-002 1.998151e-002 7.163625e-003 1.299868e-002 1.228097e-002 -8.706334e-003 2.589086e-003 -4.399333e-002
<VARIANCE> 25
 8.279464e+001 4.659905e+001 4.252542e+001 6.770768e+001 4.642567e+001 1.148499e+002 5.914452e+001 5.065606e+001 4.810291e+001 4.011374e+001 6.279817e+001 3.128876e+001 2.683295e+000 1.966835e+000 1.864342e+000 2.729046e+000 2.636953e+000 3.785361e+000 3.009292e+000 3.262344e+000 3.031737e+000 2.818750e+000 3.472159e+000 2.385000e+000 4.017095e+000
<GCONST> 1.074302e+002
<TRANSP> 5
 0.000000e+000 1.000000e+000 0.000000e+000 0.000000e+000 0.000000e+000
 0.000000e+000 7.046345e-001 2.953655e-001 0.000000e+000 0.000000e+000
 0.000000e+000 0.000000e+000 7.046347e-001 2.953653e-001 0.000000e+000
 0.000000e+000 0.000000e+000 0.000000e+000 8.236330e-001 1.763671e-001
 0.000000e+000 0.000000e+000 0.000000e+000 0.000000e+000 0.000000e+000
<ENDHMM>
~h "m"
<BEGINHMM>
<NUMSTATES> 5
<STATE> 2
<MEAN> 25
 -5.562454e-001 5.628027e-001 -1.978827e-001 6.971646e-001 -3.058516e-001 1.097850e+000 -5.672024e-001 5.395951e-001 6.197720e-002 3.343672e-001 -1.362914e+000 1.733693e-001 2.505521e-002 -1.026019e-002 7.581013e-003 -1.519458e-002 -1.353866e-002 -1.897183e-002 -3.136756e-002 4.787663e-003 -3.867029e-002 -2.776242e-002 3.239888e-002 -3.170327e-003 5.378857e-002
<VARIANCE> 25
 9.527381e+001 4.460138e+001 4.699409e+001 4.500708e+001 3.727710e+001 1.257155e+002 4.365322e+001 3.805911e+001 4.950945e+001 4.878638e+001 6.171908e+001 2.934463e+001 3.079067e+000 1.777605e+000 1.967245e+000 2.777461e+000 2.201463e+000 4.030722e+000 2.659715e+000 2.903062e+000 3.175921e+000 3.192622e+000 3.878772e+000 2.598989e+000 4.479568e+000
<GCONST> 1.068691e+002
<STATE> 3
<MEAN> 25
 -4.380273e-001 4.810830e-001 -1.907495e-001 6.512200e-001 -3.243207e-001 1.030215e+000 -6.553863e-001 5.684212e-001 -8.244159e-002 2.319149e-001 -1.235125e+000 2.096598e-001 4.174484e-002 -3.116375e-002 -7.651740e-004 -1.472276e-002 6.148007e-005 -3.119362e-002 -2.368910e-002 1.251193e-002 -4.204482e-002 -3.587254e-002 4.238633e-002 1.176281e-002 8.503934e-002
<VARIANCE> 25
 9.623352e+001 4.477479e+001 4.665315e+001 4.651952e+001 3.740621e+001 1.230543e+002 4.306784e+001 3.872593e+001 4.929427e+001 4.887119e+001 6.120447e+001 2.936008e+001 3.192420e+000 1.820416e+000 1.967143e+000 2.882752e+000 2.234326e+000 3.958831e+000 2.654587e+000 2.901528e+000 3.198858e+000 3.257395e+000 3.849606e+000 2.605745e+000 4.605122e+000
<GCONST> 1.070257e+002
<STATE> 4
<MEAN> 25
 -1.611239e-001 2.711205e-001 -2.264800e-001 5.906767e-001 -2.372367e-001 7.973827e-001 -7.156531e-001 6.963052e-001 -3.045385e-001 1.035955e-001 -1.010861e+000 2.970869e-001 6.281860e-002 -5.143745e-002 3.505313e-004 -2.120008e-002 1.249558e-002 -5.823036e-002 -8.046472e-003 2.827118e-002 -4.693690e-002 -4.337186e-002 5.628906e-002 1.196021e-002 1.350352e-001
<VARIANCE> 25
 9.641098e+001 4.435615e+001 4.620447e+001 4.944428e+001 3.752325e+001 1.198957e+002 4.304644e+001 3.971115e+001 4.845616e+001 4.850605e+001 6.079051e+001 2.946125e+001 3.354872e+000 1.879655e+000 1.969538e+000 2.991152e+000 2.264077e+000 3.928025e+000 2.649509e+000 2.910366e+000 3.195073e+000 3.331048e+000 3.798908e+000 2.591770e+000 4.815311e+000
<GCONST> 1.072167e+002
<TRANSP> 5
 0.000000e+000 1.000000e+000 0.000000e+000 0.000000e+000 0.000000e+000
 0.000000e+000 7.028426e-001 2.971574e-001 0.000000e+000 0.000000e+000
 0.000000e+000 0.000000e+000 7.028431e-001 2.971569e-001 0.000000e+000
 0.000000e+000 0.000000e+000 0.000000e+000 8.210552e-001 1.789448e-001
 0.000000e+000 0.000000e+000 0.000000e+000 0.000000e+000 0.000000e+000
<ENDHMM>
~h "n"
<BEGINHMM>
<NUMSTATES> 5
<STATE> 2
<MEAN> 25
 1.523586e+000 -7.443198e-001 2.596234e-001 -4.257304e-001 1.190284e-001 -2.017151e+000 6.366929e-001 -1.039510e-001 -7.117714e-001 -8.633680e-001 8.929317e-001 -2.168839e-001 -2.512465e-003 2.163194e-003 2.321807e-002 -1.146755e-002 1.095687e-002 -2.688611e-002 1.979714e-002 7.417917e-003 -1.765361e-002 -3.111029e-002 1.905645e-002 2.171787e-002 6.272334e-002
<VARIANCE> 25
 9.652573e+001 4.903178e+001 4.603967e+001 5.493898e+001 4.993713e+001 1.134500e+002 5.398954e+001 4.295370e+001 4.064737e+001 4.509431e+001 6.889104e+001 2.891948e+001 3.622724e+000 2.245857e+000 2.108395e+000 2.969235e+000 2.897875e+000 3.901663e+000 3.210711e+000 3.022490e+000 2.873191e+000 3.028038e+000 4.110669e+000 2.383091e+000 4.495545e+000
<GCONST> 1.083236e+002
<STATE> 3
<MEAN> 25
 1.520851e+000 -7.384863e-001 3.406185e-001 -4.719054e-001 1.376427e-001 -2.104042e+000 7.042990e-001 -8.509479e-002 -7.784981e-001 -9.790598e-001 9.578716e-001 -1.435525e-001 4.304148e-003 3.370824e-003 1.709668e-002 -1.393603e-002 4.650801e-003 -2.177586e-002 2.076138e-002 7.194380e-003 -1.621071e-002 -3.312088e-002 1.548810e-002 2.415640e-002 6.434123e-002
<VARIANCE> 25
 9.695431e+001 4.865989e+001 4.671733e+001 5.446621e+001 4.969257e+001 1.128440e+002 5.387415e+001 4.250448e+001 4.043951e+001 4.524601e+001 6.901412e+001 2.905949e+001 3.740561e+000 2.263131e+000 2.141951e+000 2.968954e+000 2.909785e+000 3.913375e+000 3.234707e+000 3.009623e+000 2.895823e+000 3.042913e+000 4.099414e+000 2.389950e+000 4.520428e+000
<GCONST> 1.083924e+002
<STATE> 4
<MEAN> 25
 1.474229e+000 -6.851124e-001 4.641661e-001 -5.224268e-001 7.683764e-002 -2.110712e+000 7.729760e-001 -8.512016e-002 -8.644260e-001 -1.102670e+000 9.862894e-001 -4.662858e-002 4.023346e-003 7.929429e-003 1.025983e-002 -1.054065e-002 -2.971966e-003 -1.085124e-002 1.842371e-002 6.174420e-003 -9.468204e-003 -3.039905e-002 5.105506e-003 2.438297e-002 4.865539e-002
<VARIANCE> 25
 9.665228e+001 4.761890e+001 4.769664e+001 5.376290e+001 4.877550e+001 1.112475e+002 5.306389e+001 4.145252e+001 4.001436e+001 4.533250e+001 6.915214e+001 2.936963e+001 3.808276e+000 2.246358e+000 2.159319e+000 2.941844e+000 2.872940e+000 3.870364e+000 3.200049e+000 2.948033e+000 2.905059e+000 3.042428e+000 4.024887e+000 2.386889e+000 4.435947e+000
<GCONST> 1.082249e+002
<TRANSP> 5
 0.000000e+000 1.000000e+000 0.000000e+000 0.000000e+000 0.000000e+000
 0.000000e+000 7.047668e-001 2.952333e-001 0.000000e+000 0.000000e+000
 0.000000e+000 0.000000e+000 7.047666e-001 2.952335e-001 0.000000e+000
 0.000000e+000 0.000000e+000 0.000000e+000 8.237019e-001 1.762981e-001
 0.000000e+000 0.000000e+000 0.000000e+000 0.000000e+000 0.000000e+000
<ENDHMM>
~h "p"
<BEGINHMM>
<NUMSTATES> 5
<STATE> 2
<MEAN> 25
 1.490722e+000 -1.023587e+000 -2.061966e-001 -1.030452e+000 -1.156400e-001 -4.312984e-001 4.951592e-001 -3.685025e-001 1.125606e-001 -1.391964e-001 7.582292e-001 -1.024316e-001 9.152602e-002 -9.267300e-002 -2.575027e-002 -8.980627e-003 -1.345622e-002 -1.269389e-001 2.545213e-002 1.351296e-002 -1.372296e-002 5.437076e-004 1.791683e-002 5.508392e-003 1.248499e-001
<VARIANCE> 25
 7.606943e+001 4.845145e+001 4.036888e+001 5.724671e+001 5.030457e+001 1.152341e+002 5.905688e+001 4.593525e+001 4.266192e+001 4.791446e+001 7.237313e+001 2.941961e+001 3.159864e+000 2.479883e+000 2.203865e+000 3.413501e+000 2.991277e+000 4.737465e+000 3.753602e+000 3.534541e+000 3.377777e+000 3.478481e+000 4.882241e+000 2.466853e+000 6.370194e+000
<GCONST> 1.098788e+002
<STATE> 3
<MEAN> 25
 1.778680e+000 -1.317170e+000 -2.753052e-001 -1.034764e+000 -1.498336e-001 -8.438769e-001 5.670006e-001 -3.301151e-001 6.172143e-002 -1.237110e-001 7.917869e-001 -7.459323e-002 7.986846e-002 -8.808320e-002 -2.584499e-002 6.352707e-003 -4.538228e-003 -1.129777e-001 1.780446e-002 1.673104e-002 -1.521237e-002 1.282927e-003 1.586347e-002 9.061720e-003 9.851251e-002
<VARIANCE> 25
 7.420631e+001 4.851493e+001 3.986620e+001 5.751063e+001 5.101263e+001 1.155994e+002 5.922099e+001 4.745071e+001 4.348824e+001 4.682161e+001 7.224906e+001 2.960063e+001 3.119261e+000 2.478403e+000 2.204009e+000 3.438134e+000 2.947794e+000 4.763786e+000 3.752759e+000 3.601952e+000 3.323709e+000 3.473479e+000 4.813781e+000 2.498293e+000 6.339405e+000
<GCONST> 1.098797e+002
<STATE> 4
<MEAN> 25
 2.136534e+000 -1.676639e+000 -3.256954e-001 -1.060990e+000 -9.479946e-002 -1.364166e+000 6.974130e-001 -3.163202e-001 -1.120006e-001 -4.052209e-002 8.677699e-001 -2.247777e-002 5.088624e-002 -6.845769e-002 -1.624853e-002 2.520649e-002 5.815361e-003 -8.427241e-002 5.946918e-003 2.152126e-002 -1.971933e-002 8.617854e-003 1.063619e-002 1.394970e-002 5.318148e-002
<VARIANCE> 25
 7.106933e+001 4.798642e+001 3.941238e+001 5.876701e+001 5.182936e+001 1.149027e+002 6.043922e+001 5.016896e+001 4.496151e+001 4.544863e+001 7.135861e+001 2.994558e+001 3.060075e+000 2.477696e+000 2.190075e+000 3.450903e+000 2.907031e+000 4.787533e+000 3.760840e+000 3.646631e+000 3.241228e+000 3.456117e+000 4.679200e+000 2.540654e+000 6.222249e+000
<GCONST> 1.098474e+002
<TRANSP> 5
 0.000000e+000 1.000000e+000 0.000000e+000 0.000000e+000 0.000000e+000
 0.000000e+000 6.970022e-001 3.029978e-001 0.000000e+000 0.000000e+000
 0.000000e+000 0.000000e+000 6.970022e-001 3.029978e-001 0.000000e+000
 0.000000e+000 0.000000e+000 0.000000e+000 8.141589e-001 1.858411e-001
 0.000000e+000 0.000000e+000 0.000000e+000 0.000000e+000 0.000000e+000
<ENDHMM>
~h "r"
<BEGINHMM>
<NUMSTATES> 5
<STATE> 2
<MEAN> 25
 5.568601e-001 -7.554609e-001 1.743189e-003 -1.612735e-001 1.387093e-001 -8.814703e-001 1.114445e+000 2.141429e-001 -2.984361e-001 -4.195215e-001 5.912122e-001 1.070628e-001 -1.840119e-002 2.382112e-003 1.971642e-002 3.591757e-002 -2.244389e-003 2.339436e-002 5.576636e-003 1.869781e-002 2.604338e-003 -1.061217e-002 -8.770411e-003 1.104045e-002 -5.906246e-002
<VARIANCE> 25
 8.467026e+001 4.486319e+001 5.091276e+001 6.384124e+001 5.762136e+001 1.218604e+002 6.647208e+001 4.181281e+001 3.947683e+001 5.450838e+001 6.455896e+001 2.737231e+001 3.256238e+000 2.078339e+000 2.019567e+000 2.755651e+000 2.963120e+000 4.315917e+000 3.271886e+000 2.923417e+000 2.932320e+000 3.273875e+000 3.631917e+000 2.158648e+000 4.164814e+000
<GCONST> 1.083968e+002
<STATE> 3
<MEAN> 25
 4.803989e-001 -7.525666e-001 6.007347e-002 -4.072584e-002 1.489414e-001 -8.071269e-001 1.117838e+000 2.746719e-001 -2.932508e-001 -4.604564e-001 5.495720e-001 1.461780e-001 -2.725152e-002 -7.207321e-004 1.876475e-002 3.620207e-002 4.114488e-003 1.648944e-002 5.417750e-004 1.709924e-002 7.377674e-004 -1.193885e-002 -1.024850e-002 1.360151e-002 -5.515932e-002
<VARIANCE> 25
 8.556184e+001 4.472048e+001 5.101394e+001 6.360455e+001 5.708934e+001 1.226478e+002 6.681935e+001 4.228443e+001 3.907195e+001 5.401029e+001 6.511363e+001 2.737754e+001 3.243549e+000 2.041498e+000 2.025631e+000 2.734423e+000 2.925952e+000 4.347504e+000 3.316467e+000 2.973595e+000 2.942334e+000 3.269884e+000 3.642438e+000 2.166767e+000 4.130903e+000
<GCONST> 1.084046e+002
<STATE> 4
<MEAN> 25
 3.939736e-001 -8.204761e-001 1.257044e-001 1.033043e-001 2.101206e-001 -8.375981e-001 1.079022e+000 3.543761e-001 -2.810410e-001 -5.260791e-001 5.105666e-001 2.181303e-001 -4.183784e-002 1.217491e-004 1.388876e-002 3.425679e-002 1.243861e-002 1.126208e-002 -1.270515e-002 2.095378e-002 9.418420e-003 -5.998029e-003 -1.466175e-002 1.526475e-002 -5.971061e-002
<VARIANCE> 25
 8.657662e+001 4.419920e+001 5.128243e+001 6.238578e+001 5.592717e+001 1.232727e+002 6.686514e+001 4.274822e+001 3.859942e+001 5.341198e+001 6.574747e+001 2.786784e+001 3.222551e+000 1.980404e+000 2.026947e+000 2.697238e+000 2.853165e+000 4.356897e+000 3.354853e+000 3.037477e+000 2.962189e+000 3.271755e+000 3.634047e+000 2.187733e+000 4.089639e+000
<GCONST> 1.083552e+002
<TRANSP> 5
 0.000000e+000 1.000000e+000 0.000000e+000 0.000000e+000 0.000000e+000
 0.000000e+000 7.025882e-001 2.974118e-001 0.000000e+000 0.000000e+000
 0.000000e+000 0.000000e+000 7.025880e-001 2.974121e-001 0.000000e+000
 0.000000e+000 0.000000e+000 0.000000e+000 8.203817e-001 1.796183e-001
 0.000000e+000 0.000000e+000 0.000000e+000 0.000000e+000 0.000000e+000
<ENDHMM>
~h "s"
<BEGINHMM>
<NUMSTATES> 5
<STATE> 2
<MEAN> 25
 -9.228210e-001 -2.686579e-001 4.375022e-001 -4.512649e-001 1.126002e+000 -1.765614e+000 6.318421e-001 1.071623e+000 -5.589619e-001 -4.441826e-001 6.454609e-001 2.878352e-002 3.013456e-002 1.387789e-002 -1.805883e-002 1.768811e-002 -3.231947e-002 1.079318e-003 -2.821053e-002 -1.330990e-002 2.329616e-002 -1.389707e-002 -1.527540e-002 7.396738e-003 -3.066268e-002
<VARIANCE> 25
 1.114255e+002 4.531691e+001 5.054894e+001 5.922881e+001 6.200524e+001 1.029921e+002 5.600029e+001 5.029958e+001 4.306599e+001 4.315197e+001 5.915788e+001 2.911811e+001 4.852418e+000 2.544878e+000 2.254260e+000 3.174345e+000 3.428462e+000 4.007853e+000 3.631003e+000 3.639358e+000 3.387898e+000 3.137274e+000 3.978024e+000 2.344574e+000 5.204188e+000
<GCONST> 1.100917e+002
<STATE> 3
<MEAN> 25
 -8.172100e-001 -2.266666e-001 3.795552e-001 -3.840812e-001 1.008677e+000 -1.778414e+000 5.401334e-001 1.022915e+000 -4.688613e-001 -4.848317e-001 5.983881e-001 5.186866e-002 2.573419e-002 1.410224e-002 -1.871902e-002 2.134380e-002 -3.860788e-002 -9.206922e-004 -2.827176e-002 -1.282223e-002 2.829244e-002 -6.744211e-003 -1.579365e-002 5.024985e-003 -4.373044e-002
<VARIANCE> 25
 1.104836e+002 4.534084e+001 5.042618e+001 5.929574e+001 6.193504e+001 1.033722e+002 5.570043e+001 4.988243e+001 4.344489e+001 4.388603e+001 6.004126e+001 2.885971e+001 4.761769e+000 2.514303e+000 2.250093e+000 3.192636e+000 3.417901e+000 3.959213e+000 3.613528e+000 3.633338e+000 3.362298e+000 3.149123e+000 4.025066e+000 2.349925e+000 5.143885e+000
<GCONST> 1.100525e+002
<STATE> 4
<MEAN> 25
 -5.403758e-001 -2.764680e-001 2.951755e-001 -3.760284e-001 8.639091e-001 -1.876274e+000 5.372136e-001 8.823375e-001 -4.110685e-001 -6.437477e-001 6.875017e-001 1.240413e-001 1.993784e-002 1.367400e-002 -1.295107e-002 3.096789e-002 -4.458445e-002 -3.541491e-003 -2.772571e-002 -1.658498e-002 2.658953e-002 -3.207689e-003 -1.956796e-002 3.176569e-003 -5.886504e-002
<VARIANCE> 25
 1.089041e+002 4.505710e+001 5.065707e+001 5.998967e+001 6.211776e+001 1.034409e+002 5.595621e+001 4.944225e+001 4.394250e+001 4.552284e+001 6.317636e+001 2.812293e+001 4.591718e+000 2.447795e+000 2.267632e+000 3.238676e+000 3.431422e+000 3.883543e+000 3.624748e+000 3.640701e+000 3.337086e+000 3.198301e+000 4.166892e+000 2.335340e+000 5.113904e+000
<GCONST> 1.100996e+002
<TRANSP> 5
 0.000000e+000 1.000000e+000 0.000000e+000 0.000000e+000 0.000000e+000
 0.000000e+000 7.050174e-001 2.949825e-001 0.000000e+000 0.000000e+000
 0.000000e+000 0.000000e+000 7.050175e-001 2.949825e-001 0.000000e+000
 0.000000e+000 0.000000e+000 0.000000e+000 8.238402e-001 1.761598e-001
 0.000000e+000 0.000000e+000 0.000000e+000 0.000000e+000 0.000000e+000
<ENDHMM>
~h "t"
<BEGINHMM>
<NUMSTATES> 5
<STATE> 2
<MEAN> 25
 7.523664e-001 -3.469093e-001 -2.924552e-002 -8.313880e-001 4.574605e-001 -1.347739e+000 4.668012e-001 -4.689626e-001 -7.117630e-001 -5.124561e-001 1.060006e+000 6.424385e-002 -1.490808e-002 7.747458e-003 6.121702e-003 1.657236e-003 1.294249e-003 2.693929e-003 -1.330551e-003 -3.970412e-003 -4.827950e-003 1.761351e-002 -7.252917e-003 -9.553323e-003 -2.559776e-003
<VARIANCE> 25
 8.267576e+001 4.327961e+001 4.672951e+001 6.178720e+001 4.696939e+001 1.206634e+002 5.586081e+001 5.105560e+001 4.649552e+001 4.646017e+001 6.207432e+001 3.023286e+001 3.191571e+000 2.138390e+000 2.118974e+000 3.011188e+000 2.710840e+000 4.428146e+000 3.443454e+000 3.388406e+000 3.596144e+000 3.122403e+000 4.071473e+000 2.397507e+000 5.223297e+000
<GCONST> 1.089770e+002
<STATE> 3
<MEAN> 25
 7.017778e-001 -3.187084e-001 -6.059687e-003 -8.176872e-001 4.604123e-001 -1.334076e+000 4.687320e-001 -4.858516e-001 -7.256459e-001 -4.522524e-001 1.027796e+000 3.681153e-002 -1.587086e-002 1.161728e-002 1.024079e-002 3.708660e-003 3.350278e-003 5.133762e-003 6.043478e-004 -5.144039e-003 -5.273798e-003 1.569927e-002 -1.022340e-002 -6.799755e-003 -5.116716e-003
<VARIANCE> 25
 8.179167e+001 4.278729e+001 4.762500e+001 6.138833e+001 4.760322e+001 1.216821e+002 5.569851e+001 5.020885e+001 4.683247e+001 4.681999e+001 6.175010e+001 3.021770e+001 3.161621e+000 2.096600e+000 2.122923e+000 3.004076e+000 2.705395e+000 4.460952e+000 3.451868e+000 3.373173e+000 3.590634e+000 3.118860e+000 4.038435e+000 2.406658e+000 5.189229e+000
<GCONST> 1.089388e+002
<STATE> 4
<MEAN> 25
 6.904047e-001 -3.218963e-001 5.771258e-002 -7.692572e-001 4.662410e-001 -1.375592e+000 4.727933e-001 -4.976804e-001 -7.320329e-001 -4.149361e-001 9.679054e-001 4.613259e-002 -1.296265e-002 1.027748e-002 1.099884e-002 6.652400e-003 6.891654e-003 1.886510e-003 1.158413e-003 -4.654048e-003 -2.592711e-003 1.245259e-002 -1.241115e-002 -1.954423e-004 -6.997113e-003
<VARIANCE> 25
 8.082168e+001 4.275451e+001 4.876742e+001 6.090345e+001 4.798061e+001 1.229959e+002 5.502282e+001 4.847474e+001 4.676373e+001 4.710314e+001 6.097053e+001 3.036819e+001 3.086708e+000 2.047107e+000 2.126839e+000 2.986225e+000 2.679054e+000 4.444544e+000 3.423694e+000 3.329801e+000 3.557016e+000 3.124995e+000 3.956711e+000 2.425330e+000 5.079278e+000
<GCONST> 1.087818e+002
<TRANSP> 5
 0.000000e+000 1.000000e+000 0.000000e+000 0.000000e+000 0.000000e+000
 0.000000e+000 7.054425e-001 2.945575e-001 0.000000e+000 0.000000e+000
 0.000000e+000 0.000000e+000 7.054421e-001 2.945579e-001 0.000000e+000
 0.000000e+000 0.000000e+000 0.000000e+000 8.239115e-001 1.760884e-001
 0.000000e+000 0.000000e+000 0.000000e+000 0.000000e+000 0.000000e+000
<ENDHMM>
~h "v"
<BEGINHMM>
<NUMSTATES> 5
<STATE> 2
<MEAN> 25
 1.248187e+000 -1.377827e+000 3.292959e-001 1.692787e-001 -4.754105e-001 -1.817592e+000 9.744958e-001 -3.824123e-001 -5.463259e-001 -1.254992e-001 4.702031e-001 2.655542e-001 -2.869041e-003 8.945075e-003 -4.973212e-004 -3.807846e-002 -4.478577e-002 5.580882e-002 9.031013e-003 -1.523411e-003 8.715446e-003 1.489451e-002 1.616567e-002 2.798278e-004 -2.448728e-002
<VARIANCE> 25
 8.766315e+001 3.938999e+001 5.982276e+001 7.526606e+001 5.828528e+001 9.104554e+001 6.761440e+001 4.306089e+001 4.188243e+001 4.660067e+001 6.609696e+001 2.409149e+001 3.427949e+000 1.840639e+000 2.257036e+000 3.480899e+000 3.015559e+000 3.804977e+000 3.378632e+000 3.527172e+000 2.781029e+000 2.727872e+000 3.763604e+000 2.196795e+000 3.580133e+000
<GCONST> 1.082446e+002
<STATE> 3
<MEAN> 25
 1.239400e+000 -1.330291e+000 3.212937e-001 3.948216e-002 -6.183770e-001 -1.613547e+000 9.900584e-001 -4.052877e-001 -5.295409e-001 -9.014520e-002 5.311686e-001 2.638576e-001 -5.743286e-003 1.551129e-002 -1.753175e-004 -3.764368e-002 -4.220252e-002 6.219327e-002 5.835166e-003 -1.004228e-002 6.567885e-003 8.393697e-003 1.583447e-002 2.842341e-004 -3.034239e-002
<VARIANCE> 25
 8.825968e+001 3.969946e+001 5.980129e+001 7.805264e+001 5.814040e+001 9.106667e+001 6.805013e+001 4.325143e+001 4.184553e+001 4.662566e+001 6.683043e+001 2.400681e+001 3.383485e+000 1.792909e+000 2.255367e+000 3.516098e+000 3.026851e+000 3.772244e+000 3.376609e+000 3.536023e+000 2.766987e+000 2.734093e+000 3.724921e+000 2.197551e+000 3.509428e+000
<GCONST> 1.082452e+002
<STATE> 4
<MEAN> 25
 1.235822e+000 -1.216945e+000 2.465114e-001 -1.595512e-001 -7.546765e-001 -1.240218e+000 9.495162e-001 -4.539719e-001 -5.084960e-001 -7.776194e-002 6.149290e-001 2.928989e-001 -2.547072e-003 2.002514e-002 -8.570800e-003 -4.135717e-002 -3.946997e-002 6.067774e-002 5.281681e-003 -1.479253e-002 3.661641e-003 5.193230e-003 1.528905e-002 2.013262e-003 -3.988291e-002
<VARIANCE> 25
 8.928837e+001 4.013222e+001 5.927823e+001 8.176122e+001 5.717104e+001 9.158810e+001 6.836872e+001 4.287711e+001 4.226669e+001 4.720211e+001 6.814899e+001 2.382989e+001 3.295581e+000 1.712680e+000 2.233135e+000 3.547760e+000 3.057552e+000 3.697742e+000 3.364540e+000 3.494678e+000 2.736474e+000 2.773901e+000 3.668715e+000 2.209262e+000 3.382722e+000
<GCONST> 1.081830e+002
<TRANSP> 5
 0.000000e+000 1.000000e+000 0.000000e+000 0.000000e+000 0.000000e+000
 0.000000e+000 7.050330e-001 2.949670e-001 0.000000e+000 0.000000e+000
 0.000000e+000 0.000000e+000 7.050328e-001 2.949672e-001 0.000000e+000
 0.000000e+000 0.000000e+000 0.000000e+000 8.227249e-001 1.772751e-001
 0.000000e+000 0.000000e+000 0.000000e+000 0.000000e+000 0.000000e+000
<ENDHMM>
~h "w"
<BEGINHMM>
<NUMSTATES> 5
<STATE> 2
<MEAN> 25
 2.847617e+000 -1.172014e+000 -2.772121e-001 -2.471756e+000 -1.934344e+000 3.009782e-001 1.106240e+000 -1.215145e+000 -4.735952e-001 -6.524532e-001 1.460187e+000 -3.293855e-002 -3.382217e-002 7.511941e-002 -5.589282e-003 8.320408e-003 5.046234e-002 2.053208e-002 2.544010e-002 -5.226316e-002 -3.143785e-002 -3.237132e-002 2.105919e-002 2.470962e-002 -7.034739e-003
<VARIANCE> 25
 7.248780e+001 4.148370e+001 4.564501e+001 7.444249e+001 5.196964e+001 1.198976e+002 5.484626e+001 4.949705e+001 4.008240e+001 4.664130e+001 8.253671e+001 3.454812e+001 2.389973e+000 1.962824e+000 1.650362e+000 2.806309e+000 2.938937e+000 4.018123e+000 3.131084e+000 3.005285e+000 3.024147e+000 3.250994e+000 4.394115e+000 2.448207e+000 3.982066e+000
<GCONST> 1.080515e+002
<STATE> 3
<MEAN> 25
 2.687670e+000 -9.103491e-001 -3.085172e-001 -2.371552e+000 -1.714937e+000 3.785464e-001 1.146153e+000 -1.378309e+000 -5.549836e-001 -7.358714e-001 1.484484e+000 1.638010e-002 -4.715468e-002 7.745499e-002 -1.583905e-002 3.696089e-002 6.892028e-002 1.674858e-002 1.498404e-002 -5.173185e-002 -1.517983e-002 -2.734745e-002 1.976662e-003 1.170815e-002 -3.431379e-002
<VARIANCE> 25
 7.446387e+001 3.941810e+001 4.614421e+001 7.328575e+001 5.216257e+001 1.194714e+002 5.413195e+001 4.982756e+001 4.002317e+001 4.630201e+001 8.305033e+001 3.404534e+001 2.373392e+000 1.898937e+000 1.597363e+000 2.752446e+000 2.916536e+000 3.949044e+000 3.030454e+000 3.010790e+000 2.974124e+000 3.208136e+000 4.357223e+000 2.443381e+000 3.809352e+000
<GCONST> 1.077664e+002
<STATE> 4
<MEAN> 25
 2.473648e+000 -5.958529e-001 -3.441040e-001 -2.020251e+000 -1.338605e+000 3.705711e-001 1.116752e+000 -1.586034e+000 -6.060960e-001 -8.410417e-001 1.439273e+000 1.054849e-002 -6.143964e-002 7.662503e-002 -2.502651e-002 6.857909e-002 8.940595e-002 9.062680e-003 -1.074679e-002 -4.054576e-002 3.194724e-003 -1.019547e-002 -1.641923e-002 -4.879059e-003 -6.909775e-002
<VARIANCE> 25
 7.676878e+001 3.684864e+001 4.598715e+001 7.046940e+001 5.147620e+001 1.181628e+002 5.384380e+001 5.061477e+001 3.942813e+001 4.609544e+001 8.395955e+001 3.339711e+001 2.356236e+000 1.865460e+000 1.539719e+000 2.720995e+000 2.842861e+000 3.911846e+000 2.913427e+000 3.051459e+000 2.877518e+000 3.184851e+000 4.282024e+000 2.424041e+000 3.661964e+000
<GCONST> 1.074057e+002
<TRANSP> 5
 0.000000e+000 1.000000e+000 0.000000e+000 0.000000e+000 0.000000e+000
 0.000000e+000 6.964306e-001 3.035694e-001 0.000000e+000 0.000000e+000
 0.000000e+000 0.000000e+000 6.964304e-001 3.035696e-001 0.000000e+000
 0.000000e+000 0.000000e+000 0.000000e+000 8.125034e-001 1.874966e-001
 0.000000e+000 0.000000e+000 0.000000e+000 0.000000e+000 0.000000e+000
<ENDHMM>
~h "y"
<BEGINHMM>
<NUMSTATES> 5
<STATE> 2
<MEAN> 25
 3.672778e-001 -4.050780e-001 5.206707e-001 5.341515e-001 -4.379972e-001 -1.209248e-001 -5.246932e-001 1.194483e-001 2.741605e-001 2.320261e-001 -3.269436e-001 1.831630e-001 3.152815e-002 -3.407949e-002 1.875152e-002 7.773791e-003 2.182754e-002 -2.725429e-003 -6.706463e-004 -2.565395e-004 -4.172251e-002 -4.672522e-003 4.243146e-002 3.957132e-002 5.746973e-002
<VARIANCE> 25
 8.835746e+001 3.681307e+001 4.581710e+001 5.715403e+001 3.276535e+001 1.162402e+002 6.015865e+001 4.452431e+001 4.988802e+001 4.361124e+001 6.736852e+001 2.917602e+001 2.822558e+000 1.738318e+000 2.415621e+000 3.213694e+000 2.576480e+000 4.518668e+000 3.545161e+000 3.502164e+000 3.361547e+000 3.464396e+000 3.860465e+000 2.636815e+000 5.128940e+000
<GCONST> 1.083350e+002
<STATE> 3
<MEAN> 25
 4.707875e-001 -5.083938e-001 5.894904e-001 5.507252e-001 -3.702497e-001 -1.294391e-001 -5.076931e-001 1.076561e-001 1.135795e-001 2.101471e-001 -1.727150e-001 2.932741e-001 2.424596e-002 -2.541316e-002 1.851275e-002 6.773887e-003 1.760423e-002 7.090768e-003 2.945161e-003 -4.079788e-003 -4.319168e-002 -5.198370e-003 4.446289e-002 3.016382e-002 6.325965e-002
<VARIANCE> 25
 8.907263e+001 3.688923e+001 4.588308e+001 5.770589e+001 3.295773e+001 1.177431e+002 6.017498e+001 4.420973e+001 5.071693e+001 4.390059e+001 6.817536e+001 2.878132e+001 2.856394e+000 1.729432e+000 2.449249e+000 3.192565e+000 2.576078e+000 4.508617e+000 3.578891e+000 3.444737e+000 3.400305e+000 3.512692e+000 3.880681e+000 2.617420e+000 5.217771e+000
<GCONST> 1.084343e+002
<STATE> 4
<MEAN> 25
 6.087770e-001 -5.512600e-001 6.309003e-001 5.192700e-001 -2.590348e-001 -1.373708e-001 -4.160027e-001 9.089603e-002 -2.194423e-001 1.807400e-001 4.829006e-002 3.114243e-001 1.614607e-002 -6.627599e-003 9.917144e-003 6.639507e-003 1.367009e-002 1.914360e-002 3.168775e-003 -6.948036e-003 -3.843014e-002 -8.322942e-003 3.974741e-002 9.945210e-003 5.365722e-002
<VARIANCE> 25
 8.994773e+001 3.680294e+001 4.625211e+001 5.854972e+001 3.296666e+001 1.189792e+002 5.966022e+001 4.299923e+001 5.204496e+001 4.421394e+001 6.933553e+001 2.831544e+001 2.881721e+000 1.663286e+000 2.462191e+000 3.132874e+000 2.543538e+000 4.437751e+000 3.557946e+000 3.375528e+000 3.424849e+000 3.562774e+000 3.866172e+000 2.569793e+000 5.120718e+000
<GCONST> 1.083541e+002
<TRANSP> 5
 0.000000e+000 1.000000e+000 0.000000e+000 0.000000e+000 0.000000e+000
 0.000000e+000 7.045467e-001 2.954532e-001 0.000000e+000 0.000000e+000
 0.000000e+000 0.000000e+000 7.045467e-001 2.954533e-001 0.000000e+000
 0.000000e+000 0.000000e+000 0.000000e+000 8.224459e-001 1.775541e-001
 0.000000e+000 0.000000e+000 0.000000e+000 0.000000e+000 0.000000e+000
<ENDHMM>
~h "z"
<BEGINHMM>
<NUMSTATES> 5
<STATE> 2
<MEAN> 25
 -3.985494e-001 7.371130e-001 2.536512e-001 2.199463e-001 1.186076e+000 -5.999410e-001 -3.828457e-001 1.183844e+000 -8.746073e-001 -3.953707e-001 -7.836951e-002 -1.263340e+000 -1.063460e-001 4.689000e-002 2.826025e-002 4.962514e-002 3.126865e-002 1.670355e-002 -1.856581e-003 3.910721e-002 7.256108e-003 3.893456e-002 -2.860668e-002 -2.360735e-002 -7.390529e-002
<VARIANCE> 25
 8.582217e+001 4.896748e+001 4.206482e+001 4.187332e+001 4.766615e+001 1.164550e+002 4.775266e+001 3.912076e+001 3.404392e+001 5.409703e+001 8.161488e+001 3.131245e+001 3.685313e+000 2.933093e+000 2.097219e+000 2.289038e+000 3.004628e+000 3.915561e+000 2.893608e+000 2.638595e+000 2.962960e+000 3.246008e+000 3.763534e+000 2.170363e+000 3.861709e+000
<GCONST> 1.074451e+002
<STATE> 3
<MEAN> 25
 -7.482120e-001 9.017699e-001 3.646445e-001 3.899908e-001 1.264195e+000 -5.360493e-001 -4.037697e-001 1.272989e+000 -8.366934e-001 -2.700293e-001 -1.628668e-001 -1.318456e+000 -1.063496e-001 5.227280e-002 3.283687e-002 5.493934e-002 2.616020e-002 2.031201e-002 -1.641790e-002 2.228571e-002 2.032401e-002 3.164086e-002 -1.712153e-002 -9.893845e-003 -8.085176e-002
<VARIANCE> 25
 8.649733e+001 4.851599e+001 4.193787e+001 4.169932e+001 4.833377e+001 1.159365e+002 4.813722e+001 3.860900e+001 3.393544e+001 5.234940e+001 8.015152e+001 3.063569e+001 3.815730e+000 2.950485e+000 2.079989e+000 2.269934e+000 3.039845e+000 3.940071e+000 2.877669e+000 2.558908e+000 2.938935e+000 3.203605e+000 3.830417e+000 2.195636e+000 3.758125e+000
<GCONST> 1.073513e+002
<STATE> 4
<MEAN> 25
 -1.202832e+000 9.800481e-001 6.154312e-001 6.913608e-001 1.270756e+000 -5.560160e-001 -4.890107e-001 1.318681e+000 -7.044845e-001 -1.517021e-001 -1.929768e-001 -1.268571e+000 -8.184922e-002 4.332665e-002 2.977899e-002 4.651363e-002 9.670760e-003 1.857101e-002 -1.886099e-002 -3.260370e-003 2.731440e-002 2.097883e-002 3.100627e-004 4.137331e-003 -7.026207e-002
<VARIANCE> 25
 8.698754e+001 4.744232e+001 4.159754e+001 4.221958e+001 4.883689e+001 1.144255e+002 4.936898e+001 3.740237e+001 3.292955e+001 5.069117e+001 7.936639e+001 2.928572e+001 3.930124e+000 2.897732e+000 2.061201e+000 2.271030e+000 3.118992e+000 3.900466e+000 2.910716e+000 2.471532e+000 2.876359e+000 3.157495e+000 3.954036e+000 2.207351e+000 3.666483e+000
<GCONST> 1.071839e+002
<TRANSP> 5
 0.000000e+000 1.000000e+000 0.000000e+000 0.000000e+000 0.000000e+000
 0.000000e+000 7.047578e-001 2.952423e-001 0.000000e+000 0.000000e+000
 0.000000e+000 0.000000e+000 7.047579e-001 2.952421e-001 0.000000e+000
 0.000000e+000 0.000000e+000 0.000000e+000 8.260014e-001 1.739986e-001
 0.000000e+000 0.000000e+000 0.000000e+000 0.000000e+000 0.000000e+000
<ENDHMM>
~h "aa"
<BEGINHMM>
<NUMSTATES> 5
<STATE> 2
<MEAN> 25
 1.182816e+000 -1.261405e+000 -4.671705e-002 -1.741303e+000 6.439903e-001 -3.266107e+000 2.707510e+000 -3.053993e-002 -1.074912e+000 -2.862408e-001 1.155215e+000 -4.473075e-001 -2.848777e-002 3.403129e-002 -9.042504e-004 3.908176e-002 -1.663003e-003 1.728263e-002 -1.849155e-002 2.844726e-002 -2.221630e-002 -7.205687e-003 -3.577296e-002 -6.298979e-003 -8.669117e-002
<VARIANCE> 25
 9.771909e+001 4.367219e+001 5.190302e+001 6.327585e+001 5.470469e+001 1.346679e+002 6.143939e+001 6.272364e+001 4.917308e+001 4.627906e+001 7.107668e+001 3.394196e+001 3.617725e+000 2.060576e+000 2.140589e+000 3.505493e+000 3.031848e+000 5.024820e+000 3.825887e+000 4.262707e+000 2.846773e+000 3.574035e+000 4.158536e+000 2.512259e+000 5.235974e+000
<GCONST> 1.109439e+002
<STATE> 3
<MEAN> 25
 1.068286e+000 -1.146399e+000 -5.009254e-002 -1.617916e+000 6.546423e-001 -3.198175e+000 2.640703e+000 9.073789e-002 -1.142482e+000 -2.979450e-001 1.035474e+000 -4.585899e-001 -3.448314e-002 3.330426e-002 -2.610697e-003 3.391122e-002 4.687347e-003 2.858454e-002 -2.134076e-002 3.540244e-002 -2.610682e-002 9.250414e-004 -3.271617e-002 -4.179205e-003 -9.355974e-002
<VARIANCE> 25
 9.839943e+001 4.366993e+001 5.071713e+001 6.391373e+001 5.421363e+001 1.356504e+002 6.157535e+001 6.304713e+001 4.965266e+001 4.625229e+001 7.117855e+001 3.352443e+001 3.616190e+000 2.027249e+000 2.130209e+000 3.524346e+000 3.010872e+000 4.985745e+000 3.784427e+000 4.206052e+000 2.839712e+000 3.535650e+000 4.116090e+000 2.484883e+000 5.062494e+000
<GCONST> 1.108180e+002
<STATE> 4
<MEAN> 25
 8.402506e-001 -1.040299e+000 5.284966e-003 -1.457557e+000 7.125027e-001 -3.194118e+000 2.534690e+000 3.442586e-001 -1.165637e+000 -3.498449e-001 9.165906e-001 -4.160002e-001 -4.550215e-002 3.156170e-002 -3.364745e-003 2.919483e-002 1.524306e-002 3.718422e-002 -2.785094e-002 4.574374e-002 -2.585979e-002 7.438547e-003 -3.068253e-002 1.039458e-004 -9.589979e-002
<VARIANCE> 25
 9.935754e+001 4.296927e+001 4.939511e+001 6.419439e+001 5.451128e+001 1.368166e+002 6.137871e+001 6.387531e+001 4.971392e+001 4.629517e+001 7.055463e+001 3.307240e+001 3.655179e+000 1.978964e+000 2.132319e+000 3.531089e+000 3.015208e+000 4.916926e+000 3.756088e+000 4.173888e+000 2.831184e+000 3.484941e+000 4.064855e+000 2.438470e+000 4.941345e+000
<GCONST> 1.106820e+002
<TRANSP> 5
 0.000000e+000 1.000000e+000 0.000000e+000 0.000000e+000 0.000000e+000
 0.000000e+000 6.930871e-001 3.069130e-001 0.000000e+000 0.000000e+000
 0.000000e+000 0.000000e+000 6.930875e-001 3.069125e-001 0.000000e+000
 0.000000e+000 0.000000e+000 0.000000e+000 8.087509e-001 1.912491e-001
 0.000000e+000 0.000000e+000 0.000000e+000 0.000000e+000 0.000000e+000
<ENDHMM>
~h "ae"
<BEGINHMM>
<NUMSTATES> 5
<STATE> 2
<MEAN> 25
 -7.693500e-001 2.592757e-001 -4.958624e-002 3.881026e-001 1.051067e-001 6.497434e-001 -9.345629e-001 7.086924e-001 9.317443e-001 1.569123e-001 -4.759155e-001 -2.423663e-001 4.600256e-003 -8.177260e-004 1.343779e-002 2.196946e-002 -1.674625e-002 5.798559e-002 -1.772031e-002 -2.503860e-002 -1.050955e-002 2.613254e-002 -2.022742e-002 3.626549e-002 -6.213892e-002
<VARIANCE> 25
 8.975269e+001 4.077253e+001 5.728299e+001 4.507230e+001 4.818800e+001 1.142732e+002 4.763109e+001 4.185350e+001 4.465965e+001 4.019358e+001 6.888251e+001 3.097523e+001 3.361043e+000 2.037397e+000 2.272612e+000 2.556661e+000 2.405364e+000 4.623843e+000 3.175668e+000 3.269489e+000 3.082168e+000 2.992578e+000 3.819917e+000 2.488843e+000 4.245155e+000
<GCONST> 1.077302e+002
<STATE> 3
<MEAN> 25
 -6.977457e-001 2.461235e-001 -1.215397e-002 4.960078e-001 6.784247e-003 7.661680e-001 -9.884079e-001 6.347152e-001 9.048668e-001 2.225712e-001 -5.265437e-001 -1.236138e-001 2.798687e-002 -1.282387e-002 8.324543e-003 3.534097e-002 -3.148265e-002 2.712733e-002 -1.298403e-002 -2.149392e-002 -1.336660e-002 1.892445e-002 -1.949438e-002 3.324648e-002 -4.721209e-002
<VARIANCE> 25
 8.851218e+001 4.096821e+001 5.866271e+001 4.434938e+001 4.858120e+001 1.130987e+002 4.883155e+001 4.208727e+001 4.523547e+001 4.003763e+001 6.710113e+001 3.100825e+001 3.353003e+000 2.052853e+000 2.300179e+000 2.540195e+000 2.401875e+000 4.684729e+000 3.243728e+000 3.287747e+000 3.165640e+000 3.009601e+000 3.778347e+000 2.502023e+000 4.413861e+000
<GCONST> 1.078556e+002
<STATE> 4
<MEAN> 25
 -5.644734e-001 2.699724e-001 -3.965858e-002 7.700315e-001 -2.187691e-001 8.880230e-001 -1.059076e+000 6.305692e-001 8.943295e-001 2.375589e-001 -6.695083e-001 -1.190180e-002 6.269031e-002 -3.762202e-002 -1.547942e-003 4.599908e-002 -3.454580e-002 -1.634555e-002 8.423352e-003 -8.657089e-003 -1.614591e-002 -7.701169e-003 -1.596787e-002 3.039423e-002 6.860627e-003
<VARIANCE> 25
 8.479287e+001 4.211949e+001 5.887298e+001 4.293806e+001 4.777489e+001 1.117057e+002 5.050141e+001 4.101975e+001 4.554580e+001 3.860115e+001 6.436756e+001 3.057590e+001 3.290592e+000 2.121925e+000 2.274575e+000 2.498751e+000 2.366784e+000 4.683197e+000 3.331661e+000 3.185193e+000 3.177752e+000 2.973860e+000 3.737326e+000 2.484801e+000 4.822548e+000
<GCONST> 1.077344e+002
<TRANSP> 5
 0.000000e+000 1.000000e+000 0.000000e+000 0.000000e+000 0.000000e+000
 0.000000e+000 6.926153e-001 3.073846e-001 0.000000e+000 0.000000e+000
 0.000000e+000 0.000000e+000 6.926157e-001 3.073843e-001 0.000000e+000
 0.000000e+000 0.000000e+000 0.000000e+000 8.088660e-001 1.911340e-001
 0.000000e+000 0.000000e+000 0.000000e+000 0.000000e+000 0.000000e+000
<ENDHMM>
~h "ah"
<BEGINHMM>
<NUMSTATES> 5
<STATE> 2
<MEAN> 25
 9.043359e-001 -3.888383e-001 -2.989919e-001 -1.613492e-001 -9.075154e-002 -3.689094e-001 1.534761e-001 -3.193132e-001 -1.815654e-001 9.159714e-002 -1.212030e-001 -2.552052e-001 8.287404e-003 2.619034e-003 -2.004516e-002 -3.814996e-002 6.719798e-003 1.656345e-002 -1.207122e-003 -3.487491e-002 -1.043275e-002 -1.333833e-002 6.940261e-003 -1.731809e-003 2.088998e-004
<VARIANCE> 25
 8.158540e+001 4.721287e+001 4.305828e+001 5.794796e+001 4.227450e+001 1.158951e+002 6.027023e+001 4.315495e+001 4.760796e+001 4.320559e+001 6.918322e+001 3.007460e+001 2.678580e+000 1.941762e+000 1.826173e+000 2.793659e+000 2.578260e+000 3.634639e+000 3.205058e+000 2.902585e+000 2.930592e+000 2.831084e+000 3.671411e+000 2.350299e+000 4.277629e+000
<GCONST> 1.071261e+002
<STATE> 3
<MEAN> 25
 9.185414e-001 -3.750220e-001 -3.605334e-001 -3.010521e-001 -6.801879e-002 -3.087001e-001 1.537760e-001 -4.434744e-001 -2.137385e-001 4.822060e-002 -8.333242e-002 -2.520893e-001 3.363036e-003 2.546539e-003 -1.664796e-002 -4.080741e-002 7.385077e-003 1.912345e-002 -1.405332e-003 -3.680969e-002 -6.183688e-003 -1.003648e-002 1.218811e-002 4.449738e-004 5.449082e-003
<VARIANCE> 25
 8.212622e+001 4.756394e+001 4.252567e+001 5.829889e+001 4.219951e+001 1.154741e+002 6.031618e+001 4.333961e+001 4.785609e+001 4.369312e+001 7.008128e+001 3.023695e+001 2.651813e+000 1.969884e+000 1.812975e+000 2.782848e+000 2.592001e+000 3.619848e+000 3.201152e+000 2.895947e+000 2.951641e+000 2.844361e+000 3.716286e+000 2.348097e+000 4.299955e+000
<GCONST> 1.071872e+002
<STATE> 4
<MEAN> 25
 9.730691e-001 -3.795926e-001 -4.231175e-001 -5.372721e-001 -6.695827e-003 -2.744298e-001 2.076835e-001 -6.140987e-001 -2.392346e-001 -3.072765e-002 5.956388e-002 -2.144971e-001 -4.151798e-003 3.804473e-003 -1.144640e-002 -3.648416e-002 7.069237e-003 2.188021e-002 -2.109885e-003 -3.373646e-002 2.500754e-004 -4.653557e-003 1.669923e-002 5.946465e-003 9.421309e-003
<VARIANCE> 25
 8.201818e+001 4.742022e+001 4.162786e+001 5.933445e+001 4.227546e+001 1.132619e+002 6.002711e+001 4.343491e+001 4.804966e+001 4.480469e+001 7.129541e+001 3.036875e+001 2.607527e+000 2.018979e+000 1.794200e+000 2.760879e+000 2.606196e+000 3.591675e+000 3.176455e+000 2.896202e+000 2.986325e+000 2.876861e+000 3.797855e+000 2.354997e+000 4.376428e+000
<GCONST> 1.072544e+002
<TRANSP> 5
 0.000000e+000 1.000000e+000 0.000000e+000 0.000000e+000 0.000000e+000
 0.000000e+000 7.081843e-001 2.918157e-001 0.000000e+000 0.000000e+000
 0.000000e+000 0.000000e+000 7.081835e-001 2.918165e-001 0.000000e+000
 0.000000e+000 0.000000e+000 0.000000e+000 8.274812e-001 1.725188e-001
 0.000000e+000 0.000000e+000 0.000000e+000 0.000000e+000 0.000000e+000
<ENDHMM>
~h "ao"
<BEGINHMM>
<NUMSTATES> 5
<STATE> 2
<MEAN> 25
 1.134131e+000 -1.375332e+000 5.149667e-001 -1.147011e+000 -5.146272e-001 -1.302919e+000 1.020245e+000 3.821065e-001 -5.341403e-001 -3.198886e-001 1.193555e+000 4.704769e-001 -4.409528e-002 7.376417e-003 4.271847e-002 7.415356e-002 -1.355467e-002 3.482276e-002 -5.512699e-002 2.742251e-002 1.774483e-002 3.984087e-002 -4.230556e-002 -6.116520e-003 -1.253335e-001
<VARIANCE> 25
 9.032099e+001 4.077824e+001 6.197238e+001 9.909547e+001 6.939096e+001 1.044295e+002 7.051095e+001 4.575452e+001 4.442553e+001 5.276199e+001 7.118021e+001 2.460791e+001 3.653086e+000 2.107815e+000 2.324327e+000 3.318158e+000 3.937755e+000 3.338919e+000 3.259851e+000 3.382950e+000 3.311957e+000 3.576444e+000 3.819906e+000 2.225282e+000 3.713316e+000
<GCONST> 1.100611e+002
<STATE> 3
<MEAN> 25
 9.957089e-001 -1.372474e+000 6.582515e-001 -8.662282e-001 -5.498929e-001 -1.190482e+000 8.285221e-001 4.506572e-001 -4.894663e-001 -2.057579e-001 1.042421e+000 4.429517e-001 -3.334687e-002 2.302478e-003 3.226437e-002 7.421362e-002 -7.412760e-003 3.264850e-002 -4.572614e-002 1.840818e-002 1.262898e-002 2.659995e-002 -3.971395e-002 -4.793785e-003 -1.154996e-001
<VARIANCE> 25
 9.030531e+001 4.113043e+001 6.184381e+001 9.646290e+001 6.811324e+001 1.047856e+002 7.018363e+001 4.432541e+001 4.429275e+001 5.264535e+001 7.245290e+001 2.437333e+001 3.620472e+000 2.117155e+000 2.301067e+000 3.283248e+000 3.866063e+000 3.293292e+000 3.237600e+000 3.319288e+000 3.332124e+000 3.520501e+000 3.832123e+000 2.189119e+000 3.762080e+000
<GCONST> 1.098989e+002
<STATE> 4
<MEAN> 25
 9.917337e-001 -1.523259e+000 7.895134e-001 -6.003703e-001 -4.736073e-001 -1.307222e+000 6.801525e-001 4.780830e-001 -5.639160e-001 -1.255545e-001 1.007075e+000 4.112737e-001 -1.848692e-002 -3.180188e-003 2.118001e-002 6.860682e-002 -5.157602e-004 2.294035e-002 -3.543336e-002 1.150483e-002 4.237027e-003 1.840004e-002 -3.318411e-002 -2.285290e-003 -9.645271e-002
<VARIANCE> 25
 8.959065e+001 4.110209e+001 6.243825e+001 9.369569e+001 6.525353e+001 1.027878e+002 7.021542e+001 4.339182e+001 4.415409e+001 5.194530e+001 7.339014e+001 2.419536e+001 3.612619e+000 2.120958e+000 2.290738e+000 3.248486e+000 3.744147e+000 3.241563e+000 3.255691e+000 3.271106e+000 3.383555e+000 3.419873e+000 3.813418e+000 2.121789e+000 3.950959e+000
<GCONST> 1.097035e+002
<TRANSP> 5
 0.000000e+000 1.000000e+000 0.000000e+000 0.000000e+000 0.000000e+000
 0.000000e+000 7.123480e-001 2.876520e-001 0.000000e+000 0.000000e+000
 0.000000e+000 0.000000e+000 7.123476e-001 2.876524e-001 0.000000e+000
 0.000000e+000 0.000000e+000 0.000000e+000 8.313506e-001 1.686494e-001
 0.000000e+000 0.000000e+000 0.000000e+000 0.000000e+000 0.000000e+000
<ENDHMM>
~h "aw"
<BEGINHMM>
<NUMSTATES> 5
<STATE> 2
<MEAN> 25
 1.604120e+000 3.233053e-001 -1.424778e+000 -3.031410e+000 4.554329e-001 1.354691e+000 8.028224e-001 -2.172435e+000 1.482954e-001 5.954895e-001 3.283524e-001 -1.430053e-001 -6.686320e-002 2.127654e-002 8.771834e-004 1.279411e-002 1.708069e-002 -1.287736e-002 -2.099860e-002 2.270787e-003 1.450828e-003 2.363994e-002 -6.854041e-003 4.266644e-003 -4.482624e-002
<VARIANCE> 25
 8.790191e+001 5.398902e+001 3.210691e+001 6.201251e+001 3.734353e+001 5.790722e+001 5.637104e+001 7.415047e+001 4.836938e+001 4.439943e+001 8.242828e+001 2.955847e+001 2.913982e+000 2.282855e+000 2.205076e+000 2.705225e+000 2.220167e+000 3.835815e+000 3.692174e+000 3.804396e+000 3.720735e+000 3.110216e+000 5.049269e+000 2.460567e+000 5.092170e+000
<GCONST> 1.085570e+002
<STATE> 3
<MEAN> 25
 1.392906e+000 3.634743e-001 -1.430599e+000 -2.978653e+000 5.218510e-001 1.288261e+000 7.216629e-001 -2.163441e+000 1.458621e-001 6.740543e-001 3.394806e-001 -1.368991e-001 -4.758991e-002 8.982321e-003 -1.260009e-003 1.356707e-002 1.623061e-002 -2.475618e-002 -2.218895e-002 5.440392e-004 4.960776e-003 1.874826e-002 1.461138e-002 5.116972e-003 -1.941514e-002
<VARIANCE> 25
 8.932064e+001 5.357339e+001 3.193738e+001 6.162545e+001 3.671547e+001 5.750422e+001 5.597837e+001 7.499792e+001 4.846199e+001 4.307030e+001 8.131009e+001 2.924796e+001 3.074706e+000 2.363415e+000 2.189295e+000 2.721976e+000 2.212490e+000 3.774709e+000 3.663126e+000 3.885842e+000 3.810730e+000 3.144480e+000 5.123755e+000 2.431904e+000 5.387995e+000
<GCONST> 1.086568e+002
<STATE> 4
<MEAN> 25
 1.386997e+000 3.146754e-001 -1.484256e+000 -2.880480e+000 5.678051e-001 1.092223e+000 6.865346e-001 -2.153068e+000 1.265593e-001 7.127642e-001 5.271456e-001 -9.923483e-002 -2.321737e-002 -6.965501e-003 -3.620516e-003 1.422752e-002 1.333669e-002 -3.332869e-002 -1.520428e-002 3.154089e-004 4.629594e-003 1.176135e-002 4.342236e-002 6.713047e-003 1.112257e-002
<VARIANCE> 25
 8.934576e+001 5.294476e+001 3.185274e+001 6.194933e+001 3.615902e+001 5.786458e+001 5.442908e+001 7.466965e+001 4.919238e+001 4.187548e+001 8.147832e+001 2.941370e+001 3.118655e+000 2.431564e+000 2.162161e+000 2.788685e+000 2.201471e+000 3.710757e+000 3.565386e+000 3.927987e+000 3.845399e+000 3.153279e+000 5.356472e+000 2.447875e+000 5.749247e+000
<GCONST> 1.087447e+002
<TRANSP> 5
 0.000000e+000 1.000000e+000 0.000000e+000 0.000000e+000 0.000000e+000
 0.000000e+000 7.231660e-001 2.768340e-001 0.000000e+000 0.000000e+000
 0.000000e+000 0.000000e+000 7.231660e-001 2.768340e-001 0.000000e+000
 0.000000e+000 0.000000e+000 0.000000e+000 8.436782e-001 1.563218e-001
 0.000000e+000 0.000000e+000 0.000000e+000 0.000000e+000 0.000000e+000
<ENDHMM>
~h "ay"
<BEGINHMM>
<NUMSTATES> 5
<STATE> 2
<MEAN> 25
 1.719611e-001 3.926951e-001 -2.266275e-001 1.427772e-001 7.517024e-001 4.679852e-002 -8.955771e-001 2.386772e-001 1.941109e-001 6.933712e-001 -5.438254e-001 -1.611789e-001 5.651537e-002 -2.564866e-002 2.790818e-002 -1.834556e-002 2.766905e-002 -7.121040e-002 -7.085891e-003 8.295267e-003 2.353718e-002 2.322908e-002 1.409118e-002 -1.535514e-002 1.544465e-001
<VARIANCE> 25
 7.895730e+001 4.881181e+001 3.486270e+001 5.673705e+001 4.965738e+001 1.219283e+002 7.076576e+001 3.750462e+001 3.021802e+001 5.111876e+001 6.360231e+001 2.676394e+001 3.436341e+000 1.970546e+000 1.876240e+000 2.956117e+000 2.699521e+000 3.807520e+000 3.342236e+000 2.538363e+000 2.461983e+000 2.884752e+000 3.450192e+000 2.193922e+000 3.716464e+000
<GCONST> 1.065597e+002
<STATE> 3
<MEAN> 25
 3.757800e-001 2.774576e-001 -1.419610e-001 2.395260e-002 8.169196e-001 -2.012368e-001 -9.169461e-001 2.405505e-001 2.632049e-001 7.327092e-001 -4.773793e-001 -2.352045e-001 6.595237e-002 -4.215595e-002 2.542164e-002 -3.751715e-002 1.451851e-002 -7.913329e-002 -3.038628e-003 6.723566e-004 1.947657e-002 1.084183e-002 1.925032e-002 -2.159332e-002 1.846217e-001
<VARIANCE> 25
 7.913515e+001 5.026417e+001 3.541077e+001 5.642278e+001 4.948401e+001 1.192002e+002 6.925671e+001 3.641046e+001 3.057648e+001 5.079675e+001 6.203796e+001 2.768081e+001 3.513318e+000 2.071288e+000 1.916056e+000 3.070399e+000 2.751849e+000 3.940907e+000 3.339407e+000 2.506202e+000 2.477784e+000 2.906003e+000 3.454071e+000 2.195523e+000 3.964672e+000
<GCONST> 1.067895e+002
<STATE> 4
<MEAN> 25
 6.974872e-001 3.119627e-003 -5.426694e-002 -2.964570e-001 8.025178e-001 -5.544974e-001 -9.270452e-001 2.057203e-001 3.408046e-001 7.392617e-001 -3.345331e-001 -3.307302e-001 5.535983e-002 -5.012714e-002 1.489615e-002 -6.185531e-002 -3.865069e-003 -6.463911e-002 1.380916e-002 -8.298871e-003 1.550879e-002 -6.933621e-003 2.554168e-002 -2.211630e-002 1.785595e-001
<VARIANCE> 25
 7.925887e+001 5.294763e+001 3.531004e+001 5.603183e+001 4.914740e+001 1.145974e+002 6.652999e+001 3.527431e+001 3.124653e+001 4.982317e+001 6.060990e+001 2.891665e+001 3.485957e+000 2.211164e+000 1.899083e+000 3.085016e+000 2.796295e+000 4.038920e+000 3.282362e+000 2.438907e+000 2.499953e+000 2.879272e+000 3.436756e+000 2.203812e+000 4.206533e+000
<GCONST> 1.068451e+002
<TRANSP> 5
 0.000000e+000 1.000000e+000 0.000000e+000 0.000000e+000 0.000000e+000
 0.000000e+000 7.033793e-001 2.966207e-001 0.000000e+000 0.000000e+000
 0.000000e+000 0.000000e+000 7.033796e-001 2.966204e-001 0.000000e+000
 0.000000e+000 0.000000e+000 0.000000e+000 8.206547e-001 1.793453e-001
 0.000000e+000 0.000000e+000 0.000000e+000 0.000000e+000 0.000000e+000
<ENDHMM>
~h "ch"
<BEGINHMM>
<NUMSTATES> 5
<STATE> 2
<MEAN> 25
 -1.154098e+000 -1.795197e-001 4.554363e-001 4.949372e-001 5.890127e-003 -9.036680e-002 -8.435110e-001 1.257611e+000 3.138579e-001 -9.693667e-001 -5.622739e-001 5.548447e-001 6.994519e-002 -1.716066e-002 -1.424960e-001 -6.408796e-002 2.985623e-002 -3.216779e-002 8.043617e-002 5.897233e-002 3.375956e-002 -2.803099e-002 -3.204469e-002 -3.343667e-002 5.351030e-002
<VARIANCE> 25
 7.785572e+001 5.154478e+001 5.200686e+001 3.600410e+001 4.407113e+001 1.315945e+002 6.629630e+001 3.233018e+001 3.318389e+001 2.839823e+001 8.791001e+001 2.325200e+001 3.352882e+000 2.444072e+000 2.155141e+000 2.821033e+000 3.047543e+000 4.637793e+000 4.653751e+000 2.396874e+000 2.627405e+000 2.218303e+000 3.868728e+000 2.307439e+000 5.908702e+000
<GCONST> 1.072831e+002
<STATE> 3
<MEAN> 25
 -9.275453e-001 -2.490474e-001 -6.498045e-002 2.151410e-001 1.220271e-001 -1.784471e-001 -5.167398e-001 1.422008e+000 4.350806e-001 -9.986675e-001 -5.863730e-001 4.436062e-001 5.860971e-002 -2.595774e-002 -1.401194e-001 -7.877070e-002 3.561917e-002 -2.918595e-002 9.733057e-002 4.261561e-002 4.309818e-002 -7.355202e-003 1.689428e-003 -3.034107e-002 7.949949e-002
<VARIANCE> 25
 7.863074e+001 5.279599e+001 4.817606e+001 3.853201e+001 4.210543e+001 1.291823e+002 7.120179e+001 3.182784e+001 3.235136e+001 2.771538e+001 8.914045e+001 2.232717e+001 3.464313e+000 2.525946e+000 2.173980e+000 2.859859e+000 3.004495e+000 4.773113e+000 4.881164e+000 2.356882e+000 2.529476e+000 2.195997e+000 4.031089e+000 2.214313e+000 6.289663e+000
<GCONST> 1.073712e+002
<STATE> 4
<MEAN> 25
 -5.245399e-001 -8.280864e-001 -8.085495e-001 -7.004979e-001 6.975669e-001 -8.267279e-001 3.782653e-001 1.502755e+000 3.901523e-001 -1.138880e+000 3.751065e-001 4.724269e-001 3.925722e-002 -3.922675e-002 -9.408294e-002 -1.036813e-001 4.726269e-002 -2.294382e-002 9.936415e-002 -4.831113e-003 1.936222e-002 6.107002e-003 6.498560e-002 6.921813e-004 1.353010e-001
<VARIANCE> 25
 8.608128e+001 5.254938e+001 4.527198e+001 4.618665e+001 4.319855e+001 1.227164e+002 7.971730e+001 3.252995e+001 3.226765e+001 3.037464e+001 9.502898e+001 2.223387e+001 3.909053e+000 2.709358e+000 2.343574e+000 3.094121e+000 3.207439e+000 4.964283e+000 5.327723e+000 2.432810e+000 2.569382e+000 2.348089e+000 4.639950e+000 2.205142e+000 7.021924e+000
<GCONST> 1.087319e+002
<TRANSP> 5
 0.000000e+000 1.000000e+000 0.000000e+000 0.000000e+000 0.000000e+000
 0.000000e+000 7.183352e-001 2.816648e-001 0.000000e+000 0.000000e+000
 0.000000e+000 0.000000e+000 7.183354e-001 2.816646e-001 0.000000e+000
 0.000000e+000 0.000000e+000 0.000000e+000 8.411844e-001 1.588156e-001
 0.000000e+000 0.000000e+000 0.000000e+000 0.000000e+000 0.000000e+000
<ENDHMM>
~h "dh"
<BEGINHMM>
<NUMSTATES> 5
<STATE> 2
<MEAN> 25
 5.810410e-001 3.201304e-001 -1.842842e+000 -2.325751e-002 4.146467e-001 3.505528e-001 5.204200e-001 -9.801660e-001 -5.312769e-002 -9.484345e-001 1.061138e+000 -1.067593e+000 4.079890e-002 9.633249e-003 1.798387e-002 5.667954e-002 1.058472e-003 -8.979897e-002 -4.671790e-002 1.976868e-002 5.005110e-002 -5.473196e-002 8.953331e-003 -2.167678e-002 5.735324e-002
<VARIANCE> 25
 6.285603e+001 3.661319e+001 2.272220e+001 6.708499e+001 2.925207e+001 1.187854e+002 4.948460e+001 3.906451e+001 4.724530e+001 3.665623e+001 7.377322e+001 2.972741e+001 1.888542e+000 1.683112e+000 1.330845e+000 2.190086e+000 1.973755e+000 3.062176e+000 2.632951e+000 2.627791e+000 2.541716e+000 2.918362e+000 3.580359e+000 2.010660e+000 3.492562e+000
<GCONST> 1.030756e+002
<STATE> 3
<MEAN> 25
 7.223898e-001 3.529298e-001 -1.739088e+000 1.624958e-001 3.859356e-001 1.939607e-002 3.317564e-001 -8.751751e-001 1.361865e-001 -1.144691e+000 1.087590e+000 -1.119463e+000 4.830237e-002 2.442871e-003 3.543025e-002 5.244737e-002 -8.840306e-003 -1.082754e-001 -5.240900e-002 3.164101e-002 4.771383e-002 -5.518406e-002 1.333586e-002 -1.131689e-002 6.946506e-002
<VARIANCE> 25
 6.209953e+001 3.593775e+001 2.400243e+001 6.893636e+001 2.865534e+001 1.156029e+002 5.037077e+001 4.145557e+001 4.712780e+001 3.545891e+001 7.056680e+001 3.034036e+001 1.981648e+000 1.761398e+000 1.345825e+000 2.211085e+000 1.969629e+000 3.189337e+000 2.583038e+000 2.681095e+000 2.552883e+000 2.863800e+000 3.578966e+000 1.992488e+000 3.759130e+000
<GCONST> 1.033000e+002
<STATE> 4
<MEAN> 25
 1.016183e+000 2.859561e-001 -1.431400e+000 2.681740e-001 3.202891e-001 -5.939774e-001 1.223540e-001 -7.156778e-001 2.929179e-001 -1.416366e+000 1.155708e+000 -1.059493e+000 4.418365e-002 -7.040672e-004 5.668536e-002 3.459307e-002 -2.142562e-002 -1.052336e-001 -5.023674e-002 3.406168e-002 4.357446e-002 -5.230487e-002 8.109226e-003 4.533996e-003 6.802346e-002
<VARIANCE> 25
 6.179100e+001 3.454459e+001 2.687739e+001 7.542577e+001 2.833424e+001 1.078671e+002 5.359854e+001 4.510106e+001 4.857706e+001 3.550827e+001 6.512330e+001 3.058550e+001 2.068418e+000 1.854582e+000 1.396672e+000 2.259958e+000 1.991108e+000 3.254683e+000 2.509008e+000 2.760827e+000 2.607451e+000 2.818233e+000 3.567309e+000 1.986404e+000 4.099177e+000
<GCONST> 1.037540e+002
<TRANSP> 5
 0.000000e+000 1.000000e+000 0.000000e+000 0.000000e+000 0.000000e+000
 0.000000e+000 7.186306e-001 2.813694e-001 0.000000e+000 0.000000e+000
 0.000000e+000 0.000000e+000 7.186309e-001 2.813691e-001 0.000000e+000
 0.000000e+000 0.000000e+000 0.000000e+000 8.388051e-001 1.611949e-001
 0.000000e+000 0.000000e+000 0.000000e+000 0.000000e+000 0.000000e+000
<ENDHMM>
~h "eh"
<BEGINHMM>
<NUMSTATES> 5
<STATE> 2
<MEAN> 25
 8.737116e-001 -3.167751e-001 -8.967390e-001 1.417368e-001 -3.493510e-002 -9.846513e-001 1.225436e-001 2.716084e-001 6.205190e-002 -1.983754e-001 1.181134e-001 -3.725724e-001 -1.004786e-002 -1.640045e-002 3.014077e-002 3.077697e-002 9.519718e-003 -5.447981e-002 6.263562e-003 1.856830e-002 1.539049e-002 -2.345761e-002 2.071748e-002 5.341634e-003 6.482100e-002
<VARIANCE> 25
 8.379623e+001 5.453482e+001 3.835368e+001 4.987209e+001 3.960054e+001 1.283733e+002 5.174296e+001 3.948720e+001 4.055643e+001 4.331216e+001 6.484417e+001 2.764013e+001 2.991289e+000 2.191227e+000 1.692001e+000 2.925332e+000 2.376844e+000 3.598846e+000 3.004385e+000 3.041575e+000 2.901747e+000 2.867189e+000 3.741362e+000 2.178849e+000 4.424669e+000
<GCONST> 1.065913e+002
<STATE> 3
<MEAN> 25
 8.417295e-001 -3.812247e-001 -7.963561e-001 2.269844e-001 -1.365688e-003 -1.183057e+000 1.623301e-001 3.549146e-001 1.168201e-001 -2.657969e-001 1.944836e-001 -3.716618e-001 -6.081539e-003 -2.461845e-002 3.239414e-002 2.650852e-002 9.534195e-003 -6.709174e-002 1.951567e-002 2.827548e-002 1.831610e-002 -2.038850e-002 2.234741e-002 1.959158e-003 8.542139e-002
<VARIANCE> 25
 8.312135e+001 5.571496e+001 3.911640e+001 4.986981e+001 3.936532e+001 1.297455e+002 5.178625e+001 3.928442e+001 3.966526e+001 4.301154e+001 6.477366e+001 2.728425e+001 3.015538e+000 2.262159e+000 1.711438e+000 2.943288e+000 2.387179e+000 3.646338e+000 3.019593e+000 3.026291e+000 2.859204e+000 2.890942e+000 3.691083e+000 2.159819e+000 4.570941e+000
<GCONST> 1.066600e+002
<STATE> 4
<MEAN> 25
 8.096333e-001 -5.279925e-001 -6.498580e-001 2.903505e-001 6.528176e-002 -1.508421e+000 3.040151e-001 5.106562e-001 1.682099e-001 -3.046854e-001 3.061670e-001 -4.259292e-001 -6.133523e-003 -3.233032e-002 2.712768e-002 1.645790e-002 4.656592e-003 -6.556826e-002 2.779289e-002 3.485358e-002 2.169069e-002 -1.077600e-002 2.125017e-002 -7.418456e-003 8.889452e-002
<VARIANCE> 25
 8.211346e+001 5.622823e+001 4.025111e+001 4.998476e+001 3.903717e+001 1.301419e+002 5.186734e+001 3.932548e+001 3.866834e+001 4.239862e+001 6.353817e+001 2.722006e+001 3.057466e+000 2.335305e+000 1.748751e+000 2.914415e+000 2.384028e+000 3.673171e+000 3.003519e+000 3.011009e+000 2.808578e+000 2.910555e+000 3.581067e+000 2.127992e+000 4.682593e+000
<GCONST> 1.066447e+002
<TRANSP> 5
 0.000000e+000 1.000000e+000 0.000000e+000 0.000000e+000 0.000000e+000
 0.000000e+000 6.987942e-001 3.012057e-001 0.000000e+000 0.000000e+000
 0.000000e+000 0.000000e+000 6.987945e-001 3.012055e-001 0.000000e+000
 0.000000e+000 0.000000e+000 0.000000e+000 8.151129e-001 1.848871e-001
 0.000000e+000 0.000000e+000 0.000000e+000 0.000000e+000 0.000000e+000
<ENDHMM>
~h "er"
<BEGINHMM>
<NUMSTATES> 5
<STATE> 2
<MEAN> 25
 7.228718e-001 -4.712996e-001 -1.507876e-001 -2.133616e-002 2.294334e-001 -6.190161e-001 1.333412e-002 -1.963194e-001 2.958519e-001 5.340515e-002 8.746386e-001 -4.519376e-001 7.686750e-003 -8.051217e-004 9.018477e-003 1.408986e-003 -8.669532e-003 -2.485882e-002 1.500171e-002 -1.661136e-002 2.055030e-002 -3.260525e-003 -6.834711e-003 -1.695585e-002 1.610371e-002
<VARIANCE> 25
 7.887794e+001 4.089608e+001 4.414302e+001 4.824634e+001 3.994685e+001 1.150057e+002 4.767715e+001 4.429124e+001 4.591199e+001 4.052098e+001 6.429472e+001 3.140700e+001 3.204284e+000 2.029295e+000 1.871031e+000 2.484940e+000 2.186139e+000 4.029282e+000 2.797045e+000 3.068446e+000 3.167702e+000 2.889872e+000 3.607626e+000 2.250165e+000 4.180679e+000
<GCONST> 1.063896e+002
<STATE> 3
<MEAN> 25
 7.463599e-001 -4.585828e-001 -1.087365e-001 5.793139e-003 1.922854e-001 -6.853498e-001 4.324059e-002 -2.647332e-001 3.718868e-001 1.930548e-002 8.437791e-001 -5.081608e-001 5.619839e-003 3.234526e-003 1.006015e-002 9.204278e-003 -8.314916e-003 -1.698344e-002 2.102079e-003 -1.973361e-002 1.874709e-002 -1.444272e-002 -1.765550e-002 -1.586162e-002 -4.535124e-003
<VARIANCE> 25
 7.838992e+001 4.066512e+001 4.355741e+001 4.824421e+001 4.037824e+001 1.146281e+002 4.857399e+001 4.408323e+001 4.635155e+001 4.016091e+001 6.475085e+001 3.189641e+001 3.121721e+000 1.995999e+000 1.824944e+000 2.455945e+000 2.193068e+000 4.014969e+000 2.790038e+000 3.083646e+000 3.164623e+000 2.854842e+000 3.611307e+000 2.276767e+000 4.097423e+000
<GCONST> 1.063110e+002
<STATE> 4
<MEAN> 25
 7.135578e-001 -4.032471e-001 -1.896865e-002 1.416286e-001 1.696176e-001 -6.968182e-001 2.185536e-002 -3.455980e-001 5.047762e-001 -7.081457e-002 7.405331e-001 -5.441186e-001 -8.228246e-003 1.245055e-002 1.593670e-002 2.301144e-002 -1.115742e-002 -2.851997e-003 -1.039212e-002 -1.585302e-002 1.342313e-002 -2.942056e-002 -2.632868e-002 -9.124171e-003 -3.511161e-002
<VARIANCE> 25
 7.876714e+001 4.038153e+001 4.264109e+001 4.755429e+001 4.069894e+001 1.137987e+002 4.922155e+001 4.403327e+001 4.646886e+001 3.978512e+001 6.599568e+001 3.210740e+001 2.956584e+000 1.935895e+000 1.746741e+000 2.361542e+000 2.188570e+000 3.928572e+000 2.748610e+000 3.084929e+000 3.093114e+000 2.793730e+000 3.612787e+000 2.325233e+000 3.886603e+000
<GCONST> 1.060226e+002
<TRANSP> 5
 0.000000e+000 1.000000e+000 0.000000e+000 0.000000e+000 0.000000e+000
 0.000000e+000 7.089783e-001 2.910217e-001 0.000000e+000 0.000000e+000
 0.000000e+000 0.000000e+000 7.089789e-001 2.910211e-001 0.000000e+000
 0.000000e+000 0.000000e+000 0.000000e+000 8.277943e-001 1.722057e-001
 0.000000e+000 0.000000e+000 0.000000e+000 0.000000e+000 0.000000e+000
<ENDHMM>
~h "ey"
<BEGINHMM>
<NUMSTATES> 5
<STATE> 2
<MEAN> 25
 5.693788e-003 -8.683618e-001 1.526288e+000 1.072226e+000 -1.403656e+000 -1.269734e+000 7.754477e-002 -6.248549e-002 -8.451245e-001 -4.116908e-001 3.316677e-001 8.518386e-001 4.501651e-003 3.982897e-002 -6.669214e-002 -5.798959e-002 9.370697e-003 8.296038e-002 1.195691e-002 -2.589011e-002 -5.867583e-003 1.485756e-002 9.963117e-003 -2.376409e-003 -6.343980e-002
<VARIANCE> 25
 9.171019e+001 4.955216e+001 6.306578e+001 4.972084e+001 5.150943e+001 1.473914e+002 4.867487e+001 4.308491e+001 4.677604e+001 5.020416e+001 7.181962e+001 3.035087e+001 3.057698e+000 2.164860e+000 2.107316e+000 2.709312e+000 2.644806e+000 4.056126e+000 3.021906e+000 3.078182e+000 3.085473e+000 3.041888e+000 4.068461e+000 2.366091e+000 4.557401e+000
<GCONST> 1.087065e+002
<STATE> 3
<MEAN> 25
 5.017712e-002 -7.349764e-001 1.281052e+000 8.558108e-001 -1.366164e+000 -9.949647e-001 1.207708e-001 -1.344831e-001 -8.524038e-001 -3.579212e-001 3.625652e-001 8.324496e-001 1.940686e-002 4.111090e-002 -6.831899e-002 -6.496930e-002 5.829328e-003 7.617397e-002 7.726009e-003 -2.400413e-002 -3.940032e-003 1.523843e-002 9.288890e-003 -6.778027e-003 -5.954487e-002
<VARIANCE> 25
 9.127866e+001 4.981946e+001 6.128504e+001 5.077380e+001 5.183802e+001 1.455280e+002 4.963386e+001 4.408790e+001 4.668489e+001 5.081691e+001 7.307755e+001 3.058778e+001 3.005726e+000 2.187542e+000 2.077737e+000 2.690037e+000 2.639981e+000 4.011742e+000 3.038957e+000 3.158482e+000 3.093367e+000 3.049501e+000 4.144752e+000 2.391022e+000 4.557843e+000
<GCONST> 1.087957e+002
<STATE> 4
<MEAN> 25
 3.516360e-001 -6.969002e-001 9.386510e-001 4.714143e-001 -1.229345e+000 -8.612280e-001 2.502412e-001 -2.267431e-001 -8.742481e-001 -3.167498e-001 4.669639e-001 8.115179e-001 3.210463e-002 4.337924e-002 -6.724345e-002 -6.859002e-002 3.707723e-003 6.710773e-002 8.786623e-003 -2.138373e-002 -2.640239e-004 1.231857e-002 4.932345e-003 -1.476289e-002 -4.718558e-002
<VARIANCE> 25
 8.989796e+001 5.000697e+001 6.013803e+001 5.265833e+001 5.242124e+001 1.419380e+002 5.154990e+001 4.562496e+001 4.640411e+001 5.232872e+001 7.500009e+001 3.133843e+001 2.957381e+000 2.231001e+000 2.053484e+000 2.686482e+000 2.633569e+000 4.002357e+000 3.073602e+000 3.270488e+000 3.080289e+000 3.043883e+000 4.221897e+000 2.426911e+000 4.640016e+000
<GCONST> 1.090105e+002
<TRANSP> 5
 0.000000e+000 1.000000e+000 0.000000e+000 0.000000e+000 0.000000e+000
 0.000000e+000 6.947112e-001 3.052887e-001 0.000000e+000 0.000000e+000
 0.000000e+000 0.000000e+000 6.947113e-001 3.052887e-001 0.000000e+000
 0.000000e+000 0.000000e+000 0.000000e+000 8.123420e-001 1.876579e-001
 0.000000e+000 0.000000e+000 0.000000e+000 0.000000e+000 0.000000e+000
<ENDHMM>
~h "hh"
<BEGINHMM>
<NUMSTATES> 5
<STATE> 2
<MEAN> 25
 6.848184e-001 -6.920276e-001 1.362039e-001 -1.256400e+000 -2.787018e-001 -1.015781e+000 6.386640e-001 -8.769621e-001 3.317890e-003 -9.408299e-001 1.408009e+000 1.047419e+000 -2.842455e-002 5.827377e-002 3.601485e-002 4.492738e-002 -3.595630e-003 -3.626440e-002 -3.355676e-002 3.670186e-002 2.357383e-002 -2.537860e-002 -6.994757e-002 2.410550e-002 -7.167791e-002
<VARIANCE> 25
 8.775924e+001 5.375355e+001 3.919960e+001 5.760602e+001 5.317355e+001 1.178011e+002 6.219695e+001 7.177785e+001 5.939778e+001 5.274627e+001 6.741534e+001 4.043713e+001 2.589947e+000 2.134694e+000 1.782310e+000 2.260803e+000 2.772545e+000 3.941911e+000 3.362396e+000 4.056040e+000 3.166391e+000 3.042499e+000 2.827004e+000 2.312872e+000 4.284627e+000
<GCONST> 1.089409e+002
<STATE> 3
<MEAN> 25
 6.199779e-001 -5.084530e-001 2.470834e-001 -1.114326e+000 -2.767396e-001 -1.129323e+000 5.474987e-001 -8.019981e-001 3.834921e-002 -1.040962e+000 1.199113e+000 1.130339e+000 -2.223102e-002 5.114481e-002 3.657905e-002 4.700104e-002 1.739306e-003 -2.955243e-002 -2.959895e-002 2.152132e-002 8.972472e-003 -2.611490e-002 -5.992523e-002 2.127782e-002 -5.643021e-002
<VARIANCE> 25
 8.983174e+001 5.373635e+001 3.780217e+001 5.591576e+001 5.327659e+001 1.189846e+002 6.124857e+001 7.179357e+001 6.019214e+001 5.364717e+001 6.839798e+001 3.956469e+001 2.546000e+000 2.163539e+000 1.738671e+000 2.285698e+000 2.708914e+000 3.892796e+000 3.303619e+000 4.055501e+000 3.136734e+000 3.069835e+000 2.840135e+000 2.343044e+000 4.218159e+000
<GCONST> 1.088480e+002
<STATE> 4
<MEAN> 25
 6.789735e-001 -3.742197e-001 3.673227e-001 -1.044188e+000 -2.645608e-001 -1.306853e+000 5.588615e-001 -7.800444e-001 -4.697167e-002 -1.301438e+000 1.091677e+000 1.184794e+000 -8.422014e-003 3.973430e-002 2.422834e-002 2.765056e-002 1.373677e-002 -1.322087e-002 -1.402252e-002 4.857789e-003 -1.163903e-002 -2.624230e-002 -3.871663e-002 -2.129823e-003 -2.763109e-002
<VARIANCE> 25
 9.213110e+001 5.346033e+001 3.582632e+001 5.601989e+001 5.355013e+001 1.182667e+002 6.014436e+001 7.098840e+001 5.740736e+001 5.536799e+001 6.984280e+001 3.870096e+001 2.470219e+000 2.221488e+000 1.662230e+000 2.429906e+000 2.641338e+000 3.816576e+000 3.228522e+000 3.977330e+000 2.998519e+000 3.096223e+000 2.912532e+000 2.420967e+000 4.238047e+000
<GCONST> 1.087199e+002
<TRANSP> 5
 0.000000e+000 1.000000e+000 0.000000e+000 0.000000e+000 0.000000e+000
 0.000000e+000 7.085780e-001 2.914220e-001 0.000000e+000 0.000000e+000
 0.000000e+000 0.000000e+000 7.085782e-001 2.914218e-001 0.000000e+000
 0.000000e+000 0.000000e+000 0.000000e+000 8.261631e-001 1.738369e-001
 0.000000e+000 0.000000e+000 0.000000e+000 0.000000e+000 0.000000e+000
<ENDHMM>
~h "ih"
<BEGINHMM>
<NUMSTATES> 5
<STATE> 2
<MEAN> 25
 -5.558018e-001 4.371673e-002 4.276130e-001 -7.405779e-002 6.681290e-001 -3.466105e-001 -5.441395e-003 2.256811e-001 2.351993e-001 2.516398e-001 5.332727e-001 -5.651727e-002 2.159486e-002 -1.592807e-002 1.065333e-002 2.868465e-002 -1.146811e-002 -2.395526e-002 -1.552059e-002 1.550296e-002 7.763081e-003 3.212909e-003 -8.826532e-003 1.728477e-003 -2.672683e-003
<VARIANCE> 25
 8.933964e+001 4.348965e+001 4.201564e+001 4.916944e+001 4.519430e+001 1.321968e+002 4.926036e+001 3.901768e+001 4.401441e+001 4.239957e+001 6.004270e+001 2.721664e+001 3.154194e+000 2.159315e+000 2.049806e+000 2.628725e+000 2.427918e+000 5.068052e+000 2.993018e+000 2.982463e+000 3.209073e+000 2.967353e+000 3.829433e+000 2.282948e+000 4.631363e+000
<GCONST> 1.072886e+002
<STATE> 3
<MEAN> 25
 -4.508216e-001 -2.660326e-002 4.722310e-001 2.030358e-002 6.377997e-001 -4.756814e-001 -8.321615e-002 2.929578e-001 2.467575e-001 2.289805e-001 5.191205e-001 -6.055351e-002 2.877184e-002 -1.620278e-002 8.979512e-003 2.405916e-002 -1.125081e-002 -3.195640e-002 -2.307665e-002 2.132835e-002 2.965160e-003 -4.147401e-003 -4.582148e-003 -2.769421e-003 1.565979e-002
<VARIANCE> 25
 8.933137e+001 4.336586e+001 4.335585e+001 4.934797e+001 4.523992e+001 1.332326e+002 4.889940e+001 3.920023e+001 4.334315e+001 4.233395e+001 5.944534e+001 2.722194e+001 3.179605e+000 2.141134e+000 2.101369e+000 2.657236e+000 2.436647e+000 5.191982e+000 2.991795e+000 2.973207e+000 3.203069e+000 2.985192e+000 3.870626e+000 2.288420e+000 4.680549e+000
<GCONST> 1.073873e+002
<STATE> 4
<MEAN> 25
 -2.611112e-001 -1.487715e-001 4.770256e-001 1.002865e-001 5.737719e-001 -7.579232e-001 -2.182184e-001 3.728055e-001 1.661964e-001 1.127003e-001 6.279813e-001 -1.300543e-001 2.762123e-002 -1.737686e-002 7.982900e-003 1.399313e-002 -6.799822e-003 -3.986413e-002 -2.836487e-002 1.865647e-002 -7.090543e-003 -7.598612e-003 8.965193e-003 -4.551236e-003 4.270830e-002
<VARIANCE> 25
 8.839439e+001 4.347104e+001 4.599591e+001 4.941997e+001 4.454788e+001 1.321685e+002 4.784446e+001 3.909988e+001 4.246991e+001 4.233669e+001 5.828634e+001 2.734438e+001 3.166242e+000 2.086370e+000 2.146841e+000 2.665642e+000 2.429813e+000 5.203594e+000 2.964984e+000 2.963218e+000 3.163432e+000 2.992939e+000 3.919206e+000 2.300290e+000 4.720832e+000
<GCONST> 1.073543e+002
<TRANSP> 5
 0.000000e+000 1.000000e+000 0.000000e+000 0.000000e+000 0.000000e+000
 0.000000e+000 7.049471e-001 2.950529e-001 0.000000e+000 0.000000e+000
 0.000000e+000 0.000000e+000 7.049468e-001 2.950532e-001 0.000000e+000
 0.000000e+000 0.000000e+000 0.000000e+000 8.236247e-001 1.763752e-001
 0.000000e+000 0.000000e+000 0.000000e+000 0.000000e+000 0.000000e+000
<ENDHMM>
~h "iy"
<BEGINHMM>
<NUMSTATES> 5
<STATE> 2
<MEAN> 25
 -2.680571e-001 -3.136373e-001 1.826352e+000 5.919312e-001 -2.946905e-001 -1.236068e+000 8.901113e-001 -3.144551e-001 -6.758839e-001 -1.099615e+000 3.640618e-001 3.968777e-001 -6.617210e-002 1.341837e-002 3.202075e-002 2.593804e-002 -2.790634e-002 3.234722e-002 -1.658997e-002 -6.686983e-003 1.160328e-002 -9.161483e-003 -8.166637e-003 -5.674158e-003 -6.249000e-002
<VARIANCE> 25
 8.749350e+001 4.025446e+001 6.444649e+001 6.446232e+001 6.077032e+001 1.153807e+002 6.167401e+001 4.708211e+001 4.179843e+001 4.551484e+001 5.872035e+001 2.600008e+001 3.672555e+000 2.243066e+000 2.511001e+000 3.141674e+000 3.463485e+000 4.688887e+000 3.402802e+000 3.439775e+000 2.944809e+000 3.035986e+000 3.617787e+000 2.241835e+000 4.320761e+000
<GCONST> 1.093253e+002
<STATE> 3
<MEAN> 25
 -4.732510e-001 -2.761631e-001 1.901123e+000 6.468018e-001 -3.695815e-001 -1.112578e+000 8.396901e-001 -3.478771e-001 -6.340637e-001 -1.120209e+000 3.432930e-001 3.854068e-001 -5.557849e-002 9.863678e-003 1.765914e-002 1.219426e-002 -1.817106e-002 3.050631e-002 -1.256967e-002 -6.367760e-003 1.234622e-002 -5.459886e-003 -8.100390e-003 -3.556495e-003 -5.654810e-002
<VARIANCE> 25
 8.889938e+001 4.016207e+001 6.541854e+001 6.576568e+001 6.061969e+001 1.162633e+002 6.262574e+001 4.776609e+001 4.155511e+001 4.458743e+001 5.846526e+001 2.567873e+001 3.648863e+000 2.192397e+000 2.513772e+000 3.147346e+000 3.466240e+000 4.537013e+000 3.406453e+000 3.437159e+000 2.901152e+000 2.988605e+000 3.560550e+000 2.235847e+000 4.180525e+000
<GCONST> 1.092251e+002
<STATE> 4
<MEAN> 25
 -5.155153e-001 -3.213765e-001 1.920297e+000 5.577840e-001 -4.443385e-001 -1.071815e+000 8.928906e-001 -4.593897e-001 -6.318012e-001 -1.190232e+000 3.923835e-001 3.969598e-001 -3.807266e-002 5.175631e-003 -1.148138e-002 -1.033249e-002 -5.084128e-003 3.185007e-002 -3.893143e-003 -5.572234e-003 1.555228e-002 1.219527e-003 -9.533157e-003 -3.018577e-003 -5.197065e-002
<VARIANCE> 25
 9.046556e+001 3.980874e+001 6.722359e+001 6.816848e+001 6.042560e+001 1.160522e+002 6.410244e+001 4.835581e+001 4.117331e+001 4.434731e+001 5.882657e+001 2.545989e+001 3.582141e+000 2.109324e+000 2.525339e+000 3.173093e+000 3.468709e+000 4.317357e+000 3.430968e+000 3.426565e+000 2.853265e+000 2.966006e+000 3.506609e+000 2.253962e+000 4.034293e+000
<GCONST> 1.091541e+002
<TRANSP> 5
 0.000000e+000 1.000000e+000 0.000000e+000 0.000000e+000 0.000000e+000
 0.000000e+000 7.042129e-001 2.957871e-001 0.000000e+000 0.000000e+000
 0.000000e+000 0.000000e+000 7.042127e-001 2.957872e-001 0.000000e+000
 0.000000e+000 0.000000e+000 0.000000e+000 8.215815e-001 1.784185e-001
 0.000000e+000 0.000000e+000 0.000000e+000 0.000000e+000 0.000000e+000
<ENDHMM>
~h "jh"
<BEGINHMM>
<NUMSTATES> 5
<STATE> 2
<MEAN> 25
 1.761402e-001 -1.014496e+000 -2.941269e-001 -3.497902e-001 -1.076143e+000 3.352440e-001 -3.352385e-001 6.558871e-001 5.627246e-001 -9.825567e-001 7.601725e-001 4.191109e-001 9.554683e-002 -1.084819e-001 4.463497e-002 -4.414586e-002 3.606027e-002 -1.313766e-001 -5.023905e-002 1.375045e-002 4.213781e-004 -3.693670e-002 3.793927e-002 -1.346340e-002 3.334481e-001
<VARIANCE> 25
 7.671218e+001 5.583599e+001 2.466354e+001 4.680175e+001 5.412952e+001 1.118612e+002 5.406059e+001 2.952216e+001 4.301268e+001 2.886809e+001 3.135897e+001 3.491231e+001 3.922792e+000 3.631053e+000 1.847940e+000 3.352249e+000 2.931715e+000 5.303257e+000 2.903213e+000 2.338309e+000 3.128305e+000 2.748786e+000 2.798743e+000 2.372473e+000 5.198086e+000
<GCONST> 1.063993e+002
<STATE> 3
<MEAN> 25
 3.900758e-001 -1.379094e+000 -1.859491e-001 -4.932524e-001 -9.123440e-001 -1.186218e-001 -4.126604e-001 7.655355e-001 5.360771e-001 -1.120129e+000 8.325363e-001 4.390400e-001 6.554928e-002 -1.156621e-001 3.192477e-002 -4.994288e-002 5.598469e-002 -1.518212e-001 -5.749366e-003 3.900834e-002 -2.190047e-002 -4.422455e-002 1.613012e-002 1.657285e-002 3.397188e-001
<VARIANCE> 25
 7.534874e+001 5.961995e+001 2.581806e+001 4.671931e+001 5.276461e+001 1.142699e+002 5.280174e+001 2.962144e+001 4.641256e+001 2.907533e+001 3.074642e+001 3.513987e+001 3.864139e+000 3.821914e+000 1.881279e+000 3.148436e+000 2.870996e+000 5.041451e+000 2.879740e+000 2.385862e+000 2.961248e+000 2.675732e+000 2.741970e+000 2.258590e+000 5.141973e+000
<GCONST> 1.063059e+002
<STATE> 4
<MEAN> 25
 5.267426e-001 -1.798802e+000 -1.203668e-001 -7.052037e-001 -6.028001e-001 -8.042973e-001 -2.691610e-001 1.041930e+000 3.219804e-001 -1.353560e+000 7.808613e-001 6.846740e-001 3.024037e-002 -6.527770e-002 2.911720e-003 -3.780327e-002 6.284320e-002 -1.283123e-001 5.712240e-002 5.201449e-002 -6.870439e-002 -4.517360e-002 -2.052623e-002 4.879074e-002 2.551276e-001
<VARIANCE> 25
 7.487363e+001 6.169424e+001 2.766582e+001 4.658401e+001 5.186283e+001 1.162622e+002 5.106007e+001 3.065124e+001 5.192062e+001 2.981124e+001 3.029820e+001 3.475570e+001 3.793646e+000 3.954651e+000 1.928314e+000 2.796295e+000 2.812761e+000 4.618292e+000 2.896280e+000 2.488847e+000 2.802167e+000 2.562561e+000 2.667870e+000 2.186944e+000 4.727974e+000
<GCONST> 1.061318e+002
<TRANSP> 5
 0.000000e+000 1.000000e+000 0.000000e+000 0.000000e+000 0.000000e+000
 0.000000e+000 6.901190e-001 3.098810e-001 0.000000e+000 0.000000e+000
 0.000000e+000 0.000000e+000 6.901191e-001 3.098809e-001 0.000000e+000
 0.000000e+000 0.000000e+000 0.000000e+000 8.035900e-001 1.964100e-001
 0.000000e+000 0.000000e+000 0.000000e+000 0.000000e+000 0.000000e+000
<ENDHMM>
~h "ng"
<BEGINHMM>
<NUMSTATES> 5
<STATE> 2
<MEAN> 25
 -3.365625e-001 8.455313e-001 -1.442401e+000 8.528526e-001 5.675630e-001 1.758785e+000 -1.510268e+000 1.064357e-001 6.754590e-001 1.891452e+000 -1.101133e+000 -1.038138e+000 -2.676105e-002 2.576364e-002 7.950067e-003 2.381715e-002 -1.696728e-002 3.905519e-002 -8.499880e-002 1.428462e-002 4.719221e-002 2.998005e-002 -1.091308e-002 1.089069e-002 -1.189441e-001
<VARIANCE> 25
 8.015903e+001 3.878976e+001 3.782907e+001 5.134840e+001 3.057725e+001 1.136185e+002 5.414584e+001 2.842893e+001 4.379727e+001 3.629428e+001 6.104813e+001 2.188517e+001 1.897836e+000 1.245103e+000 1.613775e+000 2.172800e+000 2.120984e+000 2.759207e+000 2.552953e+000 2.814441e+000 2.628773e+000 2.511608e+000 3.005507e+000 2.154556e+000 3.017382e+000
<GCONST> 1.023349e+002
<STATE> 3
<MEAN> 25
 -4.307168e-001 9.416732e-001 -1.404368e+000 9.481379e-001 5.011647e-001 1.907477e+000 -1.808860e+000 1.477728e-001 8.487972e-001 1.973894e+000 -1.123590e+000 -9.834186e-001 -1.828242e-002 3.213264e-002 1.613437e-002 3.438447e-002 -1.781562e-002 4.568176e-002 -7.796843e-002 9.333906e-003 4.292993e-002 1.152105e-002 -9.903699e-003 1.977830e-002 -1.099474e-001
<VARIANCE> 25
 7.851737e+001 3.956832e+001 3.807946e+001 4.914745e+001 3.068639e+001 1.099979e+002 5.092585e+001 2.739416e+001 4.329045e+001 3.628117e+001 5.986215e+001 2.164925e+001 1.836867e+000 1.286568e+000 1.624815e+000 2.110447e+000 2.073326e+000 2.761351e+000 2.515850e+000 2.764555e+000 2.588259e+000 2.479631e+000 3.036325e+000 2.128333e+000 3.100243e+000
<GCONST> 1.020473e+002
<STATE> 4
<MEAN> 25
 -5.442755e-001 1.081154e+000 -1.346096e+000 1.043983e+000 4.118482e-001 2.143576e+000 -2.103105e+000 1.763617e-001 1.022435e+000 1.952096e+000 -1.111404e+000 -8.778103e-001 -1.248712e-002 3.169573e-002 2.020918e-002 4.667608e-002 -1.833398e-002 5.652471e-002 -6.041953e-002 -2.217905e-003 3.613888e-002 -5.009628e-003 -1.563229e-002 2.477877e-002 -9.908246e-002
<VARIANCE> 25
 7.586109e+001 4.058464e+001 3.882882e+001 4.690960e+001 3.117964e+001 1.048761e+002 4.641962e+001 2.606008e+001 4.269736e+001 3.655184e+001 5.894480e+001 2.128432e+001 1.761907e+000 1.319499e+000 1.652741e+000 2.037791e+000 2.062490e+000 2.719697e+000 2.433184e+000 2.674202e+000 2.550615e+000 2.423910e+000 3.075500e+000 2.069368e+000 3.042962e+000
<GCONST> 1.016052e+002
<TRANSP> 5
 0.000000e+000 1.000000e+000 0.000000e+000 0.000000e+000 0.000000e+000
 0.000000e+000 7.251534e-001 2.748466e-001 0.000000e+000 0.000000e+000
 0.000000e+000 0.000000e+000 7.251536e-001 2.748465e-001 0.000000e+000
 0.000000e+000 0.000000e+000 0.000000e+000 8.447524e-001 1.552476e-001
 0.000000e+000 0.000000e+000 0.000000e+000 0.000000e+000 0.000000e+000
<ENDHMM>
~h "ow"
<BEGINHMM>
<NUMSTATES> 5
<STATE> 2
<MEAN> 25
 -6.568021e-001 5.715891e-001 -8.865895e-001 -1.539250e-001 4.576480e-001 1.797571e+000 -8.747090e-002 2.379976e-001 2.693062e-002 -1.613394e-001 1.652831e-001 3.510987e-001 5.702112e-003 -4.405968e-002 -4.258936e-002 -1.761789e-002 -1.195161e-004 2.166546e-002 4.114725e-002 3.912751e-002 2.216399e-002 8.204039e-003 -2.486464e-003 -8.772923e-003 -2.094608e-002
<VARIANCE> 25
 1.007848e+002 3.961295e+001 4.087469e+001 7.074982e+001 4.059290e+001 8.905844e+001 6.044488e+001 4.558474e+001 3.454641e+001 4.457710e+001 7.014849e+001 2.321964e+001 2.767772e+000 1.958337e+000 1.773580e+000 2.501056e+000 2.463987e+000 2.941245e+000 2.466328e+000 2.651009e+000 2.492679e+000 2.654478e+000 3.328207e+000 1.799427e+000 2.930498e+000
<GCONST> 1.048509e+002
<STATE> 3
<MEAN> 25
 -6.231508e-001 4.046776e-001 -1.023249e+000 -2.514487e-001 4.783686e-001 1.830798e+000 7.209693e-002 3.932776e-001 1.020966e-001 -1.508541e-001 1.808312e-001 3.199393e-001 7.417226e-003 -4.345946e-002 -3.217182e-002 -2.019244e-002 6.599751e-003 9.659628e-003 4.050860e-002 4.629523e-002 2.382988e-002 2.758834e-004 -1.005962e-002 -1.721520e-002 -1.363192e-003
<VARIANCE> 25
 1.015410e+002 3.979654e+001 3.991421e+001 7.256843e+001 4.029603e+001 8.995499e+001 6.132870e+001 4.510774e+001 3.484093e+001 4.590271e+001 7.095664e+001 2.339061e+001 2.862982e+000 2.043822e+000 1.801760e+000 2.546685e+000 2.497916e+000 3.001849e+000 2.538655e+000 2.713475e+000 2.535306e+000 2.730850e+000 3.379415e+000 1.808924e+000 3.194785e+000
<GCONST> 1.052767e+002
<STATE> 4
<MEAN> 25
 -5.845657e-001 1.684412e-001 -1.102072e+000 -5.132700e-001 4.979928e-001 1.699937e+000 3.823824e-001 6.264345e-001 1.673045e-001 -2.535405e-001 2.699839e-001 2.297015e-001 2.370039e-002 -3.009589e-002 -1.404382e-002 -2.355633e-002 1.053083e-002 -5.711548e-003 3.388439e-002 3.783517e-002 1.525971e-002 -1.913937e-002 -1.796902e-002 -2.570730e-002 3.762722e-002
<VARIANCE> 25
 1.033585e+002 4.045892e+001 3.918095e+001 7.555117e+001 4.063221e+001 9.130305e+001 6.342371e+001 4.365838e+001 3.584277e+001 4.815475e+001 7.308267e+001 2.373390e+001 3.124742e+000 2.176333e+000 1.874177e+000 2.656180e+000 2.618074e+000 3.078279e+000 2.707785e+000 2.783324e+000 2.629379e+000 2.870067e+000 3.448391e+000 1.837963e+000 3.610743e+000
<GCONST> 1.061157e+002
<TRANSP> 5
 0.000000e+000 1.000000e+000 0.000000e+000 0.000000e+000 0.000000e+000
 0.000000e+000 7.054276e-001 2.945723e-001 0.000000e+000 0.000000e+000
 0.000000e+000 0.000000e+000 7.054278e-001 2.945722e-001 0.000000e+000
 0.000000e+000 0.000000e+000 0.000000e+000 8.236578e-001 1.763422e-001
 0.000000e+000 0.000000e+000 0.000000e+000 0.000000e+000 0.000000e+000
<ENDHMM>
~h "oy"
<BEGINHMM>
<NUMSTATES> 5
<STATE> 2
<MEAN> 25
 1.399681e+000 -1.942144e+000 -5.909997e-001 -1.545548e+000 1.626509e+000 -2.663507e+000 1.102708e+000 1.793142e-001 -7.208030e-001 -2.038923e+000 3.191615e+000 1.169153e+000 -1.218421e-002 2.375836e-003 1.387885e-002 4.780671e-002 -1.774647e-002 -2.993910e-003 -3.904693e-002 4.103368e-003 -5.312444e-005 2.213396e-002 -6.208992e-002 -5.047512e-003 -8.507001e-002
<VARIANCE> 25
 9.824901e+001 4.430147e+001 4.195807e+001 5.904277e+001 6.164705e+001 8.947600e+001 7.353392e+001 4.000402e+001 3.155846e+001 6.748026e+001 1.092096e+002 2.652957e+001 3.805904e+000 2.385357e+000 2.712426e+000 2.855831e+000 4.484463e+000 3.599980e+000 4.995979e+000 3.130224e+000 3.304490e+000 4.129785e+000 5.850383e+000 2.478660e+000 5.075604e+000
<GCONST> 1.110743e+002
<STATE> 3
<MEAN> 25
 1.319389e+000 -1.917732e+000 -5.193992e-001 -1.327551e+000 1.555326e+000 -2.631387e+000 9.383205e-001 1.927741e-001 -7.147359e-001 -1.903587e+000 2.876477e+000 1.136025e+000 -2.636054e-002 9.237374e-003 1.825901e-002 5.318996e-002 -1.323049e-002 1.829634e-002 -3.338660e-002 1.248866e-003 1.754127e-003 3.408897e-002 -8.239987e-002 -1.675895e-002 -1.105683e-001
<VARIANCE> 25
 9.776430e+001 4.517935e+001 4.250238e+001 5.891637e+001 6.092865e+001 8.940233e+001 7.493224e+001 3.945834e+001 3.179562e+001 6.510827e+001 1.085902e+002 2.710742e+001 3.746608e+000 2.363212e+000 2.690008e+000 2.776131e+000 4.428523e+000 3.567226e+000 4.944241e+000 3.032291e+000 3.282734e+000 4.033468e+000 5.651281e+000 2.485330e+000 4.695865e+000
<GCONST> 1.108144e+002
<STATE> 4
<MEAN> 25
 1.083880e+000 -1.872064e+000 -4.070767e-001 -9.911042e-001 1.518784e+000 -2.443091e+000 7.859797e-001 2.187067e-001 -6.770841e-001 -1.579868e+000 2.303796e+000 1.042859e+000 -4.133061e-002 2.182820e-002 1.851717e-002 5.352563e-002 -9.666786e-003 4.821147e-002 -2.648808e-002 -1.312523e-003 7.603270e-003 4.837338e-002 -1.032044e-001 -3.408241e-002 -1.473044e-001
<VARIANCE> 25
 9.703139e+001 4.630785e+001 4.271796e+001 5.792719e+001 5.911469e+001 8.870422e+001 7.635800e+001 3.859224e+001 3.219084e+001 5.997007e+001 1.062154e+002 2.846494e+001 3.711021e+000 2.347769e+000 2.643287e+000 2.622555e+000 4.291877e+000 3.498832e+000 4.801453e+000 2.872323e+000 3.266435e+000 3.815091e+000 5.350098e+000 2.502693e+000 4.188732e+000
<GCONST> 1.102877e+002
<TRANSP> 5
 0.000000e+000 1.000000e+000 0.000000e+000 0.000000e+000 0.000000e+000
 0.000000e+000 7.701436e-001 2.298564e-001 0.000000e+000 0.000000e+000
 0.000000e+000 0.000000e+000 7.701436e-001 2.298564e-001 0.000000e+000
 0.000000e+000 0.000000e+000 0.000000e+000 8.961083e-001 1.038917e-001
 0.000000e+000 0.000000e+000 0.000000e+000 0.000000e+000 0.000000e+000
<ENDHMM>
~h "sh"
<BEGINHMM>
<NUMSTATES> 5
<STATE> 2
<MEAN> 25
 -1.498034e+000 1.512685e-001 2.081167e+000 1.925270e+000 -5.505992e-001 3.290851e-002 -2.768531e-001 1.415464e+000 1.613852e-001 -8.542395e-001 -1.455383e+000 5.123591e-001 5.391503e-002 -1.583832e-002 4.908564e-002 2.351158e-002 -2.271708e-002 -7.800656e-002 -4.183413e-002 -1.268805e-003 -4.996195e-002 -2.680047e-002 1.532341e-002 -3.567201e-003 6.680376e-002
<VARIANCE> 25
 1.084881e+002 4.716112e+001 6.811034e+001 5.270364e+001 4.009555e+001 1.502992e+002 4.474229e+001 2.838624e+001 4.581509e+001 4.411002e+001 8.448853e+001 2.639611e+001 4.293187e+000 1.932794e+000 2.536443e+000 2.650434e+000 2.333161e+000 5.412076e+000 2.669271e+000 2.150770e+000 2.993867e+000 3.141017e+000 4.244318e+000 2.218121e+000 4.788517e+000
<GCONST> 1.081993e+002
<STATE> 3
<MEAN> 25
 -1.313809e+000 7.294889e-002 2.201090e+000 1.993599e+000 -6.081963e-001 -1.711240e-001 -4.241882e-001 1.372344e+000 1.785953e-002 -9.294592e-001 -1.382060e+000 5.102385e-001 6.299606e-002 -2.564118e-002 4.734241e-002 2.949246e-002 -1.897755e-002 -7.494179e-002 -5.550090e-002 -1.814111e-002 -4.795521e-002 -2.888982e-002 2.618580e-002 -2.741441e-004 7.149806e-002
<VARIANCE> 25
 1.106459e+002 4.763339e+001 6.981844e+001 5.278384e+001 4.002026e+001 1.445108e+002 4.535165e+001 2.829297e+001 4.603993e+001 4.576538e+001 8.409891e+001 2.626293e+001 4.284312e+000 1.986610e+000 2.560932e+000 2.655227e+000 2.336646e+000 5.529782e+000 2.674505e+000 2.153621e+000 3.023984e+000 3.227100e+000 4.241633e+000 2.248838e+000 4.764603e+000
<GCONST> 1.083647e+002
<STATE> 4
<MEAN> 25
 -1.000240e+000 -2.091752e-001 2.218115e+000 1.954510e+000 -5.094985e-001 -4.837574e-001 -5.882741e-001 1.237644e+000 -1.191213e-001 -9.804949e-001 -1.058571e+000 4.526091e-001 7.081161e-002 -2.376574e-002 1.446707e-002 2.506283e-002 -1.133998e-002 -2.494534e-002 -5.391180e-002 -3.367013e-002 -2.280029e-002 -2.562560e-002 3.095586e-002 2.242458e-003 3.960606e-002
<VARIANCE> 25
 1.143333e+002 4.862471e+001 7.222897e+001 5.326110e+001 3.982852e+001 1.359286e+002 4.670016e+001 2.885601e+001 4.629205e+001 4.835839e+001 8.397655e+001 2.666376e+001 4.186853e+000 2.008195e+000 2.483636e+000 2.672987e+000 2.340342e+000 5.287454e+000 2.758673e+000 2.192262e+000 3.076147e+000 3.338386e+000 4.068720e+000 2.289233e+000 4.570225e+000
<GCONST> 1.084732e+002
<TRANSP> 5
 0.000000e+000 1.000000e+000 0.000000e+000 0.000000e+000 0.000000e+000
 0.000000e+000 6.888437e-001 3.111563e-001 0.000000e+000 0.000000e+000
 0.000000e+000 0.000000e+000 6.888443e-001 3.111558e-001 0.000000e+000
 0.000000e+000 0.000000e+000 0.000000e+000 8.057208e-001 1.942791e-001
 0.000000e+000 0.000000e+000 0.000000e+000 0.000000e+000 0.000000e+000
<ENDHMM>
~h "th"
<BEGINHMM>
<NUMSTATES> 5
<STATE> 2
<MEAN> 25
 1.408763e+000 -1.636140e+000 -1.253447e-001 -2.148891e+000 1.256057e+000 -2.760535e+000 4.910417e+000 -1.067832e+000 1.787934e-001 -1.677131e+000 2.299331e+000 1.409730e+000 -1.058542e-001 -9.027770e-003 1.652921e-002 4.519267e-002 1.041278e-002 2.594556e-002 -1.365726e-002 6.558020e-002 9.990141e-003 -6.947584e-002 2.611450e-002 7.915460e-002 -2.163791e-002
<VARIANCE> 25
 8.220765e+001 3.837273e+001 5.106154e+001 6.574567e+001 7.098348e+001 1.083621e+002 6.097053e+001 4.268221e+001 3.600368e+001 6.635370e+001 3.771115e+001 2.944695e+001 4.648049e+000 2.370954e+000 2.216769e+000 2.824570e+000 3.851220e+000 4.046144e+000 4.184525e+000 3.409855e+000 2.955343e+000 3.439575e+000 3.240412e+000 2.265776e+000 3.864778e+000
<GCONST> 1.090285e+002
<STATE> 3
<MEAN> 25
 1.084441e+000 -1.654850e+000 -6.605167e-002 -1.990076e+000 1.258947e+000 -2.675097e+000 4.815113e+000 -8.544263e-001 1.943960e-001 -1.907390e+000 2.374469e+000 1.609936e+000 -1.323317e-001 1.399533e-002 3.120062e-002 4.993728e-002 -6.326987e-003 2.341455e-002 -6.537721e-002 5.261669e-002 -5.612645e-003 -6.433370e-002 1.078185e-002 2.970449e-002 -6.433088e-002
<VARIANCE> 25
 8.390238e+001 3.738865e+001 5.105100e+001 6.685260e+001 7.156855e+001 1.116175e+002 5.839266e+001 4.298660e+001 3.517612e+001 6.627536e+001 3.896801e+001 2.851445e+001 4.644425e+000 2.281588e+000 2.225245e+000 2.802087e+000 3.872643e+000 4.028860e+000 4.008049e+000 3.418822e+000 2.978532e+000 3.548843e+000 3.247725e+000 2.286829e+000 3.567087e+000
<GCONST> 1.089051e+002
<STATE> 4
<MEAN> 25
 7.907143e-001 -1.667665e+000 1.313682e-001 -1.805910e+000 1.049309e+000 -2.842600e+000 4.624881e+000 -6.664865e-001 1.425431e-001 -2.397406e+000 2.473500e+000 1.624763e+000 -1.362230e-001 3.044641e-002 3.651788e-002 5.256495e-002 -2.618097e-002 2.101262e-002 -8.954322e-002 3.886584e-002 -1.455630e-002 -4.897786e-002 -2.206757e-002 -3.285208e-002 -1.054643e-001
<VARIANCE> 25
 8.617561e+001 3.617321e+001 5.261080e+001 6.806167e+001 7.360457e+001 1.135956e+002 5.638979e+001 4.192468e+001 3.407581e+001 6.638284e+001 4.016656e+001 2.703323e+001 4.650712e+000 2.175604e+000 2.234982e+000 2.810463e+000 3.981176e+000 4.042360e+000 3.800611e+000 3.362265e+000 2.958842e+000 3.739470e+000 3.216398e+000 2.246273e+000 3.209816e+000
<GCONST> 1.087142e+002
<TRANSP> 5
 0.000000e+000 1.000000e+000 0.000000e+000 0.000000e+000 0.000000e+000
 0.000000e+000 6.974643e-001 3.025357e-001 0.000000e+000 0.000000e+000
 0.000000e+000 0.000000e+000 6.974645e-001 3.025355e-001 0.000000e+000
 0.000000e+000 0.000000e+000 0.000000e+000 8.129999e-001 1.870001e-001
 0.000000e+000 0.000000e+000 0.000000e+000 0.000000e+000 0.000000e+000
<ENDHMM>
~h "uh"
<BEGINHMM>
<NUMSTATES> 5
<STATE> 2
<MEAN> 25
 -7.401806e-001 9.674382e-001 -5.039731e-001 -1.234978e+000 -2.867949e-001 1.170394e+000 -4.575082e-001 -8.999897e-001 -8.124726e-001 -4.074576e-001 1.032487e+000 -3.351168e-001 1.681184e-001 -9.894893e-002 -4.465421e-002 -6.235454e-002 3.685429e-002 -1.482324e-001 9.999076e-002 -6.716819e-002 -8.387432e-002 -6.847972e-002 1.545826e-001 3.696449e-002 4.052726e-001
<VARIANCE> 25
 7.727732e+001 3.794778e+001 2.862687e+001 4.127617e+001 3.133271e+001 9.760032e+001 4.715954e+001 4.128175e+001 4.307775e+001 5.674950e+001 7.084344e+001 5.070910e+001 2.173153e+000 1.588459e+000 1.699293e+000 1.979473e+000 1.889681e+000 3.791698e+000 2.420935e+000 3.072499e+000 3.252875e+000 3.520698e+000 3.076886e+000 1.989371e+000 5.332548e+000
<GCONST> 1.049445e+002
<STATE> 3
<MEAN> 25
 -1.399150e-001 6.265147e-001 -7.278723e-001 -1.368701e+000 -1.391217e-001 6.261647e-001 -1.069428e-001 -1.102662e+000 -1.036122e+000 -6.243435e-001 1.533457e+000 -2.586847e-001 1.581658e-001 -9.479851e-002 -6.337965e-002 -3.188845e-002 4.410973e-002 -1.560906e-001 9.757013e-002 -5.449581e-002 -4.941549e-002 -5.590069e-002 1.322235e-001 2.090906e-002 3.504389e-001
<VARIANCE> 25
 7.459531e+001 3.900285e+001 2.950519e+001 4.157475e+001 3.047301e+001 1.048900e+002 5.090995e+001 3.958162e+001 4.402420e+001 5.700882e+001 7.293581e+001 5.128497e+001 2.175644e+000 1.512721e+000 1.728885e+000 1.962552e+000 1.889727e+000 4.050258e+000 2.499329e+000 3.056752e+000 3.188294e+000 3.500193e+000 3.062950e+000 1.907359e+000 4.834190e+000
<GCONST> 1.050025e+002
<STATE> 4
<MEAN> 25
 6.913006e-001 1.180932e-001 -1.016335e+000 -1.302157e+000 9.098248e-002 -3.906875e-001 4.548442e-001 -1.199175e+000 -1.216484e+000 -8.581469e-001 2.039193e+000 -2.133915e-001 1.270766e-001 -7.404977e-002 -6.415345e-002 2.287487e-002 4.027695e-002 -1.572253e-001 9.240793e-002 -3.062490e-002 5.697434e-003 -2.306938e-002 5.867622e-002 -1.348662e-002 2.338038e-001
