~o
<STREAMINFO> 1 25
<VECSIZE> 25<NULLD><MFCC_D_N_Z_0><DIAGC>
~h "b"
<BEGINHMM>
<NUMSTATES> 5
<STATE> 2
<MEAN> 25
 2.917357e-001 7.494529e-001 2.204768e-001 1.173812e-001 -3.607336e-001 1.020006e+000 -5.027573e-002 -5.560737e-001 -4.121261e-001 -4.429835e-001 -3.907209e-001 -2.919882e-001 2.796810e-002 -7.982064e-004 -4.374111e-002 -2.230773e-002 4.758120e-003 4.791093e-002 3.271078e-002 -2.486995e-002 2.256576e-002 2.254842e-002 6.305898e-003 -2.695723e-002 -1.418508e-002
<VARIANCE> 25
 8.825990e+001 4.714407e+001 4.161993e+001 4.825095e+001 3.452132e+001 9.876800e+001 4.391582e+001 3.855199e+001 4.104445e+001 5.171759e+001 7.281702e+001 3.077931e+001 2.141625e+000 2.333282e+000 1.951533e+000 2.472435e+000 2.244792e+000 3.840019e+000 2.905629e+000 2.711315e+000 3.097765e+000 3.235144e+000 4.018488e+000 2.194849e+000 5.125762e+000
<GCONST> 1.063462e+002
<STATE> 3
<MEAN> 25
 3.900841e-001 7.559190e-001 8.862191e-002 4.572161e-002 -3.571553e-001 1.168915e+000 3.839393e-002 -6.421801e-001 -3.375304e-001 -3.718861e-001 -3.490515e-001 -3.515675e-001 3.186507e-002 -4.092749e-005 -3.701473e-002 -2.064649e-002 -2.856520e-003 4.013657e-002 2.229718e-002 -2.833357e-002 2.022553e-002 1.918614e-002 1.761788e-002 -1.264632e-002 -6.584799e-003
<VARIANCE> 25
 8.769452e+001 4.794740e+001 4.100906e+001 4.836558e+001 3.427043e+001 9.944305e+001 4.470720e+001 3.919180e+001 4.164031e+001 5.155185e+001 7.292625e+001 3.088073e+001 2.116499e+000 2.353826e+000 1.942657e+000 2.472308e+000 2.235625e+000 3.839069e+000 2.940363e+000 2.733873e+000 3.080087e+000 3.215759e+000 4.072757e+000 2.154601e+000 5.143561e+000
<GCONST> 1.063889e+002
<STATE> 4
<MEAN> 25
 5.167087e-001 7.273810e-001 1.485389e-002 -5.172943e-002 -3.860121e-001 1.224788e+000 4.572203e-002 -7.476252e-001 -2.839815e-001 -3.535420e-001 -1.587272e-001 -3.503742e-001 2.975429e-002 -8.528867e-003 -2.379590e-002 -2.439330e-002 -4.296261e-003 1.810897e-002 1.168090e-003 -3.059872e-002 6.056613e-003 1.021397e-002 3.800295e-002 1.338113e-003 2.329475e-002
<VARIANCE> 25
 8.555562e+001 4.937980e+001 4.017762e+001 4.758887e+001 3.444387e+001 1.007212e+002 4.478323e+001 3.935188e+001 4.143178e+001 5.091061e+001 7.240785e+001 3.132182e+001 2.131516e+000 2.400873e+000 1.931549e+000 2.435068e+000 2.266580e+000 3.824375e+000 2.923776e+000 2.756449e+000 3.055972e+000 3.180891e+000 4.080510e+000 2.138434e+000 5.178537e+000
<GCONST> 1.063709e+002
<TRANSP> 5
 0.000000e+000 1.000000e+000 0.000000e+000 0.000000e+000 0.000000e+000
 0.000000e+000 7.118318e-001 2.881682e-001 0.000000e+000 0.000000e+000
 0.000000e+000 0.000000e+000 7.118319e-001 2.881681e-001 0.000000e+000
 0.000000e+000 0.000000e+000 0.000000e+000 8.330797e-001 1.669203e-001
 0.000000e+000 0.000000e+000 0.000000e+000 0.000000e+000 0.000000e+000
<ENDHMM>
~h "d"
<BEGINHMM>
<NUMSTATES> 5
<STATE> 2
<MEAN> 25
 4.555207e-001 5.502111e-002 6.758183e-001 4.199931e-001 -1.938764e-001 -9.109064e-001 -5.207353e-001 -1.281791e-001 -2.269679e-001 -3.486710e-001 5.485260e-001 2.591994e-001 -2.171827e-002 2.189837e-002 -2.424506e-002 4.345916e-003 2.161713e-002 1.990888e-002 2.221494e-002 7.347562e-003 -6.430765e-004 3.271128e-002 -4.184639e-003 -6.125211e-003 -3.959905e-002
<VARIANCE> 25
 8.363023e+001 4.436380e+001 4.928495e+001 5.684295e+001 4.374128e+001 1.206502e+002 6.244875e+001 5.277980e+001 4.077486e+001 5.025206e+001 7.280949e+001 3.184931e+001 2.792403e+000 2.094805e+000 1.839760e+000 2.678172e+000 2.541583e+000 3.984446e+000 2.778931e+000 3.408285e+000 2.963389e+000 3.161933e+000 3.507368e+000 2.338177e+000 3.966701e+000
<GCONST> 1.077936e+002
<STATE> 3
<MEAN> 25
 4.175316e-001 1.187905e-001 6.242416e-001 4.448574e-001 -1.293160e-001 -8.417869e-001 -4.427193e-001 -9.693291e-002 -1.981223e-001 -1.865788e-001 5.202396e-001 2.350297e-001 -1.241766e-002 1.990297e-002 -1.065070e-002 8.481814e-003 1.813253e-002 2.643710e-002 1.888817e-002 9.951349e-003 7.798116e-003 5.664747e-002 -1.305398e-002 -6.744985e-003 -4.285084e-002
<VARIANCE> 25
 8.404340e+001 4.481085e+001 4.925672e+001 5.587825e+001 4.315625e+001 1.200457e+002 6.260310e+001 5.245801e+001 4.060040e+001 4.968246e+001 7.259885e+001 3.193622e+001 2.808407e+000 2.087211e+000 1.839779e+000 2.705114e+000 2.533221e+000 3.958909e+000 2.734238e+000 3.387112e+000 2.951020e+000 3.163715e+000 3.504292e+000 2.375804e+000 3.968603e+000
<GCONST> 1.077447e+002
<STATE> 4
<MEAN> 25
 6.552193e-001 9.180464e-002 5.617170e-001 3.313268e-001 -6.097742e-002 -8.332031e-001 -2.340469e-001 -1.827607e-001 -1.735626e-001 8.771811e-002 5.529798e-001 1.679008e-001 5.537199e-003 7.800244e-003 -9.069556e-004 -2.503979e-003 6.462341e-003 2.440820e-002 1.570031e-002 -6.544433e-004 9.167131e-003 6.195150e-002 -1.874328e-002 -1.239305e-002 -2.318806e-002
<VARIANCE> 25
 8.441544e+001 4.646714e+001 4.908528e+001 5.619147e+001 4.288223e+001 1.161998e+002 6.369516e+001 5.259135e+001 4.143922e+001 5.013990e+001 7.237524e+001 3.227539e+001 2.842920e+000 2.139325e+000 1.872440e+000 2.818444e+000 2.570235e+000 3.990215e+000 2.718355e+000 3.355531e+000 2.957361e+000 3.217533e+000 3.554376e+000 2.422820e+000 4.100559e+000
<GCONST> 1.079938e+002
<TRANSP> 5
 0.000000e+000 1.000000e+000 0.000000e+000 0.000000e+000 0.000000e+000
 0.000000e+000 7.021630e-001 2.978370e-001 0.000000e+000 0.000000e+000
 0.000000e+000 0.000000e+000 7.021629e-001 2.978371e-001 0.000000e+000
 0.000000e+000 0.000000e+000 0.000000e+000 8.195109e-001 1.804891e-001
 0.000000e+000 0.000000e+000 0.000000e+000 0.000000e+000 0.000000e+000
<ENDHMM>
~h "f"
<BEGINHMM>
<NUMSTATES> 5
<STATE> 2
<MEAN> 25
 -3.453257e-001 -6.303566e-001 -4.882055e-001 4.844019e-002 -3.535447e-001 1.832643e-001 4.305473e-001 7.473991e-001 8.749537e-001 3.626245e-001 -4.699481e-001 5.067090e-001 -2.824474e-002 -1.468857e-003 -3.871876e-002 -4.967159e-002 3.012018e-002 7.163816e-002 1.904268e-002 7.590516e-003 -7.153226e-003 3.847060e-002 -7.879587e-003 9.962072e-003 -3.457841e-002
<VARIANCE> 25
 9.616609e+001 3.998024e+001 4.525956e+001 6.308396e+001 6.570779e+001 1.033609e+002 6.386114e+001 4.299746e+001 3.610524e+001 5.324020e+001 6.567488e+001 2.297098e+001 4.010970e+000 1.861129e+000 1.836446e+000 2.856937e+000 3.409303e+000 3.458270e+000 2.962738e+000 3.451592e+000 2.946611e+000 3.155727e+000 3.519294e+000 1.946369e+000 2.738100e+000
<GCONST> 1.074012e+002
<STATE> 3
<MEAN> 25
 -4.615399e-001 -6.408873e-001 -6.140333e-001 -9.514311e-002 -2.245905e-001 4.319616e-001 4.865198e-001 7.784292e-001 8.164623e-001 4.849764e-001 -5.086132e-001 5.374440e-001 -3.549850e-002 -7.915162e-004 -3.989859e-002 -4.651959e-002 4.064941e-002 7.686959e-002 2.196129e-002 9.725122e-003 -1.812278e-002 3.537321e-002 -1.242809e-002 9.300844e-003 -4.665523e-002
<VARIANCE> 25
 9.750536e+001 3.913716e+001 4.446536e+001 6.410664e+001 6.519328e+001 1.024421e+002 6.432288e+001 4.255489e+001 3.519394e+001 5.253357e+001 6.540878e+001 2.299940e+001 4.059658e+000 1.842856e+000 1.809781e+000 2.882726e+000 3.372748e+000 3.394965e+000 3.010599e+000 3.383816e+000 2.925106e+000 3.109734e+000 3.526337e+000 1.982894e+000 2.660528e+000
<GCONST> 1.072637e+002
<STATE> 4
<MEAN> 25
 -6.709529e-001 -7.257593e-001 -7.580021e-001 -2.030601e-001 -1.358499e-002 6.666857e-001 5.540915e-001 9.344133e-001 6.928807e-001 6.308556e-001 -5.340560e-001 5.885751e-001 -3.568843e-002 -8.737592e-003 -3.457735e-002 -5.055124e-002 4.469981e-002 6.691185e-002 3.388646e-002 1.951871e-002 -2.358186e-002 3.183706e-002 1.248926e-003 1.155263e-002 -3.362567e-002
<VARIANCE> 25
 9.909240e+001 3.830875e+001 4.376017e+001 6.512288e+001 6.363148e+001 9.987886e+001 6.525283e+001 4.217714e+001 3.418806e+001 5.186851e+001 6.535767e+001 2.299024e+001 4.158958e+000 1.843504e+000 1.814926e+000 2.905536e+000 3.330885e+000 3.322466e+000 3.093449e+000 3.350749e+000 2.929000e+000 3.125958e+000 3.556268e+000 1.997978e+000 2.704509e+000
<GCONST> 1.072286e+002
<TRANSP> 5
 0.000000e+000 1.000000e+000 0.000000e+000 0.000000e+000 0.000000e+000
 0.000000e+000 7.073577e-001 2.926424e-001 0.000000e+000 0.000000e+000
 0.000000e+000 0.000000e+000 7.073576e-001 2.926424e-001 0.000000e+000
 0.000000e+000 0.000000e+000 0.000000e+000 8.254131e-001 1.745869e-001
 0.000000e+000 0.000000e+000 0.000000e+000 0.000000e+000 0.000000e+000
<ENDHMM>
~h "g"
<BEGINHMM>
<NUMSTATES> 5
<STATE> 2
<MEAN> 25
 5.370430e-001 -8.046726e-001 -1.813339e+000 -2.970983e-001 4.437869e-001 8.078985e-002 2.349064e-001 8.545516e-001 1.116964e+000 6.255385e-001 -1.120563e-001 -3.053913e-001 8.071219e-003 1.470285e-002 -7.712568e-003 -3.013118e-002 6.434660e-002 2.180645e-002 8.540414e-002 -3.336721e-002 -7.459763e-002 7.081416e-002 -3.227879e-002 -6.297634e-002 2.539595e-002
<VARIANCE> 25
 6.645409e+001 5.101669e+001 4.739521e+001 5.098463e+001 5.154681e+001 1.448192e+002 4.575471e+001 3.358241e+001 6.167842e+001 4.975029e+001 7.081835e+001 2.715368e+001 2.486521e+000 2.382270e+000 1.799930e+000 2.994461e+000 2.277811e+000 4.064098e+000 3.147953e+000 3.249157e+000 3.745487e+000 3.035733e+000 4.121229e+000 2.323938e+000 4.677777e+000
<GCONST> 1.079587e+002
<STATE> 3
<MEAN> 25
 5.993423e-001 -8.033526e-001 -1.830042e+000 -4.267342e-001 7.207106e-001 1.354762e-001 5.820442e-001 6.967321e-001 7.678016e-001 8.667419e-001 -1.525195e-001 -5.085608e-001 1.184755e-002 7.231127e-003 8.368543e-003 -2.980809e-002 8.573154e-002 2.324157e-002 1.006067e-001 -4.181866e-002 -1.096070e-001 7.288667e-002 -1.661165e-002 -5.658226e-002 5.626758e-002
<VARIANCE> 25
 6.799362e+001 5.198283e+001 4.689159e+001 5.111279e+001 5.276372e+001 1.428087e+002 4.733142e+001 3.373830e+001 5.958874e+001 4.981733e+001 7.065286e+001 2.779385e+001 2.608551e+000 2.532520e+000 1.845557e+000 3.052630e+000 2.297579e+000 4.129808e+000 3.285610e+000 3.272168e+000 3.710109e+000 3.109085e+000 4.174230e+000 2.385681e+000 4.911273e+000
<GCONST> 1.083579e+002
<STATE> 4
<MEAN> 25
 9.091679e-001 -1.056788e+000 -1.720306e+000 -6.561577e-001 1.158713e+000 -1.491874e-001 1.224017e+000 5.229871e-001 3.313452e-002 1.281461e+000 -3.787581e-004 -7.966087e-001 2.901279e-002 -7.258097e-003 3.475779e-002 -2.715790e-002 8.947667e-002 1.759489e-003 9.268480e-002 -2.614944e-002 -1.156885e-001 6.736700e-002 1.309634e-002 -4.298936e-002 1.082954e-001
<VARIANCE> 25
 6.876470e+001 5.240083e+001 4.588102e+001 5.296511e+001 5.453985e+001 1.356814e+002 4.963662e+001 3.437041e+001 5.813777e+001 5.118285e+001 7.000865e+001 2.905000e+001 2.783391e+000 2.736962e+000 1.909220e+000 3.121433e+000 2.429113e+000 4.175968e+000 3.545958e+000 3.349863e+000 3.717241e+000 3.326935e+000 4.276658e+000 2.525426e+000 5.394118e+000
<GCONST> 1.090863e+002
<TRANSP> 5
 0.000000e+000 1.000000e+000 0.000000e+000 0.000000e+000 0.000000e+000
 0.000000e+000 6.887275e-001 3.112725e-001 0.000000e+000 0.000000e+000
 0.000000e+000 0.000000e+000 6.887275e-001 3.112725e-001 0.000000e+000
 0.000000e+000 0.000000e+000 0.000000e+000 8.052156e-001 1.947844e-001
 0.000000e+000 0.000000e+000 0.000000e+000 0.000000e+000 0.000000e+000
<ENDHMM>
~h "k"
<BEGINHMM>
<NUMSTATES> 5
<STATE> 2
<MEAN> 25
 -2.091464e-001 -2.834886e-001 1.374090e-001 -4.248256e-001 5.599857e-001 -7.134629e-001 1.325575e-001 6.972635e-001 -2.529271e-001 -2.908547e-001 6.190723e-001 3.118895e-001 -5.962885e-002 -7.944031e-003 3.745962e-002 3.508391e-002 -2.720191e-002 1.178141e-002 -2.750073e-002 2.524396e-002 3.335067e-002 9.168741e-003 -2.996010e-002 7.371347e-003 -4.230687e-002
<VARIANCE> 25
 9.250058e+001 4.612326e+001 4.810584e+001 5.468042e+001 4.398401e+001 1.281241e+002 6.141332e+001 4.278899e+001 4.282929e+001 4.263120e+001 7.051570e+001 2.842054e+001 3.231846e+000 1.941855e+000 2.180880e+000 2.879286e+000 2.775005e+000 4.181419e+000 3.462954e+000 3.070771e+000 2.913386e+000 3.056525e+000 4.026419e+000 2.286727e+000 4.527703e+000
<GCONST> 1.082100e+002
<STATE> 3
<MEAN> 25
 -3.869402e-001 -3.187316e-001 2.789619e-001 -2.947399e-001 4.643119e-001 -6.912373e-001 2.917333e-002 7.578544e-001 -1.752041e-001 -2.713753e-001 5.178835e-001 3.378713e-001 -4.678941e-002 -1.203163e-002 3.877324e-002 3.446057e-002 -2.815559e-002 5.616894e-003 -2.777912e-002 1.194615e-002 1.673627e-002 4.430931e-003 -2.669031e-002 7.769620e-003 -2.831932e-002
<VARIANCE> 25
 9.263130e+001 4.565319e+001 4.822647e+001 5.356717e+001 4.380373e+001 1.281212e+002 6.027866e+001 4.195143e+001 4.256947e+001 4.267607e+001 6.976134e+001 2.772012e+001 3.242050e+000 1.935476e+000 2.189851e+000 2.848458e+000 2.767107e+000 4.197865e+000 3.450395e+000 3.042266e+000 2.917057e+000 3.033629e+000 3.982447e+000 2.271382e+000 4.545864e+000
<GCONST> 1.080611e+002
<STATE> 4
<MEAN> 25
 -4.268723e-001 -4.818576e-001 5.150976e-001 -1.590607e-001 2.888297e-001 -8.135332e-001 -2.872233e-002 7.130722e-001 -2.374126e-001 -3.292359e-001 4.820194e-001 3.730946e-001 -1.868287e-002 -1.927290e-002 3.458259e-002 2.812913e-002 -2.993809e-002 -3.654633e-003 -2.076412e-002 -1.220559e-002 -7.739321e-003 -2.929518e-003 -1.414936e-002 3.139916e-003 3.414568e-003
<VARIANCE> 25
 9.215258e+001 4.508425e+001 4.843063e+001 5.367918e+001 4.389589e+001 1.251500e+002 6.019806e+001 4.069524e+001 4.264995e+001 4.342792e+001 6.947089e+001 2.679055e+001 3.232421e+000 1.947923e+000 2.222950e+000 2.856259e+000 2.799246e+000 4.166050e+000 3.481529e+000 2.982733e+000 3.003859e+000 3.077193e+000 4.041900e+000 2.243110e+000 4.766832e+000
<GCONST> 1.080854e+002
<TRANSP> 5
 0.000000e+000 1.000000e+000 0.000000e+000 0.000000e+000 0.000000e+000
 0.000000e+000 7.076766e-001 2.923235e-001 0.000000e+000 0.000000e+000
 0.000000e+000 0.000000e+000 7.076768e-001 2.923232e-001 0.000000e+000
 0.000000e+000 0.000000e+000 0.000000e+000 8.269933e-001 1.730066e-001
 0.000000e+000 0.000000e+000 0.000000e+000 0.000000e+000 0.000000e+000
<ENDHMM>
~h "l"
<BEGINHMM>
<NUMSTATES> 5
<STATE> 2
<MEAN> 25
 1.344395e+000 -9.032139e-001 -3.542849e-002 -1.175602e+000 3.941667e-001 -1.157785e+000 2.602736e-001 -5.680507e-001 -4.808571e-001 4.747819e-001 7.723692e-001 -1.881505e-001 4.801785e-003 -1.558007e-002 -1.095408e-002 -1.411797e-002 -9.677505e-004 -1.163765e-002 2.001403e-002 -1.138487e-002 1.624153e-002 1.132158e-002 2.145721e-002 -1.542655e-003 1.413897e-002
<VARIANCE> 25
 8.283710e+001 4.955100e+001 4.284000e+001 6.755991e+001 4.560974e+001 1.149578e+002 6.003112e+001 4.957825e+001 4.849213e+001 4.092100e+001 6.493320e+001 3.149083e+001 2.790656e+000 2.047166e+000 1.947054e+000 2.858118e+000 2.648438e+000 3.843575e+000 3.075022e+000 3.226821e+000 2.977068e+000 2.863255e+000 3.580266e+000 2.423134e+000 4.291138e+000
<GCONST> 1.078508e+002
<STATE> 3
<MEAN> 25
 1.321722e+000 -9.273028e-001 -6.916825e-002 -1.189519e+000 3.963872e-001 -1.173025e+000 3.203555e-001 -5.859197e-001 -4.208708e-001 5.235596e-001 8.100438e-001 -1.825784e-001 -8.168813e-003 -7.018530e-003 -1.021238e-002 -8.145208e-003 9.086830e-004 -3.029444e-003 2.397969e-002 -4.957493e-003 1.496942e-002 1.231165e-002 1.226153e-002 2.583558e-004 -4.476032e-003
<VARIANCE> 25
 8.285397e+001 4.859782e+001 4.260444e+001 6.752124e+001 4.610048e+001 1.153247e+002 5.951908e+001 5.024314e+001 4.858113e+001 4.054928e+001 6.424979e+001 3.152223e+001 2.754411e+000 2.026138e+000 1.916426e+000 2.806124e+000 2.646659e+000 3.841983e+000 3.045663e+000 3.253466e+000 3.010445e+000 2.844548e+000 3.552702e+000 2.416740e+000 4.202646e+000
<GCONST> 1.077406e+002
<STATE> 4
<MEAN> 25
 1.258505e+000 -9.311047e-001 -5.325441e-002 -1.112133e+000 4.384721e-001 -1.230036e+000 4.069655e-001 -5.483027e-001 -3.845130e-001 5.853347e-001 7.636034e-001 -1.330899e-001 -2.789309e-002 8.216899e-003 -4.260281e-003 8.702568e-003 2.212503e-003 1.397967e-002 1.998152e-002 7.163642e-003 1.299872e-002 1.228097e-002 -8.706264e-003 2.589093e-003 -4.399354e-002
<VARIANCE> 25
 8.279463e+001 4.659905e+001 4.252542e+001 6.770768e+001 4.642567e+001 1.148499e+002 5.914452e+001 5.065606e+001 4.810291e+001 4.011374e+001 6.279817e+001 3.128876e+001 2.683289e+000 1.966832e+000 1.864347e+000 2.729055e+000 2.636953e+000 3.785357e+000 3.009289e+000 3.262352e+000 3.031729e+000 2.818741e+000 3.472152e+000 2.385005e+000 4.017101e+000
<GCONST> 1.074302e+002
<TRANSP> 5
 0.000000e+000 1.000000e+000 0.000000e+000 0.000000e+000 0.000000e+000
 0.000000e+000 7.046345e-001 2.953655e-001 0.000000e+000 0.000000e+000
 0.000000e+000 0.000000e+000 7.046347e-001 2.953653e-001 0.000000e+000
 0.000000e+000 0.000000e+000 0.000000e+000 8.236330e-001 1.763671e-001
 0.000000e+000 0.000000e+000 0.000000e+000 0.000000e+000 0.000000e+000
<ENDHMM>
~h "m"
<BEGINHMM>
<NUMSTATES> 5
<STATE> 2
<MEAN> 25
 -5.562454e-001 5.628027e-001 -1.978826e-001 6.971647e-001 -3.058516e-001 1.097851e+000 -5.672024e-001 5.395951e-001 6.197728e-002 3.343673e-001 -1.362914e+000 1.733693e-001 2.505518e-002 -1.026012e-002 7.580979e-003 -1.519457e-002 -1.353862e-002 -1.897179e-002 -3.136757e-002 4.787695e-003 -3.867021e-002 -2.776239e-002 3.239895e-002 -3.170325e-003 5.378850e-002
<VARIANCE> 25
 9.527381e+001 4.460138e+001 4.699409e+001 4.500709e+001 3.727710e+001 1.257155e+002 4.365321e+001 3.805911e+001 4.950945e+001 4.878638e+001 6.171908e+001 2.934463e+001 3.079062e+000 1.777606e+000 1.967247e+000 2.777464e+000 2.201464e+000 4.030725e+000 2.659719e+000 2.903068e+000 3.175918e+000 3.192622e+000 3.878770e+000 2.598986e+000 4.479565e+000
<GCONST> 1.068691e+002
<STATE> 3
<MEAN> 25
 -4.380273e-001 4.810831e-001 -1.907495e-001 6.512197e-001 -3.243206e-001 1.030215e+000 -6.553862e-001 5.684212e-001 -8.244155e-002 2.319149e-001 -1.235125e+000 2.096597e-001 4.174479e-002 -3.116380e-002 -7.651804e-004 -1.472276e-002 6.147311e-005 -3.119360e-002 -2.368909e-002 1.251192e-002 -4.204468e-002 -3.587249e-002 4.238634e-002 1.176280e-002 8.503938e-002
<VARIANCE> 25
 9.623352e+001 4.477479e+001 4.665315e+001 4.651953e+001 3.740621e+001 1.230543e+002 4.306784e+001 3.872593e+001 4.929427e+001 4.887119e+001 6.120447e+001 2.936008e+001 3.192421e+000 1.820416e+000 1.967142e+000 2.882746e+000 2.234329e+000 3.958818e+000 2.654591e+000 2.901522e+000 3.198860e+000 3.257392e+000 3.849604e+000 2.605749e+000 4.605115e+000
<GCONST> 1.070257e+002
<STATE> 4
<MEAN> 25
 -1.611239e-001 2.711206e-001 -2.264801e-001 5.906766e-001 -2.372367e-001 7.973827e-001 -7.156529e-001 6.963052e-001 -3.045385e-001 1.035955e-001 -1.010862e+000 2.970869e-001 6.281863e-002 -5.143741e-002 3.505304e-004 -2.120006e-002 1.249556e-002 -5.823034e-002 -8.046477e-003 2.827116e-002 -4.693690e-002 -4.337186e-002 5.628916e-002 1.196020e-002 1.350355e-001
<VARIANCE> 25
 9.641098e+001 4.435615e+001 4.620447e+001 4.944428e+001 3.752325e+001 1.198957e+002 4.304644e+001 3.971115e+001 4.845616e+001 4.850605e+001 6.079051e+001 2.946125e+001 3.354876e+000 1.879658e+000 1.969543e+000 2.991152e+000 2.264074e+000 3.928016e+000 2.649508e+000 2.910371e+000 3.195079e+000 3.331038e+000 3.798909e+000 2.591769e+000 4.815313e+000
<GCONST> 1.072167e+002
<TRANSP> 5
 0.000000e+000 1.000000e+000 0.000000e+000 0.000000e+000 0.000000e+000
 0.000000e+000 7.028426e-001 2.971574e-001 0.000000e+000 0.000000e+000
 0.000000e+000 0.000000e+000 7.028431e-001 2.971569e-001 0.000000e+000
 0.000000e+000 0.000000e+000 0.000000e+000 8.210552e-001 1.789448e-001
 0.000000e+000 0.000000e+000 0.000000e+000 0.000000e+000 0.000000e+000
<ENDHMM>
~h "n"
<BEGINHMM>
<NUMSTATES> 5
<STATE> 2
<MEAN> 25
 1.523586e+000 -7.443197e-001 2.596234e-001 -4.257303e-001 1.190284e-001 -2.017151e+000 6.366928e-001 -1.039510e-001 -7.117714e-001 -8.633680e-001 8.929318e-001 -2.168839e-001 -2.512474e-003 2.163196e-003 2.321805e-002 -1.146743e-002 1.095683e-002 -2.688629e-002 1.979716e-002 7.417903e-003 -1.765363e-002 -3.111042e-002 1.905649e-002 2.171784e-002 6.272327e-002
<VARIANCE> 25
 9.652573e+001 4.903178e+001 4.603967e+001 5.493898e+001 4.993713e+001 1.134500e+002 5.398954e+001 4.295370e+001 4.064737e+001 4.509431e+001 6.889104e+001 2.891948e+001 3.622731e+000 2.245861e+000 2.108389e+000 2.969232e+000 2.897875e+000 3.901669e+000 3.210706e+000 3.022484e+000 2.873184e+000 3.028033e+000 4.110662e+000 2.383087e+000 4.495534e+000
<GCONST> 1.083236e+002
<STATE> 3
<MEAN> 25
 1.520851e+000 -7.384863e-001 3.406185e-001 -4.719054e-001 1.376428e-001 -2.104042e+000 7.042989e-001 -8.509475e-002 -7.784981e-001 -9.790598e-001 9.578716e-001 -1.435525e-001 4.304136e-003 3.370810e-003 1.709670e-002 -1.393608e-002 4.650803e-003 -2.177591e-002 2.076139e-002 7.194392e-003 -1.621069e-002 -3.312086e-002 1.548807e-002 2.415648e-002 6.434099e-002
<VARIANCE> 25
 9.695430e+001 4.865989e+001 4.671733e+001 5.446621e+001 4.969257e+001 1.128440e+002 5.387415e+001 4.250448e+001 4.043951e+001 4.524601e+001 6.901412e+001 2.905949e+001 3.740555e+000 2.263132e+000 2.141952e+000 2.968971e+000 2.909781e+000 3.913379e+000 3.234720e+000 3.009622e+000 2.895815e+000 3.042917e+000 4.099413e+000 2.389955e+000 4.520429e+000
<GCONST> 1.083924e+002
<STATE> 4
<MEAN> 25
 1.474229e+000 -6.851125e-001 4.641661e-001 -5.224268e-001 7.683762e-002 -2.110712e+000 7.729760e-001 -8.512015e-002 -8.644261e-001 -1.102670e+000 9.862894e-001 -4.662858e-002 4.023329e-003 7.929462e-003 1.025987e-002 -1.054063e-002 -2.972006e-003 -1.085124e-002 1.842375e-002 6.174415e-003 -9.468163e-003 -3.039901e-002 5.105499e-003 2.438298e-002 4.865545e-002
<VARIANCE> 25
 9.665228e+001 4.761890e+001 4.769664e+001 5.376290e+001 4.877550e+001 1.112475e+002 5.306390e+001 4.145253e+001 4.001437e+001 4.533250e+001 6.915214e+001 2.936963e+001 3.808267e+000 2.246359e+000 2.159324e+000 2.941849e+000 2.872941e+000 3.870368e+000 3.200039e+000 2.948037e+000 2.905065e+000 3.042426e+000 4.024890e+000 2.386893e+000 4.435950e+000
<GCONST> 1.082249e+002
<TRANSP> 5
 0.000000e+000 1.000000e+000 0.000000e+000 0.000000e+000 0.000000e+000
 0.000000e+000 7.047668e-001 2.952333e-001 0.000000e+000 0.000000e+000
 0.000000e+000 0.000000e+000 7.047666e-001 2.952335e-001 0.000000e+000
 0.000000e+000 0.000000e+000 0.000000e+000 8.237019e-001 1.762981e-001
 0.000000e+000 0.000000e+000 0.000000e+000 0.000000e+000 0.000000e+000
<ENDHMM>
~h "p"
<BEGINHMM>
<NUMSTATES> 5
<STATE> 2
<MEAN> 25
 1.490722e+000 -1.023587e+000 -2.061966e-001 -1.030452e+000 -1.156400e-001 -4.312983e-001 4.951593e-001 -3.685025e-001 1.125606e-001 -1.391965e-001 7.582291e-001 -1.024316e-001 9.152599e-002 -9.267294e-002 -2.575025e-002 -8.980591e-003 -1.345621e-002 -1.269389e-001 2.545207e-002 1.351298e-002 -1.372295e-002 5.436749e-004 1.791682e-002 5.508373e-003 1.248499e-001
<VARIANCE> 25
 7.606943e+001 4.845145e+001 4.036888e+001 5.724671e+001 5.030457e+001 1.152341e+002 5.905688e+001 4.593525e+001 4.266192e+001 4.791446e+001 7.237314e+001 2.941961e+001 3.159868e+000 2.479882e+000 2.203866e+000 3.413505e+000 2.991279e+000 4.737466e+000 3.753609e+000 3.534544e+000 3.377780e+000 3.478471e+000 4.882243e+000 2.466856e+000 6.370183e+000
<GCONST> 1.098788e+002
<STATE> 3
<MEAN> 25
 1.778679e+000 -1.317170e+000 -2.753053e-001 -1.034765e+000 -1.498336e-001 -8.438770e-001 5.670006e-001 -3.301151e-001 6.172141e-002 -1.237110e-001 7.917869e-001 -7.459322e-002 7.986856e-002 -8.808327e-002 -2.584499e-002 6.352694e-003 -4.538230e-003 -1.129777e-001 1.780448e-002 1.673103e-002 -1.521238e-002 1.282934e-003 1.586351e-002 9.061744e-003 9.851258e-002
<VARIANCE> 25
 7.420632e+001 4.851493e+001 3.986620e+001 5.751062e+001 5.101263e+001 1.155994e+002 5.922099e+001 4.745071e+001 4.348824e+001 4.682161e+001 7.224906e+001 2.960063e+001 3.119256e+000 2.478400e+000 2.204010e+000 3.438134e+000 2.947790e+000 4.763790e+000 3.752764e+000 3.601949e+000 3.323712e+000 3.473478e+000 4.813774e+000 2.498295e+000 6.339400e+000
<GCONST> 1.098797e+002
<STATE> 4
<MEAN> 25
 2.136534e+000 -1.676639e+000 -3.256954e-001 -1.060990e+000 -9.479933e-002 -1.364166e+000 6.974130e-001 -3.163201e-001 -1.120006e-001 -4.052209e-002 8.677698e-001 -2.247777e-002 5.088631e-002 -6.845752e-002 -1.624851e-002 2.520647e-002 5.815329e-003 -8.427238e-002 5.946904e-003 2.152130e-002 -1.971935e-002 8.617879e-003 1.063620e-002 1.394971e-002 5.318158e-002
<VARIANCE> 25
 7.106932e+001 4.798642e+001 3.941238e+001 5.876701e+001 5.182936e+001 1.149027e+002 6.043922e+001 5.016896e+001 4.496151e+001 4.544864e+001 7.135861e+001 2.994558e+001 3.060073e+000 2.477693e+000 2.190076e+000 3.450900e+000 2.907026e+000 4.787533e+000 3.760841e+000 3.646633e+000 3.241224e+000 3.456118e+000 4.679205e+000 2.540654e+000 6.222250e+000
<GCONST> 1.098474e+002
<TRANSP> 5
 0.000000e+000 1.000000e+000 0.000000e+000 0.000000e+000 0.000000e+000
 0.000000e+000 6.970022e-001 3.029978e-001 0.000000e+000 0.000000e+000
 0.000000e+000 0.000000e+000 6.970022e-001 3.029978e-001 0.000000e+000
 0.000000e+000 0.000000e+000 0.000000e+000 8.141589e-001 1.858411e-001
 0.000000e+000 0.000000e+000 0.000000e+000 0.000000e+000 0.000000e+000
<ENDHMM>
~h "r"
<BEGINHMM>
<NUMSTATES> 5
<STATE> 2
<MEAN> 25
 5.568602e-001 -7.554608e-001 1.743181e-003 -1.612735e-001 1.387093e-001 -8.814703e-001 1.114445e+000 2.141429e-001 -2.984361e-001 -4.195216e-001 5.912122e-001 1.070628e-001 -1.840118e-002 2.382146e-003 1.971645e-002 3.591754e-002 -2.244387e-003 2.339437e-002 5.576666e-003 1.869782e-002 2.604329e-003 -1.061218e-002 -8.770422e-003 1.104047e-002 -5.906247e-002
<VARIANCE> 25
 8.467025e+001 4.486318e+001 5.091276e+001 6.384124e+001 5.762137e+001 1.218604e+002 6.647208e+001 4.181280e+001 3.947683e+001 5.450838e+001 6.455896e+001 2.737231e+001 3.256244e+000 2.078335e+000 2.019567e+000 2.755654e+000 2.963120e+000 4.315916e+000 3.271888e+000 2.923411e+000 2.932323e+000 3.273880e+000 3.631913e+000 2.158650e+000 4.164816e+000
<GCONST> 1.083968e+002
<STATE> 3
<MEAN> 25
 4.803989e-001 -7.525666e-001 6.007352e-002 -4.072585e-002 1.489414e-001 -8.071269e-001 1.117838e+000 2.746719e-001 -2.932509e-001 -4.604563e-001 5.495720e-001 1.461780e-001 -2.725152e-002 -7.207698e-004 1.876478e-002 3.620204e-002 4.114514e-003 1.648942e-002 5.417907e-004 1.709924e-002 7.377832e-004 -1.193884e-002 -1.024852e-002 1.360154e-002 -5.515936e-002
<VARIANCE> 25
 8.556184e+001 4.472048e+001 5.101394e+001 6.360455e+001 5.708934e+001 1.226478e+002 6.681935e+001 4.228443e+001 3.907195e+001 5.401028e+001 6.511363e+001 2.737754e+001 3.243549e+000 2.041502e+000 2.025637e+000 2.734424e+000 2.925954e+000 4.347515e+000 3.316469e+000 2.973590e+000 2.942335e+000 3.269887e+000 3.642443e+000 2.166768e+000 4.130894e+000
<GCONST> 1.084046e+002
<STATE> 4
<MEAN> 25
 3.939736e-001 -8.204762e-001 1.257044e-001 1.033043e-001 2.101206e-001 -8.375981e-001 1.079022e+000 3.543762e-001 -2.810409e-001 -5.260791e-001 5.105666e-001 2.181303e-001 -4.183787e-002 1.217736e-004 1.388879e-002 3.425684e-002 1.243856e-002 1.126210e-002 -1.270517e-002 2.095377e-002 9.418368e-003 -5.998002e-003 -1.466175e-002 1.526473e-002 -5.971059e-002
<VARIANCE> 25
 8.657662e+001 4.419920e+001 5.128243e+001 6.238578e+001 5.592717e+001 1.232727e+002 6.686514e+001 4.274822e+001 3.859943e+001 5.341198e+001 6.574747e+001 2.786784e+001 3.222553e+000 1.980404e+000 2.026945e+000 2.697237e+000 2.853166e+000 4.356895e+000 3.354857e+000 3.037479e+000 2.962185e+000 3.271747e+000 3.634048e+000 2.187726e+000 4.089637e+000
<GCONST> 1.083551e+002
<TRANSP> 5
 0.000000e+000 1.000000e+000 0.000000e+000 0.000000e+000 0.000000e+000
 0.000000e+000 7.025882e-001 2.974118e-001 0.000000e+000 0.000000e+000
 0.000000e+000 0.000000e+000 7.025880e-001 2.974121e-001 0.000000e+000
 0.000000e+000 0.000000e+000 0.000000e+000 8.203817e-001 1.796183e-001
 0.000000e+000 0.000000e+000 0.000000e+000 0.000000e+000 0.000000e+000
<ENDHMM>
~h "s"
<BEGINHMM>
<NUMSTATES> 5
<STATE> 2
<MEAN> 25
 -9.228210e-001 -2.686578e-001 4.375022e-001 -4.512649e-001 1.126002e+000 -1.765614e+000 6.318421e-001 1.071623e+000 -5.589619e-001 -4.441826e-001 6.454609e-001 2.878351e-002 3.013461e-002 1.387790e-002 -1.805883e-002 1.768815e-002 -3.231945e-002 1.079285e-003 -2.821053e-002 -1.330992e-002 2.329613e-002 -1.389708e-002 -1.527536e-002 7.396736e-003 -3.066264e-002
<VARIANCE> 25
 1.114255e+002 4.531691e+001 5.054893e+001 5.922881e+001 6.200524e+001 1.029921e+002 5.600030e+001 5.029958e+001 4.306599e+001 4.315197e+001 5.915788e+001 2.911811e+001 4.852418e+000 2.544873e+000 2.254260e+000 3.174340e+000 3.428456e+000 4.007844e+000 3.631008e+000 3.639349e+000 3.387895e+000 3.137275e+000 3.978036e+000 2.344567e+000 5.204186e+000
<GCONST> 1.100916e+002
<STATE> 3
<MEAN> 25
 -8.172098e-001 -2.266666e-001 3.795553e-001 -3.840813e-001 1.008677e+000 -1.778414e+000 5.401334e-001 1.022915e+000 -4.688612e-001 -4.848318e-001 5.983881e-001 5.186867e-002 2.573420e-002 1.410222e-002 -1.871901e-002 2.134378e-002 -3.860781e-002 -9.206472e-004 -2.827175e-002 -1.282230e-002 2.829244e-002 -6.744220e-003 -1.579371e-002 5.024979e-003 -4.373042e-002
<VARIANCE> 25
 1.104836e+002 4.534084e+001 5.042617e+001 5.929573e+001 6.193504e+001 1.033722e+002 5.570043e+001 4.988243e+001 4.344489e+001 4.388603e+001 6.004126e+001 2.885971e+001 4.761774e+000 2.514301e+000 2.250088e+000 3.192631e+000 3.417907e+000 3.959203e+000 3.613520e+000 3.633343e+000 3.362296e+000 3.149121e+000 4.025060e+000 2.349922e+000 5.143889e+000
<GCONST> 1.100525e+002
<STATE> 4
<MEAN> 25
 -5.403757e-001 -2.764681e-001 2.951755e-001 -3.760283e-001 8.639091e-001 -1.876274e+000 5.372136e-001 8.823374e-001 -4.110684e-001 -6.437477e-001 6.875018e-001 1.240413e-001 1.993783e-002 1.367404e-002 -1.295111e-002 3.096791e-002 -4.458449e-002 -3.541457e-003 -2.772581e-002 -1.658498e-002 2.658949e-002 -3.207706e-003 -1.956797e-002 3.176567e-003 -5.886502e-002
<VARIANCE> 25
 1.089041e+002 4.505709e+001 5.065707e+001 5.998967e+001 6.211776e+001 1.034409e+002 5.595621e+001 4.944225e+001 4.394250e+001 4.552284e+001 6.317635e+001 2.812294e+001 4.591721e+000 2.447803e+000 2.267637e+000 3.238673e+000 3.431414e+000 3.883546e+000 3.624752e+000 3.640699e+000 3.337087e+000 3.198304e+000 4.166893e+000 2.335342e+000 5.113909e+000
<GCONST> 1.100996e+002
<TRANSP> 5
 0.000000e+000 1.000000e+000 0.000000e+000 0.000000e+000 0.000000e+000
 0.000000e+000 7.050174e-001 2.949825e-001 0.000000e+000 0.000000e+000
 0.000000e+000 0.000000e+000 7.050175e-001 2.949825e-001 0.000000e+000
 0.000000e+000 0.000000e+000 0.000000e+000 8.238402e-001 1.761598e-001
 0.000000e+000 0.000000e+000 0.000000e+000 0.000000e+000 0.000000e+000
<ENDHMM>
~h "t"
<BEGINHMM>
<NUMSTATES> 5
<STATE> 2
<MEAN> 25
 7.523664e-001 -3.469093e-001 -2.924554e-002 -8.313880e-001 4.574604e-001 -1.347739e+000 4.668013e-001 -4.689626e-001 -7.117630e-001 -5.124562e-001 1.060006e+000 6.424382e-002 -1.490804e-002 7.747446e-003 6.121729e-003 1.657265e-003 1.294240e-003 2.693890e-003 -1.330583e-003 -3.970414e-003 -4.827975e-003 1.761350e-002 -7.252897e-003 -9.553325e-003 -2.559785e-003
<VARIANCE> 25
 8.267576e+001 4.327961e+001 4.672951e+001 6.178720e+001 4.696939e+001 1.206634e+002 5.586081e+001 5.105560e+001 4.649552e+001 4.646017e+001 6.207432e+001 3.023286e+001 3.191572e+000 2.138392e+000 2.118978e+000 3.011190e+000 2.710843e+000 4.428136e+000 3.443455e+000 3.388402e+000 3.596142e+000 3.122406e+000 4.071478e+000 2.397508e+000 5.223295e+000
<GCONST> 1.089770e+002
<STATE> 3
<MEAN> 25
 7.017778e-001 -3.187085e-001 -6.059746e-003 -8.176870e-001 4.604123e-001 -1.334076e+000 4.687320e-001 -4.858515e-001 -7.256459e-001 -4.522524e-001 1.027796e+000 3.681148e-002 -1.587085e-002 1.161725e-002 1.024075e-002 3.708676e-003 3.350290e-003 5.133785e-003 6.043346e-004 -5.144033e-003 -5.273778e-003 1.569928e-002 -1.022341e-002 -6.799756e-003 -5.116692e-003
<VARIANCE> 25
 8.179167e+001 4.278729e+001 4.762500e+001 6.138833e+001 4.760322e+001 1.216821e+002 5.569851e+001 5.020885e+001 4.683247e+001 4.681999e+001 6.175010e+001 3.021770e+001 3.161620e+000 2.096601e+000 2.122924e+000 3.004076e+000 2.705386e+000 4.460957e+000 3.451874e+000 3.373168e+000 3.590636e+000 3.118869e+000 4.038432e+000 2.406656e+000 5.189224e+000
<GCONST> 1.089388e+002
<STATE> 4
<MEAN> 25
 6.904047e-001 -3.218963e-001 5.771255e-002 -7.692572e-001 4.662411e-001 -1.375592e+000 4.727933e-001 -4.976804e-001 -7.320330e-001 -4.149360e-001 9.679055e-001 4.613260e-002 -1.296265e-002 1.027756e-002 1.099879e-002 6.652388e-003 6.891627e-003 1.886506e-003 1.158359e-003 -4.654054e-003 -2.592730e-003 1.245259e-002 -1.241115e-002 -1.954582e-004 -6.997095e-003
<VARIANCE> 25
 8.082168e+001 4.275451e+001 4.876742e+001 6.090345e+001 4.798061e+001 1.229959e+002 5.502282e+001 4.847474e+001 4.676373e+001 4.710314e+001 6.097053e+001 3.036819e+001 3.086704e+000 2.047110e+000 2.126843e+000 2.986221e+000 2.679064e+000 4.444538e+000 3.423685e+000 3.329797e+000 3.557021e+000 3.124993e+000 3.956707e+000 2.425335e+000 5.079283e+000
<GCONST> 1.087818e+002
<TRANSP> 5
 0.000000e+000 1.000000e+000 0.000000e+000 0.000000e+000 0.000000e+000
 0.000000e+000 7.054425e-001 2.945575e-001 0.000000e+000 0.000000e+000
 0.000000e+000 0.000000e+000 7.054421e-001 2.945579e-001 0.000000e+000
 0.000000e+000 0.000000e+000 0.000000e+000 8.239115e-001 1.760884e-001
 0.000000e+000 0.000000e+000 0.000000e+000 0.000000e+000 0.000000e+000
<ENDHMM>
~h "v"
<BEGINHMM>
<NUMSTATES> 5
<STATE> 2
<MEAN> 25
 1.248187e+000 -1.377827e+000 3.292959e-001 1.692788e-001 -4.754105e-001 -1.817592e+000 9.744959e-001 -3.824123e-001 -5.463259e-001 -1.254992e-001 4.702031e-001 2.655542e-001 -2.869011e-003 8.945063e-003 -4.973319e-004 -3.807848e-002 -4.478585e-002 5.580879e-002 9.031004e-003 -1.523409e-003 8.715434e-003 1.489449e-002 1.616569e-002 2.798339e-004 -2.448726e-002
<VARIANCE> 25
 8.766315e+001 3.938999e+001 5.982276e+001 7.526606e+001 5.828528e+001 9.104554e+001 6.761439e+001 4.306089e+001 4.188243e+001 4.660067e+001 6.609697e+001 2.409149e+001 3.427956e+000 1.840636e+000 2.257037e+000 3.480900e+000 3.015562e+000 3.804976e+000 3.378639e+000 3.527170e+000 2.781034e+000 2.727871e+000 3.763603e+000 2.196790e+000 3.580131e+000
<GCONST> 1.082446e+002
<STATE> 3
<MEAN> 25
 1.239400e+000 -1.330291e+000 3.212937e-001 3.948215e-002 -6.183770e-001 -1.613546e+000 9.900584e-001 -4.052877e-001 -5.295409e-001 -9.014524e-002 5.311685e-001 2.638576e-001 -5.743274e-003 1.551130e-002 -1.753253e-004 -3.764377e-002 -4.220249e-002 6.219329e-002 5.835159e-003 -1.004225e-002 6.567875e-003 8.393678e-003 1.583453e-002 2.842367e-004 -3.034236e-002
<VARIANCE> 25
 8.825968e+001 3.969946e+001 5.980129e+001 7.805264e+001 5.814040e+001 9.106667e+001 6.805014e+001 4.325143e+001 4.184553e+001 4.662566e+001 6.683042e+001 2.400681e+001 3.383479e+000 1.792907e+000 2.255362e+000 3.516097e+000 3.026853e+000 3.772240e+000 3.376614e+000 3.536019e+000 2.766988e+000 2.734092e+000 3.724921e+000 2.197555e+000 3.509431e+000
<GCONST> 1.082452e+002
<STATE> 4
<MEAN> 25
 1.235822e+000 -1.216945e+000 2.465113e-001 -1.595512e-001 -7.546766e-001 -1.240218e+000 9.495163e-001 -4.539719e-001 -5.084960e-001 -7.776197e-002 6.149290e-001 2.928989e-001 -2.547029e-003 2.002514e-002 -8.570800e-003 -4.135711e-002 -3.947000e-002 6.067770e-002 5.281671e-003 -1.479256e-002 3.661639e-003 5.193230e-003 1.528901e-002 2.013258e-003 -3.988287e-002
<VARIANCE> 25
 8.928837e+001 4.013222e+001 5.927823e+001 8.176122e+001 5.717104e+001 9.158810e+001 6.836872e+001 4.287710e+001 4.226669e+001 4.720211e+001 6.814899e+001 2.382989e+001 3.295586e+000 1.712682e+000 2.233140e+000 3.547753e+000 3.057547e+000 3.697742e+000 3.364537e+000 3.494673e+000 2.736471e+000 2.773902e+000 3.668713e+000 2.209266e+000 3.382725e+000
<GCONST> 1.081830e+002
<TRANSP> 5
 0.000000e+000 1.000000e+000 0.000000e+000 0.000000e+000 0.000000e+000
 0.000000e+000 7.050330e-001 2.949670e-001 0.000000e+000 0.000000e+000
 0.000000e+000 0.000000e+000 7.050328e-001 2.949672e-001 0.000000e+000
 0.000000e+000 0.000000e+000 0.000000e+000 8.227249e-001 1.772751e-001
 0.000000e+000 0.000000e+000 0.000000e+000 0.000000e+000 0.000000e+000
<ENDHMM>
~h "w"
<BEGINHMM>
<NUMSTATES> 5
<STATE> 2
<MEAN> 25
 2.847617e+000 -1.172014e+000 -2.772121e-001 -2.471756e+000 -1.934344e+000 3.009781e-001 1.106240e+000 -1.215145e+000 -4.735952e-001 -6.524532e-001 1.460187e+000 -3.293854e-002 -3.382226e-002 7.511947e-002 -5.589242e-003 8.320383e-003 5.046233e-002 2.053213e-002 2.544013e-002 -5.226308e-002 -3.143792e-002 -3.237133e-002 2.105919e-002 2.470966e-002 -7.034824e-003
<VARIANCE> 25
 7.248780e+001 4.148370e+001 4.564501e+001 7.444249e+001 5.196964e+001 1.198976e+002 5.484626e+001 4.949705e+001 4.008240e+001 4.664129e+001 8.253671e+001 3.454812e+001 2.389972e+000 1.962822e+000 1.650364e+000 2.806311e+000 2.938933e+000 4.018122e+000 3.131089e+000 3.005282e+000 3.024147e+000 3.250996e+000 4.394115e+000 2.448210e+000 3.982069e+000
<GCONST> 1.080515e+002
<STATE> 3
<MEAN> 25
 2.687670e+000 -9.103492e-001 -3.085172e-001 -2.371552e+000 -1.714937e+000 3.785463e-001 1.146154e+000 -1.378309e+000 -5.549836e-001 -7.358715e-001 1.484484e+000 1.638008e-002 -4.715461e-002 7.745504e-002 -1.583906e-002 3.696096e-002 6.892030e-002 1.674857e-002 1.498404e-002 -5.173180e-002 -1.517993e-002 -2.734748e-002 1.976607e-003 1.170821e-002 -3.431382e-002
<VARIANCE> 25
 7.446387e+001 3.941810e+001 4.614421e+001 7.328575e+001 5.216257e+001 1.194714e+002 5.413195e+001 4.982756e+001 4.002317e+001 4.630201e+001 8.305033e+001 3.404534e+001 2.373394e+000 1.898938e+000 1.597361e+000 2.752448e+000 2.916538e+000 3.949042e+000 3.030463e+000 3.010792e+000 2.974116e+000 3.208136e+000 4.357229e+000 2.443381e+000 3.809351e+000
<GCONST> 1.077664e+002
<STATE> 4
<MEAN> 25
 2.473648e+000 -5.958530e-001 -3.441039e-001 -2.020251e+000 -1.338605e+000 3.705711e-001 1.116752e+000 -1.586034e+000 -6.060960e-001 -8.410417e-001 1.439273e+000 1.054849e-002 -6.143956e-002 7.662510e-002 -2.502648e-002 6.857910e-002 8.940607e-002 9.062693e-003 -1.074677e-002 -4.054574e-002 3.194765e-003 -1.019544e-002 -1.641930e-002 -4.879098e-003 -6.909764e-002
<VARIANCE> 25
 7.676878e+001 3.684864e+001 4.598715e+001 7.046940e+001 5.147619e+001 1.181628e+002 5.384381e+001 5.061477e+001 3.942813e+001 4.609544e+001 8.395955e+001 3.339711e+001 2.356234e+000 1.865458e+000 1.539718e+000 2.720989e+000 2.842863e+000 3.911845e+000 2.913428e+000 3.051459e+000 2.877520e+000 3.184853e+000 4.282026e+000 2.424045e+000 3.661966e+000
<GCONST> 1.074057e+002
<TRANSP> 5
 0.000000e+000 1.000000e+000 0.000000e+000 0.000000e+000 0.000000e+000
 0.000000e+000 6.964306e-001 3.035694e-001 0.000000e+000 0.000000e+000
 0.000000e+000 0.000000e+000 6.964304e-001 3.035696e-001 0.000000e+000
 0.000000e+000 0.000000e+000 0.000000e+000 8.125034e-001 1.874966e-001
 0.000000e+000 0.000000e+000 0.000000e+000 0.000000e+000 0.000000e+000
<ENDHMM>
~h "y"
<BEGINHMM>
<NUMSTATES> 5
<STATE> 2
<MEAN> 25
 3.672779e-001 -4.050780e-001 5.206707e-001 5.341515e-001 -4.379973e-001 -1.209248e-001 -5.246931e-001 1.194483e-001 2.741605e-001 2.320260e-001 -3.269437e-001 1.831630e-001 3.152817e-002 -3.407950e-002 1.875139e-002 7.773826e-003 2.182751e-002 -2.725379e-003 -6.706538e-004 -2.565457e-004 -4.172255e-002 -4.672538e-003 4.243153e-002 3.957131e-002 5.746990e-002
<VARIANCE> 25
 8.835746e+001 3.681307e+001 4.581710e+001 5.715403e+001 3.276535e+001 1.162402e+002 6.015866e+001 4.452431e+001 4.988802e+001 4.361124e+001 6.736852e+001 2.917602e+001 2.822561e+000 1.738318e+000 2.415625e+000 3.213696e+000 2.576481e+000 4.518666e+000 3.545166e+000 3.502171e+000 3.361549e+000 3.464396e+000 3.860462e+000 2.636808e+000 5.128935e+000
<GCONST> 1.083350e+002
<STATE> 3
<MEAN> 25
 4.707875e-001 -5.083938e-001 5.894904e-001 5.507252e-001 -3.702497e-001 -1.294392e-001 -5.076931e-001 1.076561e-001 1.135795e-001 2.101471e-001 -1.727150e-001 2.932741e-001 2.424599e-002 -2.541319e-002 1.851275e-002 6.773904e-003 1.760423e-002 7.090802e-003 2.945158e-003 -4.079779e-003 -4.319163e-002 -5.198391e-003 4.446288e-002 3.016382e-002 6.325962e-002
<VARIANCE> 25
 8.907263e+001 3.688923e+001 4.588308e+001 5.770590e+001 3.295773e+001 1.177431e+002 6.017498e+001 4.420973e+001 5.071693e+001 4.390059e+001 6.817536e+001 2.878132e+001 2.856395e+000 1.729433e+000 2.449247e+000 3.192563e+000 2.576079e+000 4.508610e+000 3.578888e+000 3.444738e+000 3.400302e+000 3.512694e+000 3.880678e+000 2.617416e+000 5.217767e+000
<GCONST> 1.084343e+002
<STATE> 4
<MEAN> 25
 6.087771e-001 -5.512599e-001 6.309004e-001 5.192699e-001 -2.590348e-001 -1.373710e-001 -4.160027e-001 9.089604e-002 -2.194422e-001 1.807400e-001 4.829010e-002 3.114243e-001 1.614610e-002 -6.627548e-003 9.917147e-003 6.639515e-003 1.367005e-002 1.914360e-002 3.168756e-003 -6.948041e-003 -3.843019e-002 -8.322963e-003 3.974746e-002 9.945229e-003 5.365708e-002
<VARIANCE> 25
 8.994773e+001 3.680294e+001 4.625211e+001 5.854972e+001 3.296666e+001 1.189792e+002 5.966023e+001 4.299924e+001 5.204496e+001 4.421394e+001 6.933553e+001 2.831544e+001 2.881717e+000 1.663285e+000 2.462188e+000 3.132877e+000 2.543537e+000 4.437754e+000 3.557946e+000 3.375523e+000 3.424853e+000 3.562778e+000 3.866171e+000 2.569797e+000 5.120715e+000
<GCONST> 1.083541e+002
<TRANSP> 5
 0.000000e+000 1.000000e+000 0.000000e+000 0.000000e+000 0.000000e+000
 0.000000e+000 7.045467e-001 2.954532e-001 0.000000e+000 0.000000e+000
 0.000000e+000 0.000000e+000 7.045467e-001 2.954533e-001 0.000000e+000
 0.000000e+000 0.000000e+000 0.000000e+000 8.224459e-001 1.775541e-001
 0.000000e+000 0.000000e+000 0.000000e+000 0.000000e+000 0.000000e+000
<ENDHMM>
~h "z"
<BEGINHMM>
<NUMSTATES> 5
<STATE> 2
<MEAN> 25
 -3.985494e-001 7.371129e-001 2.536512e-001 2.199464e-001 1.186076e+000 -5.999410e-001 -3.828456e-001 1.183844e+000 -8.746074e-001 -3.953708e-001 -7.836954e-002 -1.263340e+000 -1.063459e-001 4.689001e-002 2.826024e-002 4.962518e-002 3.126866e-002 1.670353e-002 -1.856576e-003 3.910714e-002 7.256097e-003 3.893456e-002 -2.860668e-002 -2.360730e-002 -7.390514e-002
<VARIANCE> 25
 8.582217e+001 4.896748e+001 4.206482e+001 4.187332e+001 4.766615e+001 1.164550e+002 4.775266e+001 3.912076e+001 3.404392e+001 5.409704e+001 8.161488e+001 3.131245e+001 3.685309e+000 2.933093e+000 2.097217e+000 2.289038e+000 3.004630e+000 3.915564e+000 2.893615e+000 2.638598e+000 2.962962e+000 3.246008e+000 3.763534e+000 2.170364e+000 3.861714e+000
<GCONST> 1.074451e+002
<STATE> 3
<MEAN> 25
 -7.482119e-001 9.017700e-001 3.646445e-001 3.899908e-001 1.264195e+000 -5.360494e-001 -4.037698e-001 1.272989e+000 -8.366932e-001 -2.700294e-001 -1.628669e-001 -1.318456e+000 -1.063496e-001 5.227278e-002 3.283687e-002 5.493932e-002 2.616023e-002 2.031197e-002 -1.641791e-002 2.228573e-002 2.032402e-002 3.164085e-002 -1.712150e-002 -9.893875e-003 -8.085187e-002
<VARIANCE> 25
 8.649733e+001 4.851599e+001 4.193787e+001 4.169932e+001 4.833377e+001 1.159365e+002 4.813722e+001 3.860900e+001 3.393544e+001 5.234940e+001 8.015152e+001 3.063569e+001 3.815733e+000 2.950482e+000 2.079992e+000 2.269934e+000 3.039847e+000 3.940072e+000 2.877668e+000 2.558912e+000 2.938942e+000 3.203602e+000 3.830419e+000 2.195640e+000 3.758122e+000
<GCONST> 1.073513e+002
<STATE> 4
<MEAN> 25
 -1.202832e+000 9.800481e-001 6.154311e-001 6.913609e-001 1.270756e+000 -5.560160e-001 -4.890107e-001 1.318681e+000 -7.044845e-001 -1.517020e-001 -1.929767e-001 -1.268571e+000 -8.184920e-002 4.332662e-002 2.977899e-002 4.651367e-002 9.670764e-003 1.857100e-002 -1.886096e-002 -3.260408e-003 2.731446e-002 2.097883e-002 3.100471e-004 4.137320e-003 -7.026199e-002
<VARIANCE> 25
 8.698754e+001 4.744232e+001 4.159754e+001 4.221959e+001 4.883689e+001 1.144255e+002 4.936898e+001 3.740237e+001 3.292955e+001 5.069117e+001 7.936639e+001 2.928572e+001 3.930122e+000 2.897732e+000 2.061204e+000 2.271031e+000 3.118993e+000 3.900473e+000 2.910717e+000 2.471531e+000 2.876355e+000 3.157497e+000 3.954038e+000 2.207353e+000 3.666482e+000
<GCONST> 1.071839e+002
<TRANSP> 5
 0.000000e+000 1.000000e+000 0.000000e+000 0.000000e+000 0.000000e+000
 0.000000e+000 7.047578e-001 2.952423e-001 0.000000e+000 0.000000e+000
 0.000000e+000 0.000000e+000 7.047579e-001 2.952421e-001 0.000000e+000
 0.000000e+000 0.000000e+000 0.000000e+000 8.260014e-001 1.739986e-001
 0.000000e+000 0.000000e+000 0.000000e+000 0.000000e+000 0.000000e+000
<ENDHMM>
~h "aa"
<BEGINHMM>
<NUMSTATES> 5
<STATE> 2
<MEAN> 25
 1.182816e+000 -1.261405e+000 -4.671703e-002 -1.741303e+000 6.439903e-001 -3.266107e+000 2.707510e+000 -3.053989e-002 -1.074911e+000 -2.862409e-001 1.155215e+000 -4.473075e-001 -2.848777e-002 3.403125e-002 -9.042985e-004 3.908169e-002 -1.662965e-003 1.728268e-002 -1.849156e-002 2.844721e-002 -2.221628e-002 -7.205698e-003 -3.577288e-002 -6.299003e-003 -8.669122e-002
<VARIANCE> 25
 9.771910e+001 4.367219e+001 5.190302e+001 6.327586e+001 5.470469e+001 1.346679e+002 6.143939e+001 6.272364e+001 4.917308e+001 4.627906e+001 7.107668e+001 3.394196e+001 3.617725e+000 2.060574e+000 2.140593e+000 3.505492e+000 3.031845e+000 5.024822e+000 3.825889e+000 4.262715e+000 2.846773e+000 3.574036e+000 4.158535e+000 2.512263e+000 5.235978e+000
<GCONST> 1.109439e+002
<STATE> 3
<MEAN> 25
 1.068286e+000 -1.146399e+000 -5.009254e-002 -1.617916e+000 6.546423e-001 -3.198176e+000 2.640703e+000 9.073791e-002 -1.142482e+000 -2.979450e-001 1.035474e+000 -4.585899e-001 -3.448321e-002 3.330441e-002 -2.610650e-003 3.391123e-002 4.687315e-003 2.858459e-002 -2.134075e-002 3.540251e-002 -2.610681e-002 9.249783e-004 -3.271614e-002 -4.179157e-003 -9.355990e-002
<VARIANCE> 25
 9.839943e+001 4.366993e+001 5.071712e+001 6.391373e+001 5.421363e+001 1.356504e+002 6.157535e+001 6.304713e+001 4.965266e+001 4.625229e+001 7.117855e+001 3.352443e+001 3.616184e+000 2.027248e+000 2.130206e+000 3.524350e+000 3.010871e+000 4.985733e+000 3.784430e+000 4.206056e+000 2.839715e+000 3.535653e+000 4.116089e+000 2.484885e+000 5.062501e+000
<GCONST> 1.108180e+002
<STATE> 4
<MEAN> 25
 8.402505e-001 -1.040299e+000 5.285021e-003 -1.457557e+000 7.125027e-001 -3.194117e+000 2.534690e+000 3.442586e-001 -1.165637e+000 -3.498448e-001 9.165906e-001 -4.160002e-001 -4.550214e-002 3.156174e-002 -3.364765e-003 2.919480e-002 1.524305e-002 3.718426e-002 -2.785101e-002 4.574384e-002 -2.585975e-002 7.438567e-003 -3.068257e-002 1.039554e-004 -9.589997e-002
<VARIANCE> 25
 9.935754e+001 4.296927e+001 4.939511e+001 6.419438e+001 5.451128e+001 1.368166e+002 6.137871e+001 6.387531e+001 4.971392e+001 4.629517e+001 7.055463e+001 3.307240e+001 3.655180e+000 1.978962e+000 2.132318e+000 3.531097e+000 3.015207e+000 4.916942e+000 3.756086e+000 4.173888e+000 2.831187e+000 3.484941e+000 4.064861e+000 2.438471e+000 4.941352e+000
<GCONST> 1.106820e+002
<TRANSP> 5
 0.000000e+000 1.000000e+000 0.000000e+000 0.000000e+000 0.000000e+000
 0.000000e+000 6.930871e-001 3.069130e-001 0.000000e+000 0.000000e+000
 0.000000e+000 0.000000e+000 6.930875e-001 3.069125e-001 0.000000e+000
 0.000000e+000 0.000000e+000 0.000000e+000 8.087509e-001 1.912491e-001
 0.000000e+000 0.000000e+000 0.000000e+000 0.000000e+000 0.000000e+000
<ENDHMM>
~h "ae"
<BEGINHMM>
<NUMSTATES> 5
<STATE> 2
<MEAN> 25
 -7.693502e-001 2.592757e-001 -4.958637e-002 3.881027e-001 1.051067e-001 6.497435e-001 -9.345632e-001 7.086924e-001 9.317443e-001 1.569123e-001 -4.759155e-001 -2.423663e-001 4.600244e-003 -8.177186e-004 1.343780e-002 2.196945e-002 -1.674621e-002 5.798563e-002 -1.772028e-002 -2.503855e-002 -1.050955e-002 2.613256e-002 -2.022742e-002 3.626545e-002 -6.213883e-002
<VARIANCE> 25
 8.975269e+001 4.077253e+001 5.728299e+001 4.507230e+001 4.818800e+001 1.142732e+002 4.763109e+001 4.185350e+001 4.465965e+001 4.019358e+001 6.888251e+001 3.097523e+001 3.361043e+000 2.037394e+000 2.272612e+000 2.556656e+000 2.405368e+000 4.623844e+000 3.175668e+000 3.269487e+000 3.082167e+000 2.992581e+000 3.819920e+000 2.488844e+000 4.245157e+000
<GCONST> 1.077302e+002
<STATE> 3
<MEAN> 25
 -6.977456e-001 2.461235e-001 -1.215405e-002 4.960078e-001 6.784236e-003 7.661679e-001 -9.884080e-001 6.347151e-001 9.048669e-001 2.225711e-001 -5.265437e-001 -1.236138e-001 2.798688e-002 -1.282388e-002 8.324519e-003 3.534098e-002 -3.148264e-002 2.712732e-002 -1.298400e-002 -2.149395e-002 -1.336661e-002 1.892444e-002 -1.949438e-002 3.324648e-002 -4.721212e-002
<VARIANCE> 25
 8.851218e+001 4.096821e+001 5.866271e+001 4.434938e+001 4.858120e+001 1.130987e+002 4.883155e+001 4.208727e+001 4.523547e+001 4.003763e+001 6.710114e+001 3.100825e+001 3.353000e+000 2.052851e+000 2.300177e+000 2.540193e+000 2.401872e+000 4.684722e+000 3.243729e+000 3.287747e+000 3.165637e+000 3.009599e+000 3.778347e+000 2.502026e+000 4.413860e+000
<GCONST> 1.078556e+002
<STATE> 4
<MEAN> 25
 -5.644734e-001 2.699725e-001 -3.965864e-002 7.700316e-001 -2.187692e-001 8.880229e-001 -1.059076e+000 6.305691e-001 8.943297e-001 2.375589e-001 -6.695082e-001 -1.190179e-002 6.269041e-002 -3.762193e-002 -1.547986e-003 4.599914e-002 -3.454583e-002 -1.634554e-002 8.423367e-003 -8.657080e-003 -1.614594e-002 -7.701196e-003 -1.596786e-002 3.039419e-002 6.860689e-003
<VARIANCE> 25
 8.479287e+001 4.211950e+001 5.887298e+001 4.293806e+001 4.777489e+001 1.117057e+002 5.050141e+001 4.101975e+001 4.554580e+001 3.860115e+001 6.436756e+001 3.057590e+001 3.290589e+000 2.121921e+000 2.274577e+000 2.498752e+000 2.366786e+000 4.683195e+000 3.331661e+000 3.185198e+000 3.177751e+000 2.973857e+000 3.737316e+000 2.484795e+000 4.822542e+000
<GCONST> 1.077344e+002
<TRANSP> 5
 0.000000e+000 1.000000e+000 0.000000e+000 0.000000e+000 0.000000e+000
 0.000000e+000 6.926153e-001 3.073846e-001 0.000000e+000 0.000000e+000
 0.000000e+000 0.000000e+000 6.926157e-001 3.073843e-001 0.000000e+000
 0.000000e+000 0.000000e+000 0.000000e+000 8.088660e-001 1.911340e-001
 0.000000e+000 0.000000e+000 0.000000e+000 0.000000e+000 0.000000e+000
<ENDHMM>
~h "ah"
<BEGINHMM>
<NUMSTATES> 5
<STATE> 2
<MEAN> 25
 9.043359e-001 -3.888383e-001 -2.989919e-001 -1.613492e-001 -9.075150e-002 -3.689094e-001 1.534762e-001 -3.193132e-001 -1.815654e-001 9.159718e-002 -1.212031e-001 -2.552052e-001 8.287394e-003 2.619053e-003 -2.004522e-002 -3.814993e-002 6.719815e-003 1.656352e-002 -1.207116e-003 -3.487461e-002 -1.043276e-002 -1.333827e-002 6.940244e-003 -1.731819e-003 2.087602e-004
<VARIANCE> 25
 8.158540e+001 4.721287e+001 4.305828e+001 5.794796e+001 4.227450e+001 1.158951e+002 6.027024e+001 4.315495e+001 4.760797e+001 4.320559e+001 6.918322e+001 3.007460e+001 2.678593e+000 1.941762e+000 1.826161e+000 2.793662e+000 2.578256e+000 3.634647e+000 3.205065e+000 2.902572e+000 2.930601e+000 2.831084e+000 3.671403e+000 2.350302e+000 4.277647e+000
<GCONST> 1.071261e+002
<STATE> 3
<MEAN> 25
 9.185412e-001 -3.750220e-001 -3.605334e-001 -3.010521e-001 -6.801878e-002 -3.087001e-001 1.537760e-001 -4.434744e-001 -2.137386e-001 4.822059e-002 -8.333238e-002 -2.520893e-001 3.363012e-003 2.546537e-003 -1.664798e-002 -4.080735e-002 7.385064e-003 1.912339e-002 -1.405331e-003 -3.680975e-002 -6.183693e-003 -1.003650e-002 1.218814e-002 4.449732e-004 5.449094e-003
<VARIANCE> 25
 8.212622e+001 4.756394e+001 4.252567e+001 5.829889e+001 4.219951e+001 1.154741e+002 6.031618e+001 4.333961e+001 4.785609e+001 4.369312e+001 7.008128e+001 3.023695e+001 2.651815e+000 1.969887e+000 1.812981e+000 2.782846e+000 2.591996e+000 3.619847e+000 3.201156e+000 2.895941e+000 2.951649e+000 2.844361e+000 3.716275e+000 2.348094e+000 4.299963e+000
<GCONST> 1.071872e+002
<STATE> 4
<MEAN> 25
 9.730692e-001 -3.795925e-001 -4.231175e-001 -5.372720e-001 -6.695863e-003 -2.744299e-001 2.076836e-001 -6.140988e-001 -2.392346e-001 -3.072763e-002 5.956392e-002 -2.144971e-001 -4.151793e-003 3.804499e-003 -1.144640e-002 -3.648408e-002 7.069208e-003 2.188031e-002 -2.109856e-003 -3.373639e-002 2.500488e-004 -4.653542e-003 1.669922e-002 5.946455e-003 9.421427e-003
<VARIANCE> 25
 8.201818e+001 4.742022e+001 4.162786e+001 5.933445e+001 4.227546e+001 1.132619e+002 6.002711e+001 4.343491e+001 4.804966e+001 4.480469e+001 7.129541e+001 3.036875e+001 2.607529e+000 2.018986e+000 1.794197e+000 2.760881e+000 2.606190e+000 3.591676e+000 3.176466e+000 2.896204e+000 2.986329e+000 2.876855e+000 3.797845e+000 2.354997e+000 4.376430e+000
<GCONST> 1.072544e+002
<TRANSP> 5
 0.000000e+000 1.000000e+000 0.000000e+000 0.000000e+000 0.000000e+000
 0.000000e+000 7.081843e-001 2.918157e-001 0.000000e+000 0.000000e+000
 0.000000e+000 0.000000e+000 7.081835e-001 2.918165e-001 0.000000e+000
 0.000000e+000 0.000000e+000 0.000000e+000 8.274812e-001 1.725188e-001
 0.000000e+000 0.000000e+000 0.000000e+000 0.000000e+000 0.000000e+000
<ENDHMM>
~h "ao"
<BEGINHMM>
<NUMSTATES> 5
<STATE> 2
<MEAN> 25
 1.134131e+000 -1.375332e+000 5.149667e-001 -1.147011e+000 -5.146272e-001 -1.302919e+000 1.020245e+000 3.821065e-001 -5.341403e-001 -3.198885e-001 1.193554e+000 4.704769e-001 -4.409531e-002 7.376391e-003 4.271851e-002 7.415368e-002 -1.355468e-002 3.482267e-002 -5.512697e-002 2.742252e-002 1.774480e-002 3.984080e-002 -4.230550e-002 -6.116548e-003 -1.253336e-001
<VARIANCE> 25
 9.032099e+001 4.077824e+001 6.197238e+001 9.909547e+001 6.939096e+001 1.044295e+002 7.051095e+001 4.575452e+001 4.442553e+001 5.276199e+001 7.118021e+001 2.460791e+001 3.653090e+000 2.107816e+000 2.324325e+000 3.318161e+000 3.937755e+000 3.338918e+000 3.259847e+000 3.382948e+000 3.311957e+000 3.576443e+000 3.819906e+000 2.225285e+000 3.713314e+000
<GCONST> 1.100611e+002
<STATE> 3
<MEAN> 25
 9.957089e-001 -1.372474e+000 6.582515e-001 -8.662282e-001 -5.498930e-001 -1.190482e+000 8.285220e-001 4.506572e-001 -4.894664e-001 -2.057580e-001 1.042421e+000 4.429517e-001 -3.334691e-002 2.302447e-003 3.226443e-002 7.421355e-002 -7.412761e-003 3.264845e-002 -4.572612e-002 1.840821e-002 1.262902e-002 2.659995e-002 -3.971400e-002 -4.793793e-003 -1.154997e-001
<VARIANCE> 25
 9.030531e+001 4.113043e+001 6.184381e+001 9.646290e+001 6.811324e+001 1.047856e+002 7.018363e+001 4.432541e+001 4.429275e+001 5.264535e+001 7.245290e+001 2.437333e+001 3.620473e+000 2.117157e+000 2.301069e+000 3.283247e+000 3.866061e+000 3.293293e+000 3.237595e+000 3.319287e+000 3.332127e+000 3.520503e+000 3.832120e+000 2.189123e+000 3.762079e+000
<GCONST> 1.098989e+002
<STATE> 4
<MEAN> 25
 9.917337e-001 -1.523259e+000 7.895133e-001 -6.003703e-001 -4.736073e-001 -1.307222e+000 6.801525e-001 4.780829e-001 -5.639161e-001 -1.255546e-001 1.007075e+000 4.112737e-001 -1.848695e-002 -3.180212e-003 2.118003e-002 6.860682e-002 -5.157432e-004 2.294032e-002 -3.543339e-002 1.150479e-002 4.237036e-003 1.840004e-002 -3.318403e-002 -2.285280e-003 -9.645274e-002
<VARIANCE> 25
 8.959065e+001 4.110209e+001 6.243825e+001 9.369569e+001 6.525353e+001 1.027878e+002 7.021543e+001 4.339182e+001 4.415409e+001 5.194530e+001 7.339014e+001 2.419536e+001 3.612620e+000 2.120959e+000 2.290737e+000 3.248487e+000 3.744144e+000 3.241562e+000 3.255686e+000 3.271106e+000 3.383557e+000 3.419872e+000 3.813421e+000 2.121787e+000 3.950957e+000
<GCONST> 1.097035e+002
<TRANSP> 5
 0.000000e+000 1.000000e+000 0.000000e+000 0.000000e+000 0.000000e+000
 0.000000e+000 7.123480e-001 2.876520e-001 0.000000e+000 0.000000e+000
 0.000000e+000 0.000000e+000 7.123476e-001 2.876524e-001 0.000000e+000
 0.000000e+000 0.000000e+000 0.000000e+000 8.313506e-001 1.686494e-001
 0.000000e+000 0.000000e+000 0.000000e+000 0.000000e+000 0.000000e+000
<ENDHMM>
~h "aw"
<BEGINHMM>
<NUMSTATES> 5
<STATE> 2
<MEAN> 25
 1.604120e+000 3.233052e-001 -1.424778e+000 -3.031410e+000 4.554329e-001 1.354690e+000 8.028225e-001 -2.172435e+000 1.482954e-001 5.954895e-001 3.283523e-001 -1.430054e-001 -6.686319e-002 2.127650e-002 8.771545e-004 1.279408e-002 1.708072e-002 -1.287734e-002 -2.099859e-002 2.270767e-003 1.450824e-003 2.363994e-002 -6.854060e-003 4.266628e-003 -4.482626e-002
<VARIANCE> 25
 8.790191e+001 5.398902e+001 3.210691e+001 6.201251e+001 3.734353e+001 5.790722e+001 5.637104e+001 7.415047e+001 4.836938e+001 4.439943e+001 8.242828e+001 2.955847e+001 2.913981e+000 2.282856e+000 2.205079e+000 2.705223e+000 2.220168e+000 3.835817e+000 3.692177e+000 3.804398e+000 3.720736e+000 3.110216e+000 5.049265e+000 2.460568e+000 5.092161e+000
<GCONST> 1.085570e+002
<STATE> 3
<MEAN> 25
 1.392906e+000 3.634744e-001 -1.430599e+000 -2.978653e+000 5.218511e-001 1.288261e+000 7.216629e-001 -2.163441e+000 1.458621e-001 6.740543e-001 3.394807e-001 -1.368991e-001 -4.758998e-002 8.982328e-003 -1.260012e-003 1.356706e-002 1.623063e-002 -2.475611e-002 -2.218898e-002 5.440784e-004 4.960760e-003 1.874824e-002 1.461138e-002 5.116963e-003 -1.941515e-002
<VARIANCE> 25
 8.932064e+001 5.357339e+001 3.193738e+001 6.162545e+001 3.671547e+001 5.750422e+001 5.597838e+001 7.499792e+001 4.846199e+001 4.307030e+001 8.131010e+001 2.924796e+001 3.074705e+000 2.363419e+000 2.189296e+000 2.721977e+000 2.212488e+000 3.774710e+000 3.663126e+000 3.885843e+000 3.810725e+000 3.144478e+000 5.123763e+000 2.431907e+000 5.387998e+000
<GCONST> 1.086568e+002
<STATE> 4
<MEAN> 25
 1.386997e+000 3.146754e-001 -1.484256e+000 -2.880480e+000 5.678051e-001 1.092223e+000 6.865345e-001 -2.153068e+000 1.265593e-001 7.127641e-001 5.271457e-001 -9.923482e-002 -2.321738e-002 -6.965439e-003 -3.620524e-003 1.422753e-002 1.333670e-002 -3.332873e-002 -1.520423e-002 3.153919e-004 4.629608e-003 1.176135e-002 4.342235e-002 6.713028e-003 1.112265e-002
<VARIANCE> 25
 8.934576e+001 5.294476e+001 3.185274e+001 6.194933e+001 3.615902e+001 5.786458e+001 5.442908e+001 7.466965e+001 4.919238e+001 4.187548e+001 8.147832e+001 2.941370e+001 3.118655e+000 2.431561e+000 2.162159e+000 2.788685e+000 2.201472e+000 3.710758e+000 3.565386e+000 3.927990e+000 3.845397e+000 3.153276e+000 5.356469e+000 2.447876e+000 5.749250e+000
<GCONST> 1.087447e+002
<TRANSP> 5
 0.000000e+000 1.000000e+000 0.000000e+000 0.000000e+000 0.000000e+000
 0.000000e+000 7.231660e-001 2.768340e-001 0.000000e+000 0.000000e+000
 0.000000e+000 0.000000e+000 7.231660e-001 2.768340e-001 0.000000e+000
 0.000000e+000 0.000000e+000 0.000000e+000 8.436782e-001 1.563218e-001
 0.000000e+000 0.000000e+000 0.000000e+000 0.000000e+000 0.000000e+000
<ENDHMM>
~h "ay"
<BEGINHMM>
<NUMSTATES> 5
<STATE> 2
<MEAN> 25
 1.719612e-001 3.926952e-001 -2.266275e-001 1.427772e-001 7.517024e-001 4.679848e-002 -8.955771e-001 2.386772e-001 1.941109e-001 6.933711e-001 -5.438253e-001 -1.611789e-001 5.651540e-002 -2.564852e-002 2.790822e-002 -1.834563e-002 2.766904e-002 -7.121054e-002 -7.085902e-003 8.295261e-003 2.353718e-002 2.322908e-002 1.409112e-002 -1.535515e-002 1.544466e-001
<VARIANCE> 25
 7.895730e+001 4.881181e+001 3.486270e+001 5.673705e+001 4.965738e+001 1.219283e+002 7.076576e+001 3.750462e+001 3.021802e+001 5.111876e+001 6.360231e+001 2.676394e+001 3.436344e+000 1.970544e+000 1.876240e+000 2.956117e+000 2.699523e+000 3.807518e+000 3.342236e+000 2.538360e+000 2.461982e+000 2.884748e+000 3.450194e+000 2.193923e+000 3.716465e+000
<GCONST> 1.065597e+002
<STATE> 3
<MEAN> 25
 3.757799e-001 2.774576e-001 -1.419610e-001 2.395262e-002 8.169197e-001 -2.012367e-001 -9.169461e-001 2.405505e-001 2.632049e-001 7.327092e-001 -4.773793e-001 -2.352045e-001 6.595240e-002 -4.215579e-002 2.542162e-002 -3.751713e-002 1.451849e-002 -7.913327e-002 -3.038678e-003 6.723710e-004 1.947653e-002 1.084184e-002 1.925037e-002 -2.159324e-002 1.846227e-001
<VARIANCE> 25
 7.913515e+001 5.026417e+001 3.541077e+001 5.642278e+001 4.948401e+001 1.192002e+002 6.925671e+001 3.641046e+001 3.057648e+001 5.079675e+001 6.203796e+001 2.768081e+001 3.513318e+000 2.071287e+000 1.916059e+000 3.070402e+000 2.751846e+000 3.940912e+000 3.339413e+000 2.506205e+000 2.477786e+000 2.906007e+000 3.454069e+000 2.195520e+000 3.964670e+000
<GCONST> 1.067895e+002
<STATE> 4
<MEAN> 25
 6.974872e-001 3.119602e-003 -5.426694e-002 -2.964569e-001 8.025177e-001 -5.544973e-001 -9.270452e-001 2.057203e-001 3.408047e-001 7.392617e-001 -3.345330e-001 -3.307302e-001 5.535994e-002 -5.012714e-002 1.489616e-002 -6.185541e-002 -3.865076e-003 -6.463902e-002 1.380921e-002 -8.298859e-003 1.550880e-002 -6.933611e-003 2.554186e-002 -2.211632e-002 1.785588e-001
<VARIANCE> 25
 7.925887e+001 5.294763e+001 3.531004e+001 5.603183e+001 4.914740e+001 1.145974e+002 6.653000e+001 3.527431e+001 3.124653e+001 4.982317e+001 6.060990e+001 2.891665e+001 3.485964e+000 2.211162e+000 1.899082e+000 3.085015e+000 2.796299e+000 4.038919e+000 3.282367e+000 2.438908e+000 2.499950e+000 2.879272e+000 3.436759e+000 2.203813e+000 4.206535e+000
<GCONST> 1.068451e+002
<TRANSP> 5
 0.000000e+000 1.000000e+000 0.000000e+000 0.000000e+000 0.000000e+000
 0.000000e+000 7.033793e-001 2.966207e-001 0.000000e+000 0.000000e+000
 0.000000e+000 0.000000e+000 7.033796e-001 2.966204e-001 0.000000e+000
 0.000000e+000 0.000000e+000 0.000000e+000 8.206547e-001 1.793453e-001
 0.000000e+000 0.000000e+000 0.000000e+000 0.000000e+000 0.000000e+000
<ENDHMM>
~h "ch"
<BEGINHMM>
<NUMSTATES> 5
<STATE> 2
<MEAN> 25
 -1.154098e+000 -1.795197e-001 4.554364e-001 4.949374e-001 5.890285e-003 -9.036675e-002 -8.435110e-001 1.257611e+000 3.138579e-001 -9.693667e-001 -5.622739e-001 5.548447e-001 6.994524e-002 -1.716065e-002 -1.424959e-001 -6.408794e-002 2.985621e-002 -3.216779e-002 8.043619e-002 5.897236e-002 3.375958e-002 -2.803100e-002 -3.204465e-002 -3.343666e-002 5.351023e-002
<VARIANCE> 25
 7.785571e+001 5.154478e+001 5.200686e+001 3.600410e+001 4.407113e+001 1.315945e+002 6.629630e+001 3.233018e+001 3.318389e+001 2.839823e+001 8.791001e+001 2.325200e+001 3.352883e+000 2.444072e+000 2.155142e+000 2.821030e+000 3.047541e+000 4.637796e+000 4.653752e+000 2.396874e+000 2.627404e+000 2.218302e+000 3.868729e+000 2.307438e+000 5.908701e+000
<GCONST> 1.072831e+002
<STATE> 3
<MEAN> 25
 -9.275452e-001 -2.490473e-001 -6.498050e-002 2.151409e-001 1.220271e-001 -1.784471e-001 -5.167398e-001 1.422008e+000 4.350805e-001 -9.986674e-001 -5.863729e-001 4.436062e-001 5.860969e-002 -2.595775e-002 -1.401196e-001 -7.877071e-002 3.561915e-002 -2.918596e-002 9.733055e-002 4.261564e-002 4.309811e-002 -7.355205e-003 1.689432e-003 -3.034108e-002 7.949952e-002
<VARIANCE> 25
 7.863074e+001 5.279599e+001 4.817606e+001 3.853201e+001 4.210543e+001 1.291823e+002 7.120179e+001 3.182784e+001 3.235136e+001 2.771537e+001 8.914045e+001 2.232717e+001 3.464313e+000 2.525947e+000 2.173981e+000 2.859859e+000 3.004497e+000 4.773112e+000 4.881164e+000 2.356881e+000 2.529476e+000 2.195998e+000 4.031089e+000 2.214315e+000 6.289663e+000
<GCONST> 1.073712e+002
<STATE> 4
<MEAN> 25
 -5.245399e-001 -8.280864e-001 -8.085494e-001 -7.004979e-001 6.975669e-001 -8.267277e-001 3.782653e-001 1.502755e+000 3.901522e-001 -1.138880e+000 3.751065e-001 4.724269e-001 3.925720e-002 -3.922669e-002 -9.408297e-002 -1.036813e-001 4.726263e-002 -2.294379e-002 9.936421e-002 -4.831109e-003 1.936219e-002 6.106980e-003 6.498560e-002 6.922050e-004 1.353011e-001
<VARIANCE> 25
 8.608128e+001 5.254937e+001 4.527198e+001 4.618665e+001 4.319855e+001 1.227164e+002 7.971730e+001 3.252994e+001 3.226765e+001 3.037464e+001 9.502898e+001 2.223387e+001 3.909055e+000 2.709356e+000 2.343574e+000 3.094119e+000 3.207442e+000 4.964286e+000 5.327718e+000 2.432809e+000 2.569382e+000 2.348088e+000 4.639948e+000 2.205142e+000 7.021923e+000
<GCONST> 1.087318e+002
<TRANSP> 5
 0.000000e+000 1.000000e+000 0.000000e+000 0.000000e+000 0.000000e+000
 0.000000e+000 7.183352e-001 2.816648e-001 0.000000e+000 0.000000e+000
 0.000000e+000 0.000000e+000 7.183354e-001 2.816646e-001 0.000000e+000
 0.000000e+000 0.000000e+000 0.000000e+000 8.411844e-001 1.588156e-001
 0.000000e+000 0.000000e+000 0.000000e+000 0.000000e+000 0.000000e+000
<ENDHMM>
~h "dh"
<BEGINHMM>
<NUMSTATES> 5
<STATE> 2
<MEAN> 25
 5.810412e-001 3.201304e-001 -1.842842e+000 -2.325747e-002 4.146466e-001 3.505529e-001 5.204201e-001 -9.801661e-001 -5.312777e-002 -9.484345e-001 1.061138e+000 -1.067593e+000 4.079888e-002 9.633208e-003 1.798390e-002 5.667963e-002 1.058508e-003 -8.979900e-002 -4.671795e-002 1.976867e-002 5.005107e-002 -5.473202e-002 8.953328e-003 -2.167678e-002 5.735317e-002
<VARIANCE> 25
 6.285603e+001 3.661319e+001 2.272220e+001 6.708499e+001 2.925207e+001 1.187854e+002 4.948460e+001 3.906451e+001 4.724530e+001 3.665623e+001 7.377322e+001 2.972741e+001 1.888542e+000 1.683110e+000 1.330845e+000 2.190088e+000 1.973754e+000 3.062175e+000 2.632951e+000 2.627793e+000 2.541714e+000 2.918358e+000 3.580359e+000 2.010659e+000 3.492560e+000
<GCONST> 1.030756e+002
<STATE> 3
<MEAN> 25
 7.223898e-001 3.529298e-001 -1.739088e+000 1.624959e-001 3.859358e-001 1.939591e-002 3.317564e-001 -8.751751e-001 1.361865e-001 -1.144691e+000 1.087590e+000 -1.119463e+000 4.830239e-002 2.442933e-003 3.543026e-002 5.244739e-002 -8.840292e-003 -1.082754e-001 -5.240898e-002 3.164101e-002 4.771385e-002 -5.518411e-002 1.333588e-002 -1.131687e-002 6.946518e-002
<VARIANCE> 25
 6.209953e+001 3.593775e+001 2.400243e+001 6.893636e+001 2.865534e+001 1.156029e+002 5.037076e+001 4.145557e+001 4.712780e+001 3.545891e+001 7.056680e+001 3.034036e+001 1.981647e+000 1.761398e+000 1.345824e+000 2.211084e+000 1.969630e+000 3.189338e+000 2.583037e+000 2.681093e+000 2.552881e+000 2.863800e+000 3.578967e+000 1.992489e+000 3.759130e+000
<GCONST> 1.033000e+002
<STATE> 4
<MEAN> 25
 1.016183e+000 2.859562e-001 -1.431400e+000 2.681739e-001 3.202890e-001 -5.939775e-001 1.223541e-001 -7.156778e-001 2.929179e-001 -1.416366e+000 1.155708e+000 -1.059493e+000 4.418360e-002 -7.040674e-004 5.668537e-002 3.459306e-002 -2.142557e-002 -1.052336e-001 -5.023675e-002 3.406172e-002 4.357450e-002 -5.230487e-002 8.109131e-003 4.533992e-003 6.802350e-002
<VARIANCE> 25
 6.179100e+001 3.454459e+001 2.687739e+001 7.542577e+001 2.833424e+001 1.078671e+002 5.359854e+001 4.510106e+001 4.857706e+001 3.550827e+001 6.512330e+001 3.058550e+001 2.068417e+000 1.854581e+000 1.396673e+000 2.259962e+000 1.991108e+000 3.254684e+000 2.509008e+000 2.760825e+000 2.607447e+000 2.818234e+000 3.567306e+000 1.986401e+000 4.099177e+000
<GCONST> 1.037540e+002
<TRANSP> 5
 0.000000e+000 1.000000e+000 0.000000e+000 0.000000e+000 0.000000e+000
 0.000000e+000 7.186306e-001 2.813694e-001 0.000000e+000 0.000000e+000
 0.000000e+000 0.000000e+000 7.186309e-001 2.813691e-001 0.000000e+000
 0.000000e+000 0.000000e+000 0.000000e+000 8.388051e-001 1.611949e-001
 0.000000e+000 0.000000e+000 0.000000e+000 0.000000e+000 0.000000e+000
<ENDHMM>
~h "eh"
<BEGINHMM>
<NUMSTATES> 5
<STATE> 2
<MEAN> 25
 8.737117e-001 -3.167750e-001 -8.967391e-001 1.417368e-001 -3.493511e-002 -9.846512e-001 1.225435e-001 2.716084e-001 6.205196e-002 -1.983753e-001 1.181135e-001 -3.725724e-001 -1.004789e-002 -1.640042e-002 3.014085e-002 3.077694e-002 9.519763e-003 -5.447971e-002 6.263570e-003 1.856834e-002 1.539052e-002 -2.345760e-002 2.071738e-002 5.341603e-003 6.482117e-002
<VARIANCE> 25
 8.379623e+001 5.453482e+001 3.835368e+001 4.987209e+001 3.960054e+001 1.283733e+002 5.174296e+001 3.948720e+001 4.055643e+001 4.331216e+001 6.484417e+001 2.764013e+001 2.991290e+000 2.191225e+000 1.692002e+000 2.925336e+000 2.376845e+000 3.598854e+000 3.004376e+000 3.041574e+000 2.901745e+000 2.867188e+000 3.741362e+000 2.178854e+000 4.424665e+000
<GCONST> 1.065913e+002
<STATE> 3
<MEAN> 25
 8.417294e-001 -3.812246e-001 -7.963561e-001 2.269843e-001 -1.365666e-003 -1.183057e+000 1.623300e-001 3.549146e-001 1.168202e-001 -2.657969e-001 1.944836e-001 -3.716617e-001 -6.081558e-003 -2.461845e-002 3.239419e-002 2.650852e-002 9.534189e-003 -6.709168e-002 1.951567e-002 2.827548e-002 1.831609e-002 -2.038847e-002 2.234734e-002 1.959154e-003 8.542151e-002
<VARIANCE> 25
 8.312135e+001 5.571496e+001 3.911640e+001 4.986981e+001 3.936532e+001 1.297455e+002 5.178624e+001 3.928442e+001 3.966526e+001 4.301154e+001 6.477366e+001 2.728425e+001 3.015535e+000 2.262164e+000 1.711435e+000 2.943287e+000 2.387181e+000 3.646339e+000 3.019593e+000 3.026287e+000 2.859202e+000 2.890937e+000 3.691082e+000 2.159822e+000 4.570937e+000
<GCONST> 1.066600e+002
<STATE> 4
<MEAN> 25
 8.096333e-001 -5.279926e-001 -6.498580e-001 2.903505e-001 6.528171e-002 -1.508421e+000 3.040152e-001 5.106562e-001 1.682099e-001 -3.046855e-001 3.061669e-001 -4.259292e-001 -6.133483e-003 -3.233038e-002 2.712768e-002 1.645791e-002 4.656617e-003 -6.556821e-002 2.779290e-002 3.485355e-002 2.169067e-002 -1.077602e-002 2.125024e-002 -7.418463e-003 8.889437e-002
<VARIANCE> 25
 8.211346e+001 5.622822e+001 4.025111e+001 4.998476e+001 3.903717e+001 1.301419e+002 5.186734e+001 3.932548e+001 3.866834e+001 4.239862e+001 6.353817e+001 2.722006e+001 3.057466e+000 2.335307e+000 1.748749e+000 2.914414e+000 2.384024e+000 3.673182e+000 3.003525e+000 3.011010e+000 2.808576e+000 2.910559e+000 3.581070e+000 2.127995e+000 4.682586e+000
<GCONST> 1.066447e+002
<TRANSP> 5
 0.000000e+000 1.000000e+000 0.000000e+000 0.000000e+000 0.000000e+000
 0.000000e+000 6.987942e-001 3.012057e-001 0.000000e+000 0.000000e+000
 0.000000e+000 0.000000e+000 6.987945e-001 3.012055e-001 0.000000e+000
 0.000000e+000 0.000000e+000 0.000000e+000 8.151129e-001 1.848871e-001
 0.000000e+000 0.000000e+000 0.000000e+000 0.000000e+000 0.000000e+000
<ENDHMM>
~h "er"
<BEGINHMM>
<NUMSTATES> 5
<STATE> 2
<MEAN> 25
 7.228720e-001 -4.712996e-001 -1.507876e-001 -2.133611e-002 2.294333e-001 -6.190160e-001 1.333405e-002 -1.963194e-001 2.958519e-001 5.340523e-002 8.746385e-001 -4.519376e-001 7.686750e-003 -8.051213e-004 9.018506e-003 1.408959e-003 -8.669515e-003 -2.485882e-002 1.500173e-002 -1.661138e-002 2.055026e-002 -3.260505e-003 -6.834700e-003 -1.695586e-002 1.610370e-002
<VARIANCE> 25
 7.887793e+001 4.089608e+001 4.414302e+001 4.824633e+001 3.994685e+001 1.150057e+002 4.767715e+001 4.429124e+001 4.591200e+001 4.052098e+001 6.429472e+001 3.140700e+001 3.204276e+000 2.029295e+000 1.871034e+000 2.484944e+000 2.186141e+000 4.029282e+000 2.797046e+000 3.068447e+000 3.167709e+000 2.889877e+000 3.607622e+000 2.250164e+000 4.180673e+000
<GCONST> 1.063896e+002
<STATE> 3
<MEAN> 25
 7.463601e-001 -4.585828e-001 -1.087365e-001 5.793143e-003 1.922855e-001 -6.853498e-001 4.324061e-002 -2.647332e-001 3.718868e-001 1.930549e-002 8.437791e-001 -5.081608e-001 5.619808e-003 3.234519e-003 1.006013e-002 9.204262e-003 -8.314922e-003 -1.698345e-002 2.102070e-003 -1.973366e-002 1.874707e-002 -1.444273e-002 -1.765557e-002 -1.586163e-002 -4.535135e-003
<VARIANCE> 25
 7.838990e+001 4.066512e+001 4.355741e+001 4.824421e+001 4.037824e+001 1.146281e+002 4.857399e+001 4.408323e+001 4.635155e+001 4.016091e+001 6.475085e+001 3.189641e+001 3.121717e+000 1.996000e+000 1.824943e+000 2.455951e+000 2.193070e+000 4.014972e+000 2.790034e+000 3.083649e+000 3.164626e+000 2.854845e+000 3.611306e+000 2.276768e+000 4.097421e+000
<GCONST> 1.063110e+002
<STATE> 4
<MEAN> 25
 7.135578e-001 -4.032470e-001 -1.896862e-002 1.416286e-001 1.696176e-001 -6.968183e-001 2.185527e-002 -3.455980e-001 5.047762e-001 -7.081462e-002 7.405331e-001 -5.441186e-001 -8.228272e-003 1.245057e-002 1.593671e-002 2.301143e-002 -1.115740e-002 -2.851997e-003 -1.039210e-002 -1.585304e-002 1.342309e-002 -2.942064e-002 -2.632873e-002 -9.124164e-003 -3.511148e-002
<VARIANCE> 25
 7.876714e+001 4.038153e+001 4.264109e+001 4.755429e+001 4.069894e+001 1.137987e+002 4.922155e+001 4.403327e+001 4.646886e+001 3.978512e+001 6.599568e+001 3.210740e+001 2.956589e+000 1.935896e+000 1.746739e+000 2.361547e+000 2.188570e+000 3.928574e+000 2.748617e+000 3.084925e+000 3.093119e+000 2.793731e+000 3.612779e+000 2.325234e+000 3.886605e+000
<GCONST> 1.060226e+002
<TRANSP> 5
 0.000000e+000 1.000000e+000 0.000000e+000 0.000000e+000 0.000000e+000
 0.000000e+000 7.089783e-001 2.910217e-001 0.000000e+000 0.000000e+000
 0.000000e+000 0.000000e+000 7.089789e-001 2.910211e-001 0.000000e+000
 0.000000e+000 0.000000e+000 0.000000e+000 8.277943e-001 1.722057e-001
 0.000000e+000 0.000000e+000 0.000000e+000 0.000000e+000 0.000000e+000
<ENDHMM>
~h "ey"
<BEGINHMM>
<NUMSTATES> 5
<STATE> 2
<MEAN> 25
 5.693797e-003 -8.683617e-001 1.526288e+000 1.072226e+000 -1.403656e+000 -1.269734e+000 7.754476e-002 -6.248548e-002 -8.451244e-001 -4.116908e-001 3.316676e-001 8.518386e-001 4.501644e-003 3.982893e-002 -6.669217e-002 -5.798965e-002 9.370722e-003 8.296055e-002 1.195687e-002 -2.589008e-002 -5.867587e-003 1.485751e-002 9.963093e-003 -2.376414e-003 -6.343970e-002
<VARIANCE> 25
 9.171019e+001 4.955216e+001 6.306578e+001 4.972084e+001 5.150943e+001 1.473914e+002 4.867487e+001 4.308491e+001 4.677604e+001 5.020416e+001 7.181962e+001 3.035087e+001 3.057691e+000 2.164862e+000 2.107312e+000 2.709311e+000 2.644800e+000 4.056127e+000 3.021911e+000 3.078184e+000 3.085479e+000 3.041889e+000 4.068464e+000 2.366089e+000 4.557402e+000
<GCONST> 1.087065e+002
<STATE> 3
<MEAN> 25
 5.017696e-002 -7.349764e-001 1.281052e+000 8.558108e-001 -1.366164e+000 -9.949648e-001 1.207708e-001 -1.344831e-001 -8.524038e-001 -3.579212e-001 3.625652e-001 8.324497e-001 1.940683e-002 4.111093e-002 -6.831895e-002 -6.496939e-002 5.829307e-003 7.617378e-002 7.726008e-003 -2.400418e-002 -3.940045e-003 1.523845e-002 9.288886e-003 -6.778033e-003 -5.954479e-002
<VARIANCE> 25
 9.127866e+001 4.981946e+001 6.128504e+001 5.077381e+001 5.183803e+001 1.455280e+002 4.963386e+001 4.408790e+001 4.668489e+001 5.081691e+001 7.307755e+001 3.058778e+001 3.005723e+000 2.187548e+000 2.077736e+000 2.690037e+000 2.639983e+000 4.011737e+000 3.038952e+000 3.158481e+000 3.093369e+000 3.049499e+000 4.144752e+000 2.391029e+000 4.557836e+000
<GCONST> 1.087957e+002
<STATE> 4
<MEAN> 25
 3.516361e-001 -6.969001e-001 9.386509e-001 4.714143e-001 -1.229345e+000 -8.612282e-001 2.502413e-001 -2.267431e-001 -8.742481e-001 -3.167498e-001 4.669640e-001 8.115179e-001 3.210473e-002 4.337922e-002 -6.724346e-002 -6.859004e-002 3.707696e-003 6.710779e-002 8.786640e-003 -2.138374e-002 -2.640333e-004 1.231855e-002 4.932327e-003 -1.476289e-002 -4.718558e-002
<VARIANCE> 25
 8.989796e+001 5.000697e+001 6.013803e+001 5.265833e+001 5.242124e+001 1.419380e+002 5.154990e+001 4.562496e+001 4.640411e+001 5.232871e+001 7.500009e+001 3.133843e+001 2.957386e+000 2.231003e+000 2.053486e+000 2.686485e+000 2.633572e+000 4.002358e+000 3.073609e+000 3.270484e+000 3.080286e+000 3.043880e+000 4.221899e+000 2.426911e+000 4.640020e+000
<GCONST> 1.090105e+002
<TRANSP> 5
 0.000000e+000 1.000000e+000 0.000000e+000 0.000000e+000 0.000000e+000
 0.000000e+000 6.947112e-001 3.052887e-001 0.000000e+000 0.000000e+000
 0.000000e+000 0.000000e+000 6.947113e-001 3.052887e-001 0.000000e+000
 0.000000e+000 0.000000e+000 0.000000e+000 8.123420e-001 1.876579e-001
 0.000000e+000 0.000000e+000 0.000000e+000 0.000000e+000 0.000000e+000
<ENDHMM>
~h "hh"
<BEGINHMM>
<NUMSTATES> 5
<STATE> 2
<MEAN> 25
 6.848184e-001 -6.920276e-001 1.362039e-001 -1.256400e+000 -2.787018e-001 -1.015782e+000 6.386640e-001 -8.769621e-001 3.317902e-003 -9.408301e-001 1.408009e+000 1.047419e+000 -2.842460e-002 5.827382e-002 3.601481e-002 4.492740e-002 -3.595650e-003 -3.626444e-002 -3.355678e-002 3.670184e-002 2.357378e-002 -2.537856e-002 -6.994750e-002 2.410551e-002 -7.167787e-002
<VARIANCE> 25
 8.775924e+001 5.375355e+001 3.919960e+001 5.760603e+001 5.317355e+001 1.178011e+002 6.219695e+001 7.177785e+001 5.939778e+001 5.274627e+001 6.741534e+001 4.043713e+001 2.589949e+000 2.134696e+000 1.782310e+000 2.260803e+000 2.772545e+000 3.941908e+000 3.362397e+000 4.056044e+000 3.166394e+000 3.042497e+000 2.827008e+000 2.312871e+000 4.284625e+000
<GCONST> 1.089409e+002
<STATE> 3
<MEAN> 25
 6.199778e-001 -5.084530e-001 2.470833e-001 -1.114326e+000 -2.767396e-001 -1.129323e+000 5.474988e-001 -8.019981e-001 3.834917e-002 -1.040962e+000 1.199113e+000 1.130339e+000 -2.223099e-002 5.114484e-002 3.657893e-002 4.700094e-002 1.739295e-003 -2.955240e-002 -2.959894e-002 2.152137e-002 8.972480e-003 -2.611489e-002 -5.992528e-002 2.127782e-002 -5.643020e-002
<VARIANCE> 25
 8.983174e+001 5.373635e+001 3.780217e+001 5.591577e+001 5.327659e+001 1.189846e+002 6.124857e+001 7.179357e+001 6.019215e+001 5.364717e+001 6.839798e+001 3.956469e+001 2.545998e+000 2.163538e+000 1.738673e+000 2.285696e+000 2.708913e+000 3.892801e+000 3.303618e+000 4.055498e+000 3.136731e+000 3.069834e+000 2.840135e+000 2.343043e+000 4.218158e+000
<GCONST> 1.088480e+002
<STATE> 4
<MEAN> 25
 6.789734e-001 -3.742197e-001 3.673227e-001 -1.044188e+000 -2.645608e-001 -1.306853e+000 5.588614e-001 -7.800445e-001 -4.697163e-002 -1.301438e+000 1.091677e+000 1.184794e+000 -8.421992e-003 3.973434e-002 2.422834e-002 2.765053e-002 1.373677e-002 -1.322080e-002 -1.402254e-002 4.857787e-003 -1.163906e-002 -2.624232e-002 -3.871663e-002 -2.129799e-003 -2.763101e-002
<VARIANCE> 25
 9.213110e+001 5.346033e+001 3.582632e+001 5.601989e+001 5.355013e+001 1.182667e+002 6.014436e+001 7.098840e+001 5.740736e+001 5.536799e+001 6.984280e+001 3.870096e+001 2.470222e+000 2.221484e+000 1.662229e+000 2.429909e+000 2.641340e+000 3.816578e+000 3.228524e+000 3.977332e+000 2.998522e+000 3.096228e+000 2.912531e+000 2.420966e+000 4.238048e+000
<GCONST> 1.087199e+002
<TRANSP> 5
 0.000000e+000 1.000000e+000 0.000000e+000 0.000000e+000 0.000000e+000
 0.000000e+000 7.085780e-001 2.914220e-001 0.000000e+000 0.000000e+000
 0.000000e+000 0.000000e+000 7.085782e-001 2.914218e-001 0.000000e+000
 0.000000e+000 0.000000e+000 0.000000e+000 8.261631e-001 1.738369e-001
 0.000000e+000 0.000000e+000 0.000000e+000 0.000000e+000 0.000000e+000
<ENDHMM>
~h "ih"
<BEGINHMM>
<NUMSTATES> 5
<STATE> 2
<MEAN> 25
 -5.558017e-001 4.371676e-002 4.276128e-001 -7.405775e-002 6.681291e-001 -3.466105e-001 -5.441387e-003 2.256811e-001 2.351994e-001 2.516399e-001 5.332727e-001 -5.651726e-002 2.159492e-002 -1.592808e-002 1.065331e-002 2.868471e-002 -1.146812e-002 -2.395524e-002 -1.552061e-002 1.550292e-002 7.763079e-003 3.212936e-003 -8.826585e-003 1.728506e-003 -2.672733e-003
<VARIANCE> 25
 8.933964e+001 4.348965e+001 4.201564e+001 4.916944e+001 4.519430e+001 1.321968e+002 4.926036e+001 3.901768e+001 4.401442e+001 4.239957e+001 6.004270e+001 2.721664e+001 3.154197e+000 2.159315e+000 2.049805e+000 2.628728e+000 2.427921e+000 5.068049e+000 2.993021e+000 2.982466e+000 3.209066e+000 2.967351e+000 3.829436e+000 2.282949e+000 4.631360e+000
<GCONST> 1.072886e+002
<STATE> 3
<MEAN> 25
 -4.508216e-001 -2.660324e-002 4.722310e-001 2.030362e-002 6.377997e-001 -4.756812e-001 -8.321614e-002 2.929578e-001 2.467574e-001 2.289805e-001 5.191204e-001 -6.055351e-002 2.877179e-002 -1.620276e-002 8.979502e-003 2.405915e-002 -1.125080e-002 -3.195640e-002 -2.307664e-002 2.132835e-002 2.965163e-003 -4.147388e-003 -4.582197e-003 -2.769410e-003 1.565984e-002
<VARIANCE> 25
 8.933137e+001 4.336586e+001 4.335585e+001 4.934797e+001 4.523992e+001 1.332326e+002 4.889940e+001 3.920023e+001 4.334315e+001 4.233395e+001 5.944534e+001 2.722194e+001 3.179605e+000 2.141134e+000 2.101372e+000 2.657233e+000 2.436650e+000 5.191979e+000 2.991791e+000 2.973203e+000 3.203073e+000 2.985202e+000 3.870625e+000 2.288419e+000 4.680543e+000
<GCONST> 1.073873e+002
<STATE> 4
<MEAN> 25
 -2.611112e-001 -1.487715e-001 4.770255e-001 1.002864e-001 5.737719e-001 -7.579233e-001 -2.182184e-001 3.728054e-001 1.661964e-001 1.127003e-001 6.279813e-001 -1.300543e-001 2.762121e-002 -1.737685e-002 7.982902e-003 1.399323e-002 -6.799805e-003 -3.986413e-002 -2.836487e-002 1.865641e-002 -7.090547e-003 -7.598608e-003 8.965264e-003 -4.551222e-003 4.270826e-002
<VARIANCE> 25
 8.839439e+001 4.347105e+001 4.599591e+001 4.941996e+001 4.454788e+001 1.321685e+002 4.784446e+001 3.909988e+001 4.246991e+001 4.233669e+001 5.828634e+001 2.734438e+001 3.166239e+000 2.086372e+000 2.146843e+000 2.665649e+000 2.429810e+000 5.203608e+000 2.964981e+000 2.963227e+000 3.163436e+000 2.992936e+000 3.919194e+000 2.300288e+000 4.720844e+000
<GCONST> 1.073543e+002
<TRANSP> 5
 0.000000e+000 1.000000e+000 0.000000e+000 0.000000e+000 0.000000e+000
 0.000000e+000 7.049471e-001 2.950529e-001 0.000000e+000 0.000000e+000
 0.000000e+000 0.000000e+000 7.049468e-001 2.950532e-001 0.000000e+000
 0.000000e+000 0.000000e+000 0.000000e+000 8.236247e-001 1.763752e-001
 0.000000e+000 0.000000e+000 0.000000e+000 0.000000e+000 0.000000e+000
<ENDHMM>
~h "iy"
<BEGINHMM>
<NUMSTATES> 5
<STATE> 2
<MEAN> 25
 -2.680571e-001 -3.136372e-001 1.826352e+000 5.919312e-001 -2.946905e-001 -1.236068e+000 8.901113e-001 -3.144551e-001 -6.758839e-001 -1.099615e+000 3.640619e-001 3.968777e-001 -6.617209e-002 1.341840e-002 3.202072e-002 2.593807e-002 -2.790632e-002 3.234723e-002 -1.658999e-002 -6.686973e-003 1.160330e-002 -9.161471e-003 -8.166618e-003 -5.674166e-003 -6.248993e-002
<VARIANCE> 25
 8.749350e+001 4.025446e+001 6.444649e+001 6.446232e+001 6.077032e+001 1.153807e+002 6.167401e+001 4.708211e+001 4.179843e+001 4.551484e+001 5.872035e+001 2.600008e+001 3.672549e+000 2.243066e+000 2.510996e+000 3.141671e+000 3.463475e+000 4.688889e+000 3.402805e+000 3.439774e+000 2.944805e+000 3.035980e+000 3.617781e+000 2.241833e+000 4.320760e+000
<GCONST> 1.093253e+002
<STATE> 3
<MEAN> 25
 -4.732511e-001 -2.761630e-001 1.901123e+000 6.468018e-001 -3.695815e-001 -1.112578e+000 8.396900e-001 -3.478771e-001 -6.340636e-001 -1.120210e+000 3.432930e-001 3.854068e-001 -5.557852e-002 9.863666e-003 1.765914e-002 1.219425e-002 -1.817104e-002 3.050628e-002 -1.256963e-002 -6.367767e-003 1.234623e-002 -5.459886e-003 -8.100384e-003 -3.556493e-003 -5.654819e-002
<VARIANCE> 25
 8.889938e+001 4.016207e+001 6.541854e+001 6.576569e+001 6.061968e+001 1.162633e+002 6.262574e+001 4.776609e+001 4.155511e+001 4.458743e+001 5.846526e+001 2.567873e+001 3.648862e+000 2.192398e+000 2.513771e+000 3.147346e+000 3.466242e+000 4.537024e+000 3.406460e+000 3.437155e+000 2.901152e+000 2.988604e+000 3.560544e+000 2.235850e+000 4.180532e+000
<GCONST> 1.092251e+002
<STATE> 4
<MEAN> 25
 -5.155154e-001 -3.213765e-001 1.920297e+000 5.577840e-001 -4.443384e-001 -1.071815e+000 8.928906e-001 -4.593897e-001 -6.318012e-001 -1.190232e+000 3.923835e-001 3.969598e-001 -3.807270e-002 5.175662e-003 -1.148141e-002 -1.033248e-002 -5.084130e-003 3.185005e-002 -3.893136e-003 -5.572261e-003 1.555231e-002 1.219540e-003 -9.533150e-003 -3.018565e-003 -5.197070e-002
<VARIANCE> 25
 9.046556e+001 3.980874e+001 6.722359e+001 6.816848e+001 6.042560e+001 1.160522e+002 6.410244e+001 4.835581e+001 4.117331e+001 4.434731e+001 5.882656e+001 2.545989e+001 3.582144e+000 2.109326e+000 2.525339e+000 3.173091e+000 3.468710e+000 4.317366e+000 3.430977e+000 3.426569e+000 2.853259e+000 2.965996e+000 3.506612e+000 2.253960e+000 4.034286e+000
<GCONST> 1.091541e+002
<TRANSP> 5
 0.000000e+000 1.000000e+000 0.000000e+000 0.000000e+000 0.000000e+000
 0.000000e+000 7.042129e-001 2.957871e-001 0.000000e+000 0.000000e+000
 0.000000e+000 0.000000e+000 7.042127e-001 2.957872e-001 0.000000e+000
 0.000000e+000 0.000000e+000 0.000000e+000 8.215815e-001 1.784185e-001
 0.000000e+000 0.000000e+000 0.000000e+000 0.000000e+000 0.000000e+000
<ENDHMM>
~h "jh"
<BEGINHMM>
<NUMSTATES> 5
<STATE> 2
<MEAN> 25
 1.761404e-001 -1.014496e+000 -2.941268e-001 -3.497902e-001 -1.076143e+000 3.352440e-001 -3.352386e-001 6.558870e-001 5.627246e-001 -9.825568e-001 7.601727e-001 4.191109e-001 9.554680e-002 -1.084820e-001 4.463496e-002 -4.414591e-002 3.606026e-002 -1.313767e-001 -5.023902e-002 1.375043e-002 4.214050e-004 -3.693666e-002 3.793931e-002 -1.346338e-002 3.334480e-001
<VARIANCE> 25
 7.671218e+001 5.583600e+001 2.466354e+001 4.680175e+001 5.412952e+001 1.118612e+002 5.406058e+001 2.952216e+001 4.301268e+001 2.886809e+001 3.135897e+001 3.491231e+001 3.922794e+000 3.631052e+000 1.847939e+000 3.352250e+000 2.931716e+000 5.303257e+000 2.903213e+000 2.338309e+000 3.128305e+000 2.748785e+000 2.798742e+000 2.372472e+000 5.198084e+000
<GCONST> 1.063993e+002
<STATE> 3
<MEAN> 25
 3.900756e-001 -1.379094e+000 -1.859491e-001 -4.932523e-001 -9.123441e-001 -1.186217e-001 -4.126603e-001 7.655356e-001 5.360770e-001 -1.120129e+000 8.325364e-001 4.390399e-001 6.554919e-002 -1.156621e-001 3.192477e-002 -4.994299e-002 5.598469e-002 -1.518212e-001 -5.749299e-003 3.900835e-002 -2.190049e-002 -4.422458e-002 1.613014e-002 1.657281e-002 3.397188e-001
<VARIANCE> 25
 7.534874e+001 5.961995e+001 2.581806e+001 4.671931e+001 5.276461e+001 1.142698e+002 5.280174e+001 2.962144e+001 4.641255e+001 2.907533e+001 3.074642e+001 3.513987e+001 3.864139e+000 3.821913e+000 1.881279e+000 3.148435e+000 2.870995e+000 5.041454e+000 2.879738e+000 2.385861e+000 2.961247e+000 2.675732e+000 2.741969e+000 2.258591e+000 5.141975e+000
<GCONST> 1.063059e+002
<STATE> 4
<MEAN> 25
 5.267426e-001 -1.798802e+000 -1.203668e-001 -7.052038e-001 -6.028000e-001 -8.042973e-001 -2.691609e-001 1.041930e+000 3.219804e-001 -1.353560e+000 7.808613e-001 6.846740e-001 3.024036e-002 -6.527781e-002 2.911714e-003 -3.780324e-002 6.284323e-002 -1.283122e-001 5.712247e-002 5.201450e-002 -6.870441e-002 -4.517353e-002 -2.052621e-002 4.879078e-002 2.551274e-001
<VARIANCE> 25
 7.487363e+001 6.169424e+001 2.766582e+001 4.658401e+001 5.186283e+001 1.162622e+002 5.106007e+001 3.065124e+001 5.192062e+001 2.981124e+001 3.029820e+001 3.475570e+001 3.793644e+000 3.954653e+000 1.928315e+000 2.796297e+000 2.812761e+000 4.618296e+000 2.896278e+000 2.488846e+000 2.802169e+000 2.562562e+000 2.667870e+000 2.186945e+000 4.727975e+000
<GCONST> 1.061318e+002
<TRANSP> 5
 0.000000e+000 1.000000e+000 0.000000e+000 0.000000e+000 0.000000e+000
 0.000000e+000 6.901190e-001 3.098810e-001 0.000000e+000 0.000000e+000
 0.000000e+000 0.000000e+000 6.901191e-001 3.098809e-001 0.000000e+000
 0.000000e+000 0.000000e+000 0.000000e+000 8.035900e-001 1.964100e-001
 0.000000e+000 0.000000e+000 0.000000e+000 0.000000e+000 0.000000e+000
<ENDHMM>
~h "ng"
<BEGINHMM>
<NUMSTATES> 5
<STATE> 2
<MEAN> 25
 -3.365625e-001 8.455312e-001 -1.442401e+000 8.528527e-001 5.675630e-001 1.758785e+000 -1.510268e+000 1.064357e-001 6.754589e-001 1.891452e+000 -1.101133e+000 -1.038138e+000 -2.676106e-002 2.576365e-002 7.950075e-003 2.381714e-002 -1.696729e-002 3.905522e-002 -8.499894e-002 1.428461e-002 4.719225e-002 2.998003e-002 -1.091310e-002 1.089070e-002 -1.189442e-001
<VARIANCE> 25
 8.015903e+001 3.878976e+001 3.782907e+001 5.134840e+001 3.057725e+001 1.136185e+002 5.414584e+001 2.842893e+001 4.379727e+001 3.629429e+001 6.104814e+001 2.188517e+001 1.897835e+000 1.245105e+000 1.613777e+000 2.172800e+000 2.120983e+000 2.759208e+000 2.552954e+000 2.814440e+000 2.628770e+000 2.511605e+000 3.005512e+000 2.154556e+000 3.017378e+000
<GCONST> 1.023349e+002
<STATE> 3
<MEAN> 25
 -4.307168e-001 9.416733e-001 -1.404368e+000 9.481379e-001 5.011648e-001 1.907477e+000 -1.808859e+000 1.477728e-001 8.487972e-001 1.973894e+000 -1.123590e+000 -9.834186e-001 -1.828237e-002 3.213267e-002 1.613431e-002 3.438441e-002 -1.781561e-002 4.568176e-002 -7.796840e-002 9.333920e-003 4.292986e-002 1.152103e-002 -9.903659e-003 1.977830e-002 -1.099475e-001
<VARIANCE> 25
 7.851737e+001 3.956832e+001 3.807947e+001 4.914745e+001 3.068639e+001 1.099979e+002 5.092585e+001 2.739416e+001 4.329045e+001 3.628117e+001 5.986215e+001 2.164925e+001 1.836867e+000 1.286569e+000 1.624813e+000 2.110446e+000 2.073323e+000 2.761352e+000 2.515851e+000 2.764558e+000 2.588260e+000 2.479632e+000 3.036324e+000 2.128332e+000 3.100243e+000
<GCONST> 1.020473e+002
<STATE> 4
<MEAN> 25
 -5.442754e-001 1.081154e+000 -1.346096e+000 1.043983e+000 4.118483e-001 2.143576e+000 -2.103105e+000 1.763618e-001 1.022435e+000 1.952096e+000 -1.111404e+000 -8.778103e-001 -1.248718e-002 3.169572e-002 2.020919e-002 4.667612e-002 -1.833402e-002 5.652471e-002 -6.041945e-002 -2.217909e-003 3.613880e-002 -5.009648e-003 -1.563230e-002 2.477878e-002 -9.908238e-002
<VARIANCE> 25
 7.586109e+001 4.058464e+001 3.882882e+001 4.690961e+001 3.117965e+001 1.048761e+002 4.641961e+001 2.606008e+001 4.269736e+001 3.655184e+001 5.894480e+001 2.128432e+001 1.761907e+000 1.319498e+000 1.652741e+000 2.037791e+000 2.062490e+000 2.719693e+000 2.433185e+000 2.674203e+000 2.550617e+000 2.423912e+000 3.075497e+000 2.069370e+000 3.042961e+000
<GCONST> 1.016052e+002
<TRANSP> 5
 0.000000e+000 1.000000e+000 0.000000e+000 0.000000e+000 0.000000e+000
 0.000000e+000 7.251534e-001 2.748466e-001 0.000000e+000 0.000000e+000
 0.000000e+000 0.000000e+000 7.251536e-001 2.748465e-001 0.000000e+000
 0.000000e+000 0.000000e+000 0.000000e+000 8.447524e-001 1.552476e-001
 0.000000e+000 0.000000e+000 0.000000e+000 0.000000e+000 0.000000e+000
<ENDHMM>
~h "ow"
<BEGINHMM>
<NUMSTATES> 5
<STATE> 2
<MEAN> 25
 -6.568019e-001 5.715891e-001 -8.865895e-001 -1.539253e-001 4.576479e-001 1.797571e+000 -8.747094e-002 2.379976e-001 2.693062e-002 -1.613392e-001 1.652831e-001 3.510987e-001 5.702104e-003 -4.405964e-002 -4.258935e-002 -1.761789e-002 -1.195113e-004 2.166548e-002 4.114725e-002 3.912752e-002 2.216403e-002 8.203962e-003 -2.486437e-003 -8.772925e-003 -2.094613e-002
<VARIANCE> 25
 1.007848e+002 3.961295e+001 4.087469e+001 7.074982e+001 4.059290e+001 8.905844e+001 6.044487e+001 4.558474e+001 3.454641e+001 4.457710e+001 7.014849e+001 2.321964e+001 2.767771e+000 1.958335e+000 1.773582e+000 2.501055e+000 2.463986e+000 2.941248e+000 2.466322e+000 2.651013e+000 2.492680e+000 2.654478e+000 3.328206e+000 1.799423e+000 2.930495e+000
<GCONST> 1.048509e+002
<STATE> 3
<MEAN> 25
 -6.231509e-001 4.046777e-001 -1.023249e+000 -2.514488e-001 4.783686e-001 1.830799e+000 7.209682e-002 3.932777e-001 1.020966e-001 -1.508541e-001 1.808313e-001 3.199393e-001 7.417211e-003 -4.345959e-002 -3.217183e-002 -2.019251e-002 6.599759e-003 9.659598e-003 4.050868e-002 4.629521e-002 2.382986e-002 2.758352e-004 -1.005962e-002 -1.721517e-002 -1.363215e-003
<VARIANCE> 25
 1.015410e+002 3.979655e+001 3.991421e+001 7.256842e+001 4.029603e+001 8.995499e+001 6.132871e+001 4.510774e+001 3.484093e+001 4.590271e+001 7.095664e+001 2.339061e+001 2.862985e+000 2.043821e+000 1.801761e+000 2.546684e+000 2.497916e+000 3.001851e+000 2.538662e+000 2.713473e+000 2.535306e+000 2.730848e+000 3.379412e+000 1.808923e+000 3.194785e+000
<GCONST> 1.052767e+002
<STATE> 4
<MEAN> 25
 -5.845656e-001 1.684412e-001 -1.102072e+000 -5.132699e-001 4.979927e-001 1.699937e+000 3.823825e-001 6.264344e-001 1.673045e-001 -2.535405e-001 2.699839e-001 2.297015e-001 2.370035e-002 -3.009582e-002 -1.404381e-002 -2.355628e-002 1.053081e-002 -5.711535e-003 3.388439e-002 3.783514e-002 1.525972e-002 -1.913936e-002 -1.796899e-002 -2.570731e-002 3.762732e-002
<VARIANCE> 25
 1.033585e+002 4.045892e+001 3.918095e+001 7.555117e+001 4.063221e+001 9.130305e+001 6.342371e+001 4.365838e+001 3.584277e+001 4.815475e+001 7.308267e+001 2.373390e+001 3.124744e+000 2.176337e+000 1.874175e+000 2.656185e+000 2.618074e+000 3.078276e+000 2.707778e+000 2.783328e+000 2.629378e+000 2.870066e+000 3.448386e+000 1.837964e+000 3.610746e+000
<GCONST> 1.061157e+002
<TRANSP> 5
 0.000000e+000 1.000000e+000 0.000000e+000 0.000000e+000 0.000000e+000
 0.000000e+000 7.054276e-001 2.945723e-001 0.000000e+000 0.000000e+000
 0.000000e+000 0.000000e+000 7.054278e-001 2.945722e-001 0.000000e+000
 0.000000e+000 0.000000e+000 0.000000e+000 8.236578e-001 1.763422e-001
 0.000000e+000 0.000000e+000 0.000000e+000 0.000000e+000 0.000000e+000
<ENDHMM>
~h "oy"
<BEGINHMM>
<NUMSTATES> 5
<STATE> 2
<MEAN> 25
 1.399681e+000 -1.942143e+000 -5.909997e-001 -1.545548e+000 1.626509e+000 -2.663507e+000 1.102708e+000 1.793143e-001 -7.208030e-001 -2.038923e+000 3.191615e+000 1.169153e+000 -1.218425e-002 2.375857e-003 1.387891e-002 4.780670e-002 -1.774646e-002 -2.993920e-003 -3.904693e-002 4.103366e-003 -5.312952e-005 2.213398e-002 -6.208992e-002 -5.047493e-003 -8.507001e-002
<VARIANCE> 25
 9.824901e+001 4.430147e+001 4.195807e+001 5.904277e+001 6.164705e+001 8.947600e+001 7.353391e+001 4.000402e+001 3.155846e+001 6.748026e+001 1.092096e+002 2.652957e+001 3.805906e+000 2.385356e+000 2.712426e+000 2.855833e+000 4.484462e+000 3.599979e+000 4.995979e+000 3.130227e+000 3.304490e+000 4.129791e+000 5.850387e+000 2.478660e+000 5.075607e+000
<GCONST> 1.110743e+002
<STATE> 3
<MEAN> 25
 1.319389e+000 -1.917732e+000 -5.193992e-001 -1.327551e+000 1.555326e+000 -2.631387e+000 9.383204e-001 1.927742e-001 -7.147360e-001 -1.903587e+000 2.876477e+000 1.136025e+000 -2.636052e-002 9.237362e-003 1.825901e-002 5.318993e-002 -1.323048e-002 1.829630e-002 -3.338658e-002 1.248867e-003 1.754108e-003 3.408897e-002 -8.239984e-002 -1.675894e-002 -1.105683e-001
<VARIANCE> 25
 9.776430e+001 4.517934e+001 4.250238e+001 5.891637e+001 6.092865e+001 8.940233e+001 7.493224e+001 3.945834e+001 3.179563e+001 6.510827e+001 1.085902e+002 2.710742e+001 3.746609e+000 2.363211e+000 2.690008e+000 2.776127e+000 4.428519e+000 3.567226e+000 4.944244e+000 3.032291e+000 3.282735e+000 4.033463e+000 5.651280e+000 2.485331e+000 4.695861e+000
<GCONST> 1.108144e+002
<STATE> 4
<MEAN> 25
 1.083880e+000 -1.872063e+000 -4.070766e-001 -9.911041e-001 1.518784e+000 -2.443091e+000 7.859798e-001 2.187067e-001 -6.770841e-001 -1.579868e+000 2.303796e+000 1.042859e+000 -4.133059e-002 2.182821e-002 1.851717e-002 5.352565e-002 -9.666778e-003 4.821149e-002 -2.648804e-002 -1.312553e-003 7.603288e-003 4.837339e-002 -1.032045e-001 -3.408240e-002 -1.473044e-001
<VARIANCE> 25
 9.703139e+001 4.630784e+001 4.271796e+001 5.792719e+001 5.911469e+001 8.870422e+001 7.635800e+001 3.859224e+001 3.219084e+001 5.997007e+001 1.062154e+002 2.846494e+001 3.711019e+000 2.347769e+000 2.643289e+000 2.622556e+000 4.291872e+000 3.498832e+000 4.801449e+000 2.872322e+000 3.266433e+000 3.815090e+000 5.350099e+000 2.502697e+000 4.188729e+000
<GCONST> 1.102877e+002
<TRANSP> 5
 0.000000e+000 1.000000e+000 0.000000e+000 0.000000e+000 0.000000e+000
 0.000000e+000 7.701436e-001 2.298564e-001 0.000000e+000 0.000000e+000
 0.000000e+000 0.000000e+000 7.701436e-001 2.298564e-001 0.000000e+000
 0.000000e+000 0.000000e+000 0.000000e+000 8.961083e-001 1.038917e-001
 0.000000e+000 0.000000e+000 0.000000e+000 0.000000e+000 0.000000e+000
<ENDHMM>
~h "sh"
<BEGINHMM>
<NUMSTATES> 5
<STATE> 2
<MEAN> 25
 -1.498034e+000 1.512685e-001 2.081167e+000 1.925270e+000 -5.505991e-001 3.290850e-002 -2.768530e-001 1.415464e+000 1.613851e-001 -8.542395e-001 -1.455382e+000 5.123591e-001 5.391508e-002 -1.583830e-002 4.908565e-002 2.351159e-002 -2.271707e-002 -7.800655e-002 -4.183413e-002 -1.268812e-003 -4.996200e-002 -2.680048e-002 1.532334e-002 -3.567217e-003 6.680372e-002
<VARIANCE> 25
 1.084880e+002 4.716112e+001 6.811034e+001 5.270365e+001 4.009555e+001 1.502992e+002 4.474229e+001 2.838624e+001 4.581509e+001 4.411002e+001 8.448852e+001 2.639611e+001 4.293187e+000 1.932796e+000 2.536442e+000 2.650432e+000 2.333163e+000 5.412080e+000 2.669268e+000 2.150768e+000 2.993866e+000 3.141014e+000 4.244323e+000 2.218121e+000 4.788524e+000
<GCONST> 1.081993e+002
<STATE> 3
<MEAN> 25
 -1.313809e+000 7.294885e-002 2.201090e+000 1.993599e+000 -6.081963e-001 -1.711238e-001 -4.241883e-001 1.372344e+000 1.785959e-002 -9.294591e-001 -1.382060e+000 5.102385e-001 6.299612e-002 -2.564120e-002 4.734240e-002 2.949248e-002 -1.897755e-002 -7.494187e-002 -5.550090e-002 -1.814110e-002 -4.795515e-002 -2.888984e-002 2.618582e-002 -2.741373e-004 7.149819e-002
<VARIANCE> 25
 1.106459e+002 4.763339e+001 6.981844e+001 5.278384e+001 4.002026e+001 1.445108e+002 4.535165e+001 2.829297e+001 4.603993e+001 4.576538e+001 8.409891e+001 2.626293e+001 4.284313e+000 1.986607e+000 2.560930e+000 2.655226e+000 2.336646e+000 5.529785e+000 2.674503e+000 2.153622e+000 3.023983e+000 3.227101e+000 4.241639e+000 2.248838e+000 4.764603e+000
<GCONST> 1.083647e+002
<STATE> 4
<MEAN> 25
 -1.000240e+000 -2.091753e-001 2.218116e+000 1.954510e+000 -5.094985e-001 -4.837575e-001 -5.882740e-001 1.237644e+000 -1.191213e-001 -9.804949e-001 -1.058571e+000 4.526091e-001 7.081164e-002 -2.376574e-002 1.446707e-002 2.506291e-002 -1.133993e-002 -2.494535e-002 -5.391183e-002 -3.367014e-002 -2.280026e-002 -2.562560e-002 3.095584e-002 2.242438e-003 3.960608e-002
<VARIANCE> 25
 1.143333e+002 4.862471e+001 7.222897e+001 5.326110e+001 3.982852e+001 1.359286e+002 4.670016e+001 2.885601e+001 4.629205e+001 4.835839e+001 8.397655e+001 2.666376e+001 4.186855e+000 2.008194e+000 2.483641e+000 2.672993e+000 2.340342e+000 5.287450e+000 2.758673e+000 2.192263e+000 3.076147e+000 3.338390e+000 4.068720e+000 2.289233e+000 4.570224e+000
<GCONST> 1.084732e+002
<TRANSP> 5
 0.000000e+000 1.000000e+000 0.000000e+000 0.000000e+000 0.000000e+000
 0.000000e+000 6.888437e-001 3.111563e-001 0.000000e+000 0.000000e+000
 0.000000e+000 0.000000e+000 6.888443e-001 3.111558e-001 0.000000e+000
 0.000000e+000 0.000000e+000 0.000000e+000 8.057208e-001 1.942791e-001
 0.000000e+000 0.000000e+000 0.000000e+000 0.000000e+000 0.000000e+000
<ENDHMM>
~h "th"
<BEGINHMM>
<NUMSTATES> 5
<STATE> 2
<MEAN> 25
 1.408763e+000 -1.636140e+000 -1.253448e-001 -2.148891e+000 1.256057e+000 -2.760535e+000 4.910417e+000 -1.067832e+000 1.787935e-001 -1.677131e+000 2.299331e+000 1.409730e+000 -1.058542e-001 -9.027774e-003 1.652917e-002 4.519269e-002 1.041279e-002 2.594557e-002 -1.365728e-002 6.558023e-002 9.990160e-003 -6.947587e-002 2.611449e-002 7.915471e-002 -2.163795e-002
<VARIANCE> 25
 8.220765e+001 3.837272e+001 5.106154e+001 6.574567e+001 7.098348e+001 1.083621e+002 6.097053e+001 4.268221e+001 3.600368e+001 6.635370e+001 3.771115e+001 2.944695e+001 4.648050e+000 2.370954e+000 2.216769e+000 2.824569e+000 3.851218e+000 4.046143e+000 4.184523e+000 3.409858e+000 2.955345e+000 3.439575e+000 3.240412e+000 2.265776e+000 3.864780e+000
<GCONST> 1.090285e+002
<STATE> 3
<MEAN> 25
 1.084440e+000 -1.654850e+000 -6.605161e-002 -1.990076e+000 1.258947e+000 -2.675096e+000 4.815113e+000 -8.544263e-001 1.943960e-001 -1.907390e+000 2.374469e+000 1.609936e+000 -1.323317e-001 1.399531e-002 3.120059e-002 4.993726e-002 -6.327014e-003 2.341448e-002 -6.537721e-002 5.261668e-002 -5.612653e-003 -6.433383e-002 1.078184e-002 2.970449e-002 -6.433093e-002
<VARIANCE> 25
 8.390238e+001 3.738864e+001 5.105100e+001 6.685260e+001 7.156855e+001 1.116175e+002 5.839267e+001 4.298660e+001 3.517611e+001 6.627536e+001 3.896801e+001 2.851445e+001 4.644422e+000 2.281588e+000 2.225245e+000 2.802085e+000 3.872646e+000 4.028863e+000 4.008051e+000 3.418821e+000 2.978530e+000 3.548842e+000 3.247725e+000 2.286830e+000 3.567088e+000
<GCONST> 1.089051e+002
<STATE> 4
<MEAN> 25
 7.907143e-001 -1.667664e+000 1.313683e-001 -1.805911e+000 1.049309e+000 -2.842600e+000 4.624880e+000 -6.664864e-001 1.425432e-001 -2.397406e+000 2.473499e+000 1.624763e+000 -1.362230e-001 3.044639e-002 3.651788e-002 5.256493e-002 -2.618098e-002 2.101269e-002 -8.954319e-002 3.886581e-002 -1.455630e-002 -4.897784e-002 -2.206757e-002 -3.285210e-002 -1.054644e-001
<VARIANCE> 25
 8.617562e+001 3.617321e+001 5.261081e+001 6.806166e+001 7.360457e+001 1.135956e+002 5.638979e+001 4.192468e+001 3.407581e+001 6.638284e+001 4.016656e+001 2.703323e+001 4.650709e+000 2.175603e+000 2.234981e+000 2.810457e+000 3.981173e+000 4.042361e+000 3.800612e+000 3.362264e+000 2.958840e+000 3.739471e+000 3.216400e+000 2.246272e+000 3.209818e+000
<GCONST> 1.087142e+002
<TRANSP> 5
 0.000000e+000 1.000000e+000 0.000000e+000 0.000000e+000 0.000000e+000
 0.000000e+000 6.974643e-001 3.025357e-001 0.000000e+000 0.000000e+000
 0.000000e+000 0.000000e+000 6.974645e-001 3.025355e-001 0.000000e+000
 0.000000e+000 0.000000e+000 0.000000e+000 8.129999e-001 1.870001e-001
 0.000000e+000 0.000000e+000 0.000000e+000 0.000000e+000 0.000000e+000
<ENDHMM>
~h "uh"
<BEGINHMM>
<NUMSTATES> 5
<STATE> 2
<MEAN> 25
 -7.401806e-001 9.674382e-001 -5.039731e-001 -1.234978e+000 -2.867949e-001 1.170394e+000 -4.575083e-001 -8.999897e-001 -8.124727e-001 -4.074575e-001 1.032487e+000 -3.351168e-001 1.681183e-001 -9.894887e-002 -4.465419e-002 -6.235444e-002 3.685425e-002 -1.482324e-001 9.999076e-002 -6.716819e-002 -8.387436e-002 -6.847977e-002 1.545825e-001 3.696449e-002 4.052728e-001
<VARIANCE> 25
 7.727732e+001 3.794778e+001 2.862687e+001 4.127617e+001 3.133271e+001 9.760032e+001 4.715954e+001 4.128175e+001 4.307775e+001 5.674950e+001 7.084344e+001 5.070910e+001 2.173153e+000 1.588457e+000 1.699294e+000 1.979475e+000 1.889681e+000 3.791699e+000 2.420934e+000 3.072495e+000 3.252878e+000 3.520696e+000 3.076888e+000 1.989370e+000 5.332546e+000
<GCONST> 1.049445e+002
<STATE> 3
<MEAN> 25
 -1.399150e-001 6.265146e-001 -7.278722e-001 -1.368701e+000 -1.391217e-001 6.261643e-001 -1.069428e-001 -1.102662e+000 -1.036122e+000 -6.243435e-001 1.533457e+000 -2.586847e-001 1.581658e-001 -9.479843e-002 -6.337959e-002 -3.188844e-002 4.410977e-002 -1.560907e-001 9.757008e-002 -5.449576e-002 -4.941553e-002 -5.590060e-002 1.322234e-001 2.090902e-002 3.504385e-001
<VARIANCE> 25
 7.459531e+001 3.900285e+001 2.950519e+001 4.157475e+001 3.047301e+001 1.048900e+002 5.090995e+001 3.958162e+001 4.402420e+001 5.700882e+001 7.293581e+001 5.128497e+001 2.175644e+000 1.512721e+000 1.728886e+000 1.962552e+000 1.889728e+000 4.050259e+000 2.499329e+000 3.056752e+000 3.188293e+000 3.500190e+000 3.062949e+000 1.907357e+000 4.834189e+000
<GCONST> 1.050025e+002
<STATE> 4
<MEAN> 25
 6.913005e-001 1.180933e-001 -1.016336e+000 -1.302157e+000 9.098245e-002 -3.906878e-001 4.548441e-001 -1.199175e+000 -1.216484e+000 -8.581469e-001 2.039193e+000 -2.133915e-001 1.270767e-001 -7.404982e-002 -6.415342e-002 2.287486e-002 4.027693e-002 -1.572254e-001 9.240783e-002 -3.062491e-002 5.697433e-003 -2.306935e-002 5.867618e-002 -1.348661e-002 2.338036e-001
