~o
<STREAMINFO> 1 25
<VECSIZE> 25<NULLD><MFCC_D_N_Z_0><DIAGC>
~s "silst"
<MEAN> 25
 -7.583813e+000 5.054477e+000 -2.541568e+000 2.993928e+000 -6.791348e-001 9.938505e+000 -3.337266e+000 1.013923e+000 4.152945e+000 3.829588e+000 -4.211401e+000 6.012623e-001 -2.984725e-002 4.480917e-002 -1.185953e-003 -1.272967e-002 3.431677e-003 5.862133e-002 2.850431e-002 -5.249604e-003 1.099236e-002 -3.115178e-002 -2.647100e-002 -6.220265e-002 -3.864469e-002
<VARIANCE> 25
 5.083507e+000 5.132801e+000 8.413345e+000 9.028128e+000 9.859349e+000 1.544540e+001 1.522916e+001 1.370465e+001 1.632704e+001 1.613656e+001 1.818016e+001 1.575522e+001 2.001872e-001 3.312212e-001 5.545123e-001 7.913269e-001 9.237382e-001 1.172353e+000 1.178535e+000 1.492401e+000 1.483626e+000 1.453186e+000 1.420620e+000 1.376377e+000 1.144691e-001
<GCONST> 7.151534e+001
~h "b"
<BEGINHMM>
<NUMSTATES> 5
<STATE> 2
<MEAN> 25
 5.134743e+000 5.701191e+000 3.559012e+000 4.560557e+000 2.066644e+000 6.098416e+000 -1.990173e+000 -2.071884e+000 -3.047320e+000 -7.070839e-001 -6.261639e+000 7.222138e-001 2.387623e-001 9.907143e-001 7.059971e-001 3.598290e-001 3.803199e-001 4.644959e-001 3.795195e-002 -4.427569e-001 -4.604204e-001 -8.776245e-002 -1.016919e-002 9.347615e-002 -3.117665e-001
<VARIANCE> 25
 7.918295e+001 2.848556e+001 2.126808e+001 1.918710e+001 2.502056e+001 4.100110e+001 2.300699e+001 2.062030e+001 3.261864e+001 4.275858e+001 2.312390e+001 2.086192e+001 3.098679e+000 1.955330e+000 1.538843e+000 2.079852e+000 1.374198e+000 2.595848e+000 2.046523e+000 2.565629e+000 2.775959e+000 3.251140e+000 3.621726e+000 1.673336e+000 2.511614e+000
<GCONST> 9.701184e+001
<STATE> 3
<MEAN> 25
 4.705314e+000 6.359762e+000 4.375993e+000 3.340606e+000 2.814141e+000 5.723761e+000 -5.932392e-001 -2.011202e+000 -3.050210e+000 3.763427e-001 -3.223131e+000 2.089057e+000 2.201419e-001 -1.825424e+000 -6.542509e-001 -1.570985e+000 -5.773764e-001 -1.981525e+000 5.193055e-001 1.256861e-001 2.228862e-001 -9.161926e-001 2.733765e+000 7.957904e-001 3.662727e+000
<VARIANCE> 25
 4.584709e+001 3.706458e+001 2.185358e+001 2.575422e+001 3.118480e+001 3.874805e+001 3.299283e+001 3.237203e+001 2.763476e+001 2.970212e+001 3.867011e+001 2.588845e+001 6.153905e+000 6.233701e+000 2.377354e+000 4.028398e+000 4.326305e+000 7.010011e+000 4.342464e+000 3.221187e+000 5.902602e+000 6.676083e+000 4.963808e+000 5.656531e+000 9.673313e+000
<GCONST> 1.086426e+002
<STATE> 4
<MEAN> 25
 8.212379e+000 -1.086814e+000 2.051020e-001 -3.211269e+000 -3.133330e+000 -3.714205e-001 5.330748e-002 -2.863242e+000 -2.543661e+000 -4.531659e+000 7.101612e+000 2.874604e+000 3.334491e-001 -1.641517e+000 -7.461638e-001 -1.554148e+000 -1.301299e+000 -1.260671e+000 2.857060e-001 -2.387653e-001 8.229022e-001 -1.107009e+000 2.738445e+000 -4.806252e-001 3.328367e+000
<VARIANCE> 25
 2.615930e+001 6.076114e+001 4.393472e+001 5.426791e+001 4.368517e+001 8.881261e+001 4.634215e+001 4.005322e+001 3.924569e+001 6.918195e+001 1.273684e+002 3.975862e+001 2.846379e+000 5.464888e+000 5.047555e+000 5.331453e+000 5.922800e+000 7.428990e+000 4.080554e+000 4.816974e+000 4.796274e+000 5.509255e+000 8.504547e+000 3.370222e+000 1.000596e+001
<GCONST> 1.150535e+002
<TRANSP> 5
 0.000000e+000 1.000000e+000 0.000000e+000 0.000000e+000 0.000000e+000
 0.000000e+000 5.521142e-001 4.478858e-001 0.000000e+000 0.000000e+000
 0.000000e+000 0.000000e+000 5.588631e-001 4.411369e-001 0.000000e+000
 0.000000e+000 0.000000e+000 0.000000e+000 7.088543e-001 2.911457e-001
 0.000000e+000 0.000000e+000 0.000000e+000 0.000000e+000 0.000000e+000
<ENDHMM>
~h "d"
<BEGINHMM>
<NUMSTATES> 5
<STATE> 2
<MEAN> 25
 3.972162e+000 5.793031e+000 4.118956e+000 4.798198e+000 3.441154e-001 2.884584e+000 -4.041424e+000 -2.406280e+000 -1.924102e+000 2.378973e+000 -5.177238e+000 -1.328119e+000 5.565806e-001 6.800718e-001 6.272655e-001 3.786224e-002 -1.075684e-001 1.695434e-001 -2.530570e-001 -1.282124e-001 2.039094e-002 2.974134e-001 -4.220637e-001 -1.100421e-001 -3.633938e-001
<VARIANCE> 25
 4.568940e+001 4.376163e+001 3.989128e+001 2.877260e+001 4.974183e+001 8.711503e+001 3.008798e+001 3.462094e+001 2.817991e+001 5.436222e+001 3.764299e+001 2.074099e+001 4.472178e+000 3.302888e+000 2.317941e+000 2.568920e+000 3.733970e+000 4.908043e+000 3.233360e+000 2.816723e+000 3.841793e+000 5.063888e+000 4.053175e+000 2.511150e+000 4.492315e+000
<GCONST> 1.062953e+002
<STATE> 3
<MEAN> 25
 5.037889e+000 1.159889e+000 6.488290e+000 3.327715e+000 6.898530e-002 -1.496108e+000 -5.413441e+000 -6.089149e-002 -3.202738e-001 1.810466e+000 -1.856694e+000 -1.161434e+000 1.018730e-001 -2.391469e+000 -7.015187e-002 -1.221752e+000 -3.097572e-001 -2.559608e+000 1.750778e-001 4.753722e-001 -6.456756e-002 -8.526235e-001 1.780286e+000 1.038274e-001 4.011631e+000
<VARIANCE> 25
 2.646303e+001 5.760965e+001 4.076609e+001 6.658411e+001 3.671071e+001 8.986773e+001 4.567619e+001 4.048809e+001 2.882033e+001 6.081621e+001 3.112708e+001 3.429874e+001 5.723071e+000 5.411877e+000 3.660002e+000 6.545091e+000 5.311420e+000 1.073447e+001 5.403736e+000 3.997647e+000 3.205510e+000 7.132067e+000 4.076933e+000 3.711326e+000 9.730181e+000
<GCONST> 1.130956e+002
<STATE> 4
<MEAN> 25
 5.402475e+000 -5.259310e+000 1.695869e+000 4.987058e-002 1.201300e-001 -7.362154e+000 -1.503351e+000 2.138834e+000 -7.887752e-001 9.334058e-001 2.156212e+000 -3.025553e-001 -2.752621e-001 -2.024113e-001 -5.160624e-001 -9.166661e-002 2.299560e-001 7.797491e-002 1.126817e-001 6.146238e-002 4.480514e-002 3.894753e-001 3.553313e-001 -4.743937e-001 4.635195e-001
<VARIANCE> 25
 5.557496e+001 3.789622e+001 4.883140e+001 5.860314e+001 4.507500e+001 1.085713e+002 5.886386e+001 4.066645e+001 4.377103e+001 4.441065e+001 4.363405e+001 3.405883e+001 2.130521e+000 2.669477e+000 2.091991e+000 2.990344e+000 4.376568e+000 4.998588e+000 4.006288e+000 3.207837e+000 3.009265e+000 3.554240e+000 4.332003e+000 4.153699e+000 6.769117e+000
<GCONST> 1.090943e+002
<TRANSP> 5
 0.000000e+000 1.000000e+000 0.000000e+000 0.000000e+000 0.000000e+000
 0.000000e+000 5.727456e-001 4.272544e-001 0.000000e+000 0.000000e+000
 0.000000e+000 0.000000e+000 6.134015e-001 3.865985e-001 0.000000e+000
 0.000000e+000 0.000000e+000 0.000000e+000 6.536317e-001 3.463683e-001
 0.000000e+000 0.000000e+000 0.000000e+000 0.000000e+000 0.000000e+000
<ENDHMM>
~h "f"
<BEGINHMM>
<NUMSTATES> 5
<STATE> 2
<MEAN> 25
 -1.114609e+001 -4.850638e+000 -7.587477e-001 1.468052e+000 5.127336e+000 1.968779e-001 1.140810e+000 4.009419e+000 2.268055e+000 1.750055e+000 1.807608e+000 2.179269e+000 -7.912366e-004 -4.227021e-001 -6.686736e-001 -5.500463e-001 1.029060e-001 5.881917e-001 3.259970e-001 3.865114e-001 -9.606644e-002 1.736563e-001 -1.244215e-002 -1.725445e-001 -4.192579e-001
<VARIANCE> 25
 2.862148e+001 2.455836e+001 1.545620e+001 3.609521e+001 1.489345e+001 2.526859e+001 2.579832e+001 2.514785e+001 3.081472e+001 1.922140e+001 3.736958e+001 2.302978e+001 1.438092e+000 8.850943e-001 9.062700e-001 1.818600e+000 1.466353e+000 2.482629e+000 1.929754e+000 2.003345e+000 1.109081e+000 2.387240e+000 1.686888e+000 1.746806e+000 8.648041e-001
<GCONST> 8.966784e+001
<STATE> 3
<MEAN> 25
 -8.815601e+000 -4.931787e+000 -2.394498e+000 -5.950871e-001 4.635061e+000 1.287245e+000 8.311524e-001 4.460104e+000 2.290866e+000 1.910829e+000 1.763632e+000 2.017695e+000 1.882234e+000 4.167722e-002 -6.995131e-001 -1.600386e+000 -7.218032e-001 4.518985e-001 1.001801e+000 -4.926180e-001 -3.531436e-001 -5.542033e-001 1.068160e-001 4.097455e-002 7.551735e-001
<VARIANCE> 25
 4.996729e+001 3.194496e+001 1.301281e+001 3.523950e+001 2.465631e+001 2.856619e+001 2.885382e+001 1.928604e+001 2.832172e+001 2.677923e+001 2.927575e+001 1.469999e+001 6.766408e+000 2.986523e+000 1.399249e+000 1.776475e+000 3.516803e+000 2.837016e+000 3.802408e+000 3.395988e+000 1.880576e+000 3.548331e+000 4.309815e+000 1.452320e+000 4.411965e+000
<GCONST> 9.901677e+001
<STATE> 4
<MEAN> 25
 -7.885992e-001 -3.122541e+000 -3.799286e+000 -8.485489e+000 6.550249e-001 4.857740e+000 7.735391e+000 -1.622256e+000 2.145759e-001 -1.223980e+000 1.251593e+000 4.752208e+000 1.765863e+000 5.504256e-001 -2.440677e-001 -8.851183e-001 -3.980859e-001 5.637384e-001 5.394703e-001 -2.066210e-001 -2.992433e-001 -1.937980e-001 1.331291e-001 2.014156e-003 -2.407634e-002
<VARIANCE> 25
 1.107024e+002 3.848632e+001 1.128940e+001 6.130087e+001 7.022633e+001 3.188166e+001 6.933846e+001 6.357790e+001 4.609741e+001 2.416701e+001 3.078324e+001 3.251830e+001 5.624438e+000 1.090117e+000 9.816999e-001 3.062539e+000 4.011238e+000 1.330675e+000 3.586636e+000 4.489481e+000 4.314846e+000 2.285052e+000 2.716857e+000 1.388058e+000 2.121696e+000
<GCONST> 1.026092e+002
<TRANSP> 5
 0.000000e+000 1.000000e+000 0.000000e+000 0.000000e+000 0.000000e+000
 0.000000e+000 5.315757e-002 9.468424e-001 0.000000e+000 0.000000e+000
 0.000000e+000 0.000000e+000 6.022046e-001 3.977955e-001 0.000000e+000
 0.000000e+000 0.000000e+000 0.000000e+000 3.912941e-001 6.087059e-001
 0.000000e+000 0.000000e+000 0.000000e+000 0.000000e+000 0.000000e+000
<ENDHMM>
~h "g"
<BEGINHMM>
<NUMSTATES> 5
<STATE> 2
<MEAN> 25
 2.796497e+000 2.092421e-001 2.160043e+000 -6.790690e-002 2.091698e+000 -1.019702e+000 2.452493e+000 6.729437e-001 2.721488e-001 2.357045e+000 -4.690596e+000 -6.052302e-001 -9.011407e-001 -5.284377e-001 3.288349e-001 -3.303365e-001 1.720064e-002 -1.073869e+000 1.114802e+000 2.011006e-001 -7.885725e-001 -1.127903e+000 2.811613e-001 -9.597812e-001 2.244299e+000
<VARIANCE> 25
 4.259356e+001 3.727058e+001 6.663681e+001 3.123539e+001 3.873664e+001 5.493935e+001 5.944568e+001 3.663569e+001 3.515176e+001 2.646037e+001 3.089304e+001 3.393048e+001 1.007143e+001 4.177268e+000 3.887744e+000 3.584174e+000 5.064650e+000 6.139479e+000 9.848595e+000 2.769520e+000 4.084527e+000 2.521476e+000 6.582691e+000 3.193781e+000 9.498518e+000
<GCONST> 1.108425e+002
<STATE> 3
<MEAN> 25
 4.562523e+000 1.576751e+000 1.943556e+000 3.088088e+000 2.164878e+000 -1.046051e+000 -1.886949e+000 -8.737240e-001 -1.393863e+000 1.159325e+000 -4.892281e+000 -2.358172e+000 -7.266051e-001 2.334238e-001 5.928507e-001 -1.276873e-001 -5.950264e-001 -1.808501e-001 -1.343492e-001 -6.189314e-001 -9.272188e-001 -1.828606e-001 1.331147e+000 2.410752e-002 1.137561e+000
<VARIANCE> 25
 5.104255e+001 3.148086e+001 2.998584e+001 4.552987e+001 5.389135e+001 5.184091e+001 5.395083e+001 1.972654e+001 4.301693e+001 3.453252e+001 1.115256e+002 3.106835e+001 6.061954e+000 3.715517e+000 2.124822e+000 2.999559e+000 4.457041e+000 7.410010e+000 8.788214e+000 3.204063e+000 4.708758e+000 2.682346e+000 6.242736e+000 4.190836e+000 9.248658e+000
<GCONST> 1.107339e+002
<STATE> 4
<MEAN> 25
 2.418549e+000 -2.276552e+000 7.337934e+000 3.606667e-001 -5.705784e+000 -5.013474e+000 -1.768809e+000 -6.296880e-001 -7.270695e+000 -1.300174e+000 4.207798e+000 -8.716109e-001 4.179999e-001 -5.218622e-001 -1.823296e-001 -2.018312e-002 -5.200107e-001 -5.724720e-001 1.056161e-002 5.650668e-001 3.032593e-001 -2.439900e-001 4.947913e-001 2.736128e-001 5.147738e-001
<VARIANCE> 25
 2.776741e+001 4.480108e+001 3.357822e+001 1.830607e+001 5.591266e+001 4.180563e+001 5.273472e+001 2.702666e+001 3.483134e+001 2.410244e+001 1.036266e+002 2.040011e+001 1.828647e+000 1.431514e+000 1.676900e+000 1.052161e+000 4.564163e+000 3.227440e+000 4.654289e+000 2.090513e+000 2.735349e+000 1.998695e+000 3.335363e+000 2.623686e+000 1.997884e+000
<GCONST> 9.995744e+001
<TRANSP> 5
 0.000000e+000 1.000000e+000 0.000000e+000 0.000000e+000 0.000000e+000
 0.000000e+000 2.115065e-001 7.884935e-001 0.000000e+000 0.000000e+000
 0.000000e+000 0.000000e+000 6.200892e-001 3.799109e-001 0.000000e+000
 0.000000e+000 0.000000e+000 0.000000e+000 7.716024e-001 2.283976e-001
 0.000000e+000 0.000000e+000 0.000000e+000 0.000000e+000 0.000000e+000
<ENDHMM>
~h "k"
<BEGINHMM>
<NUMSTATES> 5
<STATE> 2
<MEAN> 25
 -3.107609e+000 5.838543e-001 -7.183501e-001 1.334234e+000 1.731438e+000 2.253197e+000 -2.423504e+000 2.367825e+000 1.492189e+000 3.413690e+000 -1.104469e+000 1.342978e+000 -3.624586e-001 -1.159368e+000 -2.172962e-001 -1.129813e+000 3.071343e-001 -4.548998e-001 5.729506e-001 4.547226e-001 -2.368906e-001 3.318890e-002 6.782479e-001 -1.875874e-003 1.707909e+000
<VARIANCE> 25
 3.933467e+001 3.053549e+001 2.523213e+001 3.395174e+001 3.878712e+001 9.454858e+001 4.451629e+001 4.345829e+001 3.353497e+001 2.043022e+001 4.314373e+001 2.167434e+001 3.482527e+000 4.170125e+000 4.438109e+000 4.759355e+000 3.585445e+000 6.104362e+000 5.280115e+000 6.498760e+000 3.977893e+000 2.935979e+000 7.138209e+000 4.547512e+000 1.314098e+001
<GCONST> 1.097972e+002
<STATE> 3
<MEAN> 25
 -1.594735e+000 -5.284393e+000 -2.742270e+000 -3.347948e+000 4.519643e+000 -1.495547e+000 -1.742374e+000 3.783776e+000 9.590214e-002 3.158071e+000 1.538215e+000 -1.453548e+000 -2.607972e-001 -6.658542e-001 -1.223748e-001 -1.209905e+000 -1.872645e-002 -4.452761e-001 2.284414e-001 3.084155e-001 -5.010317e-001 -8.855319e-002 1.459214e+000 -5.132498e-001 2.368365e+000
<VARIANCE> 25
 4.028758e+001 3.067295e+001 4.654454e+001 6.403003e+001 4.669593e+001 1.028337e+002 7.162875e+001 5.044695e+001 5.236997e+001 3.089149e+001 8.981936e+001 3.674321e+001 4.264866e+000 4.802251e+000 4.686081e+000 7.621248e+000 4.832316e+000 1.131865e+001 6.328102e+000 4.468573e+000 5.141757e+000 3.849610e+000 1.208709e+001 3.716744e+000 2.246128e+001
<GCONST> 1.170669e+002
<STATE> 4
<MEAN> 25
 1.908331e+000 -4.158834e+000 -2.495683e+000 -5.302810e+000 3.014665e+000 -3.339349e+000 3.315680e+000 2.269839e+000 -2.559686e+000 -1.316490e+000 6.722238e+000 -5.342193e-001 4.233337e-001 2.251610e-001 3.755549e-001 4.486244e-001 -5.585765e-002 -3.709987e-001 5.318642e-001 -3.156678e-002 -5.476867e-002 -5.587040e-001 -7.418966e-002 1.713821e-001 2.609936e-001
<VARIANCE> 25
 1.191172e+002 2.987440e+001 6.316989e+001 7.246954e+001 6.300449e+001 7.721021e+001 8.852214e+001 4.879769e+001 3.806825e+001 5.249724e+001 8.413450e+001 4.663851e+001 5.989099e+000 2.298717e+000 2.767460e+000 4.223434e+000 4.419496e+000 4.832129e+000 6.131310e+000 4.021149e+000 3.341585e+000 5.005652e+000 5.512192e+000 2.928387e+000 4.636617e+000
<GCONST> 1.137683e+002
<TRANSP> 5
 0.000000e+000 1.000000e+000 0.000000e+000 0.000000e+000 0.000000e+000
 0.000000e+000 2.507816e-001 7.492185e-001 0.000000e+000 0.000000e+000
 0.000000e+000 0.000000e+000 7.657557e-001 2.342442e-001 0.000000e+000
 0.000000e+000 0.000000e+000 0.000000e+000 8.636884e-001 1.363116e-001
 0.000000e+000 0.000000e+000 0.000000e+000 0.000000e+000 0.000000e+000
<ENDHMM>
~h "l"
<BEGINHMM>
<NUMSTATES> 5
<STATE> 2
<MEAN> 25
 8.971458e+000 -2.376592e+000 -3.340602e+000 -1.262884e+001 -3.727477e-002 -1.905166e+000 7.101486e+000 -7.074134e+000 -6.872921e+000 2.389019e+000 5.332659e+000 -3.130777e-001 2.533570e-001 5.605971e-001 2.515555e-001 5.011066e-002 -1.914628e-001 2.650025e-001 4.906012e-002 -4.552358e-001 -1.811163e-001 -1.560583e-001 -4.124283e-001 4.670386e-001 -6.940848e-001
<VARIANCE> 25
 1.277803e+001 2.808837e+001 1.883116e+001 5.208616e+001 5.319584e+001 5.484747e+001 7.444370e+001 4.828574e+001 6.190963e+001 5.516495e+001 4.656931e+001 3.305933e+001 6.218417e-001 9.063548e-001 9.331000e-001 1.878674e+000 1.776338e+000 2.332328e+000 2.334807e+000 2.600062e+000 3.047444e+000 2.390243e+000 2.830467e+000 1.828587e+000 1.082674e+000
<GCONST> 9.728132e+001
<STATE> 3
<MEAN> 25
 7.371920e+000 -7.301806e-003 -2.568279e+000 -7.973815e+000 2.719755e+000 3.154604e-001 4.569261e+000 -5.831905e+000 -3.899112e+000 2.885869e+000 3.415794e+000 1.498709e+000 -4.630317e-001 1.457218e-001 2.192850e-001 1.198698e+000 3.901669e-001 5.258389e-001 -1.024830e+000 5.496188e-001 7.242744e-001 6.817113e-002 -6.677017e-001 -1.320711e-001 -1.415220e+000
<VARIANCE> 25
 1.573989e+001 2.932132e+001 2.242616e+001 5.800824e+001 4.860955e+001 7.842071e+001 8.164394e+001 5.084377e+001 5.504800e+001 5.616046e+001 5.546200e+001 3.329513e+001 1.288770e+000 1.180861e+000 1.395735e+000 2.528740e+000 4.086993e+000 4.960809e+000 4.213119e+000 3.374366e+000 3.168758e+000 3.193362e+000 3.440570e+000 2.724499e+000 3.607876e+000
<GCONST> 1.045671e+002
<STATE> 4
<MEAN> 25
 -6.389672e+000 4.873297e+000 -1.005279e+000 3.048087e+000 -1.943699e+000 9.028543e+000 -3.809358e+000 -6.006229e-002 3.426186e+000 2.188620e+000 -5.591212e+000 7.429915e-002 -1.317341e-001 2.447345e-002 3.198995e-002 7.852934e-002 -4.628521e-002 -2.711521e-002 -2.982957e-002 6.735387e-002 6.252752e-002 -3.566960e-002 -1.091760e-002 -4.917109e-002 -1.143792e-001
<VARIANCE> 25
 2.569851e+001 1.404343e+001 1.101998e+001 1.896858e+001 1.496332e+001 4.437944e+001 2.380952e+001 2.260184e+001 2.622801e+001 1.937722e+001 2.955484e+001 1.803163e+001 3.881953e-001 5.190650e-001 7.722793e-001 9.387023e-001 1.209846e+000 1.232911e+000 1.518389e+000 1.873040e+000 1.888064e+000 1.891222e+000 1.819738e+000 1.516800e+000 2.675614e-001
<GCONST> 8.296491e+001
<TRANSP> 5
 0.000000e+000 1.000000e+000 0.000000e+000 0.000000e+000 0.000000e+000
 0.000000e+000 6.709782e-001 3.290218e-001 0.000000e+000 0.000000e+000
 0.000000e+000 0.000000e+000 7.197694e-001 2.802306e-001 0.000000e+000
 0.000000e+000 0.000000e+000 0.000000e+000 9.145434e-001 8.545657e-002
 0.000000e+000 0.000000e+000 0.000000e+000 0.000000e+000 0.000000e+000
<ENDHMM>
~h "m"
<BEGINHMM>
<NUMSTATES> 5
<STATE> 2
<MEAN> 25
 5.381959e+000 -2.402378e+000 1.111908e+000 5.115860e+000 1.780725e-001 -2.676424e+000 7.649999e-001 -1.596217e-001 -2.641355e+000 -3.757716e+000 -1.938617e+000 2.841725e+000 1.232748e+000 7.461891e-002 8.798800e-001 8.134751e-001 -6.087304e-001 -1.362665e+000 -3.134143e-001 -8.538421e-001 -1.435610e+000 -5.736410e-001 1.277330e-001 3.511835e-001 8.369091e-001
<VARIANCE> 25
 8.956115e+001 3.890507e+001 5.451724e+001 6.254312e+001 2.922537e+001 6.545326e+001 4.972694e+001 3.882656e+001 4.739396e+001 4.243486e+001 5.803265e+001 2.794566e+001 6.177545e+000 4.574717e+000 3.027040e+000 5.973088e+000 2.681791e+000 7.242816e+000 2.532151e+000 3.956915e+000 4.567991e+000 3.124751e+000 6.950634e+000 2.392179e+000 1.104686e+001
<GCONST> 1.117361e+002
<STATE> 3
<MEAN> 25
 8.059118e+000 -2.210622e+000 1.722096e+000 4.410534e+000 -1.134261e+000 -6.158805e+000 4.064928e-001 -2.053033e+000 -6.062163e+000 -3.882123e+000 -1.256196e+000 2.185664e+000 -4.780980e-002 3.526232e-001 4.563615e-001 3.656348e-002 -1.007651e-001 -3.624149e-001 -1.807469e-001 -5.516477e-001 -6.257163e-001 -5.815538e-001 5.738541e-002 -1.122864e-001 1.233353e-001
<VARIANCE> 25
 5.333929e+001 3.138168e+001 5.203144e+001 5.059394e+001 2.765762e+001 7.059436e+001 6.641833e+001 3.437477e+001 4.298306e+001 5.162432e+001 7.074975e+001 2.173074e+001 1.855860e+000 1.426830e+000 2.139658e+000 5.169200e+000 2.575980e+000 1.868287e+000 2.009557e+000 3.641541e+000 4.006304e+000 2.292837e+000 4.517589e+000 2.697635e+000 3.286792e+000
<GCONST> 1.044450e+002
<STATE> 4
<MEAN> 25
 8.854634e+000 -4.274601e+000 3.908328e+000 3.758146e+000 -2.673381e+000 -8.300006e+000 2.246231e+000 -9.517639e-001 -6.687912e+000 -4.678597e+000 -1.167450e+000 3.142071e+000 -3.554915e-001 -2.227547e-001 -1.887912e-001 -7.083676e-001 -8.993667e-002 -1.944115e-001 3.170938e-002 6.802042e-001 3.667912e-001 3.147839e-001 4.915445e-001 -1.366495e-001 5.110498e-001
<VARIANCE> 25
 5.198036e+001 3.367374e+001 7.131024e+001 6.601273e+001 4.123021e+001 4.052107e+001 6.139652e+001 6.755370e+001 3.923740e+001 5.269318e+001 5.551371e+001 3.475006e+001 3.054499e+000 1.499928e+000 3.324153e+000 4.689412e+000 2.771541e+000 3.958513e+000 3.178371e+000 3.788790e+000 3.214035e+000 3.743427e+000 5.392565e+000 2.967841e+000 3.161651e+000
<GCONST> 1.083853e+002
<TRANSP> 5
 0.000000e+000 1.000000e+000 0.000000e+000 0.000000e+000 0.000000e+000
 0.000000e+000 4.401222e-001 5.598778e-001 0.000000e+000 0.000000e+000
 0.000000e+000 0.000000e+000 1.721623e-002 9.827838e-001 0.000000e+000
 0.000000e+000 0.000000e+000 0.000000e+000 7.534223e-001 2.465777e-001
 0.000000e+000 0.000000e+000 0.000000e+000 0.000000e+000 0.000000e+000
<ENDHMM>
~h "n"
<BEGINHMM>
<NUMSTATES> 5
<STATE> 2
<MEAN> 25
 9.077377e+000 -2.325922e+000 1.843365e+000 5.592137e+000 -2.093745e+000 -6.241242e+000 -2.830070e-002 -1.431119e+000 -4.577106e+000 -7.903165e-001 -4.387213e+000 3.310845e-002 -2.955992e-001 7.602763e-001 1.929125e-001 2.577117e-001 -3.992439e-002 5.115345e-001 -1.395551e-001 2.068579e-001 1.074331e-001 -3.007992e-001 -2.985224e-001 -3.722274e-002 -1.000510e+000
<VARIANCE> 25
 3.855592e+001 3.413696e+001 2.680332e+001 4.189836e+001 3.304862e+001 7.356535e+001 3.609694e+001 3.675430e+001 3.782742e+001 1.754771e+001 5.268292e+001 2.577313e+001 7.650554e-001 9.768996e-001 1.330505e+000 2.206478e+000 2.074396e+000 2.232298e+000 1.962315e+000 2.709726e+000 2.175037e+000 2.226427e+000 2.039985e+000 1.586285e+000 1.068910e+000
<GCONST> 9.565926e+001
<STATE> 3
<MEAN> 25
 3.561010e+000 9.295933e-001 1.409612e+000 3.340788e+000 2.453857e-001 -6.386480e-001 -1.311706e+000 2.942325e-001 -8.630496e-001 7.807716e-001 -2.391763e+000 1.048810e-001 -1.661829e+000 4.837641e-001 -2.449245e-001 -9.491946e-001 2.870248e-001 1.221131e+000 2.393685e-001 4.695016e-001 9.840620e-001 1.147702e-001 8.183227e-001 4.483422e-002 -4.023819e-001
<VARIANCE> 25
 6.414589e+001 3.845842e+001 2.807116e+001 4.202414e+001 3.643013e+001 8.832203e+001 4.502409e+001 4.168706e+001 3.896404e+001 3.025867e+001 6.021687e+001 2.711295e+001 4.658885e+000 1.891992e+000 2.320178e+000 3.049762e+000 3.663378e+000 3.669502e+000 4.589486e+000 3.255453e+000 3.068984e+000 4.597893e+000 4.877893e+000 2.124323e+000 4.407733e+000
<GCONST> 1.068189e+002
<STATE> 4
<MEAN> 25
 1.818099e+000 -5.024715e-001 -1.131730e-001 1.387990e+000 -5.294679e-001 -4.463353e-001 7.575433e-001 1.021388e+000 7.707030e-001 5.764517e-001 6.505150e-002 2.615964e-001 -7.815903e-001 8.939208e-002 -5.458554e-002 -3.084592e-001 -1.715952e-001 4.498107e-001 -1.168267e-002 -6.711990e-002 2.985632e-001 1.049221e-002 5.604367e-001 1.355734e-001 -3.048631e-001
<VARIANCE> 25
 7.885753e+001 3.894919e+001 2.988554e+001 4.294883e+001 3.813847e+001 8.844753e+001 4.545470e+001 4.219784e+001 4.693676e+001 3.418532e+001 6.338579e+001 2.034879e+001 1.916963e+000 1.643229e+000 1.687447e+000 1.746025e+000 1.645749e+000 2.242249e+000 2.557180e+000 2.178228e+000 2.707899e+000 2.945247e+000 1.905685e+000 1.871070e+000 1.091319e+000
<GCONST> 1.000459e+002
<TRANSP> 5
 0.000000e+000 1.000000e+000 0.000000e+000 0.000000e+000 0.000000e+000
 0.000000e+000 3.164480e-001 6.835519e-001 0.000000e+000 0.000000e+000
 0.000000e+000 0.000000e+000 6.187776e-001 3.812224e-001 0.000000e+000
 0.000000e+000 0.000000e+000 0.000000e+000 5.176669e-002 9.482334e-001
 0.000000e+000 0.000000e+000 0.000000e+000 0.000000e+000 0.000000e+000
<ENDHMM>
~h "p"
<BEGINHMM>
<NUMSTATES> 5
<STATE> 2
<MEAN> 25
 1.173259e-001 -1.008637e+000 -2.949089e+000 -4.260621e-001 1.612161e+000 3.855695e+000 -1.046232e+000 1.555110e-001 2.598041e+000 2.876597e+000 -1.481974e+000 1.535967e+000 -8.012745e-001 -1.284839e+000 3.573524e-001 -2.885968e-001 -4.808159e-001 -1.043149e+000 1.076125e-001 3.279664e-001 -3.919129e-002 5.000461e-001 2.204798e+000 1.182811e-001 1.807746e+000
<VARIANCE> 25
 4.444238e+001 3.239230e+001 2.656991e+001 2.473578e+001 2.782625e+001 5.380444e+001 3.027175e+001 2.771821e+001 3.360292e+001 4.267764e+001 4.867364e+001 2.684645e+001 3.365598e+000 4.747774e+000 3.976737e+000 3.141782e+000 3.141418e+000 1.054867e+001 4.212722e+000 3.921623e+000 4.238302e+000 4.862738e+000 8.124974e+000 3.202150e+000 1.980307e+001
<GCONST> 1.090665e+002
<STATE> 3
<MEAN> 25
 2.620112e+000 -4.214987e+000 -3.030184e-001 -2.285835e+000 4.978164e-001 4.291832e-001 2.366989e+000 -2.329445e+000 -1.553647e+000 2.870433e-001 5.950121e+000 1.791106e+000 7.470912e-001 -3.058977e-001 2.858155e-001 -1.164717e-001 -4.682139e-001 -1.934349e-001 3.102053e-001 -2.928416e-001 -3.380367e-001 -3.053043e-001 4.934540e-001 -1.833002e-001 1.152806e+000
<VARIANCE> 25
 1.063938e+002 3.348645e+001 6.638948e+001 4.630504e+001 4.892019e+001 7.608247e+001 6.914891e+001 4.420224e+001 4.935300e+001 5.466488e+001 5.778319e+001 3.473421e+001 8.042004e+000 3.567623e+000 4.063437e+000 5.286824e+000 4.008690e+000 4.893124e+000 6.150104e+000 5.057903e+000 5.494977e+000 3.536608e+000 5.940624e+000 3.757312e+000 7.582708e+000
<GCONST> 1.148436e+002
<STATE> 4
<MEAN> 25
 5.231429e+000 -6.743966e+000 1.349123e-001 -1.559997e+000 -1.060041e+000 -4.882352e+000 -1.105229e+000 -4.111762e-001 -1.197234e-001 -4.351373e-001 3.453255e+000 -9.674302e-001 -2.022070e-001 3.817220e-001 3.164695e-002 9.494363e-002 3.482430e-001 -5.704957e-001 -3.408461e-001 4.256722e-001 1.551726e-001 -1.222304e-001 -4.557931e-001 -9.477844e-002 1.110338e-001
<VARIANCE> 25
 7.355054e+001 3.540622e+001 3.248184e+001 2.767683e+001 2.086202e+001 9.785782e+001 3.020927e+001 3.878151e+001 3.241291e+001 4.655962e+001 4.099356e+001 2.593658e+001 2.887168e+000 1.928855e+000 1.891328e+000 1.531972e+000 1.953497e+000 3.850784e+000 3.117733e+000 3.442841e+000 4.036265e+000 3.240958e+000 2.122316e+000 1.887644e+000 2.109900e+000
<GCONST> 1.014670e+002
<TRANSP> 5
 0.000000e+000 1.000000e+000 0.000000e+000 0.000000e+000 0.000000e+000
 0.000000e+000 6.705794e-001 3.294207e-001 0.000000e+000 0.000000e+000
 0.000000e+000 0.000000e+000 8.404528e-001 1.595472e-001 0.000000e+000
 0.000000e+000 0.000000e+000 0.000000e+000 5.835676e-001 4.164324e-001
 0.000000e+000 0.000000e+000 0.000000e+000 0.000000e+000 0.000000e+000
<ENDHMM>
~h "r"
<BEGINHMM>
<NUMSTATES> 5
<STATE> 2
<MEAN> 25
 6.703046e+000 -3.252273e+000 -2.671697e+000 -2.856747e+000 2.146161e+000 -7.018221e+000 -3.446421e-001 -8.081614e-001 1.146868e-001 -4.881068e+000 6.276119e+000 2.669541e+000 5.305049e-001 -4.868619e-001 8.776025e-002 7.976283e-001 2.370152e-001 -9.094357e-001 -3.050100e-001 2.041567e-001 -2.371690e-002 -3.815949e-001 -3.245571e-001 1.319327e-001 2.387116e-001
<VARIANCE> 25
 3.625746e+001 3.036397e+001 3.427210e+001 4.662315e+001 5.845267e+001 1.176107e+002 7.552478e+001 4.285571e+001 3.728036e+001 8.586866e+001 8.854485e+001 3.476569e+001 4.079807e+000 2.063710e+000 2.298248e+000 3.403778e+000 4.115676e+000 6.726306e+000 4.691476e+000 3.581058e+000 3.515945e+000 5.270195e+000 5.026187e+000 2.208387e+000 5.495642e+000
<GCONST> 1.107087e+002
<STATE> 3
<MEAN> 25
 8.760101e+000 -6.005019e+000 2.018034e+000 5.197886e+000 7.057407e-001 -1.160444e+001 5.284770e-001 1.189353e+000 -2.376487e+000 -7.829438e+000 2.344359e+000 4.185482e+000 -3.513061e-001 -1.474715e-002 6.195977e-001 6.210135e-002 -7.326031e-001 3.894725e-001 5.792732e-001 -1.809582e-001 -4.550055e-001 1.742023e-001 2.602957e-001 7.694721e-002 -3.642911e-002
<VARIANCE> 25
 3.088289e+001 2.235664e+001 4.983093e+001 5.583818e+001 4.022554e+001 9.223600e+001 6.062477e+001 3.972869e+001 4.938834e+001 4.435795e+001 8.234322e+001 2.714651e+001 1.709238e+000 1.481512e+000 2.557153e+000 3.048801e+000 3.003622e+000 4.739552e+000 4.547708e+000 3.311610e+000 4.116421e+000 3.046732e+000 3.802641e+000 2.253567e+000 3.084126e+000
<GCONST> 1.059792e+002
<STATE> 4
<MEAN> 25
 3.796273e+000 -6.103299e+000 -1.845534e+000 -1.393281e+000 2.006963e+000 -7.861571e+000 6.052870e+000 9.760446e-001 -1.416812e+000 -3.370734e+000 3.497684e+000 1.080118e+000 -3.623090e-001 1.225570e-001 4.174223e-001 8.038470e-002 -1.378559e-001 2.464262e-001 2.406028e-001 -1.573624e-001 -2.219885e-001 3.905866e-001 -3.197419e-001 -2.615571e-001 -1.182145e-001
<VARIANCE> 25
 4.143243e+001 2.068063e+001 5.943898e+001 5.450682e+001 3.519401e+001 6.602142e+001 5.323744e+001 3.463387e+001 3.578158e+001 2.577574e+001 4.358976e+001 1.952938e+001 8.044976e-001 8.925693e-001 1.256650e+000 1.522251e+000 1.482245e+000 1.385540e+000 2.121289e+000 1.654378e+000 1.660199e+000 1.708090e+000 2.011185e+000 1.325173e+000 7.093759e-001
<GCONST> 9.359928e+001
<TRANSP> 5
 0.000000e+000 1.000000e+000 0.000000e+000 0.000000e+000 0.000000e+000
 0.000000e+000 8.255457e-001 1.744542e-001 0.000000e+000 0.000000e+000
 0.000000e+000 0.000000e+000 7.731264e-001 2.268735e-001 0.000000e+000
 0.000000e+000 0.000000e+000 0.000000e+000 5.096704e-001 4.903295e-001
 0.000000e+000 0.000000e+000 0.000000e+000 0.000000e+000 0.000000e+000
<ENDHMM>
~h "s"
<BEGINHMM>
<NUMSTATES> 5
<STATE> 2
<MEAN> 25
 -1.368423e+001 4.534739e+000 3.548481e+000 -2.437065e+000 1.025228e+001 -3.619634e+000 1.670281e+000 7.491543e+000 1.336046e+000 -5.509398e-001 2.240553e+000 1.930156e+000 -2.611490e+000 1.037429e+000 2.410140e-001 -2.759332e-001 8.289132e-001 6.745228e-001 3.062893e-001 1.229397e+000 8.380593e-001 -2.154483e-001 1.920314e-001 6.775979e-001 2.793232e-001
<VARIANCE> 25
 7.942948e+001 2.627125e+001 2.711645e+001 2.624917e+001 3.044699e+001 3.595479e+001 4.188586e+001 5.425623e+001 3.186270e+001 2.701324e+001 2.874018e+001 2.549862e+001 4.473748e+000 2.052837e+000 1.688315e+000 2.577474e+000 2.643425e+000 2.854798e+000 4.028765e+000 4.416405e+000 2.816464e+000 3.127911e+000 2.814214e+000 2.543747e+000 1.420445e+000
<GCONST> 1.013226e+002
<STATE> 3
<MEAN> 25
 -1.892721e+001 5.881524e+000 3.419248e+000 -3.152301e+000 1.125580e+001 -1.794730e+000 3.951480e+000 8.801476e+000 3.516800e+000 3.415236e-001 2.830572e+000 4.320646e+000 4.285679e-001 -7.998511e-001 2.416379e-001 -2.841134e-003 -5.532108e-001 2.045572e-001 -1.539970e-001 -2.138654e-001 1.532762e-001 4.706291e-001 -1.573345e-001 -1.583847e-002 -1.168166e+000
<VARIANCE> 25
 2.659225e+001 1.694168e+001 2.619520e+001 2.206855e+001 2.627774e+001 3.414413e+001 3.394844e+001 3.962749e+001 2.631993e+001 2.767445e+001 2.508529e+001 1.622325e+001 2.046540e+000 1.467310e+000 1.110021e+000 1.382284e+000 1.754944e+000 2.029081e+000 1.959002e+000 2.364105e+000 2.006728e+000 2.418739e+000 1.922880e+000 2.166697e+000 2.497184e+000
<GCONST> 9.327279e+001
<STATE> 4
<MEAN> 25
 -1.100402e+001 5.394474e-001 3.050810e+000 -2.793096e+000 6.299869e+000 -1.008102e+000 2.993164e-001 5.489689e+000 2.623060e+000 1.146248e+000 -1.024146e-001 8.720241e-001 2.936892e+000 -8.870668e-001 -7.014724e-001 2.913892e-001 -1.458270e+000 -5.023298e-001 -3.772311e-001 -1.493184e+000 -8.939099e-001 6.072009e-002 -7.083325e-001 -8.519469e-001 -5.900800e-001
<VARIANCE> 25
 8.150789e+001 2.655436e+001 3.400734e+001 3.121884e+001 3.220891e+001 6.053405e+001 4.795177e+001 5.294904e+001 4.064697e+001 2.598498e+001 3.375964e+001 2.895568e+001 7.653935e+000 2.949141e+000 2.633718e+000 3.240259e+000 3.759793e+000 4.292956e+000 3.823180e+000 4.779361e+000 3.758532e+000 2.851234e+000 3.131166e+000 2.521768e+000 6.776200e+000
<GCONST> 1.071559e+002
<TRANSP> 5
 0.000000e+000 1.000000e+000 0.000000e+000 0.000000e+000 0.000000e+000
 0.000000e+000 7.692935e-001 2.307066e-001 0.000000e+000 0.000000e+000
 0.000000e+000 0.000000e+000 6.727457e-001 3.272543e-001 0.000000e+000
 0.000000e+000 0.000000e+000 0.000000e+000 7.058465e-001 2.941535e-001
 0.000000e+000 0.000000e+000 0.000000e+000 0.000000e+000 0.000000e+000
<ENDHMM>
~h "t"
<BEGINHMM>
<NUMSTATES> 5
<STATE> 2
<MEAN> 25
 -9.246660e-001 -1.641812e+000 1.608538e+000 -2.134193e+000 7.640788e-001 -1.339812e+000 -3.974637e-001 -6.554810e-001 -1.433587e+000 -6.722905e-003 1.562861e+000 7.249044e-001 -3.202841e-001 -4.891239e-001 -1.436179e-001 -6.257581e-001 -1.745162e-002 -9.845565e-001 3.930639e-001 3.139333e-001 1.507645e-001 -1.720273e-001 5.873153e-001 4.037395e-003 1.467828e+000
<VARIANCE> 25
 6.177315e+001 4.038891e+001 5.166335e+001 6.185252e+001 4.305922e+001 8.803067e+001 5.812127e+001 4.919922e+001 5.445826e+001 5.638084e+001 5.531998e+001 3.059278e+001 6.400374e+000 4.350369e+000 4.362525e+000 6.093562e+000 4.758123e+000 7.663516e+000 5.939650e+000 5.538682e+000 6.975701e+000 5.362350e+000 6.318153e+000 3.349103e+000 1.295758e+001
<GCONST> 1.164329e+002
<STATE> 3
<MEAN> 25
 2.372731e+000 -2.691226e+000 1.350484e+000 -1.648308e+000 1.394959e+000 -7.161688e+000 3.772899e+000 -2.612188e-001 -1.792976e-001 4.740780e-001 2.478653e+000 4.559206e-001 5.954095e-001 3.872658e-001 6.374689e-002 7.252934e-001 -2.458044e-003 4.670208e-001 -2.315619e-002 -2.106860e-001 -1.071624e-001 1.358347e-002 -2.995903e-001 -1.541630e-001 -6.073863e-001
<VARIANCE> 25
 6.629638e+001 2.683173e+001 5.550814e+001 5.695804e+001 5.246940e+001 1.150358e+002 5.319036e+001 3.595623e+001 4.441582e+001 4.305098e+001 3.616072e+001 2.689467e+001 4.980939e+000 1.889423e+000 2.787854e+000 3.550534e+000 2.612020e+000 5.817229e+000 3.101509e+000 3.471340e+000 3.160170e+000 2.623350e+000 3.583921e+000 2.033000e+000 5.223372e+000
<GCONST> 1.075729e+002
<STATE> 4
<MEAN> 25
 -2.943953e+000 1.559430e+000 -6.471080e-001 2.782745e+000 -1.313367e+000 4.581936e+000 1.725323e+000 5.253369e-001 7.526644e-001 4.620503e-001 -4.968167e-001 -1.500713e+000 -4.272834e-003 1.909360e-002 -1.025409e-001 -1.052312e-001 -1.192361e-001 1.178310e-001 -6.835173e-002 -1.388099e-001 -1.850909e-001 9.625831e-003 6.196387e-002 -9.338491e-002 -1.290242e-001
<VARIANCE> 25
 4.403887e+001 2.092533e+001 2.963003e+001 3.306731e+001 3.137865e+001 1.036766e+002 3.530875e+001 2.522347e+001 2.733867e+001 2.518014e+001 3.398391e+001 2.434768e+001 9.468104e-001 7.401126e-001 1.334930e+000 1.258730e+000 1.404073e+000 1.729633e+000 1.793758e+000 1.860686e+000 1.820705e+000 1.406937e+000 1.709314e+000 1.480644e+000 8.169861e-001
<GCONST> 9.171528e+001
<TRANSP> 5
 0.000000e+000 1.000000e+000 0.000000e+000 0.000000e+000 0.000000e+000
 0.000000e+000 8.321922e-001 1.678078e-001 0.000000e+000 0.000000e+000
 0.000000e+000 0.000000e+000 7.751474e-001 2.248526e-001 0.000000e+000
 0.000000e+000 0.000000e+000 0.000000e+000 5.933517e-001 4.066483e-001
 0.000000e+000 0.000000e+000 0.000000e+000 0.000000e+000 0.000000e+000
<ENDHMM>
~h "v"
<BEGINHMM>
<NUMSTATES> 5
<STATE> 2
<MEAN> 25
 5.357351e-001 -1.819297e+000 1.107949e+000 5.833791e+000 4.187297e+000 -4.994221e+000 -1.386719e+000 1.242040e+000 1.413892e+000 -6.553577e-001 -2.873568e-001 9.491203e-001 -1.916670e+000 -6.925797e-002 1.633860e-001 8.031717e-002 5.607516e-001 6.008375e-001 -6.471273e-001 1.045802e+000 2.621516e-001 3.392781e-001 2.974363e-001 6.982414e-002 -5.222996e-001
<VARIANCE> 25
 8.609576e+001 1.999353e+001 4.218655e+001 4.424713e+001 3.626774e+001 7.433817e+001 3.310856e+001 4.034041e+001 3.046312e+001 2.366171e+001 3.095882e+001 2.082672e+001 4.880560e+000 2.068357e+000 3.502111e+000 2.711573e+000 4.044070e+000 4.880504e+000 3.345136e+000 3.674186e+000 3.018774e+000 2.620405e+000 2.613348e+000 1.948507e+000 2.979607e+000
<GCONST> 1.039176e+002
<STATE> 3
<MEAN> 25
 -3.577399e+000 -1.713644e+000 9.694597e-001 2.883352e+000 5.033090e+000 -1.369242e+000 -2.958186e-001 3.301914e+000 2.986112e+000 1.676910e+000 2.637424e+000 3.768916e-001 -1.644299e+000 -1.976103e-001 -1.884960e-001 -1.894811e-001 2.163402e-001 6.396512e-001 2.398562e-001 4.607100e-002 6.288453e-002 -3.439442e-001 3.856805e-002 9.771796e-002 -2.924083e-001
<VARIANCE> 25
 7.883485e+001 1.287963e+001 3.769289e+001 4.285352e+001 3.870622e+001 4.898716e+001 2.942785e+001 5.727287e+001 3.470372e+001 4.113000e+001 3.083081e+001 2.046623e+001 2.926501e+000 1.303784e+000 1.532567e+000 1.786333e+000 1.776841e+000 1.717700e+000 1.528455e+000 2.849603e+000 2.433111e+000 3.763894e+000 2.389352e+000 2.067428e+000 9.550586e-001
<GCONST> 9.764481e+001
<STATE> 4
<MEAN> 25
 -4.554996e+000 -2.457280e+000 8.292741e-001 2.833870e+000 3.602848e+000 -2.990628e-001 -4.258096e-001 1.692106e+000 8.824373e-001 -1.089690e+000 9.921619e-001 8.363598e-001 -7.098924e-001 -2.505347e-001 -6.134969e-002 -3.193127e-001 3.070895e-002 3.990805e-001 2.487791e-001 -3.778061e-001 -1.615803e-001 -8.893827e-001 5.123799e-002 1.826711e-001 -8.558003e-002
<VARIANCE> 25
 9.018400e+001 1.857912e+001 3.051155e+001 4.964359e+001 3.082986e+001 4.527034e+001 2.425241e+001 3.542640e+001 3.808611e+001 3.271929e+001 3.527375e+001 1.729297e+001 1.838403e+000 1.146087e+000 2.009713e+000 1.900080e+000 2.017071e+000 3.482364e+000 2.860778e+000 2.306594e+000 2.165786e+000 2.789875e+000 2.599816e+000 1.814806e+000 4.127689e-001
<GCONST> 9.661885e+001
<TRANSP> 5
 0.000000e+000 1.000000e+000 0.000000e+000 0.000000e+000 0.000000e+000
 0.000000e+000 6.492750e-001 3.507250e-001 0.000000e+000 0.000000e+000
 0.000000e+000 0.000000e+000 3.452516e-001 6.547484e-001 0.000000e+000
 0.000000e+000 0.000000e+000 0.000000e+000 6.167116e-002 9.383288e-001
 0.000000e+000 0.000000e+000 0.000000e+000 0.000000e+000 0.000000e+000
<ENDHMM>
~h "w"
<BEGINHMM>
<NUMSTATES> 5
<STATE> 2
<MEAN> 25
 1.042962e+001 -6.831421e-001 -3.517004e+000 -6.479065e+000 -1.406882e+000 -1.187958e+000 1.652021e+000 -5.087678e+000 -2.387684e+000 -4.976172e+000 7.555564e+000 -1.514954e+000 7.668592e-002 -3.296581e-001 -1.681495e-001 -2.463782e-001 -2.940769e-003 -4.478393e-001 -1.763359e-001 1.924705e-001 1.037604e-001 -2.586190e-001 5.567919e-001 -4.130758e-002 5.858546e-001
<VARIANCE> 25
 2.117559e+001 3.510537e+001 2.076712e+001 4.449553e+001 4.577649e+001 5.920322e+001 3.542003e+001 3.064857e+001 4.763887e+001 5.569700e+001 8.739775e+001 3.380433e+001 2.570088e+000 3.128829e+000 2.609497e+000 4.468535e+000 3.849144e+000 6.567157e+000 3.742048e+000 3.882965e+000 4.682925e+000 4.803071e+000 9.324517e+000 4.978159e+000 3.495466e+000
<GCONST> 1.088055e+002
<STATE> 3
<MEAN> 25
 1.000717e+001 -4.853671e+000 -6.722077e-001 3.012508e+000 -3.404180e+000 -1.003361e+001 2.047174e+000 -4.024857e+000 2.979783e-001 -4.627337e+000 -3.396119e-001 1.711194e+000 -2.627564e-001 9.594721e-002 5.859702e-001 4.654745e-001 -9.604175e-001 -2.594126e-001 7.510880e-001 4.475943e-001 2.135082e-001 -4.850866e-002 -5.381728e-001 3.468223e-001 -1.094819e-001
<VARIANCE> 25
 1.587768e+001 1.790006e+001 2.572384e+001 6.019404e+001 5.335875e+001 5.347524e+001 4.414216e+001 3.417168e+001 1.347814e+001 3.516439e+001 1.181485e+002 2.901530e+001 7.162833e-001 4.696648e-001 1.872048e+000 2.590750e+000 2.374999e+000 1.499203e+000 2.208330e+000 3.313123e+000 1.385230e+000 1.647507e+000 2.511242e+000 1.608428e+000 7.049574e-001
<GCONST> 9.413874e+001
<STATE> 4
<MEAN> 25
 7.841929e+000 -4.519589e+000 -9.407701e-001 -3.752876e+000 -1.424742e-001 -7.757989e+000 5.138688e+000 -3.134140e+000 3.799872e-001 -3.025249e+000 6.522067e+000 -1.274432e+000 -3.167271e-001 1.734255e-001 1.825558e-001 -1.125008e-001 2.223197e-001 -3.414665e-002 4.070113e-001 3.705303e-001 4.131982e-002 5.312470e-001 -3.663222e-001 -3.063139e-001 -1.639744e-001
<VARIANCE> 25
 1.547374e+001 3.350483e+001 3.044141e+001 3.412152e+001 5.422462e+001 9.743542e+001 3.206910e+001 7.628181e+001 1.935442e+001 6.133477e+001 5.826232e+001 2.558335e+001 3.762884e-001 4.289544e-001 1.087355e+000 1.494147e+000 9.821483e-001 7.001923e-001 1.673241e+000 1.541303e+000 2.005228e+000 1.922628e+000 1.879674e+000 8.425366e-001 5.334546e-001
<GCONST> 9.031962e+001
<TRANSP> 5
 0.000000e+000 1.000000e+000 0.000000e+000 0.000000e+000 0.000000e+000
 0.000000e+000 8.830626e-001 1.169374e-001 0.000000e+000 0.000000e+000
 0.000000e+000 0.000000e+000 6.279390e-001 3.720610e-001 0.000000e+000
 0.000000e+000 0.000000e+000 0.000000e+000 4.770501e-001 5.229499e-001
 0.000000e+000 0.000000e+000 0.000000e+000 0.000000e+000 0.000000e+000
<ENDHMM>
~h "y"
<BEGINHMM>
<NUMSTATES> 5
<STATE> 2
<MEAN> 25
 1.266368e+000 -3.481267e+000 1.063908e+001 3.746112e+000 -3.202303e+000 -7.309208e+000 5.170811e-001 -4.981028e-001 -5.741538e+000 -3.017083e+000 3.846989e+000 -1.513969e+000 1.324381e+000 3.574134e-001 1.041660e+000 9.968888e-001 -1.595954e+000 -1.825186e+000 -9.996950e-001 7.097557e-001 -1.270080e+000 -2.238511e+000 1.478922e+000 2.555780e-001 1.420061e+000
<VARIANCE> 25
 4.881733e+001 2.401861e+001 6.196959e+001 5.443938e+001 4.988205e+001 7.605564e+001 5.206758e+001 5.067854e+001 4.435928e+001 4.703059e+001 3.770672e+001 3.352642e+001 7.032649e+000 2.774853e+000 4.472923e+000 5.911372e+000 4.041554e+000 4.374819e+000 5.143310e+000 6.159566e+000 4.015637e+000 5.750105e+000 2.072305e+000 3.648369e+000 1.582888e+000
<GCONST> 1.102379e+002
<STATE> 3
<MEAN> 25
 7.460629e+000 -3.066246e+000 5.960475e+000 2.116601e+000 -6.623850e+000 -9.455779e+000 -3.002939e+000 -2.585846e-001 -6.516415e+000 -8.379559e+000 9.417686e+000 -8.673989e-001 6.328720e-001 1.778682e-003 -9.185718e-001 -3.391946e-001 2.395392e-001 6.320434e-001 1.105047e-002 -3.526004e-001 5.930960e-001 3.176095e-001 -3.239929e-001 5.825649e-002 -2.828966e-001
<VARIANCE> 25
 2.118934e+001 3.712976e+001 5.546046e+001 3.890038e+001 3.664943e+001 7.989483e+001 4.401715e+001 4.958115e+001 3.686077e+001 3.764848e+001 3.293422e+001 1.987280e+001 9.948905e-001 1.139125e+000 3.222795e+000 2.828736e+000 3.791839e+000 4.732800e+000 4.423588e+000 4.698640e+000 4.030611e+000 4.247905e+000 4.117462e+000 2.274421e+000 1.459299e+000
<GCONST> 1.033932e+002
<STATE> 4
<MEAN> 25
 8.029722e+000 -2.403321e+000 2.083985e+000 2.321166e+000 -3.048164e+000 -5.062222e+000 -7.853526e-001 -2.350834e+000 -2.749308e+000 -3.507714e+000 3.509709e+000 -1.557130e-001 2.618694e-001 -1.334601e-001 -5.506747e-001 1.155317e-001 1.235289e+000 2.921031e-001 -1.674408e-001 2.637850e-002 2.972586e-001 5.353319e-001 -1.480301e+000 4.623112e-001 -9.048954e-001
<VARIANCE> 25
 4.719882e+001 3.764663e+001 3.179456e+001 3.281350e+001 2.531014e+001 1.054192e+002 4.084758e+001 4.665935e+001 5.580045e+001 4.159341e+001 4.389996e+001 1.892650e+001 5.956900e-001 9.494318e-001 2.344119e+000 3.324036e+000 2.208114e+000 3.073034e+000 2.004690e+000 3.064458e+000 3.362604e+000 1.972453e+000 3.802894e+000 1.705746e+000 2.203444e+000
<GCONST> 1.000589e+002
<TRANSP> 5
 0.000000e+000 1.000000e+000 0.000000e+000 0.000000e+000 0.000000e+000
 0.000000e+000 6.440625e-001 3.559375e-001 0.000000e+000 0.000000e+000
 0.000000e+000 0.000000e+000 8.425823e-001 1.574177e-001 0.000000e+000
 0.000000e+000 0.000000e+000 0.000000e+000 1.397922e-001 8.602079e-001
 0.000000e+000 0.000000e+000 0.000000e+000 0.000000e+000 0.000000e+000
<ENDHMM>
~h "z"
<BEGINHMM>
<NUMSTATES> 5
<STATE> 2
<MEAN> 25
 -8.819276e+000 7.373240e+000 5.596712e+000 -1.633834e+000 9.327401e+000 -5.215071e+000 -8.182262e-001 2.938525e+000 -1.268492e+000 -2.116579e+000 -7.045290e-001 -5.705410e-001 -2.733128e+000 7.096866e-001 3.208568e-001 -3.186688e-001 8.783830e-001 6.268141e-001 6.392810e-001 1.215967e+000 5.589746e-001 -1.652995e-001 1.396527e-001 1.103293e+000 1.201898e-001
<VARIANCE> 25
 6.960567e+001 3.766776e+001 5.194218e+001 3.372267e+001 5.087546e+001 4.168449e+001 3.670667e+001 3.809163e+001 3.168346e+001 2.952129e+001 3.141944e+001 2.999699e+001 6.789913e+000 5.125360e+000 2.258959e+000 3.114175e+000 4.730690e+000 5.261302e+000 2.251677e+000 3.129140e+000 3.324492e+000 3.456762e+000 2.935471e+000 2.503633e+000 1.684888e+000
<GCONST> 1.055041e+002
<STATE> 3
<MEAN> 25
 -1.574628e+001 4.490448e+000 3.184216e+000 -1.682056e+000 8.927872e+000 -2.349281e+000 1.962093e+000 7.329595e+000 1.492379e+000 -1.002838e+000 2.663447e-002 3.139655e+000 1.269886e+000 -8.235620e-001 7.557760e-002 4.811483e-001 -1.000071e+000 -4.219974e-001 -5.192364e-001 -7.279667e-001 -3.693461e-001 3.867064e-001 -3.793174e-001 -1.593209e-001 -1.379231e+000
<VARIANCE> 25
 4.134419e+001 2.090270e+001 2.899407e+001 2.754534e+001 4.012563e+001 6.296646e+001 4.500801e+001 5.032930e+001 3.132366e+001 3.575492e+001 3.304259e+001 2.214395e+001 3.202216e+000 2.219632e+000 1.315236e+000 1.590793e+000 3.068280e+000 3.590588e+000 3.625715e+000 3.130219e+000 3.760986e+000 3.341491e+000 3.381160e+000 2.076381e+000 3.601120e+000
<GCONST> 1.018573e+002
<STATE> 4
<MEAN> 25
 -5.177821e+000 1.645655e+000 2.108681e+000 2.732891e-001 1.672009e+000 -1.610699e+000 -8.382887e-001 1.235843e+000 -7.177536e-001 2.142689e+000 -2.678184e+000 1.322558e+000 1.840002e+000 -4.948859e-001 -3.445981e-001 4.920484e-001 -1.213950e+000 2.282703e-001 -1.055992e-001 -7.382340e-001 2.336075e-004 4.556311e-001 2.346858e-001 -8.862517e-001 -7.429612e-001
<VARIANCE> 25
 3.652163e+001 2.785865e+001 3.926418e+001 2.887864e+001 3.036116e+001 1.081077e+002 3.708801e+001 2.927472e+001 5.802485e+001 4.421588e+001 5.292020e+001 2.748226e+001 2.776602e+000 2.625186e+000 2.396569e+000 2.383643e+000 3.529639e+000 2.826718e+000 2.926404e+000 3.495574e+000 3.639808e+000 3.427722e+000 4.272609e+000 1.275798e+000 2.365078e+000
<GCONST> 1.035591e+002
<TRANSP> 5
 0.000000e+000 1.000000e+000 0.000000e+000 0.000000e+000 0.000000e+000
 0.000000e+000 8.146265e-001 1.853734e-001 0.000000e+000 0.000000e+000
 0.000000e+000 0.000000e+000 8.052911e-001 1.947089e-001 0.000000e+000
 0.000000e+000 0.000000e+000 0.000000e+000 1.575038e-001 8.424962e-001
 0.000000e+000 0.000000e+000 0.000000e+000 0.000000e+000 0.000000e+000
<ENDHMM>
~h "aa"
<BEGINHMM>
<NUMSTATES> 5
<STATE> 2
<MEAN> 25
 3.178333e+000 -2.859698e+000 -5.356800e+000 -8.749784e+000 -1.629452e-001 1.539838e+000 6.885817e+000 -2.904480e+000 -1.912719e+000 -1.437669e+000 5.546061e+000 -1.799181e+000 1.193196e+000 -5.494398e-001 -1.040736e+000 -1.640098e+000 -7.822428e-001 -7.225812e-002 7.654414e-001 -1.380180e+000 -4.721039e-001 -6.023143e-001 4.275226e-001 -4.728376e-001 1.312530e+000
<VARIANCE> 25
 4.976148e+001 2.993747e+001 2.617599e+001 5.774031e+001 5.388337e+001 7.190375e+001 2.901186e+001 4.609291e+001 2.624065e+001 4.445299e+001 5.571237e+001 2.445325e+001 4.564415e+000 2.453275e+000 1.619830e+000 3.413342e+000 3.563891e+000 3.962374e+000 1.864310e+000 5.776452e+000 3.186408e+000 3.941410e+000 3.930352e+000 2.624265e+000 2.152926e+000
<GCONST> 1.050942e+002
<STATE> 3
<MEAN> 25
 6.854019e+000 -3.187576e+000 -9.523995e+000 -1.334122e+001 2.025020e+000 -1.464166e-001 1.064305e+001 -5.528002e+000 -4.654078e+000 1.063941e-001 6.405946e+000 -5.266601e+000 7.228389e-002 2.399199e-001 1.383382e-003 3.426200e-001 1.649120e-001 1.779510e-001 -1.240457e-001 -1.705233e-002 -8.328721e-002 1.284517e-001 -5.884301e-001 5.290180e-002 -6.966936e-001
<VARIANCE> 25
 1.329871e+001 1.489695e+001 1.721480e+001 2.222643e+001 3.689840e+001 5.472434e+001 3.620955e+001 3.140941e+001 2.416750e+001 2.757276e+001 5.940100e+001 2.579144e+001 5.621235e-001 9.162285e-001 7.673783e-001 9.654992e-001 1.276871e+000 2.715303e+000 2.251289e+000 1.546084e+000 1.427959e+000 1.521117e+000 1.492835e+000 1.713191e+000 1.430668e+000
<GCONST> 8.926590e+001
<STATE> 4
<MEAN> 25
 4.541019e+000 -7.153591e-001 -5.187666e+000 -4.175121e+000 3.988878e+000 4.622559e+000 3.397554e+000 -2.033293e+000 -2.654145e+000 3.092757e+000 -8.317456e-001 -2.799584e+000 -6.194250e-001 3.154548e-001 8.882561e-001 1.379556e+000 5.106353e-001 5.166669e-001 -1.062707e+000 2.937579e-001 2.279994e-001 2.000770e-001 -7.103552e-001 9.163730e-001 -1.820572e+000
<VARIANCE> 25
 4.233398e+001 1.835634e+001 2.315648e+001 4.298767e+001 2.879510e+001 1.445282e+002 3.595913e+001 2.665547e+001 2.113630e+001 4.439869e+001 6.126514e+001 2.394096e+001 3.443425e+000 1.386408e+000 1.723043e+000 1.789658e+000 2.555894e+000 6.746148e+000 2.166984e+000 2.679105e+000 1.805425e+000 4.069187e+000 4.211714e+000 2.340868e+000 2.733787e+000
<GCONST> 1.014236e+002
<TRANSP> 5
 0.000000e+000 1.000000e+000 0.000000e+000 0.000000e+000 0.000000e+000
 0.000000e+000 5.250366e-001 4.749633e-001 0.000000e+000 0.000000e+000
 0.000000e+000 0.000000e+000 7.725684e-001 2.274316e-001 0.000000e+000
 0.000000e+000 0.000000e+000 0.000000e+000 7.679234e-001 2.320765e-001
 0.000000e+000 0.000000e+000 0.000000e+000 0.000000e+000 0.000000e+000
<ENDHMM>
~h "ae"
<BEGINHMM>
<NUMSTATES> 5
<STATE> 2
<MEAN> 25
 3.336002e+000 -4.539189e+000 -2.602468e+000 -2.611064e+000 1.429834e+000 -6.409627e+000 2.041518e+000 2.232753e+000 2.078287e+000 4.277522e-001 3.533333e+000 -1.692190e+000 1.464668e+000 -2.002657e+000 -6.955540e-001 -8.863080e-001 2.341764e-001 -2.619473e+000 1.250506e+000 6.380439e-001 -4.202665e-001 -7.004205e-002 5.999177e-001 -1.079462e+000 3.673940e+000
<VARIANCE> 25
 6.208023e+001 4.700563e+001 3.397941e+001 3.224922e+001 2.423813e+001 1.043826e+002 5.808726e+001 3.525829e+001 4.236821e+001 3.044778e+001 4.224516e+001 4.499110e+001 6.351711e+000 4.216108e+000 2.527693e+000 2.754539e+000 2.182744e+000 6.537271e+000 4.452165e+000 4.534051e+000 4.939114e+000 3.253841e+000 5.224082e+000 4.064178e+000 1.114322e+001
<GCONST> 1.102325e+002
<STATE> 3
<MEAN> 25
 4.685142e+000 -9.029222e+000 -5.063322e+000 -4.192228e+000 2.258871e+000 -1.216263e+001 5.575676e+000 4.059006e+000 7.102565e-001 -1.430343e-001 2.301805e+000 -4.467875e+000 1.520413e-001 -1.392977e-001 6.053682e-002 -3.771349e-002 2.356185e-001 2.506095e-002 -4.700673e-002 -2.496958e-001 -1.000976e-001 -3.184423e-001 -4.045186e-001 1.216761e-001 3.485256e-001
<VARIANCE> 25
 2.011957e+001 1.027523e+001 1.583759e+001 2.104400e+001 2.484573e+001 5.795608e+001 3.965187e+001 1.236813e+001 3.337416e+001 1.737498e+001 2.430265e+001 2.713337e+001 7.423035e-001 8.533571e-001 9.597409e-001 1.372762e+000 1.104176e+000 1.705707e+000 1.912439e+000 9.342437e-001 1.512013e+000 1.122593e+000 1.363210e+000 1.974601e+000 2.590562e+000
<GCONST> 8.691292e+001
<STATE> 4
<MEAN> 25
 7.974588e+000 -7.499629e+000 -3.037492e+000 -9.222925e-001 4.639831e+000 -1.145794e+001 3.375934e+000 2.734165e+000 8.497692e-001 3.403355e-001 -7.698010e-001 -1.898412e+000 1.099511e-001 7.155272e-001 5.578794e-001 7.999489e-001 4.531693e-001 9.255628e-001 -8.066345e-001 -5.030599e-001 -2.444437e-001 1.150225e-001 -7.775630e-001 5.692875e-001 -1.783523e+000
<VARIANCE> 25
 2.341263e+001 1.372231e+001 2.495071e+001 4.055724e+001 3.536567e+001 6.650243e+001 5.435149e+001 1.571951e+001 4.417700e+001 3.586664e+001 4.649351e+001 2.817107e+001 1.581431e+000 8.459389e-001 1.706194e+000 2.018458e+000 1.847474e+000 2.361719e+000 3.392624e+000 1.670063e+000 2.404807e+000 2.548292e+000 2.558184e+000 1.868455e+000 2.160127e+000
<GCONST> 9.658058e+001
<TRANSP> 5
 0.000000e+000 1.000000e+000 0.000000e+000 0.000000e+000 0.000000e+000
 0.000000e+000 6.921497e-001 3.078503e-001 0.000000e+000 0.000000e+000
 0.000000e+000 0.000000e+000 4.922512e-001 5.077488e-001 0.000000e+000
 0.000000e+000 0.000000e+000 0.000000e+000 7.834117e-001 2.165882e-001
 0.000000e+000 0.000000e+000 0.000000e+000 0.000000e+000 0.000000e+000
<ENDHMM>
~h "ah"
<BEGINHMM>
<NUMSTATES> 5
<STATE> 2
<MEAN> 25
 5.470804e+000 -5.151710e+000 -1.236453e+000 -1.238205e+000 7.773736e-001 -7.142574e+000 2.016261e+000 5.504424e-001 -4.841120e-001 -6.907797e-001 1.911222e+000 -1.065563e+000 3.698612e-001 -1.952830e-001 -1.279526e-001 -1.164840e-001 6.383441e-002 -2.212095e-001 -7.091915e-002 -1.323507e-001 -5.139364e-002 9.696052e-002 -5.951433e-002 -2.797515e-001 3.223958e-001
<VARIANCE> 25
 7.171116e+001 3.717162e+001 4.074241e+001 4.975684e+001 3.589029e+001 8.064103e+001 4.709586e+001 4.455085e+001 4.528814e+001 3.922452e+001 6.027812e+001 4.555149e+001 4.151192e+000 2.860515e+000 2.409581e+000 4.020691e+000 2.865499e+000 5.155857e+000 4.343054e+000 3.792923e+000 3.118662e+000 3.030640e+000 5.547209e+000 3.419641e+000 6.937244e+000
<GCONST> 1.098348e+002
<STATE> 3
<MEAN> 25
 8.742146e+000 -2.797680e+000 -1.163368e+000 -1.699634e+000 4.965197e-001 -6.118975e+000 -8.204851e-002 -3.239668e+000 -1.728387e+000 -8.632516e-001 6.118549e-001 -7.985142e-001 6.062234e-002 7.334437e-001 4.042681e-002 4.202101e-001 2.891180e-001 1.049168e+000 -8.068152e-002 -2.823408e-001 -3.675030e-001 6.058686e-001 -4.952792e-001 5.419163e-001 -1.263965e+000
<VARIANCE> 25
 2.421159e+001 4.930592e+001 2.902570e+001 5.371625e+001 3.528429e+001 7.519582e+001 5.829267e+001 4.444957e+001 4.257616e+001 6.122865e+001 6.897417e+001 3.994530e+001 1.721731e+000 1.614698e+000 2.080629e+000 3.889147e+000 2.806921e+000 3.440628e+000 3.733683e+000 4.081007e+000 3.609209e+000 3.597384e+000 4.522847e+000 2.948227e+000 3.194807e+000
<GCONST> 1.063346e+002
<STATE> 4
<MEAN> 25
 5.255929e+000 -9.508575e-001 -1.546399e+000 -7.289675e-002 2.357056e+000 4.350692e-001 1.639519e+000 -2.217909e+000 -1.193714e+000 2.197940e+000 -1.074167e+000 6.483288e-001 -3.279245e-001 4.781906e-001 1.031561e-001 2.132628e-001 -3.722144e-002 5.642599e-001 4.093523e-002 -6.567425e-002 -1.602744e-001 2.714736e-002 -3.569211e-001 1.632108e-001 -9.058689e-001
<VARIANCE> 25
 5.793397e+001 3.233737e+001 2.720521e+001 8.093709e+001 2.816557e+001 1.039582e+002 6.657420e+001 5.180684e+001 5.292269e+001 2.915294e+001 6.635181e+001 3.215879e+001 1.106914e+000 1.218400e+000 1.253105e+000 1.967834e+000 1.600481e+000 2.278369e+000 2.589745e+000 2.935848e+000 2.711790e+000 2.440195e+000 2.513508e+000 2.173800e+000 1.286090e+000
<GCONST> 1.006779e+002
<TRANSP> 5
 0.000000e+000 1.000000e+000 0.000000e+000 0.000000e+000 0.000000e+000
 0.000000e+000 8.444725e-001 1.555276e-001 0.000000e+000 0.000000e+000
 0.000000e+000 0.000000e+000 6.145239e-001 3.854761e-001 0.000000e+000
 0.000000e+000 0.000000e+000 0.000000e+000 7.658436e-001 2.341564e-001
 0.000000e+000 0.000000e+000 0.000000e+000 0.000000e+000 0.000000e+000
<ENDHMM>
~h "ao"
<BEGINHMM>
<NUMSTATES> 5
<STATE> 2
<MEAN> 25
 5.017110e+000 -7.048404e-001 -4.884821e+000 -9.758642e+000 -1.777237e+000 3.858416e+000 9.638207e+000 2.835861e-001 -1.725001e+000 -2.019512e+000 4.185966e+000 2.291484e+000 3.936146e+000 1.176078e+000 -8.771684e-001 -2.284527e+000 -2.722924e+000 -1.655143e-001 2.240909e+000 -1.097317e+000 -5.877896e-001 -2.298118e+000 1.118241e+000 -6.700289e-003 2.781628e+000
<VARIANCE> 25
 6.061256e+001 3.481941e+001 1.529812e+001 3.957785e+001 3.972631e+001 2.475535e+001 4.009505e+001 3.207020e+001 3.544413e+001 4.580773e+001 2.894796e+001 1.892137e+001 6.116888e+000 6.275487e+000 1.219079e+000 1.749658e+000 5.493429e+000 1.681764e+000 3.898827e+000 2.917069e+000 4.840047e+000 5.291689e+000 4.775376e+000 2.821344e+000 4.767960e+000
<GCONST> 1.042216e+002
<STATE> 3
<MEAN> 25
 9.509196e+000 -1.064269e+000 -7.317373e+000 -1.766198e+001 -8.203798e+000 5.527797e+000 1.315172e+001 -4.124148e+000 -3.065615e+000 -5.974062e+000 6.443009e+000 1.998098e+000 -1.512798e-001 -3.872247e-001 3.786885e-002 -5.512792e-001 -7.586564e-001 -1.455476e-001 8.350945e-002 -5.236485e-001 1.000480e-001 -9.540253e-002 4.734230e-002 1.578678e-001 8.967782e-001
<VARIANCE> 25
 8.752954e+000 1.767012e+001 6.485249e+000 1.980739e+001 5.525740e+001 4.228970e+001 1.249695e+001 1.532661e+001 2.056609e+001 4.920922e+001 3.078036e+001 2.104895e+001 6.324203e-001 1.072587e+000 9.167827e-001 1.331158e+000 2.467144e+000 1.079323e+000 8.647698e-001 1.440470e+000 1.021945e+000 2.245122e+000 2.913949e+000 1.664860e+000 7.549571e-001
<GCONST> 8.538758e+001
<STATE> 4
<MEAN> 25
 1.115997e+001 1.266805e+000 -6.786830e+000 -1.608803e+001 -1.217391e+001 1.377040e+000 1.360393e+001 -4.192092e+000 3.914757e-003 -9.777958e+000 8.807724e+000 3.026463e+000 -5.447173e-002 -7.882933e-002 1.089170e-001 6.331801e-002 2.262094e-001 -2.171499e-001 -1.883338e-001 -4.272498e-001 8.106212e-002 3.044655e-001 -2.394118e-001 1.346577e-001 6.089184e-003
<VARIANCE> 25
 6.774541e+000 1.807105e+001 7.091270e+000 2.510482e+001 5.476510e+001 1.863758e+001 2.154641e+001 2.518757e+001 4.121101e+001 5.792882e+001 2.247903e+001 1.612288e+001 1.724041e-001 6.229982e-001 3.826036e-001 9.973068e-001 1.602497e+000 1.322469e+000 1.492961e+000 9.497341e-001 1.486136e+000 1.964944e+000 1.708893e+000 1.130569e+000 2.739605e-001
<GCONST> 8.117298e+001
<TRANSP> 5
 0.000000e+000 1.000000e+000 0.000000e+000 0.000000e+000 0.000000e+000
 0.000000e+000 6.265039e-001 3.734961e-001 0.000000e+000 0.000000e+000
 0.000000e+000 0.000000e+000 5.768058e-001 4.231942e-001 0.000000e+000
 0.000000e+000 0.000000e+000 0.000000e+000 7.987819e-001 2.012181e-001
 0.000000e+000 0.000000e+000 0.000000e+000 0.000000e+000 0.000000e+000
<ENDHMM>
~h "aw"
<BEGINHMM>
<NUMSTATES> 5
<STATE> 2
<MEAN> 25
 6.998297e+000 -6.306396e+000 -7.871353e+000 -1.088044e+001 -1.381329e+000 -4.599568e-001 1.066155e+001 -3.032821e+000 3.699796e-001 -2.415666e+000 1.308506e+001 -4.135754e+000 -1.924560e-002 5.411270e-001 -2.757430e-002 -1.306701e-001 2.702509e-001 7.538837e-002 1.413716e-001 -4.039611e-002 -1.197461e+000 4.435871e-001 -7.729424e-001 1.495517e-001 -1.332912e-001
<VARIANCE> 25
 7.088532e+000 5.970456e+000 9.654929e+000 3.397255e+001 1.767567e+001 2.369870e+001 3.286302e+001 4.320326e+001 3.335934e+001 2.853584e+001 3.508989e+001 1.551494e+001 3.227810e-001 3.820707e-001 7.203726e-001 1.191628e+000 7.371955e-001 1.081140e+000 2.203767e+000 2.707592e+000 1.277865e+000 1.550919e+000 1.556181e+000 1.013386e+000 6.228349e-001
<GCONST> 8.191918e+001
<STATE> 3
<MEAN> 25
 1.039120e+001 -3.748105e+000 -6.189438e+000 -5.789117e+000 1.393201e+000 -1.839442e+000 4.902244e+000 -7.241050e+000 -5.592156e+000 9.054022e-001 6.493140e+000 7.640801e-001 3.181426e-001 1.943116e-001 6.356095e-001 1.633604e+000 2.144770e-001 -4.381051e-002 -1.051853e+000 -1.028628e+000 -8.844124e-001 1.040879e+000 -1.534649e+000 2.473971e-001 -1.648282e+000
<VARIANCE> 25
 6.386182e+000 1.160990e+001 1.342603e+001 6.217715e+001 1.698755e+001 9.503237e+001 4.143343e+001 3.889196e+001 3.045283e+001 5.779566e+001 5.090656e+001 2.094559e+001 7.114567e-001 1.109953e+000 1.470164e+000 2.091826e+000 1.443493e+000 5.500521e+000 4.174631e+000 4.332320e+000 1.581353e+000 2.719753e+000 2.884342e+000 2.044894e+000 8.203024e-001
<GCONST> 9.508640e+001
<STATE> 4
<MEAN> 25
 9.661778e+000 -6.031494e-001 -1.047037e+000 1.156723e+000 2.009214e+000 -1.898196e+000 1.677368e+000 -5.610749e+000 -4.501567e+000 3.866084e+000 1.534217e+000 2.447917e+000 -1.107477e+000 8.476952e-001 1.918356e+000 6.890181e-001 6.144212e-001 5.794465e-001 -3.089204e-001 8.925913e-001 3.147284e-001 -1.267045e+000 -7.346164e-001 6.607211e-001 -1.441818e+000
<VARIANCE> 25
 1.239357e+001 2.330984e+001 4.230115e+001 8.161997e+001 2.337889e+001 1.079557e+002 4.278629e+001 9.508907e+001 3.259626e+001 3.652537e+001 2.168654e+001 4.102800e+001 1.049955e+000 2.421132e+000 2.220168e+000 1.946265e+000 2.274607e+000 6.969851e+000 3.695089e+000 5.787084e+000 2.928189e+000 3.009220e+000 2.706931e+000 1.322850e+000 2.322221e+000
<GCONST> 1.022943e+002
<TRANSP> 5
 0.000000e+000 1.000000e+000 0.000000e+000 0.000000e+000 0.000000e+000
 0.000000e+000 7.151200e-001 2.848800e-001 0.000000e+000 0.000000e+000
 0.000000e+000 0.000000e+000 7.036524e-001 2.963476e-001 0.000000e+000
 0.000000e+000 0.000000e+000 0.000000e+000 1.875936e-001 8.124064e-001
 0.000000e+000 0.000000e+000 0.000000e+000 0.000000e+000 0.000000e+000
<ENDHMM>
~h "ay"
<BEGINHMM>
<NUMSTATES> 5
<STATE> 2
<MEAN> 25
 7.299120e+000 -6.910168e+000 -5.332708e+000 -1.595838e+000 -1.986988e-001 -7.386973e+000 7.856126e+000 -9.046496e-001 -4.051548e-001 1.001393e+000 6.072487e-001 -3.838040e+000 7.126536e-001 -3.942875e-001 -4.608164e-001 -3.326427e-001 -4.199176e-001 -7.804963e-001 7.163390e-001 -4.129081e-001 5.709069e-001 3.443585e-002 2.617627e-001 -1.705313e-001 1.066360e+000
<VARIANCE> 25
 2.250860e+001 2.827827e+001 2.861428e+001 7.639963e+001 5.028248e+001 6.043710e+001 7.840844e+001 3.728497e+001 4.060052e+001 3.254653e+001 2.660767e+001 1.617199e+001 4.143361e+000 2.260970e+000 2.181690e+000 4.209682e+000 3.620143e+000 1.849669e+000 5.154562e+000 3.716762e+000 2.929441e+000 2.896736e+000 1.673429e+000 1.769807e+000 2.605150e+000
<GCONST> 1.028342e+002
<STATE> 3
<MEAN> 25
 7.675713e+000 -7.918511e+000 -1.653945e+000 1.464813e+000 -2.057983e+000 -1.073476e+001 2.543347e+000 4.343865e-001 5.006762e-001 2.295954e-001 -1.414288e-001 -1.899264e+000 1.653054e-001 3.918483e-001 3.857220e-002 3.878338e-001 5.978924e-002 9.646505e-001 -8.496707e-001 -2.072632e-001 -1.211135e-001 4.522810e-001 -4.983228e-001 1.203417e-001 -1.568512e+000
<VARIANCE> 25
 1.790809e+001 1.730115e+001 2.143349e+001 5.119579e+001 4.739309e+001 4.624665e+001 4.379185e+001 2.296811e+001 2.531507e+001 2.892477e+001 5.116405e+001 1.859959e+001 1.090515e+000 1.368047e+000 1.616262e+000 3.768734e+000 2.920670e+000 2.989191e+000 2.708493e+000 1.949833e+000 2.390043e+000 2.075718e+000 4.161300e+000 1.523608e+000 3.217049e+000
<GCONST> 9.739869e+001
<STATE> 4
<MEAN> 25
 6.895086e+000 -9.788777e+000 -4.517633e+000 -5.678029e+000 8.981391e-003 -6.798180e+000 3.343660e+000 4.959552e-001 3.955317e+000 3.720729e-001 2.143907e+000 -5.364687e+000 3.920025e-002 3.640560e-001 2.990388e-001 3.394135e-001 -4.842279e-002 1.647292e-002 -5.394873e-001 1.449158e-001 -1.817693e-001 -2.851906e-001 1.330952e-001 1.981959e-001 -4.990507e-001
<VARIANCE> 25
 1.104432e+001 3.341026e+001 2.338449e+001 4.471974e+001 3.669994e+001 3.765867e+001 4.431180e+001 2.497387e+001 2.368076e+001 2.484414e+001 4.242868e+001 1.786012e+001 5.028784e-001 7.696105e-001 1.035446e+000 1.309624e+000 1.513621e+000 1.701429e+000 1.973558e+000 1.680507e+000 1.355602e+000 1.325537e+000 1.826239e+000 9.894608e-001 5.619324e-001
<GCONST> 8.815984e+001
<TRANSP> 5
 0.000000e+000 1.000000e+000 0.000000e+000 0.000000e+000 0.000000e+000
 0.000000e+000 7.229998e-001 2.770002e-001 0.000000e+000 0.000000e+000
 0.000000e+000 0.000000e+000 7.855070e-001 2.144930e-001 0.000000e+000
 0.000000e+000 0.000000e+000 0.000000e+000 7.331801e-001 2.668199e-001
 0.000000e+000 0.000000e+000 0.000000e+000 0.000000e+000 0.000000e+000
<ENDHMM>
~h "ch"
<BEGINHMM>
<NUMSTATES> 5
<STATE> 2
<MEAN> 25
 -1.649974e+000 -2.054492e+000 -2.013974e+000 -2.575010e-001 4.635876e+000 8.024910e-001 -7.981758e-001 3.551855e+000 2.166019e+000 -2.764886e+000 2.209819e+000 2.213235e+000 -4.360437e-001 -1.567696e-001 4.394642e-001 -6.688684e-001 5.467622e-001 2.021338e+000 6.072206e-001 -4.532923e-001 -8.740592e-001 -4.766163e-001 -1.007222e-001 -6.366260e-002 -8.088526e-001
<VARIANCE> 25
 4.851584e+001 3.046124e+001 1.429037e+001 5.085509e+001 1.252572e+001 7.283131e+001 3.432970e+001 2.044315e+001 1.625687e+001 7.066116e+000 3.154793e+001 3.893340e+001 1.056428e+001 5.145671e-001 2.016167e+000 1.971536e+000 2.107464e+000 1.164889e+000 1.331693e+000 1.607377e+000 3.634843e+000 1.714909e+000 7.084616e-001 1.978144e+000 1.682092e+000
<GCONST> 9.248030e+001
<STATE> 3
<MEAN> 25
 -6.808609e+000 -1.103307e+000 5.282962e+000 -5.892081e+000 4.575205e+000 6.054455e+000 -4.785756e-003 4.070984e+000 1.771951e-001 -4.459891e-001 4.103836e+000 -4.037795e-001 -2.520142e+000 -1.757764e-001 2.044709e+000 -5.946292e-001 -1.510120e+000 8.832816e-001 7.436144e-001 -1.293859e+000 -8.878472e-001 -2.828216e-001 1.246062e+000 7.553391e-001 1.371356e+000
<VARIANCE> 25
 5.500898e+001 2.247363e+001 4.077143e+001 3.067853e+001 2.145339e+001 3.983552e+001 3.358346e+001 1.838468e+001 2.500659e+001 1.788647e+001 2.908290e+001 2.091763e+001 1.019735e+001 5.280921e-001 3.302298e+000 1.992689e+000 8.889492e-001 3.660316e+000 1.143922e+000 2.170138e+000 2.011274e+000 1.694209e+000 2.440524e+000 3.066089e+000 2.090289e+000
<GCONST> 9.552117e+001
<STATE> 4
<MEAN> 25
 -1.431309e+001 -3.104279e+000 1.189889e+001 -4.344784e+000 -4.683537e+000 2.868101e+000 4.221773e+000 5.649063e-001 -5.681660e-001 -4.445617e-001 7.742666e+000 3.732732e+000 1.408634e+000 -2.063590e-001 5.335380e-002 1.412057e+000 -1.194358e+000 -1.679116e+000 4.404271e-001 -3.202616e-001 -3.919890e-001 -5.176131e-001 -5.335678e-001 2.291505e-001 1.276877e-001
<VARIANCE> 25
 8.216057e+001 1.112129e+001 5.134290e+001 2.811574e+001 1.667289e+001 5.150529e+001 2.180854e+001 1.481869e+001 2.030486e+001 1.787891e+001 2.525055e+001 1.327237e+001 7.491944e+000 1.065394e+000 3.030071e+000 2.576314e+000 1.048348e+000 4.311827e+000 1.993608e+000 2.205827e+000 3.511426e+000 4.488743e+000 2.135582e+000 2.083170e+000 1.421061e+000
<GCONST> 9.600537e+001
<TRANSP> 5
 0.000000e+000 1.000000e+000 0.000000e+000 0.000000e+000 0.000000e+000
 0.000000e+000 1.121932e-003 9.988780e-001 0.000000e+000 0.000000e+000
 0.000000e+000 0.000000e+000 5.930002e-001 4.069998e-001 0.000000e+000
 0.000000e+000 0.000000e+000 0.000000e+000 7.277728e-001 2.722272e-001
 0.000000e+000 0.000000e+000 0.000000e+000 0.000000e+000 0.000000e+000
<ENDHMM>
~h "dh"
<BEGINHMM>
<NUMSTATES> 5
<STATE> 2
<MEAN> 25
 -5.743222e-002 -3.691893e-002 -1.020150e-001 9.834189e-001 2.766934e+000 -4.579943e+000 5.892314e-001 -4.408776e+000 -2.799644e+000 5.298121e-001 5.290760e+000 -3.920510e+000 2.063987e+000 -1.780001e+000 -4.540639e-001 -8.386022e-001 -1.312736e+000 -1.086409e+000 2.151285e-001 -1.505505e+000 9.734604e-001 2.390749e-001 7.328411e-001 -1.267322e+000 1.571589e+000
<VARIANCE> 25
 2.556921e+001 1.559299e+001 5.105228e+000 1.769003e+001 1.526191e+001 3.419755e+001 8.855873e+000 3.602218e+001 1.845764e+001 1.190415e+001 3.216198e+001 1.772261e+001 3.094470e+000 2.108539e+000 1.089061e+000 1.323884e+000 1.931487e+000 2.625230e+000 1.270403e+000 2.628367e+000 2.407894e+000 1.951978e+000 1.531031e+000 1.614002e+000 1.616299e+000
<GCONST> 8.820217e+001
<STATE> 3
<MEAN> 25
 3.880480e+000 -2.927450e+000 -2.108040e+000 2.043889e-001 1.841714e+000 -7.492285e+000 1.682588e+000 -4.435378e+000 2.163017e+000 1.797254e-001 4.371662e+000 -6.662914e+000 7.708078e-001 -3.554605e-001 -5.506114e-001 -3.226979e-001 3.310611e-001 1.083783e-002 2.661244e-001 -1.073536e-001 4.485001e-001 -8.665689e-001 -1.515368e-001 5.219351e-001 -5.105637e-002
<VARIANCE> 25
 1.778452e+001 2.099327e+001 7.353319e+000 1.726309e+001 1.125264e+001 6.260044e+001 1.636656e+001 3.074606e+001 3.093471e+001 1.173602e+001 4.083339e+001 8.682810e+000 1.268835e+000 9.478893e-001 4.606289e-001 1.796682e+000 5.549186e-001 1.706135e+000 8.623094e-001 8.618639e-001 1.528537e+000 7.524420e-001 5.653534e-001 9.381558e-001 7.933304e-001
<GCONST> 8.017503e+001
<STATE> 4
<MEAN> 25
 2.689494e+000 -1.329166e+000 -2.001241e+000 -2.129760e+000 2.212318e+000 -4.424861e+000 7.392354e-001 -5.860598e+000 1.589297e+000 -9.959714e-001 3.065264e+000 -6.937572e+000 4.596316e-001 -3.264175e-001 -2.729434e-001 -3.622892e-001 -1.873308e-001 -3.561093e-001 6.125227e-001 2.304530e-001 2.996584e-001 -5.419323e-001 1.538601e-001 7.949919e-001 1.764718e-001
<VARIANCE> 25
 2.944952e+001 2.235620e+001 9.170507e+000 2.135660e+001 1.054757e+001 4.935454e+001 2.768407e+001 2.308466e+001 1.372340e+001 1.242751e+001 3.521260e+001 1.921156e+001 9.213889e-001 1.102636e+000 2.552692e-001 2.159522e+000 1.368988e+000 5.539124e+000 2.100690e+000 1.114830e+000 1.986311e+000 1.939066e+000 2.095076e+000 1.354640e+000 3.249126e+000
<GCONST> 8.795210e+001
<TRANSP> 5
 0.000000e+000 1.000000e+000 0.000000e+000 0.000000e+000 0.000000e+000
 0.000000e+000 6.240893e-001 3.759107e-001 0.000000e+000 0.000000e+000
 0.000000e+000 0.000000e+000 1.798913e-001 8.201088e-001 0.000000e+000
 0.000000e+000 0.000000e+000 0.000000e+000 3.529373e-001 6.470627e-001
 0.000000e+000 0.000000e+000 0.000000e+000 0.000000e+000 0.000000e+000
<ENDHMM>
~h "eh"
<BEGINHMM>
<NUMSTATES> 5
<STATE> 2
<MEAN> 25
 7.183350e+000 -9.118891e+000 -3.353589e-001 -5.797697e-001 6.011733e-001 -1.358566e+001 4.545282e+000 4.214166e+000 -6.598799e-001 -2.216752e+000 2.230780e+000 -3.649833e-001 3.079349e-001 -3.063889e-001 -3.652537e-001 -4.584551e-001 2.171436e-001 -7.884465e-001 6.216676e-001 -1.306690e-002 -1.200337e-001 3.080696e-001 2.302925e-002 -4.839768e-001 1.099652e+000
<VARIANCE> 25
 4.205232e+001 1.899975e+001 3.011007e+001 4.192773e+001 3.772871e+001 6.498655e+001 3.902635e+001 3.483422e+001 3.793034e+001 4.604514e+001 2.960942e+001 3.776544e+001 3.266727e+000 2.496777e+000 1.956455e+000 4.141668e+000 2.528538e+000 3.495579e+000 3.328220e+000 3.120884e+000 2.913591e+000 3.968816e+000 2.727911e+000 2.857175e+000 4.027595e+000
<GCONST> 1.038805e+002
<STATE> 3
<MEAN> 25
 6.045376e+000 -7.625056e+000 -2.273832e+000 -2.176536e+000 2.191658e+000 -1.380224e+001 5.027114e+000 1.579246e+000 -3.264200e-001 1.001145e+000 7.819878e-001 -3.514867e+000 -5.340488e-002 8.428523e-001 -2.495703e-001 1.462293e-001 5.998327e-001 8.324524e-001 -4.256414e-001 -5.993954e-001 -3.761722e-001 2.043672e-001 -4.215177e-001 8.323773e-002 -1.025032e+000
<VARIANCE> 25
 1.145336e+001 1.645505e+001 3.236577e+001 3.218061e+001 3.740031e+001 4.074439e+001 5.751205e+001 3.391967e+001 3.134747e+001 3.449499e+001 3.823544e+001 2.402399e+001 9.983876e-001 1.285227e+000 1.270481e+000 1.889465e+000 1.776492e+000 2.212353e+000 2.545239e+000 2.204431e+000 2.494399e+000 1.752087e+000 2.552944e+000 1.731868e+000 2.900597e+000
<GCONST> 9.509268e+001
<STATE> 4
<MEAN> 25
 3.708319e+000 -3.464004e+000 -3.207742e+000 -1.923393e+000 5.031687e+000 -7.669896e+000 3.762525e+000 -1.186579e-001 -6.877949e-001 1.844765e+000 1.361110e+000 -4.221039e+000 -4.345256e-001 7.852570e-001 1.527323e-001 1.874349e-001 -8.843010e-004 1.131828e+000 -5.056949e-001 -3.412521e-001 -1.261894e-001 -3.141880e-002 2.096266e-001 5.140527e-001 -1.057017e+000
<VARIANCE> 25
 3.328668e+001 2.134040e+001 2.147600e+001 2.714782e+001 3.515685e+001 4.785262e+001 4.384024e+001 3.549763e+001 2.668802e+001 3.470308e+001 4.866521e+001 2.984512e+001 2.194273e+000 1.348683e+000 1.290960e+000 1.688336e+000 2.460810e+000 3.610566e+000 3.133613e+000 3.440091e+000 2.247899e+000 3.355455e+000 2.450288e+000 2.245708e+000 2.179634e+000
<GCONST> 9.870203e+001
<TRANSP> 5
 0.000000e+000 1.000000e+000 0.000000e+000 0.000000e+000 0.000000e+000
 0.000000e+000 8.323650e-001 1.676350e-001 0.000000e+000 0.000000e+000
 0.000000e+000 0.000000e+000 5.695389e-001 4.304611e-001 0.000000e+000
 0.000000e+000 0.000000e+000 0.000000e+000 6.831473e-001 3.168527e-001
 0.000000e+000 0.000000e+000 0.000000e+000 0.000000e+000 0.000000e+000
<ENDHMM>
~h "er"
<BEGINHMM>
<NUMSTATES> 5
<STATE> 2
<MEAN> 25
 7.715955e+000 -4.292589e+000 -4.324728e+000 -9.016053e-001 2.436655e+000 -8.046651e+000 -5.264079e-001 -1.316863e+000 9.930338e-001 -2.618707e+000 5.481387e+000 5.944733e-001 -5.855320e-002 5.123671e-002 -1.376448e-001 4.305814e-001 2.234356e-001 -5.463864e-002 -1.657688e-001 7.159939e-001 1.694144e-001 -4.193329e-001 -4.287659e-001 2.330712e-001 -4.687032e-001
<VARIANCE> 25
 3.158947e+001 2.392423e+001 2.821609e+001 2.506453e+001 5.538223e+001 7.193282e+001 3.373049e+001 2.624627e+001 3.190771e+001 2.778088e+001 8.402281e+001 3.403196e+001 1.160816e+000 7.701381e-001 1.937974e+000 9.954012e-001 1.540585e+000 2.302289e+000 2.083473e+000 1.320547e+000 1.473210e+000 1.920683e+000 1.590869e+000 1.461793e+000 1.027102e+000
<GCONST> 9.369142e+001
<STATE> 3
<MEAN> 25
 5.847291e+000 -4.236681e+000 -1.345112e+000 2.052665e+000 8.895678e-001 -7.559955e+000 2.182696e+000 5.802747e-001 1.027813e+000 -2.481883e+000 4.522181e-001 8.590891e-001 -4.978643e-001 2.235864e-001 4.068205e-001 1.402417e-001 2.014648e-001 6.380147e-001 2.932936e-001 1.609224e-001 -5.323746e-001 1.803100e-001 -1.080373e+000 1.025794e-002 -7.310345e-001
<VARIANCE> 25
 2.814728e+001 3.133486e+001 1.285221e+001 2.435841e+001 3.142338e+001 1.456474e+002 3.127163e+001 2.550279e+001 2.797996e+001 3.077955e+001 6.857307e+001 3.042465e+001 1.187924e+000 8.823129e-001 1.544369e+000 1.491142e+000 2.615992e+000 2.732620e+000 1.952313e+000 1.148376e+000 1.723438e+000 2.019056e+000 3.253796e+000 1.466839e+000 1.667512e+000
<GCONST> 9.496387e+001
<STATE> 4
<MEAN> 25
 3.047587e+000 -2.518982e+000 -2.031992e+000 -5.731171e-001 7.323094e-001 -4.283929e+000 2.007310e+000 -8.488994e-001 5.493723e-001 6.078287e-001 -4.360636e-001 -2.686765e+000 -4.664750e-001 3.240434e-001 3.974918e-001 2.419086e-001 5.135288e-001 3.495057e-001 -1.723866e-002 2.126757e-001 -1.811982e-001 4.866614e-002 -1.854918e-001 -2.848392e-001 -9.165254e-001
<VARIANCE> 25
 3.773229e+001 2.156463e+001 1.297277e+001 1.988998e+001 2.605308e+001 1.130807e+002 2.979908e+001 2.802800e+001 2.974453e+001 2.236039e+001 3.975626e+001 3.730810e+001 1.579548e+000 5.628664e-001 8.204609e-001 1.481803e+000 1.547618e+000 1.517853e+000 1.925560e+000 1.344543e+000 1.672303e+000 1.587908e+000 1.707558e+000 1.518767e+000 8.075246e-001
<GCONST> 9.031828e+001
<TRANSP> 5
 0.000000e+000 1.000000e+000 0.000000e+000 0.000000e+000 0.000000e+000
 0.000000e+000 3.886856e-001 6.113144e-001 0.000000e+000 0.000000e+000
 0.000000e+000 0.000000e+000 4.908520e-001 5.091481e-001 0.000000e+000
 0.000000e+000 0.000000e+000 0.000000e+000 3.768862e-001 6.231138e-001
 0.000000e+000 0.000000e+000 0.000000e+000 0.000000e+000 0.000000e+000
<ENDHMM>
~h "ey"
<BEGINHMM>
<NUMSTATES> 5
<STATE> 2
<MEAN> 25
 2.983109e+000 -5.469112e+000 9.307279e+000 2.156718e+000 -1.060564e+001 -1.446387e+001 2.593112e+000 2.150301e+000 -4.378278e+000 -5.709175e+000 9.455140e+000 1.192893e+000 -4.002087e-001 6.251715e-001 1.288266e+000 3.644086e-001 -8.094494e-001 5.900645e-001 1.118625e-001 -9.459249e-001 -1.160906e+000 -1.163506e-001 2.417511e-001 -2.545648e-001 -4.894290e-002
<VARIANCE> 25
 9.548245e+000 1.912761e+001 2.476040e+001 1.936679e+001 1.563270e+001 3.583830e+001 2.901939e+001 2.992932e+001 2.935020e+001 2.048809e+001 2.241687e+001 1.142064e+001 4.978814e-001 7.370082e-001 1.001261e+000 7.001260e-001 1.250557e+000 1.529285e+000 1.156190e+000 1.249252e+000 2.090623e+000 1.466285e+000 1.622937e+000 1.174489e+000 1.194123e+000
<GCONST> 8.396774e+001
<STATE> 3
<MEAN> 25
 1.576841e+000 -2.058046e+000 1.248526e+001 2.899382e+000 -1.121216e+001 -1.025661e+001 2.707208e+000 -3.069642e+000 -7.873418e+000 -5.536071e+000 8.518643e+000 6.848930e-001 -1.737119e-001 5.456554e-001 6.080033e-001 2.835216e-001 3.210021e-001 1.036810e+000 -1.570520e-001 -5.393472e-001 5.986184e-002 5.791587e-002 -6.582811e-001 -2.188160e-001 -7.941703e-001
<VARIANCE> 25
 1.155841e+001 2.465644e+001 3.235817e+001 2.841023e+001 1.773953e+001 4.644284e+001 3.242934e+001 4.237504e+001 3.882119e+001 2.964058e+001 2.633791e+001 1.363409e+001 8.630903e-001 9.023129e-001 1.360929e+000 9.304395e-001 9.624804e-001 1.456134e+000 1.101257e+000 1.256415e+000 1.745899e+000 1.372175e+000 1.833425e+000 1.084920e+000 7.560945e-001
<GCONST> 8.722440e+001
<STATE> 4
<MEAN> 25
 2.142828e+000 -1.805273e+000 9.249497e+000 4.197797e+000 -6.895874e+000 -9.049955e+000 2.150358e+000 -1.294576e+000 -5.571178e+000 -3.198859e+000 5.132211e+000 -6.475261e-001 1.609643e-003 4.859571e-001 -7.570323e-001 -1.716222e-001 1.531463e+000 1.044629e+000 -5.385979e-001 1.339850e-001 5.964836e-001 6.585590e-001 -1.213706e+000 -1.045725e-001 -1.511410e+000
<VARIANCE> 25
 1.319108e+001 2.552406e+001 6.881553e+001 3.683886e+001 5.311544e+001 4.667178e+001 3.059169e+001 5.635644e+001 3.176289e+001 5.436964e+001 3.387012e+001 3.139838e+001 1.936359e+000 1.025999e+000 1.758863e+000 3.075635e+000 2.462676e+000 2.370550e+000 3.539532e+000 2.552129e+000 3.392319e+000 2.539464e+000 3.427310e+000 1.821895e+000 2.080077e+000
<GCONST> 1.003530e+002
<TRANSP> 5
 0.000000e+000 1.000000e+000 0.000000e+000 0.000000e+000 0.000000e+000
 0.000000e+000 7.293056e-001 2.706944e-001 0.000000e+000 0.000000e+000
 0.000000e+000 0.000000e+000 2.362859e-001 7.637141e-001 0.000000e+000
 0.000000e+000 0.000000e+000 0.000000e+000 7.221210e-001 2.778791e-001
 0.000000e+000 0.000000e+000 0.000000e+000 0.000000e+000 0.000000e+000
<ENDHMM>
~h "hh"
<BEGINHMM>
<NUMSTATES> 5
<STATE> 2
<MEAN> 25
 3.511810e+000 -4.296885e+000 -4.929816e+000 -4.665084e+000 5.266109e+000 -2.096928e-001 7.291870e+000 -1.439573e+000 -6.150413e-001 -1.005581e+000 2.387958e+000 -8.270347e-001 -1.176701e-001 -4.503578e-001 -2.272301e-001 -2.923916e-001 1.629345e-001 -5.747961e-001 1.176032e-001 2.397369e-001 5.641539e-002 -7.143681e-002 1.633220e-001 2.902110e-002 4.292773e-001
<VARIANCE> 25
 1.857048e+001 2.370633e+001 2.480739e+001 3.834487e+001 3.106588e+001 7.185637e+001 7.779545e+001 4.319996e+001 2.989531e+001 1.338885e+001 3.874669e+001 2.224382e+001 1.014375e+000 1.283600e+000 1.369415e+000 1.685830e+000 1.627451e+000 2.423705e+000 1.507743e+000 1.648243e+000 9.514743e-001 1.890465e+000 2.437381e+000 1.602422e+000 1.001305e+000
<GCONST> 9.280798e+001
<STATE> 3
<MEAN> 25
 2.606728e+000 -4.790920e+000 -2.917500e+000 -3.158796e+000 3.140328e+000 5.271333e-001 5.525116e+000 3.114822e-001 3.223651e-001 -1.553783e-001 3.434167e+000 1.199203e+000 -2.086355e-001 -4.839778e-001 7.845654e-002 -2.466861e-001 -5.405531e-001 -9.502647e-001 3.995327e-001 4.953355e-001 -3.280964e-001 -4.429278e-001 3.277393e-001 3.406893e-001 3.612604e-001
<VARIANCE> 25
 2.935004e+001 3.904219e+001 3.979806e+001 3.369143e+001 4.493118e+001 6.389689e+001 7.160055e+001 8.085574e+001 4.108652e+001 2.056396e+001 3.799883e+001 2.466827e+001 3.924944e-001 8.348833e-001 3.690141e-001 7.211253e-001 1.754481e+000 1.982237e+000 1.427994e+000 2.499452e+000 8.642989e-001 2.724850e+000 1.131961e+000 1.001180e+000 3.551112e-001
<GCONST> 9.042596e+001
<STATE> 4
<MEAN> 25
 1.930332e+000 -3.943454e+000 -2.313883e+000 -2.750157e+000 2.007169e+000 -3.806161e-002 4.886639e+000 2.168921e+000 8.610575e-002 -2.142797e+000 2.195229e+000 9.823948e-001 7.545222e-002 -6.350563e-001 2.648311e-001 3.542776e-001 -5.915137e-001 -9.184622e-001 6.791157e-001 5.573925e-001 -5.164182e-001 -5.802209e-001 4.274838e-001 4.494838e-001 4.704816e-001
<VARIANCE> 25
 3.213378e+001 4.767793e+001 2.978696e+001 4.378754e+001 6.361776e+001 8.905297e+001 4.582344e+001 6.535725e+001 2.667885e+001 2.066583e+001 3.043669e+001 2.206294e+001 3.331938e-001 2.258717e+000 7.150493e-001 1.640223e+000 1.527194e+000 2.579248e+000 1.693131e+000 5.841450e+000 2.541652e+000 1.982490e+000 1.431999e+000 1.548260e+000 6.417676e-001
<GCONST> 9.543094e+001
<TRANSP> 5
 0.000000e+000 1.000000e+000 0.000000e+000 0.000000e+000 0.000000e+000
 0.000000e+000 5.549215e-001 4.450785e-001 0.000000e+000 0.000000e+000
 0.000000e+000 0.000000e+000 2.592983e-001 7.407017e-001 0.000000e+000
 0.000000e+000 0.000000e+000 0.000000e+000 1.435259e-003 9.985647e-001
 0.000000e+000 0.000000e+000 0.000000e+000 0.000000e+000 0.000000e+000
<ENDHMM>
~h "ih"
<BEGINHMM>
<NUMSTATES> 5
<STATE> 2
<MEAN> 25
 3.160134e+000 -3.461946e+000 7.820534e+000 4.731963e+000 -4.263550e+000 -1.196289e+001 -1.356788e+000 4.822038e-001 -3.561006e+000 -3.806172e+000 3.632257e+000 -6.487026e-001 -1.233486e-001 -2.581438e-002 -6.915224e-002 2.768698e-001 2.066664e-001 -6.354761e-001 -1.751015e-001 2.387279e-001 1.752606e-001 -1.781691e-001 1.111524e-001 -2.165882e-001 8.213825e-002
<VARIANCE> 25
 2.791793e+001 2.598365e+001 6.306731e+001 3.265949e+001 4.216809e+001 8.496157e+001 2.992270e+001 5.944118e+001 3.276463e+001 3.797012e+001 4.574400e+001 2.426306e+001 3.356218e+000 2.624720e+000 4.068494e+000 2.586547e+000 3.368655e+000 9.034562e+000 2.863360e+000 4.810475e+000 4.038362e+000 4.141618e+000 5.178882e+000 3.127957e+000 7.664572e+000
<GCONST> 1.081759e+002
<STATE> 3
<MEAN> 25
 1.187073e+000 -3.326737e+000 2.165636e+000 2.924178e+000 2.491816e+000 -8.029289e+000 -3.782236e+000 4.075932e+000 1.343947e+000 -4.640707e-001 1.341931e+000 -5.977055e-001 -5.369192e-001 -2.517134e-003 -7.182298e-001 -2.182482e-001 4.253878e-001 5.768033e-001 -1.386799e-001 6.769299e-001 6.672896e-001 6.191134e-001 -2.087191e-001 1.931394e-001 -6.173425e-001
<VARIANCE> 25
 5.011274e+001 3.475670e+001 3.560136e+001 2.693145e+001 2.901129e+001 5.756797e+001 5.050953e+001 3.375298e+001 2.491731e+001 3.653546e+001 2.933386e+001 2.050237e+001 3.903287e+000 2.706980e+000 3.262978e+000 1.556485e+000 3.075441e+000 4.832659e+000 3.272004e+000 3.423773e+000 2.205388e+000 3.228644e+000 3.606957e+000 2.584983e+000 4.899621e+000
<GCONST> 1.032327e+002
<STATE> 4
<MEAN> 25
 9.160413e-001 -1.937612e+000 -2.976929e+000 4.902422e-001 1.971727e+000 -2.332182e+000 -2.456925e+000 2.783211e+000 1.600771e+000 2.520873e+000 3.331186e-001 -1.662467e+000 -2.181347e-001 2.877164e-001 -1.174770e-001 -3.167709e-004 2.426834e-001 4.293131e-001 4.030424e-002 -2.643252e-001 3.731734e-003 1.167333e-001 -1.281056e-001 -1.337433e-002 -4.235646e-001
<VARIANCE> 25
 5.186191e+001 4.615881e+001 2.986041e+001 3.597245e+001 2.029195e+001 1.256575e+002 2.839310e+001 2.709281e+001 3.391713e+001 3.934536e+001 8.491139e+001 2.431789e+001 1.313551e+000 2.120704e+000 1.304501e+000 1.242641e+000 1.534360e+000 2.015582e+000 2.150710e+000 2.216617e+000 2.459004e+000 1.722530e+000 2.710379e+000 1.864678e+000 1.696239e+000
<GCONST> 9.781569e+001
<TRANSP> 5
 0.000000e+000 1.000000e+000 0.000000e+000 0.000000e+000 0.000000e+000
 0.000000e+000 7.904187e-001 2.095813e-001 0.000000e+000 0.000000e+000
 0.000000e+000 0.000000e+000 5.153115e-001 4.846886e-001 0.000000e+000
 0.000000e+000 0.000000e+000 0.000000e+000 8.003647e-001 1.996353e-001
 0.000000e+000 0.000000e+000 0.000000e+000 0.000000e+000 0.000000e+000
<ENDHMM>
~h "iy"
<BEGINHMM>
<NUMSTATES> 5
<STATE> 2
<MEAN> 25
 1.362243e+000 -1.107776e+000 1.387841e+001 3.734080e+000 -9.366289e+000 -7.766999e+000 1.522889e+000 -3.312549e+000 -7.972828e+000 -5.653259e+000 6.976647e+000 -1.763408e+000 -1.653187e-002 2.620431e-001 5.054806e-001 -2.181473e-001 -5.382375e-001 5.514902e-001 -4.967984e-002 -8.359548e-001 -2.642458e-001 3.967163e-001 3.895806e-001 -4.415058e-001 -1.488824e-001
<VARIANCE> 25
 2.028331e+001 1.365935e+001 8.482449e+001 3.386256e+001 3.940862e+001 4.503457e+001 4.444063e+001 5.256757e+001 5.033256e+001 3.143062e+001 4.067069e+001 1.999266e+001 1.439504e+000 7.094228e-001 1.145505e+000 9.405064e-001 1.171266e+000 2.347641e+000 9.873359e-001 1.720523e+000 1.278607e+000 2.064351e+000 1.117674e+000 1.255005e+000 7.986094e-001
<GCONST> 9.156000e+001
<STATE> 3
<MEAN> 25
 1.459378e+000 -1.069408e+000 1.515882e+001 5.214142e+000 -1.015497e+001 -8.669512e+000 1.067098e+000 -4.257160e+000 -8.282603e+000 -6.561557e+000 7.567339e+000 -1.919604e+000 2.313682e-001 4.312752e-002 -5.255971e-001 2.359211e-001 3.064084e-001 -4.273750e-001 2.710949e-001 4.930074e-001 4.493309e-001 -7.640649e-002 -5.075524e-001 3.978370e-001 -7.736676e-001
<VARIANCE> 25
 1.729213e+001 1.137229e+001 6.053343e+001 3.128167e+001 3.524649e+001 3.784194e+001 3.780132e+001 3.982758e+001 4.485976e+001 2.658410e+001 3.098443e+001 1.650785e+001 8.623212e-001 1.115579e+000 1.202556e+000 1.113322e+000 2.381414e+000 3.177756e+000 2.000089e+000 1.990584e+000 3.160434e+000 2.027778e+000 2.854892e+000 1.678962e+000 2.099610e+000
<GCONST> 9.443359e+001
<STATE> 4
<MEAN> 25
 8.875543e-002 -1.017767e+000 9.126496e+000 5.682058e+000 -1.229442e+000 -9.154951e+000 1.100805e-001 3.829742e-002 -2.335773e+000 -4.328219e+000 2.268531e+000 -3.705911e-002 -7.556672e-001 8.263826e-002 -1.243005e+000 -3.440606e-001 1.756031e+000 8.443764e-001 -7.266560e-001 4.787856e-001 1.001312e+000 1.000835e+000 -9.394323e-001 9.958703e-002 -9.267298e-001
<VARIANCE> 25
 4.527456e+001 2.133333e+001 5.134395e+001 2.772843e+001 5.740136e+001 5.906384e+001 5.121098e+001 3.050110e+001 4.398722e+001 4.056178e+001 2.755520e+001 1.946659e+001 2.897769e+000 1.122428e+000 1.505298e+000 1.852521e+000 3.761193e+000 3.414844e+000 3.188275e+000 3.377262e+000 4.102888e+000 2.541023e+000 3.317524e+000 1.701394e+000 1.161840e+000
<GCONST> 1.006943e+002
<TRANSP> 5
 0.000000e+000 1.000000e+000 0.000000e+000 0.000000e+000 0.000000e+000
 0.000000e+000 3.566906e-001 6.433094e-001 0.000000e+000 0.000000e+000
 0.000000e+000 0.000000e+000 6.165739e-001 3.834261e-001 0.000000e+000
 0.000000e+000 0.000000e+000 0.000000e+000 6.997908e-001 3.002092e-001
 0.000000e+000 0.000000e+000 0.000000e+000 0.000000e+000 0.000000e+000
<ENDHMM>
~h "jh"
<BEGINHMM>
<NUMSTATES> 5
<STATE> 2
<MEAN> 25
 8.621287e+000 -7.142334e+000 -5.369436e-001 3.059683e+000 -1.293301e+000 -1.346306e+001 -7.321796e+000 1.466335e+000 1.402629e+000 -2.370178e+000 2.784068e+000 3.378532e+000 -8.783460e-001 1.188367e+000 1.268101e+000 -6.321125e-002 1.519005e+000 4.465149e-001 -1.520709e+000 2.296733e-001 2.596172e-001 -7.559573e-002 -1.213064e+000 8.433716e-003 -9.982007e-001
<VARIANCE> 25
 8.876535e+000 5.424921e+001 2.600830e+001 3.711094e+000 3.149800e+001 2.323010e+001 2.484220e+001 1.507071e+001 3.841180e+000 1.789089e+001 2.091156e+001 4.682291e+000 1.768854e+000 8.299001e-001 4.293199e-001 7.980459e-001 1.357016e+000 1.062634e+000 3.142703e+000 2.633368e+000 2.858032e+000 5.690572e-001 2.191573e+000 2.314891e+000 1.868538e+000
<GCONST> 8.255612e+001
<STATE> 3
<MEAN> 25
 7.925778e+000 -6.269918e+000 1.489643e+000 2.635323e+000 3.527788e-001 -1.371649e+001 -8.453414e+000 1.275660e+000 1.873426e+000 -1.585708e+000 2.692239e+000 4.033594e+000 -2.021929e+000 1.763323e+000 1.654126e+000 -1.146805e+000 2.250184e+000 1.080502e+000 -5.764901e-001 -2.766393e-001 1.133989e-001 1.592072e-001 -1.096285e+000 -3.828128e-001 -1.078899e+000
<VARIANCE> 25
 2.947336e+000 3.253517e+001 1.882610e+001 2.651579e+000 1.382217e+001 1.459316e+001 2.027479e+001 9.731256e+000 1.857000e+001 3.272522e+001 4.382560e+000 1.347076e+001 8.535063e-001 9.861559e-001 9.838340e-001 3.537439e+000 5.854223e-001 1.002474e+000 2.877164e+000 2.573909e+000 1.432391e+000 1.931224e-001 2.024884e+000 9.148232e-001 9.203429e-001
<GCONST> 7.729238e+001
<STATE> 4
<MEAN> 25
 -5.626019e+000 -1.420660e+000 4.425118e+000 -2.377800e+000 4.432947e+000 -4.823863e+000 -2.488431e+000 2.508695e+000 6.942087e-001 -2.295426e+000 -4.989382e-001 4.171481e+000 -8.673246e-003 -7.637576e-002 2.049490e-002 -3.772632e-001 -3.727674e-001 3.553661e-002 3.191904e-001 -3.338059e-002 -9.614561e-002 -1.845332e-001 1.209741e-001 7.575779e-002 2.183497e-001
<VARIANCE> 25
 5.534613e+001 6.605200e+001 3.030913e+001 3.679049e+001 2.401773e+001 8.568517e+001 4.908533e+001 2.342834e+001 4.247766e+001 3.574634e+001 2.617997e+001 2.791787e+001 1.036066e+001 7.000964e+000 3.031734e+000 4.240670e+000 4.060552e+000 8.627052e+000 4.203162e+000 2.346624e+000 3.562032e+000 4.099978e+000 2.718237e+000 2.776346e+000 4.597830e+000
<GCONST> 1.086753e+002
<TRANSP> 5
 0.000000e+000 1.000000e+000 0.000000e+000 0.000000e+000 0.000000e+000
 0.000000e+000 3.840130e-005 9.999616e-001 0.000000e+000 0.000000e+000
 0.000000e+000 0.000000e+000 7.910114e-002 9.208989e-001 0.000000e+000
 0.000000e+000 0.000000e+000 0.000000e+000 9.308885e-001 6.911151e-002
 0.000000e+000 0.000000e+000 0.000000e+000 0.000000e+000 0.000000e+000
<ENDHMM>
~h "ng"
<BEGINHMM>
<NUMSTATES> 5
<STATE> 2
<MEAN> 25
 1.014004e+000 -1.453246e-001 -3.136934e+000 3.179214e+000 2.454037e+000 1.807257e+000 -2.488682e+000 2.362089e-001 1.035777e+000 -7.699621e-001 -3.912519e+000 -2.274081e+000 -3.418285e-001 8.163820e-002 -1.622017e-001 -4.373324e-002 4.092335e-001 5.805764e-001 -1.516716e-001 -7.712940e-002 5.008883e-002 -1.014636e-001 1.027020e+000 6.843702e-001 -2.855714e-001
<VARIANCE> 25
 6.251071e+001 4.530118e+001 1.828313e+001 4.722780e+001 1.503007e+001 8.428688e+001 2.299114e+001 1.236150e+001 4.484964e+001 3.108352e+001 7.363345e+001 9.299494e+000 4.460444e-001 4.285422e-001 1.312780e+000 6.256902e-001 1.157786e+000 1.595812e+000 1.063179e+000 1.159347e+000 1.199548e+000 1.403160e+000 1.925747e+000 8.775347e-001 4.529563e-001
<GCONST> 8.644453e+001
<STATE> 3
<MEAN> 25
 -8.818322e-001 3.196264e-001 -3.608259e+000 2.545577e+000 1.593174e+000 2.783954e+000 -3.294877e+000 2.567379e-001 3.378370e+000 2.168960e-001 -1.867218e+000 -5.871240e-001 -2.982908e-001 3.757567e-002 -2.815613e-001 -5.029483e-001 9.889457e-002 3.943216e-001 3.364383e-001 6.577520e-001 7.940525e-001 6.310487e-001 1.335707e+000 1.182338e+000 -2.502364e-001
<VARIANCE> 25
 4.971031e+001 4.294310e+001 2.418714e+001 4.988884e+001 2.084542e+001 1.032047e+002 2.638755e+001 1.244779e+001 3.102875e+001 3.317741e+001 6.892097e+001 1.023905e+001 6.083884e-001 2.649773e-001 9.325646e-001 4.032759e-001 9.598969e-001 8.067258e-001 1.638405e+000 1.219031e+000 2.499442e+000 2.537156e+000 1.822612e+000 4.612833e-001 3.610002e-001
<GCONST> 8.596071e+001
<STATE> 4
<MEAN> 25
 -4.225293e-001 -4.728762e-001 -4.743860e+000 3.260101e-001 1.421542e+000 1.942421e+000 -2.736441e+000 7.704215e-001 3.650467e+000 9.430146e-001 2.205828e+000 1.397378e+000 1.549126e-001 2.576549e-001 -3.473571e-002 -4.629276e-001 -9.516678e-002 8.453001e-002 4.386781e-001 2.212429e-001 -1.357845e-001 1.716710e-001 7.237812e-001 1.040784e+000 -2.587183e-001
<VARIANCE> 25
 5.926219e+001 4.630261e+001 1.872707e+001 4.789275e+001 3.168574e+001 8.034370e+001 4.192533e+001 2.085051e+001 3.066071e+001 4.909071e+001 5.914171e+001 8.750277e+000 6.938277e-001 4.160739e-001 7.985243e-001 7.956939e-001 8.662310e-001 6.887990e-001 1.662975e+000 2.100903e+000 1.194611e+000 1.199483e+000 1.360667e+000 1.213789e+000 1.724008e-001
<GCONST> 8.698627e+001
<TRANSP> 5
 0.000000e+000 1.000000e+000 0.000000e+000 0.000000e+000 0.000000e+000
 0.000000e+000 3.074451e-001 6.925548e-001 0.000000e+000 0.000000e+000
 0.000000e+000 0.000000e+000 1.114877e-001 8.885123e-001 0.000000e+000
 0.000000e+000 0.000000e+000 0.000000e+000 9.199899e-006 9.999908e-001
 0.000000e+000 0.000000e+000 0.000000e+000 0.000000e+000 0.000000e+000
<ENDHMM>
~h "ow"
<BEGINHMM>
<NUMSTATES> 5
<STATE> 2
<MEAN> 25
 9.228533e+000 6.472508e-001 -6.928157e+000 -1.322393e+001 -8.281988e+000 4.040915e+000 9.214969e+000 -7.096180e+000 1.042708e-002 -8.600654e+000 1.105125e+001 1.140499e+000 7.454580e-003 6.613689e-001 1.725565e-002 -3.671888e-001 -5.179939e-001 3.165467e-001 -7.492285e-002 -1.910986e-001 -1.149093e-001 -5.305477e-001 -4.078615e-001 -7.538535e-002 -2.277816e-001
<VARIANCE> 25
 1.283197e+001 3.303285e+001 1.391432e+001 3.606569e+001 4.564984e+001 4.102613e+001 4.032709e+001 3.112371e+001 3.214052e+001 4.970254e+001 5.077153e+001 1.020923e+001 4.211636e-001 8.167942e-001 4.724987e-001 7.464122e-001 1.087870e+000 8.879644e-001 1.388558e+000 8.530715e-001 1.880709e+000 1.911866e+000 2.090148e+000 8.495953e-001 6.724106e-001
<GCONST> 8.599417e+001
<STATE> 3
<MEAN> 25
 9.765635e+000 3.021005e+000 -4.564716e+000 -7.616245e+000 -7.167236e+000 3.863118e+000 4.824706e+000 -5.920263e+000 -2.027709e+000 -9.628083e+000 3.588967e+000 -4.230166e-001 -2.459450e-001 -4.077899e-001 5.411412e-001 1.665825e+000 9.100640e-001 -3.675582e-001 -7.204192e-001 2.512840e-002 -1.367051e-001 8.782148e-001 -1.058335e+000 -3.830808e-001 -7.615381e-001
<VARIANCE> 25
 1.763529e+001 3.523672e+001 1.430312e+001 6.620074e+001 4.673875e+001 4.440950e+001 4.230690e+001 5.319282e+001 3.201033e+001 5.425993e+001 7.536565e+001 2.396406e+001 4.724930e-001 1.932325e+000 1.025401e+000 3.416213e+000 1.898978e+000 3.772765e+000 3.123649e+000 4.004864e+000 2.490475e+000 3.925539e+000 4.502573e+000 1.567377e+000 1.224720e+000
<GCONST> 9.964272e+001
<STATE> 4
<MEAN> 25
 -8.068097e-001 2.732918e+000 -2.612309e+000 1.592176e+000 1.001666e-001 6.344540e+000 -1.729722e+000 -2.987728e+000 7.616177e-001 1.443868e+000 -3.287012e+000 -4.494156e-001 -2.072359e-001 -1.472519e-001 4.541968e-001 3.013982e-001 4.698214e-001 -3.622828e-001 -1.581948e-001 4.578301e-001 -2.765138e-001 1.930075e-001 -6.250955e-001 -6.916837e-002 -4.097549e-002
<VARIANCE> 25
 6.148187e+001 2.504320e+001 1.608349e+001 3.941875e+001 2.683446e+001 4.615876e+001 3.312244e+001 2.775559e+001 3.611263e+001 3.555117e+001 4.290814e+001 1.916482e+001 3.728113e-001 9.153102e-001 1.467569e+000 1.066975e+000 1.404141e+000 2.107849e+000 1.941755e+000 2.525525e+000 1.651914e+000 2.105731e+000 2.957275e+000 1.521698e+000 3.530588e-001
<GCONST> 9.131145e+001
<TRANSP> 5
 0.000000e+000 1.000000e+000 0.000000e+000 0.000000e+000 0.000000e+000
 0.000000e+000 8.123445e-001 1.876555e-001 0.000000e+000 0.000000e+000
 0.000000e+000 0.000000e+000 8.015161e-001 1.984839e-001 0.000000e+000
 0.000000e+000 0.000000e+000 0.000000e+000 5.673460e-001 4.326541e-001
 0.000000e+000 0.000000e+000 0.000000e+000 0.000000e+000 0.000000e+000
<ENDHMM>
~h "oy"
<BEGINHMM>
<NUMSTATES> 5
<STATE> 2
<MEAN> 25
 1.091833e+001 -8.628885e+000 -1.860961e+000 1.597926e-001 -4.774548e-001 -1.284244e+001 -1.282042e+000 -7.435427e-001 1.191850e+000 -8.919514e+000 1.024947e+001 -1.405645e+000 -3.546332e-001 6.077517e-001 9.266396e-001 9.110767e-001 -1.633744e-001 -1.320988e+000 -4.628039e-001 2.622486e-001 -2.614552e-001 1.926194e-001 -7.548149e-001 -4.602470e-002 -2.312918e-001
<VARIANCE> 25
 2.225449e+001 2.262992e+001 2.439762e+001 2.751804e+001 5.414661e+000 9.273409e+001 5.588929e+001 8.911288e+000 1.404179e+001 2.010593e+001 5.340708e+001 1.579596e+001 2.191031e+000 1.716654e+000 1.544837e+000 1.504126e+000 1.727194e+000 2.920830e+000 3.128515e+000 1.546579e+000 3.080402e+000 1.146174e+000 3.729189e+000 1.453657e+000 1.192080e+000
<GCONST> 9.197867e+001
<STATE> 3
<MEAN> 25
 -2.303680e+000 1.070307e+000 7.356273e+000 5.023521e+000 4.636672e+000 -1.409449e+001 -1.414742e+000 2.949370e+000 -5.527859e+000 -1.238158e+000 2.306597e+000 -1.279811e-001 -3.896170e+000 1.900918e+000 5.831539e-001 -1.023988e+000 2.336453e+000 2.154052e+000 1.287243e+000 1.281043e+000 -2.662115e-001 1.847209e+000 -6.001865e-001 -1.314546e-001 -6.538886e-001
<VARIANCE> 25
 3.975969e+001 8.650225e+000 4.227057e+000 7.091160e+000 5.262806e+001 6.880318e+001 6.118151e+001 1.472838e+001 2.464410e+001 3.041166e+001 3.741559e+001 1.062782e+001 4.138336e+000 7.272966e-001 6.340032e-001 8.014112e-001 4.690353e+000 3.818429e+000 5.567155e-001 1.189707e+000 2.865375e+000 2.935697e+000 6.484318e-001 5.952565e-001 1.302566e-001
<GCONST> 8.482835e+001
<STATE> 4
<MEAN> 25
 -8.107088e+000 4.242803e+000 5.957218e+000 3.688716e+000 3.823597e+000 -6.241412e+000 -3.274601e+000 3.842788e+000 -8.603545e-001 4.888256e+000 -9.528041e-001 -2.433789e+000 -1.145802e+000 9.287393e-001 -9.402056e-001 -3.688164e-001 5.431731e-001 1.790691e+000 1.066225e+000 -1.144685e-001 1.321877e+000 6.621728e-002 -9.946319e-001 -3.575775e-001 -7.013702e-001
<VARIANCE> 25
 3.431683e+001 9.525485e+000 4.247790e+000 3.694196e+000 1.218211e+002 3.596337e+001 5.018844e+001 2.157209e+001 2.956914e+001 2.414191e+001 5.519926e+001 1.491387e+001 1.467825e+000 3.451640e-001 3.541518e-001 5.501718e-002 2.376974e+000 1.303311e+000 2.498405e+000 3.266046e+000 1.232612e+000 1.751555e+000 9.695438e-001 1.356769e+000 1.606887e-001
<GCONST> 8.097326e+001
<TRANSP> 5
 0.000000e+000 1.000000e+000 0.000000e+000 0.000000e+000 0.000000e+000
 0.000000e+000 8.223239e-001 1.776761e-001 0.000000e+000 0.000000e+000
 0.000000e+000 0.000000e+000 5.554888e-001 4.445112e-001 0.000000e+000
 0.000000e+000 0.000000e+000 0.000000e+000 4.734072e-004 9.995266e-001
 0.000000e+000 0.000000e+000 0.000000e+000 0.000000e+000 0.000000e+000
<ENDHMM>
~h "sh"
<BEGINHMM>
<NUMSTATES> 5
<STATE> 2
<MEAN> 25
 -1.841952e+001 -1.465687e+000 1.605821e+001 -6.240713e-002 -1.444841e+000 -2.363741e+000 3.406015e+000 3.857247e+000 3.594735e+000 -1.891251e+000 4.978889e+000 2.125128e+000 -1.026201e+000 -3.130847e-001 -6.730759e-002 -1.586547e-001 -2.134179e-001 3.435680e-001 2.413705e-001 2.379527e-001 6.603879e-001 3.210146e-001 1.977118e-002 2.503698e-001 -1.315782e-001
<VARIANCE> 25
 3.275602e+001 2.096077e+001 2.310519e+001 2.931474e+001 3.877046e+001 3.117161e+001 3.887076e+001 2.351370e+001 2.571729e+001 2.582626e+001 2.432129e+001 1.892133e+001 9.574158e+000 8.694860e-001 2.280557e+000 2.253775e+000 2.082061e+000 3.880681e+000 2.340029e+000 2.565591e+000 2.271048e+000 2.652815e+000 3.291323e+000 1.297106e+000 7.243882e-001
<GCONST> 9.610483e+001
<STATE> 3
<MEAN> 25
 -8.494748e+000 -3.909458e+000 8.631244e+000 2.844862e+000 -2.061826e+000 -3.598821e+000 1.075586e+000 3.563149e+000 4.481762e+000 -1.380407e-001 -1.363123e+000 1.633903e+000 3.602928e+000 -1.389055e-001 -2.269312e+000 1.035284e-001 1.673651e-001 -6.154900e-001 -7.010694e-001 -6.196388e-001 -2.797531e-001 4.155815e-001 -1.052715e+000 -3.994973e-001 -9.458936e-001
<VARIANCE> 25
 9.150640e+001 1.626591e+001 3.257839e+001 2.357620e+001 2.751291e+001 8.200006e+001 4.561570e+001 2.389387e+001 1.899679e+001 2.445002e+001 5.943567e+001 1.237913e+001 6.260061e+000 2.069930e+000 2.042362e+000 2.235814e+000 1.514138e+000 5.722923e+000 3.601645e+000 2.645782e+000 2.594155e+000 2.541953e+000 2.205936e+000 2.496043e+000 4.672055e+000
<GCONST> 1.009811e+002
<STATE> 4
<MEAN> 25
 -1.871745e+000 -3.366624e+000 3.449807e+000 5.377828e-001 -2.630625e+000 -4.697988e+000 3.138920e-001 2.471726e+000 5.193886e+000 1.345245e+000 -3.536187e-001 9.373087e-001 2.836280e+000 -4.984647e-002 -1.877080e+000 -7.052833e-001 6.134748e-001 -1.289545e-001 -1.951814e-001 -5.600147e-001 -1.694527e-001 -4.193656e-001 -4.232136e-001 -5.013160e-001 -2.857521e-001
<VARIANCE> 25
 8.309382e+001 1.866032e+001 3.108701e+001 2.109630e+001 1.223583e+001 8.163335e+001 5.136824e+001 2.330014e+001 3.096574e+001 1.050323e+001 4.215049e+001 1.523145e+001 5.544323e+000 1.681711e+000 1.265315e+000 1.436512e+000 1.209846e+000 5.630037e+000 2.389589e+000 1.371582e+000 1.923113e+000 4.805439e+000 3.648095e+000 1.635536e+000 9.300673e-001
<GCONST> 9.589563e+001
<TRANSP> 5
 0.000000e+000 1.000000e+000 0.000000e+000 0.000000e+000 0.000000e+000
 0.000000e+000 8.728895e-001 1.271105e-001 0.000000e+000 0.000000e+000
 0.000000e+000 0.000000e+000 6.943365e-001 3.056635e-001 0.000000e+000
 0.000000e+000 0.000000e+000 0.000000e+000 1.693188e-002 9.830681e-001
 0.000000e+000 0.000000e+000 0.000000e+000 0.000000e+000 0.000000e+000
<ENDHMM>
~h "sp"
<BEGINHMM>
<NUMSTATES> 3
<STATE> 2
~s "silst"
<TRANSP> 3
 0.000000e+000 1.091765e-001 8.908235e-001
 0.000000e+000 8.398164e-001 1.601836e-001
 0.000000e+000 0.000000e+000 0.000000e+000
<ENDHMM>
~h "th"
<BEGINHMM>
<NUMSTATES> 5
<STATE> 2
<MEAN> 25
 -1.210320e+001 1.467994e+000 -1.679632e-001 -1.834024e+000 5.714369e+000 1.948823e+000 -9.927166e-001 2.295535e+000 2.687306e+000 -6.429808e-002 3.368405e+000 2.456763e+000 -8.331760e-001 -7.936339e-001 -3.509080e-001 2.034845e-002 -7.490928e-002 -5.239183e-001 -3.363250e-001 -2.204330e-001 2.510393e-001 2.990909e-001 -1.435960e-001 -3.333614e-001 -2.235977e-002
<VARIANCE> 25
 1.847827e+001 2.859054e+001 1.322801e+001 1.745373e+001 1.559431e+001 4.110298e+001 1.966885e+001 1.502100e+001 2.808296e+001 1.638859e+001 2.951261e+001 2.023970e+001 6.819391e-001 1.250712e+000 1.224521e+000 1.187123e+000 1.472807e+000 1.703598e+000 1.751331e+000 1.652274e+000 2.109432e+000 1.646511e+000 1.696482e+000 8.560966e-001 5.559705e-001
<GCONST> 8.556281e+001
<STATE> 3
<MEAN> 25
 -1.418760e+001 8.873060e-001 -4.024621e-001 -1.243816e+000 5.995132e+000 -7.719570e-001 5.694029e-001 3.617594e+000 5.564734e+000 3.280637e+000 3.991214e+000 -5.091518e-002 -1.286412e-001 -7.075463e-001 -1.471108e-001 2.302492e-002 4.213240e-001 -5.171767e-001 3.668871e-001 -4.725322e-001 -1.703201e-001 5.362349e-001 1.960022e-001 -9.519134e-001 -3.299712e-003
<VARIANCE> 25
 1.353104e+001 2.193827e+001 1.131223e+001 1.315461e+001 2.966439e+001 3.448421e+001 1.417683e+001 7.561877e+000 1.809730e+001 2.914259e+001 1.100903e+001 1.455825e+001 5.282326e-001 1.056774e+000 1.253585e+000 1.860277e+000 2.329582e+000 1.128327e+000 1.174186e+000 1.322593e+000 2.142940e+000 1.035796e+000 1.826669e+000 1.505681e+000 6.518626e-001
<GCONST> 8.264431e+001
<STATE> 4
<MEAN> 25
 -1.018596e+001 6.798312e-001 -5.730442e-001 -1.282715e+000 7.343962e+000 2.082974e+000 -8.642935e-001 1.003727e+000 2.383340e+000 4.193251e+000 4.480338e+000 -1.633160e+000 1.208357e+000 1.589968e-001 -8.459415e-002 -3.657527e-001 6.269703e-001 2.477328e-001 -7.462686e-002 -3.366393e-001 -5.233231e-001 2.786088e-001 4.120873e-002 -5.206121e-001 -1.130351e-001
<VARIANCE> 25
 3.858122e+001 2.449390e+001 8.815724e+000 1.374290e+001 2.847706e+001 7.401508e+001 2.326899e+001 1.594701e+001 2.038090e+001 1.866176e+001 2.295639e+001 1.625928e+001 3.621045e+000 2.266491e+000 1.312806e+000 1.365739e+000 2.313565e+000 1.776739e+000 1.286122e+000 2.148577e+000 1.756430e+000 1.569000e+000 2.261811e+000 1.501793e+000 6.981912e-001
<GCONST> 9.002442e+001
<TRANSP> 5
 0.000000e+000 1.000000e+000 0.000000e+000 0.000000e+000 0.000000e+000
 0.000000e+000 3.637219e-001 6.362781e-001 0.000000e+000 0.000000e+000
 0.000000e+000 0.000000e+000 6.762786e-002 9.323721e-001 0.000000e+000
 0.000000e+000 0.000000e+000 0.000000e+000 6.924075e-001 3.075925e-001
 0.000000e+000 0.000000e+000 0.000000e+000 0.000000e+000 0.000000e+000
<ENDHMM>
~h "uh"
<BEGINHMM>
<NUMSTATES> 5
<STATE> 2
<MEAN> 25
 9.165208e+000 -6.188736e-001 -3.378721e+000 -4.889462e+000 -2.049770e+000 -4.314777e+000 4.992899e+000 -5.580119e+000 -2.721243e+000 -4.419498e+000 5.144077e+000 3.612287e+000 -1.301084e-001 -3.779842e-001 -5.561023e-003 4.828501e-001 4.097127e-001 -6.029089e-001 1.214684e-001 -1.624585e-001 1.198196e-001 6.396269e-001 -3.661264e-001 -3.913282e-001 -2.169805e-001
<VARIANCE> 25
 1.143941e+001 4.764017e+001 2.874433e+001 1.054345e+002 4.794204e+001 1.853449e+002 4.446108e+001 7.502223e+001 5.186786e+001 7.098436e+001 6.638519e+001 2.143739e+001 1.554813e+000 2.204398e+000 3.267178e+000 2.892505e+000 2.487163e+000 8.600411e+000 5.005924e+000 9.046828e+000 4.833038e+000 5.643548e+000 3.988893e+000 2.188271e+000 4.070131e+000
<GCONST> 1.101707e+002
<STATE> 3
<MEAN> 25
