~o
<STREAMINFO> 1 25
<VECSIZE> 25<NULLD><MFCC_D_N_Z_0><DIAGC>
~s "silst"
<MEAN> 25
 -7.193333e+000 5.172327e+000 -4.107164e-001 4.310051e+000 -1.052902e+000 1.164630e+001 -5.612666e+000 -4.413509e-001 1.935854e+000 3.513625e+000 -7.417427e+000 -7.688094e-001 -1.572942e-001 -1.234833e-002 -2.227633e-001 -1.665271e-001 -1.064437e-001 1.408892e-002 4.387680e-002 1.762871e-002 1.347905e-001 4.264423e-002 1.145229e-001 1.124224e-001 -1.735795e-001
<VARIANCE> 25
 4.838138e+000 1.574812e+001 1.332579e+001 1.460542e+001 1.759254e+001 2.655474e+001 2.108002e+001 2.526028e+001 2.747500e+001 1.928978e+001 1.783013e+001 1.664137e+001 3.211527e-001 8.893812e-001 9.132650e-001 1.070829e+000 1.093287e+000 1.526191e+000 1.304790e+000 1.736013e+000 2.471908e+000 1.605051e+000 1.587569e+000 1.145653e+000 3.811575e-001
<GCONST> 8.100716e+001
~h "b"
<BEGINHMM>
<NUMSTATES> 5
<STATE> 2
<MEAN> 25
 5.152874e+000 9.144604e-001 1.847960e+000 1.433232e+000 2.404815e+000 5.503062e+000 -1.862550e+000 -1.935777e+000 -1.238864e+000 3.040161e-001 -3.226933e+000 1.666333e+000 4.444210e-001 1.517143e+000 5.907935e-001 7.561284e-001 7.277446e-001 1.713142e+000 -4.478828e-001 -3.346404e-001 -1.816421e-001 8.679848e-001 -1.611879e+000 2.925363e-001 -2.143786e+000
<VARIANCE> 25
 9.467893e+001 2.519159e+001 3.098022e+001 2.510022e+001 2.298717e+001 3.816413e+001 2.809818e+001 2.255301e+001 3.224926e+001 4.931627e+001 4.504167e+001 2.269176e+001 1.629406e+000 9.579733e-001 2.234204e+000 2.800503e+000 1.566788e+000 2.725754e+000 2.555743e+000 2.849661e+000 2.521593e+000 3.298438e+000 5.251587e+000 1.832341e+000 2.782272e+000
<GCONST> 9.903191e+001
<STATE> 3
<MEAN> 25
 7.119272e+000 7.937109e+000 2.938874e+000 4.152887e+000 7.595051e-001 8.601548e+000 -2.760761e+000 -3.715539e+000 -4.244874e+000 1.885057e+000 -4.789630e+000 1.806385e+000 4.056303e-001 5.641665e-001 2.541310e-001 -1.507113e-001 -1.563998e-001 -2.658467e-001 8.373903e-002 -4.398565e-001 -5.602549e-001 -1.318504e-001 4.328087e-001 3.352489e-002 3.455411e-001
<VARIANCE> 25
 4.601339e+001 3.625411e+001 2.323810e+001 2.275854e+001 2.982295e+001 2.757432e+001 2.292085e+001 3.055641e+001 3.615306e+001 2.951273e+001 4.199493e+001 1.986782e+001 4.059229e+000 2.001370e+000 2.017796e+000 2.430417e+000 2.175578e+000 2.843963e+000 2.497154e+000 2.155027e+000 2.949194e+000 3.764310e+000 3.594992e+000 2.004889e+000 2.646680e+000
<GCONST> 9.914603e+001
<STATE> 4
<MEAN> 25
 6.633517e+000 1.544688e+000 1.958482e+000 -1.022306e+000 1.089019e+000 2.305022e+000 1.523446e-001 -2.103656e+000 -4.214215e+000 -1.718884e+000 2.564469e+000 3.456660e+000 1.438858e-001 -2.812738e+000 -1.238866e+000 -2.217340e+000 -1.146113e+000 -2.555260e+000 9.135111e-001 1.510086e-001 8.916102e-001 -1.763839e+000 3.909454e+000 3.282337e-001 5.062730e+000
<VARIANCE> 25
 3.556976e+001 6.103029e+001 3.163482e+001 4.136050e+001 3.087063e+001 6.049826e+001 2.960022e+001 3.534356e+001 3.597295e+001 2.993107e+001 7.767672e+001 2.409668e+001 4.726233e+000 5.258193e+000 4.286560e+000 3.990804e+000 6.033242e+000 6.467531e+000 4.813898e+000 5.906696e+000 6.714228e+000 5.699169e+000 5.267869e+000 6.265946e+000 6.748336e+000
<GCONST> 1.119227e+002
<TRANSP> 5
 0.000000e+000 1.000000e+000 0.000000e+000 0.000000e+000 0.000000e+000
 0.000000e+000 6.308687e-001 3.691313e-001 0.000000e+000 0.000000e+000
 0.000000e+000 0.000000e+000 6.826411e-001 3.173589e-001 0.000000e+000
 0.000000e+000 0.000000e+000 0.000000e+000 6.648442e-001 3.351558e-001
 0.000000e+000 0.000000e+000 0.000000e+000 0.000000e+000 0.000000e+000
<ENDHMM>
~h "d"
<BEGINHMM>
<NUMSTATES> 5
<STATE> 2
<MEAN> 25
 2.914824e+000 -2.897399e+000 8.128674e+000 4.239638e+000 -5.374397e+000 -6.691658e+000 -3.833658e+000 -1.279185e+000 -8.806906e-001 -6.252680e-001 -1.128652e+000 9.034953e-001 7.072930e-002 8.029696e-001 3.088776e-001 2.054510e-001 -1.588459e-001 5.768698e-001 -6.462330e-001 -4.929793e-001 -5.031890e-001 1.518131e-001 -3.711247e-001 -4.004408e-001 -1.143660e+000
<VARIANCE> 25
 3.507826e+001 3.808024e+001 8.261991e+001 2.879005e+001 6.032742e+001 1.172743e+002 4.506030e+001 6.363085e+001 4.664481e+001 2.377362e+001 6.786204e+001 2.410284e+001 2.270483e+000 2.319530e+000 2.192139e+000 2.115019e+000 3.157314e+000 4.374823e+000 4.641629e+000 3.467673e+000 3.201494e+000 2.555816e+000 4.002491e+000 2.424588e+000 5.049302e+000
<GCONST> 1.067481e+002
<STATE> 3
<MEAN> 25
 5.344210e+000 4.447350e+000 3.693147e+000 3.226579e+000 -1.153009e+000 1.334411e+000 -6.657032e+000 -3.259586e+000 -3.873478e+000 2.335759e+000 -4.162625e+000 -8.950156e-001 7.930579e-001 9.800955e-001 2.757598e-001 2.228706e-001 5.232904e-002 7.185926e-001 -5.058675e-001 -3.198343e-001 -2.878229e-001 5.975233e-001 -1.295351e-001 -8.474316e-001 -3.376744e-001
<VARIANCE> 25
 4.887736e+001 4.284790e+001 3.759577e+001 2.813254e+001 5.600123e+001 6.652071e+001 3.297251e+001 4.500832e+001 3.088883e+001 2.437293e+001 4.543396e+001 1.994478e+001 3.256380e+000 1.960179e+000 2.213050e+000 2.307944e+000 3.672251e+000 5.388599e+000 2.605230e+000 2.596252e+000 3.369933e+000 2.854676e+000 3.323830e+000 2.896990e+000 4.018815e+000
<GCONST> 1.038169e+002
<STATE> 4
<MEAN> 25
 5.197482e+000 2.274433e+000 5.642306e+000 2.142428e+000 -1.217619e+000 7.463694e-001 -6.319546e+000 -1.548480e+000 -1.056463e+000 2.755217e+000 -2.882423e+000 -2.341635e+000 6.633623e-002 -1.361309e+000 -3.864120e-002 -3.325744e-001 -1.630605e-001 -1.423123e+000 7.243379e-002 8.345872e-001 8.078728e-001 -1.392449e-001 8.656062e-001 -3.315727e-001 2.199138e+000
<VARIANCE> 25
 4.237994e+001 6.492910e+001 4.052249e+001 4.390527e+001 2.906754e+001 9.402141e+001 3.631208e+001 4.081635e+001 3.213303e+001 3.877838e+001 5.156639e+001 2.584843e+001 4.678354e+000 4.871237e+000 4.009224e+000 3.222014e+000 4.724220e+000 1.100744e+001 4.131026e+000 4.543794e+000 3.460644e+000 5.514125e+000 5.225069e+000 4.007112e+000 7.667444e+000
<GCONST> 1.114838e+002
<TRANSP> 5
 0.000000e+000 1.000000e+000 0.000000e+000 0.000000e+000 0.000000e+000
 0.000000e+000 6.138369e-001 3.861631e-001 0.000000e+000 0.000000e+000
 0.000000e+000 0.000000e+000 4.579481e-001 5.420520e-001 0.000000e+000
 0.000000e+000 0.000000e+000 0.000000e+000 6.272447e-001 3.727554e-001
 0.000000e+000 0.000000e+000 0.000000e+000 0.000000e+000 0.000000e+000
<ENDHMM>
~h "f"
<BEGINHMM>
<NUMSTATES> 5
<STATE> 2
<MEAN> 25
 -3.031762e+000 -1.930495e+000 -6.642316e-002 3.062809e+000 4.426298e+000 2.148150e-001 -5.015396e-001 4.024796e+000 1.438454e+000 1.638727e+000 -1.174061e+000 1.333705e+000 -3.557116e+000 -6.094564e-001 5.951930e-001 1.817072e-001 2.047162e+000 3.065239e-001 -1.094247e-001 1.873557e+000 5.681729e-001 4.263454e-001 1.219992e+000 6.021214e-001 7.227281e-002
<VARIANCE> 25
 8.264145e+001 1.760809e+001 1.454640e+001 3.247081e+001 2.756364e+001 2.857517e+001 3.073707e+001 3.384674e+001 2.214166e+001 3.220048e+001 2.957261e+001 1.297341e+001 3.815926e+000 2.605345e+000 2.563384e+000 4.999315e+000 2.996199e+000 4.755982e+000 4.252836e+000 2.743689e+000 3.841039e+000 6.135737e+000 3.323061e+000 1.332439e+000 2.653237e+000
<GCONST> 1.011076e+002
<STATE> 3
<MEAN> 25
 -1.268841e+001 -4.883743e+000 1.790338e+000 2.683105e+000 8.019484e+000 -8.304847e-001 4.438182e-001 6.190026e+000 2.285504e+000 6.464980e-001 1.206857e+000 2.470072e+000 -9.160776e-001 -9.111215e-001 -3.036827e-001 -4.474993e-001 1.835637e-001 6.677456e-002 2.075491e-001 -1.523645e-001 5.346895e-002 -2.934519e-002 2.691974e-001 3.268224e-002 -1.466871e-002
<VARIANCE> 25
 1.920850e+001 1.605096e+001 1.414478e+001 2.612156e+001 1.567939e+001 2.440298e+001 2.717247e+001 2.381910e+001 4.379345e+001 3.546674e+001 2.533293e+001 1.754896e+001 2.807660e+000 1.517475e+000 1.051126e+000 2.573067e+000 1.403474e+000 2.257951e+000 2.180249e+000 3.184901e+000 2.331905e+000 3.605821e+000 2.484958e+000 1.590176e+000 2.031454e+000
<GCONST> 9.320280e+001
<STATE> 4
<MEAN> 25
 -6.798789e+000 -6.577341e+000 -2.328997e+000 -4.076365e+000 3.782744e+000 2.573314e+000 4.424773e+000 3.650107e+000 -4.351527e-001 5.547071e-001 3.141010e+000 2.489076e+000 3.604137e+000 1.155442e+000 -6.780794e-001 -1.828866e+000 -1.827082e+000 7.450843e-001 1.666444e+000 -8.873414e-001 -5.551546e-001 -7.147275e-001 2.521346e-001 -1.014708e-001 9.626925e-001
<VARIANCE> 25
 6.771418e+001 3.041151e+001 1.977749e+001 2.743923e+001 4.641268e+001 2.473514e+001 3.968747e+001 2.757830e+001 4.147427e+001 3.383460e+001 3.793050e+001 1.938245e+001 6.993070e+000 3.412721e+000 2.933889e+000 2.042861e+000 3.976315e+000 2.258645e+000 5.521806e+000 3.388215e+000 3.402842e+000 4.948041e+000 4.372589e+000 2.213555e+000 5.728896e+000
<GCONST> 1.046904e+002
<TRANSP> 5
 0.000000e+000 1.000000e+000 0.000000e+000 0.000000e+000 0.000000e+000
 0.000000e+000 5.531819e-001 4.468181e-001 0.000000e+000 0.000000e+000
 0.000000e+000 0.000000e+000 7.498562e-001 2.501438e-001 0.000000e+000
 0.000000e+000 0.000000e+000 0.000000e+000 7.631332e-001 2.368667e-001
 0.000000e+000 0.000000e+000 0.000000e+000 0.000000e+000 0.000000e+000
<ENDHMM>
~h "g"
<BEGINHMM>
<NUMSTATES> 5
<STATE> 2
<MEAN> 25
 8.744004e-001 -4.644502e+000 -2.196108e+000 9.190419e-002 4.475780e+000 -1.420103e+000 6.654174e-001 2.887063e+000 2.857669e+000 2.105922e+000 -3.512216e+000 -4.278987e+000 1.073339e-001 -7.328218e-003 -4.600885e-001 -1.051732e-001 1.473628e-001 1.254792e+000 7.567576e-002 -1.240126e-001 -6.431761e-002 3.859131e-001 -6.729231e-001 -2.136637e-001 -7.248558e-001
<VARIANCE> 25
 6.855672e+001 2.638156e+001 2.962036e+001 2.132894e+001 2.408821e+001 9.474470e+001 5.123471e+001 3.406200e+001 3.026701e+001 9.104088e+001 8.225336e+001 2.143897e+001 5.482584e-001 3.896083e+000 1.098945e+000 1.775478e+000 3.784186e+000 3.530570e+000 4.379426e+000 4.162928e+000 2.975313e+000 3.664760e+000 4.849953e+000 3.743890e+000 3.264758e+000
<GCONST> 1.038839e+002
<STATE> 3
<MEAN> 25
 -2.849627e-001 9.759556e-001 -2.868862e+000 2.832151e+000 7.715766e+000 4.890078e+000 -2.207150e+000 2.726666e+000 4.610156e+000 3.238103e+000 -4.722693e+000 -1.238790e+000 1.055412e-001 1.626412e+000 4.737769e-001 9.001063e-001 2.229019e-001 8.335543e-001 -1.087271e+000 -1.480553e-001 -7.360843e-002 4.719063e-001 -7.006185e-001 9.894254e-001 -1.606924e+000
<VARIANCE> 25
 6.949525e+001 3.828499e+001 3.760006e+001 2.817770e+001 4.830629e+001 8.423915e+001 5.160198e+001 3.473421e+001 4.733176e+001 6.359342e+001 5.767047e+001 1.993906e+001 3.861898e+000 3.180890e+000 2.397967e+000 3.518552e+000 3.780210e+000 3.452687e+000 3.013965e+000 3.569324e+000 5.106319e+000 2.647527e+000 5.976573e+000 4.300123e+000 3.115895e+000
<GCONST> 1.082311e+002
<STATE> 4
<MEAN> 25
 3.167181e+000 4.101539e+000 5.650983e+000 2.188712e+000 5.337905e-001 2.932994e+000 -2.572825e+000 -9.529042e-001 -3.280384e+000 2.678387e+000 -3.145700e+000 -1.537300e+000 -3.496043e-001 -8.907791e-001 4.794545e-001 -7.563246e-001 -9.921664e-001 -1.142936e+000 8.249816e-001 -2.723270e-001 -1.053654e+000 -6.896103e-001 1.631252e+000 -1.266595e-001 2.497048e+000
<VARIANCE> 25
 6.870370e+001 4.349015e+001 4.759688e+001 4.009926e+001 4.245537e+001 4.795917e+001 6.871123e+001 3.606212e+001 3.738693e+001 2.557420e+001 9.389951e+001 2.614218e+001 9.170429e+000 4.862017e+000 2.858345e+000 3.437674e+000 3.857904e+000 8.253213e+000 8.562345e+000 5.012026e+000 3.986581e+000 4.353431e+000 5.364677e+000 2.896619e+000 4.574134e+000
<GCONST> 1.120261e+002
<TRANSP> 5
 0.000000e+000 1.000000e+000 0.000000e+000 0.000000e+000 0.000000e+000
 0.000000e+000 6.261308e-001 3.738692e-001 0.000000e+000 0.000000e+000
 0.000000e+000 0.000000e+000 6.918004e-001 3.081996e-001 0.000000e+000
 0.000000e+000 0.000000e+000 0.000000e+000 8.420283e-001 1.579716e-001
 0.000000e+000 0.000000e+000 0.000000e+000 0.000000e+000 0.000000e+000
<ENDHMM>
~h "k"
<BEGINHMM>
<NUMSTATES> 5
<STATE> 2
<MEAN> 25
 1.173676e+000 -1.114620e+000 -1.539724e+000 1.191659e+000 4.885386e+000 -2.265370e+000 -1.147782e+000 1.245895e+000 -6.163849e-002 1.649534e+000 -3.123666e+000 -9.105550e-001 -5.794643e-001 3.399242e-001 3.284498e-001 -1.240427e-001 4.740170e-001 1.654291e+000 -8.942823e-001 3.394296e-001 3.830865e-001 7.756978e-001 -5.986646e-001 -6.150996e-002 -1.723035e+000
<VARIANCE> 25
 4.284399e+001 2.962272e+001 4.631893e+001 3.275951e+001 5.324964e+001 1.269433e+002 7.558579e+001 3.282753e+001 3.095654e+001 2.687277e+001 5.570855e+001 2.481495e+001 1.714226e+000 2.486581e+000 3.233718e+000 2.635486e+000 3.554634e+000 7.067207e+000 3.638348e+000 4.310119e+000 3.718116e+000 4.657665e+000 5.654395e+000 3.687202e+000 6.341253e+000
<GCONST> 1.083132e+002
<STATE> 3
<MEAN> 25
 -1.626282e+000 -1.509546e+000 -1.374129e+000 -2.856251e+000 2.255774e+000 3.726302e+000 -5.221062e+000 3.257739e+000 -2.138525e-001 4.369685e+000 1.320497e+000 -1.627532e+000 -1.165793e+000 -2.427570e+000 -9.531581e-001 -2.750179e+000 5.434619e-001 -1.270930e+000 1.703720e-001 1.688846e+000 -1.054617e+000 -6.202072e-002 3.985968e+000 -1.515698e+000 4.646458e+000
<VARIANCE> 25
 3.350183e+001 3.723730e+001 3.205929e+001 5.543660e+001 3.898025e+001 5.720225e+001 3.141704e+001 4.830391e+001 4.025921e+001 2.309960e+001 8.395003e+001 2.963815e+001 3.864224e+000 4.520155e+000 6.370451e+000 6.481084e+000 7.296960e+000 6.301809e+000 5.659499e+000 6.360795e+000 4.744063e+000 3.287757e+000 9.652130e+000 4.547415e+000 1.498442e+001
<GCONST> 1.134761e+002
<STATE> 4
<MEAN> 25
 -3.990047e+000 -6.683680e+000 -2.002753e+000 -6.098783e+000 4.064875e+000 -1.126637e+000 -2.261953e+000 7.042379e+000 -7.816015e-001 2.529779e+000 1.132524e+001 -4.512853e+000 6.587793e-001 2.283159e-001 5.493558e-001 2.696362e-001 4.316328e-001 -1.037643e+000 1.297915e+000 -4.162255e-002 1.141596e-001 -1.270287e+000 4.579663e-001 5.421804e-001 1.702215e+000
<VARIANCE> 25
 3.734804e+001 2.389444e+001 4.726773e+001 5.403765e+001 4.620707e+001 5.352819e+001 5.368870e+001 3.746702e+001 4.929608e+001 4.157856e+001 6.923345e+001 3.164346e+001 8.062153e+000 2.970906e+000 2.873674e+000 4.721174e+000 3.384086e+000 6.443728e+000 3.767185e+000 3.888341e+000 4.208423e+000 4.906849e+000 7.343062e+000 3.266636e+000 9.195373e+000
<GCONST> 1.112979e+002
<TRANSP> 5
 0.000000e+000 1.000000e+000 0.000000e+000 0.000000e+000 0.000000e+000
 0.000000e+000 5.644744e-001 4.355256e-001 0.000000e+000 0.000000e+000
 0.000000e+000 0.000000e+000 5.055348e-001 4.944652e-001 0.000000e+000
 0.000000e+000 0.000000e+000 0.000000e+000 6.851171e-001 3.148829e-001
 0.000000e+000 0.000000e+000 0.000000e+000 0.000000e+000 0.000000e+000
<ENDHMM>
~h "l"
<BEGINHMM>
<NUMSTATES> 5
<STATE> 2
<MEAN> 25
 7.322868e+000 -7.016972e+000 -2.131888e+000 -7.442885e+000 1.036714e+000 -7.290002e+000 2.412205e+000 -3.374044e+000 -2.898339e+000 2.367129e+000 7.476618e+000 -4.055466e+000 1.682126e-001 1.293611e-001 -1.198433e-001 -7.908254e-001 7.562866e-001 -2.406892e-002 -1.082427e-003 -1.037578e-001 -5.904929e-001 4.133137e-001 8.368544e-002 -2.046564e-001 3.266309e-001
<VARIANCE> 25
 1.924745e+001 2.860016e+001 2.311900e+001 3.660682e+001 4.291513e+001 3.303259e+001 6.203548e+001 5.572036e+001 6.000792e+001 2.810090e+001 3.720117e+001 3.607648e+001 1.202423e+000 1.204424e+000 1.756395e+000 2.525841e+000 2.880040e+000 2.870063e+000 4.002103e+000 5.399925e+000 3.024737e+000 2.217202e+000 2.594112e+000 2.016930e+000 1.818179e+000
<GCONST> 1.002369e+002
<STATE> 3
<MEAN> 25
 7.362574e+000 -5.331445e+000 -4.420315e+000 -1.201272e+001 3.942909e+000 -7.129532e+000 7.581871e+000 -4.675700e+000 -6.109437e+000 2.735029e+000 7.415582e+000 -2.535671e+000 5.824769e-002 2.939699e-001 8.896318e-002 -7.172870e-003 2.522072e-001 -2.167605e-002 2.485939e-001 -2.261786e-001 -1.400692e-001 -1.187400e-001 -2.056197e-001 2.119304e-001 -3.488912e-001
<VARIANCE> 25
 9.390979e+000 1.606819e+001 2.859266e+001 2.481375e+001 3.203673e+001 3.387195e+001 6.226426e+001 4.861445e+001 4.904834e+001 2.217822e+001 2.258657e+001 4.338364e+001 4.459145e-001 6.234570e-001 9.835746e-001 1.217947e+000 1.409720e+000 2.056827e+000 2.914928e+000 2.866400e+000 3.423606e+000 1.768936e+000 1.669644e+000 1.834281e+000 7.845431e-001
<GCONST> 9.117784e+001
<STATE> 4
<MEAN> 25
 7.514956e+000 -5.216573e-001 -3.035892e+000 -7.241532e+000 5.535663e+000 -2.045382e+000 5.694347e+000 -5.063068e+000 -5.381412e+000 4.071451e+000 1.693378e+000 5.931549e-001 -3.216552e-001 3.869647e-001 3.265551e-001 1.246097e+000 -2.579162e-001 1.114193e+000 -1.297649e+000 2.972424e-001 6.660513e-001 -2.453935e-001 -8.215415e-001 2.123221e-001 -1.750712e+000
<VARIANCE> 25
 1.271665e+001 2.918652e+001 2.466660e+001 6.274988e+001 2.817933e+001 1.012644e+002 6.618068e+001 5.322195e+001 4.610753e+001 4.163080e+001 4.520870e+001 4.105204e+001 1.110085e+000 1.180852e+000 1.296906e+000 2.389944e+000 2.408240e+000 4.289763e+000 3.933553e+000 3.658335e+000 3.144280e+000 2.769700e+000 2.962888e+000 2.670467e+000 2.482551e+000
<GCONST> 1.019629e+002
<TRANSP> 5
 0.000000e+000 1.000000e+000 0.000000e+000 0.000000e+000 0.000000e+000
 0.000000e+000 5.873854e-001 4.126146e-001 0.000000e+000 0.000000e+000
 0.000000e+000 0.000000e+000 7.616637e-001 2.383363e-001 0.000000e+000
 0.000000e+000 0.000000e+000 0.000000e+000 7.462862e-001 2.537138e-001
 0.000000e+000 0.000000e+000 0.000000e+000 0.000000e+000 0.000000e+000
<ENDHMM>
~h "m"
<BEGINHMM>
<NUMSTATES> 5
<STATE> 2
<MEAN> 25
 1.206009e+001 -5.506261e+000 -3.628122e-001 7.120995e+000 7.465969e-001 -7.671934e+000 1.974200e+000 1.863308e+000 -6.016169e+000 -9.374690e+000 -4.705884e+000 2.937027e+000 6.244923e-001 -2.040361e-001 2.718484e-001 1.780301e+000 1.431958e-001 2.455369e-002 -1.996970e-001 -2.959810e-002 -8.057043e-001 -5.241010e-001 -1.353827e+000 6.823965e-001 -9.968751e-001
<VARIANCE> 25
 2.620400e+001 1.733634e+001 1.514273e+001 2.422660e+001 2.033672e+001 4.596785e+001 3.408117e+001 4.052691e+001 4.079575e+001 4.643834e+001 2.936702e+001 1.878420e+001 8.064364e-001 8.207027e-001 1.073499e+000 2.769735e+000 1.337549e+000 2.533772e+000 1.729734e+000 2.303921e+000 2.647720e+000 2.171696e+000 2.948394e+000 1.548053e+000 1.320807e+000
<GCONST> 9.272707e+001
<STATE> 3
<MEAN> 25
 1.004833e+001 -2.778876e+000 4.960662e-001 9.560668e+000 5.636826e-001 -2.683333e+000 -8.179168e-001 3.897893e-002 -6.597180e+000 -6.934021e+000 -6.205640e+000 5.659305e+000 2.333015e-001 1.041719e-001 -3.924975e-001 -3.586132e-001 -2.713240e-001 2.653452e-001 -2.225933e-001 -5.275321e-001 4.424251e-001 1.031427e+000 6.103199e-001 7.771117e-001 -2.539138e-001
<VARIANCE> 25
 6.234356e+001 3.621137e+001 1.299182e+001 1.846515e+001 1.776888e+001 6.909828e+001 2.940752e+001 3.077707e+001 4.689458e+001 5.478149e+001 2.554766e+001 1.969249e+001 3.331412e+000 2.181911e+000 1.236945e+000 3.122223e+000 1.631111e+000 5.863640e+000 1.983834e+000 2.842714e+000 2.722738e+000 3.679160e+000 2.492296e+000 1.441616e+000 4.480437e+000
<GCONST> 9.954782e+001
<STATE> 4
<MEAN> 25
 1.319641e+001 -6.573378e+000 -1.735144e+000 6.085367e+000 1.686844e-001 -8.288074e+000 -7.032763e-001 1.376912e+000 -4.713777e+000 -4.498406e+000 -3.931907e-001 7.332577e+000 -3.943547e-001 -5.447090e-001 3.515007e-002 -2.259734e+000 2.042949e-001 -1.301973e+000 2.395566e-001 4.587843e-001 1.039484e+000 1.204317e+000 1.584786e+000 -8.018985e-001 2.319427e+000
<VARIANCE> 25
 2.358875e+001 2.944139e+001 2.581888e+001 5.010551e+001 2.015817e+001 4.407189e+001 3.733308e+001 5.165482e+001 3.053587e+001 3.966048e+001 3.030951e+001 2.099873e+001 7.056365e+000 2.113432e+000 2.243744e+000 5.163322e+000 2.400171e+000 5.799687e+000 2.828837e+000 4.654068e+000 4.952340e+000 4.943747e+000 4.332052e+000 3.422711e+000 5.455469e+000
<GCONST> 1.055184e+002
<TRANSP> 5
 0.000000e+000 1.000000e+000 0.000000e+000 0.000000e+000 0.000000e+000
 0.000000e+000 7.731218e-001 2.268782e-001 0.000000e+000 0.000000e+000
 0.000000e+000 0.000000e+000 5.106480e-001 4.893521e-001 0.000000e+000
 0.000000e+000 0.000000e+000 0.000000e+000 6.835464e-001 3.164536e-001
 0.000000e+000 0.000000e+000 0.000000e+000 0.000000e+000 0.000000e+000
<ENDHMM>
~h "n"
<BEGINHMM>
<NUMSTATES> 5
<STATE> 2
<MEAN> 25
 1.203431e+001 -7.182684e+000 4.466252e-001 4.232348e+000 -1.493068e+000 -1.091235e+001 1.802629e+000 -1.339857e-001 -2.834955e+000 -1.706947e+000 -3.354728e+000 8.359027e-001 6.304410e-001 3.487721e-001 3.197767e-001 1.421730e+000 -5.743499e-001 1.978583e-001 -3.806658e-001 2.473175e-001 -6.648012e-001 -3.897423e-001 -1.015877e+000 4.642705e-001 -1.091389e+000
<VARIANCE> 25
 1.710721e+001 1.263819e+001 1.721165e+001 4.670417e+001 2.560013e+001 3.233629e+001 2.827416e+001 2.492093e+001 3.794947e+001 2.087052e+001 5.040359e+001 2.332610e+001 5.916739e-001 7.251711e-001 1.276744e+000 2.648555e+000 1.793849e+000 2.464138e+000 2.627758e+000 2.384173e+000 2.303092e+000 2.498929e+000 3.657264e+000 1.875682e+000 1.212216e+000
<GCONST> 9.259486e+001
<STATE> 3
<MEAN> 25
 1.404209e+001 -5.685098e+000 1.289625e+000 8.398863e+000 -3.851018e+000 -9.259525e+000 6.027814e-001 1.523761e+000 -6.382966e+000 -1.748395e+000 -4.980854e+000 1.986326e+000 -3.217990e-001 4.862097e-001 1.020219e-001 -6.588047e-001 2.043926e-001 7.340857e-001 -2.245753e-001 3.734626e-001 6.330329e-002 2.629514e-003 6.988718e-001 -4.733103e-001 -2.953979e-001
<VARIANCE> 25
 1.161662e+001 1.613361e+001 1.548154e+001 2.969691e+001 3.056966e+001 2.913605e+001 2.855958e+001 2.699561e+001 2.696940e+001 2.409098e+001 3.519418e+001 2.577719e+001 1.030077e+000 1.649925e+000 1.981031e+000 4.434076e+000 2.742831e+000 2.997473e+000 2.905417e+000 3.099973e+000 2.779855e+000 2.571778e+000 4.884342e+000 2.588450e+000 2.167468e+000
<GCONST> 9.632320e+001
<STATE> 4
<MEAN> 25
 8.501864e+000 -2.156047e+000 3.586117e+000 6.046071e+000 -6.811556e-001 -3.333339e+000 -1.888535e+000 2.359902e+000 -3.249764e+000 -4.496884e-001 -3.413431e+000 1.460512e+000 -1.360656e+000 7.190793e-001 1.157112e-001 -1.184294e+000 4.534940e-001 1.309965e+000 1.857251e-001 7.056577e-004 8.920975e-001 4.118781e-001 7.754371e-001 -2.766191e-001 -4.437153e-001
<VARIANCE> 25
 3.587254e+001 3.836854e+001 3.540580e+001 5.217722e+001 3.141287e+001 5.335617e+001 5.662197e+001 4.006752e+001 4.521851e+001 3.959435e+001 5.006293e+001 3.677927e+001 2.597548e+000 2.945792e+000 3.389520e+000 3.622343e+000 3.687193e+000 4.694745e+000 5.302962e+000 3.065424e+000 2.878609e+000 3.382756e+000 4.165135e+000 2.968077e+000 5.078144e+000
<GCONST> 1.074534e+002
<TRANSP> 5
 0.000000e+000 1.000000e+000 0.000000e+000 0.000000e+000 0.000000e+000
 0.000000e+000 7.503254e-001 2.496746e-001 0.000000e+000 0.000000e+000
 0.000000e+000 0.000000e+000 4.880140e-001 5.119860e-001 0.000000e+000
 0.000000e+000 0.000000e+000 0.000000e+000 6.668257e-001 3.331743e-001
 0.000000e+000 0.000000e+000 0.000000e+000 0.000000e+000 0.000000e+000
<ENDHMM>
~h "p"
<BEGINHMM>
<NUMSTATES> 5
<STATE> 2
<MEAN> 25
 2.357682e+000 2.648684e+000 -3.663142e+000 6.636095e-002 1.487094e+000 9.733680e+000 -3.383135e+000 -2.098860e+000 -3.285035e-001 3.871478e+000 -6.504126e+000 2.963169e+000 -1.340022e+000 -7.909297e-001 6.040749e-001 -2.981674e-001 -6.618315e-001 -9.359801e-001 2.851932e-001 4.916075e-001 -8.167984e-002 -5.159099e-001 1.380078e+000 -3.155885e-001 6.743873e-001
<VARIANCE> 25
 3.215958e+001 1.763592e+001 1.773128e+001 2.182586e+001 2.565527e+001 4.978188e+001 2.102230e+001 1.947231e+001 2.484687e+001 5.233501e+001 2.285229e+001 2.510592e+001 1.809388e+000 4.110846e+000 2.688921e+000 2.753697e+000 3.802429e+000 5.988199e+000 2.830223e+000 4.670587e+000 2.460012e+000 3.992019e+000 7.316158e+000 2.944203e+000 1.056648e+001
<GCONST> 1.023634e+002
<STATE> 3
<MEAN> 25
 -8.571160e-001 -5.787899e+000 -1.077285e+000 -2.754782e+000 1.269835e-001 -1.164567e-001 -2.255843e-001 1.758069e+000 -1.740868e+000 1.086114e+000 4.753009e+000 1.789595e+000 -1.477570e-002 -2.579920e+000 9.680241e-001 -6.212956e-001 -4.739741e-001 -3.071561e+000 1.258047e+000 3.574132e-001 -9.394930e-001 -7.531704e-001 4.067392e+000 -3.278823e-001 5.688869e+000
<VARIANCE> 25
 2.942187e+001 2.663617e+001 3.102999e+001 3.180466e+001 4.865913e+001 4.872478e+001 3.014103e+001 4.319437e+001 3.599033e+001 3.573822e+001 4.937471e+001 3.115475e+001 6.878166e+000 3.327191e+000 6.684023e+000 4.775434e+000 4.943193e+000 8.716904e+000 6.328736e+000 5.091563e+000 4.500135e+000 3.295204e+000 4.618907e+000 2.139368e+000 8.962791e+000
<GCONST> 1.099560e+002
<STATE> 4
<MEAN> 25
 3.142920e+000 -5.727714e+000 3.630536e-001 -2.579706e+000 -3.256331e-002 -3.777435e+000 4.708302e+000 -2.142707e+000 -2.328663e+000 -2.438880e+000 8.133008e+000 2.152885e+000 9.854895e-001 -1.698052e-001 2.825449e-001 1.053618e-001 -1.484375e-001 -8.331046e-001 3.006914e-001 -4.238595e-001 -5.800813e-001 -5.472739e-001 5.908814e-001 -4.865093e-001 1.727231e+000
<VARIANCE> 25
 1.058369e+002 2.316970e+001 7.245208e+001 4.033448e+001 5.978807e+001 5.052771e+001 7.143198e+001 7.300459e+001 3.852491e+001 3.581413e+001 3.375943e+001 2.170320e+001 1.110570e+001 3.924938e+000 5.511134e+000 5.625081e+000 4.840574e+000 4.651268e+000 6.625817e+000 4.950602e+000 5.343533e+000 2.751887e+000 3.686207e+000 2.846203e+000 5.375868e+000
<GCONST> 1.126649e+002
<TRANSP> 5
 0.000000e+000 1.000000e+000 0.000000e+000 0.000000e+000 0.000000e+000
 0.000000e+000 6.698068e-001 3.301932e-001 0.000000e+000 0.000000e+000
 0.000000e+000 0.000000e+000 4.181209e-001 5.818792e-001 0.000000e+000
 0.000000e+000 0.000000e+000 0.000000e+000 6.312931e-001 3.687069e-001
 0.000000e+000 0.000000e+000 0.000000e+000 0.000000e+000 0.000000e+000
<ENDHMM>
~h "r"
<BEGINHMM>
<NUMSTATES> 5
<STATE> 2
<MEAN> 25
 5.598614e+000 -3.362715e+000 -5.831123e+000 -4.692846e+000 6.117337e+000 -7.081598e+000 1.331610e+000 1.000736e+000 -2.399796e-001 -3.989009e+000 7.716107e+000 3.937443e-001 3.011252e-001 -2.320197e-001 -5.284832e-001 1.992267e-001 2.446881e-001 -7.681529e-001 2.211916e-001 -1.468166e-001 3.929975e-002 -2.404489e-001 -2.194504e-001 -1.639396e-001 4.157903e-001
<VARIANCE> 25
 2.349806e+001 2.824206e+001 2.299516e+001 2.743086e+001 3.716550e+001 7.780618e+001 7.176934e+001 2.947623e+001 2.297249e+001 3.467885e+001 4.001114e+001 2.959547e+001 2.587278e+000 2.179858e+000 1.986674e+000 1.919351e+000 3.478656e+000 7.096455e+000 5.276532e+000 3.062342e+000 1.738596e+000 3.182114e+000 3.020344e+000 1.841083e+000 2.617598e+000
<GCONST> 1.017211e+002
<STATE> 3
<MEAN> 25
 6.766773e+000 -5.041109e+000 -5.270046e+000 -1.152549e+000 3.868794e+000 -1.292198e+001 3.126034e+000 1.660140e+000 9.788280e-001 -5.779279e+000 4.565259e+000 -9.597850e-003 2.220152e-001 -3.947027e-002 6.980747e-001 1.119795e+000 -5.466852e-001 -6.852982e-001 -3.047537e-001 3.684033e-001 3.413145e-001 -5.173187e-001 -4.513621e-001 4.128114e-001 -3.071999e-001
<VARIANCE> 25
 1.129462e+001 2.715978e+001 2.308473e+001 3.325938e+001 2.723207e+001 9.526254e+001 7.613422e+001 2.481679e+001 3.301254e+001 3.705429e+001 4.028105e+001 2.162490e+001 8.930464e-001 1.334845e+000 1.231019e+000 2.147986e+000 1.759747e+000 2.754287e+000 3.393476e+000 1.617564e+000 2.367906e+000 2.617174e+000 2.299829e+000 1.327485e+000 1.509352e+000
<GCONST> 9.538163e+001
<STATE> 4
<MEAN> 25
 7.218180e+000 -2.889597e+000 -2.534306e+000 1.869390e+000 2.765940e+000 -8.126139e+000 2.247960e+000 6.485391e-001 1.266971e+000 -1.838894e+000 2.015306e+000 3.353633e+000 -3.082533e-001 1.978303e-001 9.307922e-001 9.377455e-001 2.540923e-002 1.356617e+000 -7.016239e-001 -1.526814e-002 -1.790358e-001 9.898437e-001 -9.204937e-001 2.510087e-001 -1.838078e+000
<VARIANCE> 25
 1.259132e+001 3.032560e+001 3.278609e+001 5.472099e+001 3.017382e+001 1.739779e+002 5.729228e+001 2.460513e+001 4.132253e+001 5.529686e+001 5.592306e+001 4.530567e+001 1.522515e+000 1.344026e+000 1.589164e+000 3.155061e+000 3.462663e+000 6.474181e+000 3.429641e+000 3.329312e+000 3.566455e+000 4.261761e+000 3.366953e+000 3.135217e+000 3.848745e+000
<GCONST> 1.050718e+002
<TRANSP> 5
 0.000000e+000 1.000000e+000 0.000000e+000 0.000000e+000 0.000000e+000
 0.000000e+000 6.902363e-001 3.097637e-001 0.000000e+000 0.000000e+000
 0.000000e+000 0.000000e+000 5.868458e-001 4.131541e-001 0.000000e+000
 0.000000e+000 0.000000e+000 0.000000e+000 5.720935e-001 4.279064e-001
 0.000000e+000 0.000000e+000 0.000000e+000 0.000000e+000 0.000000e+000
<ENDHMM>
~h "s"
<BEGINHMM>
<NUMSTATES> 5
<STATE> 2
<MEAN> 25
 -7.843634e+000 3.454290e+000 2.366868e+000 -2.144673e+000 8.703532e+000 -4.598088e+000 -6.544313e-001 4.589497e+000 8.273257e-003 -1.193791e+000 1.738070e+000 3.865668e-001 -4.051999e+000 1.286271e+000 4.807410e-001 -3.798003e-001 1.170786e+000 1.050257e+000 -1.576018e-001 1.649487e+000 1.206231e+000 -2.105781e-001 6.836457e-001 1.271359e+000 5.242984e-001
<VARIANCE> 25
 8.335959e+001 2.614025e+001 2.937738e+001 3.409444e+001 3.312662e+001 4.200183e+001 3.925550e+001 5.119622e+001 3.026205e+001 3.347682e+001 2.815486e+001 2.855706e+001 3.556566e+000 2.466594e+000 2.050227e+000 3.482824e+000 2.754465e+000 4.176784e+000 6.151659e+000 5.527359e+000 3.261692e+000 4.399970e+000 2.674237e+000 3.176471e+000 2.260930e+000
<GCONST> 1.047228e+002
<STATE> 3
<MEAN> 25
 -2.022075e+001 5.503346e+000 4.470845e+000 -2.504232e+000 1.083468e+001 -1.224697e+000 3.124184e+000 9.985653e+000 4.170260e+000 -1.297388e-001 3.532332e+000 4.544200e+000 -2.565049e-001 -4.847351e-001 2.208006e-001 1.012324e-002 -1.312466e-001 3.391028e-001 2.866620e-001 8.895550e-002 2.928187e-001 1.728020e-001 -1.921589e-001 8.966730e-002 -4.904295e-001
<VARIANCE> 25
 1.448272e+001 2.125758e+001 1.842546e+001 1.756356e+001 2.630105e+001 3.965527e+001 4.114983e+001 3.607996e+001 3.840009e+001 2.626664e+001 2.360385e+001 1.956892e+001 2.115070e+000 2.067079e+000 1.280057e+000 1.473685e+000 2.120428e+000 1.962180e+000 2.450268e+000 2.851230e+000 2.275584e+000 2.455156e+000 2.098769e+000 2.187398e+000 1.439457e+000
<GCONST> 9.384893e+001
<STATE> 4
<MEAN> 25
 -1.218297e+001 1.240576e+000 2.959108e+000 -2.726564e+000 7.539247e+000 -1.347091e+000 6.763774e-001 5.050629e+000 2.949392e+000 1.329069e+000 5.002712e-002 1.957205e+000 3.326296e+000 -6.125737e-001 -7.675279e-001 1.994138e-001 -1.352623e+000 -3.294395e-001 -8.416614e-001 -1.873012e+000 -1.095719e+000 2.507740e-001 -1.008716e+000 -1.172695e+000 -1.483124e+000
<VARIANCE> 25
 4.691629e+001 2.639403e+001 2.668671e+001 2.714127e+001 2.949999e+001 5.753917e+001 4.463087e+001 6.601712e+001 3.339128e+001 2.627904e+001 2.917324e+001 2.390333e+001 6.378158e+000 2.662348e+000 1.947454e+000 2.306729e+000 4.153629e+000 4.944493e+000 4.145110e+000 3.375481e+000 3.509286e+000 3.003523e+000 3.117730e+000 2.933551e+000 8.009629e+000
<GCONST> 1.050475e+002
<TRANSP> 5
 0.000000e+000 1.000000e+000 0.000000e+000 0.000000e+000 0.000000e+000
 0.000000e+000 7.348873e-001 2.651128e-001 0.000000e+000 0.000000e+000
 0.000000e+000 0.000000e+000 8.181381e-001 1.818620e-001 0.000000e+000
 0.000000e+000 0.000000e+000 0.000000e+000 6.814685e-001 3.185314e-001
 0.000000e+000 0.000000e+000 0.000000e+000 0.000000e+000 0.000000e+000
<ENDHMM>
~h "t"
<BEGINHMM>
<NUMSTATES> 5
<STATE> 2
<MEAN> 25
 6.621268e-001 7.566375e-001 2.348224e+000 3.128465e-001 1.681913e+000 1.690798e+000 -4.718791e+000 -1.716232e+000 -1.757360e+000 3.212924e+000 -4.606431e+000 1.744984e+000 -1.392048e+000 -1.039626e+000 -3.666160e-001 -1.456612e+000 8.591815e-003 -8.430574e-001 8.123260e-001 8.566673e-001 9.363917e-001 -1.386245e-001 6.016365e-001 1.318129e-001 1.090865e+000
<VARIANCE> 25
 3.098465e+001 3.907589e+001 3.318287e+001 3.475076e+001 3.399959e+001 8.125004e+001 4.508410e+001 3.995646e+001 4.420068e+001 3.617179e+001 3.237683e+001 2.585439e+001 5.614031e+000 4.853706e+000 3.116078e+000 5.709334e+000 5.428536e+000 7.391595e+000 4.599646e+000 5.492683e+000 7.180930e+000 4.765587e+000 5.403690e+000 3.177206e+000 1.165466e+001
<GCONST> 1.115600e+002
<STATE> 3
<MEAN> 25
 -2.735055e+000 -4.833915e+000 -4.008713e-001 -5.502918e+000 9.934783e-001 -5.544508e+000 7.153735e-001 1.830204e+000 1.868763e+000 8.615107e-001 9.980799e-001 1.080230e+000 2.099490e-001 -7.586262e-001 -5.254008e-001 -1.023998e+000 -2.602189e-001 -2.282598e+000 8.861936e-001 2.005950e-001 2.764763e-001 -2.521201e-001 1.762380e+000 -4.813161e-001 3.512086e+000
<VARIANCE> 25
 4.663364e+001 2.903475e+001 2.176847e+001 4.850838e+001 5.054209e+001 7.177606e+001 3.504115e+001 4.291190e+001 4.029926e+001 3.270542e+001 3.355804e+001 3.518126e+001 5.386381e+000 3.051289e+000 3.598989e+000 4.642566e+000 3.754298e+000 8.367538e+000 4.852785e+000 6.955155e+000 5.550422e+000 4.680917e+000 5.389845e+000 4.099726e+000 9.911607e+000
<GCONST> 1.111178e+002
<STATE> 4
<MEAN> 25
 -1.106769e-002 -3.788329e+000 -5.506364e-001 -4.137791e+000 1.062917e+000 -8.133690e+000 4.599697e-001 4.246486e-001 1.293937e+000 1.298407e+000 2.157640e+000 -3.261646e-001 1.723245e+000 4.577770e-001 -7.585821e-002 9.100329e-001 4.883890e-002 -9.034449e-001 4.537534e-001 -6.974701e-001 -8.332529e-001 -1.700280e-001 4.965317e-001 -6.607346e-001 1.372063e+000
<VARIANCE> 25
 4.596428e+001 2.271837e+001 2.032245e+001 4.054101e+001 3.657092e+001 9.416262e+001 3.409970e+001 4.442223e+001 3.615806e+001 3.206243e+001 3.569124e+001 3.159257e+001 4.907012e+000 3.214355e+000 3.075641e+000 5.045056e+000 2.814833e+000 7.264531e+000 3.499012e+000 4.834496e+000 4.572124e+000 2.896453e+000 4.290982e+000 2.113404e+000 7.483446e+000
<GCONST> 1.073101e+002
<TRANSP> 5
 0.000000e+000 1.000000e+000 0.000000e+000 0.000000e+000 0.000000e+000
 0.000000e+000 5.649205e-001 4.350795e-001 0.000000e+000 0.000000e+000
 0.000000e+000 0.000000e+000 3.836757e-001 6.163243e-001 0.000000e+000
 0.000000e+000 0.000000e+000 0.000000e+000 3.207948e-001 6.792052e-001
 0.000000e+000 0.000000e+000 0.000000e+000 0.000000e+000 0.000000e+000
<ENDHMM>
~h "v"
<BEGINHMM>
<NUMSTATES> 5
<STATE> 2
<MEAN> 25
 6.084384e-001 -1.313567e+000 -8.782607e-001 2.618067e+000 4.328079e+000 2.958574e-001 1.345475e+000 -7.094586e-001 -2.536532e+000 -3.900957e-001 3.532972e-001 9.064111e-001 -6.726384e-001 -3.528558e-001 -4.266207e-001 -4.001074e-001 -1.891026e-001 1.242416e-001 -1.139255e-001 5.546917e-001 5.738123e-001 -9.495158e-002 1.799166e-002 4.502808e-001 -2.360224e-001
<VARIANCE> 25
 6.277287e+001 2.349603e+001 5.325214e+001 3.348433e+001 2.863915e+001 5.740549e+001 7.899410e+001 3.814025e+001 2.945448e+001 3.652580e+001 2.228784e+001 2.492051e+001 3.052797e+000 1.627244e+000 2.469959e+000 3.077488e+000 2.104156e+000 3.193675e+000 1.831658e+000 2.802773e+000 2.365827e+000 1.407118e+000 2.744461e+000 1.514830e+000 1.697741e+000
<GCONST> 9.977459e+001
<STATE> 3
<MEAN> 25
 1.173631e+000 -2.622962e+000 -2.554235e+000 -5.258302e-001 2.714537e+000 -5.639757e-003 9.594697e-001 -7.591254e-001 -2.495008e+000 -1.096541e+000 6.301650e-001 1.618176e+000 8.050523e-001 -6.632679e-001 -9.674942e-001 -1.475579e+000 -7.207193e-001 -4.638860e-002 -1.635734e-002 -9.035501e-002 7.582909e-001 1.576305e-001 3.947345e-001 2.568863e-001 7.358368e-002
<VARIANCE> 25
 5.665078e+001 3.090923e+001 4.739885e+001 4.414279e+001 2.683664e+001 6.501476e+001 7.200809e+001 4.483864e+001 3.606028e+001 3.563050e+001 3.059264e+001 2.267142e+001 3.472766e+000 2.181984e+000 3.389445e+000 5.556627e+000 3.851497e+000 3.778658e+000 2.173429e+000 3.840639e+000 2.933525e+000 1.693922e+000 2.521044e+000 1.664367e+000 3.362405e+000
<GCONST> 1.043160e+002
<STATE> 4
<MEAN> 25
 6.344764e+000 -5.162257e+000 -5.827127e+000 -1.528227e+000 2.289012e+000 -3.486112e+000 4.286072e+000 -1.983353e+000 1.713543e+000 -1.252066e+000 5.849630e-001 7.483439e-001 1.530330e-001 -1.322661e-002 5.188345e-001 5.437281e-001 -1.689487e-001 -3.221025e-001 -9.872727e-001 1.852203e-001 7.173315e-001 -2.497333e-001 2.982698e-001 1.313511e-001 -3.849310e-001
<VARIANCE> 25
 4.533744e+001 2.888666e+001 2.991039e+001 3.767766e+001 2.350010e+001 6.539019e+001 6.757846e+001 4.053262e+001 3.083750e+001 3.559655e+001 3.875575e+001 2.165989e+001 1.468439e+000 3.072289e+000 1.591141e+000 2.236164e+000 1.909162e+000 3.464216e+000 2.569827e+000 2.532858e+000 2.202310e+000 2.441181e+000 3.172495e+000 1.293933e+000 4.746301e+000
<GCONST> 1.003279e+002
<TRANSP> 5
 0.000000e+000 1.000000e+000 0.000000e+000 0.000000e+000 0.000000e+000
 0.000000e+000 2.567192e-001 7.432808e-001 0.000000e+000 0.000000e+000
 0.000000e+000 0.000000e+000 3.094664e-001 6.905335e-001 0.000000e+000
 0.000000e+000 0.000000e+000 0.000000e+000 5.797915e-001 4.202085e-001
 0.000000e+000 0.000000e+000 0.000000e+000 0.000000e+000 0.000000e+000
<ENDHMM>
~h "w"
<BEGINHMM>
<NUMSTATES> 5
<STATE> 2
<MEAN> 25
 1.301974e+001 2.455409e+000 -2.226962e+000 -8.737901e+000 -9.170920e+000 4.307934e+000 2.362103e+000 -6.029545e+000 -9.978860e-001 -6.316432e+000 2.892652e+000 8.853295e-001 5.736463e-001 7.756703e-001 9.114578e-002 -1.196108e+000 -9.104616e-001 7.138139e-001 5.963103e-001 2.665090e-001 9.504563e-002 -8.753340e-001 -9.529342e-002 5.071794e-001 -2.005937e-001
<VARIANCE> 25
 6.574591e+000 4.125430e+001 1.496271e+001 5.229096e+001 4.572366e+001 3.134629e+001 2.495602e+001 3.978572e+001 3.574793e+001 2.396552e+001 8.586493e+001 2.458688e+001 5.484576e-001 1.424599e+000 1.865156e+000 1.888289e+000 1.488648e+000 2.519837e+000 3.131535e+000 3.261272e+000 3.451836e+000 2.972738e+000 6.105119e+000 3.135472e+000 1.539163e+000
<GCONST> 9.715821e+001
<STATE> 3
<MEAN> 25
 1.339201e+001 1.831207e+000 -4.940566e+000 -1.429041e+001 -8.425868e+000 3.713317e+000 8.346072e+000 -6.723116e+000 -3.162519e+000 -1.139324e+001 1.052061e+001 3.772098e+000 -8.634056e-001 -1.717172e+000 -1.412034e+000 -1.590671e-001 2.264107e+000 -1.127800e+000 9.665890e-001 -1.002507e+000 -7.895360e-001 6.952077e-001 3.159172e+000 -2.688510e-001 2.146839e+000
<VARIANCE> 25
 6.103727e+000 2.592181e+001 1.169782e+001 2.061389e+001 6.676673e+001 3.954784e+001 4.669637e+001 4.752854e+001 5.327527e+001 2.500225e+001 6.888513e+001 2.152189e+001 7.343097e-001 1.673303e+000 1.678046e+000 2.526771e+000 3.073889e+000 2.335944e+000 4.109830e+000 4.887069e+000 3.963115e+000 6.004305e+000 5.713210e+000 3.430881e+000 1.061684e+000
<GCONST> 9.940279e+001
<STATE> 4
<MEAN> 25
 9.546335e+000 -6.361141e+000 -7.758774e+000 -9.931414e+000 2.562131e+000 -3.148385e+000 6.806992e+000 -8.061752e+000 -1.515464e+000 -5.380830e-001 1.121609e+001 -2.070434e+000 -7.884854e-001 -8.610095e-001 1.962043e-001 9.455632e-001 1.379684e+000 -2.033535e+000 -8.919119e-001 8.271665e-001 8.888988e-001 1.653903e+000 -1.334120e+000 -1.355439e+000 5.083453e-001
<VARIANCE> 25
 5.788389e+000 1.078221e+001 7.804146e+000 2.518433e+001 4.918689e+001 4.446190e+001 1.072556e+002 3.273922e+001 2.626071e+001 4.302072e+001 5.700338e+001 1.500812e+001 9.621492e-001 1.593497e+000 1.006556e+000 1.773928e+000 2.702996e+000 3.928969e+000 1.996421e+000 1.958623e+000 3.078662e+000 2.840835e+000 2.519673e+000 2.354872e+000 2.758727e+000
<GCONST> 9.469445e+001
<TRANSP> 5
 0.000000e+000 1.000000e+000 0.000000e+000 0.000000e+000 0.000000e+000
 0.000000e+000 8.210624e-001 1.789376e-001 0.000000e+000 0.000000e+000
 0.000000e+000 0.000000e+000 6.980988e-001 3.019012e-001 0.000000e+000
 0.000000e+000 0.000000e+000 0.000000e+000 7.480289e-001 2.519711e-001
 0.000000e+000 0.000000e+000 0.000000e+000 0.000000e+000 0.000000e+000
<ENDHMM>
~h "y"
<BEGINHMM>
<NUMSTATES> 5
<STATE> 2
<MEAN> 25
 6.849816e-001 -6.842386e+000 7.906145e+000 3.177774e-001 -1.224298e+000 -6.936569e+000 -2.190051e+000 -1.781857e+000 -2.773922e+000 -5.598866e-001 4.184963e+000 -2.653905e+000 -1.018443e+000 -7.242482e-001 2.039237e+000 5.688146e-001 -2.511735e+000 -1.165665e+000 5.738571e-001 1.072214e+000 -1.222678e+000 -8.881925e-001 6.255832e-001 5.519103e-001 2.141690e+000
<VARIANCE> 25
 7.562698e+001 1.963005e+001 3.308980e+001 4.386017e+001 2.599540e+001 5.108431e+001 4.389059e+001 6.127353e+001 3.523595e+001 4.775518e+001 5.399639e+001 6.188398e+001 1.988742e+000 1.512381e+000 2.686273e+000 4.446093e+000 3.315200e+000 5.188918e+000 2.828238e+000 7.253109e+000 6.043828e+000 3.745612e+000 2.555367e+000 3.758175e+000 8.662810e+000
<GCONST> 1.081491e+002
<STATE> 3
<MEAN> 25
 -6.037411e+000 -6.317227e+000 1.038778e+001 -2.391580e+000 -5.141492e+000 -5.953405e+000 2.342926e+000 -1.649029e+000 -4.519959e+000 1.125387e+000 2.004791e+000 2.359227e+000 -5.046902e-001 2.289042e-001 1.161697e+000 3.929698e-001 -1.479257e+000 -7.278255e-001 8.045549e-001 6.241307e-001 -1.493151e-001 -1.935136e-001 7.370982e-001 2.118503e-001 9.296380e-001
<VARIANCE> 25
 9.039422e+001 1.695382e+001 3.404155e+001 6.469529e+001 2.931427e+001 4.517986e+001 3.378421e+001 4.462330e+001 3.301865e+001 4.008042e+001 4.021967e+001 3.404337e+001 1.565520e+000 1.706046e+000 1.718329e+000 2.518676e+000 3.006666e+000 4.139699e+000 2.604845e+000 3.159436e+000 3.742902e+000 2.864347e+000 3.555675e+000 3.093767e+000 3.700219e+000
<GCONST> 1.030510e+002
<STATE> 4
<MEAN> 25
 1.709622e+000 -6.316807e+000 1.264746e+001 3.446633e+000 -9.431272e+000 -1.260271e+001 2.279527e-001 2.317792e+000 -5.820622e+000 -5.576838e+000 7.778246e+000 1.265658e+000 1.107275e+000 -9.885617e-004 -6.961445e-001 1.130698e-002 -2.581104e-003 -7.856457e-001 -2.525219e-001 2.839180e-001 2.247460e-001 -5.460643e-001 3.585466e-001 -6.456987e-002 5.874419e-001
<VARIANCE> 25
 5.181633e+001 1.264158e+001 2.886710e+001 2.950471e+001 3.063518e+001 3.871222e+001 4.452212e+001 2.555140e+001 3.918763e+001 4.832852e+001 2.231349e+001 9.471078e+000 2.882980e+000 2.113499e+000 3.082981e+000 2.486732e+000 4.514612e+000 3.513386e+000 2.321722e+000 2.912963e+000 5.016832e+000 4.877522e+000 2.263460e+000 1.582669e+000 1.130624e+000
<GCONST> 9.930930e+001
<TRANSP> 5
 0.000000e+000 1.000000e+000 0.000000e+000 0.000000e+000 0.000000e+000
 0.000000e+000 2.961945e-001 7.038055e-001 0.000000e+000 0.000000e+000
 0.000000e+000 0.000000e+000 4.656198e-001 5.343801e-001 0.000000e+000
 0.000000e+000 0.000000e+000 0.000000e+000 7.637831e-001 2.362169e-001
 0.000000e+000 0.000000e+000 0.000000e+000 0.000000e+000 0.000000e+000
<ENDHMM>
~h "z"
<BEGINHMM>
<NUMSTATES> 5
<STATE> 2
<MEAN> 25
 2.899413e+000 2.277711e+000 3.868634e+000 -1.213533e+000 4.286627e+000 -8.018675e+000 -3.585470e+000 -1.943820e+000 -3.846248e+000 -1.487455e+000 -6.496585e-002 -3.772279e+000 -3.593088e+000 2.790917e+000 1.263879e+000 1.888750e-002 2.285645e+000 1.030753e+000 -6.362368e-001 1.365478e+000 6.529429e-001 7.971163e-002 -1.449467e+000 2.052239e-001 -4.249697e-001
<VARIANCE> 25
 2.614747e+001 2.070456e+001 4.202155e+001 5.807794e+001 2.745008e+001 3.457779e+001 4.404134e+001 3.440318e+001 5.192179e+001 2.078203e+001 2.457807e+001 1.635385e+001 2.820894e+000 1.727877e+000 2.736928e+000 2.013279e+000 1.872602e+000 6.281332e+000 2.642554e+000 3.584240e+000 3.177690e+000 3.625711e+000 5.015276e+000 2.650361e+000 3.680949e-001
<GCONST> 9.923573e+001
<STATE> 3
<MEAN> 25
 -1.084824e+001 9.940507e+000 4.529360e+000 -2.421530e+000 1.141888e+001 -4.222589e+000 -2.971339e-001 3.420625e+000 -1.183708e+000 -1.299117e+000 -3.262217e-001 -1.228525e+000 -3.822103e+000 1.113833e+000 5.426694e-001 -6.663154e-001 1.455324e+000 1.522379e+000 1.038978e+000 1.268712e+000 7.937682e-001 -1.156862e-001 5.426685e-001 1.549338e+000 4.706550e-002
<VARIANCE> 25
 2.865847e+001 2.138007e+001 3.350854e+001 2.382284e+001 2.327487e+001 3.139750e+001 5.327266e+001 2.828850e+001 2.645968e+001 2.320509e+001 3.074211e+001 2.967629e+001 3.539473e+000 2.333313e+000 1.202229e+000 3.248679e+000 2.032433e+000 3.111376e+000 1.428463e+000 2.535856e+000 2.863112e+000 2.659509e+000 2.543644e+000 2.146709e+000 7.390350e-001
<GCONST> 9.622553e+001
<STATE> 4
<MEAN> 25
 -1.624284e+001 5.107955e+000 4.972913e+000 -2.140005e+000 1.015546e+001 -1.958506e+000 1.744179e+000 5.233978e+000 1.018559e+000 -9.865089e-001 3.354906e-001 3.677036e+000 9.151673e-001 -8.699338e-001 1.703081e-001 4.344799e-001 -7.840534e-001 -3.739224e-001 -4.446730e-001 -4.176847e-001 -2.369159e-001 1.456176e-002 -5.515716e-001 1.757569e-002 -1.198202e+000
<VARIANCE> 25
 2.616617e+001 2.365156e+001 3.526685e+001 2.163678e+001 3.488726e+001 5.044306e+001 4.990318e+001 6.072710e+001 3.118206e+001 3.480091e+001 3.229336e+001 2.007462e+001 3.152341e+000 2.548639e+000 1.261468e+000 1.548362e+000 2.871247e+000 4.704645e+000 3.654818e+000 3.603703e+000 3.328033e+000 3.389867e+000 3.055109e+000 2.287195e+000 3.478998e+000
<GCONST> 1.015139e+002
<TRANSP> 5
 0.000000e+000 1.000000e+000 0.000000e+000 0.000000e+000 0.000000e+000
 0.000000e+000 5.253899e-001 4.746101e-001 0.000000e+000 0.000000e+000
 0.000000e+000 0.000000e+000 7.178280e-001 2.821719e-001 0.000000e+000
 0.000000e+000 0.000000e+000 0.000000e+000 8.712274e-001 1.287726e-001
 0.000000e+000 0.000000e+000 0.000000e+000 0.000000e+000 0.000000e+000
<ENDHMM>
~h "aa"
<BEGINHMM>
<NUMSTATES> 5
<STATE> 2
<MEAN> 25
 -4.633283e-001 -4.802773e-005 -1.202520e+000 -2.266579e+000 9.224827e-001 3.094082e+000 4.413568e+000 1.918407e+000 3.175147e-001 -2.348965e+000 2.485698e+000 8.916741e-001 1.717406e+000 -7.884302e-001 -1.696388e+000 -2.398759e+000 -8.876635e-001 -1.254804e+000 1.656370e+000 -1.579648e+000 -5.824471e-001 -7.783682e-001 1.302527e+000 -9.947718e-001 3.444885e+000
<VARIANCE> 25
 6.830998e+001 2.631977e+001 4.322847e+001 9.429453e+001 5.689302e+001 6.769035e+001 6.835760e+001 7.029496e+001 2.529125e+001 6.959531e+001 5.287363e+001 3.012209e+001 1.298258e+001 4.494726e+000 4.952893e+000 7.813679e+000 6.963973e+000 8.786670e+000 6.906161e+000 1.117355e+001 4.750575e+000 5.659307e+000 4.597380e+000 4.755511e+000 6.474134e+000
<GCONST> 1.177606e+002
<STATE> 3
<MEAN> 25
 7.455029e+000 -2.590398e+000 -8.262970e+000 -1.382540e+001 -1.240794e+000 2.869241e-001 9.905206e+000 -5.821421e+000 -2.766463e+000 -2.658820e+000 9.648707e+000 -4.612632e+000 1.154127e-001 -3.194701e-001 -4.560053e-001 -1.437224e-001 3.797260e-001 -2.967538e-001 3.057527e-001 -1.823705e-001 -5.538603e-001 1.668985e-001 1.089895e-001 -2.690717e-001 5.466822e-001
<VARIANCE> 25
 4.830045e+000 1.527964e+001 1.738528e+001 2.877679e+001 6.388403e+001 6.502283e+001 2.237859e+001 3.689328e+001 3.058247e+001 4.944551e+001 3.178498e+001 3.577267e+001 1.028309e+000 1.098443e+000 1.305278e+000 1.652907e+000 1.933382e+000 2.191923e+000 2.927569e+000 2.517011e+000 2.541391e+000 3.308111e+000 2.628934e+000 1.705818e+000 1.803143e+000
<GCONST> 9.442021e+001
<STATE> 4
<MEAN> 25
 8.007132e+000 -3.421622e+000 -8.553180e+000 -9.837207e+000 2.921651e+000 3.126861e-001 6.995338e+000 -3.357668e+000 -5.499767e+000 1.270572e+000 2.145155e+000 -3.873879e+000 -7.471424e-002 7.288396e-002 7.120890e-001 1.088691e+000 3.792925e-001 1.026149e+000 -1.113332e+000 1.451311e-001 6.455974e-002 2.681336e-001 -1.127517e+000 5.681173e-001 -1.853681e+000
<VARIANCE> 25
 1.390751e+001 1.519487e+001 2.457995e+001 2.639866e+001 6.259054e+001 1.015045e+002 3.200252e+001 4.638501e+001 2.680446e+001 6.313474e+001 6.494727e+001 2.918971e+001 1.413894e+000 1.157899e+000 1.678558e+000 3.129750e+000 3.195401e+000 6.753654e+000 2.010936e+000 2.451893e+000 1.649864e+000 4.509564e+000 4.326204e+000 2.172083e+000 2.262072e+000
<GCONST> 1.006990e+002
<TRANSP> 5
 0.000000e+000 1.000000e+000 0.000000e+000 0.000000e+000 0.000000e+000
 0.000000e+000 6.957793e-001 3.042207e-001 0.000000e+000 0.000000e+000
 0.000000e+000 0.000000e+000 7.410412e-001 2.589588e-001 0.000000e+000
 0.000000e+000 0.000000e+000 0.000000e+000 6.817853e-001 3.182147e-001
 0.000000e+000 0.000000e+000 0.000000e+000 0.000000e+000 0.000000e+000
<ENDHMM>
~h "ae"
<BEGINHMM>
<NUMSTATES> 5
<STATE> 2
<MEAN> 25
 1.383860e+000 -1.228704e+000 -2.162491e+000 -5.585238e-001 1.059182e+000 -2.130850e+000 1.028111e+000 1.198162e+000 3.849730e+000 1.384871e+000 -1.586025e+000 -3.197697e-001 -1.650482e-001 3.478265e-001 3.166383e-001 3.529746e-001 2.929632e-001 -3.009399e-002 3.583831e-001 9.554087e-002 3.316052e-001 -9.368246e-002 -2.271637e-001 7.636235e-002 -2.138764e-001
<VARIANCE> 25
 5.693238e+001 5.538924e+001 3.702546e+001 5.399805e+001 2.478444e+001 8.889471e+001 5.635782e+001 3.419761e+001 3.441246e+001 3.388932e+001 5.153238e+001 2.200450e+001 1.725885e+000 1.665992e+000 1.289739e+000 1.581610e+000 8.547552e-001 2.741213e+000 2.475084e+000 1.951668e+000 2.598300e+000 2.635298e+000 2.828156e+000 1.441232e+000 3.119472e+000
<GCONST> 9.962235e+001
<STATE> 3
<MEAN> 25
 2.845719e+000 3.193065e+000 -1.245712e-001 1.920514e+000 3.468465e+000 1.441998e+000 -2.715088e-001 -5.016705e-001 2.367875e+000 2.555743e+000 -3.080817e+000 2.541060e-001 2.383888e-001 -1.507289e+000 -5.735488e-001 -2.860325e-001 4.481892e-002 -1.512168e+000 6.534340e-001 9.001982e-001 1.724161e-001 -9.754001e-001 1.450094e+000 -5.722725e-001 2.061387e+000
<VARIANCE> 25
 5.462649e+001 5.128558e+001 3.741802e+001 5.485508e+001 3.658353e+001 1.101270e+002 6.700946e+001 4.483078e+001 2.858542e+001 2.461032e+001 2.890416e+001 2.854693e+001 4.495385e+000 3.732186e+000 2.055604e+000 3.026724e+000 1.448327e+000 6.021025e+000 3.982961e+000 4.155766e+000 4.745365e+000 2.589950e+000 2.611021e+000 4.464266e+000 7.339381e+000
<GCONST> 1.076705e+002
<STATE> 4
<MEAN> 25
 3.353579e+000 -5.429389e+000 -2.776601e+000 -4.204241e-001 8.162348e-001 -7.764235e+000 1.961454e+000 3.658865e+000 2.832620e+000 -5.455976e-001 2.717257e+000 -1.437421e+000 9.783576e-001 -2.421728e+000 -6.497049e-001 -1.097523e+000 -1.524619e-001 -2.683126e+000 5.880589e-001 4.946383e-001 -3.257760e-001 -5.720060e-001 1.610486e+000 -5.721537e-001 4.397156e+000
<VARIANCE> 25
 5.222059e+001 3.588393e+001 3.194805e+001 3.155925e+001 2.659516e+001 8.882038e+001 6.879540e+001 1.900866e+001 4.438538e+001 3.116139e+001 2.759761e+001 3.974516e+001 6.177894e+000 4.596520e+000 3.030598e+000 2.509897e+000 2.987675e+000 8.687714e+000 5.287451e+000 3.589005e+000 6.791947e+000 3.472184e+000 2.777769e+000 4.430871e+000 1.140352e+001
<GCONST> 1.092539e+002
<TRANSP> 5
 0.000000e+000 1.000000e+000 0.000000e+000 0.000000e+000 0.000000e+000
 0.000000e+000 6.423107e-001 3.576893e-001 0.000000e+000 0.000000e+000
 0.000000e+000 0.000000e+000 1.229692e-001 8.770308e-001 0.000000e+000
 0.000000e+000 0.000000e+000 0.000000e+000 6.930954e-001 3.069047e-001
 0.000000e+000 0.000000e+000 0.000000e+000 0.000000e+000 0.000000e+000
<ENDHMM>
~h "ah"
<BEGINHMM>
<NUMSTATES> 5
<STATE> 2
<MEAN> 25
 7.279273e+000 -7.572739e+000 -2.785596e+000 -4.250896e+000 7.466418e-001 -1.171364e+001 2.960564e+000 -1.541734e+000 1.192073e+000 -6.393315e-001 5.844256e+000 -3.126964e+000 7.862739e-001 -1.796049e-001 -7.785389e-001 -4.814435e-001 5.759578e-001 -6.209923e-002 3.692924e-001 -5.171025e-001 -2.093769e-002 6.109088e-001 -8.018073e-002 -4.456707e-001 1.582665e-001
<VARIANCE> 25
 1.716399e+001 2.109592e+001 3.123801e+001 3.128682e+001 4.096545e+001 5.941778e+001 4.368262e+001 3.992313e+001 4.474272e+001 3.937442e+001 4.316035e+001 3.122787e+001 1.671208e+000 1.216899e+000 2.227805e+000 2.475919e+000 3.239275e+000 3.439513e+000 3.116212e+000 2.953102e+000 2.761337e+000 3.285299e+000 4.351766e+000 2.532264e+000 4.244839e+000
<GCONST> 1.017634e+002
<STATE> 3
<MEAN> 25
 9.209738e+000 -6.582396e+000 -4.041556e+000 -4.161444e+000 3.513235e+000 -9.872349e+000 4.086518e+000 -1.628328e+000 -1.012802e+000 6.675417e-001 4.035001e+000 -2.702816e+000 4.890875e-001 4.070238e-001 1.537223e-001 9.976509e-001 -8.702144e-002 9.577111e-001 -1.195831e-001 -2.574504e-002 -3.655377e-001 2.398914e-001 -1.086120e+000 4.936815e-001 -1.551916e+000
<VARIANCE> 25
 1.867995e+001 1.875269e+001 3.065371e+001 3.548526e+001 2.840023e+001 5.065847e+001 5.631393e+001 4.048222e+001 4.160529e+001 4.785382e+001 5.978461e+001 5.047956e+001 8.509675e-001 8.975753e-001 1.317809e+000 3.015223e+000 2.366507e+000 2.584720e+000 2.992393e+000 2.549615e+000 2.600415e+000 3.413954e+000 3.058698e+000 2.043216e+000 2.152376e+000
<GCONST> 9.914547e+001
<STATE> 4
<MEAN> 25
 6.188085e+000 -3.531735e+000 -2.964269e+000 -5.016251e-001 2.496486e+000 -3.069450e+000 1.305513e-001 -1.798385e+000 -2.211634e-001 2.263118e+000 -9.548664e-001 -4.537883e-001 -4.777829e-002 3.482983e-001 4.510529e-001 8.478001e-001 -3.831741e-001 7.778726e-001 -4.762382e-001 1.190729e-001 -3.321258e-001 3.640293e-002 -8.854865e-001 6.022773e-001 -1.321530e+000
<VARIANCE> 25
 4.566989e+001 3.043593e+001 2.851683e+001 3.899236e+001 2.665735e+001 1.129074e+002 5.669560e+001 3.847394e+001 4.540590e+001 6.121561e+001 6.973608e+001 3.132100e+001 1.450998e+000 2.331217e+000 1.682313e+000 3.702959e+000 2.645518e+000 3.185472e+000 4.065039e+000 3.174865e+000 3.113431e+000 3.568087e+000 4.474023e+000 2.974359e+000 3.760433e+000
<GCONST> 1.055719e+002
<TRANSP> 5
 0.000000e+000 1.000000e+000 0.000000e+000 0.000000e+000 0.000000e+000
 0.000000e+000 4.885824e-001 5.114176e-001 0.000000e+000 0.000000e+000
 0.000000e+000 0.000000e+000 4.707173e-001 5.292827e-001 0.000000e+000
 0.000000e+000 0.000000e+000 0.000000e+000 4.778388e-001 5.221612e-001
 0.000000e+000 0.000000e+000 0.000000e+000 0.000000e+000 0.000000e+000
<ENDHMM>
~h "ao"
<BEGINHMM>
<NUMSTATES> 5
<STATE> 2
<MEAN> 25
 6.179788e+000 1.626575e+000 -7.476377e+000 -1.355001e+001 2.916544e-001 4.741534e+000 9.659984e+000 6.681166e-001 -3.432075e+000 -2.749577e+000 8.450777e+000 -1.368375e+000 2.223006e+000 9.385371e-002 -3.581378e-001 -1.392716e+000 -2.132911e+000 -7.687281e-001 2.738407e+000 -1.150406e+000 -2.950830e-001 -1.619677e+000 9.328259e-001 6.150257e-002 2.771384e+000
<VARIANCE> 25
 4.491326e+001 1.669513e+001 1.820862e+001 3.585652e+001 7.615797e+001 3.487714e+001 5.631337e+001 2.606506e+001 3.322829e+001 5.127517e+001 8.785875e+001 4.281143e+001 5.949685e+000 4.444646e+000 2.644006e+000 4.209466e+000 6.237748e+000 2.956750e+000 4.161377e+000 2.875446e+000 4.920166e+000 6.386040e+000 9.481785e+000 3.502480e+000 4.635003e+000
<GCONST> 1.094629e+002
<STATE> 3
<MEAN> 25
 1.015592e+001 -7.021338e-001 -7.310569e+000 -1.744357e+001 -8.926070e+000 2.037855e+000 1.490109e+001 -4.642830e+000 -1.882085e+000 -7.435791e+000 8.342315e+000 2.709582e+000 -1.455846e-001 -2.909285e-001 4.074129e-002 -2.535547e-001 9.341525e-002 -3.688718e-001 6.507222e-002 -5.657255e-001 8.429796e-002 2.740324e-001 -1.414591e-001 2.601235e-001 4.068578e-001
<VARIANCE> 25
 7.960455e+000 1.271435e+001 5.051504e+000 2.637259e+001 5.091026e+001 2.139418e+001 1.115496e+001 2.263259e+001 3.185746e+001 6.148289e+001 2.283585e+001 1.587734e+001 3.458388e-001 6.258127e-001 4.991175e-001 9.234276e-001 2.013201e+000 1.303469e+000 1.489057e+000 9.076549e-001 1.144913e+000 2.069456e+000 1.775901e+000 1.247454e+000 5.175123e-001
<GCONST> 8.141412e+001
<STATE> 4
<MEAN> 25
 9.931234e+000 -3.144117e+000 -6.633629e+000 -1.497492e+001 -3.466910e+000 -2.314381e+000 1.268124e+001 -5.516145e+000 -2.213521e+000 -5.590203e+000 9.178885e+000 2.823952e+000 1.576959e-001 -1.876464e-001 2.879071e-001 9.795086e-001 1.162588e+000 -1.088001e+000 -6.325999e-001 -3.115543e-001 -3.270686e-001 5.208898e-001 5.265152e-004 -1.270404e-001 -4.902003e-001
<VARIANCE> 25
 5.988081e+000 2.679256e+001 1.018567e+001 3.790044e+001 5.322527e+001 4.128390e+001 8.401057e+001 5.289518e+001 3.079878e+001 1.385109e+002 5.097031e+001 1.774374e+001 5.715197e-001 9.516268e-001 7.656537e-001 1.634758e+000 2.415350e+000 1.946502e+000 5.223566e+000 1.623275e+000 1.449242e+000 2.603517e+000 2.018276e+000 9.937146e-001 5.463904e-001
<GCONST> 9.296108e+001
<TRANSP> 5
 0.000000e+000 1.000000e+000 0.000000e+000 0.000000e+000 0.000000e+000
 0.000000e+000 7.116594e-001 2.883406e-001 0.000000e+000 0.000000e+000
 0.000000e+000 0.000000e+000 8.547910e-001 1.452090e-001 0.000000e+000
 0.000000e+000 0.000000e+000 0.000000e+000 4.514408e-001 5.485592e-001
 0.000000e+000 0.000000e+000 0.000000e+000 0.000000e+000 0.000000e+000
<ENDHMM>
~h "aw"
<BEGINHMM>
<NUMSTATES> 5
<STATE> 2
<MEAN> 25
 6.312289e+000 -2.107881e+000 -6.696622e+000 -1.111686e+001 -1.039894e+000 -3.601173e-001 1.054067e+001 -5.421081e+000 2.832525e-002 -5.185804e+000 9.194836e+000 -3.215216e+000 3.339748e-001 3.676594e-001 -7.496836e-001 -5.288671e-001 -2.567866e-001 -1.768847e-001 5.603728e-001 -5.826611e-001 -1.400605e-001 -7.169892e-003 -1.857303e-001 3.538990e-001 3.981182e-001
<VARIANCE> 25
 1.526474e+001 6.660377e+001 2.335277e+001 1.426693e+001 7.208297e+001 1.990333e+001 3.249616e+001 3.015110e+001 3.269461e+001 4.612764e+001 8.956084e+001 1.460215e+001 1.883950e+000 1.106067e+000 1.911700e+000 1.213095e+000 1.444255e+000 1.445819e+000 1.734702e+000 2.099489e+000 2.934574e+000 1.753836e+000 2.934007e+000 1.919541e+000 2.120122e+000
<GCONST> 9.505309e+001
<STATE> 3
<MEAN> 25
 8.642397e+000 -1.671630e+000 -7.701450e+000 -9.976388e+000 -1.353945e+000 1.311062e+000 5.567787e+000 -8.204444e+000 -3.108323e+000 8.471417e-001 5.983797e+000 2.553066e+000 3.435220e-001 1.133409e-001 2.118520e-001 8.239021e-001 -1.350604e-001 4.546025e-001 -1.180063e+000 2.080256e-001 -2.687604e-001 6.090029e-001 -8.318912e-001 5.949995e-001 -1.583149e+000
<VARIANCE> 25
 7.301802e+000 1.638950e+001 9.405295e+000 2.034570e+001 2.276169e+001 5.071451e+001 5.336351e+001 3.537858e+001 2.708678e+001 5.413416e+001 6.152333e+001 3.836074e+001 8.171828e-001 9.569915e-001 1.289990e+000 1.536815e+000 2.091710e+000 4.251587e+000 4.324575e+000 3.198563e+000 1.635993e+000 2.991204e+000 4.841819e+000 2.461658e+000 1.616765e+000
<GCONST> 9.543458e+001
<STATE> 4
<MEAN> 25
 6.685532e+000 -3.523643e+000 -5.275724e+000 -3.665334e+000 2.246664e+000 6.367514e-001 2.849156e+000 -3.105988e+000 -4.522030e+000 3.606399e+000 3.513176e+000 -7.068096e-001 -9.638545e-002 -1.456601e-001 4.333718e-001 3.051500e-001 1.944609e-001 -3.493953e-001 -4.557393e-001 2.059625e-001 8.441385e-002 -2.512572e-003 -1.532341e-001 -1.644663e-001 -4.851061e-004
<VARIANCE> 25
 3.819649e+001 3.131098e+001 3.751950e+001 6.122268e+001 1.636744e+001 7.010594e+001 5.740270e+001 2.946202e+001 4.599581e+001 3.308833e+001 6.323627e+001 3.452748e+001 2.706557e+000 1.863576e+000 3.481529e+000 4.568251e+000 1.746229e+000 6.119540e+000 4.703082e+000 4.257367e+000 4.243583e+000 2.776251e+000 5.565004e+000 2.515283e+000 4.815527e+000
<GCONST> 1.066957e+002
<TRANSP> 5
 0.000000e+000 1.000000e+000 0.000000e+000 0.000000e+000 0.000000e+000
 0.000000e+000 8.470789e-001 1.529212e-001 0.000000e+000 0.000000e+000
 0.000000e+000 0.000000e+000 8.486142e-001 1.513858e-001 0.000000e+000
 0.000000e+000 0.000000e+000 0.000000e+000 8.831779e-001 1.168220e-001
 0.000000e+000 0.000000e+000 0.000000e+000 0.000000e+000 0.000000e+000
<ENDHMM>
~h "ay"
<BEGINHMM>
<NUMSTATES> 5
<STATE> 2
<MEAN> 25
 7.183189e+000 -2.733826e+000 -7.940549e-001 2.502399e+000 2.599540e+000 -2.884617e+000 9.049641e-001 -2.575534e+000 -7.848802e-002 6.087853e+000 -3.247370e+000 -3.813352e+000 8.330665e-001 2.054287e-001 -7.376963e-001 -5.384603e-001 -2.283608e-001 8.045361e-002 -8.388957e-002 -1.223610e+000 3.411214e-001 6.623634e-001 -9.154807e-001 -4.718719e-001 3.378598e-001
<VARIANCE> 25
 1.809149e+001 6.014589e+001 5.476397e+001 1.107006e+002 2.641267e+001 7.382673e+001 1.370694e+002 2.302445e+001 4.236456e+001 2.044433e+001 4.767335e+001 2.471376e+001 6.128501e+000 1.904207e+000 3.544396e+000 3.093613e+000 4.544868e+000 5.664465e+000 7.184138e+000 2.989530e+000 3.762609e+000 1.808726e+000 3.275635e+000 3.090101e+000 8.458530e+000
<GCONST> 1.086519e+002
<STATE> 3
<MEAN> 25
 6.881535e+000 1.095343e-001 9.907750e-001 2.930573e+000 1.344950e+000 -1.233267e+000 -3.789615e+000 -4.443830e+000 -3.387852e-001 8.635906e+000 -5.168591e+000 -2.941342e+000 -7.301238e-001 -2.523911e-001 -2.277337e-001 -7.487930e-001 2.007714e-001 4.338493e-001 3.552472e-001 2.955016e-001 2.518942e-001 -6.801769e-001 2.335012e-001 1.043798e-001 -1.252500e-001
<VARIANCE> 25
 1.767235e+001 7.694247e+001 6.317963e+001 7.254617e+001 1.993759e+001 6.806149e+001 1.777253e+002 2.231290e+001 3.748425e+001 4.130149e+001 3.227197e+001 2.153878e+001 1.823710e+000 2.964319e+000 1.696493e+000 5.872636e+000 4.778123e+000 3.570306e+000 2.318170e+000 2.833944e+000 2.501309e+000 3.045478e+000 2.627396e+000 1.586956e+000 7.953773e+000
<GCONST> 1.052169e+002
<STATE> 4
<MEAN> 25
 4.536391e+000 -5.265175e+000 -1.635526e+000 -2.915065e+000 2.440588e+000 -3.676547e+000 1.607197e+000 -1.155882e+000 7.654155e-001 1.977883e+000 -6.009101e-001 -4.494213e+000 -4.997554e-001 -1.706255e+000 -4.208623e-001 -1.351423e+000 -7.675440e-001 -1.418255e+000 9.009147e-001 7.168058e-001 2.751797e-001 -1.826467e+000 1.294298e+000 -9.353356e-002 2.842501e+000
<VARIANCE> 25
 1.749400e+001 5.182370e+001 4.831226e+001 3.687669e+001 1.910901e+001 8.386212e+001 9.853723e+001 2.476801e+001 2.685118e+001 3.082674e+001 2.920573e+001 2.027324e+001 2.364367e+000 4.354688e+000 2.926077e+000 7.592682e+000 3.572400e+000 3.346366e+000 5.539057e+000 2.578679e+000 2.716235e+000 4.765327e+000 2.843288e+000 1.974166e+000 1.259016e+001
<GCONST> 1.059150e+002
<TRANSP> 5
 0.000000e+000 1.000000e+000 0.000000e+000 0.000000e+000 0.000000e+000
 0.000000e+000 3.286230e-001 6.713770e-001 0.000000e+000 0.000000e+000
 0.000000e+000 0.000000e+000 4.870910e-001 5.129090e-001 0.000000e+000
 0.000000e+000 0.000000e+000 0.000000e+000 5.214974e-001 4.785026e-001
 0.000000e+000 0.000000e+000 0.000000e+000 0.000000e+000 0.000000e+000
<ENDHMM>
~h "ch"
<BEGINHMM>
<NUMSTATES> 5
<STATE> 2
<MEAN> 25
 -8.882497e+000 -2.085481e+000 8.384093e+000 -2.781936e+000 -3.114849e+000 -1.230920e+000 9.902038e-001 1.984699e+000 2.422401e+000 -1.181641e+000 3.272006e+000 4.624371e+000 1.385375e+000 -7.235549e-001 -1.458230e+000 1.130410e+000 -1.146817e+000 -1.766065e+000 2.064300e+000 4.949596e-002 8.766485e-001 3.727737e-001 3.686126e-001 1.040979e+000 9.763376e-001
<VARIANCE> 25
 4.803539e+001 2.317538e+001 4.754373e+001 3.326304e+001 4.107384e+001 5.291109e+001 3.290411e+001 1.723119e+001 1.328442e+001 3.004449e+001 4.824394e+001 3.293154e+001 7.894938e+000 1.442146e+000 6.367862e+000 2.702492e+000 1.146191e+001 1.243469e+000 3.608055e+000 1.568179e+000 1.522103e+000 7.050970e+000 3.289346e+000 4.799740e+000 4.419286e+000
<GCONST> 1.039986e+002
<STATE> 3
<MEAN> 25
 4.312913e-001 -4.321843e+000 -2.342207e+000 9.526753e-001 2.074383e+000 -5.389175e+000 8.172342e+000 2.297909e+000 2.725217e+000 2.305053e+000 -5.435537e-001 -3.435473e-001 2.641775e+000 -3.884800e+000 -1.204060e+000 -2.517077e+000 7.099064e-001 -5.873202e+000 4.397348e+000 -8.407338e-001 -4.119632e-001 5.606209e-001 2.693632e+000 -1.819193e+000 7.278683e+000
<VARIANCE> 25
 3.986637e+001 3.853303e+001 1.431874e+001 2.764769e+001 1.830394e+001 1.038043e+002 4.313927e+001 2.665516e+001 3.285414e+001 2.106299e+001 5.868077e+001 4.323938e+001 1.523388e+000 2.036976e+000 2.491998e+000 4.804339e+000 3.256597e+000 1.097372e+001 9.856453e+000 3.101578e-001 1.529761e+000 9.386448e-001 4.783192e+000 2.033274e+000 2.206861e+001
<GCONST> 1.022799e+002
<STATE> 4
<MEAN> 25
 -1.553668e+000 -5.419864e+000 1.345378e+000 -3.113796e+000 2.480581e+000 -5.735274e+000 6.064283e+000 2.790136e+000 7.940409e-001 -7.269645e-001 3.226982e+000 -7.474007e-001 -6.581718e-002 2.894760e-001 2.904740e-001 -1.131881e-001 9.858331e-003 5.528585e-001 -5.439078e-001 2.587368e-002 -3.829603e-001 -4.572290e-001 5.229353e-001 -1.435905e-002 5.767050e-001
<VARIANCE> 25
 8.435159e+001 2.532716e+001 3.444907e+001 2.437511e+001 2.345306e+001 8.216308e+001 8.414160e+001 2.311983e+001 1.290045e+001 1.615296e+001 4.030788e+001 3.277974e+001 9.352998e+000 1.902299e+000 3.004527e+000 2.819597e+000 2.857149e+000 5.692615e+000 3.900608e+000 3.364912e+000 2.192540e+000 1.796049e+000 2.828301e+000 2.666424e+000 9.107483e+000
<GCONST> 1.039886e+002
<TRANSP> 5
 0.000000e+000 1.000000e+000 0.000000e+000 0.000000e+000 0.000000e+000
 0.000000e+000 6.878389e-001 3.121611e-001 0.000000e+000 0.000000e+000
 0.000000e+000 0.000000e+000 4.776282e-001 5.223718e-001 0.000000e+000
 0.000000e+000 0.000000e+000 0.000000e+000 8.892887e-001 1.107113e-001
 0.000000e+000 0.000000e+000 0.000000e+000 0.000000e+000 0.000000e+000
<ENDHMM>
~h "dh"
<BEGINHMM>
<NUMSTATES> 5
<STATE> 2
<MEAN> 25
 -5.451808e-002 -1.086479e+000 -5.856528e-001 -2.417014e+000 5.087141e+000 -3.289268e+000 2.141017e+000 -2.391056e+000 -2.672049e+000 1.300304e+000 7.284448e+000 -2.152994e+000 3.984610e-003 5.828857e-002 1.863115e-001 -7.667683e-002 -4.524325e-001 -7.399198e-002 -2.463049e-003 -4.326283e-001 7.541153e-002 1.934191e-001 1.969127e-001 -4.692421e-001 2.065626e-001
<VARIANCE> 25
 2.949582e+001 3.728589e+001 1.282413e+001 3.072095e+001 1.583989e+001 2.595622e+001 1.520094e+001 5.598738e+001 3.078551e+001 1.636048e+001 4.234618e+001 1.597659e+001 4.601489e+000 4.020118e+000 1.646013e+000 1.664386e+000 2.659687e+000 1.382851e+000 1.924400e+000 5.297366e+000 1.906719e+000 1.616350e+000 1.779282e+000 2.111731e+000 2.313902e+000
<GCONST> 9.526830e+001
<STATE> 3
<MEAN> 25
 1.078486e-001 -1.926166e+000 -2.953161e+000 -8.703787e-001 3.193384e+000 -8.167103e+000 2.185484e+000 -4.335825e+000 2.273398e-001 1.724110e+000 2.100516e+000 -7.151340e+000 3.275131e-001 -1.152548e-001 -1.602899e-001 -8.808329e-002 -1.023347e-001 -1.891727e-001 3.896096e-001 -5.896050e-003 7.224348e-003 2.077092e-001 -4.660727e-003 -1.717021e-001 -1.381871e-002
<VARIANCE> 25
 1.723477e+001 9.730681e+000 5.408877e+000 9.151492e+000 8.588486e+000 4.133757e+001 2.898755e+001 3.336732e+001 2.696598e+001 1.306128e+001 2.401891e+001 1.126456e+001 2.113006e+000 1.580952e+000 6.275980e-001 8.740576e-001 1.097438e+000 4.928172e+000 3.090857e+000 3.644420e+000 3.058503e+000 1.916023e+000 2.556016e+000 1.302609e+000 3.356268e+000
<GCONST> 8.807956e+001
<STATE> 4
<MEAN> 25
 4.865945e+000 -2.183702e+000 -4.978075e+000 -3.604318e-001 2.131720e+000 -8.353492e+000 6.120488e+000 -4.126412e+000 -7.749330e-001 1.617844e-001 3.334389e+000 -8.649876e+000 3.684836e-001 3.940586e-001 4.924355e-002 2.415706e-001 1.394574e-001 8.015657e-001 -2.170856e-001 -1.917636e-001 2.869860e-002 -6.856395e-001 -6.694713e-001 2.633795e-001 -1.432150e+000
<VARIANCE> 25
 5.958234e+000 5.936119e+000 3.898986e+000 4.022304e+001 5.850801e+000 2.596749e+001 1.167858e+001 2.204685e+001 5.589683e+001 1.982491e+001 2.067958e+001 1.773528e+001 3.030311e-001 4.650847e-001 5.488787e-001 1.340069e+000 4.707870e-001 1.823363e+000 7.706038e-001 1.373336e+000 1.950268e+000 1.888573e+000 1.115640e+000 1.510096e+000 3.610604e-001
<GCONST> 7.650147e+001
<TRANSP> 5
 0.000000e+000 1.000000e+000 0.000000e+000 0.000000e+000 0.000000e+000
 0.000000e+000 8.426527e-001 1.573474e-001 0.000000e+000 0.000000e+000
 0.000000e+000 0.000000e+000 8.766581e-001 1.233419e-001 0.000000e+000
 0.000000e+000 0.000000e+000 0.000000e+000 8.236453e-001 1.763547e-001
 0.000000e+000 0.000000e+000 0.000000e+000 0.000000e+000 0.000000e+000
<ENDHMM>
~h "eh"
<BEGINHMM>
<NUMSTATES> 5
<STATE> 2
<MEAN> 25
 6.445997e+000 -7.535307e+000 -1.071800e-001 -1.386931e+000 9.939393e-001 -1.116086e+001 2.758648e+000 3.288713e+000 -4.004241e-001 -2.151716e+000 5.958218e+000 -1.579997e+000 1.055438e+000 -1.118225e+000 -1.055659e+000 -2.594071e-001 -4.800177e-002 -2.559592e+000 1.288853e+000 4.622006e-001 1.075395e+000 -6.376120e-002 -7.291387e-002 -1.004864e+000 2.621437e+000
<VARIANCE> 25
 2.213367e+001 1.832937e+001 3.930784e+001 2.220606e+001 3.222727e+001 3.796608e+001 3.157214e+001 3.862188e+001 3.281313e+001 3.195020e+001 2.146251e+001 3.334868e+001 7.486567e+000 3.642452e+000 2.627892e+000 5.107656e+000 2.790747e+000 2.437557e+000 2.730253e+000 4.421699e+000 3.094994e+000 5.260479e+000 3.892534e+000 3.342448e+000 3.236717e+000
<GCONST> 1.033095e+002
<STATE> 3
<MEAN> 25
 5.233657e+000 -9.949895e+000 -2.341563e-001 -1.877278e+000 5.357794e-001 -1.418485e+001 5.341557e+000 3.998979e+000 3.877836e+000 -3.116711e+000 5.230909e+000 -7.023591e-001 -1.813297e-001 -3.673008e-001 -2.984497e-001 -1.815827e-001 4.653844e-002 -9.379919e-001 8.230626e-001 8.381857e-002 1.337141e-001 3.490375e-001 -5.398837e-001 -4.952034e-002 9.376073e-001
<VARIANCE> 25
 1.625271e+001 1.047298e+001 3.587554e+001 1.469722e+001 2.408390e+001 4.478820e+001 2.140638e+001 2.514699e+001 3.798363e+001 2.966897e+001 1.461733e+001 2.152817e+001 2.102011e+000 1.270355e+000 2.235989e+000 1.185727e+000 1.795387e+000 2.491973e+000 2.000330e+000 2.449577e+000 1.800904e+000 2.381945e+000 1.733941e+000 2.517143e+000 1.320675e+000
<GCONST> 9.165507e+001
<STATE> 4
<MEAN> 25
 6.939657e+000 -8.391678e+000 -3.492374e+000 -3.067286e+000 3.003919e+000 -1.623142e+001 7.167062e+000 3.518606e+000 -3.653111e-001 4.193323e-001 2.587755e+000 -2.005041e+000 -6.744611e-002 7.589419e-001 3.664660e-002 7.228143e-002 5.424221e-001 6.807722e-001 -2.549384e-001 -4.172598e-001 -7.807902e-001 1.387547e-001 -3.546360e-001 1.170999e-002 -7.629506e-001
<VARIANCE> 25
 1.261886e+001 1.231338e+001 2.095319e+001 1.499501e+001 2.218732e+001 4.517111e+001 2.591196e+001 2.661666e+001 3.026098e+001 2.873249e+001 2.146090e+001 1.923570e+001 9.898880e-001 1.071859e+000 1.140079e+000 1.246733e+000 1.360660e+000 1.916285e+000 1.637898e+000 1.735233e+000 1.378788e+000 2.339521e+000 1.321897e+000 1.772158e+000 1.535066e+000
<GCONST> 8.784468e+001
<TRANSP> 5
 0.000000e+000 1.000000e+000 0.000000e+000 0.000000e+000 0.000000e+000
 0.000000e+000 4.220104e-001 5.779896e-001 0.000000e+000 0.000000e+000
 0.000000e+000 0.000000e+000 5.382806e-001 4.617194e-001 0.000000e+000
 0.000000e+000 0.000000e+000 0.000000e+000 7.657125e-001 2.342875e-001
 0.000000e+000 0.000000e+000 0.000000e+000 0.000000e+000 0.000000e+000
<ENDHMM>
~h "er"
<BEGINHMM>
<NUMSTATES> 5
<STATE> 2
<MEAN> 25
 7.221110e+000 -6.265981e+000 -4.469592e+000 -4.716293e+000 3.947370e+000 -1.207097e+001 3.278019e+000 -2.239911e+000 1.291748e+000 1.307807e+000 6.988139e+000 -5.155656e+000 5.863551e-002 -2.896003e-002 -2.501050e-001 2.350253e-001 2.899225e-001 -1.392113e-001 2.851120e-001 3.454536e-001 2.835227e-001 -2.599326e-001 -2.287630e-001 -1.289693e-001 -1.819315e-001
<VARIANCE> 25
 1.098162e+001 9.143504e+000 1.651278e+001 1.871871e+001 2.607337e+001 4.384999e+001 5.368729e+001 1.898022e+001 2.794047e+001 2.541613e+001 4.067927e+001 2.041194e+001 8.526425e-001 5.123748e-001 1.063605e+000 1.235672e+000 9.110548e-001 1.904655e+000 2.273419e+000 1.417285e+000 1.741875e+000 1.169926e+000 1.996098e+000 1.371705e+000 1.189788e+000
<GCONST> 8.660468e+001
<STATE> 3
<MEAN> 25
 8.018531e+000 -4.781444e+000 -3.398374e+000 -5.890462e-001 3.627642e+000 -8.811666e+000 4.784717e+000 -2.191961e+000 3.139261e+000 1.500112e+000 5.972695e-001 -3.421670e+000 -1.809419e-002 4.241756e-001 2.420017e-001 7.008408e-001 5.369580e-001 1.562960e+000 -7.520910e-001 1.241025e-001 -1.609552e-001 4.316098e-002 -1.172790e+000 7.361364e-001 -1.957664e+000
<VARIANCE> 25
 1.005098e+001 1.269752e+001 1.377633e+001 3.331556e+001 1.746820e+001 4.486842e+001 4.150835e+001 1.986562e+001 4.716406e+001 4.277118e+001 5.673171e+001 3.043976e+001 7.853442e-001 5.544420e-001 1.148153e+000 8.389177e-001 1.417248e+000 2.338110e+000 1.976934e+000 2.215084e+000 2.454806e+000 2.118491e+000 2.219659e+000 1.310331e+000 1.454605e+000
<GCONST> 9.026466e+001
<STATE> 4
<MEAN> 25
 4.170670e+000 -1.269963e+000 -1.348221e+000 3.381392e+000 3.488011e+000 2.929927e+000 -1.360770e+000 5.728330e-001 4.253026e+000 2.578267e+000 -3.138917e+000 9.971332e-001 -9.598481e-001 9.001118e-001 4.262478e-001 2.126466e-001 -1.864940e-001 1.221639e+000 -7.035443e-001 4.511226e-001 -1.353523e-001 1.180721e-001 -5.392962e-001 3.285619e-001 -1.814701e+000
<VARIANCE> 25
 2.960789e+001 2.372536e+001 2.337210e+001 3.246925e+001 2.333594e+001 8.072926e+001 4.166181e+001 4.196688e+001 3.489194e+001 3.809128e+001 4.816504e+001 3.437681e+001 1.813365e+000 2.709920e+000 1.825194e+000 2.317062e+000 2.269350e+000 3.003438e+000 3.566867e+000 3.532281e+000 2.432614e+000 2.874107e+000 3.101770e+000 3.229707e+000 3.437332e+000
<GCONST> 1.017159e+002
<TRANSP> 5
 0.000000e+000 1.000000e+000 0.000000e+000 0.000000e+000 0.000000e+000
 0.000000e+000 7.843137e-001 2.156863e-001 0.000000e+000 0.000000e+000
 0.000000e+000 0.000000e+000 5.997235e-001 4.002765e-001 0.000000e+000
 0.000000e+000 0.000000e+000 0.000000e+000 7.125669e-001 2.874331e-001
 0.000000e+000 0.000000e+000 0.000000e+000 0.000000e+000 0.000000e+000
<ENDHMM>
~h "ey"
<BEGINHMM>
<NUMSTATES> 5
<STATE> 2
<MEAN> 25
 3.914788e+000 -7.407524e+000 6.996872e+000 1.668206e+000 -8.496610e+000 -1.657603e+001 2.903094e+000 3.765589e+000 -2.109916e+000 -6.311353e+000 8.775622e+000 2.268303e+000 -5.639954e-001 5.246459e-001 1.481314e+000 4.084209e-001 -1.105557e+000 -2.890962e-002 4.099576e-001 -6.541997e-001 -1.108890e+000 -3.611661e-001 5.575430e-001 5.645663e-002 3.780960e-001
<VARIANCE> 25
 9.686910e+000 1.137463e+001 2.503068e+001 1.373645e+001 2.510143e+001 2.185995e+001 2.373323e+001 2.166096e+001 3.069169e+001 1.982882e+001 2.133161e+001 1.679794e+001 6.507900e-001 8.424219e-001 9.599411e-001 8.887767e-001 1.159743e+000 1.889351e+000 1.660739e+000 1.640414e+000 1.776895e+000 1.413592e+000 1.374635e+000 1.379966e+000 1.127573e+000
<GCONST> 8.403991e+001
<STATE> 3
<MEAN> 25
 1.789847e+000 -3.194765e+000 1.327779e+001 4.267602e+000 -1.144170e+001 -1.105642e+001 2.324028e+000 -2.880459e+000 -7.819340e+000 -6.019862e+000 8.355936e+000 7.199740e-001 2.144320e-001 4.321876e-001 9.601595e-002 5.731420e-001 6.148294e-001 8.068362e-001 -6.663421e-001 -4.992832e-002 1.872371e-001 4.360096e-001 -1.049221e+000 -1.619582e-001 -1.296751e+000
<VARIANCE> 25
 1.083417e+001 1.770624e+001 2.022915e+001 1.879506e+001 1.825859e+001 4.746751e+001 2.472742e+001 3.548255e+001 2.456099e+001 3.539702e+001 2.396090e+001 1.311052e+001 1.079847e+000 1.046938e+000 1.787583e+000 1.066449e+000 2.261805e+000 2.164388e+000 2.933446e+000 2.247931e+000 2.904542e+000 2.451801e+000 3.203654e+000 1.336837e+000 2.955689e+000
<GCONST> 9.194733e+001
<STATE> 4
<MEAN> 25
 3.404632e+000 -1.200145e+000 8.996890e+000 7.880251e+000 -7.183869e+000 -8.347066e+000 -1.216735e+000 9.706770e-002 -4.123319e+000 -2.234819e+000 9.561006e-001 -1.872656e-002 -2.167982e-001 4.991432e-001 -1.067379e+000 -3.127177e-001 1.219795e+000 1.481046e+000 -4.606118e-001 6.117566e-002 6.576070e-001 9.604835e-001 -1.257166e+000 -2.232860e-001 -1.876018e+000
<VARIANCE> 25
 1.310649e+001 2.473473e+001 4.953479e+001 2.724495e+001 2.832261e+001 5.122391e+001 5.158826e+001 5.446030e+001 2.956666e+001 3.865486e+001 2.989743e+001 3.522463e+001 1.482339e+000 1.676623e+000 2.224821e+000 3.300848e+000 3.595192e+000 3.041836e+000 2.848067e+000 2.808164e+000 3.003642e+000 3.289701e+000 3.461715e+000 2.138682e+000 2.826652e+000
<GCONST> 1.008644e+002
<TRANSP> 5
 0.000000e+000 1.000000e+000 0.000000e+000 0.000000e+000 0.000000e+000
 0.000000e+000 8.414245e-001 1.585755e-001 0.000000e+000 0.000000e+000
 0.000000e+000 0.000000e+000 7.358473e-001 2.641527e-001 0.000000e+000
 0.000000e+000 0.000000e+000 0.000000e+000 6.763832e-001 3.236168e-001
 0.000000e+000 0.000000e+000 0.000000e+000 0.000000e+000 0.000000e+000
<ENDHMM>
~h "hh"
<BEGINHMM>
<NUMSTATES> 5
<STATE> 2
<MEAN> 25
 2.313537e+000 -8.901587e-001 -3.267330e-001 -3.644354e+000 -1.815726e+000 3.297178e+000 -2.365770e-001 2.456155e+000 -4.091782e+000 -4.986961e+000 2.260886e+000 2.787928e+000 1.104254e+000 -7.343432e-001 -1.619653e-001 -1.710980e+000 -1.225510e+000 -1.148191e+000 1.363302e+000 2.539555e-001 4.645683e-001 -9.697359e-001 1.605489e+000 9.713276e-001 2.566877e+000
<VARIANCE> 25
 5.709413e+001 4.685025e+001 1.281904e+001 7.038013e+001 7.123901e+001 3.837666e+001 2.746134e+001 7.075413e+001 2.764260e+001 8.619462e+001 9.048451e+001 6.137663e+001 3.730482e+000 1.872261e+000 2.479050e+000 4.283284e+000 4.864461e+000 4.196248e+000 3.145869e+000 3.232417e+000 3.980628e+000 4.289542e+000 4.414638e+000 4.439087e+000 8.519557e+000
<GCONST> 1.101242e+002
<STATE> 3
<MEAN> 25
 5.340875e+000 -5.411176e+000 8.782994e-001 -6.308259e+000 -3.866932e+000 -1.983471e-002 5.170810e+000 -5.391181e+000 -3.762448e-001 -2.845361e+000 3.498256e+000 4.656890e+000 -2.932397e-001 -9.656440e-001 1.828910e-001 3.907852e-001 8.970587e-001 -1.218871e+000 5.058618e-001 6.806971e-001 3.692451e-001 1.268838e-001 3.152313e-001 3.110812e-001 4.298738e-001
<VARIANCE> 25
 4.917882e+001 3.918032e+001 2.086514e+001 5.938406e+001 1.064847e+002 4.684595e+001 4.456843e+001 1.896555e+002 2.367735e+001 8.229087e+001 4.488571e+001 6.410889e+001 1.787299e+000 2.107354e+000 1.004033e+000 2.315650e+000 2.751506e+000 1.998865e+000 3.801500e+000 1.067492e+001 2.720640e+000 3.725163e+000 3.456960e+000 2.223089e+000 1.993344e+000
<GCONST> 1.063522e+002
<STATE> 4
<MEAN> 25
 -1.455138e+000 -9.215151e+000 1.090606e+000 -8.948081e-001 5.294375e+000 -3.646272e-001 3.697080e+000 7.144983e+000 -2.877661e+000 -5.571854e+000 1.464880e+000 1.146653e+000 4.429538e-001 -3.691356e-001 7.404870e-003 -2.208922e-002 8.249777e-001 -1.162419e+000 1.043461e+000 1.693682e-001 9.854250e-002 -5.781223e-002 1.118725e-001 -8.171150e-002 1.742633e+000
<VARIANCE> 25
 7.325674e+001 6.193558e+001 1.864772e+001 4.243517e+001 7.467973e+001 6.050525e+001 2.652569e+001 3.746307e+001 4.172223e+001 5.266777e+001 4.445733e+001 4.364409e+001 2.624384e+000 4.764093e+000 8.892704e-001 2.691616e+000 5.535841e+000 4.191914e+000 3.631680e+000 7.127137e+000 2.569367e+000 3.501392e+000 2.620964e+000 2.447049e+000 4.085961e+000
<GCONST> 1.068833e+002
<TRANSP> 5
 0.000000e+000 1.000000e+000 0.000000e+000 0.000000e+000 0.000000e+000
 0.000000e+000 5.891402e-001 4.108598e-001 0.000000e+000 0.000000e+000
 0.000000e+000 0.000000e+000 5.325757e-001 4.674243e-001 0.000000e+000
 0.000000e+000 0.000000e+000 0.000000e+000 5.008906e-001 4.991094e-001
 0.000000e+000 0.000000e+000 0.000000e+000 0.000000e+000 0.000000e+000
<ENDHMM>
~h "ih"
<BEGINHMM>
<NUMSTATES> 5
<STATE> 2
<MEAN> 25
 3.363280e+000 -3.463746e+000 4.661388e+000 1.176361e+000 -3.079329e-002 -1.055477e+001 -2.043424e+000 3.860273e+000 -1.346562e+000 -2.941978e+000 3.257912e+000 2.926249e-003 1.373307e+000 -1.681322e+000 6.096307e-002 9.348066e-001 -7.544729e-001 -3.210009e+000 -5.228975e-001 6.525796e-001 5.558712e-001 -1.104069e+000 1.276729e+000 2.406707e-001 2.659140e+000
<VARIANCE> 25
 3.506590e+001 2.683086e+001 3.486872e+001 2.504409e+001 2.760888e+001 1.133803e+002 4.006984e+001 1.768883e+001 3.931531e+001 3.175586e+001 3.245559e+001 2.348606e+001 5.688346e+000 3.503908e+000 3.508932e+000 2.575662e+000 3.847394e+000 8.208383e+000 4.292262e+000 4.014895e+000 3.882799e+000 3.336455e+000 6.296093e+000 4.858653e+000 6.955546e+000
<GCONST> 1.073591e+002
<STATE> 3
<MEAN> 25
 5.685545e+000 -7.212963e+000 3.529824e+000 2.675159e+000 -1.820490e+000 -1.677917e+001 -1.043026e+000 4.170804e+000 1.628331e-001 -4.696002e+000 5.673339e+000 6.561122e-001 2.615120e-001 -4.555554e-001 -3.018680e-001 7.947399e-001 -4.324310e-001 -7.058443e-001 9.737635e-002 3.075063e-002 5.331917e-001 -2.268416e-001 4.271942e-001 4.842287e-002 4.707612e-001
<VARIANCE> 25
 1.526692e+001 1.169321e+001 2.979237e+001 1.881424e+001 2.029600e+001 3.349891e+001 3.133734e+001 1.554746e+001 3.013957e+001 3.478542e+001 2.874267e+001 2.854392e+001 2.114455e+000 2.084293e+000 3.491117e+000 1.488979e+000 2.171552e+000 4.764813e+000 3.320814e+000 1.755960e+000 3.114707e+000 3.017287e+000 4.307235e+000 1.942094e+000 3.756287e+000
<GCONST> 9.675545e+001
<STATE> 4
<MEAN> 25
 3.864276e+000 -5.971995e+000 3.364038e+000 4.588407e+000 1.020892e+000 -1.326374e+001 -1.945682e+000 4.218526e+000 -8.974351e-001 -3.293837e+000 2.564466e+000 9.041332e-001 -4.971366e-001 6.010969e-001 -2.813204e-001 1.885532e-001 7.361971e-001 1.050904e+000 -3.610341e-001 -1.803951e-001 5.316882e-002 5.995270e-001 -9.410653e-001 -8.492553e-002 -1.567287e+000
<VARIANCE> 25
 3.330385e+001 1.865331e+001 3.210334e+001 1.768595e+001 2.713626e+001 4.124007e+001 2.968078e+001 2.574933e+001 2.263311e+001 3.281723e+001 4.259167e+001 2.318708e+001 2.675102e+000 1.320557e+000 2.181502e+000 1.789347e+000 2.066205e+000 2.866341e+000 1.743966e+000 1.907447e+000 2.005295e+000 2.511253e+000 3.411648e+000 2.140137e+000 2.666050e+000
<GCONST> 9.607498e+001
<TRANSP> 5
 0.000000e+000 1.000000e+000 0.000000e+000 0.000000e+000 0.000000e+000
 0.000000e+000 4.148180e-001 5.851821e-001 0.000000e+000 0.000000e+000
 0.000000e+000 0.000000e+000 4.404681e-001 5.595320e-001 0.000000e+000
 0.000000e+000 0.000000e+000 0.000000e+000 7.487756e-001 2.512244e-001
 0.000000e+000 0.000000e+000 0.000000e+000 0.000000e+000 0.000000e+000
<ENDHMM>
~h "iy"
<BEGINHMM>
<NUMSTATES> 5
<STATE> 2
<MEAN> 25
 -8.890539e-001 -2.835497e+000 1.021220e+001 3.249640e+000 -3.122228e+000 -1.068538e+001 2.769674e-001 2.397549e+000 -4.126019e+000 -7.605916e+000 5.516615e+000 2.300954e+000 1.177045e+000 -3.149423e-001 2.409287e+000 1.903840e+000 -2.459902e+000 -1.410123e+000 3.770356e-001 -8.712544e-001 -1.953489e+000 -1.188154e+000 8.734515e-001 -1.703956e-001 1.759876e+000
<VARIANCE> 25
 7.511205e+001 1.871332e+001 4.819134e+001 5.062868e+001 3.392698e+001 7.813360e+001 5.394627e+001 3.528978e+001 4.422398e+001 3.472139e+001 3.636817e+001 2.012271e+001 6.693136e+000 4.082551e+000 4.928995e+000 5.569937e+000 2.168847e+000 6.639115e+000 3.975454e+000 3.058414e+000 4.416710e+000 4.267189e+000 3.263052e+000 2.857011e+000 3.156309e+000
<GCONST> 1.084649e+002
<STATE> 3
<MEAN> 25
 2.094645e+000 -2.335454e+000 1.642117e+001 6.068852e+000 -1.015880e+001 -1.145644e+001 2.400126e+000 -3.586786e+000 -9.843358e+000 -7.864377e+000 7.805963e+000 -9.531999e-001 -4.295754e-002 1.858708e-001 4.094464e-001 -8.267026e-002 -6.261207e-001 3.816099e-001 3.324268e-001 -6.515097e-001 -3.327110e-001 4.231921e-001 2.617598e-001 -2.286220e-001 -7.619310e-002
<VARIANCE> 25
 8.406097e+000 1.283443e+001 3.019388e+001 1.975232e+001 2.637301e+001 2.749459e+001 4.192944e+001 3.608670e+001 3.002227e+001 3.229782e+001 2.617355e+001 2.201056e+001 9.648771e-001 1.099809e+000 1.580675e+000 1.264651e+000 1.656214e+000 2.363722e+000 1.438457e+000 2.064811e+000 2.482860e+000 2.344335e+000 1.620443e+000 1.485783e+000 1.145252e+000
<GCONST> 9.014147e+001
<STATE> 4
<MEAN> 25
 1.223817e+000 -2.364060e+000 1.175280e+001 6.721599e+000 -3.798612e+000 -1.099384e+001 -9.476248e-002 -1.385278e+000 -5.285359e+000 -5.109180e+000 3.052179e+000 2.564324e-001 -3.154775e-001 -1.808169e-001 -1.606998e+000 -4.270724e-001 1.650012e+000 5.713584e-001 -6.860933e-001 3.334593e-001 9.580426e-001 6.812844e-001 -1.097095e+000 -8.217736e-002 -9.026706e-001
<VARIANCE> 25
 3.976376e+001 1.457682e+001 3.682447e+001 2.730151e+001 7.250191e+001 3.327367e+001 3.801922e+001 3.265551e+001 3.199527e+001 3.256375e+001 2.655291e+001 1.870307e+001 3.424762e+000 1.213192e+000 1.054147e+000 2.272046e+000 3.330366e+000 3.379239e+000 2.979467e+000 3.053299e+000 3.573697e+000 3.117928e+000 2.391592e+000 1.997642e+000 1.473713e+000
<GCONST> 9.858040e+001
<TRANSP> 5
 0.000000e+000 1.000000e+000 0.000000e+000 0.000000e+000 0.000000e+000
 0.000000e+000 6.077590e-001 3.922410e-001 0.000000e+000 0.000000e+000
 0.000000e+000 0.000000e+000 7.614698e-001 2.385302e-001 0.000000e+000
 0.000000e+000 0.000000e+000 0.000000e+000 7.888280e-001 2.111719e-001
 0.000000e+000 0.000000e+000 0.000000e+000 0.000000e+000 0.000000e+000
<ENDHMM>
~h "jh"
<BEGINHMM>
<NUMSTATES> 5
<STATE> 2
<MEAN> 25
 -7.684991e+000 -4.668894e+000 5.112711e+000 -2.990377e+000 5.395804e+000 -5.939655e+000 -2.241332e+000 1.247692e+000 4.711321e+000 -1.390620e+000 1.608241e+000 5.228508e+000 -1.658089e+000 -3.282844e-002 8.357005e-001 -7.386554e-001 4.087699e-001 1.452109e+000 5.169748e-001 2.151489e-001 1.098475e-001 2.787981e-001 1.034239e-001 4.442132e-002 -3.774907e-001
<VARIANCE> 25
 4.624167e+001 6.615228e+001 2.215785e+001 3.573809e+001 1.589388e+001 3.193538e+001 5.576617e+001 8.526913e+000 1.929990e+001 5.936060e+001 1.050451e+001 2.930388e+001 5.945645e+000 4.531100e+000 3.365104e+000 5.117165e+000 1.963601e+000 7.103397e+000 3.756011e+000 1.086792e+000 3.536204e+000 5.781472e+000 1.762160e+000 2.847014e+000 6.292915e+000
<GCONST> 1.024660e+002
<STATE> 3
<MEAN> 25
 -5.857753e+000 -2.440563e+000 8.040333e+000 -6.878578e+000 1.881352e+000 -4.864473e+000 -6.101638e+000 -8.782176e-001 -8.846058e-001 -1.895652e+000 2.755098e+000 2.832498e+000 3.335628e+000 -2.357212e+000 -1.153181e+000 1.600203e+000 -1.828056e+000 -3.560923e+000 -1.413695e+000 -5.325462e-001 -9.858796e-001 -1.020020e+000 4.610268e-001 -1.700469e-001 1.356551e+000
<VARIANCE> 25
 5.871080e+001 2.912672e+001 1.450145e+001 3.250363e+001 1.299606e+001 9.394006e+001 3.575262e+001 1.075332e+001 1.607117e+001 8.093874e+000 1.486442e+001 1.624445e+001 4.690949e+000 5.076620e+000 6.689677e-001 9.790029e-001 1.121775e+000 9.885997e+000 3.260781e+000 9.094670e-001 5.344055e+000 9.369223e-001 2.017388e+000 7.673355e-001 4.923602e+000
<GCONST> 9.284279e+001
<STATE> 4
<MEAN> 25
 2.258857e+000 -5.513834e+000 4.846632e+000 -3.745503e-001 -3.522828e-001 -1.073800e+001 -4.552538e+000 4.409874e+000 4.899603e+000 -5.085901e+000 -1.501566e-001 2.184749e+000 3.146584e-001 -8.770924e-003 -8.684541e-002 2.979588e-001 -6.040002e-002 -3.209106e-001 4.526481e-002 -3.490157e-002 1.858605e-003 -6.100348e-002 -8.991488e-002 3.234298e-001 1.432199e-001
<VARIANCE> 25
 6.518327e+001 1.219062e+002 1.463903e+001 2.110125e+001 5.497338e+001 4.426653e+001 1.660905e+001 2.494639e+001 2.293572e+001 9.725760e+000 2.891409e+001 3.712838e+001 7.213364e+000 1.018616e+001 2.392558e+000 2.656641e+000 5.310707e+000 2.383033e+000 2.764092e+000 2.911967e+000 1.916492e+000 9.484565e-001 3.311525e+000 3.059785e+000 2.046913e+000
<GCONST> 1.012700e+002
<TRANSP> 5
 0.000000e+000 1.000000e+000 0.000000e+000 0.000000e+000 0.000000e+000
 0.000000e+000 8.489230e-001 1.510770e-001 0.000000e+000 0.000000e+000
 0.000000e+000 0.000000e+000 6.031837e-001 3.968162e-001 0.000000e+000
 0.000000e+000 0.000000e+000 0.000000e+000 8.535343e-001 1.464657e-001
 0.000000e+000 0.000000e+000 0.000000e+000 0.000000e+000 0.000000e+000
<ENDHMM>
~h "ng"
<BEGINHMM>
<NUMSTATES> 5
<STATE> 2
<MEAN> 25
 1.347403e+001 -6.580776e+000 2.524195e+000 9.075871e+000 5.242316e-001 -7.875559e+000 3.450940e-001 6.034246e+000 2.289492e+000 5.430506e-001 -5.379929e+000 1.351358e+000 -7.609616e-001 5.916455e-001 9.580684e-001 7.302413e-002 7.473997e-002 1.032330e+000 -1.060851e+000 -1.046757e-001 2.629898e-001 8.415313e-001 -3.330258e-001 -5.059258e-001 -1.151270e+000
<VARIANCE> 25
 2.588010e+001 1.125828e+001 1.897308e+001 2.085605e+001 1.780951e+001 4.042117e+001 4.861519e+001 3.084662e+001 1.588645e+001 3.503454e+001 2.257387e+001 2.432767e+001 9.815758e-001 2.015233e+000 1.048251e+000 1.812899e+000 1.291681e+000 1.480707e+000 1.567138e+000 5.043180e+000 1.573116e+000 1.783696e+000 1.645868e+000 2.499112e+000 1.279786e+000
<GCONST> 9.085701e+001
<STATE> 3
<MEAN> 25
 7.303564e+000 -1.382383e+000 4.107598e+000 7.332323e+000 1.029585e+000 -6.407596e-001 -3.545074e+000 1.104660e+000 2.584046e-001 2.784704e+000 -5.457102e+000 -1.848141e+000 -1.361262e+000 2.178173e+000 -5.732830e-001 -2.798257e-001 2.138407e-001 2.531734e+000 -5.556263e-001 5.875879e-002 -1.355519e-001 -9.594420e-002 5.753551e-001 9.811056e-002 -2.617859e+000
<VARIANCE> 25
 3.375435e+001 2.173434e+001 2.948483e+001 2.764480e+001 2.005460e+001 5.724611e+001 4.326768e+001 1.833451e+001 3.065419e+001 5.680559e+001 4.574065e+001 4.362831e+001 3.182054e-001 3.243995e+000 1.323697e+000 9.341212e-001 9.933054e-001 1.939733e+000 2.181781e+000 4.112460e+000 1.375265e+000 2.493467e+000 3.144386e+000 2.032590e+000 2.955934e+000
<GCONST> 9.529644e+001
<STATE> 4
<MEAN> 25
 2.787656e+000 2.180531e+000 1.088989e+000 5.741463e+000 1.856340e+000 5.598004e+000 -4.624647e+000 1.749157e+000 2.852623e+000 4.703732e+000 -4.939257e+000 -4.861460e-001 -1.413872e+000 5.648397e-001 -9.125522e-001 -6.670787e-001 -2.500730e-001 8.978480e-001 -2.529355e-001 -2.906926e-001 1.103971e-001 -2.732373e-001 -3.345949e-002 5.383694e-001 -1.557351e+000
<VARIANCE> 25
 4.348529e+001 1.966361e+001 2.384922e+001 2.531595e+001 2.294144e+001 5.541639e+001 2.663914e+001 2.249900e+001 2.516612e+001 4.963401e+001 2.960723e+001 2.050124e+001 4.913900e-001 1.275215e+000 1.247634e+000 9.993879e-001 1.905314e+000 3.677323e+000 2.543123e+000 1.978039e+000 2.028026e+000 3.287865e+000 2.598505e+000 3.432740e+000 1.535015e+000
<GCONST> 9.401336e+001
<TRANSP> 5
 0.000000e+000 1.000000e+000 0.000000e+000 0.000000e+000 0.000000e+000
 0.000000e+000 8.148190e-001 1.851811e-001 0.000000e+000 0.000000e+000
 0.000000e+000 0.000000e+000 4.771501e-001 5.228499e-001 0.000000e+000
 0.000000e+000 0.000000e+000 0.000000e+000 4.420476e-001 5.579524e-001
 0.000000e+000 0.000000e+000 0.000000e+000 0.000000e+000 0.000000e+000
<ENDHMM>
~h "ow"
<BEGINHMM>
<NUMSTATES> 5
<STATE> 2
<MEAN> 25
 5.264938e+000 -4.826533e-001 -4.965518e+000 -5.209146e+000 -2.534034e+000 2.667500e+000 3.594718e+000 -4.620603e+000 -3.986468e-002 -2.412516e+000 7.358309e+000 1.659850e+000 2.060423e-001 6.584997e-002 -2.620609e-001 -7.841569e-001 -7.513761e-001 9.351163e-002 4.360105e-001 -5.365826e-001 -1.157067e-001 -7.876785e-001 6.480910e-001 3.619496e-001 4.399596e-001
<VARIANCE> 25
 6.429961e+001 2.508060e+001 1.770291e+001 6.341695e+001 2.755113e+001 6.186290e+001 7.251662e+001 2.934329e+001 2.494864e+001 5.702889e+001 1.168879e+002 1.263006e+001 8.126259e-001 6.748282e-001 3.695894e-001 1.205744e+000 1.581406e+000 1.535219e+000 1.271313e+000 1.239929e+000 1.984336e+000 1.626469e+000 1.587457e+000 9.900233e-001 1.745561e+000
<GCONST> 9.213147e+001
<STATE> 3
<MEAN> 25
 1.025378e+001 2.677237e+000 -6.788155e+000 -1.370660e+001 -1.011773e+001 3.906246e+000 9.614452e+000 -6.497201e+000 8.244365e-001 -1.128525e+001 9.074056e+000 1.708689e+000 3.376288e-002 6.984724e-001 3.094306e-001 -1.527111e-001 -2.404587e-001 2.364383e-001 -3.289139e-001 3.358783e-003 -2.223832e-002 -4.008796e-001 -8.624775e-001 -1.831875e-001 -4.224443e-001
<VARIANCE> 25
 8.338039e+000 3.283063e+001 1.088738e+001 2.771253e+001 3.331039e+001 3.162845e+001 3.254248e+001 4.636064e+001 2.395384e+001 2.951723e+001 5.535268e+001 1.771261e+001 3.015315e-001 9.571471e-001 3.578362e-001 9.412625e-001 1.303457e+000 9.921219e-001 1.385320e+000 1.361055e+000 1.316757e+000 2.184726e+000 1.701906e+000 9.931595e-001 5.787877e-001
<GCONST> 8.459177e+001
<STATE> 4
<MEAN> 25
 8.070031e+000 3.019714e+000 -3.982134e+000 -7.607962e+000 -4.849199e+000 5.293603e+000 3.445108e+000 -6.313682e+000 -2.014309e-001 -4.623835e+000 3.574453e+000 1.485580e-001 -3.722013e-001 -6.420484e-001 6.249433e-001 1.996350e+000 9.746776e-001 -3.331012e-001 -1.063944e+000 2.658038e-001 2.915369e-002 1.251563e+000 -6.374639e-001 -5.462641e-001 -9.901465e-001
<VARIANCE> 25
 2.153765e+001 4.302596e+001 3.591466e+001 7.872039e+001 4.566353e+001 5.216843e+001 6.691677e+001 6.246777e+001 3.758648e+001 5.913431e+001 9.187616e+001 2.516970e+001 1.207513e+000 3.488541e+000 2.224652e+000 3.856568e+000 2.558550e+000 5.728270e+000 4.375444e+000 4.107335e+000 2.733564e+000 3.861879e+000 8.810343e+000 2.549335e+000 6.714413e+000
<GCONST> 1.088258e+002
<TRANSP> 5
 0.000000e+000 1.000000e+000 0.000000e+000 0.000000e+000 0.000000e+000
 0.000000e+000 5.776188e-001 4.223812e-001 0.000000e+000 0.000000e+000
 0.000000e+000 0.000000e+000 8.457575e-001 1.542425e-001 0.000000e+000
 0.000000e+000 0.000000e+000 0.000000e+000 7.974882e-001 2.025118e-001
 0.000000e+000 0.000000e+000 0.000000e+000 0.000000e+000 0.000000e+000
<ENDHMM>
~h "oy"
<BEGINHMM>
<NUMSTATES> 5
<STATE> 2
<MEAN> 25
 8.149228e+000 -5.082610e+000 -8.468575e+000 -1.364766e+001 -3.477257e+000 3.903214e+000 6.423581e+000 1.806158e+000 -3.731897e+000 -1.026725e+001 1.391265e+001 3.513947e+000 2.117164e+000 -5.008206e-001 -1.329174e+000 -2.283811e-001 -1.233902e+000 -6.862552e-001 2.812421e+000 -3.872951e-001 -9.832246e-002 -2.040756e+000 2.053865e+000 -5.027955e-001 3.292083e+000
<VARIANCE> 25
 4.329975e+001 1.629153e+001 2.808387e+001 3.811386e+001 2.474104e+001 2.942307e+001 8.696001e+001 4.793703e+001 1.326760e+001 6.146421e+001 7.528854e+001 2.378916e+001 5.619400e+000 3.641527e+000 7.703210e+000 7.764766e+000 3.068871e+000 3.639881e+000 5.674711e+000 6.700462e+000 3.962939e+000 4.240475e+000 2.054973e+001 3.156140e+000 7.280290e+000
<GCONST> 1.107418e+002
<STATE> 3
<MEAN> 25
 1.286528e+001 -8.522008e+000 -7.663227e+000 -7.133597e+000 7.744197e-001 -9.436782e+000 6.471428e+000 -2.166233e+000 6.690192e-002 -1.143470e+001 1.580164e+001 1.151363e+000 -2.523572e-001 -6.307285e-001 3.548730e-001 8.481172e-001 5.015708e-001 -1.809571e+000 -1.675469e+000 2.363385e-001 4.377452e-001 5.667708e-001 -4.729732e-001 -3.447108e-001 5.839114e-002
<VARIANCE> 25
 4.244802e+000 1.018158e+001 8.442520e+000 2.622051e+001 4.018081e+001 5.203835e+001 7.024433e+001 1.679282e+001 1.602797e+001 2.244256e+001 4.497595e+001 1.303325e+001 4.872357e-001 4.943849e-001 1.091765e+000 1.326154e+000 4.004004e+000 2.123917e+000 2.236642e+000 1.143807e+000 1.822500e+000 1.110850e+000 3.408384e+000 1.371179e+000 9.783524e-001
<GCONST> 8.634214e+001
<STATE> 4
<MEAN> 25
 1.029718e+001 -8.296544e+000 1.021778e+000 3.908093e+000 -6.915463e-001 -2.116852e+001 3.446109e-003 1.779527e-001 -1.374990e+000 -8.939260e+000 5.759266e+000 -2.168795e-001 -1.601203e+000 1.761781e+000 1.455467e+000 9.039963e-001 4.232838e-001 9.190695e-001 1.662905e+000 1.961934e-002 -2.173615e+000 1.234623e+000 -1.030240e+000 1.041201e+000 -9.956385e-001
<VARIANCE> 25
 1.761515e+001 2.017328e+001 3.156879e+001 3.785049e+001 1.654684e+001 1.132082e+001 4.255582e+001 1.176543e+001 2.071731e+001 6.359588e+000 2.476818e+001 1.159611e+001 2.968036e+000 1.201240e+000 7.317951e-001 1.380231e+000 5.947205e+000 1.093136e+000 1.648695e+000 1.335222e+000 6.951151e-001 2.975387e+000 1.595556e+000 3.202388e-001 1.174893e-001
<GCONST> 8.275197e+001
<TRANSP> 5
 0.000000e+000 1.000000e+000 0.000000e+000 0.000000e+000 0.000000e+000
 0.000000e+000 8.087776e-001 1.912224e-001 0.000000e+000 0.000000e+000
 0.000000e+000 0.000000e+000 8.984498e-001 1.015502e-001 0.000000e+000
 0.000000e+000 0.000000e+000 0.000000e+000 7.157537e-001 2.842463e-001
 0.000000e+000 0.000000e+000 0.000000e+000 0.000000e+000 0.000000e+000
<ENDHMM>
~h "sh"
<BEGINHMM>
<NUMSTATES> 5
<STATE> 2
<MEAN> 25
 -4.546067e+000 -1.567295e+000 1.205882e+001 1.595416e+000 -8.005348e-001 -8.568681e+000 2.226579e+000 3.439908e+000 -3.848813e-001 -4.696763e+000 3.083017e+000 -2.098883e+000 -3.835621e+000 5.997314e-001 1.245483e+000 -1.117040e+000 1.050879e+000 2.203955e+000 -1.373141e-001 7.149509e-001 1.060282e+000 3.176340e-001 -1.609336e-002 4.807850e-001 5.060998e-001
<VARIANCE> 25
 5.254925e+001 3.133493e+001 6.505912e+001 3.972942e+001 4.736633e+001 4.722401e+001 3.452677e+001 2.880931e+001 4.321558e+001 2.061275e+001 1.433672e+001 1.177680e+001 4.994743e+000 1.249411e+000 3.007983e+000 1.740860e+000 3.428019e+000 3.188426e+000 2.673873e+000 2.773222e+000 1.681023e+000 1.693929e+000 3.456656e+000 1.293095e+000 2.452637e+000
<GCONST> 9.906982e+001
<STATE> 3
<MEAN> 25
 -2.033852e+001 -1.511039e+000 1.727236e+001 2.144692e-002 -2.380924e+000 -1.529292e+000 3.003139e+000 3.662311e+000 3.926687e+000 -1.961624e+000 5.966194e+000 2.300594e+000 -8.758724e-001 -5.498497e-001 -2.617826e-001 -3.037382e-002 -4.444924e-001 1.679154e-002 4.329415e-001 1.175608e-001 6.118528e-001 4.245532e-001 2.837158e-001 4.472115e-001 -1.502179e-001
<VARIANCE> 25
 1.171036e+001 1.383990e+001 1.515003e+001 2.723505e+001 4.105511e+001 2.940980e+001 3.757810e+001 2.243316e+001 2.425744e+001 2.671470e+001 2.148795e+001 1.652200e+001 3.959114e+000 6.423714e-001 1.353888e+000 2.239528e+000 1.644905e+000 2.387883e+000 1.937181e+000 2.685510e+000 2.267320e+000 2.812549e+000 2.106297e+000 1.198965e+000 6.674818e-001
<GCONST> 9.067150e+001
<STATE> 4
<MEAN> 25
 -9.048378e+000 -4.916112e+000 9.672101e+000 1.300418e+000 -2.640817e+000 -6.078480e+000 3.261609e+000 4.635991e+000 3.813606e+000 -1.188514e+000 9.988542e-001 1.453454e+000 4.415364e+000 -5.543066e-001 -2.346733e+000 1.604485e-003 1.559648e-001 -1.674801e+000 -5.324190e-001 -7.296584e-001 -6.868094e-001 -6.098202e-002 -1.491532e+000 -8.287506e-001 -2.033896e-001
<VARIANCE> 25
 1.024878e+002 1.152057e+001 2.802061e+001 2.741739e+001 2.205426e+001 5.693525e+001 3.884616e+001 2.285512e+001 2.535070e+001 2.086208e+001 4.960319e+001 1.658334e+001 5.717873e+000 1.430201e+000 1.712018e+000 2.107038e+000 1.471585e+000 4.662168e+000 4.157911e+000 2.757077e+000 2.552652e+000 4.320398e+000 3.139151e+000 2.169868e+000 2.997452e+000
<GCONST> 9.973856e+001
<TRANSP> 5
 0.000000e+000 1.000000e+000 0.000000e+000 0.000000e+000 0.000000e+000
 0.000000e+000 7.183167e-001 2.816834e-001 0.000000e+000 0.000000e+000
 0.000000e+000 0.000000e+000 8.425269e-001 1.574731e-001 0.000000e+000
 0.000000e+000 0.000000e+000 0.000000e+000 7.872059e-001 2.127941e-001
 0.000000e+000 0.000000e+000 0.000000e+000 0.000000e+000 0.000000e+000
<ENDHMM>
~h "sp"
<BEGINHMM>
<NUMSTATES> 3
<STATE> 2
~s "silst"
<TRANSP> 3
 0.000000e+000 6.216304e-002 9.378370e-001
 0.000000e+000 8.120595e-001 1.879405e-001
 0.000000e+000 0.000000e+000 0.000000e+000
<ENDHMM>
~h "th"
<BEGINHMM>
<NUMSTATES> 5
<STATE> 2
<MEAN> 25
 -4.438934e+000 2.032628e+000 -6.904588e-001 -1.734624e+000 6.106054e+000 -8.286176e-001 4.315759e+000 9.692064e-001 2.573359e+000 1.420204e+000 2.624962e+000 -9.294577e-001 -2.378514e+000 -5.416253e-001 6.159913e-002 -8.169774e-001 4.329213e-001 5.844092e-001 -2.376979e-001 1.014118e+000 6.589801e-001 3.659850e-001 2.601428e-001 3.465005e-001 -9.413539e-002
<VARIANCE> 25
 7.498599e+001 2.864218e+001 4.045222e+001 2.688741e+001 3.274820e+001 2.173664e+001 6.198599e+001 4.024806e+001 2.877884e+001 1.205625e+001 1.698462e+001 3.270953e+001 6.790310e+000 4.151238e+000 2.946393e+000 1.425160e+000 3.316469e+000 3.098194e+000 4.935657e+000 2.881498e+000 2.844134e+000 1.106802e+000 2.127355e+000 1.056403e+000 1.371039e+000
<GCONST> 9.920024e+001
<STATE> 3
<MEAN> 25
 -7.715615e+000 -3.210142e-001 -2.202211e+000 -2.632002e+000 7.964127e+000 3.187961e+000 4.239894e+000 2.454796e+000 2.253186e+000 3.994358e+000 3.430289e+000 2.915760e+000 -6.520579e-001 5.987429e-002 9.334654e-002 2.098908e-001 3.747531e-001 1.303007e-001 -6.237725e-001 2.006589e-001 -5.544414e-002 2.348894e-001 1.016876e-001 -5.577612e-002 -6.148205e-001
<VARIANCE> 25
 7.854125e+001 2.517704e+001 1.408370e+001 5.067343e+001 3.473233e+001 7.517265e+001 3.544258e+001 4.197008e+001 4.270388e+001 3.549014e+001 2.590385e+001 3.271399e+001 4.707642e+000 2.229258e+000 1.380208e+000 1.623383e+000 2.285792e+000 2.572145e+000 2.129387e+000 3.732274e+000 4.564416e+000 2.809237e+000 2.887663e+000 3.421205e+000 1.330325e+000
<GCONST> 1.014739e+002
<STATE> 4
<MEAN> 25
 -9.416265e+000 4.665115e-001 1.899292e+000 -1.936683e+000 8.978518e+000 -5.837628e+000 -4.702826e-001 1.754113e+000 4.549492e+000 1.145892e+000 4.975741e+000 -1.627126e+000 1.645380e+000 -2.604889e-001 -3.423605e-001 6.420497e-002 -3.811806e-001 -6.772186e-001 -1.351243e-001 -4.856699e-001 -5.747458e-001 -5.708595e-001 -2.018583e-001 -2.583435e-001 1.183241e-001
<VARIANCE> 25
 5.118906e+001 2.577049e+001 2.120145e+001 1.549667e+001 3.049047e+001 6.070382e+001 2.334270e+001 1.938762e+001 2.622669e+001 2.564995e+001 3.059052e+001 1.603557e+001 7.258686e+000 2.512055e+000 1.665964e+000 1.268688e+000 2.682823e+000 4.254158e+000 2.098830e+000 2.207274e+000 2.103746e+000 4.199452e+000 1.768076e+000 1.757720e+000 1.345722e+000
<GCONST> 9.650064e+001
<TRANSP> 5
 0.000000e+000 1.000000e+000 0.000000e+000 0.000000e+000 0.000000e+000
 0.000000e+000 6.339899e-001 3.660101e-001 0.000000e+000 0.000000e+000
 0.000000e+000 0.000000e+000 8.725618e-001 1.274382e-001 0.000000e+000
 0.000000e+000 0.000000e+000 0.000000e+000 7.157975e-001 2.842025e-001
 0.000000e+000 0.000000e+000 0.000000e+000 0.000000e+000 0.000000e+000
<ENDHMM>
~h "uh"
<BEGINHMM>
<NUMSTATES> 5
<STATE> 2
<MEAN> 25
 7.576373e+000 -2.930713e+000 -1.811405e+000 -9.424755e+000 -1.731492e+000 3.659957e-001 5.101876e+000 -7.087888e+000 1.564926e+000 -8.618577e+000 1.544333e+001 4.033986e+000 6.576433e-001 6.649045e-001 -8.261423e-001 -1.884760e+000 -8.489801e-001 7.293000e-001 1.574916e+000 -2.075921e+000 1.453922e+000 -2.222321e-001 7.523723e-001 -2.506737e-001 2.248353e+000
<VARIANCE> 25
 1.184097e+001 1.814897e+001 1.230368e+001 1.974604e+001 1.942353e+001 5.986072e+001 4.376971e+001 3.899240e+001 1.699783e+001 5.944683e+001 1.113272e+001 4.756300e+001 1.596971e+000 1.366317e+000 3.065935e+000 2.531292e+000 5.615854e+000 3.002541e+000 4.390296e+000 5.950990e+000 3.305382e+000 6.944493e+000 3.026045e+000 5.032766e-001 2.780143e+000
<GCONST> 9.799484e+001
<STATE> 3
<MEAN> 25
