~o
<STREAMINFO> 1 25
<VECSIZE> 25<NULLD><MFCC_D_N_Z_0><DIAGC>
~h "b"
<BEGINHMM>
<NUMSTATES> 5
<STATE> 2
<MEAN> 25
 5.472534e+000 1.336651e+000 2.102989e+000 1.747336e+000 1.102386e+000 4.887639e+000 -1.355487e+000 -2.063148e+000 -1.802983e+000 -6.966984e-001 -2.626806e+000 1.489432e+000 6.125409e-001 1.363009e+000 5.548604e-001 5.532473e-001 4.255868e-001 1.331862e+000 -3.849781e-001 -3.496023e-001 -2.429871e-001 6.148787e-001 -1.185022e+000 2.075316e-001 -1.572821e+000
<VARIANCE> 25
 8.656923e+001 3.187324e+001 2.933958e+001 2.956233e+001 2.086446e+001 4.030228e+001 2.815983e+001 2.592367e+001 3.363618e+001 4.854575e+001 5.823744e+001 2.765799e+001 1.836517e+000 1.644288e+000 2.271460e+000 3.105784e+000 1.940774e+000 3.261003e+000 2.762038e+000 2.549072e+000 2.678616e+000 3.887109e+000 6.369523e+000 1.915910e+000 6.243574e+000
<GCONST> 1.022771e+002
<STATE> 3
<MEAN> 25
 7.196656e+000 7.086099e+000 2.483114e+000 3.560341e+000 5.200097e-001 7.720335e+000 -2.507361e+000 -3.072849e+000 -4.055195e+000 1.056456e+000 -4.112365e+000 1.759147e+000 2.588654e-001 5.671023e-001 2.108133e-001 -1.965010e-001 -6.782444e-002 -5.236749e-002 1.788442e-002 -3.554778e-001 -4.564165e-001 -4.428631e-003 2.653389e-001 -3.551199e-002 1.081382e-001
<VARIANCE> 25
 4.329189e+001 4.227984e+001 2.402514e+001 2.919630e+001 2.520596e+001 3.174234e+001 2.550760e+001 2.772298e+001 3.651651e+001 3.281484e+001 4.778829e+001 2.075974e+001 3.056614e+000 2.025273e+000 2.079182e+000 2.596968e+000 2.271702e+000 3.081582e+000 2.781823e+000 2.305646e+000 3.247020e+000 3.896927e+000 4.139521e+000 2.262380e+000 3.927002e+000
<GCONST> 1.007033e+002
<STATE> 4
<MEAN> 25
 6.633212e+000 2.386613e+000 2.430516e+000 -2.927679e-001 1.195187e+000 3.062165e+000 -6.033441e-001 -2.192629e+000 -4.194534e+000 -1.140901e+000 1.363572e+000 3.268991e+000 9.854522e-002 -2.541794e+000 -9.859066e-001 -1.908656e+000 -9.255763e-001 -2.456866e+000 6.518655e-001 2.663490e-001 8.598365e-001 -1.717264e+000 3.503000e+000 4.102672e-001 4.692244e+000
<VARIANCE> 25
 3.344588e+001 6.214983e+001 2.873825e+001 3.808717e+001 3.197346e+001 6.065961e+001 2.812747e+001 3.560919e+001 3.753786e+001 2.843478e+001 7.448472e+001 2.409344e+001 4.606062e+000 5.704849e+000 4.116319e+000 4.540192e+000 5.874605e+000 6.520940e+000 4.309101e+000 5.151766e+000 6.225157e+000 5.224403e+000 6.102330e+000 5.908750e+000 8.472431e+000
<GCONST> 1.116758e+002
<TRANSP> 5
 0.000000e+000 1.000000e+000 0.000000e+000 0.000000e+000 0.000000e+000
 0.000000e+000 6.773928e-001 3.226072e-001 0.000000e+000 0.000000e+000
 0.000000e+000 0.000000e+000 6.505319e-001 3.494681e-001 0.000000e+000
 0.000000e+000 0.000000e+000 0.000000e+000 6.751765e-001 3.248235e-001
 0.000000e+000 0.000000e+000 0.000000e+000 0.000000e+000 0.000000e+000
<ENDHMM>
~h "d"
<BEGINHMM>
<NUMSTATES> 5
<STATE> 2
<MEAN> 25
 3.403809e+000 -2.397496e+000 7.389641e+000 4.288462e+000 -4.854870e+000 -6.832534e+000 -4.229258e+000 -7.783931e-001 -1.315188e+000 -5.264741e-001 -1.491299e+000 6.639814e-001 2.196966e-001 8.148733e-001 4.034070e-001 2.488424e-001 -2.444439e-001 5.407022e-001 -6.675657e-001 -5.880434e-001 -5.966329e-001 3.139558e-002 -2.062935e-001 -3.374974e-001 -8.794199e-001
<VARIANCE> 25
 3.774533e+001 3.754070e+001 8.124221e+001 2.649233e+001 5.863559e+001 1.179707e+002 4.306981e+001 5.975899e+001 4.152539e+001 2.830241e+001 6.852061e+001 2.560847e+001 2.245858e+000 1.770049e+000 2.124064e+000 1.952095e+000 3.034497e+000 4.403168e+000 3.687229e+000 3.172775e+000 2.922178e+000 2.677794e+000 3.651757e+000 2.218209e+000 5.272374e+000
<GCONST> 1.057776e+002
<STATE> 3
<MEAN> 25
 5.083282e+000 2.700227e+000 3.751568e+000 3.491671e+000 -1.487512e+000 -7.814334e-002 -6.239334e+000 -2.182399e+000 -3.188830e+000 1.205593e+000 -3.242856e+000 -5.292593e-001 7.619239e-001 9.485011e-001 1.641286e-001 2.638446e-001 1.679977e-002 6.765187e-001 -5.637599e-001 -4.533638e-001 -3.973550e-001 5.379192e-001 1.073089e-001 -5.857804e-001 -3.623472e-001
<VARIANCE> 25
 4.590280e+001 4.921827e+001 4.056724e+001 3.181146e+001 5.050764e+001 7.876844e+001 3.794761e+001 4.450634e+001 3.773169e+001 2.912491e+001 5.066287e+001 2.612352e+001 3.134809e+000 2.057858e+000 2.465087e+000 2.241177e+000 3.485126e+000 4.734641e+000 3.001993e+000 2.782086e+000 3.256502e+000 2.916896e+000 3.508500e+000 2.967880e+000 4.712642e+000
<GCONST> 1.053869e+002
<STATE> 4
<MEAN> 25
 5.544708e+000 2.867841e+000 5.541611e+000 2.942147e+000 -1.918129e+000 1.399852e+000 -6.536635e+000 -2.439692e+000 -1.802955e+000 3.006163e+000 -3.327753e+000 -2.111076e+000 1.025820e-001 -7.885867e-001 -4.248051e-002 -2.555375e-001 3.959786e-002 -6.035917e-001 1.341127e-001 4.968239e-001 5.109642e-001 1.299960e-001 4.959546e-001 -3.979442e-001 1.289955e+000
<VARIANCE> 25
 4.226804e+001 5.956425e+001 3.901994e+001 4.241949e+001 3.340762e+001 7.443701e+001 3.743705e+001 4.322302e+001 3.351846e+001 3.457285e+001 5.459585e+001 2.831202e+001 4.027387e+000 4.825190e+000 3.273166e+000 2.878222e+000 4.273597e+000 9.276140e+000 4.088031e+000 4.657961e+000 4.095806e+000 4.451286e+000 4.775125e+000 4.066525e+000 6.857527e+000
<GCONST> 1.104270e+002
<TRANSP> 5
 0.000000e+000 1.000000e+000 0.000000e+000 0.000000e+000 0.000000e+000
 0.000000e+000 6.127455e-001 3.872546e-001 0.000000e+000 0.000000e+000
 0.000000e+000 0.000000e+000 3.962159e-001 6.037841e-001 0.000000e+000
 0.000000e+000 0.000000e+000 0.000000e+000 6.741728e-001 3.258272e-001
 0.000000e+000 0.000000e+000 0.000000e+000 0.000000e+000 0.000000e+000
<ENDHMM>
~h "f"
<BEGINHMM>
<NUMSTATES> 5
<STATE> 2
<MEAN> 25
 -3.078251e+000 -2.335625e+000 -4.842489e-003 2.977051e+000 4.143994e+000 -6.489431e-001 -2.943780e-001 4.255109e+000 1.606457e+000 1.944515e+000 -1.301507e+000 1.597762e+000 -2.955367e+000 -5.084390e-001 5.164539e-001 1.881602e-001 1.763599e+000 2.164507e-001 -1.671032e-001 1.313560e+000 6.182084e-001 5.594348e-001 1.021356e+000 4.029105e-001 -5.714227e-002
<VARIANCE> 25
 8.933583e+001 1.848291e+001 1.860914e+001 3.580518e+001 3.067346e+001 3.366845e+001 3.814406e+001 3.659270e+001 2.635800e+001 3.498227e+001 3.168164e+001 1.545385e+001 4.035052e+000 2.446237e+000 2.138741e+000 4.473855e+000 3.077132e+000 4.785691e+000 3.658124e+000 3.785372e+000 3.742718e+000 5.127444e+000 3.169232e+000 1.375079e+000 2.669052e+000
<GCONST> 1.023332e+002
<STATE> 3
<MEAN> 25
 -1.140308e+001 -4.218341e+000 1.538124e+000 2.929706e+000 7.661333e+000 -7.805271e-001 6.858137e-001 6.057082e+000 2.706436e+000 1.352350e+000 8.345695e-001 2.288449e+000 -1.481727e+000 -7.803926e-001 -6.168202e-002 -1.925963e-001 5.167968e-001 7.167267e-002 2.281689e-001 1.336564e-001 7.433321e-002 -2.151232e-001 3.665907e-001 8.230065e-003 3.137368e-002
<VARIANCE> 25
 3.602787e+001 1.757969e+001 1.673267e+001 2.959262e+001 1.816023e+001 2.550633e+001 2.758783e+001 2.348973e+001 3.675367e+001 3.644995e+001 2.727233e+001 1.862405e+001 3.731766e+000 1.924388e+000 1.170501e+000 2.665252e+000 1.731640e+000 2.332144e+000 2.535434e+000 3.394510e+000 2.601515e+000 3.829407e+000 2.662295e+000 1.527703e+000 2.460873e+000
<GCONST> 9.590533e+001
<STATE> 4
<MEAN> 25
 -8.470331e+000 -6.701783e+000 -1.649545e+000 -2.683007e+000 5.133137e+000 1.786335e+000 3.770216e+000 4.646137e+000 4.103286e-001 6.108528e-001 2.957763e+000 2.028127e+000 2.700668e+000 6.533585e-001 -6.450109e-001 -1.595531e+000 -1.374635e+000 6.022763e-001 1.102637e+000 -7.124676e-001 -5.320297e-001 -5.650703e-001 3.346937e-001 -1.603282e-001 8.122060e-001
<VARIANCE> 25
 5.884172e+001 2.656033e+001 2.063112e+001 2.877680e+001 4.261713e+001 2.588942e+001 3.566964e+001 2.594554e+001 4.584069e+001 3.238186e+001 3.726747e+001 1.690987e+001 8.397297e+000 3.772671e+000 2.490723e+000 2.166866e+000 3.877777e+000 2.299525e+000 4.688789e+000 3.378875e+000 3.337231e+000 4.745681e+000 4.236595e+000 2.097245e+000 4.824770e+000
<GCONST> 1.038855e+002
<TRANSP> 5
 0.000000e+000 1.000000e+000 0.000000e+000 0.000000e+000 0.000000e+000
 0.000000e+000 5.908677e-001 4.091322e-001 0.000000e+000 0.000000e+000
 0.000000e+000 0.000000e+000 6.607844e-001 3.392156e-001 0.000000e+000
 0.000000e+000 0.000000e+000 0.000000e+000 8.054173e-001 1.945827e-001
 0.000000e+000 0.000000e+000 0.000000e+000 0.000000e+000 0.000000e+000
<ENDHMM>
~h "g"
<BEGINHMM>
<NUMSTATES> 5
<STATE> 2
<MEAN> 25
 1.852923e+000 -5.207427e+000 -2.508388e+000 2.855374e-001 4.538382e+000 -2.620175e+000 -9.243583e-002 3.394050e+000 2.144866e+000 5.416018e-001 -2.765649e+000 -4.116501e+000 -1.343940e-001 3.310385e-001 -2.395811e-001 -3.041241e-001 2.767451e-001 1.074603e+000 1.316883e-001 3.253174e-001 2.680994e-001 4.542407e-002 -2.005628e-001 -4.797415e-001 -4.747675e-001
<VARIANCE> 25
 6.258231e+001 2.515640e+001 1.764517e+001 2.196508e+001 2.214045e+001 9.874373e+001 3.998986e+001 2.363277e+001 3.265556e+001 8.450650e+001 7.745975e+001 2.477318e+001 8.357561e-001 4.160246e+000 1.175622e+000 1.996799e+000 3.115343e+000 4.325437e+000 4.001465e+000 4.696033e+000 3.849349e+000 4.363140e+000 6.451964e+000 3.759530e+000 3.120236e+000
<GCONST> 1.040734e+002
<STATE> 3
<MEAN> 25
 3.856365e-001 1.052071e+000 -2.691298e+000 2.518973e+000 7.014254e+000 3.985125e+000 -1.312697e+000 3.299805e+000 4.061401e+000 2.820375e+000 -4.758017e+000 -1.505120e+000 -3.274691e-001 1.325613e+000 2.463635e-001 5.199823e-001 2.286219e-001 9.178642e-001 -9.608014e-001 1.703661e-001 2.984284e-001 5.743637e-001 -2.319168e-001 9.775554e-001 -1.412251e+000
<VARIANCE> 25
 7.082574e+001 4.151362e+001 2.922872e+001 2.882545e+001 4.763951e+001 7.061845e+001 3.893862e+001 2.996435e+001 4.977704e+001 6.390159e+001 6.164754e+001 1.662047e+001 3.815047e+000 2.087651e+000 2.195451e+000 3.258159e+000 3.862240e+000 3.209559e+000 2.919257e+000 3.226130e+000 4.677521e+000 2.999512e+000 5.803733e+000 3.929327e+000 2.821288e+000
<GCONST> 1.064574e+002
<STATE> 4
<MEAN> 25
 2.682772e+000 4.314850e+000 4.174783e+000 1.862501e+000 1.452692e+000 3.446944e+000 -1.474468e+000 -6.211497e-001 -2.190276e+000 2.992017e+000 -4.399311e+000 -1.042056e+000 -1.929920e-001 -5.268649e-001 7.045197e-001 -5.072993e-001 -7.969746e-001 -1.089159e+000 6.180715e-001 -5.840598e-001 -1.019046e+000 -6.605062e-001 1.245529e+000 -2.291433e-001 2.095834e+000
<VARIANCE> 25
 7.172211e+001 4.394676e+001 5.731808e+001 3.701040e+001 4.662603e+001 5.541998e+001 6.181052e+001 3.573802e+001 4.041415e+001 2.792767e+001 7.350946e+001 2.645755e+001 9.473793e+000 6.584379e+000 2.966103e+000 3.861684e+000 3.361701e+000 8.168377e+000 9.086693e+000 4.294969e+000 3.592742e+000 4.271634e+000 6.336027e+000 3.102027e+000 6.168766e+000
<GCONST> 1.128989e+002
<TRANSP> 5
 0.000000e+000 1.000000e+000 0.000000e+000 0.000000e+000 0.000000e+000
 0.000000e+000 6.723722e-001 3.276279e-001 0.000000e+000 0.000000e+000
 0.000000e+000 0.000000e+000 6.752622e-001 3.247378e-001 0.000000e+000
 0.000000e+000 0.000000e+000 0.000000e+000 8.402230e-001 1.597770e-001
 0.000000e+000 0.000000e+000 0.000000e+000 0.000000e+000 0.000000e+000
<ENDHMM>
~h "k"
<BEGINHMM>
<NUMSTATES> 5
<STATE> 2
<MEAN> 25
 1.915683e+000 -1.660358e+000 -2.670807e+000 2.547406e-001 4.500650e+000 -3.857681e+000 -9.378703e-002 1.549235e+000 -3.419734e-001 1.406432e+000 -2.390580e+000 -7.687669e-001 -5.840789e-001 -6.806599e-002 2.276715e-001 -2.306730e-001 6.127920e-001 1.158130e+000 -9.776368e-001 6.465179e-001 2.678013e-001 8.979940e-001 -2.075120e-001 -2.860636e-001 -1.016334e+000
<VARIANCE> 25
 4.658883e+001 3.291535e+001 3.977080e+001 3.216125e+001 5.526372e+001 1.323106e+002 8.816962e+001 3.400316e+001 3.036720e+001 2.704332e+001 6.360599e+001 2.528921e+001 2.091027e+000 3.538707e+000 3.463374e+000 3.291488e+000 4.519199e+000 8.085756e+000 4.636812e+000 4.354717e+000 4.080650e+000 4.663000e+000 7.352304e+000 3.923208e+000 9.958805e+000
<GCONST> 1.110780e+002
<STATE> 3
<MEAN> 25
 -1.362948e+000 -2.372622e+000 -1.496768e+000 -1.814883e+000 3.015585e+000 1.790597e+000 -4.573233e+000 3.473654e+000 2.338891e-001 4.060270e+000 1.277983e+000 -2.113088e+000 -1.093389e+000 -1.551467e+000 -3.674983e-001 -1.463100e+000 5.027981e-001 -3.027598e-001 -1.531476e-001 1.232484e+000 -4.772877e-001 2.948177e-001 2.387501e+000 -8.087673e-001 2.408617e+000
<VARIANCE> 25
 3.840723e+001 3.629623e+001 3.326957e+001 4.857590e+001 4.200012e+001 6.490801e+001 3.554791e+001 4.026873e+001 3.973862e+001 2.600300e+001 7.915338e+001 3.393150e+001 3.142250e+000 5.787205e+000 5.651948e+000 6.563309e+000 6.056539e+000 8.397676e+000 4.787341e+000 5.815354e+000 4.246790e+000 3.227885e+000 1.127748e+001 4.915872e+000 2.201028e+001
<GCONST> 1.140825e+002
<STATE> 4
<MEAN> 25
 -3.419130e+000 -6.169551e+000 -1.443903e+000 -4.075766e+000 3.669822e+000 -1.437275e+000 -2.810996e+000 6.616998e+000 -1.033822e+000 2.498669e+000 8.846398e+000 -3.633638e+000 5.666646e-001 -1.255496e-002 3.394574e-001 -5.520489e-002 2.541237e-001 -1.080803e+000 1.068814e+000 9.285079e-002 -1.340747e-001 -1.075910e+000 8.014943e-001 4.551388e-001 1.646814e+000
<VARIANCE> 25
 3.678362e+001 2.763561e+001 4.099080e+001 5.032210e+001 4.383227e+001 6.177715e+001 4.880714e+001 3.736932e+001 4.644218e+001 4.168713e+001 8.120164e+001 2.956425e+001 8.032032e+000 3.608975e+000 3.688862e+000 5.988183e+000 3.894245e+000 7.230513e+000 3.717201e+000 4.221221e+000 4.738171e+000 4.443971e+000 9.469309e+000 3.491947e+000 1.074680e+001
<GCONST> 1.127406e+002
<TRANSP> 5
 0.000000e+000 1.000000e+000 0.000000e+000 0.000000e+000 0.000000e+000
 0.000000e+000 4.922541e-001 5.077459e-001 0.000000e+000 0.000000e+000
 0.000000e+000 0.000000e+000 4.428109e-001 5.571890e-001 0.000000e+000
 0.000000e+000 0.000000e+000 0.000000e+000 6.794760e-001 3.205241e-001
 0.000000e+000 0.000000e+000 0.000000e+000 0.000000e+000 0.000000e+000
<ENDHMM>
~h "l"
<BEGINHMM>
<NUMSTATES> 5
<STATE> 2
<MEAN> 25
 7.107366e+000 -6.521322e+000 -2.521528e+000 -8.296154e+000 1.030726e+000 -7.197204e+000 3.877001e+000 -3.834759e+000 -3.017745e+000 2.107524e+000 7.349919e+000 -3.341736e+000 2.975460e-001 1.116017e-001 -1.191335e-001 -7.358499e-001 6.434262e-001 -2.252217e-002 5.957745e-002 -3.231978e-001 -6.224960e-001 3.802330e-001 1.061804e-001 -8.930027e-002 3.161692e-001
<VARIANCE> 25
 1.829497e+001 2.795320e+001 2.432053e+001 4.249614e+001 4.107170e+001 3.389396e+001 6.570584e+001 5.969252e+001 5.586247e+001 2.845862e+001 3.403866e+001 3.914157e+001 1.269814e+000 1.083995e+000 1.595728e+000 2.121874e+000 2.639801e+000 2.719621e+000 3.673162e+000 4.978815e+000 2.905720e+000 2.128132e+000 2.527177e+000 2.145274e+000 1.962223e+000
<GCONST> 9.980676e+001
<STATE> 3
<MEAN> 25
 7.468252e+000 -5.477731e+000 -3.854655e+000 -1.103478e+001 3.493958e+000 -7.119754e+000 6.345354e+000 -4.591074e+000 -5.192368e+000 2.880599e+000 7.212695e+000 -2.775256e+000 2.481110e-002 2.325371e-001 -9.353738e-003 2.402738e-002 4.267915e-001 -1.584758e-001 1.024469e-001 4.577219e-002 -1.701211e-001 -5.386420e-002 -1.152744e-001 2.047148e-002 -2.570241e-001
<VARIANCE> 25
 1.095322e+001 2.244873e+001 2.929016e+001 3.193141e+001 3.189205e+001 3.670565e+001 7.453638e+001 5.213960e+001 5.110449e+001 2.515487e+001 2.397429e+001 4.330017e+001 5.830429e-001 8.167710e-001 1.164095e+000 1.522552e+000 1.628570e+000 2.804157e+000 3.323131e+000 3.693132e+000 3.730604e+000 1.960478e+000 1.810940e+000 2.037037e+000 1.135502e+000
<GCONST> 9.500600e+001
<STATE> 4
<MEAN> 25
 7.484736e+000 -1.783915e+000 -3.126516e+000 -7.519949e+000 5.181499e+000 -3.526021e+000 5.791926e+000 -4.296278e+000 -5.354522e+000 3.273946e+000 2.509346e+000 -1.947743e-001 -2.150308e-001 3.977035e-001 3.460500e-001 1.054262e+000 -2.603475e-001 7.811821e-001 -9.252040e-001 1.645869e-001 4.550747e-001 -2.656071e-001 -7.499985e-001 2.921749e-001 -1.456282e+000
<VARIANCE> 25
 1.294882e+001 2.828086e+001 2.638167e+001 5.866475e+001 3.177685e+001 1.019655e+002 6.008297e+001 5.490297e+001 4.889851e+001 3.857402e+001 4.464846e+001 4.099451e+001 1.021641e+000 9.851946e-001 1.227438e+000 2.299057e+000 2.255050e+000 3.854385e+000 3.846543e+000 3.310885e+000 3.034981e+000 2.382282e+000 2.657523e+000 2.366103e+000 2.335923e+000
<GCONST> 1.008499e+002
<TRANSP> 5
 0.000000e+000 1.000000e+000 0.000000e+000 0.000000e+000 0.000000e+000
 0.000000e+000 6.099436e-001 3.900564e-001 0.000000e+000 0.000000e+000
 0.000000e+000 0.000000e+000 7.341259e-001 2.658742e-001 0.000000e+000
 0.000000e+000 0.000000e+000 0.000000e+000 8.009510e-001 1.990490e-001
 0.000000e+000 0.000000e+000 0.000000e+000 0.000000e+000 0.000000e+000
<ENDHMM>
~h "m"
<BEGINHMM>
<NUMSTATES> 5
<STATE> 2
<MEAN> 25
 1.019130e+001 -3.996002e+000 1.549663e-001 6.506420e+000 2.958850e-001 -5.203362e+000 1.292887e+000 1.085038e+000 -5.531717e+000 -8.140827e+000 -4.754672e+000 2.686112e+000 4.653985e-001 -1.253623e-001 1.798442e-001 1.454978e+000 1.153268e-001 7.321623e-003 -2.030758e-001 -2.457133e-003 -6.478884e-001 -4.068261e-001 -1.244890e+000 6.817982e-001 -1.013995e+000
<VARIANCE> 25
 4.700039e+001 2.420847e+001 1.611128e+001 2.664363e+001 2.203403e+001 6.214899e+001 3.162869e+001 3.357947e+001 4.122268e+001 5.314785e+001 2.931338e+001 1.758902e+001 1.086720e+000 9.945652e-001 1.262066e+000 3.680401e+000 1.365084e+000 2.738206e+000 1.754099e+000 2.209696e+000 2.678025e+000 2.447406e+000 3.109709e+000 1.526285e+000 1.307264e+000
<GCONST> 9.516557e+001
<STATE> 3
<MEAN> 25
 9.966768e+000 -3.175958e+000 6.484362e-002 8.711640e+000 1.911009e-001 -3.281910e+000 -9.753051e-003 2.218467e-001 -6.699807e+000 -7.103086e+000 -6.182301e+000 5.266431e+000 3.777093e-001 -1.366234e-002 -2.150093e-001 -2.719036e-002 -2.174184e-001 -8.362491e-002 -2.302848e-001 -3.039960e-001 2.450617e-001 7.345096e-001 4.145868e-001 8.363359e-001 -1.423307e-002
<VARIANCE> 25
 6.605074e+001 3.258617e+001 1.388418e+001 2.434706e+001 1.902963e+001 7.441924e+001 3.066263e+001 3.217945e+001 4.987169e+001 5.535625e+001 2.691941e+001 2.014795e+001 3.288039e+000 2.079446e+000 1.344004e+000 3.719536e+000 1.680516e+000 5.450989e+000 1.853187e+000 2.805079e+000 3.058948e+000 4.292837e+000 2.556929e+000 1.498435e+000 4.274975e+000
<GCONST> 1.005796e+002
<STATE> 4
<MEAN> 25
 1.258636e+001 -5.723944e+000 -1.599987e+000 6.603873e+000 2.829483e-001 -7.347674e+000 -1.059158e+000 8.830575e-001 -4.819612e+000 -5.039508e+000 -1.377395e+000 7.396881e+000 -3.032303e-001 -4.614573e-001 -1.266903e-001 -2.131485e+000 2.034329e-001 -1.069595e+000 2.088974e-001 3.051425e-001 9.767094e-001 1.229606e+000 1.646252e+000 -6.461215e-001 2.012878e+000
<VARIANCE> 25
 3.373341e+001 3.141882e+001 2.410398e+001 4.790325e+001 1.709528e+001 5.211956e+001 3.765583e+001 4.963029e+001 3.413035e+001 4.663986e+001 3.364329e+001 2.004104e+001 6.596839e+000 2.123502e+000 2.062381e+000 5.019465e+000 2.383303e+000 6.195333e+000 2.796354e+000 5.177286e+000 4.811283e+000 4.836950e+000 4.489645e+000 3.521898e+000 6.184711e+000
<GCONST> 1.062479e+002
<TRANSP> 5
 0.000000e+000 1.000000e+000 0.000000e+000 0.000000e+000 0.000000e+000
 0.000000e+000 7.466995e-001 2.533005e-001 0.000000e+000 0.000000e+000
 0.000000e+000 0.000000e+000 4.686796e-001 5.313205e-001 0.000000e+000
 0.000000e+000 0.000000e+000 0.000000e+000 6.953302e-001 3.046698e-001
 0.000000e+000 0.000000e+000 0.000000e+000 0.000000e+000 0.000000e+000
<ENDHMM>
~h "n"
<BEGINHMM>
<NUMSTATES> 5
<STATE> 2
<MEAN> 25
 1.119590e+001 -6.856659e+000 2.227647e-001 4.156302e+000 -1.762737e+000 -1.019482e+001 1.699174e+000 7.164393e-001 -2.596821e+000 -9.678727e-001 -2.256712e+000 1.043471e+000 4.612912e-001 1.466933e-001 2.376362e-001 8.826283e-001 -4.910408e-001 1.120652e-001 -1.570542e-001 4.733272e-001 -5.159298e-001 -2.016910e-001 -4.946006e-001 5.203787e-002 -5.123827e-001
<VARIANCE> 25
 3.025438e+001 1.887537e+001 1.750945e+001 5.219647e+001 2.619981e+001 4.699498e+001 3.114861e+001 2.755042e+001 3.929158e+001 2.297208e+001 4.872052e+001 2.203684e+001 1.090329e+000 1.292590e+000 1.964742e+000 4.323560e+000 2.342739e+000 3.620371e+000 4.149424e+000 2.851288e+000 2.727508e+000 2.830020e+000 5.100075e+000 2.426132e+000 3.021343e+000
<GCONST> 9.952300e+001
<STATE> 3
<MEAN> 25
 1.203487e+001 -6.212448e+000 9.203415e-001 5.464388e+000 -2.652400e+000 -9.043634e+000 1.072112e+000 1.883055e+000 -4.706899e+000 -1.242148e+000 -2.740574e+000 8.397483e-001 -5.182035e-002 2.935106e-001 3.791618e-002 -1.594342e-001 -2.567116e-002 4.294043e-001 4.730744e-002 2.207163e-001 -1.583250e-001 -1.392159e-001 2.228419e-001 -3.902903e-001 -2.170199e-001
<VARIANCE> 25
 2.795003e+001 2.216903e+001 2.013172e+001 4.752187e+001 3.401995e+001 4.898996e+001 3.352923e+001 2.894982e+001 3.513043e+001 2.512549e+001 5.091612e+001 2.637194e+001 2.005451e+000 1.769508e+000 2.437037e+000 5.859012e+000 3.046933e+000 3.276023e+000 3.686915e+000 2.783541e+000 2.947509e+000 3.200642e+000 6.141182e+000 2.844515e+000 3.968101e+000
<GCONST> 1.025591e+002
<STATE> 4
<MEAN> 25
 9.445321e+000 -4.255537e+000 2.059010e+000 4.672514e+000 -1.247494e+000 -6.367055e+000 1.506868e-001 1.994329e+000 -3.997255e+000 -1.371772e+000 -2.555347e+000 4.946558e-001 -9.813806e-001 6.779667e-001 1.530473e-001 -6.687696e-001 3.066250e-001 8.392932e-001 8.283609e-003 -4.583611e-002 5.651447e-001 2.518088e-001 3.610255e-001 -2.228361e-001 -3.529128e-001
<VARIANCE> 25
 4.549923e+001 3.276402e+001 3.141678e+001 6.139760e+001 3.485076e+001 5.333160e+001 4.329965e+001 3.269894e+001 3.967131e+001 3.236122e+001 5.722976e+001 3.390110e+001 2.759040e+000 2.339189e+000 2.440893e+000 4.284329e+000 3.357848e+000 3.707385e+000 3.470963e+000 2.833336e+000 2.622829e+000 2.967969e+000 3.988110e+000 2.685313e+000 3.373092e+000
<GCONST> 1.049885e+002
<TRANSP> 5
 0.000000e+000 1.000000e+000 0.000000e+000 0.000000e+000 0.000000e+000
 0.000000e+000 6.377310e-001 3.622690e-001 0.000000e+000 0.000000e+000
 0.000000e+000 0.000000e+000 5.026736e-001 4.973264e-001 0.000000e+000
 0.000000e+000 0.000000e+000 0.000000e+000 6.887199e-001 3.112801e-001
 0.000000e+000 0.000000e+000 0.000000e+000 0.000000e+000 0.000000e+000
<ENDHMM>
~h "p"
<BEGINHMM>
<NUMSTATES> 5
<STATE> 2
<MEAN> 25
 1.197642e+000 2.354241e+000 -3.027206e+000 -8.497152e-001 8.870990e-001 1.002212e+001 -2.913906e+000 -1.556141e+000 -5.714445e-002 3.818143e+000 -5.506478e+000 2.232031e+000 -6.603526e-001 -9.728019e-001 3.763911e-001 -1.602423e-001 -6.785113e-001 -1.102672e+000 1.458805e-001 6.389999e-001 1.078093e-001 -2.177608e-001 1.380968e+000 -2.987742e-001 1.092440e+000
<VARIANCE> 25
 3.503537e+001 1.946791e+001 1.785108e+001 2.092475e+001 2.478557e+001 5.241510e+001 2.413624e+001 2.790044e+001 2.569845e+001 5.697011e+001 3.339836e+001 2.294570e+001 3.065214e+000 3.796586e+000 2.594261e+000 3.643324e+000 3.514888e+000 6.276256e+000 3.480920e+000 4.281508e+000 2.916462e+000 4.180524e+000 8.748445e+000 2.722962e+000 1.251367e+001
<GCONST> 1.047015e+002
<STATE> 3
<MEAN> 25
 5.780880e-001 -5.144276e+000 -1.068957e+000 -4.804355e+000 -7.738199e-001 3.819704e-001 -7.875684e-001 3.238745e+000 -1.114448e+000 -1.246500e-001 7.169852e+000 4.972034e-001 6.131376e-001 -1.741593e+000 5.757440e-001 -4.113052e-001 -1.993425e-001 -2.312486e+000 1.343965e+000 -2.160415e-001 -8.903402e-001 -1.125268e+000 3.062929e+000 -3.811738e-001 4.675626e+000
<VARIANCE> 25
 3.910912e+001 3.021520e+001 2.906749e+001 4.879846e+001 5.239373e+001 5.665187e+001 5.333146e+001 6.443028e+001 3.434750e+001 4.917799e+001 7.017052e+001 3.410676e+001 7.551321e+000 4.171163e+000 5.053652e+000 5.087585e+000 4.890032e+000 7.702878e+000 6.980637e+000 6.175452e+000 4.021008e+000 4.176939e+000 7.027861e+000 2.313748e+000 9.588923e+000
<GCONST> 1.135890e+002
<STATE> 4
<MEAN> 25
 4.692907e+000 -6.984169e+000 -1.716876e+000 -4.094707e+000 6.453164e-001 -4.365841e+000 4.554376e+000 -1.246069e+000 -3.043852e+000 -1.368385e+000 8.474813e+000 -4.004529e-001 1.301716e+000 -2.658162e-001 4.600754e-002 5.262375e-002 1.727011e-002 -1.324836e+000 4.969667e-001 -7.917464e-001 -7.431670e-001 -4.819024e-001 4.832150e-001 -6.120161e-001 2.368027e+000
<VARIANCE> 25
 4.494186e+001 1.899250e+001 5.147194e+001 4.522180e+001 5.922428e+001 5.920459e+001 8.998040e+001 6.523111e+001 3.517397e+001 4.253072e+001 4.314309e+001 2.666703e+001 7.328652e+000 4.289171e+000 5.732568e+000 4.608370e+000 4.795726e+000 5.250697e+000 6.903133e+000 4.116666e+000 4.044704e+000 3.801908e+000 3.429233e+000 2.213382e+000 5.520066e+000
<GCONST> 1.114105e+002
<TRANSP> 5
 0.000000e+000 1.000000e+000 0.000000e+000 0.000000e+000 0.000000e+000
 0.000000e+000 7.094005e-001 2.905996e-001 0.000000e+000 0.000000e+000
 0.000000e+000 0.000000e+000 5.253984e-001 4.746016e-001 0.000000e+000
 0.000000e+000 0.000000e+000 0.000000e+000 4.610635e-001 5.389365e-001
 0.000000e+000 0.000000e+000 0.000000e+000 0.000000e+000 0.000000e+000
<ENDHMM>
~h "r"
<BEGINHMM>
<NUMSTATES> 5
<STATE> 2
<MEAN> 25
 6.409049e+000 -3.874120e+000 -5.444082e+000 -3.772753e+000 5.314453e+000 -9.130859e+000 1.020028e+000 7.746629e-001 1.290356e-001 -4.653118e+000 7.423626e+000 2.353984e-001 2.438454e-001 -7.375327e-002 -3.670993e-001 4.061383e-001 2.842658e-001 -5.094962e-001 -2.356217e-002 -1.450215e-001 1.319170e-001 -2.008715e-001 -3.674057e-001 2.006822e-002 1.399161e-001
<VARIANCE> 25
 1.807002e+001 2.768122e+001 2.375244e+001 3.137139e+001 4.263201e+001 8.149473e+001 7.471538e+001 2.624321e+001 2.237291e+001 4.293902e+001 3.951115e+001 2.964606e+001 2.205190e+000 1.944967e+000 2.178314e+000 2.109783e+000 2.827889e+000 6.663785e+000 5.278590e+000 2.533755e+000 1.866785e+000 3.380732e+000 2.810684e+000 1.840191e+000 2.609173e+000
<GCONST> 1.013987e+002
<STATE> 3
<MEAN> 25
 6.569499e+000 -4.096700e+000 -4.967166e+000 -1.518943e+000 3.961751e+000 -1.079771e+001 2.019679e+000 9.006120e-001 7.880827e-001 -5.126695e+000 5.148057e+000 6.924676e-001 1.353482e-001 -5.075350e-002 4.698311e-001 8.765988e-001 -2.781115e-001 -3.654287e-001 -2.927650e-001 3.348443e-001 1.433787e-001 -3.063241e-001 -6.156218e-001 4.325733e-001 -4.685610e-001
<VARIANCE> 25
 1.735744e+001 2.778173e+001 2.531790e+001 3.765877e+001 3.853075e+001 1.217518e+002 7.015592e+001 2.639755e+001 4.060775e+001 4.508968e+001 4.525445e+001 2.349689e+001 1.345205e+000 1.327899e+000 1.787738e+000 2.180084e+000 2.464079e+000 4.326041e+000 3.958228e+000 1.998416e+000 2.346203e+000 3.375721e+000 3.047552e+000 1.724349e+000 2.256584e+000
<GCONST> 1.003621e+002
<STATE> 4
<MEAN> 25
 6.976441e+000 -3.756447e+000 -2.776464e+000 1.412471e+000 3.156773e+000 -9.263396e+000 2.269048e+000 1.583158e+000 1.027478e+000 -3.399653e+000 2.242165e+000 3.437893e+000 -1.816508e-001 7.919629e-002 9.061835e-001 1.028078e+000 -1.474844e-001 8.534829e-001 -5.767007e-001 1.315454e-001 -1.975550e-001 5.573167e-001 -9.173758e-001 2.574965e-001 -1.471372e+000
<VARIANCE> 25
 1.971226e+001 3.141747e+001 2.964654e+001 5.215693e+001 3.245225e+001 1.677084e+002 5.756346e+001 2.810005e+001 3.499463e+001 6.046148e+001 5.122702e+001 3.981167e+001 1.621935e+000 1.253935e+000 1.858841e+000 3.124058e+000 3.398028e+000 6.808957e+000 3.588099e+000 2.890052e+000 3.327034e+000 4.520100e+000 3.869896e+000 2.827309e+000 3.429991e+000
<GCONST> 1.052725e+002
<TRANSP> 5
 0.000000e+000 1.000000e+000 0.000000e+000 0.000000e+000 0.000000e+000
 0.000000e+000 6.202010e-001 3.797990e-001 0.000000e+000 0.000000e+000
 0.000000e+000 0.000000e+000 5.035543e-001 4.964457e-001 0.000000e+000
 0.000000e+000 0.000000e+000 0.000000e+000 6.305467e-001 3.694533e-001
 0.000000e+000 0.000000e+000 0.000000e+000 0.000000e+000 0.000000e+000
<ENDHMM>
~h "s"
<BEGINHMM>
<NUMSTATES> 5
<STATE> 2
<MEAN> 25
 -8.940162e+000 3.654305e+000 2.589041e+000 -2.019020e+000 9.141462e+000 -4.449419e+000 -9.646032e-002 5.313767e+000 2.666597e-001 -1.008074e+000 1.907839e+000 5.504583e-001 -3.724689e+000 1.257141e+000 4.688667e-001 -3.037175e-001 1.116916e+000 1.005209e+000 -1.362167e-001 1.563593e+000 1.153458e+000 -1.583825e-001 6.361279e-001 1.194043e+000 3.785654e-001
<VARIANCE> 25
 9.245427e+001 2.589894e+001 2.824991e+001 3.211894e+001 3.264500e+001 4.113656e+001 3.885988e+001 5.377378e+001 2.990868e+001 3.203385e+001 2.797354e+001 2.859881e+001 4.046470e+000 2.269798e+000 1.923062e+000 3.291314e+000 2.798070e+000 3.908677e+000 5.421972e+000 5.241833e+000 3.219085e+000 4.078043e+000 2.594779e+000 3.058157e+000 1.839105e+000
<GCONST> 1.039926e+002
<STATE> 3
<MEAN> 25
 -1.984354e+001 5.323925e+000 4.449887e+000 -2.582427e+000 1.053056e+001 -1.174382e+000 3.035513e+000 9.785753e+000 4.259003e+000 -2.106617e-002 3.476663e+000 4.529131e+000 -1.124552e-001 -5.344429e-001 1.871402e-001 -5.379223e-003 -2.172021e-001 3.040848e-001 2.085425e-001 -3.178382e-002 2.287240e-001 1.578046e-001 -2.570081e-001 4.427530e-002 -5.000498e-001
<VARIANCE> 25
 1.873388e+001 2.168122e+001 1.866869e+001 1.810464e+001 2.662848e+001 3.926431e+001 4.190178e+001 3.881251e+001 3.794026e+001 2.714839e+001 2.487143e+001 1.955758e+001 3.206587e+000 2.136465e+000 1.375604e+000 1.526222e+000 2.205906e+000 2.279699e+000 2.993171e+000 3.041539e+000 2.530314e+000 2.637495e+000 2.202422e+000 2.294119e+000 2.233222e+000
<GCONST> 9.605896e+001
<STATE> 4
<MEAN> 25
 -1.146294e+001 1.277394e+000 2.757792e+000 -2.607552e+000 7.250947e+000 -1.407359e+000 4.542527e-001 4.846819e+000 2.510213e+000 1.307467e+000 -6.058833e-002 1.704865e+000 3.327948e+000 -7.067340e-001 -7.992628e-001 2.051162e-001 -1.468831e+000 -5.148216e-001 -6.044945e-001 -1.804035e+000 -1.047911e+000 1.969991e-001 -7.873604e-001 -1.189548e+000 -1.128381e+000
<VARIANCE> 25
 5.754861e+001 2.681030e+001 2.623685e+001 2.650384e+001 3.147380e+001 6.134866e+001 4.679847e+001 5.962703e+001 3.595642e+001 2.636657e+001 3.033541e+001 2.555175e+001 6.957676e+000 2.809294e+000 2.342024e+000 2.771121e+000 4.184386e+000 5.216091e+000 4.384746e+000 3.839765e+000 3.514060e+000 3.130558e+000 3.609175e+000 2.804207e+000 8.227737e+000
<GCONST> 1.064097e+002
<TRANSP> 5
 0.000000e+000 1.000000e+000 0.000000e+000 0.000000e+000 0.000000e+000
 0.000000e+000 7.604983e-001 2.395017e-001 0.000000e+000 0.000000e+000
 0.000000e+000 0.000000e+000 8.098570e-001 1.901430e-001 0.000000e+000
 0.000000e+000 0.000000e+000 0.000000e+000 7.023851e-001 2.976149e-001
 0.000000e+000 0.000000e+000 0.000000e+000 0.000000e+000 0.000000e+000
<ENDHMM>
~h "t"
<BEGINHMM>
<NUMSTATES> 5
<STATE> 2
<MEAN> 25
 4.261624e-001 -3.379512e-001 1.719958e+000 -9.858158e-001 1.774645e+000 -1.919227e-001 -3.568352e+000 -1.138853e+000 -1.094928e+000 2.878677e+000 -2.192883e+000 9.780350e-001 -8.316850e-001 -7.853511e-001 -3.661289e-001 -1.100191e+000 3.029333e-002 -6.427149e-001 4.752915e-001 5.690366e-001 7.368917e-001 1.443582e-001 5.850760e-001 -2.556475e-002 9.746486e-001
<VARIANCE> 25
 3.886944e+001 3.392989e+001 3.496943e+001 4.695890e+001 3.662511e+001 8.661620e+001 4.474008e+001 4.456145e+001 3.856226e+001 3.802787e+001 3.898920e+001 3.504955e+001 6.063669e+000 4.101610e+000 3.071999e+000 5.988948e+000 5.169209e+000 8.443513e+000 4.875067e+000 5.529212e+000 5.733477e+000 5.011939e+000 6.084064e+000 3.697077e+000 1.337599e+001
<GCONST> 1.129668e+002
<STATE> 3
<MEAN> 25
 -5.863617e-001 -3.622374e+000 1.115078e-001 -3.594082e+000 1.484185e+000 -4.519797e+000 -8.728001e-001 4.894961e-001 9.651580e-001 2.092443e+000 9.875534e-001 2.505185e-001 2.355058e-001 -4.514522e-001 -4.198673e-001 -5.069230e-001 -1.301793e-001 -1.524953e+000 7.430158e-001 1.109251e-001 1.175250e-001 -1.953308e-001 9.438726e-001 -2.972646e-001 2.134897e+000
<VARIANCE> 25
 4.426751e+001 3.184435e+001 3.352964e+001 5.055696e+001 4.512053e+001 8.760149e+001 4.835516e+001 5.021849e+001 3.925244e+001 3.082833e+001 3.970479e+001 3.756451e+001 5.578021e+000 3.030736e+000 3.131892e+000 5.640199e+000 3.900423e+000 9.041145e+000 5.108502e+000 7.310616e+000 5.738663e+000 4.612836e+000 5.915339e+000 3.630533e+000 1.230471e+001
<GCONST> 1.128519e+002
<STATE> 4
<MEAN> 25
 1.359140e+000 -3.741470e+000 -1.165481e+000 -3.196862e+000 1.606273e+000 -6.426879e+000 2.615903e-001 -1.593862e-001 5.569526e-001 1.815540e+000 1.249223e+000 -3.921182e-001 9.444935e-001 2.598678e-001 -3.480047e-002 6.048276e-001 -3.985677e-002 -7.360931e-001 4.995941e-001 -3.596806e-001 -5.879187e-001 -4.534232e-001 2.710446e-001 -3.537584e-001 8.824095e-001
<VARIANCE> 25
 4.173391e+001 3.174371e+001 2.855389e+001 3.986716e+001 3.807370e+001 1.120738e+002 4.417278e+001 4.911105e+001 4.175234e+001 3.734375e+001 4.036169e+001 2.909415e+001 4.679863e+000 2.730370e+000 2.978731e+000 4.843152e+000 2.755577e+000 6.712391e+000 4.217764e+000 4.729165e+000 5.062941e+000 3.175930e+000 4.081260e+000 2.348489e+000 7.615083e+000
<GCONST> 1.088298e+002
<TRANSP> 5
 0.000000e+000 1.000000e+000 0.000000e+000 0.000000e+000 0.000000e+000
 0.000000e+000 5.628836e-001 4.371164e-001 0.000000e+000 0.000000e+000
 0.000000e+000 0.000000e+000 4.287433e-001 5.712567e-001 0.000000e+000
 0.000000e+000 0.000000e+000 0.000000e+000 4.102385e-001 5.897614e-001
 0.000000e+000 0.000000e+000 0.000000e+000 0.000000e+000 0.000000e+000
<ENDHMM>
~h "v"
<BEGINHMM>
<NUMSTATES> 5
<STATE> 2
<MEAN> 25
 2.732102e+000 -2.738636e+000 -1.530762e+000 5.714040e-001 2.760605e+000 -9.875819e-001 3.034507e+000 -1.391598e+000 -2.159237e+000 -6.974074e-001 7.447234e-001 7.388573e-001 8.525537e-002 -4.119967e-001 -8.278115e-001 -4.833777e-001 6.442297e-002 -5.057388e-002 -1.404219e-001 5.268586e-001 5.067016e-001 9.451929e-002 -2.413697e-001 4.232063e-001 -6.587647e-002
<VARIANCE> 25
 6.276140e+001 3.350962e+001 5.761462e+001 3.833717e+001 3.859609e+001 7.467262e+001 8.866121e+001 4.020445e+001 3.063788e+001 3.904902e+001 2.806681e+001 2.321907e+001 2.971328e+000 2.043086e+000 2.528830e+000 3.979681e+000 2.956275e+000 3.936217e+000 1.801656e+000 3.362913e+000 2.789394e+000 2.316858e+000 2.626722e+000 1.837186e+000 2.297610e+000
<GCONST> 1.036499e+002
<STATE> 3
<MEAN> 25
 4.043143e+000 -3.557127e+000 -3.262593e+000 -9.834622e-001 2.325991e+000 -1.883206e+000 2.589591e+000 -8.246812e-001 -1.316952e+000 -4.707071e-001 6.448131e-001 1.298279e+000 5.920426e-001 -2.707368e-001 -7.641601e-001 -7.542648e-001 -3.305475e-001 1.759051e-002 -3.387852e-001 1.654371e-001 4.976955e-001 9.739495e-002 8.638945e-002 1.506600e-001 -2.331585e-001
<VARIANCE> 25
 6.033863e+001 3.578189e+001 4.459697e+001 3.142286e+001 3.105558e+001 7.319280e+001 7.669784e+001 4.681574e+001 3.219006e+001 3.885979e+001 2.779076e+001 2.096528e+001 2.528536e+000 3.075323e+000 3.214761e+000 5.586291e+000 3.638919e+000 4.037643e+000 2.339788e+000 3.425476e+000 2.965230e+000 2.754346e+000 2.393345e+000 1.819896e+000 3.992959e+000
<GCONST> 1.049476e+002
<STATE> 4
<MEAN> 25
 7.772392e+000 -4.508032e+000 -5.624717e+000 -7.379863e-001 1.977931e+000 -3.368435e+000 2.856897e+000 -7.378093e-001 -1.100879e-001 -1.001418e+000 5.907515e-001 1.011066e+000 2.039753e-001 2.340068e-002 1.795201e-001 5.080805e-001 -2.259295e-001 -1.413950e-001 -7.955829e-001 3.466509e-001 5.719282e-001 -1.282213e-001 -3.132552e-002 4.421200e-002 -5.415607e-001
<VARIANCE> 25
 5.461479e+001 3.040422e+001 3.202862e+001 4.744982e+001 2.853037e+001 7.528986e+001 6.226046e+001 4.546989e+001 2.999182e+001 3.749332e+001 4.189542e+001 2.052192e+001 1.627395e+000 2.755257e+000 2.423282e+000 4.794330e+000 3.086530e+000 3.306775e+000 3.260225e+000 2.500645e+000 2.455366e+000 2.775441e+000 3.656028e+000 1.397821e+000 4.209774e+000
<GCONST> 1.034528e+002
<TRANSP> 5
 0.000000e+000 1.000000e+000 0.000000e+000 0.000000e+000 0.000000e+000
 0.000000e+000 2.758267e-001 7.241733e-001 0.000000e+000 0.000000e+000
 0.000000e+000 0.000000e+000 3.409868e-001 6.590132e-001 0.000000e+000
 0.000000e+000 0.000000e+000 0.000000e+000 5.360463e-001 4.639537e-001
 0.000000e+000 0.000000e+000 0.000000e+000 0.000000e+000 0.000000e+000
<ENDHMM>
~h "w"
<BEGINHMM>
<NUMSTATES> 5
<STATE> 2
<MEAN> 25
 1.273898e+001 1.162827e+000 -2.316496e+000 -8.474744e+000 -8.949183e+000 2.929308e+000 2.863560e+000 -5.850489e+000 -1.020347e+000 -6.464359e+000 3.930463e+000 8.485292e-001 4.891774e-001 6.839476e-001 1.440407e-001 -1.105432e+000 -9.498479e-001 7.742466e-001 5.488483e-001 1.381749e-001 -2.443548e-002 -8.541217e-001 1.909295e-001 5.594575e-001 -1.973369e-001
<VARIANCE> 25
 7.715438e+000 4.994478e+001 1.621934e+001 6.012085e+001 4.253972e+001 5.328054e+001 2.648487e+001 3.611306e+001 3.708464e+001 2.796901e+001 8.430518e+001 2.805143e+001 5.796539e-001 1.430378e+000 1.953368e+000 2.036881e+000 1.575888e+000 2.363519e+000 2.775968e+000 3.228023e+000 3.467943e+000 2.773350e+000 6.505947e+000 3.021041e+000 1.471588e+000
<GCONST> 9.841536e+001
<STATE> 3
<MEAN> 25
 1.325483e+001 1.925638e+000 -4.322576e+000 -1.406664e+001 -9.365211e+000 3.938540e+000 7.677025e+000 -7.061946e+000 -2.493370e+000 -1.052395e+001 9.806921e+000 3.801030e+000 -8.512254e-001 -1.628530e+000 -1.191025e+000 -1.588547e-001 1.943258e+000 -8.984607e-001 8.110567e-001 -7.104408e-001 -6.251475e-001 7.695828e-001 2.898153e+000 -1.972448e-001 1.899126e+000
<VARIANCE> 25
 6.373990e+000 3.165770e+001 1.546383e+001 3.140421e+001 7.331395e+001 4.791697e+001 4.307798e+001 4.747898e+001 5.449623e+001 2.747831e+001 7.158884e+001 2.092836e+001 5.995706e-001 1.780520e+000 1.305998e+000 2.163870e+000 3.731421e+000 2.246678e+000 3.469980e+000 4.760098e+000 4.377632e+000 5.483928e+000 5.704893e+000 3.314858e+000 1.419993e+000
<GCONST> 1.003543e+002
<STATE> 4
<MEAN> 25
 9.632862e+000 -6.140072e+000 -6.718259e+000 -9.188313e+000 1.220021e+000 -3.399279e+000 6.837823e+000 -7.963232e+000 -1.058325e+000 -2.113234e-002 1.004312e+001 -1.307788e+000 -5.842651e-001 -6.762990e-001 8.974069e-002 8.817834e-001 1.254996e+000 -1.640879e+000 -1.004245e+000 6.976541e-001 7.295688e-001 1.404138e+000 -1.071554e+000 -1.143357e+000 1.527601e-001
<VARIANCE> 25
 6.595647e+000 1.305112e+001 1.389790e+001 3.853959e+001 6.549496e+001 5.128531e+001 8.505465e+001 3.108078e+001 3.309493e+001 4.743181e+001 6.399456e+001 1.957992e+001 1.034545e+000 1.921420e+000 9.726783e-001 1.832300e+000 2.961501e+000 4.015213e+000 2.039324e+000 2.074624e+000 2.867892e+000 3.736200e+000 3.495234e+000 2.360571e+000 3.182868e+000
<GCONST> 9.799969e+001
<TRANSP> 5
 0.000000e+000 1.000000e+000 0.000000e+000 0.000000e+000 0.000000e+000
 0.000000e+000 8.353055e-001 1.646946e-001 0.000000e+000 0.000000e+000
 0.000000e+000 0.000000e+000 6.842781e-001 3.157219e-001 0.000000e+000
 0.000000e+000 0.000000e+000 0.000000e+000 7.601836e-001 2.398164e-001
 0.000000e+000 0.000000e+000 0.000000e+000 0.000000e+000 0.000000e+000
<ENDHMM>
~h "y"
<BEGINHMM>
<NUMSTATES> 5
<STATE> 2
<MEAN> 25
 3.831264e+000 -5.875565e+000 5.683473e+000 -1.266110e-001 -1.873950e+000 -4.301222e+000 -3.966160e-001 -7.745875e-001 -2.351623e+000 -6.087663e-001 2.322890e+000 1.750172e-001 -8.039128e-001 -4.029753e-001 1.585846e+000 3.491330e-001 -1.568877e+000 -2.694328e-001 1.035991e-001 6.107826e-001 -5.617143e-001 -5.124877e-002 -2.939923e-001 6.288337e-001 1.194975e+000
<VARIANCE> 25
 8.704838e+001 2.332286e+001 4.835926e+001 3.704035e+001 2.413575e+001 9.106873e+001 3.553321e+001 4.327456e+001 4.148961e+001 5.006614e+001 4.694223e+001 5.203357e+001 2.254113e+000 1.966046e+000 3.268906e+000 4.665718e+000 4.544002e+000 5.784018e+000 2.992743e+000 6.148136e+000 6.175848e+000 4.275059e+000 3.864376e+000 3.318840e+000 1.180367e+001
<GCONST> 1.102144e+002
<STATE> 3
<MEAN> 25
 -1.484966e+000 -6.423461e+000 8.635079e+000 -2.070673e+000 -4.423181e+000 -5.476242e+000 1.237872e+000 -1.185340e+000 -3.882634e+000 6.146986e-001 8.642829e-001 2.505598e+000 -7.141645e-001 2.236052e-001 9.870761e-001 1.892802e-001 -1.017751e+000 -8.122784e-001 3.528394e-001 7.268972e-001 -4.307933e-001 -1.264974e-001 3.775923e-001 2.531490e-001 1.217923e+000
<VARIANCE> 25
 1.185266e+002 2.174631e+001 4.664340e+001 6.241348e+001 3.013772e+001 6.284316e+001 3.412648e+001 4.331080e+001 3.806267e+001 3.814034e+001 4.086461e+001 3.608601e+001 1.661075e+000 2.474215e+000 2.446790e+000 3.176903e+000 3.534455e+000 4.751153e+000 2.769925e+000 3.956533e+000 4.844558e+000 3.204397e+000 3.623832e+000 3.254153e+000 9.025239e+000
<GCONST> 1.072885e+002
<STATE> 4
<MEAN> 25
 4.667369e-001 -5.764590e+000 1.120129e+001 1.272537e+000 -7.081425e+000 -1.040140e+001 7.859063e-001 2.537446e+000 -4.580679e+000 -2.059199e+000 5.337855e+000 1.303989e+000 7.272756e-001 1.602667e-001 -3.614119e-001 4.327180e-001 2.511439e-001 -6.510231e-001 -8.065718e-002 3.736292e-001 1.928893e-001 -4.792635e-001 5.000036e-001 -2.287682e-001 2.414290e-001
<VARIANCE> 25
 8.816829e+001 1.337249e+001 3.526053e+001 3.663484e+001 3.573522e+001 5.403289e+001 5.074535e+001 2.865354e+001 4.391796e+001 4.801426e+001 3.069963e+001 1.345102e+001 3.530470e+000 2.078614e+000 3.399772e+000 2.405139e+000 3.442545e+000 3.655593e+000 2.781219e+000 3.033907e+000 3.865635e+000 4.915824e+000 2.196614e+000 1.932273e+000 1.348314e+000
<GCONST> 1.021568e+002
<TRANSP> 5
 0.000000e+000 1.000000e+000 0.000000e+000 0.000000e+000 0.000000e+000
 0.000000e+000 3.775118e-001 6.224883e-001 0.000000e+000 0.000000e+000
 0.000000e+000 0.000000e+000 4.210668e-001 5.789332e-001 0.000000e+000
 0.000000e+000 0.000000e+000 0.000000e+000 6.986955e-001 3.013045e-001
 0.000000e+000 0.000000e+000 0.000000e+000 0.000000e+000 0.000000e+000
<ENDHMM>
~h "z"
<BEGINHMM>
<NUMSTATES> 5
<STATE> 2
<MEAN> 25
 3.499991e+000 1.320523e+000 3.406379e+000 -7.638367e-001 3.391389e+000 -8.625572e+000 -2.654857e+000 -1.879119e+000 -3.908388e+000 -1.951061e+000 1.007397e+000 -3.598062e+000 -3.278979e+000 2.529797e+000 1.307610e+000 -2.310190e-002 2.068080e+000 1.077650e+000 -6.185715e-001 1.175300e+000 5.952685e-001 1.644813e-001 -1.460835e+000 2.004766e-001 -4.715494e-001
<VARIANCE> 25
 2.705778e+001 2.172550e+001 3.870415e+001 5.513208e+001 3.145738e+001 4.104385e+001 4.274535e+001 3.529260e+001 4.704178e+001 2.256157e+001 2.716896e+001 1.764302e+001 3.535987e+000 2.179804e+000 2.806354e+000 2.281276e+000 1.981590e+000 5.941169e+000 2.944873e+000 3.622327e+000 3.307186e+000 3.714653e+000 5.131227e+000 2.654312e+000 4.381654e-001
<GCONST> 1.006376e+002
<STATE> 3
<MEAN> 25
 -9.628721e+000 9.136467e+000 4.364985e+000 -2.224960e+000 1.084693e+001 -4.401525e+000 -3.804262e-001 2.684367e+000 -1.172697e+000 -1.408035e+000 -1.398915e-001 -1.078583e+000 -3.877012e+000 1.370003e+000 5.221667e-001 -6.082144e-001 1.614046e+000 1.481592e+000 9.256396e-001 1.202166e+000 7.986517e-001 -3.631152e-002 3.318149e-001 1.322039e+000 -1.667924e-002
<VARIANCE> 25
 3.513507e+001 2.453915e+001 3.335345e+001 2.863838e+001 2.496947e+001 3.718351e+001 6.268439e+001 3.249556e+001 2.953026e+001 2.252508e+001 3.406932e+001 3.314126e+001 3.511207e+000 2.421111e+000 1.360162e+000 3.198283e+000 2.076255e+000 3.244251e+000 1.739019e+000 2.701868e+000 2.965128e+000 2.697123e+000 2.904291e+000 2.251137e+000 6.190110e-001
<GCONST> 9.809248e+001
<STATE> 4
<MEAN> 25
 -1.604031e+001 5.517176e+000 5.369440e+000 -1.997186e+000 1.035800e+001 -2.234854e+000 1.191849e+000 5.380669e+000 1.014371e+000 -1.010994e+000 -2.016628e-001 3.214221e+000 8.379436e-001 -8.460257e-001 1.386481e-001 3.662037e-001 -7.787008e-001 -3.266578e-001 -2.729784e-001 -3.364035e-001 -2.433310e-001 2.498954e-002 -4.180295e-001 1.168511e-001 -1.021368e+000
<VARIANCE> 25
 2.650342e+001 2.501692e+001 3.479763e+001 2.056508e+001 3.494912e+001 4.670099e+001 4.777323e+001 5.436265e+001 3.029287e+001 3.293234e+001 3.325428e+001 2.076164e+001 3.966045e+000 2.950966e+000 1.358765e+000 1.458992e+000 3.130938e+000 4.834851e+000 3.451214e+000 3.454959e+000 3.317150e+000 3.463973e+000 3.269207e+000 2.618291e+000 3.743076e+000
<GCONST> 1.019678e+002
<TRANSP> 5
 0.000000e+000 1.000000e+000 0.000000e+000 0.000000e+000 0.000000e+000
 0.000000e+000 5.664056e-001 4.335944e-001 0.000000e+000 0.000000e+000
 0.000000e+000 0.000000e+000 7.099661e-001 2.900339e-001 0.000000e+000
 0.000000e+000 0.000000e+000 0.000000e+000 8.800308e-001 1.199692e-001
 0.000000e+000 0.000000e+000 0.000000e+000 0.000000e+000 0.000000e+000
<ENDHMM>
~h "aa"
<BEGINHMM>
<NUMSTATES> 5
<STATE> 2
<MEAN> 25
 4.008009e-001 -6.576551e-002 -2.281307e+000 -3.639813e+000 1.409416e+000 3.555618e+000 4.695893e+000 8.562451e-001 -6.677991e-001 -1.322872e+000 3.761636e+000 -5.106173e-002 1.322975e+000 -9.645126e-001 -1.560539e+000 -2.319205e+000 -6.693819e-001 -1.156465e+000 1.666440e+000 -1.221752e+000 -5.470226e-001 -8.138044e-001 1.475147e+000 -8.043031e-001 3.351358e+000
<VARIANCE> 25
 6.933409e+001 2.498346e+001 4.366985e+001 9.779140e+001 5.304095e+001 5.829455e+001 5.730524e+001 6.817233e+001 2.648766e+001 6.529400e+001 7.207652e+001 3.618457e+001 1.180291e+001 4.599813e+000 4.612507e+000 8.571126e+000 6.895414e+000 8.104389e+000 6.538428e+000 1.020823e+001 4.460439e+000 5.313272e+000 5.162800e+000 4.563204e+000 6.445103e+000
<GCONST> 1.174765e+002
<STATE> 3
<MEAN> 25
 7.277905e+000 -2.959918e+000 -8.312365e+000 -1.263508e+001 -3.067054e-001 5.239587e-001 9.504008e+000 -5.040425e+000 -2.976178e+000 -2.104846e+000 1.001041e+001 -5.232056e+000 3.154711e-001 -2.297227e-001 -3.742008e-001 -6.918395e-002 2.913995e-001 -2.876976e-001 3.951067e-001 -1.692190e-001 -2.240301e-001 -8.226056e-002 -1.238941e-001 -1.672416e-001 5.434263e-001
<VARIANCE> 25
 7.451328e+000 1.828017e+001 1.862954e+001 2.901174e+001 6.623487e+001 7.185960e+001 2.325820e+001 4.412210e+001 2.985261e+001 5.063417e+001 4.157528e+001 3.492836e+001 1.768475e+000 1.329922e+000 1.536025e+000 2.143310e+000 2.288896e+000 3.160878e+000 3.233655e+000 2.905245e+000 2.287007e+000 3.980980e+000 3.073942e+000 2.164825e+000 2.952326e+000
<GCONST> 9.860933e+001
<STATE> 4
<MEAN> 25
 7.471134e+000 -2.639754e+000 -8.101358e+000 -9.578437e+000 2.160054e+000 1.443586e-001 7.409579e+000 -3.547107e+000 -4.973241e+000 7.046669e-001 3.029479e+000 -4.070391e+000 -3.418485e-001 9.809466e-002 7.913423e-001 9.531934e-001 5.287158e-001 6.232065e-001 -1.051922e+000 4.827153e-001 -3.290469e-002 9.089510e-002 -6.572990e-001 6.404955e-001 -1.492170e+000
<VARIANCE> 25
 1.826636e+001 1.533529e+001 2.595726e+001 3.814601e+001 6.745237e+001 8.808685e+001 3.024498e+001 4.815044e+001 3.044094e+001 6.723450e+001 5.435188e+001 3.216392e+001 2.420881e+000 1.211912e+000 1.799050e+000 3.194591e+000 2.797550e+000 5.959068e+000 2.069342e+000 3.074510e+000 1.966734e+000 3.709565e+000 4.909569e+000 2.330385e+000 2.905969e+000
<GCONST> 1.025241e+002
<TRANSP> 5
 0.000000e+000 1.000000e+000 0.000000e+000 0.000000e+000 0.000000e+000
 0.000000e+000 7.122477e-001 2.877523e-001 0.000000e+000 0.000000e+000
 0.000000e+000 0.000000e+000 6.637300e-001 3.362701e-001 0.000000e+000
 0.000000e+000 0.000000e+000 0.000000e+000 7.094226e-001 2.905774e-001
 0.000000e+000 0.000000e+000 0.000000e+000 0.000000e+000 0.000000e+000
<ENDHMM>
~h "ae"
<BEGINHMM>
<NUMSTATES> 5
<STATE> 2
<MEAN> 25
 2.013584e+000 6.338362e-002 -1.749131e+000 4.612279e-001 1.324380e+000 -7.039347e-002 -5.274906e-001 -2.089844e-001 3.899355e+000 2.581610e+000 -1.710430e+000 -6.896706e-001 5.189941e-002 3.468452e-002 1.841617e-001 1.935092e-001 3.512529e-001 -2.042117e-002 5.758049e-002 2.369123e-002 3.522356e-001 1.479243e-001 -1.437420e-001 1.032226e-001 -2.701725e-001
<VARIANCE> 25
 6.415411e+001 5.103795e+001 4.100176e+001 5.368155e+001 2.992668e+001 9.461421e+001 5.296730e+001 4.127964e+001 3.495395e+001 3.162367e+001 5.110497e+001 2.413219e+001 2.071553e+000 1.658157e+000 1.550058e+000 2.001601e+000 1.107302e+000 3.802893e+000 2.670047e+000 2.392768e+000 3.317088e+000 2.324553e+000 3.189468e+000 1.780143e+000 4.658736e+000
<GCONST> 1.024778e+002
<STATE> 3
<MEAN> 25
 2.928985e+000 1.894209e+000 -6.993924e-001 1.340725e+000 3.249230e+000 5.425371e-001 -1.160284e+000 -1.120766e+000 2.216759e+000 2.806353e+000 -2.324641e+000 4.337655e-002 3.620660e-001 -1.009579e+000 -5.754481e-001 -2.268277e-001 1.875613e-002 -1.175529e+000 5.108806e-001 4.660195e-001 4.974753e-002 -9.630893e-001 1.075821e+000 -1.475319e-001 1.332182e+000
<VARIANCE> 25
 5.379861e+001 5.413585e+001 3.720564e+001 5.386412e+001 3.958719e+001 1.173891e+002 6.723371e+001 4.875312e+001 3.208252e+001 2.763507e+001 3.112124e+001 2.825260e+001 4.485933e+000 3.527501e+000 1.979941e+000 2.547042e+000 1.692969e+000 6.013220e+000 3.898107e+000 3.198583e+000 4.744380e+000 2.695220e+000 3.234594e+000 3.737392e+000 8.024793e+000
<GCONST> 1.079785e+002
<STATE> 4
<MEAN> 25
 3.475950e+000 -4.771787e+000 -2.446038e+000 2.112691e-001 1.136984e+000 -6.264439e+000 8.618957e-001 3.307761e+000 2.762969e+000 -6.406170e-001 1.951752e+000 -5.825033e-001 7.449321e-001 -2.536331e+000 -6.232508e-001 -1.078618e+000 -2.813793e-001 -2.801372e+000 8.304987e-001 7.029437e-001 -3.644611e-001 -5.982662e-001 1.581628e+000 -4.645343e-001 4.280292e+000
<VARIANCE> 25
 5.697872e+001 4.460117e+001 3.445012e+001 3.326353e+001 2.720762e+001 9.507013e+001 6.801767e+001 2.510823e+001 4.363480e+001 2.988430e+001 2.936566e+001 3.677520e+001 7.024505e+000 5.096271e+000 3.113869e+000 2.537007e+000 3.131983e+000 8.212288e+000 5.078489e+000 3.848055e+000 6.973661e+000 3.481428e+000 3.111257e+000 4.669246e+000 1.195553e+001
<GCONST> 1.105017e+002
<TRANSP> 5
 0.000000e+000 1.000000e+000 0.000000e+000 0.000000e+000 0.000000e+000
 0.000000e+000 5.322013e-001 4.677986e-001 0.000000e+000 0.000000e+000
 0.000000e+000 0.000000e+000 1.933117e-001 8.066883e-001 0.000000e+000
 0.000000e+000 0.000000e+000 0.000000e+000 6.749609e-001 3.250391e-001
 0.000000e+000 0.000000e+000 0.000000e+000 0.000000e+000 0.000000e+000
<ENDHMM>
~h "ah"
<BEGINHMM>
<NUMSTATES> 5
<STATE> 2
<MEAN> 25
 7.537306e+000 -6.887410e+000 -2.848539e+000 -3.333288e+000 1.938184e+000 -1.070014e+001 2.429500e+000 -1.380995e+000 4.913659e-002 -9.995756e-002 4.180869e+000 -2.726829e+000 6.236426e-001 -1.717553e-002 -5.729617e-001 3.554371e-002 2.692329e-001 2.547827e-001 2.788897e-001 -4.327262e-001 -1.499302e-001 5.908327e-001 -4.038429e-001 -3.559511e-001 -4.121200e-001
<VARIANCE> 25
 1.982226e+001 2.342876e+001 3.161933e+001 3.821887e+001 3.165711e+001 7.160094e+001 4.653665e+001 4.486770e+001 4.971192e+001 4.177020e+001 5.536682e+001 3.551334e+001 1.581774e+000 1.024217e+000 1.903361e+000 3.007473e+000 2.638279e+000 3.547212e+000 3.336782e+000 2.788349e+000 3.153799e+000 3.101170e+000 4.267952e+000 2.454225e+000 3.311024e+000
<GCONST> 1.022977e+002
<STATE> 3
<MEAN> 25
 8.667916e+000 -6.123269e+000 -3.314428e+000 -2.133462e+000 2.534762e+000 -8.875015e+000 2.997981e+000 -1.620963e+000 -9.509041e-001 8.972135e-001 2.122764e+000 -2.448007e+000 3.345487e-001 2.845459e-001 -7.056542e-002 5.682385e-001 -4.737747e-002 7.798142e-001 3.503877e-002 -1.976112e-001 -3.070155e-001 2.239476e-001 -7.265236e-001 4.040185e-001 -1.242417e+000
<VARIANCE> 25
 2.200046e+001 2.217908e+001 3.095678e+001 5.015891e+001 2.680332e+001 6.788756e+001 5.547555e+001 4.102431e+001 4.720279e+001 4.383911e+001 6.651221e+001 4.546019e+001 9.749239e-001 1.115663e+000 1.456557e+000 3.249262e+000 2.094939e+000 2.876194e+000 2.985417e+000 2.487440e+000 2.585596e+000 3.167659e+000 3.508086e+000 2.173051e+000 2.595134e+000
<GCONST> 1.008979e+002
<STATE> 4
<MEAN> 25
 6.551827e+000 -3.525416e+000 -3.023373e+000 -4.167291e-002 2.262091e+000 -3.444629e+000 4.282725e-001 -2.010175e+000 -5.962175e-001 1.837594e+000 -1.081355e+000 -2.174780e-001 -1.412299e-001 3.313190e-001 3.595961e-001 4.291012e-001 -2.227141e-001 7.370757e-001 -3.545248e-001 1.757138e-002 -1.363042e-001 -4.097670e-004 -6.067305e-001 6.151876e-001 -1.108522e+000
<VARIANCE> 25
 4.807049e+001 3.208561e+001 2.420229e+001 5.277176e+001 2.622882e+001 1.023529e+002 6.435271e+001 4.033135e+001 4.542183e+001 5.389953e+001 7.455836e+001 3.626198e+001 1.361625e+000 2.048830e+000 1.634533e+000 3.213584e+000 2.545350e+000 3.141280e+000 3.874196e+000 3.167843e+000 2.805002e+000 3.035085e+000 3.911306e+000 2.734703e+000 3.571609e+000
<GCONST> 1.049582e+002
<TRANSP> 5
 0.000000e+000 1.000000e+000 0.000000e+000 0.000000e+000 0.000000e+000
 0.000000e+000 4.422168e-001 5.577832e-001 0.000000e+000 0.000000e+000
 0.000000e+000 0.000000e+000 4.517137e-001 5.482864e-001 0.000000e+000
 0.000000e+000 0.000000e+000 0.000000e+000 5.691812e-001 4.308188e-001
 0.000000e+000 0.000000e+000 0.000000e+000 0.000000e+000 0.000000e+000
<ENDHMM>
~h "ao"
<BEGINHMM>
<NUMSTATES> 5
<STATE> 2
<MEAN> 25
 6.118570e+000 1.137037e+000 -8.115187e+000 -1.435707e+001 7.353805e-001 4.884166e+000 9.001748e+000 7.378856e-001 -3.469617e+000 -2.545254e+000 9.581940e+000 -1.792192e+000 1.592624e+000 -2.314389e-002 -3.740030e-001 -1.407674e+000 -1.655563e+000 -5.373607e-001 2.484241e+000 -1.089741e+000 -3.093137e-001 -1.476360e+000 1.081666e+000 -1.477742e-001 2.719879e+000
<VARIANCE> 25
 4.339529e+001 1.695979e+001 2.066132e+001 4.240388e+001 8.053067e+001 3.550872e+001 7.270374e+001 2.995817e+001 3.296586e+001 4.868440e+001 8.187965e+001 4.222077e+001 6.704104e+000 3.804774e+000 2.694763e+000 4.317567e+000 6.762995e+000 3.469373e+000 4.259398e+000 3.633553e+000 4.439756e+000 5.920557e+000 9.485523e+000 4.050425e+000 4.745885e+000
<GCONST> 1.105599e+002
<STATE> 3
<MEAN> 25
 1.017145e+001 -1.310240e+000 -7.283292e+000 -1.740836e+001 -8.234343e+000 1.945972e+000 1.446341e+001 -4.398656e+000 -1.754143e+000 -7.412941e+000 8.590878e+000 2.434938e+000 -9.222427e-002 -3.411940e-001 3.682722e-003 -2.396487e-001 2.060485e-001 -4.757421e-001 -3.277406e-002 -4.504937e-001 -4.457992e-002 1.570324e-001 -9.517347e-002 2.832454e-001 4.236442e-001
<VARIANCE> 25
 6.753044e+000 1.330835e+001 5.748926e+000 2.761553e+001 5.863815e+001 2.706981e+001 1.745708e+001 2.494941e+001 3.116551e+001 6.268643e+001 2.777204e+001 1.759823e+001 5.612441e-001 7.156259e-001 5.739871e-001 1.322122e+000 2.098513e+000 1.544513e+000 2.257075e+000 1.100503e+000 1.048773e+000 2.278300e+000 2.022773e+000 1.325876e+000 6.740026e-001
<GCONST> 8.508913e+001
<STATE> 4
<MEAN> 25
 9.193568e+000 -5.513229e+000 -4.189557e+000 -1.179630e+001 -3.918814e+000 -5.891920e+000 9.858405e+000 -3.886626e+000 -2.892908e+000 -5.291120e+000 9.544224e+000 1.704786e+000 4.625640e-002 -1.632055e-001 1.778542e-001 6.447719e-001 5.726134e-001 -8.810903e-001 -2.985209e-001 -2.089141e-001 7.486910e-002 4.891586e-001 -4.397320e-001 -1.770995e-001 -1.688989e-001
<VARIANCE> 25
 8.888568e+000 2.619345e+001 3.982715e+001 8.136153e+001 6.236906e+001 8.231479e+001 9.794895e+001 3.961431e+001 2.170653e+001 7.240237e+001 3.585774e+001 1.876433e+001 7.204315e-001 9.249335e-001 1.632394e+000 2.997906e+000 5.045403e+000 1.350494e+000 3.797475e+000 1.211642e+000 1.252747e+000 2.147084e+000 1.221502e+000 1.395693e+000 6.355549e-001
<GCONST> 9.585622e+001
<TRANSP> 5
 0.000000e+000 1.000000e+000 0.000000e+000 0.000000e+000 0.000000e+000
 0.000000e+000 7.548887e-001 2.451113e-001 0.000000e+000 0.000000e+000
 0.000000e+000 0.000000e+000 8.251377e-001 1.748623e-001 0.000000e+000
 0.000000e+000 0.000000e+000 0.000000e+000 6.702669e-001 3.297331e-001
 0.000000e+000 0.000000e+000 0.000000e+000 0.000000e+000 0.000000e+000
<ENDHMM>
~h "aw"
<BEGINHMM>
<NUMSTATES> 5
<STATE> 2
<MEAN> 25
 6.846714e+000 1.675070e-002 -5.676597e+000 -1.090818e+001 -2.129455e+000 1.415494e-001 1.004489e+001 -6.149187e+000 2.451223e-001 -7.094039e+000 8.193964e+000 -2.616403e+000 2.663312e-001 2.116447e-001 -6.455508e-001 -6.066547e-001 -5.770558e-001 -3.434682e-001 5.071692e-001 -7.376385e-001 2.236495e-001 -1.186301e-001 5.014447e-002 2.249425e-001 6.077478e-001
<VARIANCE> 25
 2.045741e+001 8.489487e+001 3.046316e+001 2.597970e+001 7.724841e+001 1.937516e+001 3.528434e+001 2.835135e+001 3.121183e+001 5.025602e+001 1.041946e+002 1.784824e+001 2.222755e+000 2.135795e+000 2.340601e+000 1.802473e+000 1.587288e+000 1.608307e+000 1.960271e+000 2.355207e+000 3.051400e+000 1.967652e+000 4.816474e+000 2.174198e+000 3.324579e+000
<GCONST> 9.999230e+001
<STATE> 3
<MEAN> 25
 8.251978e+000 -4.144112e-001 -6.730711e+000 -9.060312e+000 -1.906852e+000 1.917958e+000 5.365433e+000 -8.606393e+000 -2.907737e+000 2.237524e-001 5.201172e+000 2.262622e+000 3.095498e-001 7.633851e-002 2.503878e-001 6.399226e-001 -2.066538e-002 3.808828e-001 -1.069396e+000 2.000689e-001 -3.275984e-001 4.563558e-001 -5.876856e-001 5.100294e-001 -1.310323e+000
<VARIANCE> 25
 1.622898e+001 2.623333e+001 1.873758e+001 3.091565e+001 2.828327e+001 4.334668e+001 5.445259e+001 3.274301e+001 2.684893e+001 4.928561e+001 7.251253e+001 3.339373e+001 1.085567e+000 1.437684e+000 1.388118e+000 1.907245e+000 2.090004e+000 4.961759e+000 4.085992e+000 3.317555e+000 2.331829e+000 2.902932e+000 6.444394e+000 2.515577e+000 3.322629e+000
<GCONST> 1.002034e+002
<STATE> 4
<MEAN> 25
 7.711556e+000 -3.496767e+000 -4.623758e+000 -4.204378e+000 1.501907e+000 8.773013e-001 3.433522e+000 -3.281741e+000 -4.345629e+000 1.689743e+000 4.907168e+000 -1.967060e-001 -4.057430e-002 -4.196958e-001 2.813262e-001 1.941416e-001 2.644472e-001 -6.184950e-001 -3.765983e-001 1.693583e-001 -1.031784e-002 1.998920e-001 1.851647e-002 -2.233696e-001 2.652954e-001
<VARIANCE> 25
 3.126303e+001 3.428053e+001 4.295494e+001 5.935154e+001 1.802529e+001 6.738161e+001 5.778067e+001 3.824532e+001 5.339803e+001 3.996148e+001 6.779467e+001 3.357718e+001 2.515053e+000 2.613346e+000 3.703374e+000 4.848279e+000 1.856554e+000 7.116629e+000 4.678258e+000 4.832125e+000 4.312333e+000 2.944590e+000 7.163543e+000 2.350159e+000 6.105754e+000
<GCONST> 1.086107e+002
<TRANSP> 5
 0.000000e+000 1.000000e+000 0.000000e+000 0.000000e+000 0.000000e+000
 0.000000e+000 8.444372e-001 1.555627e-001 0.000000e+000 0.000000e+000
 0.000000e+000 0.000000e+000 8.583179e-001 1.416820e-001 0.000000e+000
 0.000000e+000 0.000000e+000 0.000000e+000 8.677548e-001 1.322452e-001
 0.000000e+000 0.000000e+000 0.000000e+000 0.000000e+000 0.000000e+000
<ENDHMM>
~h "ay"
<BEGINHMM>
<NUMSTATES> 5
<STATE> 2
<MEAN> 25
 6.935746e+000 -2.217844e+000 2.843461e-001 3.890361e+000 1.357388e+000 -2.350119e+000 -1.253361e+000 -2.151299e+000 3.834448e-001 6.543503e+000 -4.030932e+000 -2.615455e+000 5.842032e-001 3.010638e-001 -3.837686e-001 -4.068051e-001 -1.055611e-001 5.414043e-001 -3.528354e-001 -1.004670e+000 2.093564e-001 5.150254e-001 -7.135578e-001 -3.100586e-001 -1.189997e-001
<VARIANCE> 25
 2.033587e+001 6.295510e+001 4.939453e+001 1.036721e+002 3.187459e+001 8.176672e+001 1.281491e+002 2.472337e+001 3.900782e+001 2.744964e+001 4.903091e+001 3.152886e+001 5.767806e+000 1.772539e+000 2.661701e+000 2.584298e+000 4.265136e+000 5.421676e+000 5.050875e+000 2.675231e+000 3.304980e+000 2.130717e+000 3.693664e+000 2.850249e+000 8.048980e+000
<GCONST> 1.082780e+002
<STATE> 3
<MEAN> 25
 6.664650e+000 -1.743678e-001 7.705618e-001 2.972919e+000 1.182727e+000 -8.630441e-001 -3.870645e+000 -3.861107e+000 -2.393965e-001 7.919388e+000 -4.910631e+000 -2.615802e+000 -6.802077e-001 3.561758e-002 -1.514074e-001 -7.536552e-001 2.484976e-001 5.261707e-001 3.885707e-001 2.104560e-001 1.310216e-001 -7.597106e-001 2.786656e-001 -1.388562e-002 -2.028423e-001
<VARIANCE> 25
 1.674922e+001 7.193555e+001 5.757091e+001 7.018541e+001 2.246800e+001 6.572393e+001 1.670462e+002 2.230023e+001 3.959034e+001 4.137188e+001 3.182007e+001 2.453457e+001 2.446156e+000 3.385239e+000 2.147161e+000 5.694059e+000 4.593809e+000 3.365961e+000 2.544794e+000 2.924428e+000 2.635751e+000 3.451778e+000 2.993567e+000 1.442705e+000 8.124416e+000
<GCONST> 1.060560e+002
<STATE> 4
<MEAN> 25
 4.152723e+000 -4.389177e+000 -6.056755e-001 -1.948834e+000 1.966677e+000 -2.922556e+000 5.841424e-001 -7.987983e-001 5.423332e-001 2.038010e+000 -1.018738e+000 -4.120182e+000 -4.688157e-001 -1.504697e+000 -5.855819e-001 -1.389826e+000 -8.059652e-001 -1.298478e+000 1.040679e+000 6.550248e-001 2.464394e-001 -1.506702e+000 1.195384e+000 -1.726735e-001 2.537548e+000
<VARIANCE> 25
 1.936084e+001 5.449567e+001 4.577402e+001 3.433315e+001 2.241596e+001 8.611017e+001 9.319920e+001 2.330417e+001 2.690448e+001 3.394569e+001 3.086608e+001 2.333044e+001 2.313649e+000 4.564860e+000 3.033083e+000 7.121804e+000 3.252637e+000 4.130741e+000 5.490961e+000 3.075674e+000 2.469796e+000 5.406071e+000 2.805379e+000 1.840961e+000 1.293116e+001
<GCONST> 1.065610e+002
<TRANSP> 5
 0.000000e+000 1.000000e+000 0.000000e+000 0.000000e+000 0.000000e+000
 0.000000e+000 3.499921e-001 6.500079e-001 0.000000e+000 0.000000e+000
 0.000000e+000 0.000000e+000 4.402831e-001 5.597169e-001 0.000000e+000
 0.000000e+000 0.000000e+000 0.000000e+000 5.426844e-001 4.573156e-001
 0.000000e+000 0.000000e+000 0.000000e+000 0.000000e+000 0.000000e+000
<ENDHMM>
~h "ch"
<BEGINHMM>
<NUMSTATES> 5
<STATE> 2
<MEAN> 25
 -7.064481e+000 -1.361533e+000 7.208577e+000 -7.402333e-002 -3.358620e+000 -3.051289e-001 8.583309e-002 2.277558e+000 3.067010e+000 -1.722046e-001 1.256761e+000 3.092981e+000 2.483158e+000 -6.150513e-001 -1.832856e+000 8.847559e-001 -3.851172e-001 -1.460797e+000 2.153751e+000 1.792088e-001 6.611369e-001 -2.694911e-001 2.627214e-002 8.728621e-001 5.965962e-001
<VARIANCE> 25
 3.978490e+001 2.553924e+001 5.066985e+001 2.081667e+001 3.223294e+001 6.138463e+001 4.140839e+001 1.220592e+001 7.486190e+000 3.182037e+001 5.716815e+001 2.986812e+001 5.386544e+000 2.158443e+000 5.011436e+000 2.423867e+000 1.049915e+001 1.658621e+000 4.469752e+000 1.330842e+000 1.735290e+000 6.266713e+000 3.955713e+000 5.155655e+000 6.890467e+000
<GCONST> 1.034858e+002
<STATE> 3
<MEAN> 25
 -7.319470e-001 -3.268241e+000 -9.638587e-001 1.416725e+000 1.207317e+000 -2.926128e+000 6.163349e+000 2.507881e+000 2.881996e+000 1.062559e+000 -8.625825e-001 1.603703e+000 2.633570e+000 -3.279445e+000 -1.640683e+000 -2.024899e+000 4.014315e-001 -5.382270e+000 4.450429e+000 -9.008871e-001 -3.597665e-001 5.263112e-001 2.446286e+000 -1.084064e+000 6.084625e+000
<VARIANCE> 25
 4.592356e+001 3.527068e+001 1.709352e+001 2.196203e+001 2.367143e+001 7.971633e+001 3.899022e+001 2.486369e+001 2.464171e+001 2.626516e+001 6.019184e+001 5.138187e+001 2.820342e+000 3.618739e+000 3.690807e+000 4.772876e+000 6.106346e+000 1.151163e+001 9.031896e+000 3.013722e-001 2.271198e+000 1.839598e+000 4.389606e+000 5.019592e+000 2.279872e+001
<GCONST> 1.062889e+002
<STATE> 4
<MEAN> 25
 -1.330117e+000 -5.812479e+000 9.994631e-001 -3.078842e+000 2.132668e+000 -6.531022e+000 6.577501e+000 2.710959e+000 1.098703e+000 -5.839609e-001 3.196043e+000 -4.675712e-001 9.141502e-002 1.257441e-001 1.681587e-001 -1.170589e-001 7.479957e-002 2.729253e-001 -4.759636e-001 3.101744e-002 -2.514242e-001 -3.459277e-001 5.829979e-001 -7.858992e-002 7.966641e-001
<VARIANCE> 25
 8.303643e+001 2.351801e+001 3.346049e+001 2.369435e+001 2.493503e+001 8.005890e+001 8.320802e+001 2.264458e+001 1.568855e+001 1.583327e+001 3.960953e+001 3.928500e+001 8.755073e+000 2.599879e+000 2.974029e+000 3.421262e+000 2.889887e+000 7.053744e+000 4.286474e+000 3.194719e+000 2.219528e+000 1.964975e+000 3.105154e+000 2.802442e+000 1.180406e+001
<GCONST> 1.053864e+002
<TRANSP> 5
 0.000000e+000 1.000000e+000 0.000000e+000 0.000000e+000 0.000000e+000
 0.000000e+000 5.248308e-001 4.751693e-001 0.000000e+000 0.000000e+000
 0.000000e+000 0.000000e+000 4.725477e-001 5.274523e-001 0.000000e+000
 0.000000e+000 0.000000e+000 0.000000e+000 8.921869e-001 1.078131e-001
 0.000000e+000 0.000000e+000 0.000000e+000 0.000000e+000 0.000000e+000
<ENDHMM>
~h "dh"
<BEGINHMM>
<NUMSTATES> 5
<STATE> 2
<MEAN> 25
 1.170655e+000 -2.294563e+000 -2.099675e+000 -3.756619e+000 4.616367e+000 -4.880580e+000 2.535443e+000 -4.775214e+000 -2.392177e+000 1.253681e+000 7.372766e+000 -3.374251e+000 1.961278e-002 1.816707e-001 2.018792e-001 2.298866e-001 -8.223854e-002 4.026372e-002 -6.779971e-002 -2.734225e-001 -3.016401e-002 1.868155e-001 -1.408178e-001 -3.559939e-001 -3.557249e-002
<VARIANCE> 25
 2.158874e+001 3.438902e+001 9.530016e+000 1.864888e+001 1.465471e+001 4.577035e+001 1.717804e+001 3.461898e+001 3.359414e+001 1.467693e+001 4.308942e+001 2.010363e+001 3.249213e+000 3.192928e+000 1.048572e+000 1.298802e+000 2.350765e+000 1.760682e+000 2.270878e+000 4.286901e+000 2.021505e+000 1.251494e+000 2.023635e+000 1.912462e+000 2.389526e+000
<GCONST> 9.309526e+001
<STATE> 3
<MEAN> 25
 3.136131e-001 -1.836004e+000 -3.178776e+000 -9.918458e-001 3.062581e+000 -8.163276e+000 2.827395e+000 -3.762800e+000 5.659161e-001 1.840706e+000 2.641001e+000 -7.227614e+000 3.909347e-001 -1.343312e-001 -1.677110e-001 -3.402571e-003 -1.791405e-001 -2.629006e-001 4.250448e-001 -3.597210e-002 -5.726723e-003 5.404551e-002 3.290043e-002 -2.041069e-001 -1.097805e-002
<VARIANCE> 25
 1.824118e+001 9.575734e+000 5.735077e+000 9.687096e+000 8.526944e+000 3.965857e+001 3.102740e+001 3.090334e+001 2.745918e+001 1.313814e+001 2.455377e+001 1.298245e+001 1.985054e+000 1.506115e+000 6.202540e-001 9.404839e-001 1.053125e+000 4.267491e+000 2.760553e+000 3.013119e+000 3.043799e+000 1.912438e+000 2.357511e+000 1.205579e+000 3.137123e+000
<GCONST> 8.759594e+001
<STATE> 4
<MEAN> 25
 5.841667e+000 -1.710323e+000 -4.805314e+000 -8.453398e-001 1.836761e+000 -7.640021e+000 5.877454e+000 -4.547707e+000 -1.844276e+000 -1.362433e+000 2.907040e+000 -7.465686e+000 3.553907e-001 3.899281e-001 7.558913e-003 2.163078e-001 4.604211e-002 8.323147e-001 -1.709391e-001 -1.153983e-001 2.431016e-001 -8.594892e-001 -6.173118e-001 4.609573e-001 -1.501522e+000
<VARIANCE> 25
 7.617856e+000 9.761220e+000 5.455773e+000 5.388095e+001 9.013477e+000 3.102739e+001 1.169318e+001 2.390736e+001 6.257220e+001 2.346209e+001 2.112881e+001 2.074853e+001 3.785277e-001 5.061978e-001 5.701421e-001 1.634923e+000 6.734073e-001 1.898376e+000 7.787926e-001 1.500506e+000 1.882295e+000 2.119013e+000 1.223001e+000 1.508430e+000 5.613486e-001
<GCONST> 8.067812e+001
<TRANSP> 5
 0.000000e+000 1.000000e+000 0.000000e+000 0.000000e+000 0.000000e+000
 0.000000e+000 8.451994e-001 1.548006e-001 0.000000e+000 0.000000e+000
 0.000000e+000 0.000000e+000 8.773035e-001 1.226964e-001 0.000000e+000
 0.000000e+000 0.000000e+000 0.000000e+000 8.292198e-001 1.707802e-001
 0.000000e+000 0.000000e+000 0.000000e+000 0.000000e+000 0.000000e+000
<ENDHMM>
~h "eh"
<BEGINHMM>
<NUMSTATES> 5
<STATE> 2
<MEAN> 25
 6.676983e+000 -7.907600e+000 -9.887888e-001 -1.563010e+000 1.653598e+000 -1.090235e+001 3.084900e+000 3.076263e+000 4.301288e-001 -1.861852e+000 5.642147e+000 -1.245106e+000 2.685405e-001 -1.232830e+000 -5.271679e-001 -3.174736e-001 9.560534e-002 -2.073849e+000 1.105456e+000 6.113338e-001 1.025411e+000 3.394029e-001 -1.267920e-001 -9.225510e-001 2.302549e+000
<VARIANCE> 25
 2.797335e+001 2.120918e+001 3.374132e+001 2.410257e+001 2.461711e+001 4.573942e+001 2.950386e+001 3.622932e+001 3.416959e+001 3.693335e+001 3.070720e+001 3.211145e+001 5.218288e+000 3.027987e+000 2.689535e+000 4.382339e+000 2.311448e+000 3.445489e+000 2.469082e+000 3.405838e+000 2.754712e+000 4.626472e+000 3.452851e+000 3.488330e+000 3.841624e+000
<GCONST> 1.028795e+002
<STATE> 3
<MEAN> 25
 5.677550e+000 -9.507461e+000 -1.037025e+000 -2.069363e+000 1.368293e+000 -1.338408e+001 5.369759e+000 4.276291e+000 2.591723e+000 -1.994920e+000 4.833209e+000 -1.417430e+000 -2.227911e-001 -3.047231e-001 -3.099433e-001 -2.188881e-001 9.045202e-002 -9.540612e-001 6.893249e-001 8.259078e-002 1.084674e-001 3.186414e-001 -4.545069e-001 -8.952382e-002 9.249712e-001
<VARIANCE> 25
 2.327433e+001 1.403532e+001 3.485134e+001 1.710646e+001 2.374635e+001 4.259941e+001 2.319140e+001 2.701313e+001 3.778135e+001 3.415886e+001 1.975097e+001 2.005099e+001 2.246016e+000 1.391533e+000 1.844048e+000 1.258716e+000 1.747205e+000 2.592508e+000 2.349336e+000 2.518215e+000 1.947503e+000 2.796876e+000 2.084794e+000 3.318158e+000 2.296422e+000
<GCONST> 9.436052e+001
<STATE> 4
<MEAN> 25
 6.197492e+000 -8.528315e+000 -3.074321e+000 -3.019697e+000 2.912561e+000 -1.562757e+001 6.915287e+000 3.928989e+000 8.771088e-002 4.833658e-002 2.739268e+000 -1.740578e+000 -4.487379e-002 6.898019e-001 -3.487563e-003 -2.081646e-002 4.067632e-001 4.457848e-001 -2.017236e-001 -4.403977e-001 -7.214346e-001 1.867629e-001 -3.316526e-001 -2.079161e-002 -5.276386e-001
<VARIANCE> 25
 1.729339e+001 1.334209e+001 2.335291e+001 1.542781e+001 2.326565e+001 5.429475e+001 2.951589e+001 2.627302e+001 3.267302e+001 2.918919e+001 2.212708e+001 2.042937e+001 1.623217e+000 1.284326e+000 1.336986e+000 1.438820e+000 1.367413e+000 2.296208e+000 2.011697e+000 2.089829e+000 1.409249e+000 2.259792e+000 1.498066e+000 1.776836e+000 2.102392e+000
<GCONST> 9.089361e+001
<TRANSP> 5
 0.000000e+000 1.000000e+000 0.000000e+000 0.000000e+000 0.000000e+000
 0.000000e+000 4.119142e-001 5.880857e-001 0.000000e+000 0.000000e+000
 0.000000e+000 0.000000e+000 4.374656e-001 5.625344e-001 0.000000e+000
 0.000000e+000 0.000000e+000 0.000000e+000 7.674702e-001 2.325297e-001
 0.000000e+000 0.000000e+000 0.000000e+000 0.000000e+000 0.000000e+000
<ENDHMM>
~h "er"
<BEGINHMM>
<NUMSTATES> 5
<STATE> 2
<MEAN> 25
 7.043569e+000 -6.033480e+000 -4.108803e+000 -4.046700e+000 3.862983e+000 -1.124310e+001 3.529363e+000 -2.174017e+000 8.977093e-001 1.662533e+000 6.806212e+000 -4.603682e+000 3.056485e-002 -1.655568e-002 -1.644198e-001 3.177879e-001 3.717217e-001 1.089877e-001 2.596610e-001 2.632486e-001 2.845854e-001 -1.156251e-001 -4.174032e-001 -1.840068e-002 -3.287173e-001
<VARIANCE> 25
 1.401643e+001 8.637365e+000 1.854756e+001 2.634626e+001 2.086782e+001 4.713974e+001 4.905365e+001 1.962284e+001 3.713824e+001 2.603721e+001 4.597993e+001 2.216522e+001 1.143101e+000 6.257175e-001 1.439901e+000 1.519111e+000 1.245110e+000 2.558069e+000 2.418854e+000 1.526227e+000 1.983476e+000 1.556179e+000 2.347123e+000 1.648602e+000 1.801454e+000
<GCONST> 9.047771e+001
<STATE> 3
<MEAN> 25
 7.262820e+000 -5.383613e+000 -3.582370e+000 -7.608129e-001 4.259799e+000 -9.059118e+000 3.823511e+000 -1.456901e+000 2.350408e+000 1.003557e+000 1.785866e+000 -3.657086e+000 -5.515855e-002 3.689980e-001 3.265860e-001 5.349415e-001 3.777776e-001 9.948374e-001 -6.452501e-001 3.188697e-001 -1.636334e-001 -6.819096e-003 -9.444599e-001 4.637667e-001 -1.551791e+000
<VARIANCE> 25
 1.536984e+001 1.120558e+001 1.503117e+001 3.180825e+001 1.578478e+001 6.054592e+001 4.590318e+001 2.221594e+001 4.281978e+001 3.934719e+001 5.707181e+001 3.130268e+001 7.659573e-001 6.576379e-001 1.244222e+000 1.207314e+000 1.405270e+000 3.304518e+000 1.930126e+000 1.871586e+000 2.203551e+000 2.175529e+000 2.437753e+000 1.503459e+000 2.024915e+000
<GCONST> 9.208562e+001
<STATE> 4
<MEAN> 25
 4.311128e+000 -1.664570e+000 -1.228824e+000 2.945687e+000 3.663369e+000 1.306947e+000 -1.259745e+000 5.246668e-001 3.673976e+000 2.231994e+000 -2.769439e+000 4.232625e-001 -8.119535e-001 9.431781e-001 2.885326e-001 2.240752e-001 -2.065703e-001 1.224946e+000 -7.124677e-001 3.391154e-001 -9.152310e-002 3.919850e-002 -6.154866e-001 3.197505e-001 -1.731742e+000
<VARIANCE> 25
 3.186909e+001 2.388217e+001 2.126139e+001 3.034798e+001 2.078545e+001 9.822454e+001 3.681182e+001 3.923869e+001 3.309318e+001 4.042360e+001 4.937294e+001 3.818271e+001 1.838111e+000 2.411021e+000 1.719918e+000 2.186973e+000 1.877194e+000 2.416391e+000 3.269196e+000 3.641317e+000 2.193528e+000 2.392832e+000 2.769594e+000 3.166816e+000 2.968908e+000
<GCONST> 1.004090e+002
<TRANSP> 5
 0.000000e+000 1.000000e+000 0.000000e+000 0.000000e+000 0.000000e+000
 0.000000e+000 7.835345e-001 2.164655e-001 0.000000e+000 0.000000e+000
 0.000000e+000 0.000000e+000 6.154194e-001 3.845806e-001 0.000000e+000
 0.000000e+000 0.000000e+000 0.000000e+000 7.111247e-001 2.888753e-001
 0.000000e+000 0.000000e+000 0.000000e+000 0.000000e+000 0.000000e+000
<ENDHMM>
~h "ey"
<BEGINHMM>
<NUMSTATES> 5
<STATE> 2
<MEAN> 25
 3.740914e+000 -7.133056e+000 7.676161e+000 2.093450e+000 -9.003819e+000 -1.619858e+001 2.939651e+000 3.138720e+000 -2.666475e+000 -6.581108e+000 8.883436e+000 2.198731e+000 -4.558708e-001 4.430965e-001 1.415872e+000 3.892549e-001 -1.063804e+000 -3.931160e-002 3.168920e-001 -5.861065e-001 -1.071524e+000 -3.749352e-001 5.326934e-001 1.050341e-001 4.110337e-001
<VARIANCE> 25
 1.001617e+001 1.246538e+001 2.883610e+001 1.410103e+001 2.437513e+001 2.687693e+001 2.401258e+001 2.549286e+001 3.268854e+001 2.026841e+001 2.137025e+001 1.657448e+001 7.833299e-001 1.024795e+000 1.238892e+000 9.301183e-001 1.467212e+000 2.135389e+000 1.771039e+000 1.825390e+000 1.944255e+000 1.516014e+000 1.543001e+000 1.351339e+000 1.588437e+000
<GCONST> 8.656570e+001
<STATE> 3
<MEAN> 25
 2.361585e+000 -3.419135e+000 1.283873e+001 4.836418e+000 -1.051628e+001 -1.174939e+001 1.871845e+000 -2.044611e+000 -7.140698e+000 -5.616201e+000 7.471043e+000 1.177957e+000 1.642151e-001 4.755630e-001 4.122699e-002 5.639972e-001 6.886026e-001 8.366508e-001 -6.348883e-001 -5.139621e-002 1.888461e-001 6.234839e-001 -1.125379e+000 -2.116322e-001 -1.506180e+000
<VARIANCE> 25
 1.141359e+001 1.779123e+001 2.515926e+001 2.059865e+001 2.136249e+001 4.522757e+001 2.512458e+001 3.982895e+001 2.678449e+001 3.744060e+001 2.608323e+001 1.598867e+001 1.039918e+000 9.810992e-001 1.843198e+000 1.165806e+000 2.310879e+000 2.256872e+000 2.808649e+000 2.215789e+000 2.890037e+000 2.799515e+000 3.113632e+000 1.492347e+000 2.992927e+000
<GCONST> 9.322443e+001
<STATE> 4
<MEAN> 25
 3.415735e+000 -8.769785e-001 9.186766e+000 7.313951e+000 -7.178949e+000 -7.528453e+000 -1.468409e+000 -6.942155e-002 -4.785734e+000 -2.508034e+000 8.987761e-001 3.860277e-001 -1.922558e-001 4.354386e-001 -9.416051e-001 -2.243291e-001 1.065029e+000 1.237574e+000 -3.910750e-001 8.310647e-002 5.522428e-001 8.085411e-001 -1.089310e+000 -2.408374e-001 -1.639943e+000
<VARIANCE> 25
 1.468943e+001 2.908667e+001 4.503954e+001 2.918406e+001 3.149150e+001 5.318179e+001 4.750637e+001 5.077285e+001 3.073393e+001 3.521984e+001 3.922733e+001 3.122828e+001 1.703522e+000 1.646409e+000 2.105658e+000 3.003013e+000 3.438032e+000 3.327824e+000 2.996213e+000 2.688588e+000 3.030640e+000 2.805333e+000 3.892555e+000 1.947977e+000 3.380371e+000
<GCONST> 1.012781e+002
<TRANSP> 5
 0.000000e+000 1.000000e+000 0.000000e+000 0.000000e+000 0.000000e+000
 0.000000e+000 8.491341e-001 1.508658e-001 0.000000e+000 0.000000e+000
 0.000000e+000 0.000000e+000 6.851135e-001 3.148865e-001 0.000000e+000
 0.000000e+000 0.000000e+000 0.000000e+000 7.414653e-001 2.585347e-001
 0.000000e+000 0.000000e+000 0.000000e+000 0.000000e+000 0.000000e+000
<ENDHMM>
~h "hh"
<BEGINHMM>
<NUMSTATES> 5
<STATE> 2
<MEAN> 25
 4.007161e+000 -1.601768e+000 -6.986057e-002 -5.183214e+000 -3.582516e+000 2.108977e+000 4.474772e-001 5.854058e-001 -3.494837e+000 -6.605958e+000 3.547996e+000 4.362577e+000 7.921228e-001 -8.438926e-001 1.059221e-002 -1.241761e+000 -1.015982e+000 -9.719825e-001 1.087973e+000 -2.742591e-001 3.457638e-001 -9.670202e-001 1.020361e+000 1.049452e+000 1.997356e+000
<VARIANCE> 25
 6.042120e+001 4.981569e+001 1.572228e+001 7.616102e+001 9.109840e+001 3.815711e+001 3.450960e+001 9.438448e+001 2.616114e+001 8.898241e+001 8.243761e+001 6.883647e+001 3.377064e+000 1.692336e+000 2.032010e+000 4.883573e+000 5.952446e+000 4.534901e+000 2.967130e+000 3.593618e+000 3.331511e+000 4.742133e+000 4.830541e+000 4.998192e+000 8.437614e+000
<GCONST> 1.114603e+002
<STATE> 3
<MEAN> 25
 4.652249e+000 -5.723073e+000 8.034775e-001 -5.220962e+000 -2.905676e+000 -7.407726e-001 5.425462e+000 -4.375513e+000 -8.799949e-001 -3.619240e+000 2.858686e+000 3.783967e+000 -3.128766e-001 -9.102846e-001 2.072992e-001 2.426852e-001 8.070669e-001 -1.112239e+000 6.087151e-001 5.767126e-001 4.358860e-001 6.194862e-002 4.670104e-001 1.963068e-001 4.350438e-001
<VARIANCE> 25
 6.039792e+001 4.140231e+001 2.260920e+001 6.215277e+001 9.395309e+001 4.912035e+001 3.888277e+001 1.965073e+002 3.407349e+001 8.406133e+001 5.054193e+001 6.467196e+001 1.703085e+000 2.249684e+000 9.424131e-001 1.957780e+000 3.739687e+000 2.262396e+000 3.812714e+000 1.036496e+001 2.597192e+000 3.774093e+000 3.540028e+000 2.269977e+000 2.223184e+000
<GCONST> 1.073830e+002
<STATE> 4
<MEAN> 25
 1.461491e+000 -7.539545e+000 1.193888e+000 -1.963794e+000 2.298857e+000 -4.209333e+000 4.381079e+000 3.852310e+000 1.088902e-001 -6.494872e+000 3.195951e+000 2.805935e+000 2.022609e-001 -6.170285e-001 1.845429e-001 1.623388e-001 6.532261e-001 -1.145802e+000 6.600700e-001 1.110544e-001 1.247973e-002 -6.148689e-002 8.753899e-002 -6.385931e-002 1.281387e+000
<VARIANCE> 25
 7.555177e+001 5.714857e+001 2.023602e+001 4.314252e+001 7.916493e+001 1.049687e+002 2.288276e+001 5.479276e+001 5.914539e+001 6.290089e+001 5.403231e+001 4.184643e+001 1.612842e+000 3.353801e+000 5.817102e-001 2.617164e+000 5.648843e+000 4.037946e+000 3.650241e+000 8.441794e+000 2.493850e+000 4.284591e+000 2.280795e+000 2.158925e+000 3.846468e+000
<GCONST> 1.071674e+002
<TRANSP> 5
 0.000000e+000 1.000000e+000 0.000000e+000 0.000000e+000 0.000000e+000
 0.000000e+000 5.147964e-001 4.852036e-001 0.000000e+000 0.000000e+000
 0.000000e+000 0.000000e+000 5.268153e-001 4.731847e-001 0.000000e+000
 0.000000e+000 0.000000e+000 0.000000e+000 4.660571e-001 5.339429e-001
 0.000000e+000 0.000000e+000 0.000000e+000 0.000000e+000 0.000000e+000
<ENDHMM>
~h "ih"
<BEGINHMM>
<NUMSTATES> 5
<STATE> 2
<MEAN> 25
 3.208422e+000 -2.843186e+000 4.043036e+000 1.018702e+000 1.287790e-001 -1.028287e+001 -2.363827e+000 3.785213e+000 -7.158145e-001 -3.047619e+000 3.571489e+000 6.840029e-002 6.948301e-001 -1.210706e+000 8.644580e-002 8.627942e-001 -4.774278e-001 -1.980447e+000 -2.966126e-001 3.194864e-001 7.320361e-001 -8.476712e-001 1.039663e+000 4.603154e-001 1.730140e+000
<VARIANCE> 25
 4.465917e+001 2.940817e+001 2.924216e+001 2.248286e+001 2.312972e+001 1.007294e+002 3.928574e+001 1.906555e+001 3.372720e+001 3.409748e+001 3.534435e+001 2.248912e+001 5.007703e+000 3.511698e+000 2.801007e+000 2.534957e+000 3.439650e+000 7.044828e+000 3.963105e+000 3.033478e+000 2.907000e+000 2.984530e+000 5.000823e+000 4.296045e+000 7.636687e+000
<GCONST> 1.054761e+002
<STATE> 3
<MEAN> 25
 4.324836e+000 -5.455962e+000 3.883535e+000 2.992972e+000 -8.676300e-001 -1.401706e+001 -1.889402e+000 3.516608e+000 6.125438e-001 -4.090617e+000 4.802008e+000 1.190454e+000 1.051636e-001 -5.760724e-001 -1.743610e-001 8.014529e-001 -8.201551e-002 -6.734841e-001 -1.036109e-001 -5.158214e-002 5.326322e-001 -8.250731e-002 3.966395e-001 1.526017e-001 3.302999e-001
<VARIANCE> 25
 3.018603e+001 2.275061e+001 2.711769e+001 1.773018e+001 2.342645e+001 6.704416e+001 2.916444e+001 2.115593e+001 2.538759e+001 3.682309e+001 3.438918e+001 2.676203e+001 2.800488e+000 3.100453e+000 3.759773e+000 2.026187e+000 2.459278e+000 7.568595e+000 2.922645e+000 1.765713e+000 2.994951e+000 3.140033e+000 5.389261e+000 2.430418e+000 6.486651e+000
<GCONST> 1.015437e+002
<STATE> 4
<MEAN> 25
 2.823571e+000 -5.884467e+000 3.545766e+000 4.514811e+000 1.223757e+000 -1.249835e+001 -2.280790e+000 3.872811e+000 -1.515424e-001 -3.180713e+000 2.725393e+000 1.180442e+000 -4.730136e-001 2.913757e-001 -2.383371e-001 2.617670e-002 5.455463e-001 6.199298e-001 -2.474689e-001 5.400684e-003 1.174510e-001 4.973617e-001 -6.524331e-001 -8.295451e-002 -1.089936e+000
<VARIANCE> 25
 4.065644e+001 2.053192e+001 3.135040e+001 2.116776e+001 2.983160e+001 4.769361e+001 2.613208e+001 2.698739e+001 2.363488e+001 3.439887e+001 4.201406e+001 2.398364e+001 3.102221e+000 1.893605e+000 3.306753e+000 1.796580e+000 2.176300e+000 5.954969e+000 2.051993e+000 2.224676e+000 2.390975e+000 2.931107e+000 4.651868e+000 2.328103e+000 5.000843e+000
<GCONST> 1.001785e+002
<TRANSP> 5
 0.000000e+000 1.000000e+000 0.000000e+000 0.000000e+000 0.000000e+000
 0.000000e+000 3.994630e-001 6.005370e-001 0.000000e+000 0.000000e+000
 0.000000e+000 0.000000e+000 4.233592e-001 5.766408e-001 0.000000e+000
 0.000000e+000 0.000000e+000 0.000000e+000 7.055805e-001 2.944195e-001
 0.000000e+000 0.000000e+000 0.000000e+000 0.000000e+000 0.000000e+000
<ENDHMM>
~h "iy"
<BEGINHMM>
<NUMSTATES> 5
<STATE> 2
<MEAN> 25
 -4.927868e-001 -2.525629e+000 1.048527e+001 3.214664e+000 -3.615420e+000 -9.877936e+000 8.431035e-001 2.023586e+000 -4.638948e+000 -7.334183e+000 5.553943e+000 1.615974e+000 7.159813e-001 -1.565567e-001 2.483684e+000 1.675263e+000 -2.230710e+000 -1.127678e+000 2.938435e-001 -7.673883e-001 -1.918093e+000 -1.014297e+000 8.506395e-001 -2.867085e-001 1.680497e+000
<VARIANCE> 25
 7.865308e+001 2.008694e+001 5.116100e+001 5.124485e+001 3.585508e+001 8.317563e+001 5.430395e+001 3.783167e+001 4.482569e+001 3.574039e+001 4.244691e+001 2.115283e+001 7.033108e+000 3.637650e+000 4.386549e+000 6.063557e+000 2.883581e+000 7.459166e+000 3.948566e+000 3.745640e+000 4.444134e+000 4.625298e+000 3.376038e+000 2.739802e+000 3.259521e+000
<GCONST> 1.097054e+002
<STATE> 3
<MEAN> 25
 1.926422e+000 -1.928382e+000 1.593499e+001 5.901567e+000 -9.643090e+000 -1.094985e+001 1.835736e+000 -2.222967e+000 -9.971551e+000 -7.609549e+000 7.677343e+000 -7.687866e-001 -5.269850e-003 1.469927e-001 4.252272e-001 -1.093062e-001 -6.147329e-001 5.583421e-001 1.368526e-001 -8.166536e-001 -2.994236e-001 5.941555e-001 2.629216e-001 -2.017590e-001 -1.039985e-001
<VARIANCE> 25
 1.089661e+001 1.624093e+001 3.868087e+001 2.337009e+001 3.277379e+001 3.189208e+001 3.970870e+001 3.640432e+001 3.363895e+001 2.800893e+001 2.718134e+001 2.230691e+001 1.645391e+000 1.544627e+000 1.721787e+000 1.748267e+000 2.280933e+000 2.929541e+000 1.749794e+000 2.008091e+000 2.817641e+000 2.021740e+000 2.087221e+000 1.702825e+000 1.990471e+000
<GCONST> 9.430081e+001
<STATE> 4
<MEAN> 25
 8.609499e-001 -3.020113e+000 1.246790e+001 6.732879e+000 -4.757235e+000 -1.061890e+001 -1.251580e-001 -2.052323e+000 -5.832822e+000 -5.484207e+000 3.893826e+000 -6.371907e-002 -6.594156e-002 -2.275221e-001 -1.200157e+000 -3.685736e-001 9.521051e-001 2.852208e-001 -4.021335e-001 1.902827e-001 6.655541e-001 3.616264e-001 -6.907233e-001 -4.397791e-002 -5.633327e-001
<VARIANCE> 25
 3.884977e+001 1.645841e+001 3.873694e+001 2.667331e+001 7.645713e+001 2.890925e+001 3.446165e+001 3.604293e+001 3.521235e+001 3.370046e+001 3.108838e+001 1.955707e+001 3.208559e+000 1.199190e+000 2.011579e+000 2.115509e+000 4.629142e+000 3.081654e+000 2.796910e+000 3.076464e+000 3.925568e+000 3.293628e+000 2.814986e+000 1.884086e+000 1.698790e+000
<GCONST> 1.000261e+002
<TRANSP> 5
 0.000000e+000 1.000000e+000 0.000000e+000 0.000000e+000 0.000000e+000
 0.000000e+000 6.272684e-001 3.727316e-001 0.000000e+000 0.000000e+000
 0.000000e+000 0.000000e+000 6.570159e-001 3.429841e-001 0.000000e+000
 0.000000e+000 0.000000e+000 0.000000e+000 8.471919e-001 1.528081e-001
 0.000000e+000 0.000000e+000 0.000000e+000 0.000000e+000 0.000000e+000
<ENDHMM>
~h "jh"
<BEGINHMM>
<NUMSTATES> 5
<STATE> 2
<MEAN> 25
 -7.206737e+000 -5.262527e+000 5.150145e+000 -2.449314e+000 4.926852e+000 -5.212556e+000 -1.429501e+000 9.923241e-001 4.180490e+000 -1.379471e+000 1.915292e+000 5.278499e+000 -1.476628e+000 -3.224669e-001 7.067130e-001 -8.035044e-001 4.139366e-001 1.061266e+000 3.847990e-001 3.752233e-001 -2.698366e-003 -4.859900e-002 1.686459e-001 1.482042e-002 -5.908659e-002
<VARIANCE> 25
 5.455338e+001 6.106387e+001 2.316472e+001 3.581166e+001 1.580350e+001 4.525123e+001 5.349773e+001 8.545113e+000 2.051724e+001 5.831371e+001 1.159638e+001 3.354603e+001 6.102861e+000 5.099827e+000 3.371811e+000 5.906003e+000 2.467148e+000 7.944513e+000 4.158751e+000 1.113473e+000 3.446536e+000 6.181777e+000 1.921713e+000 2.853904e+000 8.925628e+000
<GCONST> 1.044145e+002
<STATE> 3
<MEAN> 25
 -4.868173e+000 -2.152498e+000 5.833930e+000 -5.502411e+000 3.456236e+000 -3.019157e+000 -6.721951e+000 1.110484e+000 9.323274e-001 -7.335556e-001 1.255613e+000 1.028710e+000 1.559012e+000 -1.011490e+000 -5.612978e-001 6.316072e-001 -1.273393e+000 -1.739323e+000 -6.851861e-001 -3.004476e-001 -6.015975e-001 -3.636032e-001 1.243226e-001 -2.817083e-002 8.799862e-001
<VARIANCE> 25
 5.326194e+001 4.566463e+001 2.200331e+001 4.118341e+001 1.956867e+001 8.234317e+001 2.288092e+001 1.492078e+001 3.327401e+001 1.659943e+001 1.663772e+001 1.782914e+001 8.889909e+000 8.890448e+000 2.037091e+000 2.917548e+000 1.686049e+000 1.358768e+001 2.984389e+000 1.347610e+000 4.937799e+000 2.249151e+000 2.285656e+000 1.070131e+000 6.432953e+000
<GCONST> 1.016160e+002
<STATE> 4
<MEAN> 25
 1.197891e+000 -3.963749e+000 3.558972e+000 -9.542588e-001 4.249921e-001 -7.198006e+000 -3.421678e+000 4.695754e+000 1.982763e+000 -4.786555e+000 -1.362841e+000 1.713894e+000 5.818393e-001 8.602785e-003 -1.779799e-001 -3.385520e-002 -1.769993e-001 -4.498094e-001 4.651940e-001 3.657858e-002 4.984308e-002 -1.588263e-001 1.478645e-001 3.511835e-001 5.498842e-001
<VARIANCE> 25
 5.876410e+001 1.039882e+002 2.060741e+001 1.804679e+001 4.803678e+001 9.573569e+001 2.448166e+001 2.636311e+001 5.786649e+001 1.179177e+001 2.952789e+001 3.133146e+001 7.317788e+000 7.874051e+000 2.141385e+000 2.646467e+000 4.629742e+000 2.972405e+000 2.939183e+000 3.012831e+000 2.267908e+000 2.003442e+000 3.176257e+000 2.551378e+000 4.032218e+000
<GCONST> 1.044341e+002
<TRANSP> 5
 0.000000e+000 1.000000e+000 0.000000e+000 0.000000e+000 0.000000e+000
 0.000000e+000 8.426877e-001 1.573123e-001 0.000000e+000 0.000000e+000
 0.000000e+000 0.000000e+000 7.306591e-001 2.693409e-001 0.000000e+000
 0.000000e+000 0.000000e+000 0.000000e+000 8.847353e-001 1.152647e-001
 0.000000e+000 0.000000e+000 0.000000e+000 0.000000e+000 0.000000e+000
<ENDHMM>
~h "ng"
<BEGINHMM>
<NUMSTATES> 5
<STATE> 2
<MEAN> 25
 1.141554e+001 -5.180720e+000 3.664019e+000 1.008909e+001 6.424373e-001 -5.741711e+000 -1.299045e+000 4.034595e+000 2.540976e+000 1.638169e+000 -6.523021e+000 2.099698e-001 -7.911716e-001 9.086642e-001 5.642805e-001 1.434409e-001 1.187088e-001 1.374708e+000 -9.876714e-001 -3.602951e-001 9.204254e-002 7.454627e-001 -2.356437e-001 -3.563729e-001 -1.455828e+000
<VARIANCE> 25
 2.919086e+001 2.016863e+001 2.337677e+001 2.186700e+001 1.479708e+001 5.579051e+001 5.609178e+001 2.750522e+001 1.818106e+001 3.537981e+001 3.027083e+001 3.321781e+001 1.108123e+000 2.972501e+000 1.462446e+000 1.944465e+000 1.268741e+000 1.713893e+000 1.485621e+000 5.033166e+000 1.652621e+000 2.214220e+000 1.907293e+000 2.866991e+000 1.991915e+000
<GCONST> 9.470998e+001
<STATE> 3
<MEAN> 25
 7.494779e+000 -2.059997e+000 2.599905e+000 6.373433e+000 9.173241e-001 -1.302209e+000 -2.376637e+000 1.237326e+000 3.288157e-001 2.977329e+000 -5.186366e+000 -7.228957e-001 -1.108338e+000 1.629189e+000 -3.880628e-001 -4.884880e-001 -1.912851e-002 2.195219e+000 -5.786080e-001 5.276293e-002 -8.255615e-002 -3.967081e-002 4.483984e-001 2.114758e-001 -2.153002e+000
<VARIANCE> 25
 5.338565e+001 2.696460e+001 2.776564e+001 2.507753e+001 2.421287e+001 6.705759e+001 5.644609e+001 1.441367e+001 2.975703e+001 5.424359e+001 3.038516e+001 2.627777e+001 5.153353e-001 3.018423e+000 1.753265e+000 7.477000e-001 8.251481e-001 2.598132e+000 1.588662e+000 3.803632e+000 1.629158e+000 2.053360e+000 2.846434e+000 3.050785e+000 2.699770e+000
<GCONST> 9.556403e+001
<STATE> 4
<MEAN> 25
 4.231805e+000 9.875649e-001 1.334270e+000 5.843754e+000 1.154051e+000 3.607230e+000 -3.514017e+000 2.185073e+000 2.103066e+000 2.678548e+000 -4.500798e+000 -2.893217e-001 -1.250020e+000 7.952964e-001 -5.750583e-001 -5.592441e-001 -4.247350e-001 9.771088e-001 -3.013894e-001 1.025967e-001 3.371325e-001 -1.870167e-001 -6.104304e-003 1.792006e-001 -1.496610e+000
<VARIANCE> 25
 5.836508e+001 2.537048e+001 2.300142e+001 2.545358e+001 2.397010e+001 6.480670e+001 3.732671e+001 2.471488e+001 3.010502e+001 5.073136e+001 2.952317e+001 1.620215e+001 5.062468e-001 1.541352e+000 1.216015e+000 1.067096e+000 1.576891e+000 3.382945e+000 2.116636e+000 1.621700e+000 1.739439e+000 3.347179e+000 2.602591e+000 2.030673e+000 1.685186e+000
<GCONST> 9.416492e+001
<TRANSP> 5
 0.000000e+000 1.000000e+000 0.000000e+000 0.000000e+000 0.000000e+000
 0.000000e+000 7.501470e-001 2.498530e-001 0.000000e+000 0.000000e+000
 0.000000e+000 0.000000e+000 4.131272e-001 5.868728e-001 0.000000e+000
 0.000000e+000 0.000000e+000 0.000000e+000 4.200964e-001 5.799037e-001
 0.000000e+000 0.000000e+000 0.000000e+000 0.000000e+000 0.000000e+000
<ENDHMM>
~h "ow"
<BEGINHMM>
<NUMSTATES> 5
<STATE> 2
<MEAN> 25
 6.227722e+000 -5.752867e-002 -5.636990e+000 -5.574255e+000 -2.468375e+000 2.750990e+000 4.001966e+000 -4.009194e+000 -3.464971e-001 -4.054515e+000 7.517077e+000 1.774349e+000 2.392764e-001 7.695072e-002 -3.163173e-001 -5.226018e-001 -7.898885e-001 8.248431e-002 2.702749e-001 -3.298330e-001 2.127786e-002 -7.573441e-001 4.166871e-001 2.483431e-001 3.036037e-001
<VARIANCE> 25
 5.806588e+001 1.998881e+001 2.262363e+001 7.082511e+001 4.287020e+001 5.922953e+001 7.078643e+001 3.289656e+001 2.439759e+001 5.527349e+001 1.119898e+002 1.107351e+001 7.979561e-001 8.103495e-001 4.120341e-001 1.193297e+000 1.468937e+000 1.387038e+000 1.244523e+000 1.309163e+000 1.752443e+000 1.455367e+000 1.717016e+000 1.035810e+000 1.404089e+000
<GCONST> 9.221062e+001
<STATE> 3
<MEAN> 25
 1.037172e+001 1.748389e+000 -7.066773e+000 -1.249393e+001 -8.699100e+000 2.688565e+000 8.782262e+000 -5.467528e+000 5.035753e-001 -1.064315e+001 9.213297e+000 2.015623e+000 3.268538e-002 5.442600e-001 2.977232e-001 -1.989117e-001 -2.773434e-001 2.813723e-001 -2.945451e-001 2.823032e-002 9.927956e-003 -2.741508e-001 -7.571283e-001 -1.437491e-001 -3.894469e-001
<VARIANCE> 25
 9.482971e+000 3.106289e+001 1.479925e+001 4.044616e+001 4.513947e+001 3.205386e+001 3.814465e+001 5.202935e+001 2.320347e+001 3.375330e+001 6.883774e+001 1.755517e+001 2.974521e-001 1.102190e+000 3.995488e-001 1.054687e+000 1.289520e+000 1.091817e+000 1.529198e+000 1.351568e+000 1.401732e+000 2.298813e+000 1.438595e+000 9.527732e-001 5.880338e-001
<GCONST> 8.670100e+001
<STATE> 4
<MEAN> 25
 8.038452e+000 3.863144e+000 -4.005893e+000 -7.989848e+000 -6.059526e+000 5.901814e+000 3.836497e+000 -6.640601e+000 8.978377e-001 -5.379442e+000 3.460907e+000 3.231034e-001 -3.260311e-001 -4.947740e-001 5.854495e-001 1.766749e+000 8.679210e-001 -3.177706e-001 -8.822420e-001 2.850282e-001 -1.221412e-001 1.025792e+000 -6.676148e-001 -4.711346e-001 -9.058248e-001
<VARIANCE> 25
 2.308462e+001 4.691064e+001 3.518508e+001 9.406806e+001 5.010794e+001 5.075828e+001 7.200022e+001 6.040191e+001 3.019093e+001 6.635741e+001 9.197470e+001 2.207715e+001 1.197832e+000 3.458593e+000 1.880494e+000 4.153792e+000 2.462892e+000 5.247109e+000 4.704696e+000 3.982990e+000 2.703700e+000 3.841775e+000 8.491171e+000 2.306212e+000 6.304341e+000
<GCONST> 1.085995e+002
<TRANSP> 5
 0.000000e+000 1.000000e+000 0.000000e+000 0.000000e+000 0.000000e+000
 0.000000e+000 6.485494e-001 3.514506e-001 0.000000e+000 0.000000e+000
 0.000000e+000 0.000000e+000 8.369852e-001 1.630148e-001 0.000000e+000
 0.000000e+000 0.000000e+000 0.000000e+000 8.054338e-001 1.945662e-001
 0.000000e+000 0.000000e+000 0.000000e+000 0.000000e+000 0.000000e+000
<ENDHMM>
~h "oy"
<BEGINHMM>
<NUMSTATES> 5
<STATE> 2
<MEAN> 25
 7.696037e+000 -4.303720e+000 -7.374953e+000 -1.340778e+001 -3.473483e+000 3.318836e+000 5.288083e+000 1.101372e+000 -3.398813e+000 -1.011158e+001 1.310299e+001 3.819286e+000 1.899294e+000 -6.369717e-001 -1.412067e+000 -6.092554e-001 -1.510113e+000 -6.019678e-001 2.603119e+000 -2.134392e-001 -5.956578e-002 -2.179104e+000 2.370814e+000 -3.057626e-001 3.456784e+000
<VARIANCE> 25
 4.819940e+001 2.013715e+001 3.621709e+001 3.754635e+001 3.142155e+001 3.090633e+001 7.902147e+001 5.598962e+001 1.631411e+001 7.685539e+001 9.871072e+001 2.133782e+001 5.392606e+000 3.544385e+000 7.313522e+000 8.961524e+000 3.162594e+000 4.298583e+000 5.925092e+000 6.341626e+000 3.776788e+000 5.948619e+000 2.012533e+001 3.356964e+000 8.410921e+000
<GCONST> 1.129236e+002
<STATE> 3
<MEAN> 25
 1.270350e+001 -8.840097e+000 -6.724457e+000 -5.634234e+000 6.703961e-001 -1.080182e+001 5.514122e+000 -1.510450e+000 1.200604e-001 -1.096342e+001 1.444249e+001 5.999738e-001 -2.019435e-001 -3.663008e-001 4.958106e-001 9.493744e-001 4.043548e-001 -1.599300e+000 -1.254349e+000 1.590457e-001 1.278517e-001 4.890226e-001 -6.217690e-001 -1.623245e-001 -1.434463e-002
<VARIANCE> 25
 5.570843e+000 1.026771e+001 1.756051e+001 3.640434e+001 3.294438e+001 6.597787e+001 8.146087e+001 1.440553e+001 1.552197e+001 1.787113e+001 4.864367e+001 1.424945e+001 9.192599e-001 1.032419e+000 1.228242e+000 1.377472e+000 3.971997e+000 2.470709e+000 3.542958e+000 1.189653e+000 2.305934e+000 1.224453e+000 3.429496e+000 1.485539e+000 1.153833e+000
<GCONST> 9.037759e+001
<STATE> 4
<MEAN> 25
 1.031265e+001 -7.789860e+000 2.653259e-002 2.621377e+000 -8.221059e-002 -1.996786e+001 2.143501e+000 -2.784320e-001 -1.917579e+000 -8.186760e+000 4.935111e+000 1.100364e+000 -1.730371e+000 1.751055e+000 1.378540e+000 7.331652e-001 6.718853e-001 1.207303e+000 1.464580e+000 1.372011e-001 -2.415370e+000 1.335312e+000 -9.635622e-001 9.479748e-001 -1.065487e+000
<VARIANCE> 25
 2.086847e+001 1.755195e+001 3.946903e+001 5.365180e+001 2.214906e+001 2.237019e+001 4.062453e+001 1.509808e+001 2.167993e+001 9.057824e+000 2.973978e+001 8.650188e+000 3.669204e+000 1.774871e+000 8.913751e-001 6.982983e-001 7.576090e+000 1.240253e+000 2.370770e+000 1.496025e+000 8.983761e-001 2.736058e+000 1.500725e+000 3.541763e-001 1.789753e-001
<GCONST> 8.641569e+001
<TRANSP> 5
 0.000000e+000 1.000000e+000 0.000000e+000 0.000000e+000 0.000000e+000
 0.000000e+000 8.255061e-001 1.744939e-001 0.000000e+000 0.000000e+000
 0.000000e+000 0.000000e+000 9.099458e-001 9.005417e-002 0.000000e+000
 0.000000e+000 0.000000e+000 0.000000e+000 4.483092e-001 5.516908e-001
 0.000000e+000 0.000000e+000 0.000000e+000 0.000000e+000 0.000000e+000
<ENDHMM>
~h "sh"
<BEGINHMM>
<NUMSTATES> 5
<STATE> 2
<MEAN> 25
 -4.878841e+000 -1.736934e+000 1.170834e+001 1.796137e+000 -2.365300e+000 -9.395813e+000 2.318557e+000 3.389512e+000 -1.461517e+000 -4.111677e+000 3.687803e+000 -1.603429e+000 -3.000043e+000 4.860657e-001 1.087907e+000 -8.669495e-001 6.501166e-001 1.641880e+000 1.278474e-001 3.958702e-001 9.030064e-001 1.556673e-001 3.214239e-001 1.915464e-001 8.009266e-001
<VARIANCE> 25
 5.633754e+001 2.781266e+001 6.079063e+001 3.800149e+001 4.807937e+001 5.323837e+001 3.316314e+001 2.438952e+001 4.075983e+001 2.149697e+001 2.265497e+001 1.388662e+001 6.873635e+000 1.386141e+000 3.188700e+000 2.154923e+000 3.968594e+000 4.107252e+000 2.571913e+000 2.660600e+000 2.049774e+000 1.959749e+000 4.072071e+000 1.569030e+000 3.585168e+000
<GCONST> 1.015369e+002
<STATE> 3
<MEAN> 25
 -1.934729e+001 -1.009508e+000 1.705674e+001 -2.941173e-001 -1.994306e+000 -1.799256e+000 2.594218e+000 3.382759e+000 3.056468e+000 -2.420781e+000 5.144229e+000 1.909582e+000 -1.235987e+000 -5.645295e-001 -1.407585e-001 -2.025378e-001 -4.502818e-001 1.357838e-001 3.272046e-001 2.203021e-003 6.641459e-001 4.105181e-001 3.053533e-001 4.574211e-001 -5.463668e-002
<VARIANCE> 25
 1.393002e+001 1.151732e+001 1.688876e+001 2.355634e+001 4.700676e+001 3.056431e+001 3.576643e+001 2.332685e+001 2.209378e+001 2.671554e+001 2.354856e+001 1.718895e+001 4.996714e+000 7.306903e-001 1.579973e+000 2.515546e+000 2.062675e+000 2.806988e+000 1.982508e+000 2.477421e+000 2.138239e+000 2.635132e+000 2.436115e+000 1.366883e+000 8.206578e-001
<GCONST> 9.214829e+001
<STATE> 4
<MEAN> 25
 -9.442700e+000 -4.962709e+000 1.106979e+001 2.407603e+000 -2.736135e+000 -4.299325e+000 2.982257e+000 4.581460e+000 5.171200e+000 -1.143506e+000 4.192326e-001 2.533099e+000 2.790040e+000 -4.225730e-001 -1.553860e+000 1.882238e-001 1.221051e-001 -9.171857e-001 -1.543485e-001 -4.275896e-001 -2.961455e-001 6.709192e-002 -9.516230e-001 -4.663196e-001 -4.144801e-001
<VARIANCE> 25
 1.435089e+002 1.230979e+001 3.687097e+001 3.504313e+001 2.073162e+001 5.669451e+001 4.980223e+001 1.997572e+001 2.909807e+001 2.167868e+001 7.193555e+001 1.744719e+001 9.362528e+000 1.527121e+000 3.335632e+000 2.130584e+000 1.266670e+000 5.840384e+000 4.947542e+000 2.804946e+000 2.627220e+000 3.894149e+000 3.046403e+000 2.031516e+000 2.708282e+000
<GCONST> 1.025387e+002
<TRANSP> 5
 0.000000e+000 1.000000e+000 0.000000e+000 0.000000e+000 0.000000e+000
 0.000000e+000 7.876553e-001 2.123447e-001 0.000000e+000 0.000000e+000
 0.000000e+000 0.000000e+000 7.941561e-001 2.058438e-001 0.000000e+000
 0.000000e+000 0.000000e+000 0.000000e+000 8.640206e-001 1.359794e-001
 0.000000e+000 0.000000e+000 0.000000e+000 0.000000e+000 0.000000e+000
<ENDHMM>
~h "th"
<BEGINHMM>
<NUMSTATES> 5
<STATE> 2
<MEAN> 25
 -2.684816e+000 -1.458922e+000 -2.303681e+000 -4.803686e+000 3.766994e+000 -1.212360e+000 6.199798e+000 -5.487835e-001 1.505333e+000 -6.144421e-003 2.620104e+000 9.522944e-001 4.613664e-001 -2.849379e-001 -4.111522e-001 -7.062896e-001 -3.047229e-001 -7.808989e-002 1.053633e+000 5.700643e-002 7.598394e-001 -2.895232e-001 -1.737878e-001 2.246986e-001 3.868487e-001
<VARIANCE> 25
 8.919024e+001 4.073358e+001 3.253183e+001 3.341341e+001 5.759294e+001 3.858022e+001 6.487762e+001 3.300872e+001 2.427126e+001 1.498136e+001 1.862987e+001 3.293711e+001 1.034283e+001 3.836348e+000 1.682263e+000 1.954371e+000 4.332318e+000 4.411090e+000 5.055373e+000 3.812294e+000 1.866224e+000 2.566641e+000 1.601468e+000 1.620293e+000 2.016390e+000
<GCONST> 1.028281e+002
<STATE> 3
<MEAN> 25
 -5.674425e+000 -1.137641e+000 -2.730040e+000 -3.097317e+000 7.309134e+000 1.323146e+000 5.392657e+000 1.783436e+000 3.417143e+000 3.310522e+000 3.026139e+000 2.762213e+000 -3.182741e-001 7.379106e-002 -3.117949e-002 3.350081e-001 2.007019e-001 6.375790e-002 -4.655577e-001 3.312213e-001 -3.684289e-002 1.769782e-001 8.487201e-002 3.512068e-002 -4.632720e-001
<VARIANCE> 25
 9.968230e+001 2.645641e+001 1.453069e+001 5.533356e+001 4.854344e+001 9.954172e+001 3.701184e+001 4.920107e+001 4.339145e+001 4.588341e+001 2.175858e+001 3.435088e+001 4.627768e+000 2.663615e+000 1.633388e+000 1.729271e+000 2.888661e+000 3.214343e+000 2.061193e+000 3.629574e+000 4.852018e+000 3.355130e+000 2.128709e+000 2.751693e+000 1.789794e+000
<GCONST> 1.036479e+002
<STATE> 4
<MEAN> 25
 -2.867922e+000 -1.396423e-002 2.327090e+000 -1.388920e-001 3.246589e+000 -7.898499e+000 5.380023e+000 5.309095e-001 2.908910e+000 -4.997643e+000 4.843594e+000 8.562691e-001 6.462272e-001 6.331261e-002 3.534964e-002 1.632347e-001 -3.333256e-001 -3.017476e-001 -1.339777e-001 -3.764855e-001 -7.230090e-002 -2.141803e-001 -6.959683e-002 -3.131697e-001 -7.571603e-002
<VARIANCE> 25
 1.006915e+002 2.589943e+001 6.560835e+001 5.230281e+001 9.660052e+001 8.341108e+001 4.249677e+001 3.013764e+001 3.356495e+001 8.161214e+001 2.100022e+001 2.400183e+001 6.557011e+000 1.727256e+000 1.654638e+000 1.349850e+000 3.079572e+000 2.848881e+000 2.185697e+000 2.712529e+000 2.784277e+000 4.070439e+000 1.800120e+000 1.877723e+000 1.285101e+000
<GCONST> 1.033203e+002
<TRANSP> 5
 0.000000e+000 1.000000e+000 0.000000e+000 0.000000e+000 0.000000e+000
 0.000000e+000 7.649930e-001 2.350070e-001 0.000000e+000 0.000000e+000
 0.000000e+000 0.000000e+000 8.574934e-001 1.425066e-001 0.000000e+000
 0.000000e+000 0.000000e+000 0.000000e+000 8.071840e-001 1.928160e-001
 0.000000e+000 0.000000e+000 0.000000e+000 0.000000e+000 0.000000e+000
<ENDHMM>
~h "uh"
<BEGINHMM>
<NUMSTATES> 5
<STATE> 2
<MEAN> 25
 7.951160e+000 -2.526935e+000 -1.249421e+000 -9.035611e+000 -2.142574e+000 -3.924377e-001 4.333508e+000 -7.042428e+000 5.405573e-001 -8.892084e+000 1.459941e+001 4.334858e+000 5.611542e-001 4.318971e-001 -5.735884e-001 -1.779421e+000 -9.846264e-001 7.417454e-001 1.115961e+000 -1.966033e+000 1.550841e+000 -4.031360e-001 7.818566e-001 -2.605820e-001 2.373574e+000
<VARIANCE> 25
 1.154120e+001 1.589656e+001 1.440277e+001 2.185522e+001 1.723702e+001 7.229345e+001 5.610168e+001 3.843394e+001 2.372525e+001 5.171099e+001 1.213247e+001 4.761456e+001 1.666721e+000 1.832836e+000 3.212776e+000 2.710301e+000 5.159158e+000 2.977386e+000 4.458127e+000 5.949759e+000 3.751855e+000 7.022296e+000 3.641265e+000 7.346559e-001 3.492802e+000
<GCONST> 9.998279e+001
<STATE> 3
<MEAN> 25
 7.386108e+000 -4.467560e-001 -1.494645e+000 -1.102345e+001 -3.731466e+000 1.591429e+000 5.829123e+000 -8.417290e+000 -3.088221e-001 -8.440956e+000 1.298693e+001 4.511423e+000 -1.283838e-001 8.943146e-002 -7.159275e-001 -2.536983e-001 7.702843e-001 4.292703e-001 -1.016990e-001 3.331144e-001 -8.993490e-001 7.985029e-001 -8.597994e-001 -2.621543e-001 -7.640345e-002
<VARIANCE> 25
 2.548686e+000 1.985836e+001 7.176915e+000 1.849546e+001 2.758260e+001 5.188851e+001 2.996555e+001 2.134558e+001 3.143936e+001 6.824752e+001 1.806602e+001 4.035295e+001 4.320512e-001 8.538976e-001 1.292628e+000 5.252379e-001 1.996976e+000 2.319833e+000 3.050603e+000 3.551535e+000 2.333481e+000 1.024765e+000 3.401852e+000 1.029888e+000 2.877249e+000
<GCONST> 8.846349e+001
<STATE> 4
<MEAN> 25
